{"type":"RNN","options":{"inputSize":8,"inputRange":8,"hiddenSizes":[20,20],"outputSize":8,"learningRate":0.01,"decayRate":0.999,"smoothEps":1e-8,"regc":0.000001,"clipval":5,"json":null,"dataFormatter":{"values":[["0","1","1","1"],["1","0","1","1"],["1","1","0","1"],["1","1","1","0"],["a"],["b"],["c"],["d"]],"indexTable":{"0":0,"1":1,"a":2,"b":3,"c":4,"d":5,"stop-input":6,"start-output":7},"characterTable":{"0":"0","1":"1","2":"a","3":"b","4":"c","5":"d","6":"stop-input","7":"start-output"},"characters":["0","1","a","b","c","d","stop-input","start-output"]}},"input":{"rows":9,"columns":8,"weights":{"0":-0.0863923504948616,"1":-0.029246916994452477,"2":-0.3242424726486206,"3":0.09235884994268417,"4":-0.18866752088069916,"5":0.030991777777671814,"6":0.0017734195571392775,"7":0.07119552791118622,"8":0.264375239610672,"9":0.10728128254413605,"10":-0.5153101086616516,"11":-0.5699405670166016,"12":0.12903405725955963,"13":-0.11919566243886948,"14":0.26814085245132446,"15":0.017353283241391182,"16":-0.2398553192615509,"17":-0.1492558717727661,"18":0.07163114845752716,"19":-0.030025215819478035,"20":0.13220906257629395,"21":0.22960612177848816,"22":-0.20290876924991608,"23":0.15570783615112305,"24":-3.8841969966888428,"25":-0.9558635950088501,"26":-0.45097166299819946,"27":0.3677285313606262,"28":2.485579252243042,"29":-2.847130060195923,"30":2.8985612392425537,"31":-2.8682165145874023,"32":-2.8238048553466797,"33":-0.3524917662143707,"34":0.605061948299408,"35":-2.4106717109680176,"36":2.9368226528167725,"37":-3.600241184234619,"38":3.6798415184020996,"39":-3.8167028427124023,"40":0.6604582071304321,"41":-1.6608651876449585,"42":0.32297396659851074,"43":-3.818723678588867,"44":3.3342700004577637,"45":-3.224283456802368,"46":3.288818120956421,"47":-3.1188714504241943,"48":-1.8021161556243896,"49":-2.497903823852539,"50":3.3830361366271973,"51":-1.0725016593933105,"52":2.343479871749878,"53":-3.365572690963745,"54":3.1637964248657227,"55":-3.3012735843658447,"56":-0.775550127029419,"57":-0.5386625528335571,"58":0.22631283104419708,"59":0.6560946106910706,"60":0.9756580591201782,"61":-1.0147926807403564,"62":1.18217134475708,"63":-0.9242165684700012,"64":-0.9121854305267334,"65":-0.27726566791534424,"66":-0.0776442289352417,"67":0.09716428071260452,"68":0.007143499795347452,"69":-0.726269006729126,"70":0.7542501091957092,"71":-0.6518743634223938}},"hiddenLayers":[{"weight":{"rows":20,"columns":8,"weights":{"0":0.9652382135391235,"1":0.0008557645487599075,"2":0.6550014019012451,"3":0.08712603896856308,"4":0.024690276011824608,"5":0.1194130927324295,"6":-0.10555313527584076,"7":0.16356271505355835,"8":0.2691309154033661,"9":1.095741629600525,"10":-0.3400796949863434,"11":-0.17496170103549957,"12":-0.9548704028129578,"13":0.6795917749404907,"14":-0.6474776268005371,"15":0.7574322819709778,"16":-1.3432501554489136,"17":-0.028236916288733482,"18":-0.25640881061553955,"19":0.6007553935050964,"20":-0.048949722200632095,"21":-0.27948835492134094,"22":0.43458372354507446,"23":-0.4055519998073578,"24":-0.34835895895957947,"25":0.027018452063202858,"26":0.4461348354816437,"27":0.012986891902983189,"28":0.06380894780158997,"29":-0.029872464016079903,"30":0.07577680796384811,"31":-0.06270182877779007,"32":0.477346807718277,"33":-0.05470399558544159,"34":-0.1197798103094101,"35":-0.5630740523338318,"36":0.12027629464864731,"37":0.013598104007542133,"38":-0.1652580350637436,"39":-0.22460076212882996,"40":0.4788699150085449,"41":0.17129775881767273,"42":0.49314260482788086,"43":-0.057711027562618256,"44":0.0894244909286499,"45":-0.012112600728869438,"46":0.23054400086402893,"47":0.08629804104566574,"48":0.5204525589942932,"49":-0.08462385833263397,"50":0.41431567072868347,"51":-0.10890354961156845,"52":0.06864107400178909,"53":0.07177391648292542,"54":-0.27488023042678833,"55":-0.15604552626609802,"56":-1.2170108556747437,"57":-0.8075461387634277,"58":0.33086952567100525,"59":0.7150322198867798,"60":1.438669204711914,"61":-2.106579542160034,"62":2.1141862869262695,"63":-2.1401970386505127,"64":0.05002976953983307,"65":0.650474488735199,"66":-0.23275324702262878,"67":0.17234420776367188,"68":-0.46650925278663635,"69":-0.055479396134614944,"70":-0.11343221366405487,"71":-0.02677144482731819,"72":-0.5425233244895935,"73":0.19575618207454681,"74":-0.3921210765838623,"75":0.014389574527740479,"76":-0.43098416924476624,"77":1.170137643814087,"78":-1.1935608386993408,"79":0.9076798558235168,"80":0.9902818202972412,"81":0.09229633957147598,"82":0.15308037400245667,"83":-0.20495742559432983,"84":-0.07176841795444489,"85":-0.04116722196340561,"86":0.07521969825029373,"87":0.06684829294681549,"88":0.9299193024635315,"89":0.2237395942211151,"90":0.4798368215560913,"91":-0.020940588787198067,"92":0.18972553312778473,"93":0.1506546139717102,"94":-0.15590041875839233,"95":0.3623182475566864,"96":0.5043879747390747,"97":1.1062155961990356,"98":0.2965531051158905,"99":0.46466347575187683,"100":0.7729030251502991,"101":-0.6964870691299438,"102":0.921224057674408,"103":-0.6145591139793396,"104":0.6067253351211548,"105":-0.5793538689613342,"106":0.5708567500114441,"107":0.2214566022157669,"108":0.26234370470046997,"109":0.24901100993156433,"110":-0.38893193006515503,"111":0.1296752542257309,"112":-1.597324252128601,"113":-0.691355288028717,"114":0.10811126232147217,"115":0.8683652281761169,"116":1.0565770864486694,"117":-2.0463390350341797,"118":1.932452917098999,"119":-1.8568472862243652,"120":0.12790125608444214,"121":-0.026991622522473335,"122":0.035311512649059296,"123":0.11067913472652435,"124":-0.11716911196708679,"125":0.10247965157032013,"126":-0.09149151295423508,"127":0.2772722542285919,"128":0.23623625934123993,"129":0.9195523858070374,"130":-0.6574232578277588,"131":-0.9952861666679382,"132":1.0113592147827148,"133":-1.6218739748001099,"134":1.9643845558166504,"135":-1.3970671892166138,"136":0.21167504787445068,"137":0.05298025533556938,"138":0.607752799987793,"139":-0.1634547859430313,"140":-0.03423505648970604,"141":-0.21481862664222717,"142":0.0286122914403677,"143":-0.5419931411743164,"144":0.3913137912750244,"145":0.38160157203674316,"146":-0.3728145956993103,"147":-0.06438440084457397,"148":-0.4124412536621094,"149":0.5085040926933289,"150":-0.5308264493942261,"151":0.5532446503639221,"152":-1.2141661643981934,"153":0.11209537833929062,"154":-0.39648333191871643,"155":0.23078565299510956,"156":-0.43534645438194275,"157":0.24819864332675934,"158":-0.2771134674549103,"159":0.37548843026161194}},"transition":{"rows":20,"columns":20,"weights":{"0":0.3268637955188751,"1":-0.33181339502334595,"2":-0.20181939005851746,"3":-0.04151202365756035,"4":-0.0683433935046196,"5":0.3074100613594055,"6":0.19550062716007233,"7":-0.07597572356462479,"8":-0.18612825870513916,"9":-0.8894851207733154,"10":0.3162457346916199,"11":0.30415549874305725,"12":-0.03346807137131691,"13":0.24655331671237946,"14":-0.3674207329750061,"15":0.07579512149095535,"16":-0.6078668832778931,"17":-0.2777539789676666,"18":-0.358707070350647,"19":-0.21541133522987366,"20":-0.6467199921607971,"21":-0.2750919759273529,"22":-1.2734187841415405,"23":0.007598601747304201,"24":-0.993232786655426,"25":-0.801930844783783,"26":-0.9334494471549988,"27":-0.232085719704628,"28":0.13634686172008514,"29":-0.6171427369117737,"30":-0.5070735812187195,"31":-0.3652211129665375,"32":0.4600905478000641,"33":-0.3432101905345917,"34":-0.4194867014884949,"35":-0.027138834819197655,"36":0.09380683302879333,"37":-0.3338148891925812,"38":-0.5969956517219543,"39":-0.3521837294101715,"40":-0.5180713534355164,"41":0.20226308703422546,"42":-0.24809153378009796,"43":0.41511479020118713,"44":0.22195947170257568,"45":-0.7096566557884216,"46":-0.4430127441883087,"47":0.8919512629508972,"48":-0.7140623331069946,"49":-0.2793794572353363,"50":-0.7167973518371582,"51":-0.2441081553697586,"52":0.8737064003944397,"53":-0.7894433736801147,"54":0.8638615012168884,"55":-0.05701446160674095,"56":-0.21553701162338257,"57":-0.34306564927101135,"58":-0.030498599633574486,"59":-0.15052366256713867,"60":-0.1933092176914215,"61":-0.05894000083208084,"62":-0.5070790648460388,"63":-0.5301152467727661,"64":-0.6446200013160706,"65":-0.3396584689617157,"66":-0.2717996835708618,"67":-0.07489849627017975,"68":-0.06649697571992874,"69":0.028709985315799713,"70":-0.33633241057395935,"71":-0.2819984555244446,"72":-0.3480015993118286,"73":-0.23787079751491547,"74":-0.08243702352046967,"75":0.022993752732872963,"76":-0.5562629699707031,"77":-0.06886094063520432,"78":-0.5580044984817505,"79":-0.26294830441474915,"80":-0.28300660848617554,"81":-0.5128999352455139,"82":-1.6458590030670166,"83":-0.21806439757347107,"84":0.3019045293331146,"85":-0.18805374205112457,"86":-0.21763940155506134,"87":-0.46804279088974,"88":-0.5560998916625977,"89":-0.5277851819992065,"90":-0.13316522538661957,"91":-0.22656573355197906,"92":-0.48143109679222107,"93":-0.2905116677284241,"94":-0.8724696040153503,"95":0.06003504619002342,"96":0.452243834733963,"97":-0.11857423186302185,"98":0.5625762343406677,"99":0.5912967920303345,"100":0.35308292508125305,"101":-0.026189513504505157,"102":-0.08443773537874222,"103":-0.033162862062454224,"104":-0.0738966315984726,"105":0.24236227571964264,"106":0.30968189239501953,"107":-0.18722324073314667,"108":-0.703598141670227,"109":-0.9942896962165833,"110":0.3349544405937195,"111":0.2615565359592438,"112":-0.04423096030950546,"113":0.2541891634464264,"114":-0.38607344031333923,"115":0.03118905983865261,"116":-0.4486468732357025,"117":0.022898521274328232,"118":-0.2943919003009796,"119":-0.19391846656799316,"120":0.2810955047607422,"121":-0.19494964182376862,"122":-0.5344418287277222,"123":-0.0790940448641777,"124":0.05513051152229309,"125":0.14892655611038208,"126":0.23265065252780914,"127":-0.09281366318464279,"128":-0.918156623840332,"129":-1.3729897737503052,"130":0.23577521741390228,"131":0.2726356089115143,"132":-0.19258208572864532,"133":0.1683632880449295,"134":-0.4170759916305542,"135":0.048872943967580795,"136":-0.44804614782333374,"137":0.04829471930861473,"138":-0.15517784655094147,"139":-0.15483497083187103,"140":-0.20655231177806854,"141":0.18661493062973022,"142":1.3859174251556396,"143":0.3258550763130188,"144":-0.10655563324689865,"145":0.21885541081428528,"146":0.1767452359199524,"147":0.12360536307096481,"148":-0.41294291615486145,"149":-0.4832683205604553,"150":-0.4156879186630249,"151":-0.3116724193096161,"152":-0.13352181017398834,"153":0.4275031089782715,"154":0.3630498945713043,"155":0.03766316547989845,"156":0.3958800435066223,"157":-0.5970536470413208,"158":0.5479503870010376,"159":-0.6646122932434082,"160":-0.6810293793678284,"161":0.28172528743743896,"162":-1.050102949142456,"163":0.04230785369873047,"164":-0.785060703754425,"165":-0.6346766352653503,"166":-0.6813147664070129,"167":-0.14932382106781006,"168":-0.13970963656902313,"169":-0.34552568197250366,"170":-0.38203126192092896,"171":-0.42967694997787476,"172":-0.021311189979314804,"173":-0.6495974659919739,"174":0.325294554233551,"175":-0.005209468770772219,"176":-0.4568127393722534,"177":-0.03422347828745842,"178":-0.43678030371665955,"179":-0.6055842638015747,"180":-0.5617087483406067,"181":-0.9974926114082336,"182":0.03908869996666908,"183":-0.37652745842933655,"184":-0.7014845609664917,"185":-0.5505006909370422,"186":-0.314258873462677,"187":-0.3460122346878052,"188":0.13796010613441467,"189":-0.9224936962127686,"190":-0.36153921484947205,"191":-0.24136126041412354,"192":-0.35412395000457764,"193":-0.5421989560127258,"194":0.040313396602869034,"195":-0.05107611045241356,"196":-0.30879244208335876,"197":-0.07757315039634705,"198":-1.0454463958740234,"199":-0.17734453082084656,"200":0.2569025754928589,"201":-0.14319102466106415,"202":-0.3115789592266083,"203":-0.15271513164043427,"204":0.20722384750843048,"205":0.2466382384300232,"206":0.22056742012500763,"207":-0.054607417434453964,"208":-1.115198016166687,"209":-1.0107762813568115,"210":0.19722697138786316,"211":0.314606249332428,"212":-0.20614489912986755,"213":0.21871618926525116,"214":-0.17528791725635529,"215":0.03676304966211319,"216":-0.812580943107605,"217":0.20330189168453217,"218":-0.22510024905204773,"219":0.024553563445806503,"220":0.3607702851295471,"221":-0.17614731192588806,"222":-0.018673693761229515,"223":-0.11888550221920013,"224":0.07873864471912384,"225":0.358556866645813,"226":0.19651490449905396,"227":-0.03286873176693916,"228":-0.3214085102081299,"229":-0.7897011041641235,"230":0.2926502525806427,"231":0.31207847595214844,"232":0.07326962798833847,"233":0.3346933126449585,"234":-0.3519301116466522,"235":0.03092704340815544,"236":-0.4052404761314392,"237":0.028955819085240364,"238":-0.2693306505680084,"239":-0.13728290796279907,"240":-0.693085253238678,"241":0.022380733862519264,"242":-0.1962391436100006,"243":0.3178866505622864,"244":-0.5319445133209229,"245":-0.8308345675468445,"246":-0.45770588517189026,"247":-0.1314181089401245,"248":0.20642898976802826,"249":-0.2155470997095108,"250":-0.8223398923873901,"251":-0.6382865309715271,"252":-0.6712506413459778,"253":-0.46361052989959717,"254":-0.9610573053359985,"255":0.05451131612062454,"256":-0.7664531469345093,"257":0.06892398744821548,"258":0.15460771322250366,"259":-1.0190759897232056,"260":0.05782076716423035,"261":-0.5715821385383606,"262":-0.23866796493530273,"263":-0.06553496420383453,"264":-0.3196767568588257,"265":-0.07861879467964172,"266":0.020971830934286118,"267":0.04869833588600159,"268":-0.13510338962078094,"269":-0.8665745258331299,"270":0.19181111454963684,"271":0.062403563410043716,"272":0.5925047397613525,"273":0.2621315121650696,"274":-0.37746158242225647,"275":0.029898012056946754,"276":-0.9187215566635132,"277":0.0739775076508522,"278":-0.3363892734050751,"279":-0.0017969635082408786,"280":-0.5289955139160156,"281":0.018846571445465088,"282":1.3103975057601929,"283":0.33886563777923584,"284":-0.21444430947303772,"285":-0.32783183455467224,"286":0.08263899385929108,"287":0.8653521537780762,"288":-0.4421725273132324,"289":-0.7991439700126648,"290":-0.5193463563919067,"291":-0.4678034484386444,"292":0.47340095043182373,"293":-0.5576950311660767,"294":1.159104824066162,"295":0.007609907072037458,"296":0.5173492431640625,"297":-0.27531352639198303,"298":0.22618994116783142,"299":-0.44415560364723206,"300":-0.020260201767086983,"301":-0.006871757097542286,"302":-0.02308756113052368,"303":-0.054692354053258896,"304":0.05863388627767563,"305":-0.07385008782148361,"306":0.07863498479127884,"307":-0.27817168831825256,"308":-0.0029610744677484035,"309":-0.06749829649925232,"310":0.04676298797130585,"311":0.01659734919667244,"312":-0.029230080544948578,"313":-0.06541857123374939,"314":-0.26690569519996643,"315":-0.017629463225603104,"316":-0.27334627509117126,"317":0.024515412747859955,"318":-0.196965292096138,"319":-0.05259973928332329,"320":0.11819478124380112,"321":0.002332680393010378,"322":0.7003954648971558,"323":0.3393881916999817,"324":-0.10250850021839142,"325":-0.18212971091270447,"326":0.021232517436146736,"327":0.46699199080467224,"328":-0.3507441282272339,"329":0.1051732525229454,"330":-0.2595025599002838,"331":0.4833489954471588,"332":1.4807292222976685,"333":0.06817750632762909,"334":0.46442267298698425,"335":0.009851198643445969,"336":-0.2634069323539734,"337":-0.2631525695323944,"338":0.34731951355934143,"339":0.36431601643562317,"340":-0.39942148327827454,"341":-0.48954349756240845,"342":-0.30403512716293335,"343":-0.03350445255637169,"344":-0.6120010018348694,"345":0.0009723911061882973,"346":-0.2765637934207916,"347":-0.35762935876846313,"348":-0.00837986171245575,"349":-0.04124592989683151,"350":-0.3343258798122406,"351":0.06214062124490738,"352":0.017913037911057472,"353":-0.3189599812030792,"354":-0.3241698741912842,"355":0.06231897696852684,"356":-0.26204365491867065,"357":-0.053613513708114624,"358":-0.593178391456604,"359":-0.06650634855031967,"360":0.20906010270118713,"361":-0.6096341013908386,"362":-0.29631391167640686,"363":-0.047974057495594025,"364":0.670928955078125,"365":0.257561057806015,"366":0.08370836079120636,"367":0.030176836997270584,"368":-0.7138176560401917,"369":-0.1506456434726715,"370":0.16603751480579376,"371":0.6119413375854492,"372":-0.06925259530544281,"373":0.29484301805496216,"374":-0.3031512200832367,"375":0.05064238980412483,"376":0.4316466748714447,"377":-0.05063541978597641,"378":0.6356798410415649,"379":0.6613089442253113,"380":0.16513434052467346,"381":-0.29026690125465393,"382":0.21229784190654755,"383":-0.27790528535842896,"384":0.8542309999465942,"385":0.22586825489997864,"386":0.11661899089813232,"387":0.07030296325683594,"388":0.5347931385040283,"389":0.15267544984817505,"390":0.38114017248153687,"391":-0.5075782537460327,"392":0.1087343767285347,"393":0.5469388961791992,"394":-0.08565503358840942,"395":0.016661588102579117,"396":-1.8005497455596924,"397":0.45360803604125977,"398":-0.24856485426425934,"399":0.9894744157791138}},"bias":{"rows":20,"columns":1,"weights":{"0":0.3241444230079651,"1":0.48550307750701904,"2":0.03018146939575672,"3":-0.12565506994724274,"4":0.29732292890548706,"5":0.18376249074935913,"6":0.27420946955680847,"7":-0.01051412709057331,"8":0.3131544888019562,"9":0.00304183317348361,"10":0.4021108150482178,"11":-0.015272931195795536,"12":-0.14763246476650238,"13":0.317501962184906,"14":-0.19929984211921692,"15":-0.2905161678791046,"16":-0.01644941233098507,"17":-0.09452428668737411,"18":0.0007221006671898067,"19":0.2476014941930771}}},{"weight":{"rows":20,"columns":20,"weights":{"0":0.26251116394996643,"1":-0.4891758859157562,"2":-0.677990198135376,"3":-0.1621364802122116,"4":-0.07290246337652206,"5":0.3022339344024658,"6":0.24132958054542542,"7":-0.569466233253479,"8":-0.826074481010437,"9":-0.8790408372879028,"10":0.2717333436012268,"11":0.20726871490478516,"12":1.3251254558563232,"13":0.19603890180587769,"14":-1.2126809358596802,"15":-0.036540936678647995,"16":1.5912264585494995,"17":0.02254975400865078,"18":-0.33052515983581543,"19":0.119801364839077,"20":-0.13758839666843414,"21":-0.16741043329238892,"22":-1.4717226028442383,"23":-0.37979525327682495,"24":0.616077184677124,"25":0.003726341063156724,"26":0.14169694483280182,"27":-1.5313189029693604,"28":-0.06724420934915543,"29":-0.1025220975279808,"30":0.4676660895347595,"31":0.009136194363236427,"32":-0.1345171332359314,"33":-0.8518354892730713,"34":-0.6828071475028992,"35":-0.10432900488376617,"36":-1.327103614807129,"37":0.010717013850808144,"38":0.3347056210041046,"39":0.34277060627937317,"40":-0.37854671478271484,"41":-0.30019325017929077,"42":-0.3769693970680237,"43":-0.34937894344329834,"44":-0.15893417596817017,"45":-0.26180461049079895,"46":-0.2968047261238098,"47":0.016505496576428413,"48":-0.050296757370233536,"49":-0.2839858829975128,"50":-0.355129212141037,"51":-0.3321468234062195,"52":-0.28462937474250793,"53":-0.2920292615890503,"54":-0.06782091408967972,"55":0.07255350798368454,"56":-0.5984640717506409,"57":-0.05349639430642128,"58":0.2190769612789154,"59":-0.38523977994918823,"60":-0.17323309183120728,"61":-0.6849747896194458,"62":-1.3621877431869507,"63":-0.2872447371482849,"64":-0.9803844094276428,"65":-0.2931234538555145,"66":-0.4955451488494873,"67":-0.4495966136455536,"68":-0.0012337691150605679,"69":-0.28412723541259766,"70":-0.4710872173309326,"71":-0.07979919761419296,"72":-0.15052536129951477,"73":-0.15092380344867706,"74":-0.994199275970459,"75":0.06724576652050018,"76":-0.5892432332038879,"77":0.04599788412451744,"78":-0.39370909333229065,"79":-0.600576639175415,"80":-0.5892070531845093,"81":-0.06943652778863907,"82":-0.12957951426506042,"83":-0.02265789732336998,"84":-0.7832744121551514,"85":-0.18030181527137756,"86":-0.9719287157058716,"87":-0.6447808742523193,"88":-0.9364949464797974,"89":-0.04479943960905075,"90":-1.28339421749115,"91":-0.619170069694519,"92":-0.3589594066143036,"93":-0.5006455779075623,"94":-0.2609008252620697,"95":-0.13449034094810486,"96":0.8105091452598572,"97":-0.04023490101099014,"98":-0.4538254141807556,"99":-0.09303022921085358,"100":-0.04753490909934044,"101":-0.06273825466632843,"102":-0.33339887857437134,"103":-0.1060638576745987,"104":-0.06961774080991745,"105":0.015821538865566254,"106":-0.04179263859987259,"107":-0.3643955588340759,"108":-0.015993153676390648,"109":-0.04811549186706543,"110":0.015993483364582062,"111":-0.048298612236976624,"112":-0.09988294541835785,"113":-0.0970599502325058,"114":-0.36771640181541443,"115":-0.013787182047963142,"116":-0.3604004979133606,"117":-0.006259597837924957,"118":-0.343347430229187,"119":0.045547354966402054,"120":0.014444121159613132,"121":0.07070205360651016,"122":-0.30702170729637146,"123":-0.07966596633195877,"124":-0.07477196305990219,"125":-0.029711980372667313,"126":-0.05595654621720314,"127":-0.30540937185287476,"128":-0.1387379765510559,"129":-0.03446811065077782,"130":0.004379842896014452,"131":0.04809928312897682,"132":-0.1211625188589096,"133":-0.05214553326368332,"134":-0.2627982497215271,"135":-0.10082507878541946,"136":-0.31303513050079346,"137":-0.08306530863046646,"138":-0.36348748207092285,"139":-0.37455692887306213,"140":0.060058511793613434,"141":-0.0019836409483104944,"142":-1.3841516971588135,"143":-0.24265660345554352,"144":1.127699851989746,"145":0.1678420603275299,"146":0.65615314245224,"147":-0.865999162197113,"148":-0.5076844096183777,"149":-0.0349121019244194,"150":0.46562284231185913,"151":-0.318345308303833,"152":-0.6363163590431213,"153":0.6703235507011414,"154":-0.7781614065170288,"155":0.013567818328738213,"156":-0.03736334666609764,"157":0.09016084671020508,"158":0.653677761554718,"159":-0.21823157370090485,"160":0.2670342028141022,"161":-0.6161319613456726,"162":-0.44413191080093384,"163":-0.18161456286907196,"164":-0.2949613928794861,"165":0.33583196997642517,"166":0.26588523387908936,"167":-0.9111068844795227,"168":-0.303160160779953,"169":-0.7221072912216187,"170":0.22746562957763672,"171":0.21907930076122284,"172":0.44702064990997314,"173":0.19281795620918274,"174":-1.1031965017318726,"175":0.020188918337225914,"176":-0.6026486754417419,"177":0.07079021632671356,"178":-0.55960613489151,"179":0.28102877736091614,"180":-0.04901178553700447,"181":-0.5720006227493286,"182":-0.7219051122665405,"183":0.019426308572292328,"184":-0.582735002040863,"185":-0.08435919880867004,"186":-0.004687653388828039,"187":-0.017951253801584244,"188":0.07997953146696091,"189":0.04633850231766701,"190":-0.10363627225160599,"191":0.006784745026379824,"192":-0.23343110084533691,"193":0.029359245672822,"194":-0.350699782371521,"195":0.08790720999240875,"196":-0.7656601071357727,"197":-0.06693516671657562,"198":0.08902803063392639,"199":-0.2548975646495819,"200":-0.18857748806476593,"201":-0.042775433510541916,"202":-0.006264622788876295,"203":-0.0904812291264534,"204":-0.15363897383213043,"205":0.03547956049442291,"206":-0.0510164238512516,"207":-0.029718467965722084,"208":-0.039923045784235,"209":-0.04946465417742729,"210":-0.016974568367004395,"211":-0.1449846625328064,"212":-0.07083957642316818,"213":0.01988023705780506,"214":-0.15015697479248047,"215":-0.05080108717083931,"216":-0.09376709908246994,"217":-0.027919942513108253,"218":-0.29255881905555725,"219":-0.18965409696102142,"220":-0.6037517786026001,"221":-0.3859609365463257,"222":0.44986090064048767,"223":0.2206803411245346,"224":-0.12435473501682281,"225":-0.557974100112915,"226":-0.29756173491477966,"227":0.8791225552558899,"228":-0.17331354320049286,"229":-0.49796029925346375,"230":-0.33993783593177795,"231":-0.5021618008613586,"232":1.503867506980896,"233":0.1327359974384308,"234":0.9086875915527344,"235":-0.008323722518980503,"236":0.8703128099441528,"237":-0.30002063512802124,"238":-0.026461662724614143,"239":-0.1566780060529709,"240":-0.13362722098827362,"241":-0.5636336803436279,"242":-0.4374083876609802,"243":0.18607410788536072,"244":-0.44363075494766235,"245":0.20657917857170105,"246":0.04955890029668808,"247":-1.0764901638031006,"248":0.14167648553848267,"249":-0.22714348137378693,"250":-0.6944132447242737,"251":-0.2977263033390045,"252":0.07396622002124786,"253":0.12991291284561157,"254":-0.8958325386047363,"255":-0.008902765810489655,"256":0.5842466354370117,"257":0.009284869767725468,"258":-0.2402975857257843,"259":-0.48398199677467346,"260":-0.5293205976486206,"261":-0.6780784130096436,"262":-0.889575719833374,"263":-0.28919821977615356,"264":1.2469426393508911,"265":-0.37432384490966797,"266":1.2266764640808105,"267":0.3634420335292816,"268":0.4670845568180084,"269":-0.21847008168697357,"270":0.4187658429145813,"271":-0.7294224500656128,"272":1.1991485357284546,"273":-1.4367226362228394,"274":0.2098136842250824,"275":0.03558411821722984,"276":0.27728208899497986,"277":0.2663065791130066,"278":0.7112347483634949,"279":-0.5753185153007507,"280":-0.8010159134864807,"281":0.47404199838638306,"282":-1.0035697221755981,"283":-0.04147045686841011,"284":-0.6647819876670837,"285":-0.4326311945915222,"286":-0.7586048245429993,"287":-0.5938903093338013,"288":-0.38157302141189575,"289":-0.1482217162847519,"290":-0.8360111117362976,"291":-0.4060755670070648,"292":0.2937207520008087,"293":0.10210338979959488,"294":-0.44856226444244385,"295":-0.055302899330854416,"296":-0.11699352413415909,"297":0.020765528082847595,"298":-1.0134731531143188,"299":-0.9880887866020203,"300":0.4363647997379303,"301":0.08667074143886566,"302":0.03628510609269142,"303":-0.14985083043575287,"304":0.04080706462264061,"305":0.35693851113319397,"306":0.32883623242378235,"307":-0.2086142897605896,"308":-0.06606613844633102,"309":-1.035718560218811,"310":0.23996862769126892,"311":0.3980828821659088,"312":1.1543868780136108,"313":0.24960948526859283,"314":-0.3797138035297394,"315":0.04754355177283287,"316":-0.3997769355773926,"317":0.059514667838811874,"318":-0.48064273595809937,"319":0.13024567067623138,"320":0.19308973848819733,"321":-0.6515470743179321,"322":-0.1768127679824829,"323":-0.29202285408973694,"324":-0.18738344311714172,"325":0.2561022639274597,"326":0.27565956115722656,"327":-0.5835415124893188,"328":-0.2852403223514557,"329":-0.7923932075500488,"330":0.2985180616378784,"331":0.3210008442401886,"332":0.36330151557922363,"333":0.14038285613059998,"334":-1.0239139795303345,"335":0.009036190807819366,"336":-0.286960244178772,"337":-0.07220225781202316,"338":-0.9065489172935486,"339":-0.010456708259880543,"340":0.0606316514313221,"341":-0.9501093029975891,"342":0.011437305249273777,"343":-0.024669557809829712,"344":-0.4546065926551819,"345":0.20784609019756317,"346":0.021702950820326805,"347":0.15758848190307617,"348":0.5983861088752747,"349":-0.14743994176387787,"350":0.07662186026573181,"351":0.18018659949302673,"352":-0.0437907874584198,"353":0.1339070200920105,"354":-0.028401456773281097,"355":-0.07563666254281998,"356":0.0711745172739029,"357":-0.01142857689410448,"358":-0.08761899918317795,"359":0.051993004977703094,"360":-0.138044074177742,"361":-1.7449626922607422,"362":-1.0912058353424072,"363":0.007476876024156809,"364":-0.28344568610191345,"365":-0.0032825139351189137,"366":0.021040834486484528,"367":-0.3854209780693054,"368":0.2841581702232361,"369":-0.17202836275100708,"370":-0.17829036712646484,"371":-0.02758820913732052,"372":-0.20830020308494568,"373":-0.2723497152328491,"374":-0.7926949858665466,"375":-0.07673124969005585,"376":-0.42701372504234314,"377":-0.28292322158813477,"378":0.24078373610973358,"379":0.029718803241848946,"380":0.24094624817371368,"381":-0.17874617874622345,"382":-0.5378089547157288,"383":-0.24760960042476654,"384":-0.584688663482666,"385":0.2256653606891632,"386":0.2902814745903015,"387":-0.3289884626865387,"388":-0.24219876527786255,"389":-0.9578312039375305,"390":0.35572531819343567,"391":0.2719878554344177,"392":0.32298725843429565,"393":0.2188347429037094,"394":-0.6678588390350342,"395":0.06043195724487305,"396":-0.6193995475769043,"397":0.05355265736579895,"398":-0.8974445462226868,"399":-0.033218447118997574}},"transition":{"rows":20,"columns":20,"weights":{"0":0.3000330328941345,"1":-0.07135805487632751,"2":-0.3402734696865082,"3":0.10550729185342789,"4":1.270053744316101,"5":0.0681900605559349,"6":-0.012655769474804401,"7":0.5870259404182434,"8":0.07602231204509735,"9":-0.3191644251346588,"10":-0.02253122441470623,"11":-1.329176902770996,"12":0.6013116836547852,"13":1.14751136302948,"14":-0.28961819410324097,"15":0.21317677199840546,"16":-0.021920081228017807,"17":0.1689530611038208,"18":-0.11574338376522064,"19":0.013123390264809132,"20":-1.305772066116333,"21":0.3105247914791107,"22":0.023774979636073112,"23":-0.8266603350639343,"24":-0.23356573283672333,"25":0.05304909870028496,"26":0.0035267947241663933,"27":1.371800422668457,"28":-0.4240820109844208,"29":0.14992575347423553,"30":-0.0459076464176178,"31":-0.549181342124939,"32":-0.20998872816562653,"33":-2.03254771232605,"34":0.1639576405286789,"35":-0.0706707015633583,"36":-0.2935149073600769,"37":0.06624103337526321,"38":0.1227143183350563,"39":0.2344764620065689,"40":-0.1526387482881546,"41":-0.3918847143650055,"42":-0.32653090357780457,"43":-0.0031415829434990883,"44":0.2923974394798279,"45":0.05178516358137131,"46":0.05712278559803963,"47":-0.3814689815044403,"48":0.012836760841310024,"49":-0.24181737005710602,"50":0.06153244525194168,"51":0.0728163868188858,"52":0.13809315860271454,"53":-0.277797132730484,"54":-0.051387444138526917,"55":0.02926924079656601,"56":-0.04076794534921646,"57":-0.39227294921875,"58":-0.3767656981945038,"59":-0.0793643668293953,"60":0.41925257444381714,"61":0.0985826849937439,"62":-0.3078959882259369,"63":0.14394252002239227,"64":-0.2661645710468292,"65":-0.004626808688044548,"66":-0.0540241003036499,"67":-0.35956424474716187,"68":-0.13629841804504395,"69":-0.14354640245437622,"70":-0.0712365061044693,"71":-0.3465600609779358,"72":0.19346369802951813,"73":0.2630864977836609,"74":0.013539628125727177,"75":0.3590397834777832,"76":-0.15072543919086456,"77":-0.1961304396390915,"78":-0.4070572555065155,"79":-0.1638524830341339,"80":-0.2443571388721466,"81":-0.700761616230011,"82":-0.28806254267692566,"83":-0.6105331182479858,"84":0.08059391379356384,"85":0.03083585388958454,"86":-0.033063098788261414,"87":0.28299564123153687,"88":-0.11091305315494537,"89":-0.5832424759864807,"90":0.07395808398723602,"91":0.06405244022607803,"92":0.044721607118844986,"93":-0.23623907566070557,"94":-0.5172260999679565,"95":-0.2297990769147873,"96":0.015531102195382118,"97":-0.338478147983551,"98":-0.5293655395507812,"99":-0.22840388119220734,"100":-0.3733932673931122,"101":0.038162533193826675,"102":-0.07056666910648346,"103":0.016975248232483864,"104":0.0588609054684639,"105":-0.013681892305612564,"106":0.013800226151943207,"107":0.016984539106488228,"108":0.05759385973215103,"109":0.04753408953547478,"110":-0.07150211185216904,"111":-0.2499822974205017,"112":0.05256294086575508,"113":-0.3238929510116577,"114":0.07237761467695236,"115":-0.3720845580101013,"116":-0.02265574224293232,"117":-0.18006908893585205,"118":0.0067658801563084126,"119":-0.046706415712833405,"120":-0.0662171021103859,"121":-0.0568867027759552,"122":0.05909838527441025,"123":-0.07835522294044495,"124":-0.0006965096690692008,"125":0.014264719560742378,"126":-0.11320297420024872,"127":-0.05155906453728676,"128":0.053416844457387924,"129":-0.06925803422927856,"130":0.015344108454883099,"131":-0.33298295736312866,"132":-0.052343159914016724,"133":-0.03917321562767029,"134":0.005448471754789352,"135":-0.02724805474281311,"136":-0.0339115746319294,"137":-0.04390065371990204,"138":-0.026386359706521034,"139":-0.01132400892674923,"140":0.5096985101699829,"141":0.2743871808052063,"142":0.01451314426958561,"143":-0.15239349007606506,"144":0.8038038611412048,"145":-0.056460410356521606,"146":0.04608552157878876,"147":-0.7747495174407959,"148":-0.2525189220905304,"149":-0.0675228089094162,"150":-0.04205634817481041,"151":-0.20958374440670013,"152":-0.1865028589963913,"153":1.3265196084976196,"154":0.09105676412582397,"155":0.15442025661468506,"156":-0.4133859872817993,"157":0.06545893847942352,"158":0.2533639669418335,"159":-0.22442659735679626,"160":0.17141391336917877,"161":0.0460684597492218,"162":0.005363063886761665,"163":-0.28286123275756836,"164":0.18809744715690613,"165":-0.03294507786631584,"166":-0.05038809776306152,"167":0.10786610841751099,"168":0.2596603333950043,"169":-0.2853563725948334,"170":0.0313502736389637,"171":-0.6297543048858643,"172":-0.8986212015151978,"173":1.5434712171554565,"174":0.3379904329776764,"175":0.37017226219177246,"176":0.1393958479166031,"177":-0.5558466911315918,"178":-0.6039817929267883,"179":0.29018470644950867,"180":-0.2529037594795227,"181":-0.5108415484428406,"182":0.24525132775306702,"183":-0.2614251971244812,"184":0.7033037543296814,"185":0.06558249890804291,"186":-0.052214156836271286,"187":-0.6709030866622925,"188":0.002061912789940834,"189":0.2968325614929199,"190":0.04933930188417435,"191":-0.34338298439979553,"192":0.534414529800415,"193":0.06068878620862961,"194":-0.008213636465370655,"195":-0.159135639667511,"196":-0.03475749492645264,"197":0.16014137864112854,"198":0.2323155254125595,"199":0.06910960376262665,"200":-0.29399198293685913,"201":-0.05387343838810921,"202":-0.07529715448617935,"203":0.07226517796516418,"204":-0.0008163572056218982,"205":-0.07345035672187805,"206":0.06048402190208435,"207":-0.07146657258272171,"208":-0.06603194773197174,"209":-0.053057972341775894,"210":-0.06285105645656586,"211":-0.010984675958752632,"212":-0.022572550922632217,"213":-0.314452588558197,"214":-0.034709084779024124,"215":-0.2391241192817688,"216":-0.06562668085098267,"217":-0.292618066072464,"218":-0.04726071283221245,"219":-0.03267752751708031,"220":1.6702461242675781,"221":-0.5838629007339478,"222":0.04994244500994682,"223":0.4380020201206207,"224":-0.6458052396774292,"225":-0.23441381752490997,"226":0.2897968590259552,"227":-0.26881930232048035,"228":1.9855912923812866,"229":-0.14939770102500916,"230":-0.06900899112224579,"231":-0.4448168873786926,"232":0.38885200023651123,"233":-0.5834349393844604,"234":-0.008196873590350151,"235":2.8073134422302246,"236":1.8676555156707764,"237":1.3186018466949463,"238":1.0568749904632568,"239":0.8290339112281799,"240":0.46819567680358887,"241":-0.26166585087776184,"242":-0.3260173201560974,"243":-0.07746218144893646,"244":0.4183749556541443,"245":-0.06559186428785324,"246":-0.04837641492486,"247":-1.1063300371170044,"248":-0.24632355570793152,"249":0.04226106405258179,"250":0.03146160766482353,"251":0.24084709584712982,"252":0.34020039439201355,"253":-0.5916826725006104,"254":-0.2761247158050537,"255":-0.6462656855583191,"256":-0.1857074499130249,"257":0.020290428772568703,"258":0.06804820150136948,"259":-0.18524901568889618,"260":0.4479154944419861,"261":-1.5197041034698486,"262":-0.05247019603848457,"263":0.6426704525947571,"264":-0.05066077783703804,"265":0.277381956577301,"266":-0.03510107100009918,"267":1.5266844034194946,"268":0.06699007004499435,"269":0.21643012762069702,"270":0.22201097011566162,"271":-0.019247882068157196,"272":-0.2474977821111679,"273":-0.3172198235988617,"274":0.3862379491329193,"275":-0.8950347900390625,"276":0.37466001510620117,"277":0.011521494016051292,"278":-0.24625106155872345,"279":-0.17010758817195892,"280":-0.3440670371055603,"281":-0.3734261989593506,"282":-0.04634896293282509,"283":-0.012953098863363266,"284":-0.24530106782913208,"285":-0.08376310020685196,"286":0.01528862677514553,"287":-0.6349167823791504,"288":-0.3365374505519867,"289":0.018084462732076645,"290":-0.007063939701765776,"291":-0.11125841736793518,"292":-0.24527022242546082,"293":-0.3218701183795929,"294":-0.33797433972358704,"295":-0.022042695432901382,"296":-0.21247459948062897,"297":-0.4273069500923157,"298":0.0579993836581707,"299":-0.027147116139531136,"300":0.23115047812461853,"301":0.08509301394224167,"302":-0.24451911449432373,"303":0.5124085545539856,"304":-0.8994104266166687,"305":-0.04851939156651497,"306":0.07380510121583939,"307":0.49178653955459595,"308":0.3246433138847351,"309":-0.23746022582054138,"310":-0.24465708434581757,"311":-0.26569586992263794,"312":0.660319983959198,"313":0.8517955541610718,"314":-0.21643473207950592,"315":0.25505945086479187,"316":0.19952915608882904,"317":-0.027642102912068367,"318":0.16418686509132385,"319":0.38831251859664917,"320":0.2055191695690155,"321":-0.07141672819852829,"322":-0.05422879382967949,"323":-0.34303519129753113,"324":0.2625899314880371,"325":-0.060880497097969055,"326":-0.010902062989771366,"327":-0.02151462994515896,"328":0.11939924955368042,"329":-0.4013068974018097,"330":-0.0035397165920585394,"331":-0.5141909718513489,"332":-0.30927813053131104,"333":1.0028116703033447,"334":0.39573895931243896,"335":0.362399160861969,"336":-0.03393781557679176,"337":-0.36256274580955505,"338":-0.33689701557159424,"339":0.28073689341545105,"340":-0.1493121087551117,"341":-0.10618611425161362,"342":-0.220695361495018,"343":-0.7187361121177673,"344":0.36983752250671387,"345":-0.007863259874284267,"346":0.06669873744249344,"347":-0.03747060149908066,"348":0.42466917634010315,"349":0.1846286654472351,"350":-0.08239118754863739,"351":-0.3227359652519226,"352":-0.598469078540802,"353":1.1429122686386108,"354":0.4918020963668823,"355":0.15326818823814392,"356":0.25818711519241333,"357":0.13903562724590302,"358":0.34597107768058777,"359":0.03611505404114723,"360":-0.0569443479180336,"361":0.5238314867019653,"362":0.15559983253479004,"363":-0.464471697807312,"364":0.03341865912079811,"365":-0.017410611733794212,"366":0.04023837298154831,"367":-0.36834919452667236,"368":-0.06967322528362274,"369":0.19730690121650696,"370":0.022754888981580734,"371":-0.8162539601325989,"372":0.00019286072347313166,"373":1.7197009325027466,"374":-0.0374569334089756,"375":0.2890169024467468,"376":0.034561075270175934,"377":0.19249530136585236,"378":0.3271973729133606,"379":-0.014787227846682072,"380":0.30892255902290344,"381":-0.05730238929390907,"382":0.04942406713962555,"383":-0.3297085464000702,"384":0.2713237702846527,"385":-0.004580726847052574,"386":0.018163075670599937,"387":-0.2673778533935547,"388":0.34090951085090637,"389":-0.16722533106803894,"390":-0.02007574774324894,"391":-0.42422106862068176,"392":0.30516546964645386,"393":-0.030700674280524254,"394":-0.016891904175281525,"395":0.2915576994419098,"396":0.22889094054698944,"397":-0.3967645466327667,"398":-0.5446820259094238,"399":0.34634527564048767}},"bias":{"rows":20,"columns":1,"weights":{"0":-0.4259071946144104,"1":-0.18155288696289062,"2":-0.31486478447914124,"3":-0.6149309873580933,"4":-0.4839671552181244,"5":-0.31419357657432556,"6":0,"7":-0.05691416561603546,"8":-0.37956762313842773,"9":-0.436485230922699,"10":0,"11":0.0934251993894577,"12":0.012810368090867996,"13":-0.11077789217233658,"14":-0.2702734172344208,"15":-0.21765796840190887,"16":-0.3722712993621826,"17":-0.22843120992183685,"18":-0.056048743426799774,"19":-0.053251322358846664}}}],"outputConnector":{"rows":9,"columns":20,"weights":{"0":0.2122322916984558,"1":-0.1490982621908188,"2":-0.089364193379879,"3":-0.4157637059688568,"4":-0.5545288920402527,"5":-0.308695524930954,"6":0.338699609041214,"7":-1.0497028827667236,"8":0.24002334475517273,"9":0.2076510339975357,"10":0.056867703795433044,"11":-2.697643995285034,"12":0.0489838533103466,"13":0.22338718175888062,"14":0.12715163826942444,"15":0.25035360455513,"16":0.20155969262123108,"17":-0.3900275230407715,"18":0.2284591794013977,"19":0.4303312599658966,"20":-1.0632034540176392,"21":1.041585922241211,"22":-0.4957301914691925,"23":-0.10853233188390732,"24":-0.08068685233592987,"25":-0.329325407743454,"26":-0.24087046086788177,"27":-0.23823235929012299,"28":-0.10251971334218979,"29":0.33017975091934204,"30":-0.07253892719745636,"31":-3.9995357990264893,"32":-0.7472696304321289,"33":0.041210200637578964,"34":-0.4027043282985687,"35":-0.02950674667954445,"36":-0.08014923334121704,"37":0.32220908999443054,"38":0.10489173233509064,"39":-0.15035288035869598,"40":0.33553066849708557,"41":-0.028988566249608994,"42":0.6081403493881226,"43":0.09976492822170258,"44":0.5397680997848511,"45":-0.2993641793727875,"46":-0.24284957349300385,"47":0.03344929218292236,"48":0.26901665329933167,"49":0.028263075277209282,"50":0.05299780145287514,"51":-3.667099952697754,"52":1.4034205675125122,"53":0.4142528176307678,"54":-0.20624151825904846,"55":0.4895719885826111,"56":0.3665603995323181,"57":-0.27316394448280334,"58":-0.2228448987007141,"59":0.5188242793083191,"60":-1.2618749141693115,"61":-0.27170664072036743,"62":-0.5285355448722839,"63":0.0030587923247367144,"64":-0.2694476842880249,"65":0.29446545243263245,"66":0.2972263991832733,"67":-2.5544917583465576,"68":-0.1261317878961563,"69":0.030183156952261925,"70":-0.02882527746260166,"71":-2.4867851734161377,"72":-0.2420789748430252,"73":-1.810843586921692,"74":-0.5309504270553589,"75":-0.9712952971458435,"76":-0.15761688351631165,"77":-1.0422508716583252,"78":-0.28041568398475647,"79":-0.5137513875961304,"80":-0.23231934010982513,"81":-1.791398048400879,"82":-0.3516030013561249,"83":-0.6031538248062134,"84":-0.9963933229446411,"85":-0.38025814294815063,"86":-0.37663623690605164,"87":-2.599933624267578,"88":-0.14932690560817719,"89":-0.7783954739570618,"90":-0.015054806135594845,"91":-2.453206777572632,"92":0.15745408833026886,"93":-2.2561933994293213,"94":0.09926322847604752,"95":-0.5038259625434875,"96":-0.23629267513751984,"97":-1.7545976638793945,"98":-0.667758584022522,"99":-0.07433769851922989,"100":-0.2790180444717407,"101":-1.0389502048492432,"102":0.1579207330942154,"103":-0.3378550410270691,"104":-0.6730328798294067,"105":-0.3556075990200043,"106":-0.279693067073822,"107":-0.7775449156761169,"108":-0.32143858075141907,"109":0.19881018996238708,"110":0.015576095320284367,"111":-2.7157037258148193,"112":-0.9111254215240479,"113":-1.4265574216842651,"114":-0.14864465594291687,"115":-0.3789121210575104,"116":-0.3109857738018036,"117":0.09985361248254776,"118":0.24497449398040771,"119":-0.30386728048324585,"120":0.17814035713672638,"121":0.06709317117929459,"122":-0.3310742676258087,"123":-0.22463467717170715,"124":-0.9153978824615479,"125":-0.2735416889190674,"126":-0.24606165289878845,"127":-1.624338150024414,"128":-0.15045076608657837,"129":-0.02275344356894493,"130":-0.03621022775769234,"131":-2.876889944076538,"132":-1.0457978248596191,"133":-0.7227346897125244,"134":-0.834557056427002,"135":-0.1771983504295349,"136":-0.04167015478014946,"137":0.44894376397132874,"138":0.15735967457294464,"139":-0.21260009706020355,"140":0.55646812915802,"141":-0.2443283647298813,"142":-0.3316424787044525,"143":0.28789883852005005,"144":-0.8825134634971619,"145":-0.2538287937641144,"146":-0.341766357421875,"147":1.1876789331436157,"148":0.553092896938324,"149":0.6351200342178345,"150":0.0017827539704740047,"151":-2.89687180519104,"152":-0.24800731241703033,"153":-0.7382356524467468,"154":0.8742657899856567,"155":0.51142817735672,"156":0.37486088275909424,"157":0.1249297708272934,"158":1.4718554019927979,"159":0.34517428278923035,"160":0.4780932068824768,"161":0.0677979364991188,"162":0.13422663509845734,"163":0.16398471593856812,"164":-2.386770725250244,"165":-0.2094862163066864,"166":-0.33618178963661194,"167":-2.734813690185547,"168":0.3872057795524597,"169":0.3484604060649872,"170":0.035441577434539795,"171":-2.8601770401000977,"172":0.061946481466293335,"173":1.026530146598816,"174":-0.1927415430545807,"175":0.43093225359916687,"176":0.24397218227386475,"177":0.19194315373897552,"178":0.40774571895599365,"179":0.3361286520957947}},"output":{"rows":9,"columns":1,"weights":{"0":-7.042623996734619,"1":0.8804655075073242,"2":1.9978771209716797,"3":-7.079893112182617,"4":-7.227124214172363,"5":-7.307438850402832,"6":-7.406711578369141,"7":-6.799139499664307,"8":-6.62458610534668}}}