{"type":"RNN","options":{"inputSize":4,"inputRange":4,"hiddenSizes":[20,20],"outputSize":4,"learningRate":0.01,"decayRate":0.999,"smoothEps":1e-8,"regc":0.000001,"clipval":5,"json":null,"dataFormatter":{"values":[[{"option":"a"}],[{"option":"none"}],[{"option":"a"}],[{"option":"a"}],[{"option":"a"}],[{"option":"a"}],[{"option":"a"}],[{"option":"a"}],[{"option":"a"}],[{"option":"a"}],[{"option":"a"}],[{"option":"a"}],[{"option":"a"}],[{"option":"a"}],[{"option":"a"}],[{"option":"a"}],[{"option":"a"}],[{"option":"a"}],[{"option":"a"}],[{"option":"a"}],[{"option":"a"}],[{"option":"a"}],[{"option":"a"}],[{"option":"a"}],[{"option":"a"}],[{"option":"a"}],[{"option":"a"}],[{"option":"a"}],[{"option":"a"}],[{"option":"a"}],[{"option":"b"}],[{"option":"b"}],[{"option":"b"}],[{"option":"b"}],[{"option":"b"}],[{"option":"b"}],[{"option":"b"}],[{"option":"b"}],[{"option":"b"}],[{"option":"b"}],[{"option":"b"}],[{"option":"b"}],[{"option":"b"}],[{"option":"b"}],[{"option":"b"}],[{"option":"b"}],[{"option":"b"}],[{"option":"b"}],[{"option":"b"}],[{"option":"b"}],[{"option":"b"}],[{"option":"b"}],[{"option":"b"}],[{"option":"b"}],[{"option":"b"}],[{"option":"b"}],[{"option":"b"}],[{"option":"b"}],[{"option":"b"}],[{"option":"b"}],[{"option":"c"}],[{"option":"c"}],[{"option":"c"}],[{"option":"c"}],[{"option":"c"}],[{"option":"c"}],[{"option":"c"}],[{"option":"c"}],[{"option":"c"}],[{"option":"c"}],[{"option":"c"}],[{"option":"c"}],[{"option":"c"}],[{"option":"c"}],[{"option":"c"}],[{"option":"a"}],[{"option":"c"}],[{"option":"c"}],[{"option":"c"}],[{"option":"c"}],[{"option":"c"}],[{"option":"c"}],[{"option":"c"}],[{"option":"c"}],[{"option":"c"}],[{"option":"c"}],[{"option":"c"}],[{"option":"c"}],[{"option":"c"}],[{"option":"c"}],[{"option":"c"}],[{"option":"d"}],[{"option":"d"}],[{"option":"d"}],[{"option":"d"}],[{"option":"d"}],[{"option":"d"}],[{"option":"d"}],[{"option":"d"}],[{"option":"d"}],[{"option":"d"}],[{"option":"d"}],[{"option":"d"}],[{"option":"d"}],[{"option":"d"}],[{"option":"d"}],[{"option":"d"}],[{"option":"d"}],[{"option":"d"}],[{"option":"d"}],[{"option":"d"}],[{"option":"d"}],[{"option":"d"}],[{"option":"d"}],[{"option":"d"}],[{"option":"d"}],[{"option":"d"}],[{"option":"d"}],[{"option":"d"}],[{"option":"d"}],[{"option":"d"}],[{"option":"none"}],[{"option":"none"}],[{"option":"none"}],[{"option":"none"}],[{"option":"none"}],[{"option":"none"}],[{"option":"none"}],[{"option":"none"}],[{"option":"none"}],[{"option":"none"}],[{"option":"none"}],[{"option":"none"}],[{"option":"none"}],[{"option":"none"}],[{"option":"none"}],[{"option":"none"}],[{"option":"none"}],[{"option":"none"}],[{"option":"none"}],[{"option":"none"}],[{"option":"none"}],[{"option":"none"}],[{"option":"none"}],[{"option":"none"}],[{"option":"none"}],[{"option":"none"}],[{"option":"none"}],[{"option":"none"}],[{"option":"none"}],["[object Promise]"],["[object Promise]"],["[object Promise]"],["[object Promise]"],["[object Promise]"],["[object Promise]"],["[object Promise]"],["[object Promise]"],["[object Promise]"],["[object Promise]"],["[object Promise]"],["[object Promise]"],["[object Promise]"],["[object Promise]"],["[object Promise]"],["[object Promise]"],["[object Promise]"],["[object Promise]"],["[object Promise]"],["[object Promise]"],["[object Promise]"],["[object Promise]"],["[object Promise]"],["[object Promise]"],["[object Promise]"],["[object Promise]"],["[object Promise]"],["[object Promise]"],["[object Promise]"],["[object Promise]"],["[object Promise]"],["[object Promise]"],["[object Promise]"],["[object Promise]"],["[object Promise]"],["[object Promise]"],["[object Promise]"],["[object Promise]"],["[object Promise]"],["[object Promise]"],["[object Promise]"],["[object Promise]"],["[object Promise]"],["[object Promise]"],["[object Promise]"],["[object Promise]"],["[object Promise]"],["[object Promise]"],["[object Promise]"],["[object Promise]"],["[object Promise]"],["[object Promise]"],["[object Promise]"],["[object Promise]"],["[object Promise]"],["[object Promise]"],["[object Promise]"],["[object Promise]"],["[object Promise]"],["[object Promise]"],["[object Promise]"],["[object Promise]"],["[object Promise]"],["[object Promise]"],["[object Promise]"],["[object Promise]"],["[object Promise]"],["[object Promise]"],["[object Promise]"],["[object Promise]"],["[object Promise]"],["[object Promise]"],["[object Promise]"],["[object Promise]"],["[object Promise]"],["[object Promise]"],["[object Promise]"],["[object Promise]"],["[object Promise]"],["[object Promise]"],["[object Promise]"],["[object Promise]"],["[object Promise]"],["[object Promise]"],["[object Promise]"],["[object Promise]"],["[object Promise]"],["[object Promise]"],["[object Promise]"],["[object Promise]"],["[object Promise]"],["[object Promise]"],["[object Promise]"],["[object Promise]"],["[object Promise]"],["[object Promise]"],["[object Promise]"],["[object Promise]"],["[object Promise]"],["[object Promise]"],["[object Promise]"],["[object Promise]"],["[object Promise]"],["[object Promise]"],["[object Promise]"],["[object Promise]"],["[object Promise]"],["[object Promise]"],["[object Promise]"],["[object Promise]"],["[object Promise]"],["[object Promise]"],["[object Promise]"],["[object Promise]"],["[object Promise]"],["[object Promise]"],["[object Promise]"],["[object Promise]"],["[object Promise]"],["[object Promise]"],["[object Promise]"],["[object Promise]"],["[object Promise]"],["[object Promise]"],["[object Promise]"],["[object Promise]"],["[object Promise]"],["[object Promise]"],["[object Promise]"],["[object Promise]"],["[object Promise]"],["[object Promise]"],["[object Promise]"],["[object Promise]"],["[object Promise]"],["[object Promise]"],["[object Promise]"],["[object Promise]"],["[object Promise]"],["[object Promise]"],["[object Promise]"],["[object Promise]"],["[object Promise]"],["[object Promise]"],["[object Promise]"],["[object Promise]"],["[object Promise]"],["[object Promise]"],["[object Promise]"],["[object Promise]"]],"indexTable":{"[object Object]":0,"[object Promise]":1,"stop-input":2,"start-output":3},"characterTable":{"0":{"option":"a"},"1":"[object Promise]","2":"stop-input","3":"start-output"},"characters":[{"option":"a"},"[object Promise]","stop-input","start-output"]}},"input":{"rows":5,"columns":4,"weights":{"0":0.12735439836978912,"1":-0.15465973317623138,"2":0.09678971767425537,"3":0.46206632256507874,"4":0.3076249063014984,"5":-0.40915220975875854,"6":0.048671264201402664,"7":0.021106911823153496,"8":0.14503952860832214,"9":0.05041690543293953,"10":-0.5320746302604675,"11":-0.5283069610595703,"12":0.01706562750041485,"13":-0.11984311789274216,"14":0.2763110399246216,"15":0.12532393634319305,"16":-0.6654111742973328,"17":0.7251024842262268,"18":-0.4402434825897217,"19":-0.5040097832679749}},"hiddenLayers":[{"weight":{"rows":20,"columns":4,"weights":{"0":0.08608949929475784,"1":-0.05390921235084534,"2":-0.007098265457898378,"3":0.0310208760201931,"4":0.15631301701068878,"5":-0.11248833686113358,"6":-0.1000068411231041,"7":0.008945721201598644,"8":-0.02827383764088154,"9":-0.02062966860830784,"10":0.05643685907125473,"11":-0.03817004710435867,"12":-0.1864284873008728,"13":-0.07821334898471832,"14":0.37637075781822205,"15":0.13692644238471985,"16":-0.01003645732998848,"17":-0.03920388221740723,"18":-0.04034796729683876,"19":-0.04063049331307411,"20":0.14947235584259033,"21":-0.12396305054426193,"22":-0.1694020926952362,"23":-0.28326353430747986,"24":0.14431533217430115,"25":-0.17023834586143494,"26":0.3438515365123749,"27":0.0394863486289978,"28":-0.1622147262096405,"29":-0.2624065577983856,"30":-0.35716843605041504,"31":-0.26826566457748413,"32":0.0387105867266655,"33":0.016769185662269592,"34":-0.031070703640580177,"35":-0.0580216683447361,"36":0.13529232144355774,"37":-0.13460911810398102,"38":0.013959730975329876,"39":0.24764807522296906,"40":-0.07449761778116226,"41":-0.07550962269306183,"42":-0.021903881803154945,"43":0.06770447641611099,"44":0.2350354790687561,"45":-0.3442744314670563,"46":0.41072455048561096,"47":0.2051706165075302,"48":0.19899025559425354,"49":0.14767083525657654,"50":-0.043207649141550064,"51":-0.4644092321395874,"52":-0.040349047631025314,"53":-0.025953160598874092,"54":0.003456509206444025,"55":-0.06501603871583939,"56":-0.4311120808124542,"57":0.40566858649253845,"58":-0.20658163726329803,"59":0.17436805367469788,"60":0.797990083694458,"61":-0.6582364439964294,"62":-0.898361086845398,"63":-0.6463171243667603,"64":0.08275816589593887,"65":-0.7925626635551453,"66":0.44344010949134827,"67":0.45723381638526917,"68":0.29196223616600037,"69":-0.3298865854740143,"70":0.3169313967227936,"71":0.3721350133419037,"72":-0.019525181502103806,"73":0.3872302770614624,"74":-0.27458178997039795,"75":-0.5342572331428528,"76":-0.049922894686460495,"77":-0.47431108355522156,"78":0.41225436329841614,"79":0.36829638481140137}},"transition":{"rows":20,"columns":20,"weights":{"0":0.05541674420237541,"1":-0.060401275753974915,"2":0.010121996514499187,"3":0.002831514924764633,"4":-0.028066545724868774,"5":-0.03827035054564476,"6":0.008667666465044022,"7":-0.034509722143411636,"8":-0.059128597378730774,"9":0.002450672909617424,"10":0.04142586886882782,"11":0.02240305207669735,"12":-0.002945883898064494,"13":0.05704624950885773,"14":0.005943224299699068,"15":-0.06281573325395584,"16":0.027496863156557083,"17":-0.06140987575054169,"18":-0.011999978683888912,"19":-0.016398567706346512,"20":0.033641185611486435,"21":-0.292717307806015,"22":-0.010947207920253277,"23":0.013038219884037971,"24":0.02111840806901455,"25":0.04036619886755943,"26":0.03808636963367462,"27":-0.23385226726531982,"28":0.016720199957489967,"29":-0.022301405668258667,"30":0.004416005685925484,"31":-0.195944145321846,"32":-0.1959872543811798,"33":-0.04437246173620224,"34":-0.2453116476535797,"35":-0.04575406759977341,"36":-0.20119521021842957,"37":-0.1565777063369751,"38":-0.3201190233230591,"39":-0.11201134324073792,"40":0.05797778069972992,"41":0.0187695249915123,"42":-0.017590729519724846,"43":-0.05069657415151596,"44":0.040582526475191116,"45":-0.005251943599432707,"46":0.018572429195046425,"47":0.03405602276325226,"48":-0.012936944141983986,"49":-0.04758431389927864,"50":0.06405714154243469,"51":-0.0014845647383481264,"52":-0.05830256640911102,"53":0.03424365445971489,"54":0.0660955160856247,"55":-0.03769490495324135,"56":-0.04453470930457115,"57":-0.010621420107781887,"58":-0.01880832016468048,"59":-0.05587552860379219,"60":0.0017458850052207708,"61":-0.011256248690187931,"62":0.010371042415499687,"63":0.7865537405014038,"64":0.05918246507644653,"65":0.017710166051983833,"66":-0.0607791543006897,"67":0.7374406456947327,"68":0.04921187832951546,"69":1.235991358757019,"70":0.033258356153964996,"71":-0.1530134677886963,"72":0.7103251218795776,"73":0.04294416308403015,"74":0.3456977903842926,"75":1.1781114339828491,"76":0.1819837987422943,"77":0.11266888678073883,"78":1.1261216402053833,"79":0.28272879123687744,"80":0.016587834805250168,"81":-0.002331495052203536,"82":0.06594279408454895,"83":0.012153089046478271,"84":0.01307796873152256,"85":-0.0007587578729726374,"86":-0.032444968819618225,"87":-0.01920497417449951,"88":-0.026507891714572906,"89":0.032315343618392944,"90":0.023172743618488312,"91":0.04910605400800705,"92":-0.037153251469135284,"93":-0.028852026909589767,"94":0.008454249240458012,"95":-0.05801772698760033,"96":0.04794731363654137,"97":0.053911272436380386,"98":0.0028195311315357685,"99":-0.011099960654973984,"100":-0.015751391649246216,"101":-0.3012644648551941,"102":-0.048537515103816986,"103":-0.018881497904658318,"104":0.0620671771466732,"105":-0.15675051510334015,"106":-0.06287074089050293,"107":-0.2991461157798767,"108":0.044812947511672974,"109":-0.15390953421592712,"110":-0.055440425872802734,"111":-0.20810256898403168,"112":-0.2099844515323639,"113":-0.06856048852205276,"114":-0.22799202799797058,"115":-0.125099316239357,"116":-0.01773305982351303,"117":-0.14924226701259613,"118":-0.21041959524154663,"119":0.03263963758945465,"120":0.06792204827070236,"121":0.032857391983270645,"122":0.0194456335157156,"123":-0.005856119096279144,"124":0.0035167960450053215,"125":-0.041084419935941696,"126":0.02938707545399666,"127":-0.28244128823280334,"128":0.03576137125492096,"129":-0.03185638040304184,"130":0.004169076681137085,"131":-0.2991873323917389,"132":-0.24602913856506348,"133":0.05813400447368622,"134":-0.003387339413166046,"135":-0.31918707489967346,"136":-0.2950384020805359,"137":-0.23086273670196533,"138":-0.30619263648986816,"139":-0.24425218999385834,"140":0.04786085709929466,"141":-0.04945967346429825,"142":-0.06333065778017044,"143":-0.3886782228946686,"144":-0.053071655333042145,"145":0.03452010080218315,"146":0.02871648594737053,"147":-0.11588306725025177,"148":0.021090148016810417,"149":0.320349782705307,"150":0.012473980896174908,"151":0.007262005005031824,"152":-0.09970220178365707,"153":-0.029583383351564407,"154":0.2538849413394928,"155":0.022606972604990005,"156":0.09186974912881851,"157":0.17045627534389496,"158":0.027503177523612976,"159":-0.09872276335954666,"160":0.05415383726358414,"161":-0.003637162037193775,"162":-0.01924366131424904,"163":-0.024123188108205795,"164":-0.0429205521941185,"165":-0.06417853385210037,"166":0.02395632117986679,"167":-0.010863064788281918,"168":-0.02966894581913948,"169":0.07872980087995529,"170":-0.0019721738062798977,"171":0.0573577918112278,"172":-0.036719486117362976,"173":0.03139565885066986,"174":-0.06249507516622543,"175":0.028534360229969025,"176":0.03798579424619675,"177":-0.01784166879951954,"178":-0.0381632000207901,"179":0.017089305445551872,"180":-0.027478914707899094,"181":-0.19458147883415222,"182":-0.029261894524097443,"183":0.6708226203918457,"184":0.041650719940662384,"185":0.17149144411087036,"186":-0.26129278540611267,"187":0.14349359273910522,"188":-0.019897710531949997,"189":-0.08321987092494965,"190":-0.05249422788619995,"191":-0.6592181324958801,"192":0.0612141452729702,"193":0.010870039463043213,"194":-0.7764272093772888,"195":0.5776186585426331,"196":1.313199758529663,"197":1.0560712814331055,"198":-0.11761309206485748,"199":1.3166210651397705,"200":0.036652643233537674,"201":-0.05424848943948746,"202":0.0010959638748317957,"203":-0.04173647239804268,"204":-0.013194967992603779,"205":-0.005676278844475746,"206":-0.028478680178523064,"207":0.041233792901039124,"208":-0.057578884065151215,"209":0.01622292958199978,"210":-0.018851544708013535,"211":0.027011830359697342,"212":0.006884494796395302,"213":-0.05922578275203705,"214":-0.03990217298269272,"215":0.027437720447778702,"216":0.06299901008605957,"217":-0.062072329223155975,"218":-0.06692198663949966,"219":-0.04383328929543495,"220":0.023195095360279083,"221":0.06238916888833046,"222":-0.012891663238406181,"223":0.05339308828115463,"224":0.0685950294137001,"225":0.24050435423851013,"226":-0.05750828981399536,"227":0.1412268579006195,"228":-0.048183098435401917,"229":-0.14311373233795166,"230":-0.0004889483680017292,"231":-0.048044782131910324,"232":0.05837355554103851,"233":-0.06712932139635086,"234":-0.02676759473979473,"235":-0.3854742646217346,"236":0.12022252380847931,"237":0.12082144618034363,"238":-0.10537968575954437,"239":0.18444973230361938,"240":0.002048129914328456,"241":-0.055181052535772324,"242":0.030190683901309967,"243":-0.4100378751754761,"244":0.03655228018760681,"245":0.27829205989837646,"246":-0.0033090184442698956,"247":-0.0319163054227829,"248":0.04489009827375412,"249":0.1971801370382309,"250":-0.028346892446279526,"251":0.05665111914277077,"252":0.03196222335100174,"253":0.0003717714862432331,"254":0.20905674993991852,"255":-0.18353867530822754,"256":0.047876983880996704,"257":0.1598564237356186,"258":0.07029818743467331,"259":-0.024924250319600105,"260":-0.03429431468248367,"261":0.051147349178791046,"262":0.014049849472939968,"263":0.024949338287115097,"264":0.05202539265155792,"265":0.022979436442255974,"266":0.043840862810611725,"267":-0.023631494492292404,"268":-0.04834480956196785,"269":-0.051865026354789734,"270":0.018467945978045464,"271":-0.01865001954138279,"272":-0.0010340625885874033,"273":-0.05739950016140938,"274":-0.03488542512059212,"275":-0.03302678093314171,"276":-0.04175211861729622,"277":-0.021285124123096466,"278":-0.00326152122579515,"279":-0.029674939811229706,"280":-0.051976729184389114,"281":-0.48970115184783936,"282":-0.057310763746500015,"283":-0.4977380931377411,"284":-0.05724596977233887,"285":-0.16011403501033783,"286":-0.19129547476768494,"287":-0.43977266550064087,"288":-0.03908917307853699,"289":0.03169352561235428,"290":-0.03383065015077591,"291":-0.5093474388122559,"292":-0.6418645977973938,"293":0.014245299622416496,"294":-0.36470600962638855,"295":0.5390855073928833,"296":0.43644043803215027,"297":-0.485821932554245,"298":-0.5432446002960205,"299":0.4006997346878052,"300":0.06159162521362305,"301":0.5921946167945862,"302":0.06856044381856918,"303":-0.64691561460495,"304":0.014942239969968796,"305":-0.036624517291784286,"306":-0.39685550332069397,"307":0.4169439673423767,"308":0.03035644069314003,"309":0.5653384327888489,"310":0.0063672661781311035,"311":0.6081097722053528,"312":0.48077425360679626,"313":0.02091359533369541,"314":0.6908044815063477,"315":0.3675912320613861,"316":0.3094932734966278,"317":0.5412935018539429,"318":0.4043709337711334,"319":0.33760952949523926,"320":-0.007726228330284357,"321":-0.06204674392938614,"322":-0.03351827338337898,"323":-0.3570432960987091,"324":0.04786833003163338,"325":0.3004935383796692,"326":-0.05107414349913597,"327":0.45533108711242676,"328":0.011051860637962818,"329":0.18890316784381866,"330":0.011721041984856129,"331":-0.0387829951941967,"332":0.3588574528694153,"333":0.014283009804785252,"334":0.2537151873111725,"335":0.06307585537433624,"336":-0.24975430965423584,"337":0.20155051350593567,"338":0.5047646760940552,"339":-0.10598471015691757,"340":0.009264864027500153,"341":0.06234125420451164,"342":-0.00033304301905445755,"343":-0.021124981343746185,"344":-0.036545105278491974,"345":0.3545926511287689,"346":-0.08870723843574524,"347":0.48869016766548157,"348":0.021725907921791077,"349":-0.019088149070739746,"350":0.016597596928477287,"351":0.17095912992954254,"352":0.4465661942958832,"353":0.0145063241943717,"354":0.30151647329330444,"355":-0.09781807661056519,"356":0.11642073839902878,"357":0.18955938518047333,"358":0.45337021350860596,"359":0.2670676112174988,"360":-0.009605740197002888,"361":-0.02524254471063614,"362":0.04006221145391464,"363":-0.3792113959789276,"364":-0.03386840224266052,"365":-0.02389649674296379,"366":-0.03271147608757019,"367":-0.38079920411109924,"368":0.014815961942076683,"369":0.24720034003257751,"370":-0.048668548464775085,"371":0.1170557513833046,"372":-0.28142571449279785,"373":0.015949148684740067,"374":0.17973726987838745,"375":-0.02415047213435173,"376":0.06560076773166656,"377":0.07101789861917496,"378":-0.1583268642425537,"379":-0.04568052664399147,"380":-0.029238957911729813,"381":-0.06647554039955139,"382":0.035607293248176575,"383":-0.29285889863967896,"384":-0.043302372097969055,"385":0.2905677258968353,"386":-0.08876749128103256,"387":0.4077540636062622,"388":0.05762782320380211,"389":0.12122609466314316,"390":0.05626644566655159,"391":-0.07460866123437881,"392":0.4081064760684967,"393":0.0483744777739048,"394":0.2790834307670593,"395":0.015023842453956604,"396":-0.114720419049263,"397":0.24009793996810913,"398":0.43896910548210144,"399":-0.048739854246377945}},"bias":{"rows":20,"columns":1,"weights":{"0":-0.24770212173461914,"1":-0.03605041652917862,"2":-0.2549574673175812,"3":-0.26288989186286926,"4":-0.211128830909729,"5":-0.2723856568336487,"6":-0.09623493999242783,"7":-0.024623451754450798,"8":-0.24913917481899261,"9":0.6973186731338501,"10":-0.1897546797990799,"11":0.014788222499191761,"12":0.07702477276325226,"13":0,"14":0.39038318395614624,"15":-0.2722931504249573,"16":-0.3084208369255066,"17":0.1158241331577301,"18":0.177862748503685,"19":-0.2523561716079712}}},{"weight":{"rows":20,"columns":20,"weights":{"0":-0.032216597348451614,"1":-0.24744713306427002,"2":-0.02350364625453949,"3":-0.05710956081748009,"4":-0.019465569406747818,"5":-0.11354874074459076,"6":-0.03641759976744652,"7":-0.05993977189064026,"8":-0.025021664798259735,"9":-0.001966010080650449,"10":0.019189201295375824,"11":-0.25988903641700745,"12":-0.23809325695037842,"13":0.01825975440442562,"14":-0.31603240966796875,"15":-0.05486281216144562,"16":-0.19675225019454956,"17":-0.2101997286081314,"18":-0.068214051425457,"19":-0.232039675116539,"20":-0.03327475115656853,"21":0.005761468783020973,"22":0.02658487670123577,"23":0.08005238324403763,"24":-0.06097566708922386,"25":-0.06660562008619308,"26":-0.04861098527908325,"27":-0.03390350565314293,"28":-0.008831359446048737,"29":0.07616091519594193,"30":-0.03376273438334465,"31":-0.05660199001431465,"32":-0.07072147727012634,"33":0.05795888602733612,"34":-0.00038584196590818465,"35":0.02659854292869568,"36":-0.04345354065299034,"37":0.049369558691978455,"38":0.034457650035619736,"39":0.06420453637838364,"40":-0.035567376762628555,"41":-0.22104664146900177,"42":0.00933024100959301,"43":0.07136902958154678,"44":0.062294960021972656,"45":-0.4507702887058258,"46":0.03964478522539139,"47":-0.5172552466392517,"48":-0.010179274715483189,"49":-0.23285311460494995,"50":-0.0014602411538362503,"51":-0.07395707815885544,"52":-0.45117366313934326,"53":-0.02559562586247921,"54":-0.1928444355726242,"55":-0.170684814453125,"56":-0.27459561824798584,"57":-0.23468998074531555,"58":-0.453224778175354,"59":-0.034825053066015244,"60":0.013014835305511951,"61":-0.2391991913318634,"62":-0.029957585036754608,"63":-0.3711765706539154,"64":-0.03840259462594986,"65":-0.0759008452296257,"66":-0.07894545048475266,"67":-0.26609617471694946,"68":0.04031897336244583,"69":-0.2598016858100891,"70":-0.05909975618124008,"71":0.012527309358119965,"72":-0.19090698659420013,"73":0.012561486102640629,"74":-0.24777695536613464,"75":-0.5562610030174255,"76":0.2905859649181366,"77":0.2819717824459076,"78":-0.292667418718338,"79":0.010856829583644867,"80":0.07796551287174225,"81":0.017779644578695297,"82":0.004801555071026087,"83":-0.0660509541630745,"84":0.05980653315782547,"85":0.029289275407791138,"86":0.010813302360475063,"87":-0.26405394077301025,"88":0.04289957880973816,"89":0.013606347143650055,"90":-0.020906299352645874,"91":0.011528131552040577,"92":-0.24525776505470276,"93":-0.017685187980532646,"94":-0.07155674695968628,"95":0.0019288475159555674,"96":-0.04006832838058472,"97":-0.048026565462350845,"98":-0.242670476436615,"99":-0.21134577691555023,"100":-0.05031728744506836,"101":-0.25366589426994324,"102":0.01090281829237938,"103":-0.05601968243718147,"104":0.05969115346670151,"105":-0.09884095937013626,"106":0.05960094928741455,"107":-0.24012470245361328,"108":0.026135005056858063,"109":-0.25708839297294617,"110":-0.04120606556534767,"111":-0.32841578125953674,"112":-0.5246588587760925,"113":-0.0269517470151186,"114":-0.2786597013473511,"115":0.03652433678507805,"116":-0.11396295577287674,"117":-0.4382322430610657,"118":-0.4882781505584717,"119":-0.12198330461978912,"120":-0.062483277171850204,"121":-0.213950976729393,"122":-0.04215707257390022,"123":-0.3228178322315216,"124":-0.050476498901844025,"125":-0.17009387910366058,"126":-0.08596909791231155,"127":-0.1895652562379837,"128":0.03839322552084923,"129":3.0803544521331787,"130":0.014467921108007431,"131":0.035611044615507126,"132":-0.17366710305213928,"133":0.05849998816847801,"134":-0.2995281219482422,"135":-0.3930625319480896,"136":-0.22798961400985718,"137":0.2489766925573349,"138":-0.1312304139137268,"139":-0.3264177143573761,"140":-0.06923260539770126,"141":-0.23977982997894287,"142":-0.04311561957001686,"143":-0.03563975542783737,"144":0.026411786675453186,"145":-0.10908018052577972,"146":0.018483486026525497,"147":-0.05831165611743927,"148":-0.033431634306907654,"149":0.02124837413430214,"150":-0.013140772469341755,"151":-0.21032774448394775,"152":-0.2871454656124115,"153":-0.05057059973478317,"154":-0.23109722137451172,"155":-0.010769667103886604,"156":-0.2946471869945526,"157":-0.21544966101646423,"158":-0.006995050236582756,"159":-0.22490577399730682,"160":0.04040604084730148,"161":-0.3051956295967102,"162":0.042973872274160385,"163":-0.036924686282873154,"164":0.018295757472515106,"165":-0.1548878699541092,"166":0.04029978811740875,"167":-0.18112164735794067,"168":-0.04803085699677467,"169":-0.29054105281829834,"170":-0.05862954258918762,"171":-0.33746084570884705,"172":-0.5628349781036377,"173":-0.0301346555352211,"174":-0.2352236807346344,"175":-0.01817663572728634,"176":-0.015224020928144455,"177":-0.3235728442668915,"178":-0.4649161994457245,"179":-0.051198333501815796,"180":0.015894176438450813,"181":-0.20739737153053284,"182":-0.05657188221812248,"183":0.4274224042892456,"184":-0.03081534616649151,"185":-0.23950377106666565,"186":-0.0976150780916214,"187":-0.07381299138069153,"188":0.06549403071403503,"189":1.123464822769165,"190":-0.027980420738458633,"191":0.050376586616039276,"192":-0.10941504687070847,"193":-0.038601577281951904,"194":-0.39886337518692017,"195":-0.32974424958229065,"196":0.05119610205292702,"197":0.1912393718957901,"198":-0.10010689496994019,"199":0.3300008773803711,"200":0.048364754766225815,"201":0.05479412525892258,"202":-0.016924453899264336,"203":-0.8622182607650757,"204":0.025087112560868263,"205":0.18173569440841675,"206":-0.26129186153411865,"207":-0.018023189157247543,"208":0.012070889584720135,"209":-0.17942918837070465,"210":0.06332652270793915,"211":0.16793681681156158,"212":0.19083619117736816,"213":0.05531623959541321,"214":0.24979765713214874,"215":-0.354489266872406,"216":0.05285882577300072,"217":0.20176780223846436,"218":-0.19362308084964752,"219":0.1198853850364685,"220":-0.040383126586675644,"221":0.0016791555099189281,"222":0.06137312948703766,"223":0.011568455025553703,"224":-0.046185918152332306,"225":0.029007552191615105,"226":0.023528872057795525,"227":-0.29351410269737244,"228":-0.056581705808639526,"229":0.07729960978031158,"230":0.02184975892305374,"231":-0.2942168712615967,"232":-0.26057544350624084,"233":0.03978821635246277,"234":-0.007745224516838789,"235":-0.2094627469778061,"236":-0.35243651270866394,"237":-0.2716585397720337,"238":-0.321174681186676,"239":-0.29757851362228394,"240":-0.040516749024391174,"241":0.06731509417295456,"242":-0.07403785735368729,"243":0.039370521903038025,"244":-0.03132561594247818,"245":-0.06137758493423462,"246":0.0001966994459507987,"247":-0.31171467900276184,"248":-0.009151976555585861,"249":-0.202211394906044,"250":-0.03896408900618553,"251":-0.06650447845458984,"252":-0.24724805355072021,"253":-0.02188231609761715,"254":0.00020228675566613674,"255":-0.20699869096279144,"256":-0.23268833756446838,"257":-0.2145501971244812,"258":-0.06662636995315552,"259":-0.3358283042907715,"260":-0.028142889961600304,"261":0.20235675573349,"262":-0.018710829317569733,"263":0.6918923854827881,"264":0.007546558510512114,"265":-0.06476562470197678,"266":-0.16690030694007874,"267":0.0036549170035868883,"268":-0.012698005884885788,"269":1.2216646671295166,"270":-0.050039198249578476,"271":0.09483134001493454,"272":-0.00980276707559824,"273":-0.015508788637816906,"274":0.12628015875816345,"275":-0.36383920907974243,"276":0.3942662179470062,"277":0.3554362654685974,"278":-0.03154468163847923,"279":0.4184362590312958,"280":0.034691616892814636,"281":0.050855379551649094,"282":0.002467293059453368,"283":0.3832554221153259,"284":-0.019333522766828537,"285":0.06512834876775742,"286":-0.20406362414360046,"287":-0.7710241079330444,"288":0.01879284903407097,"289":0.19996342062950134,"290":0.0764169991016388,"291":0.08828859776258469,"292":-0.0941132977604866,"293":0.046463191509246826,"294":0.2524361312389374,"295":0.17088499665260315,"296":0.015585837885737419,"297":0.08196793496608734,"298":-0.5605702996253967,"299":0.12445017695426941,"300":-0.04619117081165314,"301":-0.017065636813640594,"302":-0.022159582003951073,"303":-0.15942685306072235,"304":0.03924913704395294,"305":-0.2701013386249542,"306":-0.40895459055900574,"307":-0.2577885687351227,"308":0.031062878668308258,"309":0.14689137041568756,"310":0.0652783215045929,"311":0.21693308651447296,"312":-0.28721293807029724,"313":-0.04139479622244835,"314":0.13611355423927307,"315":-0.4549224376678467,"316":0.3093219995498657,"317":0.38185954093933105,"318":-0.2192157506942749,"319":0.022850073873996735,"320":0.02306547947227955,"321":-0.23271498084068298,"322":0.029277978464961052,"323":0.6733894944190979,"324":-0.0382978655397892,"325":-0.04365098103880882,"326":-0.028642434626817703,"327":-0.16898824274539948,"328":-0.05974282696843147,"329":0.7222620844841003,"330":0.07490291446447372,"331":0.13904131948947906,"332":-0.03629344329237938,"333":0.04650940001010895,"334":-0.6128661632537842,"335":-0.4568381607532501,"336":0.3638349175453186,"337":0.47953739762306213,"338":-0.15733569860458374,"339":-0.12815316021442413,"340":-0.06529021263122559,"341":-0.19153641164302826,"342":-0.012352386489510536,"343":-0.009420511312782764,"344":0.05503057688474655,"345":0.05041800066828728,"346":0.01508006826043129,"347":-0.5504893064498901,"348":0.047807883471250534,"349":-0.2695789039134979,"350":0.009896731935441494,"351":-0.06442375481128693,"352":-0.5868573188781738,"353":0.05250643566250801,"354":-0.20492930710315704,"355":-0.4246901869773865,"356":0.03942335397005081,"357":-0.021030131727457047,"358":-0.588843822479248,"359":-0.06037702411413193,"360":0.07756491750478745,"361":-0.06052670627832413,"362":0.016399772837758064,"363":0.2921890318393707,"364":0.03541159629821777,"365":0.01717968098819256,"366":-0.014760274440050125,"367":1.4099407196044922,"368":-0.039792656898498535,"369":-0.6319558620452881,"370":0.033620771020650864,"371":0.3132753372192383,"372":1.349557876586914,"373":0.061157092452049255,"374":-0.8016880750656128,"375":1.1685138940811157,"376":0.9825240969657898,"377":0.9012182354927063,"378":1.0340138673782349,"379":1.0028643608093262,"380":0.025429576635360718,"381":-0.05765664577484131,"382":-0.04425809159874916,"383":1.0009313821792603,"384":0.03911812976002693,"385":-0.12792497873306274,"386":-0.3768359124660492,"387":-0.10497477650642395,"388":0.013556299731135368,"389":0.12120748311281204,"390":-0.008522202260792255,"391":0.031243670731782913,"392":0.06637471169233322,"393":-0.005412551574409008,"394":0.10670485347509384,"395":-0.24928554892539978,"396":-0.3999893367290497,"397":0.1825914829969406,"398":0.08669421076774597,"399":-0.3416968882083893}},"transition":{"rows":20,"columns":20,"weights":{"0":0.048139020800590515,"1":0.01182352565228939,"2":-0.24728570878505707,"3":-0.26944392919540405,"4":-0.026120392605662346,"5":0.028264211490750313,"6":-0.32849183678627014,"7":-0.059500809758901596,"8":0.0225379541516304,"9":-0.2960607409477234,"10":-0.12524883449077606,"11":0.03315461799502373,"12":0.041451822966337204,"13":-0.3190346360206604,"14":-0.2847557067871094,"15":-0.24194620549678802,"16":-0.27182498574256897,"17":0.029803801327943802,"18":0.0061299907974898815,"19":0.011317208409309387,"20":-0.03907456994056702,"21":0.027536146342754364,"22":-0.02988845854997635,"23":-0.010832831263542175,"24":-0.03362814337015152,"25":-0.043171901255846024,"26":-0.03457965701818466,"27":0.04069878160953522,"28":-0.032335929572582245,"29":0.019175956025719643,"30":0.0058442349545657635,"31":0.051233887672424316,"32":0.05061136931180954,"33":-0.05378490313887596,"34":-0.026909666135907173,"35":-0.025179162621498108,"36":-0.025567322969436646,"37":-0.06004677712917328,"38":0.13231472671031952,"39":-0.03675934672355652,"40":0.014425801113247871,"41":0.03894409164786339,"42":-0.2239193171262741,"43":-0.060273900628089905,"44":-0.05582042410969734,"45":0.03872964531183243,"46":0.027713708579540253,"47":0.0627514123916626,"48":-0.1737574189901352,"49":-0.19996212422847748,"50":0.04443443566560745,"51":-0.05803193897008896,"52":-0.0071485694497823715,"53":-0.3082062005996704,"54":-0.33081570267677307,"55":-0.2390291541814804,"56":-0.04724081978201866,"57":0.05489298701286316,"58":0.007330998778343201,"59":0.06552296131849289,"60":0.08480662107467651,"61":0.08438078314065933,"62":0.335358589887619,"63":0.2454226315021515,"64":0.06499338895082474,"65":-0.050610076636075974,"66":0.04642628878355026,"67":0.10024984925985336,"68":0.21483847498893738,"69":0.3864680826663971,"70":0.18615150451660156,"71":-0.26968327164649963,"72":-0.058651044964790344,"73":0.43997594714164734,"74":0.16299176216125488,"75":0.32421064376831055,"76":0.16106373071670532,"77":-0.10645691305398941,"78":-0.6052058935165405,"79":0.016540415585041046,"80":-0.001250110100954771,"81":-0.0003551627742126584,"82":-0.0194543469697237,"83":-0.04673009365797043,"84":0.023471055552363396,"85":0.042103361338377,"86":0.04186495020985603,"87":-0.06873995810747147,"88":0.048051442950963974,"89":-0.04283600300550461,"90":-0.004406358115375042,"91":-0.05078814923763275,"92":-0.0552421435713768,"93":0.03362617641687393,"94":-0.06051681190729141,"95":-0.04822656884789467,"96":-0.06555637717247009,"97":0.0015968625666573644,"98":-0.04015703871846199,"99":-0.011635659262537956,"100":0.017759840935468674,"101":-0.024498023092746735,"102":-0.33479177951812744,"103":-0.1223246306180954,"104":0.0071807364001870155,"105":0.013533541932702065,"106":-0.02884759195148945,"107":0.0656735897064209,"108":-0.14361169934272766,"109":-0.14586511254310608,"110":-0.029822487384080887,"111":0.016926461830735207,"112":0.014990177005529404,"113":-0.22859834134578705,"114":-0.23846220970153809,"115":-0.2488187551498413,"116":0.026302313432097435,"117":-0.036082591861486435,"118":0.045471563935279846,"119":0.05161436274647713,"120":0.039679694920778275,"121":-0.02613259293138981,"122":-0.004314128775149584,"123":0.06361988931894302,"124":0.044536881148815155,"125":-0.31318432092666626,"126":0.07346171885728836,"127":0.06385128945112228,"128":-0.2392984926700592,"129":0.22977739572525024,"130":0.18146207928657532,"131":-0.2242901772260666,"132":0.015874430537223816,"133":0.3634013533592224,"134":0.19894427061080933,"135":0.22838938236236572,"136":0.16246522963047028,"137":-0.21308204531669617,"138":-0.30930089950561523,"139":0.11892743408679962,"140":0.032638948410749435,"141":-0.06856516003608704,"142":-0.2733224034309387,"143":-0.24831993877887726,"144":0.031499385833740234,"145":-0.0027639251202344894,"146":-0.2739425599575043,"147":-0.047909632325172424,"148":-0.04380045831203461,"149":-0.2932780385017395,"150":-0.05982087552547455,"151":0.005470941308885813,"152":0.05776035785675049,"153":-0.3136028051376343,"154":-0.3272733688354492,"155":-0.29613953828811646,"156":-0.27579551935195923,"157":0.056215353310108185,"158":-0.014379712752997875,"159":-0.010239538736641407,"160":0.017605053260922432,"161":-0.06668725609779358,"162":-0.23512116074562073,"163":-0.0806446373462677,"164":0.006517449393868446,"165":-0.055350109934806824,"166":-0.0727529525756836,"167":-0.050040390342473984,"168":-0.18216827511787415,"169":-0.1992114931344986,"170":0.051378123462200165,"171":-0.02115483768284321,"172":0.0006721331737935543,"173":-0.2655448913574219,"174":-0.241438090801239,"175":-0.27434736490249634,"176":-0.013422267511487007,"177":-0.029416419565677643,"178":0.03404102474451065,"179":-0.01523851603269577,"180":0.12705247104167938,"181":0.05900190398097038,"182":0.5678812265396118,"183":0.1112808808684349,"184":-0.01558487955480814,"185":-0.2220800369977951,"186":0.12985503673553467,"187":0.27998071908950806,"188":-0.13688673079013824,"189":0.2793288826942444,"190":0.19114141166210175,"191":-0.22869950532913208,"192":0.0597538948059082,"193":0.5068414211273193,"194":0.5463225245475769,"195":0.32363107800483704,"196":0.24160131812095642,"197":-0.08411455899477005,"198":0.3160681426525116,"199":0.25484833121299744,"200":-0.059019945561885834,"201":-0.06527920067310333,"202":0.19320648908615112,"203":0.1268162578344345,"204":0.045561496168375015,"205":-0.2821660041809082,"206":-0.021121038123965263,"207":-0.00908712763339281,"208":-0.2888178825378418,"209":0.010525623336434364,"210":0.023363133892416954,"211":-0.27299898862838745,"212":-0.017110027372837067,"213":0.05203903093934059,"214":0.14900577068328857,"215":0.1082054153084755,"216":0.15619149804115295,"217":-0.31247079372406006,"218":0.25067025423049927,"219":-0.18698427081108093,"220":-0.03544467315077782,"221":-0.061061009764671326,"222":-0.046665288507938385,"223":-0.22245308756828308,"224":-0.04392750933766365,"225":-0.05114106833934784,"226":-0.22535501420497894,"227":0.004848469514399767,"228":-0.050306424498558044,"229":-0.20744910836219788,"230":-0.2184402346611023,"231":-0.2801905870437622,"232":-0.026141710579395294,"233":-0.3041694462299347,"234":-0.23420237004756927,"235":-0.19875384867191315,"236":-0.28347036242485046,"237":-0.26705384254455566,"238":-0.07589834928512573,"239":-0.26690298318862915,"240":0.008895862847566605,"241":-0.04954763129353523,"242":0.01307220570743084,"243":0.055929962545633316,"244":0.028502093628048897,"245":0.006300849840044975,"246":-0.06321655958890915,"247":-0.003067026613280177,"248":0.0165064949542284,"249":-0.23049964010715485,"250":-0.059715643525123596,"251":-0.021197257563471794,"252":0.06370557844638824,"253":-0.2193731963634491,"254":-0.05051170662045479,"255":-0.028357209637761116,"256":-0.011615604162216187,"257":-0.04259864240884781,"258":0.0064300126396119595,"259":-0.27139246463775635,"260":0.18562686443328857,"261":0.06216520071029663,"262":0.5311134457588196,"263":0.17391721904277802,"264":0.022940119728446007,"265":-0.29148411750793457,"266":0.03025338426232338,"267":0.1837605983018875,"268":-0.023488685488700867,"269":0.33154892921447754,"270":0.259022980928421,"271":-0.26552674174308777,"272":-0.009528249502182007,"273":0.5229045748710632,"274":0.5412094593048096,"275":0.4849216639995575,"276":0.1938198059797287,"277":-0.04224070906639099,"278":0.28815460205078125,"279":0.2671854794025421,"280":0.2129805088043213,"281":-0.052870843559503555,"282":-0.07699528336524963,"283":-0.06857092678546906,"284":-0.08796774595975876,"285":0.001574431313201785,"286":0.043627604842185974,"287":0.1635899394750595,"288":-0.1693926304578781,"289":-0.1495283991098404,"290":0.14989033341407776,"291":-0.2687518298625946,"292":-0.021995211020112038,"293":-0.27177420258522034,"294":-0.46271786093711853,"295":-0.25350192189216614,"296":0.10080473124980927,"297":-0.1016901433467865,"298":0.9909692406654358,"299":0.07443126291036606,"300":0.18378454446792603,"301":0.013259329833090305,"302":0.44233787059783936,"303":0.04448026418685913,"304":-0.0338393971323967,"305":-0.21138639748096466,"306":-0.08886224031448364,"307":0.22081884741783142,"308":-0.3059619665145874,"309":0.16935357451438904,"310":0.14953164756298065,"311":-0.2036258578300476,"312":0.014808743260800838,"313":0.10811911523342133,"314":0.3718634247779846,"315":0.26895371079444885,"316":0.02356671169400215,"317":-0.09822948276996613,"318":-0.3634578287601471,"319":0.18174220621585846,"320":0.23591169714927673,"321":0.07677518576383591,"322":0.10490348935127258,"323":0.14858992397785187,"324":0.05204465985298157,"325":-0.28118738532066345,"326":0.08082382380962372,"327":0.23644453287124634,"328":0.026195012032985687,"329":0.27403348684310913,"330":0.20156779885292053,"331":-0.25392743945121765,"332":-0.05500918999314308,"333":0.3532979190349579,"334":0.06412811577320099,"335":0.3048471212387085,"336":0.044724106788635254,"337":-0.005002367310225964,"338":0.015273211523890495,"339":-0.125834122300148,"340":-0.1107611432671547,"341":-0.033038120716810226,"342":0.27519384026527405,"343":-0.2125748097896576,"344":-0.06168774515390396,"345":0.005308589432388544,"346":-0.4169900715351105,"347":-0.14616402983665466,"348":0.009593340568244457,"349":-0.5653256773948669,"350":-0.40810683369636536,"351":0.024026796221733093,"352":0.005155455321073532,"353":-0.5704549551010132,"354":0.2734261751174927,"355":-0.47019076347351074,"356":-0.5428833961486816,"357":-0.06538248807191849,"358":-0.0475136861205101,"359":-0.3356429636478424,"360":0.002733874134719372,"361":0.00684310682117939,"362":-0.011426877230405807,"363":0.28093618154525757,"364":0.03217748925089836,"365":-0.06461530178785324,"366":1.8798470497131348,"367":-0.04703434929251671,"368":0.039168283343315125,"369":0.11650243401527405,"370":1.1050375699996948,"371":0.16316139698028564,"372":0.05493796989321709,"373":0.10476107150316238,"374":1.0511534214019775,"375":0.17359831929206848,"376":0.09915731847286224,"377":0.3036941587924957,"378":-0.3824678659439087,"379":1.0847994089126587,"380":0.08387523144483566,"381":0.004838240332901478,"382":-0.09195273369550705,"383":0.6117680072784424,"384":-0.0055862790904939175,"385":-0.2524591386318207,"386":0.7129765152931213,"387":0.24619418382644653,"388":-0.31489866971969604,"389":0.63482666015625,"390":-0.22498726844787598,"391":0.28818926215171814,"392":-0.04212699830532074,"393":0.6478267908096313,"394":-0.4740718901157379,"395":0.4541914165019989,"396":0.6267140507698059,"397":-0.17091859877109528,"398":-0.3075115382671356,"399":-0.17722491919994354}},"bias":{"rows":20,"columns":1,"weights":{"0":0,"1":-0.2707993984222412,"2":0.17344552278518677,"3":-0.54265296459198,"4":-0.2720082998275757,"5":-0.0005301192868500948,"6":2.304882049560547,"7":0,"8":0.15221789479255676,"9":-0.3887011706829071,"10":0.28796300292015076,"11":-0.2722175121307373,"12":-0.27146220207214355,"13":-0.6259049773216248,"14":0.28616437315940857,"15":-0.24365420639514923,"16":-0.2763403058052063,"17":0,"18":-0.2711673974990845,"19":0.01908869296312332}}}],"outputConnector":{"rows":5,"columns":20,"weights":{"0":-0.21102666854858398,"1":-0.08188506215810776,"2":0.06006341800093651,"3":-0.14580607414245605,"4":-0.19392697513103485,"5":-0.13269056379795074,"6":-0.4844740629196167,"7":0.25741517543792725,"8":-0.025760216638445854,"9":-0.2061621993780136,"10":-0.19114048779010773,"11":0.30692189931869507,"12":0.22017201781272888,"13":-0.18134866654872894,"14":-0.07440177351236343,"15":0.09594076871871948,"16":0.04363511875271797,"17":0.16602449119091034,"18":-0.3675630986690521,"19":0.2216181755065918,"20":-0.2518141567707062,"21":-0.015987349674105644,"22":0.1914071887731552,"23":0.34554311633110046,"24":-0.23389099538326263,"25":-0.18803603947162628,"26":-0.2630813717842102,"27":-0.31766247749328613,"28":-0.036836300045251846,"29":0.2634884715080261,"30":0.14975224435329437,"31":-0.1903110146522522,"32":0.0014834989560768008,"33":0.2561591565608978,"34":-0.33467432856559753,"35":0.30580833554267883,"36":0.07621260732412338,"37":-0.5003556609153748,"38":-0.7825701832771301,"39":-0.45962288975715637,"40":-0.13578395545482635,"41":-0.02696751058101654,"42":-0.0507226437330246,"43":-0.5562663078308105,"44":0.19799062609672546,"45":0.1292515993118286,"46":3.0079305171966553,"47":-0.21145479381084442,"48":0.003895391244441271,"49":-0.7422230243682861,"50":1.9660425186157227,"51":-0.0032590862829238176,"52":-0.006832662504166365,"53":-1.2762842178344727,"54":1.1299690008163452,"55":-0.0430271178483963,"56":-1.2196530103683472,"57":-0.21179117262363434,"58":-1.1090712547302246,"59":-0.6175971031188965,"60":0.19325287640094757,"61":-0.008611402474343777,"62":0.18139082193374634,"63":-0.08203079551458359,"64":-0.10781576484441757,"65":-0.4694623649120331,"66":-0.4586460292339325,"67":0.20133787393569946,"68":0.017480863258242607,"69":-0.6603149175643921,"70":-0.5228532552719116,"71":-0.06913884729146957,"72":0.0622512549161911,"73":-0.5784821510314941,"74":-0.7216206789016724,"75":0.1634039580821991,"76":-0.35918185114860535,"77":0.054841019213199615,"78":1.3706049919128418,"79":-0.7347721457481384,"80":-0.22869040071964264,"81":0.08921955525875092,"82":0.03777899965643883,"83":-0.05627332627773285,"84":-0.11413892358541489,"85":-0.21447482705116272,"86":-0.6928512454032898,"87":-0.2133447676897049,"88":-0.0711015909910202,"89":-0.03457937762141228,"90":0.5637146234512329,"91":-0.08118502795696259,"92":-0.21281316876411438,"93":-0.10630782693624496,"94":1.0250468254089355,"95":0.20770294964313507,"96":0.1815941333770752,"97":-0.0030182991176843643,"98":-0.17134283483028412,"99":-0.59043288230896}},"output":{"rows":5,"columns":1,"weights":{"0":-1.6869425773620605,"1":-2.0507237911224365,"2":1.7880373001098633,"3":-1.4728577136993408,"4":-1.921945333480835}}}