{"type":"RNN","options":{"inputSize":10,"inputRange":10,"hiddenSizes":[20,20],"outputSize":10,"learningRate":0.01,"decayRate":0.999,"smoothEps":1e-8,"regc":0.000001,"clipval":5,"json":null,"dataFormatter":{"values":[["0111"],["0111"],["0111"],["0111"],["0111"],["0111"],["0111"],["0111"],["0111"],["0111"],["0111"],["0111"],["1011"],["1011"],["1011"],["1011"],["1011"],["1011"],["1011"],["1011"],["1011"],["1011"],["1011"],["1011"],["1101"],["1101"],["1101"],["1101"],["1101"],["1101"],["1101"],["1101"],["1101"],["1101"],["1101"],["1101"],["1110"],["1110"],["1110"],["1110"],["1110"],["1110"],["1110"],["1110"],["1110"],["1110"],["1110"],["1110"],["a"],["a"],["a"],["a"],["a"],["a"],["a"],["a"],["a"],["a"],["a"],["a"],["b"],["b"],["b"],["b"],["b"],["b"],["b"],["b"],["b"],["b"],["b"],["b"],["c"],["c"],["c"],["c"],["c"],["c"],["c"],["c"],["c"],["c"],["c"],["c"],["d"],["d"],["d"],["d"],["d"],["d"],["d"],["d"],["d"],["d"],["d"],["d"]],"indexTable":{"1011":1,"1101":2,"1110":3,"0111":0,"a":4,"b":5,"c":6,"d":7,"stop-input":8,"start-output":9},"characterTable":{"0":"0111","1":"1011","2":"1101","3":"1110","4":"a","5":"b","6":"c","7":"d","8":"stop-input","9":"start-output"},"characters":["0111","1011","1101","1110","a","b","c","d","stop-input","start-output"]}},"input":{"rows":11,"columns":10,"weights":{"0":-0.16182343661785126,"1":-0.16371655464172363,"2":-0.3724249601364136,"3":-0.17488203942775726,"4":-0.1882571280002594,"5":0.7569981813430786,"6":0.463968425989151,"7":-0.18022428452968597,"8":-0.01961086504161358,"9":0.27052387595176697,"10":-0.5887653827667236,"11":-0.1222931295633316,"12":-0.16163820028305054,"13":0.25775274634361267,"14":0.23306384682655334,"15":0.34672215580940247,"16":0.6128149628639221,"17":-0.01546446606516838,"18":0.32461270689964294,"19":-0.07054111361503601,"20":-0.08106973022222519,"21":-0.5455117225646973,"22":0.8209653496742249,"23":0.34327974915504456,"24":-0.1507282853126526,"25":0.12001805007457733,"26":-0.8264006972312927,"27":1.068147897720337,"28":0.7315986156463623,"29":-1.1922630071640015,"30":0.577328622341156,"31":-0.6336156129837036,"32":-0.16002945601940155,"33":-0.7687960863113403,"34":1.1100393533706665,"35":1.967125415802002,"36":-0.6012660264968872,"37":0.7918193936347961,"38":0.6585848331451416,"39":-0.26976144313812256,"40":0.7298491597175598,"41":-0.7500430345535278,"42":0.056564368307590485,"43":-0.7437239289283752,"44":0.8024252653121948,"45":0.005222028587013483,"46":-0.1179799884557724,"47":-0.03985241800546646,"48":0.6260507702827454,"49":-0.6024067401885986,"50":1.5012153387069702,"51":-0.6774960160255432,"52":0.6004650592803955,"53":-0.6690040826797485,"54":0.9745547771453857,"55":-0.6964218616485596,"56":-0.24340063333511353,"57":-0.7754147052764893,"58":-0.12522873282432556,"59":0.9049957990646362,"60":0.2699354588985443,"61":-0.657957911491394,"62":0.3037519156932831,"63":-0.8422675132751465,"64":0.8797917366027832,"65":-0.8093085885047913,"66":-0.13037654757499695,"67":0.37136635184288025,"68":0.2597939074039459,"69":-0.1676366776227951,"70":0.29614806175231934,"71":-0.2827761471271515,"72":0.35491102933883667,"73":-0.343191921710968,"74":0.31397679448127747,"75":-0.3645223379135132,"76":-0.3033978343009949,"77":-0.3437236249446869,"78":0.3829774260520935,"79":0.27146413922309875,"80":0.23764070868492126,"81":-0.6608825325965881,"82":0.10375025123357773,"83":-0.09985833615064621,"84":1.7508244514465332,"85":-1.0041909217834473,"86":0.20866404473781586,"87":-0.41877567768096924,"88":-0.48143312335014343,"89":0.7092660665512085,"90":-0.010403708554804325,"91":0.9630758762359619,"92":0.05815214663743973,"93":1.037010669708252,"94":-1.4929156303405762,"95":-0.31289005279541016,"96":-0.5178415775299072,"97":0.4804922044277191,"98":-0.20735064148902893,"99":0.3322618305683136,"100":0.2843599319458008,"101":0.9521358609199524,"102":-2.0354421138763428,"103":0.3820315897464752,"104":0.38234055042266846,"105":0.9290677309036255,"106":0.8720405697822571,"107":0.4024861752986908,"108":1.1790250539779663,"109":-1.3205012083053589}},"hiddenLayers":[{"weight":{"rows":20,"columns":10,"weights":{"0":0.08538908511400223,"1":-0.13958613574504852,"2":-0.09438922256231308,"3":-0.29353243112564087,"4":-0.29225820302963257,"5":-0.029072703793644905,"6":0.009288872592151165,"7":0.015222176909446716,"8":-0.03013927862048149,"9":-0.1446986347436905,"10":0.05309642478823662,"11":0.03750096634030342,"12":-0.03242657706141472,"13":-0.058809950947761536,"14":-0.12637858092784882,"15":-0.009389491751790047,"16":-0.01639450155198574,"17":0.11138924956321716,"18":-0.11034563928842545,"19":-0.010151317343115807,"20":0.12437655031681061,"21":1.7450010776519775,"22":0.00033770850859582424,"23":0.9188350439071655,"24":-0.4813595414161682,"25":-0.5538774728775024,"26":-0.5389213562011719,"27":0.7096590399742126,"28":0.13841281831264496,"29":0.22368769347667694,"30":-0.42591404914855957,"31":-0.2957792282104492,"32":0.8318611979484558,"33":-1.0561949014663696,"34":0.7183421850204468,"35":-0.6397547125816345,"36":-0.1752271056175232,"37":-0.6351235508918762,"38":-0.45809876918792725,"39":0.9828773140907288,"40":-0.4200839102268219,"41":-0.44494760036468506,"42":1.0199652910232544,"43":-0.7955513000488281,"44":-0.4342644512653351,"45":-0.14222857356071472,"46":-0.2934897243976593,"47":-0.781713604927063,"48":-0.5020923018455505,"49":1.0131012201309204,"50":0.08967170119285583,"51":-0.3143569529056549,"52":0.2189498096704483,"53":-0.3828762173652649,"54":0.2526935935020447,"55":0.02112371101975441,"56":-0.3928644061088562,"57":-0.39961397647857666,"58":0.47161683440208435,"59":0.0781061202287674,"60":1.8868753910064697,"61":-1.3191566467285156,"62":0.39388349652290344,"63":-1.3712962865829468,"64":1.668837308883667,"65":-1.9442930221557617,"66":-0.8139070868492126,"67":-1.5192220211029053,"68":0.5794721841812134,"69":0.9197866916656494,"70":-0.15557779371738434,"71":0.8072595596313477,"72":0.30506905913352966,"73":0.5741715431213379,"74":-1.8955613374710083,"75":-0.2633005976676941,"76":-0.38740211725234985,"77":0.1609673649072647,"78":-1.0704840421676636,"79":0.4271292984485626,"80":0.3587225079536438,"81":-0.32553327083587646,"82":0.7736217975616455,"83":-0.003804587759077549,"84":0.7024695873260498,"85":-0.3450236916542053,"86":-0.9902888536453247,"87":-0.11621926724910736,"88":-0.3288942873477936,"89":0.8898621201515198,"90":0.18947236239910126,"91":0.02821430377662182,"92":0.0006801052368246019,"93":-0.21692635118961334,"94":0.7792092561721802,"95":0.37678954005241394,"96":-0.47931963205337524,"97":0.15003229677677155,"98":-0.3051829934120178,"99":0.5546723008155823,"100":0.6890998482704163,"101":-0.7889272570610046,"102":-0.7819284796714783,"103":-0.6986103057861328,"104":0.5677245855331421,"105":0.4615423381328583,"106":0.396709144115448,"107":0.33166933059692383,"108":1.0600534677505493,"109":-1.3103196620941162,"110":-0.03960267826914787,"111":-0.28556662797927856,"112":0.4706391990184784,"113":-0.6138585805892944,"114":0.8650597929954529,"115":-0.4957045316696167,"116":-0.44683462381362915,"117":-0.5715917348861694,"118":-0.6135023236274719,"119":1.0219451189041138,"120":0.3828156888484955,"121":-1.051296591758728,"122":1.2313100099563599,"123":-0.2711251676082611,"124":0.23838339745998383,"125":0.23780597746372223,"126":-0.4550343155860901,"127":0.941772997379303,"128":0.7240334153175354,"129":-0.8291559815406799,"130":0.745908260345459,"131":-0.3902007043361664,"132":0.5297571420669556,"133":-0.7842578887939453,"134":0.9059879183769226,"135":-0.7151427865028381,"136":-0.6980448961257935,"137":-0.9596765637397766,"138":-0.36263784766197205,"139":0.5912162065505981,"140":-0.3065697252750397,"141":-0.6408984661102295,"142":0.2733382284641266,"143":-0.7151402235031128,"144":0.684228777885437,"145":-1.3891053199768066,"146":-1.6849445104599,"147":-0.8415856957435608,"148":0.01959293708205223,"149":0.4556201994419098,"150":0.4147524833679199,"151":-0.8711639046669006,"152":0.6964348554611206,"153":-1.1102017164230347,"154":0.9681269526481628,"155":-2.1668102741241455,"156":-1.6313190460205078,"157":-1.4436917304992676,"158":-0.4333125054836273,"159":0.8149690628051758,"160":-0.27766159176826477,"161":-0.10742851346731186,"162":0.1721092015504837,"163":0.39445242285728455,"164":-0.6323093771934509,"165":-0.2234468013048172,"166":-0.3434099853038788,"167":0.38731756806373596,"168":-0.878443717956543,"169":0.6703099012374878,"170":-0.04092542082071304,"171":-0.7706548571586609,"172":0.43630969524383545,"173":-0.193822979927063,"174":0.5085530281066895,"175":0.9429210424423218,"176":-0.9196746945381165,"177":0.4516035318374634,"178":0.1142210066318512,"179":-0.4202638566493988,"180":0.2346501499414444,"181":0.29404202103614807,"182":-0.034609295427799225,"183":-0.058735672384500504,"184":0.009940171614289284,"185":-0.4083288013935089,"186":-0.6492707133293152,"187":-0.4836265444755554,"188":0.2343367487192154,"189":0.39627331495285034,"190":0.6192781329154968,"191":0.19977401196956635,"192":0.30271705985069275,"193":-0.1356872022151947,"194":0.0208196509629488,"195":-0.3747454881668091,"196":-0.8779382109642029,"197":-0.9996870756149292,"198":0.265880823135376,"199":0.3773985207080841}},"transition":{"rows":20,"columns":20,"weights":{"0":-0.8365999460220337,"1":0.029527917504310608,"2":-0.23860521614551544,"3":0.10292384028434753,"4":-0.389279305934906,"5":-0.34327220916748047,"6":-0.000611727184150368,"7":0.03901267424225807,"8":-0.030443597584962845,"9":-0.048902325332164764,"10":-0.3227066099643707,"11":0.07879947870969772,"12":-0.5154542326927185,"13":0.04454745724797249,"14":-0.2737109661102295,"15":-0.04918025806546211,"16":0.247541144490242,"17":0.04241453856229782,"18":-0.03554354980587959,"19":0.05172562971711159,"20":0.023625453934073448,"21":0.06134285777807236,"22":-0.07403964549303055,"23":-0.06331906467676163,"24":0.0533345490694046,"25":0.004042957443743944,"26":0.03846091777086258,"27":-0.010944169946014881,"28":-0.004096560180187225,"29":-0.07677784562110901,"30":-0.18619240820407867,"31":0.022243808954954147,"32":-0.22412148118019104,"33":-0.06640321016311646,"34":-0.037803765386343,"35":0.03643505275249481,"36":0.013765553943812847,"37":-0.03792143240571022,"38":-0.024319836869835854,"39":-0.025883544236421585,"40":-0.6076990365982056,"41":0.0661303699016571,"42":-0.4105261266231537,"43":0.3921715021133423,"44":0.33150237798690796,"45":0.43421924114227295,"46":0.20045062899589539,"47":-0.10760287940502167,"48":0.04827208071947098,"49":1.2603098154067993,"50":0.6488169431686401,"51":-0.24797944724559784,"52":0.3668862283229828,"53":-0.1313123106956482,"54":0.08321826159954071,"55":0.17740263044834137,"56":-0.10245457291603088,"57":0.58529132604599,"58":-0.22807341814041138,"59":0.4084942638874054,"60":-0.15820156037807465,"61":0.07169593125581741,"62":0.25005918741226196,"63":-0.04627953842282295,"64":-0.2683582007884979,"65":0.0018036039546132088,"66":0.060386888682842255,"67":-0.052570655941963196,"68":0.47672396898269653,"69":-0.18903905153274536,"70":0.14113447070121765,"71":-0.37399163842201233,"72":-0.1567813903093338,"73":-0.043369751423597336,"74":-0.009387871250510216,"75":-0.02072298713028431,"76":-0.20713096857070923,"77":-0.15317705273628235,"78":0.020268354564905167,"79":0.012511811219155788,"80":0.011880222707986832,"81":0.0662483498454094,"82":-0.29339563846588135,"83":-0.002386392094194889,"84":0.036127131432294846,"85":-0.3278375566005707,"86":-0.05488945543766022,"87":-0.27746185660362244,"88":0.0718289241194725,"89":-0.1054317057132721,"90":-0.5038577318191528,"91":-0.17522060871124268,"92":-0.49257221817970276,"93":-0.290289968252182,"94":-0.36390891671180725,"95":0.029976259917020798,"96":-0.38355836272239685,"97":0.13881130516529083,"98":-0.04717240482568741,"99":-0.0012408888433128595,"100":-0.3418263792991638,"101":-0.013767902739346027,"102":-0.35403043031692505,"103":-0.010054847225546837,"104":-0.4732570946216583,"105":-0.16932031512260437,"106":-0.004066262394189835,"107":-0.4819090962409973,"108":0.4060443043708801,"109":-0.039926670491695404,"110":-0.7350716590881348,"111":-0.3969164788722992,"112":-0.7545907497406006,"113":-0.32695043087005615,"114":-0.5746312141418457,"115":-0.013306576758623123,"116":-0.6623041033744812,"117":1.105644702911377,"118":-0.23229606449604034,"119":-0.31525272130966187,"120":0.27233177423477173,"121":0.06092945486307144,"122":0.7974284887313843,"123":0.04856453835964203,"124":0.21043381094932556,"125":-0.13603374361991882,"126":-0.17938821017742157,"127":-0.15620702505111694,"128":0.5829370617866516,"129":0.03504803776741028,"130":0.49273061752319336,"131":0.07737720012664795,"132":-0.26605820655822754,"133":-0.008711851201951504,"134":0.310838520526886,"135":0.0052648382261395454,"136":-0.15367572009563446,"137":0.22445011138916016,"138":0.314494788646698,"139":0.08956544101238251,"140":-0.690949559211731,"141":0.030846089124679565,"142":0.20044445991516113,"143":0.24057242274284363,"144":0.6942723989486694,"145":0.13022936880588531,"146":-0.27966073155403137,"147":-1.0829459428787231,"148":-0.43975991010665894,"149":-0.7156385779380798,"150":-0.25579091906547546,"151":-0.778073787689209,"152":-1.2455296516418457,"153":0.23489558696746826,"154":-0.5810889005661011,"155":0.025074943900108337,"156":-0.11381939798593521,"157":-1.5965938568115234,"158":-0.38974064588546753,"159":-0.07407422363758087,"160":-0.03711510822176933,"161":-0.03563932329416275,"162":-0.07820318639278412,"163":-0.28664878010749817,"164":0.0649375319480896,"165":-0.37751978635787964,"166":-0.42948827147483826,"167":-0.36640816926956177,"168":-0.2578396201133728,"169":-0.23287686705589294,"170":0.23368783295154572,"171":-0.2808866798877716,"172":-0.01186341978609562,"173":-0.1397768259048462,"174":0.02756127156317234,"175":-0.06093841791152954,"176":-0.38152414560317993,"177":-0.22500285506248474,"178":-0.01235579326748848,"179":-0.036689355969429016,"180":0.0019044517539441586,"181":0.07312777638435364,"182":-0.15509667992591858,"183":-0.30812010169029236,"184":-0.44445526599884033,"185":0.15988382697105408,"186":0.31995952129364014,"187":-0.6416892409324646,"188":-0.42182350158691406,"189":-0.6531738638877869,"190":0.18079760670661926,"191":-0.4496765434741974,"192":-0.18843677639961243,"193":-0.6648679971694946,"194":-0.3013104200363159,"195":-0.0510968454182148,"196":0.27157941460609436,"197":-0.1767498403787613,"198":0.2673080563545227,"199":-0.40678101778030396,"200":0.05173381417989731,"201":-0.012953680008649826,"202":0.34696340560913086,"203":-0.579133927822113,"204":-0.4159437417984009,"205":-0.49594852328300476,"206":-0.2815212607383728,"207":-0.9337911009788513,"208":0.2706797122955322,"209":-0.3357498049736023,"210":-0.6145581603050232,"211":-0.6032630801200867,"212":-0.14335516095161438,"213":-0.27450093626976013,"214":-0.5315877199172974,"215":-0.05523714795708656,"216":-0.8975358605384827,"217":0.8794296383857727,"218":-0.5755384564399719,"219":-0.2584786117076874,"220":0.34954577684402466,"221":0.0700608566403389,"222":0.32349833846092224,"223":-0.6290505528450012,"224":-0.5562163591384888,"225":-0.07170536369085312,"226":0.2429347038269043,"227":-0.2719939351081848,"228":-0.3918021023273468,"229":-0.5844709873199463,"230":0.024808283895254135,"231":-0.661342203617096,"232":-0.3161618113517761,"233":-0.3516013026237488,"234":-0.30721694231033325,"235":-0.0053179203532636166,"236":0.21686865389347076,"237":-0.30639126896858215,"238":0.17350533604621887,"239":-0.35965266823768616,"240":0.2206091731786728,"241":0.020933356136083603,"242":-0.0035248161293566227,"243":0.04250588268041611,"244":0.2906778156757355,"245":0.04695771262049675,"246":0.2830599844455719,"247":-0.29929348826408386,"248":0.4156703054904938,"249":0.16538110375404358,"250":-0.18431280553340912,"251":-0.268596887588501,"252":-0.805228590965271,"253":-0.5947027802467346,"254":-0.25137069821357727,"255":0.03099031373858452,"256":-0.4159809350967407,"257":1.110809326171875,"258":0.6734397411346436,"259":-0.030697636306285858,"260":0.3399108946323395,"261":0.023580282926559448,"262":0.4917280077934265,"263":-0.010019665583968163,"264":-0.2981277108192444,"265":-0.08468694239854813,"266":-0.03962535783648491,"267":-0.2786075472831726,"268":0.14188048243522644,"269":-0.16512733697891235,"270":0.7346325516700745,"271":-0.3008975386619568,"272":-0.17905737459659576,"273":-0.23949839174747467,"274":0.052477870136499405,"275":0.0258517786860466,"276":-0.143894225358963,"277":-0.1467342972755432,"278":0.026727689430117607,"279":0.0962289497256279,"280":0.19736938178539276,"281":0.07605946063995361,"282":0.10958778113126755,"283":-0.9302764534950256,"284":-0.537728488445282,"285":0.2777288854122162,"286":-0.07297074049711227,"287":-0.35491055250167847,"288":-0.08687964081764221,"289":-0.3168925940990448,"290":0.10534881800413132,"291":-0.6663005948066711,"292":-0.2621654272079468,"293":-0.2412242293357849,"294":-0.30338308215141296,"295":0.03800440579652786,"296":-0.03831334412097931,"297":-0.2490505576133728,"298":0.020420920103788376,"299":-0.3563912808895111,"300":-0.2706054151058197,"301":-0.07594876736402512,"302":0.3803684413433075,"303":-0.06790943443775177,"304":-0.04282166808843613,"305":0.04042591154575348,"306":-0.04268926754593849,"307":-0.03515318036079407,"308":0.6512723565101624,"309":0.03494386747479439,"310":0.590682864189148,"311":-0.0282138641923666,"312":0.03850717097520828,"313":0.010289488360285759,"314":0.04679794982075691,"315":-0.04819101467728615,"316":0.001332107582129538,"317":-0.050373028963804245,"318":-0.06560660898685455,"319":0.0486631840467453,"320":0.08300754427909851,"321":0.0011324086226522923,"322":-0.35734233260154724,"323":0.6490755677223206,"324":0.699862539768219,"325":0.1262805163860321,"326":0.18655739724636078,"327":-0.301235169172287,"328":0.23901107907295227,"329":-0.5746135711669922,"330":0.002155488822609186,"331":-0.30997762084007263,"332":-0.8168231248855591,"333":0.31294864416122437,"334":0.011049655266106129,"335":0.0032842359505593777,"336":-0.7741097211837769,"337":-0.7770214080810547,"338":0.17538557946681976,"339":-0.16428478062152863,"340":-0.23508787155151367,"341":-0.052602533251047134,"342":0.17929285764694214,"343":-0.536386251449585,"344":-0.3016069829463959,"345":0.21090646088123322,"346":0.24904580414295197,"347":-0.12152759730815887,"348":-0.3741987943649292,"349":-0.6185873746871948,"350":-0.04824771732091904,"351":-0.026760565117001534,"352":-0.026951584964990616,"353":-0.3761235177516937,"354":-0.27667418122291565,"355":0.040917228907346725,"356":0.3115604817867279,"357":0.1744568645954132,"358":0.19046612083911896,"359":0.034714631736278534,"360":-0.003525038016960025,"361":-0.04869275540113449,"362":-0.3264256715774536,"363":0.03675757721066475,"364":0.3456014096736908,"365":0.034972429275512695,"366":-0.0774594396352768,"367":-0.30404791235923767,"368":-0.15874812006950378,"369":-0.34943464398384094,"370":0.05795260891318321,"371":-0.3841145932674408,"372":-0.25419965386390686,"373":-0.33405447006225586,"374":-0.30050039291381836,"375":-0.014327745884656906,"376":-0.06766761094331741,"377":-0.271633118391037,"378":0.012627181597054005,"379":-0.2881908714771271,"380":-0.24257519841194153,"381":-0.0017366526881232858,"382":0.19831040501594543,"383":0.0807284340262413,"384":-0.24698877334594727,"385":-0.4244069755077362,"386":0.09056933224201202,"387":-0.337447851896286,"388":0.30008751153945923,"389":-0.4152781665325165,"390":-0.6221056580543518,"391":0.014436489902436733,"392":-0.1051325723528862,"393":0.06766655296087265,"394":-0.3711312413215637,"395":-0.067407988011837,"396":-0.024935493245720863,"397":-0.04386759176850319,"398":-0.24128562211990356,"399":0.09780772775411606}},"bias":{"rows":20,"columns":1,"weights":{"0":-0.29006844758987427,"1":-0.27670231461524963,"2":-0.6038708686828613,"3":-0.0836060419678688,"4":-0.3228161036968231,"5":-0.4439760744571686,"6":-0.3010771870613098,"7":-0.18622280657291412,"8":-0.43593963980674744,"9":-0.2673792839050293,"10":-0.6491097807884216,"11":-0.36656489968299866,"12":-0.30161648988723755,"13":-0.2608654201030731,"14":-0.30160975456237793,"15":-0.29871484637260437,"16":-0.4049203395843506,"17":-0.17890125513076782,"18":-0.5469911098480225,"19":-0.4116184711456299}}},{"weight":{"rows":20,"columns":20,"weights":{"0":0.006093830335885286,"1":0.012168169021606445,"2":-0.887891948223114,"3":0.32380014657974243,"4":0.22412602603435516,"5":-0.5778623223304749,"6":-0.14300107955932617,"7":-0.3263925611972809,"8":0.015211819671094418,"9":-0.5355591773986816,"10":-1.793236255645752,"11":-0.2220505028963089,"12":-1.050546646118164,"13":0.5656099319458008,"14":-0.046523306518793106,"15":0.30744603276252747,"16":-1.1557661294937134,"17":-0.8652503490447998,"18":0.0759655088186264,"19":0.15628117322921753,"20":0.016486309468746185,"21":-0.027189407497644424,"22":-0.021306807175278664,"23":-0.045476414263248444,"24":-0.044188618659973145,"25":-0.05583962798118591,"26":-0.01735193096101284,"27":0.02028547413647175,"28":-0.012683804146945477,"29":-0.09285375475883484,"30":-0.008409081026911736,"31":0.01809363067150116,"32":0.05418432503938675,"33":0.0005636850255541503,"34":-0.06208525970578194,"35":-0.00445369491353631,"36":0.016567647457122803,"37":-0.025965653359889984,"38":-0.06287578493356705,"39":0.035639774054288864,"40":-0.1200723648071289,"41":-0.07919879257678986,"42":-1.1503525972366333,"43":0.3573727011680603,"44":0.19005246460437775,"45":0.5881751179695129,"46":1.1568797826766968,"47":-0.6706162691116333,"48":0.41768842935562134,"49":-0.688968300819397,"50":0.30682897567749023,"51":-0.5937730669975281,"52":-0.20769190788269043,"53":0.5736933946609497,"54":0.33570006489753723,"55":0.8439132571220398,"56":-0.49225613474845886,"57":-0.8425465226173401,"58":0.0405309721827507,"59":-0.07573692500591278,"60":0.03966283053159714,"61":0.06656033545732498,"62":-0.3943939507007599,"63":0.5360806584358215,"64":-0.08828189224004745,"65":0.1046425998210907,"66":0.4393083453178406,"67":-0.32922643423080444,"68":-0.2859035134315491,"69":0.268094539642334,"70":0.4132154881954193,"71":-0.6077289581298828,"72":-0.08005832880735397,"73":0.9559662938117981,"74":0.02200353518128395,"75":0.7227903008460999,"76":-0.5785415172576904,"77":0.21038372814655304,"78":-0.7716352939605713,"79":-0.5290769338607788,"80":-0.37630727887153625,"81":-0.06279382854700089,"82":-0.09517481923103333,"83":0.33913037180900574,"84":-0.6856299638748169,"85":-0.0717400386929512,"86":0.16676606237888336,"87":-0.45958229899406433,"88":0.3468397259712219,"89":0.12991595268249512,"90":-0.42849886417388916,"91":-0.19870930910110474,"92":-1.1954212188720703,"93":-0.2881215214729309,"94":-0.4116353392601013,"95":0.09575244784355164,"96":-0.18117797374725342,"97":0.414995938539505,"98":-0.17716413736343384,"99":0.1441139131784439,"100":0.14970047771930695,"101":-0.0371723547577858,"102":-0.8947253823280334,"103":-0.20391951501369476,"104":-0.7094491124153137,"105":-0.267089307308197,"106":-1.0211948156356812,"107":-0.07384402304887772,"108":0.0901431292295456,"109":-0.09090206772089005,"110":0.009430482052266598,"111":0.13664710521697998,"112":0.6618065237998962,"113":-0.31100571155548096,"114":0.04542872682213783,"115":-0.36435458064079285,"116":0.5435097813606262,"117":0.4166758358478546,"118":-0.7148833870887756,"119":-0.017046360298991203,"120":0.055179696530103683,"121":0.15538637340068817,"122":0.39869022369384766,"123":0.12014276534318924,"124":0.1184171810746193,"125":0.4810875356197357,"126":-0.22561012208461761,"127":-0.8839523196220398,"128":-0.6300870776176453,"129":1.284219741821289,"130":0.46937432885169983,"131":0.16059182584285736,"132":0.30543434619903564,"133":-0.19916869699954987,"134":0.2962397038936615,"135":0.03165354207158089,"136":-0.06328914314508438,"137":0.07793710380792618,"138":0.5501710176467896,"139":0.12194693833589554,"140":-0.054063621908426285,"141":0.0753091350197792,"142":-0.13228438794612885,"143":0.19429336488246918,"144":-0.3522850275039673,"145":-0.14082300662994385,"146":-0.37847596406936646,"147":-0.19282597303390503,"148":-0.4344768226146698,"149":-0.4036200940608978,"150":-0.15732315182685852,"151":-0.3451504409313202,"152":-0.34646111726760864,"153":0.0072153653018176556,"154":-0.2100040763616562,"155":0.07194697856903076,"156":-0.06921778619289398,"157":-0.22697672247886658,"158":-0.2718607485294342,"159":-0.34938669204711914,"160":-0.25510740280151367,"161":-0.06256353855133057,"162":-0.3094513416290283,"163":0.11597530543804169,"164":0.9451083540916443,"165":-0.3455791771411896,"166":0.4880894422531128,"167":-0.06265706568956375,"168":0.44738882780075073,"169":-0.19935093820095062,"170":-0.6132967472076416,"171":0.2728157639503479,"172":-0.744202196598053,"173":0.772912323474884,"174":0.10256997495889664,"175":0.2899303436279297,"176":-0.15457352995872498,"177":-0.23241126537322998,"178":0.47980448603630066,"179":0.13848967850208282,"180":-0.012365351431071758,"181":0.02567998878657818,"182":-0.05236238241195679,"183":-0.06801386922597885,"184":-0.03222336620092392,"185":-0.081393763422966,"186":-0.008009563200175762,"187":-0.09253457933664322,"188":-0.3557557165622711,"189":-0.1877920925617218,"190":-0.013101174496114254,"191":-0.34497612714767456,"192":-0.1837613731622696,"193":0.010157405398786068,"194":-0.05679060518741608,"195":0.010899798013269901,"196":-0.023191040381789207,"197":-0.2338530421257019,"198":0.05561051890254021,"199":-0.06505085527896881,"200":-0.04898708313703537,"201":-0.0701804831624031,"202":-0.1327432543039322,"203":-0.1708909422159195,"204":-0.3701612055301666,"205":0.1075311079621315,"206":-0.22882749140262604,"207":-0.3641638159751892,"208":-0.20556111633777618,"209":-0.02641872502863407,"210":-0.20334239304065704,"211":-0.31332916021347046,"212":-0.4431091845035553,"213":-0.25402313470840454,"214":-0.22800683975219727,"215":0.038096535950899124,"216":-0.058988530188798904,"217":-0.553047239780426,"218":-0.30679070949554443,"219":-0.031720735132694244,"220":0.43058842420578003,"221":0.0470537468791008,"222":-0.4465654790401459,"223":0.7464777231216431,"224":0.22972939908504486,"225":0.01455550268292427,"226":1.4937392473220825,"227":-0.6381235718727112,"228":-0.350921630859375,"229":-0.7364345192909241,"230":-0.2521042227745056,"231":0.30172038078308105,"232":-0.17409293353557587,"233":0.7275717258453369,"234":0.7189396619796753,"235":1.333282709121704,"236":-1.3659086227416992,"237":-0.7804945111274719,"238":0.1505281627178192,"239":0.2850588262081146,"240":-0.00010879696492338553,"241":0.08553824573755264,"242":-0.030716508626937866,"243":0.04427235573530197,"244":-0.0012226221151649952,"245":-0.3362899720668793,"246":-0.1063043549656868,"247":-0.030320577323436737,"248":-0.13157011568546295,"249":-0.11761883646249771,"250":-0.2977040410041809,"251":-0.16010329127311707,"252":-0.11748544871807098,"253":-0.03772865980863571,"254":0.010959683917462826,"255":0.04317396134138107,"256":-0.22587227821350098,"257":-0.15679079294204712,"258":-0.10690004378557205,"259":0.010462270118296146,"260":-0.02211937867105007,"261":-0.07066111266613007,"262":0.7782450914382935,"263":-0.5165425539016724,"264":0.9521580934524536,"265":0.2547253370285034,"266":-0.4684068262577057,"267":1.529257893562317,"268":-0.1690649539232254,"269":-1.178114891052246,"270":-0.1158595010638237,"271":-0.672685980796814,"272":0.9954434037208557,"273":-0.4304220974445343,"274":-0.26380690932273865,"275":-0.5326652526855469,"276":0.5397792458534241,"277":-0.21734513342380524,"278":-0.4314517080783844,"279":-0.5506155490875244,"280":0.06722909212112427,"281":-0.07883390039205551,"282":0.6131783127784729,"283":-0.32428622245788574,"284":-0.26937758922576904,"285":0.48317083716392517,"286":0.179805189371109,"287":-0.19570374488830566,"288":0.2420204132795334,"289":-0.4322807192802429,"290":1.2246018648147583,"291":-0.3838406205177307,"292":-1.1649253368377686,"293":-0.6967363357543945,"294":-0.49892979860305786,"295":-0.3430579602718353,"296":-0.3958504796028137,"297":-0.8373236656188965,"298":0.03477567806839943,"299":0.23970597982406616,"300":-0.019464485347270966,"301":0.13148008286952972,"302":0.022295182570815086,"303":0.1079639196395874,"304":-0.3373730480670929,"305":-0.17954188585281372,"306":-0.32235410809516907,"307":-0.4650535583496094,"308":-0.16549052298069,"309":0.055179718881845474,"310":-0.1680029034614563,"311":-0.08017909526824951,"312":-0.18527057766914368,"313":-0.026557521894574165,"314":-0.19467556476593018,"315":-0.06921274960041046,"316":0.09941594302654266,"317":0.06788404285907745,"318":-0.2097044438123703,"319":-0.30790865421295166,"320":-0.25482678413391113,"321":-0.022807752713561058,"322":-0.112550288438797,"323":0.24307899177074432,"324":-0.500731885433197,"325":-0.6124764680862427,"326":0.5632943511009216,"327":-1.0473495721817017,"328":-0.4398384690284729,"329":-0.7630087733268738,"330":-0.27422887086868286,"331":-0.7137423157691956,"332":-0.09692602604627609,"333":0.1541515737771988,"334":0.07703589648008347,"335":0.40903064608573914,"336":-0.8159167170524597,"337":-0.806911826133728,"338":-0.39512380957603455,"339":0.39646902680397034,"340":-0.24342766404151917,"341":-0.008173415437340736,"342":-0.23219840228557587,"343":-0.5919827818870544,"344":0.4672366976737976,"345":-0.032910607755184174,"346":-0.2137889564037323,"347":-0.1136372908949852,"348":0.6615287661552429,"349":0.4270021915435791,"350":0.5925302505493164,"351":0.10325057804584503,"352":-0.4306502938270569,"353":-0.31724536418914795,"354":-0.3553082048892975,"355":-0.0594291016459465,"356":0.5081116557121277,"357":0.40272799134254456,"358":-0.7090445756912231,"359":-0.24163717031478882,"360":0.03146117925643921,"361":0.004792278166860342,"362":-0.1317884773015976,"363":-0.22989492118358612,"364":0.1346895545721054,"365":-0.6717875003814697,"366":-0.3192780613899231,"367":-0.760612428188324,"368":-0.1791425198316574,"369":-0.27921417355537415,"370":-0.6050249934196472,"371":-0.11646516621112823,"372":-0.19447995722293854,"373":0.132741779088974,"374":-0.018092771992087364,"375":0.11460360139608383,"376":-0.5159514546394348,"377":-0.30294907093048096,"378":0.3659754991531372,"379":0.0028415329288691282,"380":-0.012171112932264805,"381":-0.01599010080099106,"382":0.012135290540754795,"383":-0.06328505277633667,"384":0.05495627224445343,"385":0.0397384874522686,"386":0.024004917591810226,"387":-0.07460267841815948,"388":-0.055170416831970215,"389":0.009384097531437874,"390":-0.03640710562467575,"391":-0.07873908430337906,"392":-0.06525250524282455,"393":-0.043912287801504135,"394":-0.07537984102964401,"395":0.05346491187810898,"396":0.00022862854530103505,"397":-0.0840393677353859,"398":-0.06953674554824829,"399":-0.022576497867703438}},"transition":{"rows":20,"columns":20,"weights":{"0":-0.014163573272526264,"1":-0.020886698737740517,"2":0.006085154600441456,"3":0.2066718488931656,"4":-0.46319711208343506,"5":0.08927495777606964,"6":-0.9849497675895691,"7":-0.011218422092497349,"8":1.0049139261245728,"9":-0.031054403632879257,"10":1.25441312789917,"11":0.46177032589912415,"12":0.17470772564411163,"13":0.8510544300079346,"14":0.5032367706298828,"15":-0.03818250447511673,"16":0.0028022623155266047,"17":-0.6428652405738831,"18":0.8990973234176636,"19":-0.04362909123301506,"20":0.020274175330996513,"21":-0.010847717523574829,"22":-0.07301821559667587,"23":-0.03708100691437721,"24":-0.01749434694647789,"25":-0.10435902327299118,"26":0.0312110036611557,"27":0.010470787063241005,"28":0.0641620010137558,"29":-0.007486934773623943,"30":0.006072110962122679,"31":-0.053556524217128754,"32":0.06564223021268845,"33":-0.22135886549949646,"34":-0.011131885461509228,"35":0.0590754896402359,"36":-0.17823277413845062,"37":0.027699638158082962,"38":-0.052188389003276825,"39":0.008284742943942547,"40":-0.9370892643928528,"41":0.020321965217590332,"42":0.993903398513794,"43":-0.4982275664806366,"44":-0.2417900413274765,"45":-0.6126438975334167,"46":0.09291838854551315,"47":0.015600902028381824,"48":-1.1185643672943115,"49":-0.06822141259908676,"50":-0.8210843801498413,"51":-0.23013216257095337,"52":0.3116110861301422,"53":-0.2497718781232834,"54":0.7690179347991943,"55":-0.08130668103694916,"56":-0.20113436877727509,"57":-0.7753491997718811,"58":-0.3626127243041992,"59":-0.008495629765093327,"60":-2.123006582260132,"61":0.030455365777015686,"62":0.11236702650785446,"63":0.1280614286661148,"64":0.4101879596710205,"65":-0.08667060732841492,"66":0.41692987084388733,"67":0.2635420262813568,"68":5.724963188171387,"69":-0.08746540546417236,"70":-0.34332162141799927,"71":0.20130954682826996,"72":0.21181192994117737,"73":-0.5986863970756531,"74":0.6672941446304321,"75":-0.004638508893549442,"76":-0.07436419278383255,"77":-0.9560559391975403,"78":0.5115931034088135,"79":-0.008330791257321835,"80":-0.17221269011497498,"81":-0.0711064264178276,"82":-1.2115131616592407,"83":-0.8984309434890747,"84":-0.5382073521614075,"85":0.020164404064416885,"86":-0.5485854744911194,"87":-0.07681578397750854,"88":10.507786750793457,"89":0.0028270429465919733,"90":1.1464107036590576,"91":-0.5060751438140869,"92":0.2612089514732361,"93":-0.917449951171875,"94":-0.24455255270004272,"95":-0.022886959835886955,"96":-0.9833142757415771,"97":0.7822942137718201,"98":1.0583890676498413,"99":-0.01568787358701229,"100":0.10001811385154724,"101":-0.05565425381064415,"102":0.579713761806488,"103":0.7409288883209229,"104":-0.007309258915483952,"105":0.23910360038280487,"106":-1.067251205444336,"107":0.147012397646904,"108":9.018622398376465,"109":0.07733706384897232,"110":-0.06956310570240021,"111":0.7901850938796997,"112":0.19640837609767914,"113":-0.8215107917785645,"114":-0.2936020493507385,"115":0.25744733214378357,"116":0.21179726719856262,"117":-0.28157898783683777,"118":0.6019027829170227,"119":0.03495117649435997,"120":-0.4610740840435028,"121":0.07429532706737518,"122":-1.2669973373413086,"123":-0.4082886874675751,"124":-0.8328923583030701,"125":0.28245583176612854,"126":-0.8353211283683777,"127":-0.05137915536761284,"128":-0.4374992847442627,"129":0.015140842646360397,"130":0.1218651682138443,"131":0.6185526251792908,"132":-0.06609002500772476,"133":0.7796596884727478,"134":0.39041075110435486,"135":-0.32921141386032104,"136":0.013747328892350197,"137":0.0022173221223056316,"138":0.282543808221817,"139":-0.045929692685604095,"140":-0.36389344930648804,"141":-0.039563506841659546,"142":-0.3014630377292633,"143":-0.14905893802642822,"144":0.1362987905740738,"145":-0.29934388399124146,"146":0.000014692639524582773,"147":-0.007694357540458441,"148":0.049365296959877014,"149":0.014983942732214928,"150":-0.05081474781036377,"151":-0.0363958366215229,"152":-0.25557246804237366,"153":-0.23569297790527344,"154":-0.31142210960388184,"155":-0.058290351182222366,"156":-0.2699463963508606,"157":0.09871383756399155,"158":-0.2796801030635834,"159":0.051802922040224075,"160":-0.3908982276916504,"161":-0.059568509459495544,"162":0.4203453063964844,"163":-0.8247852325439453,"164":-0.6856973767280579,"165":-1.204519271850586,"166":1.6432284116744995,"167":-0.0912792906165123,"168":-1.2337779998779297,"169":-0.010751670226454735,"170":-0.8718801140785217,"171":-0.21256139874458313,"172":0.06701166182756424,"173":-0.8499000072479248,"174":0.1203639954328537,"175":-0.1397891491651535,"176":-0.598590612411499,"177":-0.6868911385536194,"178":-0.9161936044692993,"179":0.05300135910511017,"180":-0.05226485803723335,"181":0.04086646810173988,"182":-0.24171970784664154,"183":-0.05862194672226906,"184":0.016818206757307053,"185":-0.06829383969306946,"186":0.042676765471696854,"187":0.023272022604942322,"188":0.07593338191509247,"189":-0.0075571234337985516,"190":0.0236703772097826,"191":0.00455294968560338,"192":-0.060481615364551544,"193":-0.0044413055293262005,"194":-0.02660328708589077,"195":0.0730368047952652,"196":0.01535458117723465,"197":0.017342351377010345,"198":-0.07308460772037506,"199":-0.07645812630653381,"200":-0.29042333364486694,"201":-0.03146395459771156,"202":-0.7931326031684875,"203":-0.3736760914325714,"204":-0.849554717540741,"205":-1.1126116514205933,"206":-0.36478638648986816,"207":-0.004257577937096357,"208":-0.610609769821167,"209":-0.019404184073209763,"210":-0.10132591426372528,"211":-0.5883390307426453,"212":0.041020575910806656,"213":-0.2936631441116333,"214":0.04191621020436287,"215":-0.18448814749717712,"216":-0.4379750192165375,"217":-0.9501315355300903,"218":-0.33004137873649597,"219":0.06480030715465546,"220":0.8263193368911743,"221":-0.05956808850169182,"222":0.6977126002311707,"223":-0.3609732389450073,"224":0.0931757390499115,"225":0.10204238444566727,"226":0.4475039839744568,"227":0.28261762857437134,"228":-0.1601390838623047,"229":-0.052342284470796585,"230":-0.19162940979003906,"231":-0.06835898011922836,"232":0.3352607786655426,"233":-0.23144568502902985,"234":0.42910298705101013,"235":0.1101725772023201,"236":-0.3918920159339905,"237":-0.9340724349021912,"238":0.6497290134429932,"239":0.02111120894551277,"240":-0.0721452459692955,"241":0.06747464835643768,"242":-0.09468638896942139,"243":-0.2634141445159912,"244":-0.2966202199459076,"245":-0.6073526740074158,"246":-0.012134619057178497,"247":-0.24407604336738586,"248":0.02129511348903179,"249":-0.03320534899830818,"250":-0.05095772445201874,"251":-0.2884029150009155,"252":-0.18588368594646454,"253":-0.22549687325954437,"254":-0.18523503839969635,"255":-0.34251564741134644,"256":-0.3057522475719452,"257":-0.1722019761800766,"258":-0.14024683833122253,"259":0.01739097572863102,"260":0.6348493099212646,"261":0.012251392938196659,"262":0.3532349765300751,"263":0.943907618522644,"264":0.5490644574165344,"265":0.6204259395599365,"266":0.44771042466163635,"267":-0.025360627099871635,"268":-0.39165180921554565,"269":0.014816426672041416,"270":-0.8741244673728943,"271":0.38607487082481384,"272":0.03565189614892006,"273":-0.29210609197616577,"274":0.3544546961784363,"275":-0.009601052850484848,"276":-0.2080526053905487,"277":-0.31177863478660583,"278":-0.2764977812767029,"279":0.06344612687826157,"280":0.6293838620185852,"281":-0.04964540898799896,"282":1.1881102323532104,"283":0.10739746689796448,"284":-0.42095011472702026,"285":-0.5979974865913391,"286":1.7119872570037842,"287":-0.3291255235671997,"288":-0.610129714012146,"289":-0.06169963255524635,"290":-0.21595102548599243,"291":-0.8988286852836609,"292":0.34672465920448303,"293":-0.2720853388309479,"294":-0.10647387057542801,"295":-0.17318837344646454,"296":-0.052776698023080826,"297":-0.42401039600372314,"298":0.010456183925271034,"299":-0.001383195398375392,"300":-0.2608804404735565,"301":0.05519484728574753,"302":-0.31205010414123535,"303":-0.22816209495067596,"304":-0.26919999718666077,"305":-0.33623409271240234,"306":-0.023474009707570076,"307":-0.30875474214553833,"308":-0.5930665731430054,"309":0.05502115935087204,"310":0.16688548028469086,"311":-0.3662744164466858,"312":-0.28530386090278625,"313":-0.3050422668457031,"314":-0.3261711001396179,"315":-0.20850422978401184,"316":0.021132230758666992,"317":-0.049332279711961746,"318":-0.6674858331680298,"319":0.03974733129143715,"320":0.3158537745475769,"321":0.004757106304168701,"322":0.35961002111434937,"323":-1.4632933139801025,"324":0.14796899259090424,"325":-0.22230586409568787,"326":0.6277504563331604,"327":0.00040725473081693053,"328":-0.9767290353775024,"329":-0.07559867203235626,"330":-0.4142930507659912,"331":-0.6665166020393372,"332":-0.03870607167482376,"333":-1.1742808818817139,"334":0.12655009329319,"335":0.11034588515758514,"336":-0.7568375468254089,"337":-0.2063908725976944,"338":-0.6375784873962402,"339":-0.06418459862470627,"340":-0.11532087624073029,"341":-0.0027917453553527594,"342":0.39888662099838257,"343":0.5511559844017029,"344":-0.40484073758125305,"345":-0.06906874477863312,"346":0.010523805394768715,"347":-0.041010964661836624,"348":0.14596974849700928,"349":0.06690862774848938,"350":-0.7638220191001892,"351":0.4203594923019409,"352":0.26027119159698486,"353":0.37696772813796997,"354":0.6119930744171143,"355":-0.40232473611831665,"356":-0.2752605676651001,"357":-1.0778902769088745,"358":0.3944801092147827,"359":0.06096754968166351,"360":-0.5158929824829102,"361":-0.049645084887742996,"362":-0.039490554481744766,"363":-0.4713864326477051,"364":-0.5553344488143921,"365":-1.012284278869629,"366":1.1434835195541382,"367":-0.3246060311794281,"368":-0.25043338537216187,"369":-0.03326283022761345,"370":-0.6153926849365234,"371":-0.26041683554649353,"372":-0.23834863305091858,"373":-0.3034151494503021,"374":-0.23330654203891754,"375":-0.34050488471984863,"376":-0.35942259430885315,"377":-0.5241060853004456,"378":-0.529262900352478,"379":0.0515371598303318,"380":-0.06172174587845802,"381":-0.057367853820323944,"382":-0.1199006587266922,"383":-0.12849313020706177,"384":0.003914013504981995,"385":0.03077962063252926,"386":-0.06308358907699585,"387":-0.049801237881183624,"388":0.030545543879270554,"389":-0.03160768747329712,"390":-0.025615599006414413,"391":-0.07091125845909119,"392":-0.0025710982736200094,"393":-0.1949254274368286,"394":-0.05968279391527176,"395":-0.0018004371086135507,"396":-0.06632234156131744,"397":-0.043974846601486206,"398":0.06664818525314331,"399":0.019574515521526337}},"bias":{"rows":20,"columns":1,"weights":{"0":-0.40588870644569397,"1":-0.3007735013961792,"2":-0.0076170144602656364,"3":-0.0024621211923658848,"4":-0.509300708770752,"5":-0.3073177635669708,"6":-0.5385201573371887,"7":-0.30161553621292114,"8":0.073665089905262,"9":-0.30139607191085815,"10":-0.08812063932418823,"11":-0.17969155311584473,"12":-0.16662202775478363,"13":-0.24660073220729828,"14":-0.7890934348106384,"15":-0.22213700413703918,"16":-0.5440641641616821,"17":-0.33671456575393677,"18":-0.061453577131032944,"19":-0.3010829985141754}}}],"outputConnector":{"rows":11,"columns":20,"weights":{"0":1.3711967468261719,"1":-0.08648842573165894,"2":-1.181335210800171,"3":-0.4844268560409546,"4":0.7515555024147034,"5":-0.0873902440071106,"6":-4.975881099700928,"7":0.4609988033771515,"8":-1.4330586194992065,"9":0.28308871388435364,"10":-2.459057331085205,"11":0.7455703020095825,"12":0.3279927372932434,"13":-1.2461615800857544,"14":0.010880186222493649,"15":0.10388249158859253,"16":0.1934131234884262,"17":-0.8523120284080505,"18":-1.951294183731079,"19":0.03278060257434845,"20":-6.608343601226807,"21":-0.0628548264503479,"22":-6.267141819000244,"23":-4.895001411437988,"24":-18.803773880004883,"25":-8.585188865661621,"26":-14.526772499084473,"27":0.031431883573532104,"28":-0.8718999624252319,"29":0.17974422872066498,"30":0.17136231064796448,"31":-2.4068222045898438,"32":-0.040242329239845276,"33":-4.126545429229736,"34":-1.7630586624145508,"35":-0.6339938044548035,"36":-1.5293314456939697,"37":-0.7383915185928345,"38":-0.6157088279724121,"39":0.02292896993458271,"40":-4.549951076507568,"41":-0.040253981947898865,"42":-4.044773101806641,"43":-5.0202202796936035,"44":-18.725372314453125,"45":-8.489619255065918,"46":-14.814448356628418,"47":-0.49955350160598755,"48":-0.8758028149604797,"49":-0.3638952970504761,"50":0.6107684969902039,"51":-1.050851821899414,"52":-0.02461075223982334,"53":-4.106817722320557,"54":-2.3571383953094482,"55":-0.2769884169101715,"56":-1.7424198389053345,"57":-0.5502963662147522,"58":-0.35935017466545105,"59":-0.037996016442775726,"60":-4.981722831726074,"61":-0.056752387434244156,"62":-4.075397491455078,"63":-5.788557529449463,"64":-18.788694381713867,"65":-8.103734970092773,"66":-14.779766082763672,"67":-0.44899001717567444,"68":-0.6170820593833923,"69":0.0026603825390338898,"70":0.3530381917953491,"71":-1.150530219078064,"72":0.03948322683572769,"73":-3.9954755306243896,"74":-3.1729533672332764,"75":-0.36445266008377075,"76":-3.816368341445923,"77":-0.6124311089515686,"78":-0.8674142360687256,"79":-0.05821054428815842,"80":-5.178137302398682,"81":-0.04445154219865799,"82":-5.278700828552246,"83":-5.5774827003479,"84":-18.890520095825195,"85":-8.355912208557129,"86":-14.800568580627441,"87":-0.43064674735069275,"88":-0.7298158407211304,"89":-0.02452721819281578,"90":0.10875659435987473,"91":-3.968522310256958,"92":-0.012350456789135933,"93":-5.300055980682373,"94":-2.630143165588379,"95":-0.3251468539237976,"96":-2.303788661956787,"97":-0.33225154876708984,"98":0.012094719335436821,"99":0.04094015806913376,"100":1.1427316665649414,"101":-0.16566835343837738,"102":-0.2572672665119171,"103":-1.7295128107070923,"104":-0.12635056674480438,"105":-1.0573043823242188,"106":-0.14858382940292358,"107":0.618661105632782,"108":-6.335529327392578,"109":-0.25096625089645386,"110":-3.838543176651001,"111":-0.23131054639816284,"112":0.31423136591911316,"113":-3.5492382049560547,"114":-1.8726017475128174,"115":0.3518783152103424,"116":-1.2801100015640259,"117":-1.6954079866409302,"118":-3.6760082244873047,"119":0.013399199582636356,"120":-0.3364590108394623,"121":0.2128731906414032,"122":-0.7767782807350159,"123":-0.10004574060440063,"124":-1.2712478637695312,"125":-1.6007230281829834,"126":-2.3622939586639404,"127":-0.2548557221889496,"128":-4.3668437004089355,"129":-0.06727626174688339,"130":-4.09483528137207,"131":-0.49817565083503723,"132":0.2108519822359085,"133":-0.5345000624656677,"134":1.3596389293670654,"135":-0.32852184772491455,"136":-2.02860426902771,"137":0.5008611083030701,"138":-6.350966930389404,"139":-0.08977190405130386,"140":-1.4407867193222046,"141":-0.06842350214719772,"142":0.2544606626033783,"143":-1.3914963006973267,"144":-3.1722514629364014,"145":-3.1035196781158447,"146":-0.4959309995174408,"147":-0.5849782824516296,"148":-10.972052574157715,"149":-0.11843482404947281,"150":-3.4463582038879395,"151":-1.4336326122283936,"152":-0.12027734518051147,"153":-3.267202854156494,"154":-1.1665115356445312,"155":-0.2562319338321686,"156":-1.340831995010376,"157":0.09482242166996002,"158":-1.5234016180038452,"159":0.03194275125861168,"160":-1.7711204290390015,"161":-0.07977679371833801,"162":-1.9270219802856445,"163":-1.8442091941833496,"164":-3.090352773666382,"165":-1.5434942245483398,"166":1.1350698471069336,"167":-0.5975468158721924,"168":-10.88436222076416,"169":-0.0071769882924854755,"170":-2.6642627716064453,"171":-1.3032498359680176,"172":-0.06532111018896103,"173":-2.0109355449676514,"174":-2.8497958183288574,"175":-0.29242774844169617,"176":-1.4845417737960815,"177":-2.352660894393921,"178":-7.48311185836792,"179":-0.03059326857328415,"180":5.1585211753845215,"181":0.013456306420266628,"182":-1.1827367544174194,"183":6.5794196128845215,"184":23.6013126373291,"185":14.046462059020996,"186":-8.898411750793457,"187":0.8134859800338745,"188":-10.42170238494873,"189":-0.1222166121006012,"190":-1.2523049116134644,"191":1.0444873571395874,"192":-0.26701489090919495,"193":-1.5725457668304443,"194":-1.0511833429336548,"195":0.8864428400993347,"196":0.1517338901758194,"197":-0.1781683713197708,"198":-7.598633289337158,"199":-0.007872668094933033,"200":0.041381314396858215,"201":0.03093704953789711,"202":-1.7633485794067383,"203":-0.30335676670074463,"204":-0.5413972735404968,"205":0.2315424680709839,"206":-7.461954593658447,"207":0.13244487345218658,"208":-4.823439121246338,"209":-0.26509690284729004,"210":-2.9588840007781982,"211":0.3155198097229004,"212":-0.25674203038215637,"213":4.92195463180542,"214":-0.48960351943969727,"215":0.07564245909452438,"216":0.07631314545869827,"217":-0.02227010205388069,"218":-4.357553958892822,"219":-0.005877004936337471}},"output":{"rows":11,"columns":1,"weights":{"0":-13.382158279418945,"1":-0.024524783715605736,"2":0.04382980614900589,"3":0.10039155185222626,"4":0.19015763700008392,"5":-12.514286041259766,"6":-12.817825317382812,"7":-11.921985626220703,"8":-11.929109573364258,"9":-11.982903480529785,"10":-12.675374984741211}}}