{"sizes":[115,57,4],"layers":[{"0":{},"1":{},"2":{},"3":{},"4":{},"5":{},"6":{},"7":{},"8":{},"9":{},"10":{},"11":{},"12":{},"13":{},"14":{},"15":{},"16":{},"17":{},"18":{},"19":{},"20":{},"21":{},"22":{},"23":{},"24":{},"25":{},"26":{},"27":{},"28":{},"29":{},"30":{},"31":{},"32":{},"33":{},"34":{},"35":{},"36":{},"37":{},"38":{},"39":{},"40":{},"41":{},"42":{},"43":{},"44":{},"45":{},"46":{},"47":{},"48":{},"49":{},"50":{},"51":{},"52":{},"53":{},"54":{},"55":{},"56":{},"57":{},"58":{},"59":{},"60":{},"61":{},"62":{},"63":{},"64":{},"65":{},"66":{},"67":{},"68":{},"69":{},"70":{},"71":{},"72":{},"73":{},"74":{},"75":{},"76":{},"77":{},"78":{},"79":{},"80":{},"81":{},"82":{},"83":{},"84":{},"85":{},"86":{},"87":{},"88":{},"89":{},"90":{},"91":{},"92":{},"93":{},"94":{},"95":{},"96":{},"97":{},"98":{},"99":{},"100":{},"101":{},"102":{},"103":{},"104":{},"105":{},"106":{},"107":{},"108":{},"109":{},"110":{},"111":{},"112":{},"113":{},"114":{}},{"0":{"bias":-0.12141319364309311,"weights":{"0":-0.14250433444976807,"1":-0.17392176389694214,"2":0.06618718057870865,"3":-0.1125400960445404,"4":0.15057265758514404,"5":-0.1153729259967804,"6":-0.05796610563993454,"7":-0.13716569542884827,"8":-0.11053319275379181,"9":0.10806366801261902,"10":0.13607504963874817,"11":-0.15562084317207336,"12":0.140956312417984,"13":-0.015020366758108139,"14":-0.1713058352470398,"15":0.11397713422775269,"16":0.21396175026893616,"17":0.08387631177902222,"18":-0.08379492163658142,"19":0.051518891006708145,"20":-0.15173789858818054,"21":-0.1065608561038971,"22":0.11740361154079437,"23":0.02905675396323204,"24":0.32300201058387756,"25":0.3323134779930115,"26":-0.012653864920139313,"27":-0.022722434252500534,"28":0.05352158471941948,"29":0.07703284919261932,"30":-0.4256918728351593,"31":-0.10020798444747925,"32":-0.07324858009815216,"33":-0.09043045341968536,"34":0.05814081057906151,"35":-0.1707410365343094,"36":-0.2950565814971924,"37":-0.1424199342727661,"38":-0.08253039419651031,"39":-0.10374270379543304,"40":-0.0284375362098217,"41":0.27078625559806824,"42":0.329164057970047,"43":0.11591246724128723,"44":-0.02281012386083603,"45":-0.018718911334872246,"46":0.2997587323188782,"47":0.42421072721481323,"48":0.3094521164894104,"49":-0.0932629331946373,"50":-0.08380207419395447,"51":-0.12339980155229568,"52":-0.44064295291900635,"53":-0.37024375796318054,"54":-0.3925040364265442,"55":0.11415061354637146,"56":0.1687903106212616,"57":-0.13051772117614746,"58":-0.3225901424884796,"59":-0.41707777976989746,"60":-0.237815260887146,"61":0.06083664670586586,"62":-0.008750872686505318,"63":0.262963205575943,"64":0.5041247010231018,"65":0.3633151054382324,"66":0.06632152199745178,"67":-0.1056855171918869,"68":0.07185802608728409,"69":-0.12777836620807648,"70":0.3519737720489502,"71":0.1844041347503662,"72":0.08990233391523361,"73":0.18641504645347595,"74":-0.17840951681137085,"75":-0.22731401026248932,"76":-0.28953444957733154,"77":-0.2467142641544342,"78":-0.10866904258728027,"79":-0.00869839172810316,"80":0.18798720836639404,"81":-0.23738212883472443,"82":-0.155745729804039,"83":0.11069729924201965,"84":-0.12635557353496552,"85":-0.08431485295295715,"86":0.45034530758857727,"87":0.45725271105766296,"88":0.26906242966651917,"89":-0.1625141203403473,"90":-0.17239028215408325,"91":0.05596746876835823,"92":-0.12163019925355911,"93":0.09520623087882996,"94":-0.07625944912433624,"95":0.21988672018051147,"96":0.04888623580336571,"97":0.016544461250305176,"98":-0.10396134853363037,"99":-0.17419102787971497,"100":-0.15154188871383667,"101":-0.009879514575004578,"102":-0.11901713907718658,"103":0.11914041638374329,"104":0.2095755636692047,"105":0.006474469788372517,"106":-0.17030104994773865,"107":-0.16585519909858704,"108":0.18383631110191345,"109":0.030507870018482208,"110":0.2139008343219757,"111":0.14613720774650574,"112":0.12478514015674591,"113":-0.02647409215569496,"114":0.1996293067932129}},"1":{"bias":-0.10918230563402176,"weights":{"0":-0.17106428742408752,"1":0.13218435645103455,"2":-0.17729191482067108,"3":0.19540096819400787,"4":0.09417936205863953,"5":0.119704470038414,"6":0.020063400268554688,"7":-0.10054104030132294,"8":-0.184183731675148,"9":0.07607563585042953,"10":-0.0844702199101448,"11":0.10578285902738571,"12":-0.1509046107530594,"13":0.190177321434021,"14":0.10190951079130173,"15":0.18501229584217072,"16":0.10974688827991486,"17":0.10020163655281067,"18":-0.06338561326265335,"19":0.04180135577917099,"20":-0.0870843231678009,"21":-0.01907321996986866,"22":-0.18924543261528015,"23":0.11250050365924835,"24":0.21855629980564117,"25":-0.04274427890777588,"26":-0.02305980585515499,"27":-0.18582426011562347,"28":-0.04529539495706558,"29":-0.24096505343914032,"30":-0.18220584094524384,"31":0.0946662425994873,"32":0.15239329636096954,"33":-0.035421036183834076,"34":-0.03135015815496445,"35":-0.25843897461891174,"36":-0.2184908241033554,"37":0.11047344654798508,"38":0.02538258768618107,"39":-0.10822618007659912,"40":-0.089960977435112,"41":0.1546090841293335,"42":0.3180384635925293,"43":-0.037552088499069214,"44":-0.06814318150281906,"45":-0.18562385439872742,"46":-0.01398405060172081,"47":0.3971095085144043,"48":0.3433973789215088,"49":0.04949817806482315,"50":-0.17529815435409546,"51":0.06893374770879745,"52":-0.6125006079673767,"53":-0.4191923439502716,"54":-0.178854301571846,"55":-0.0031724879518151283,"56":0.01987840048968792,"57":0.06515374034643173,"58":-0.2610953748226166,"59":-0.3053002953529358,"60":-0.31113681197166443,"61":-0.004546872340142727,"62":0.1294865757226944,"63":0.2689148187637329,"64":0.5415436625480652,"65":0.3839707672595978,"66":0.15892215073108673,"67":-0.13223889470100403,"68":-0.06608253717422485,"69":-0.11870963126420975,"70":0.33838602900505066,"71":0.20954611897468567,"72":0.1393929123878479,"73":0.18936944007873535,"74":0.10873794555664062,"75":-0.37983211874961853,"76":-0.24344424903392792,"77":-0.23126421868801117,"78":0.0956702008843422,"79":0.029009783640503883,"80":-0.07411901652812958,"81":0.09162364900112152,"82":-0.2585172951221466,"83":0.16997234523296356,"84":0.12646394968032837,"85":-0.07366179674863815,"86":0.19838014245033264,"87":0.23791535198688507,"88":0.004700395278632641,"89":0.1160961166024208,"90":-0.05243775248527527,"91":0.08712717145681381,"92":-0.09746051579713821,"93":-0.10123956948518753,"94":0.17627963423728943,"95":0.15355360507965088,"96":0.04619342088699341,"97":-0.049571581184864044,"98":0.1360393911600113,"99":0.15274228155612946,"100":0.05633755773305893,"101":0.0037390999495983124,"102":-0.17709624767303467,"103":0.07265368103981018,"104":-0.0860171765089035,"105":-0.1311415135860443,"106":-0.12970764935016632,"107":0.15220442414283752,"108":-0.13829587399959564,"109":-0.03527072072029114,"110":0.053618982434272766,"111":-0.06277613341808319,"112":-0.09592042863368988,"113":-0.1981756091117859,"114":0.13078069686889648}},"2":{"bias":0.14715474843978882,"weights":{"0":0.17070549726486206,"1":0.0038260642904788256,"2":0.1273302286863327,"3":0.08642050623893738,"4":0.1910211145877838,"5":0.06164487078785896,"6":-0.17962288856506348,"7":-0.07970444858074188,"8":-0.08511483669281006,"9":0.012032369151711464,"10":-0.20138181746006012,"11":0.11114567518234253,"12":0.014042753726243973,"13":0.06108289584517479,"14":0.08251777291297913,"15":0.0558001883327961,"16":0.13162003457546234,"17":0.012939667329192162,"18":0.04120473191142082,"19":0.04773572459816933,"20":0.19015076756477356,"21":0.10525985062122345,"22":-0.00871516764163971,"23":-0.20627646148204803,"24":-0.2518330216407776,"25":-0.3054327964782715,"26":0.04240204766392708,"27":-0.12726183235645294,"28":-0.11531110107898712,"29":0.012168234214186668,"30":0.06410671770572662,"31":0.15688370168209076,"32":0.0898217111825943,"33":0.0919090062379837,"34":-0.03513721004128456,"35":0.1934463530778885,"36":0.0527554526925087,"37":0.19437900185585022,"38":0.1250186562538147,"39":-0.01699192076921463,"40":0.18626394867897034,"41":-0.042923688888549805,"42":-0.2019907832145691,"43":-0.12949472665786743,"44":0.030782897025346756,"45":0.07415731251239777,"46":-0.29221251606941223,"47":-0.5814208984375,"48":-0.6199438571929932,"49":-0.11658301949501038,"50":-0.0017715360736474395,"51":-0.10182422399520874,"52":0.2032286375761032,"53":0.4752868115901947,"54":0.10218112915754318,"55":0.058970171958208084,"56":0.08420304954051971,"57":-0.042489659041166306,"58":0.2929648458957672,"59":0.5192181468009949,"60":0.11542462557554245,"61":-0.01891525462269783,"62":0.09777288138866425,"63":-0.018179157748818398,"64":-0.26118817925453186,"65":-0.2671298682689667,"66":-0.15095315873622894,"67":-0.04169381037354469,"68":-0.08169634640216827,"69":-0.024171359837055206,"70":-0.388929545879364,"71":-0.456879198551178,"72":-0.12341111153364182,"73":0.06189563497900963,"74":-0.10446466505527496,"75":0.05443063750863075,"76":0.25866633653640747,"77":0.021427609026432037,"78":0.1647886037826538,"79":-0.19149160385131836,"80":-0.12637914717197418,"81":-0.05245230346918106,"82":0.21365946531295776,"83":-0.13999351859092712,"84":0.11588825285434723,"85":0.05463649705052376,"86":0.13085201382637024,"87":0.10283973067998886,"88":-0.00022024448844604194,"89":0.152719646692276,"90":0.16530504822731018,"91":-0.008978612720966339,"92":0.19574002921581268,"93":-0.12758202850818634,"94":-0.023288827389478683,"95":-0.022656511515378952,"96":0.029172878712415695,"97":0.1043759286403656,"98":-0.14855164289474487,"99":-0.016291342675685883,"100":-0.003164351452142,"101":-0.004777905996888876,"102":-0.15525566041469574,"103":-0.16491732001304626,"104":-0.07238584756851196,"105":-0.19748646020889282,"106":-0.12064147740602493,"107":-0.19726797938346863,"108":-0.014609163627028465,"109":0.0974496454000473,"110":0.010714951902627945,"111":0.17016752064228058,"112":0.05255803093314171,"113":-0.043786417692899704,"114":0.07602052390575409}},"3":{"bias":0.026110807433724403,"weights":{"0":0.14907097816467285,"1":0.032954249531030655,"2":-0.1934719979763031,"3":-0.04305373132228851,"4":0.16972586512565613,"5":0.03307809308171272,"6":-0.04962895065546036,"7":-0.10593479126691818,"8":-0.17176711559295654,"9":0.06081825867295265,"10":0.09658090770244598,"11":-0.1828199326992035,"12":-0.16361142694950104,"13":0.09684896469116211,"14":-0.1391916573047638,"15":-0.01167842373251915,"16":0.18607786297798157,"17":0.10098565369844437,"18":-0.005749543197453022,"19":-0.05349857732653618,"20":-0.03951796889305115,"21":-0.10037004947662354,"22":-0.15543608367443085,"23":-0.12118551880121231,"24":-0.0188441202044487,"25":0.027149956673383713,"26":0.15979479253292084,"27":-0.02673950046300888,"28":-0.10553392767906189,"29":0.14133116602897644,"30":0.26497766375541687,"31":-0.13326768577098846,"32":-0.18865543603897095,"33":-0.12128859758377075,"34":-0.0683239996433258,"35":-0.1082218587398529,"36":-0.24889695644378662,"37":-0.12063725292682648,"38":-0.0012077151332050562,"39":-0.12107701599597931,"40":0.14300799369812012,"41":-0.15025725960731506,"42":-0.00042290505371056497,"43":-0.17819641530513763,"44":0.08347193151712418,"45":0.16942864656448364,"46":0.11008425056934357,"47":0.08531659841537476,"48":0.12961749732494354,"49":0.10483459383249283,"50":0.06150909885764122,"51":-0.16315756738185883,"52":0.2702169716358185,"53":0.24576880037784576,"54":0.0974123626947403,"55":0.05562099069356918,"56":0.1695176512002945,"57":-0.11020933091640472,"58":-0.41407153010368347,"59":-0.3849095404148102,"60":0.05797852948307991,"61":0.09232056140899658,"62":-0.11887026578187943,"63":0.084590382874012,"64":0.1353965699672699,"65":0.2305140495300293,"66":0.10974808037281036,"67":-0.06722059845924377,"68":-0.13574029505252838,"69":0.18570096790790558,"70":0.2399670034646988,"71":-0.10791108757257462,"72":-0.08751131594181061,"73":-0.07114508748054504,"74":-0.07162777334451675,"75":0.15588699281215668,"76":0.22660227119922638,"77":-0.05542810261249542,"78":-0.11547175794839859,"79":0.11343874782323837,"80":-0.13801231980323792,"81":0.05691858008503914,"82":0.0039388639852404594,"83":-0.07532492280006409,"84":-0.06716326624155045,"85":0.1317470222711563,"86":-0.15166029334068298,"87":0.2328968048095703,"88":0.07153048366308212,"89":0.05536650866270065,"90":0.11958609521389008,"91":0.17747332155704498,"92":-0.13445505499839783,"93":-0.10581529885530472,"94":-0.14173707365989685,"95":0.05486171692609787,"96":0.030085649341344833,"97":-0.17601865530014038,"98":0.18955856561660767,"99":-0.13901463150978088,"100":-0.14973002672195435,"101":0.11956817656755447,"102":0.053136080503463745,"103":0.15550363063812256,"104":-0.08053763210773468,"105":-0.12640810012817383,"106":0.04079259932041168,"107":0.19805608689785004,"108":0.1986697018146515,"109":-0.056315816938877106,"110":0.04843686521053314,"111":0.07025228440761566,"112":-0.18145965039730072,"113":-0.07469414174556732,"114":-0.14251893758773804}},"4":{"bias":-0.07909812033176422,"weights":{"0":0.10697779059410095,"1":-0.1083427369594574,"2":-0.18898044526576996,"3":0.03244573995471001,"4":0.17427894473075867,"5":-0.07265676558017731,"6":-0.18230268359184265,"7":-0.10820519924163818,"8":-0.20003724098205566,"9":0.026811284944415092,"10":-0.1802700310945511,"11":-0.01334052812308073,"12":0.14858263731002808,"13":-0.14316919445991516,"14":-0.18790622055530548,"15":0.0021437061950564384,"16":0.014326424337923527,"17":0.06441127508878708,"18":0.19529709219932556,"19":-0.159367173910141,"20":0.10755906999111176,"21":0.10797291994094849,"22":-0.005825728178024292,"23":0.053818244487047195,"24":0.08686462044715881,"25":-0.05771394446492195,"26":-0.0694526880979538,"27":0.07927116751670837,"28":-0.09145523607730865,"29":-0.2359870970249176,"30":-0.2933799922466278,"31":-0.04465297609567642,"32":0.15505822002887726,"33":0.0020495497155934572,"34":0.023909788578748703,"35":-0.1646331548690796,"36":0.187046617269516,"37":0.12216907739639282,"38":0.10752768814563751,"39":0.012400449253618717,"40":-0.16715477406978607,"41":0.1115833967924118,"42":-0.1625058948993683,"43":-0.12997053563594818,"44":0.07055041193962097,"45":-0.17168614268302917,"46":0.023678354918956757,"47":0.0654822289943695,"48":-0.046232640743255615,"49":-0.05452347919344902,"50":0.10137037932872772,"51":-0.006455081515014172,"52":-0.2867998778820038,"53":-0.39993005990982056,"54":-0.07677290588617325,"55":-0.00924487505108118,"56":0.051508646458387375,"57":0.12083850055932999,"58":-0.0436149463057518,"59":0.05621496960520744,"60":-0.08797156810760498,"61":0.07922036945819855,"62":-0.16977424919605255,"63":-0.11956069618463516,"64":0.19239220023155212,"65":0.12416716665029526,"66":-0.0261232852935791,"67":0.03352788835763931,"68":0.16312798857688904,"69":-0.09607584774494171,"70":0.22312338650226593,"71":0.07702156901359558,"72":-0.14636625349521637,"73":0.07494154572486877,"74":-0.048000045120716095,"75":-0.07783706486225128,"76":-0.18849723041057587,"77":-0.14736779034137726,"78":-0.11695189774036407,"79":0.13106371462345123,"80":-0.13523909449577332,"81":0.19232985377311707,"82":0.15207992494106293,"83":0.01762239634990692,"84":0.022904513403773308,"85":0.014348051510751247,"86":-0.047394413501024246,"87":-0.11323317140340805,"88":0.1555285006761551,"89":-0.15714947879314423,"90":-0.10411486029624939,"91":0.1505206972360611,"92":0.0327681340277195,"93":0.11060278117656708,"94":0.12300318479537964,"95":0.15297159552574158,"96":-0.026404818519949913,"97":-0.0030587606597691774,"98":0.16159500181674957,"99":0.05640017241239548,"100":-0.05078714340925217,"101":0.1366618424654007,"102":0.12402890622615814,"103":0.14234060049057007,"104":-0.11965838074684143,"105":-0.14483653008937836,"106":0.12920960783958435,"107":0.16760793328285217,"108":-0.028417157009243965,"109":-0.016759883612394333,"110":0.09163525700569153,"111":-0.10048863291740417,"112":0.03107553906738758,"113":0.18469981849193573,"114":-0.06590969860553741}},"5":{"bias":0.06925768405199051,"weights":{"0":-0.017823176458477974,"1":0.11248424649238586,"2":-0.14290571212768555,"3":0.07335896044969559,"4":-0.03979366272687912,"5":0.07771912962198257,"6":0.14648544788360596,"7":0.13421595096588135,"8":-0.19181661307811737,"9":-0.13584724068641663,"10":-0.14307287335395813,"11":0.0893140584230423,"12":-0.0008738548494875431,"13":-0.11473601311445236,"14":0.01794241927564144,"15":-0.16422991454601288,"16":-0.14641647040843964,"17":0.20151425898075104,"18":-0.0866285115480423,"19":-0.03709910064935684,"20":0.14940956234931946,"21":-0.04901764541864395,"22":0.024070942774415016,"23":-0.034227095544338226,"24":-0.12576797604560852,"25":0.07772593945264816,"26":0.14817088842391968,"27":-0.09377798438072205,"28":-0.08810412138700485,"29":-0.2570900321006775,"30":-0.562968909740448,"31":0.056510720402002335,"32":-0.10639249533414841,"33":0.17443516850471497,"34":0.15341846644878387,"35":0.22007781267166138,"36":0.29150786995887756,"37":0.14708411693572998,"38":-0.0025370146613568068,"39":0.09881558269262314,"40":0.022692622616887093,"41":0.29224905371665955,"42":-0.06355501711368561,"43":0.04941887408494949,"44":0.055442988872528076,"45":0.012928237207233906,"46":-0.06909092515707016,"47":-0.08367998152971268,"48":0.03913167119026184,"49":-0.07299554347991943,"50":0.12703479826450348,"51":0.0944792702794075,"52":-0.5727030634880066,"53":-0.8036007285118103,"54":-0.4937240481376648,"55":-0.12294916063547134,"56":-0.020235756412148476,"57":0.24784348905086517,"58":0.33585289120674133,"59":0.4071299433708191,"60":0.12566393613815308,"61":-0.0036257419269531965,"62":-0.10905849188566208,"63":0.28925538063049316,"64":0.3816229999065399,"65":0.16251406073570251,"66":-0.03829149901866913,"67":-0.024834251031279564,"68":-0.12962190806865692,"69":0.03491660952568054,"70":-0.06412417441606522,"71":-0.20606158673763275,"72":0.14425058662891388,"73":-0.02515234611928463,"74":0.04400871694087982,"75":-0.23378846049308777,"76":-0.6414417624473572,"77":0.020841054618358612,"78":-0.05297752469778061,"79":0.030283639207482338,"80":0.08707229048013687,"81":0.19339299201965332,"82":0.17104344069957733,"83":-0.1705787479877472,"84":0.053456954658031464,"85":0.026890432462096214,"86":0.30341365933418274,"87":0.13999733328819275,"88":0.10441527515649796,"89":-0.09889618307352066,"90":-0.054182134568691254,"91":0.14311696588993073,"92":-0.1308034360408783,"93":0.07205716520547867,"94":-0.15005545318126678,"95":-0.10944850742816925,"96":-0.041098177433013916,"97":-0.0944489985704422,"98":0.19737082719802856,"99":-0.07120466977357864,"100":0.18896612524986267,"101":-0.12256219238042831,"102":0.11350101977586746,"103":-0.009724208153784275,"104":0.08471373468637466,"105":-0.1840057671070099,"106":0.07130886614322662,"107":-0.018468236550688744,"108":-0.10005065053701401,"109":-0.07040801644325256,"110":-0.032100860029459,"111":-0.057941872626543045,"112":0.044229134917259216,"113":-0.16252726316452026,"114":0.17586764693260193}},"6":{"bias":0.127393901348114,"weights":{"0":-0.1060565710067749,"1":-0.1617497354745865,"2":-0.11225518584251404,"3":-0.1825409084558487,"4":-0.02648846246302128,"5":-0.09606122970581055,"6":-0.130538672208786,"7":0.14859123528003693,"8":-0.11615826189517975,"9":-0.20449931919574738,"10":0.18985934555530548,"11":-0.11899072676897049,"12":-0.10107115656137466,"13":-0.03520066663622856,"14":-0.08588122576475143,"15":0.05002254247665405,"16":0.0408158078789711,"17":0.004951913841068745,"18":0.06485163420438766,"19":0.17111584544181824,"20":-0.022693324834108353,"21":0.15357837080955505,"22":0.011647316627204418,"23":0.04927634447813034,"24":0.06386721879243851,"25":-0.13349874317646027,"26":0.08623909950256348,"27":-0.17404597997665405,"28":-0.05508160591125488,"29":-0.21124939620494843,"30":-0.23115114867687225,"31":0.004621224477887154,"32":0.08903656154870987,"33":-0.02708546631038189,"34":-0.17169111967086792,"35":0.14322634041309357,"36":-0.18160761892795563,"37":0.1595524549484253,"38":0.0744408592581749,"39":-0.18029624223709106,"40":0.016020677983760834,"41":-0.027519194409251213,"42":0.05249008163809776,"43":-0.1605539619922638,"44":0.17826111614704132,"45":0.051883816719055176,"46":-0.13634122908115387,"47":-0.023972783237695694,"48":0.17593631148338318,"49":-0.13164201378822327,"50":-0.20489348471164703,"51":0.004613653291016817,"52":0.007638514973223209,"53":0.09140237420797348,"54":-0.13348472118377686,"55":0.08816265314817429,"56":0.16504715383052826,"57":0.07490574568510056,"58":0.06792803108692169,"59":0.03455975651741028,"60":-0.07674756646156311,"61":-0.00325444876216352,"62":0.02041538432240486,"63":-0.15394605696201324,"64":0.18678399920463562,"65":-0.1734580397605896,"66":0.053989242762327194,"67":0.06223755702376366,"68":0.022307392209768295,"69":0.18092171847820282,"70":0.20465484261512756,"71":-0.08919870853424072,"72":0.006422875449061394,"73":-0.03292563557624817,"74":-0.11912648379802704,"75":-0.0617283433675766,"76":0.07275424897670746,"77":0.02104446478188038,"78":-0.1184372827410698,"79":-0.20860619843006134,"80":-0.12816539406776428,"81":0.10770799219608307,"82":0.08124734461307526,"83":-0.20748034119606018,"84":-0.11762164533138275,"85":-0.10198186337947845,"86":-0.10392426699399948,"87":0.15080590546131134,"88":-0.08920891582965851,"89":0.18102388083934784,"90":0.1606517732143402,"91":-0.17527416348457336,"92":-0.042025815695524216,"93":0.12271759659051895,"94":-0.17602305114269257,"95":-0.16480429470539093,"96":-0.0805775597691536,"97":-0.09265104681253433,"98":-0.07411255687475204,"99":-0.13796621561050415,"100":-0.010552794672548771,"101":-0.0452289842069149,"102":-0.1549011915922165,"103":-0.004614903591573238,"104":0.13928556442260742,"105":0.13904500007629395,"106":-0.10093345493078232,"107":-0.1228782907128334,"108":-0.12090687453746796,"109":0.07252657413482666,"110":-0.06306525319814682,"111":-0.060666926205158234,"112":0.07127949595451355,"113":-0.16486823558807373,"114":0.09785466641187668}},"7":{"bias":0.15379886329174042,"weights":{"0":0.08074421435594559,"1":0.02253992296755314,"2":-0.0911492332816124,"3":-0.0013468175893649459,"4":0.0250228364020586,"5":-0.1653074324131012,"6":0.02716921828687191,"7":0.08145884424448013,"8":-0.18912868201732635,"9":-0.0722186341881752,"10":-0.07336509227752686,"11":-0.12236423790454865,"12":-0.0022698475513607264,"13":-0.09376537799835205,"14":0.18449917435646057,"15":0.14727585017681122,"16":0.03125547245144844,"17":0.12867166101932526,"18":0.005041878670454025,"19":0.08166000247001648,"20":0.1190929263830185,"21":0.03075038455426693,"22":0.1319739818572998,"23":0.18246585130691528,"24":0.1705639809370041,"25":-0.01169694121927023,"26":0.18037325143814087,"27":-0.06959187239408493,"28":0.0511636845767498,"29":-0.01658216118812561,"30":-0.08432590216398239,"31":-0.1879771202802658,"32":0.1520211547613144,"33":-0.04951788857579231,"34":-0.02293873019516468,"35":0.23393523693084717,"36":0.09187845885753632,"37":0.15517732501029968,"38":0.16893455386161804,"39":-0.15061530470848083,"40":-0.21387764811515808,"41":-0.11801587045192719,"42":-0.30018186569213867,"43":0.18782459199428558,"44":-0.13244318962097168,"45":0.03440074250102043,"46":-0.1332244724035263,"47":0.3957229554653168,"48":0.09894019365310669,"49":-0.018578145653009415,"50":-0.1577357053756714,"51":-0.03876012936234474,"52":0.031548868864774704,"53":-0.055359113961458206,"54":0.036184847354888916,"55":-0.18035903573036194,"56":-0.04592837765812874,"57":-0.1640518754720688,"58":0.05772266909480095,"59":0.04760048910975456,"60":-0.022280821576714516,"61":0.16106800734996796,"62":0.13086622953414917,"63":-0.09932179749011993,"64":-0.41393721103668213,"65":-0.341778963804245,"66":-0.0032527984585613012,"67":-0.058765340596437454,"68":-0.05772716552019119,"69":0.0502118244767189,"70":0.21444548666477203,"71":0.08252544701099396,"72":-0.11071427911520004,"73":0.035607460886240005,"74":0.1675104796886444,"75":-0.19189408421516418,"76":-0.1064278855919838,"77":-0.11408386379480362,"78":-0.13902777433395386,"79":0.04147547855973244,"80":0.05606083199381828,"81":-0.07678336650133133,"82":0.24226978421211243,"83":0.08522053062915802,"84":-0.1512860655784607,"85":0.052505042403936386,"86":-0.014656620100140572,"87":-0.26932087540626526,"88":-0.2555502653121948,"89":0.10663887113332748,"90":-0.05840935558080673,"91":0.038995664566755295,"92":0.0009217794286087155,"93":-0.1310712695121765,"94":0.0020992758218199015,"95":0.16859504580497742,"96":0.05758078768849373,"97":-0.04221189394593239,"98":-0.11870621144771576,"99":0.06503312289714813,"100":0.04237866774201393,"101":-0.18405789136886597,"102":0.1900782287120819,"103":0.11054719984531403,"104":-0.038811568170785904,"105":-0.059482261538505554,"106":-0.061914801597595215,"107":0.051273006945848465,"108":0.07110247761011124,"109":0.1444951891899109,"110":0.18549081683158875,"111":-0.12216632068157196,"112":-0.07389573007822037,"113":0.014619474299252033,"114":-0.03867703303694725}},"8":{"bias":-0.21174784004688263,"weights":{"0":-0.16286534070968628,"1":-0.10289206355810165,"2":-0.07976869493722916,"3":0.003343307413160801,"4":-0.0956219807267189,"5":0.12434267997741699,"6":-0.044850755482912064,"7":-0.13508102297782898,"8":-0.03493601456284523,"9":0.06843984872102737,"10":-0.011879334226250648,"11":-0.07823172956705093,"12":0.07681532204151154,"13":-0.21847859025001526,"14":0.16474995017051697,"15":0.1035788282752037,"16":-0.07538055628538132,"17":0.06041301414370537,"18":0.15230610966682434,"19":-0.04873109236359596,"20":0.15674495697021484,"21":0.0025853533297777176,"22":-0.10513772070407867,"23":-0.13659073412418365,"24":0.018435141071677208,"25":-0.21672746539115906,"26":-0.04427468404173851,"27":0.05764390900731087,"28":0.14678499102592468,"29":0.09333761036396027,"30":-0.008849192410707474,"31":0.04970228299498558,"32":0.021392589434981346,"33":0.12798190116882324,"34":0.0850246325135231,"35":0.02116384543478489,"36":-0.2269035130739212,"37":-0.010869411751627922,"38":0.13133005797863007,"39":0.15448999404907227,"40":0.0779593214392662,"41":-0.11935725808143616,"42":0.0019717407412827015,"43":0.04140629991889,"44":0.08840294182300568,"45":-0.03811093792319298,"46":-0.05359595641493797,"47":-0.04297732189297676,"48":-0.058707356452941895,"49":0.09513290226459503,"50":-0.031861916184425354,"51":-0.07446171343326569,"52":0.07729177922010422,"53":-0.13774928450584412,"54":-0.11877651512622833,"55":0.14386200904846191,"56":0.12960560619831085,"57":-0.03831019997596741,"58":0.06443708389997482,"59":0.14960017800331116,"60":0.1220255121588707,"61":0.14922091364860535,"62":0.07606329023838043,"63":0.1980370432138443,"64":0.09835464507341385,"65":0.11141423135995865,"66":-0.026718787848949432,"67":-0.09398038685321808,"68":-0.2107311487197876,"69":0.12471342831850052,"70":-0.003163689747452736,"71":-0.0048728277906775475,"72":-0.027725083753466606,"73":0.13025584816932678,"74":-0.0377512164413929,"75":0.08101724088191986,"76":-0.19875967502593994,"77":0.11763326823711395,"78":0.10160220414400101,"79":-0.005637621972709894,"80":0.05400286242365837,"81":0.09437651932239532,"82":-0.11652827262878418,"83":0.15602591633796692,"84":-0.08839205652475357,"85":0.06658025085926056,"86":0.18594427406787872,"87":0.16427956521511078,"88":-0.15325166285037994,"89":-0.00327255018055439,"90":-0.09265127032995224,"91":0.08664794266223907,"92":-0.2107532024383545,"93":-0.048219893127679825,"94":0.1010577380657196,"95":-0.1019408255815506,"96":-0.10392757505178452,"97":-0.10982564091682434,"98":-0.14534053206443787,"99":0.08818954229354858,"100":0.07105423510074615,"101":-0.020981602370738983,"102":-0.1841423213481903,"103":0.10578270256519318,"104":0.011337927542626858,"105":-0.08266951888799667,"106":-0.08951663970947266,"107":0.011564535088837147,"108":-0.09954793006181717,"109":0.010426633059978485,"110":-0.11878318339586258,"111":-0.1350133717060089,"112":0.03574993833899498,"113":0.12328197807073593,"114":-0.06645456701517105}},"9":{"bias":-0.08662465959787369,"weights":{"0":-0.08222328871488571,"1":0.011451651342213154,"2":-0.12338782846927643,"3":0.07039973139762878,"4":-0.15544919669628143,"5":-0.13431228697299957,"6":-0.16692997515201569,"7":-0.04181419685482979,"8":0.11269062012434006,"9":-0.1649046689271927,"10":0.03534460440278053,"11":0.18779312074184418,"12":0.029954181984066963,"13":-0.0899282917380333,"14":0.0058846487663686275,"15":-0.20189644396305084,"16":0.08000502735376358,"17":-0.05104856938123703,"18":0.16236723959445953,"19":0.1563473790884018,"20":-0.1562667340040207,"21":0.011523214168846607,"22":0.12931863963603973,"23":0.05665705353021622,"24":-0.11710389703512192,"25":-0.1386115401983261,"26":-0.16738267242908478,"27":0.03601491451263428,"28":0.17624135315418243,"29":-0.12305586785078049,"30":0.11533189564943314,"31":-0.1120896115899086,"32":0.0006426865002140403,"33":0.18080730736255646,"34":-0.1963282972574234,"35":0.2500314712524414,"36":0.4205015003681183,"37":0.020168529823422432,"38":0.115043044090271,"39":0.14107777178287506,"40":-0.10345792770385742,"41":-0.06950604915618896,"42":-0.24594102799892426,"43":-0.08005490899085999,"44":-0.16484622657299042,"45":-0.023150097578763962,"46":-0.04551570117473602,"47":-0.30034559965133667,"48":-0.3883783221244812,"49":-0.18959619104862213,"50":-0.04120727255940437,"51":-0.11924528330564499,"52":0.1543000340461731,"53":-0.05811842530965805,"54":0.11220134049654007,"55":-0.0622241236269474,"56":0.13862882554531097,"57":0.0824369266629219,"58":0.24885457754135132,"59":0.538429856300354,"60":0.14228592813014984,"61":0.0341915637254715,"62":0.046363864094018936,"63":-0.2636677622795105,"64":-0.38693568110466003,"65":-0.0890982523560524,"66":0.15153653919696808,"67":0.18626181781291962,"68":0.15552057325839996,"69":-0.03330684080719948,"70":-0.19348488748073578,"71":0.053096696734428406,"72":-0.1479373276233673,"73":0.049069494009017944,"74":0.08448639512062073,"75":0.027061214670538902,"76":0.0022452366538345814,"77":0.20567089319229126,"78":-0.18246977031230927,"79":-0.10892840474843979,"80":-0.2012825459241867,"81":0.03609396889805794,"82":0.31034180521965027,"83":-0.10966455191373825,"84":0.1575564295053482,"85":0.10666942596435547,"86":-0.265243262052536,"87":-0.03539920598268509,"88":0.041262879967689514,"89":0.1642276495695114,"90":-0.03978735953569412,"91":0.08977413922548294,"92":0.18436206877231598,"93":0.18319641053676605,"94":-0.17114783823490143,"95":-0.1506010740995407,"96":-0.2026831954717636,"97":0.13207478821277618,"98":0.08830701559782028,"99":-0.06440910696983337,"100":0.00019497716857586056,"101":0.1328427940607071,"102":0.1271408349275589,"103":0.034078069031238556,"104":0.09944818168878555,"105":-0.0030840691179037094,"106":-0.16100366413593292,"107":0.16235314309597015,"108":-0.03926043584942818,"109":0.10768962651491165,"110":-0.07910481095314026,"111":0.14383594691753387,"112":0.015697788447141647,"113":0.17776615917682648,"114":-0.106325663626194}},"10":{"bias":-0.16084040701389313,"weights":{"0":0.13184912502765656,"1":0.0592908039689064,"2":0.01321945060044527,"3":-0.11143575608730316,"4":-0.04184342920780182,"5":-0.16347363591194153,"6":0.10638348758220673,"7":0.1983780860900879,"8":-0.17438912391662598,"9":0.16931068897247314,"10":-0.07774722576141357,"11":0.09865245223045349,"12":0.11871790885925293,"13":0.02306334674358368,"14":-0.08561426401138306,"15":-0.0403447300195694,"16":-0.18465080857276917,"17":-0.18122708797454834,"18":0.07023414969444275,"19":0.0018804112914949656,"20":-0.17197147011756897,"21":-0.12661689519882202,"22":-0.06281565874814987,"23":-0.022450849413871765,"24":-0.029858095571398735,"25":-0.16176563501358032,"26":0.0608554407954216,"27":-0.1048944890499115,"28":-0.1886262595653534,"29":-0.05769113451242447,"30":-0.44482219219207764,"31":-0.1143406480550766,"32":0.11772991716861725,"33":-0.0005190790398046374,"34":-0.036523737013339996,"35":0.31237563490867615,"36":0.4337620437145233,"37":-0.07332463562488556,"38":0.17518401145935059,"39":0.07464289665222168,"40":0.17501787841320038,"41":-0.00936085730791092,"42":0.17061839997768402,"43":0.01542659942060709,"44":-0.05764041095972061,"45":-0.16883888840675354,"46":-0.10088483989238739,"47":0.19479221105575562,"48":0.1381162703037262,"49":-0.1785183548927307,"50":0.13504952192306519,"51":-0.021070227026939392,"52":-0.26797088980674744,"53":-0.6421064138412476,"54":-0.3734935224056244,"55":0.15481126308441162,"56":0.08405661582946777,"57":0.2202536165714264,"58":0.4107734262943268,"59":0.24663393199443817,"60":0.07783925533294678,"61":-0.150154709815979,"62":-0.1428479552268982,"63":0.17873990535736084,"64":-0.10316070169210434,"65":0.23564808070659637,"66":0.17815327644348145,"67":-0.15201649069786072,"68":0.1251048594713211,"69":0.08320063352584839,"70":0.20407472550868988,"71":-0.10118988901376724,"72":-0.08392860740423203,"73":-0.10021936893463135,"74":-0.056390367448329926,"75":-0.2086290866136551,"76":-0.2608756422996521,"77":-0.04901029169559479,"78":-0.0786038488149643,"79":-0.1841903030872345,"80":0.09651024639606476,"81":0.3160719573497772,"82":0.34122857451438904,"83":0.03174176067113876,"84":-0.19164228439331055,"85":-0.005906848702579737,"86":0.031456109136343,"87":0.2375999093055725,"88":0.1194693073630333,"89":-0.1327425241470337,"90":0.009659250266849995,"91":-0.10219891369342804,"92":-0.015103469602763653,"93":-0.09351719170808792,"94":-0.1369660496711731,"95":0.06472844630479813,"96":-0.036938004195690155,"97":-0.13947081565856934,"98":-0.006660907994955778,"99":-0.18675139546394348,"100":0.10940234363079071,"101":0.15233826637268066,"102":-0.09439726173877716,"103":0.060347095131874084,"104":0.08642496168613434,"105":0.13864192366600037,"106":0.15271294116973877,"107":0.01955575868487358,"108":-0.048936985433101654,"109":-0.011602318845689297,"110":-0.07941055297851562,"111":-0.1326656937599182,"112":0.20650246739387512,"113":0.0904967337846756,"114":0.17087942361831665}},"11":{"bias":0.0020712269470095634,"weights":{"0":0.160074383020401,"1":-0.07925957441329956,"2":-0.17878322303295135,"3":-0.08573809266090393,"4":0.11613450199365616,"5":0.02109343744814396,"6":0.15256337821483612,"7":0.008357781916856766,"8":0.01026417687535286,"9":0.17787009477615356,"10":-0.14217649400234222,"11":-0.02716526947915554,"12":-0.03718435391783714,"13":-0.06297177076339722,"14":0.03917361795902252,"15":-0.0739523321390152,"16":-0.08319876343011856,"17":0.11189763247966766,"18":0.1818493753671646,"19":-0.0389099158346653,"20":0.11596143990755081,"21":-0.0397057831287384,"22":-0.11742066591978073,"23":0.16357918083667755,"24":-0.016190657392144203,"25":0.19851644337177277,"26":0.032735396176576614,"27":-0.023498663678765297,"28":-0.18737000226974487,"29":0.16590434312820435,"30":0.26505956053733826,"31":0.21933190524578094,"32":0.10701974481344223,"33":-0.05670175701379776,"34":0.09897448122501373,"35":0.07674399763345718,"36":0.17153210937976837,"37":-0.03409627825021744,"38":-0.1335817128419876,"39":-0.16486722230911255,"40":-0.03150808438658714,"41":-0.2298687845468521,"42":-0.33016735315322876,"43":-0.14667584002017975,"44":0.14944221079349518,"45":0.059010010212659836,"46":0.04817274212837219,"47":-0.11556673049926758,"48":-0.10000823438167572,"49":-0.074210025370121,"50":0.0699525773525238,"51":0.18065416812896729,"52":0.1866016685962677,"53":0.051335472613573074,"54":0.19268657267093658,"55":-0.014608326368033886,"56":-0.022380689159035683,"57":0.037549491971731186,"58":0.3297794461250305,"59":0.1591002196073532,"60":0.16267137229442596,"61":0.13224388659000397,"62":-0.016819655895233154,"63":-0.138125479221344,"64":-0.620910108089447,"65":-0.2501886487007141,"66":-0.04501621425151825,"67":-0.09402148425579071,"68":-0.09705313295125961,"69":-0.18423762917518616,"70":-0.12401413172483444,"71":0.20028957724571228,"72":0.11047211289405823,"73":0.004620612133294344,"74":-0.169658824801445,"75":0.1826605647802353,"76":0.31415238976478577,"77":0.2142513543367386,"78":0.1556631177663803,"79":0.09507153928279877,"80":-0.1044236570596695,"81":-0.036690838634967804,"82":-0.08572119474411011,"83":0.03206188976764679,"84":-0.12057583034038544,"85":0.12566016614437103,"86":-0.4468832015991211,"87":-0.3444274067878723,"88":-0.13579058647155762,"89":-0.021863197907805443,"90":0.13514338433742523,"91":0.13144247233867645,"92":-0.001847313018515706,"93":-0.19239266216754913,"94":-0.031040700152516365,"95":-0.1898210644721985,"96":-0.08087944984436035,"97":-0.11948482692241669,"98":0.060242410749197006,"99":0.07496986538171768,"100":0.024033689871430397,"101":0.09915383905172348,"102":0.13907556235790253,"103":-0.025118978694081306,"104":0.1157989576458931,"105":-0.09502554684877396,"106":0.18514412641525269,"107":-0.1519095003604889,"108":0.08440657705068588,"109":-0.10982242971658707,"110":-0.2051849216222763,"111":-0.07701569050550461,"112":-0.18175555765628815,"113":-0.18008816242218018,"114":0.06816546618938446}},"12":{"bias":0.051203012466430664,"weights":{"0":-0.18915145099163055,"1":-0.11786165088415146,"2":0.1715400069952011,"3":0.08858685940504074,"4":-0.020970787853002548,"5":0.044593170285224915,"6":-0.07205940037965775,"7":0.04734466224908829,"8":0.008852854371070862,"9":-0.023670315742492676,"10":0.19596852362155914,"11":0.14271169900894165,"12":-0.007386903278529644,"13":-0.19775302708148956,"14":0.05844767391681671,"15":-0.09959866851568222,"16":0.17326225340366364,"17":0.13882070779800415,"18":-0.03548538684844971,"19":-0.047385260462760925,"20":-0.046669118106365204,"21":-0.017922991886734962,"22":-0.06946311891078949,"23":0.007567530032247305,"24":0.02946416661143303,"25":0.01772795431315899,"26":0.03890303522348404,"27":-0.10645247250795364,"28":-0.18354623019695282,"29":-0.0527493990957737,"30":0.1269187033176422,"31":-0.07444729655981064,"32":-0.008199152536690235,"33":-0.19675038754940033,"34":-0.09310927242040634,"35":-0.23408523201942444,"36":-0.3327274024486542,"37":0.17787127196788788,"38":-0.03208756819367409,"39":-0.17507803440093994,"40":-0.1823766529560089,"41":0.1404617577791214,"42":0.07656566798686981,"43":-0.10446495562791824,"44":-0.09891130775213242,"45":-0.15783032774925232,"46":0.13921639323234558,"47":-0.0017317560268566012,"48":-0.07038109749555588,"49":-0.11667480319738388,"50":0.14412599802017212,"51":-0.09062127023935318,"52":0.4875067174434662,"53":0.44848278164863586,"54":0.492434024810791,"55":-0.09444610029459,"56":-0.10298026353120804,"57":-0.19949468970298767,"58":-0.5748935341835022,"59":-0.5478599071502686,"60":-0.16789565980434418,"61":-0.1538986712694168,"62":0.18786336481571198,"63":0.0657249391078949,"64":0.015269297175109386,"65":0.0538780651986599,"66":0.14907579123973846,"67":-0.09934792667627335,"68":-0.14335758984088898,"69":0.11858879029750824,"70":0.13088639080524445,"71":-0.07662399858236313,"72":0.1931496411561966,"73":-0.1536460667848587,"74":0.12299605458974838,"75":0.07927124202251434,"76":0.4955032169818878,"77":-0.12944649159908295,"78":0.13600893318653107,"79":0.08800121396780014,"80":-0.0016792486421763897,"81":-0.1250200718641281,"82":-0.07805677503347397,"83":0.03394709527492523,"84":0.03302455693483353,"85":0.13497726619243622,"86":-0.01281802449375391,"87":-0.010327104479074478,"88":0.10797674208879471,"89":0.04736573249101639,"90":0.041183628141880035,"91":-0.039387598633766174,"92":-0.03612058609724045,"93":-0.06548567861318588,"94":-0.0847092941403389,"95":0.08556515723466873,"96":0.09816580265760422,"97":-0.13188019394874573,"98":-0.021281583234667778,"99":0.11459868401288986,"100":0.0875004306435585,"101":-0.11667614430189133,"102":0.1803419291973114,"103":0.11971315741539001,"104":0.11575587838888168,"105":-0.026105616241693497,"106":-0.10563100129365921,"107":0.0793268010020256,"108":-0.13647563755512238,"109":-0.0864546075463295,"110":0.04131714254617691,"111":0.014283926226198673,"112":-0.04925309121608734,"113":-0.0428658127784729,"114":0.088016577064991}},"13":{"bias":0.07879706472158432,"weights":{"0":0.18659572303295135,"1":-0.14042668044567108,"2":0.10799237340688705,"3":0.12163607031106949,"4":-0.07791709154844284,"5":0.13207052648067474,"6":0.010957320220768452,"7":0.012273811735212803,"8":-0.1892358809709549,"9":0.07311607152223587,"10":0.16275973618030548,"11":-0.09439658373594284,"12":-0.02648644708096981,"13":0.08261936157941818,"14":-0.01860085129737854,"15":0.03739279881119728,"16":-0.09467140585184097,"17":0.02888409048318863,"18":0.07234226912260056,"19":-0.014079165644943714,"20":-0.0253347996622324,"21":-0.16554151475429535,"22":0.0204662773758173,"23":0.02254224196076393,"24":-0.13124386966228485,"25":0.015375211834907532,"26":0.07076098769903183,"27":-0.11951886862516403,"28":0.09362340718507767,"29":0.07178008556365967,"30":0.2118539959192276,"31":0.11743530631065369,"32":-0.03711357340216637,"33":-0.2068818360567093,"34":-0.20507492125034332,"35":0.18907785415649414,"36":0.12594099342823029,"37":0.11786871403455734,"38":0.12315448373556137,"39":-0.0800439640879631,"40":-0.10660672187805176,"41":0.14452984929084778,"42":-0.14481833577156067,"43":-0.0943613275885582,"44":0.10036056488752365,"45":0.06177608296275139,"46":-0.12791895866394043,"47":-0.25114983320236206,"48":-0.6192446947097778,"49":0.022959938272833824,"50":-0.10155265778303146,"51":0.015214004553854465,"52":0.1391092985868454,"53":0.1395648717880249,"54":0.23257818818092346,"55":0.0821290984749794,"56":-0.11479762941598892,"57":0.13697177171707153,"58":0.12000544369220734,"59":0.20975857973098755,"60":-0.17812708020210266,"61":-0.0451536662876606,"62":0.12949982285499573,"63":0.21688495576381683,"64":-0.07081229239702225,"65":-0.029300015419721603,"66":0.004086673259735107,"67":0.13790711760520935,"68":0.05029260739684105,"69":0.0501951202750206,"70":-0.33076155185699463,"71":-0.40358924865722656,"72":0.15556390583515167,"73":-0.11819351464509964,"74":-0.13187630474567413,"75":0.09122930467128754,"76":0.32999688386917114,"77":0.005853737238794565,"78":-0.0023154360242187977,"79":0.05313247814774513,"80":0.09157351404428482,"81":-0.11463920772075653,"82":0.07611849159002304,"83":-0.14265845715999603,"84":-0.011631353758275509,"85":-0.17458538711071014,"86":-0.10789255052804947,"87":0.15294179320335388,"88":0.09184105694293976,"89":0.18715573847293854,"90":0.036342304199934006,"91":-0.126583993434906,"92":0.04595481976866722,"93":-0.2205418050289154,"94":-0.08601471036672592,"95":-0.19840355217456818,"96":-0.11389734596014023,"97":-0.1913922280073166,"98":0.11239638179540634,"99":-0.03995398059487343,"100":0.18073983490467072,"101":0.10533019155263901,"102":-0.1402052938938141,"103":0.08489128202199936,"104":-0.07822266966104507,"105":-0.14855358004570007,"106":0.11039889603853226,"107":0.059302713721990585,"108":-0.19352148473262787,"109":0.123081736266613,"110":0.12698185443878174,"111":-0.16424022614955902,"112":0.15867160260677338,"113":-0.12093066424131393,"114":-0.13138721883296967}},"14":{"bias":0.1698063462972641,"weights":{"0":0.10834144800901413,"1":0.19916974008083344,"2":0.1743554323911667,"3":0.04047755151987076,"4":-0.13470415771007538,"5":0.007743288297206163,"6":-0.1838788539171219,"7":0.15083208680152893,"8":0.05271196365356445,"9":-0.15873871743679047,"10":-0.020581236109137535,"11":0.14506098628044128,"12":0.057482995092868805,"13":0.09677601605653763,"14":-0.053150475025177,"15":-0.025459369644522667,"16":0.05953041464090347,"17":-0.17994214594364166,"18":0.0680459514260292,"19":-0.062216609716415405,"20":-0.08980894833803177,"21":-0.11555395275354385,"22":-0.15288867056369781,"23":0.031129207462072372,"24":0.0031346643809229136,"25":-0.10654327273368835,"26":0.05787643790245056,"27":0.14166022837162018,"28":0.00450171297416091,"29":0.155048668384552,"30":0.25862735509872437,"31":0.10498911887407303,"32":-0.08173105120658875,"33":-0.08397914469242096,"34":-0.08879116177558899,"35":-0.19993549585342407,"36":0.06419992446899414,"37":0.014376920647919178,"38":0.026517478749155998,"39":0.11544398963451385,"40":-0.14415080845355988,"41":0.1622738093137741,"42":0.07020646333694458,"43":0.05348031967878342,"44":0.02986053191125393,"45":0.10360616445541382,"46":-0.23204857110977173,"47":-0.4525837302207947,"48":-0.24029013514518738,"49":-0.23114337027072906,"50":-0.09646006673574448,"51":-0.1340171992778778,"52":0.29057151079177856,"53":0.3560948669910431,"54":0.22100555896759033,"55":0.13445915281772614,"56":-0.06628741323947906,"57":-0.026957200840115547,"58":-0.12635284662246704,"59":0.07788196951150894,"60":-0.13056670129299164,"61":0.18411047756671906,"62":-0.1879184991121292,"63":-0.18361787497997284,"64":-0.12282868474721909,"65":0.12354815006256104,"66":-0.16467006504535675,"67":0.14384163916110992,"68":-0.13906601071357727,"69":0.1301727294921875,"70":-0.19211286306381226,"71":-0.25591081380844116,"72":-0.10392297804355621,"73":0.053488120436668396,"74":-0.15720780193805695,"75":0.24870085716247559,"76":0.12144282460212708,"77":-0.036080095916986465,"78":-0.13413944840431213,"79":0.10991130024194717,"80":0.06554511934518814,"81":-0.009827151894569397,"82":-0.07516986131668091,"83":-0.10726563632488251,"84":0.2018296867609024,"85":0.12278881669044495,"86":0.20403046905994415,"87":-0.05249045044183731,"88":-0.1283799111843109,"89":0.07941338419914246,"90":0.14475135505199432,"91":-0.015778906643390656,"92":0.17784862220287323,"93":-0.02785925567150116,"94":0.08528653532266617,"95":0.04094947129487991,"96":0.11946525424718857,"97":0.10516724735498428,"98":0.12074355781078339,"99":-0.1553894430398941,"100":-0.05564282089471817,"101":0.1358642727136612,"102":-0.16352276504039764,"103":-0.02929740957915783,"104":-0.12072815746068954,"105":0.1528874933719635,"106":-0.10249925404787064,"107":0.02265208028256893,"108":-0.05246223509311676,"109":0.021401910111308098,"110":-0.13214437663555145,"111":-0.019641293212771416,"112":0.15002842247486115,"113":-0.11434634774923325,"114":-0.047199003398418427}},"15":{"bias":0.19013437628746033,"weights":{"0":-0.04307848587632179,"1":0.03957860544323921,"2":0.09061112254858017,"3":-0.051742736250162125,"4":0.08517881482839584,"5":0.02791626751422882,"6":-0.11453204602003098,"7":-0.08716536313295364,"8":0.007565264590084553,"9":0.04598240926861763,"10":0.1378861963748932,"11":-0.052935417741537094,"12":-0.08280017226934433,"13":0.01854700967669487,"14":0.046999167650938034,"15":-0.0751335546374321,"16":0.12826436758041382,"17":-0.03275668993592262,"18":0.08153847604990005,"19":0.058564718812704086,"20":0.05511385574936867,"21":0.023786628618836403,"22":0.04308616742491722,"23":0.011932022869586945,"24":-0.08629221469163895,"25":-0.2174224704504013,"26":0.11238738149404526,"27":-0.09290701895952225,"28":0.11268230527639389,"29":0.05918077379465103,"30":0.2173750400543213,"31":0.17024780809879303,"32":0.1518956422805786,"33":-0.11490944772958755,"34":0.15285682678222656,"35":0.10950420796871185,"36":0.2417599856853485,"37":-0.07468240708112717,"38":-0.04066957160830498,"39":-0.009601662866771221,"40":-0.1639811247587204,"41":0.12545980513095856,"42":-0.06734928488731384,"43":0.044201258569955826,"44":-0.02574233151972294,"45":0.07128589600324631,"46":-0.2115224003791809,"47":-0.2902296781539917,"48":-0.164958655834198,"49":-0.024361802265048027,"50":0.13731977343559265,"51":-0.1697087287902832,"52":0.20388977229595184,"53":0.049607954919338226,"54":0.25511306524276733,"55":0.0525173656642437,"56":0.1944512128829956,"57":-0.007056888192892075,"58":0.3593972623348236,"59":0.31018251180648804,"60":-0.022314071655273438,"61":-0.12399010360240936,"62":0.05738217011094093,"63":-0.06543708592653275,"64":-0.31812000274658203,"65":-0.20687967538833618,"66":-0.03829049691557884,"67":0.14813753962516785,"68":-0.004392396658658981,"69":0.1746593415737152,"70":-0.34852492809295654,"71":-0.06262767314910889,"72":-0.11523416638374329,"73":-0.11824508756399155,"74":-0.07531542330980301,"75":0.2700411379337311,"76":0.36592772603034973,"77":-0.10254736244678497,"78":-0.0959678366780281,"79":0.0976327583193779,"80":-0.052532318979501724,"81":0.0866718515753746,"82":0.15057800710201263,"83":0.009057641960680485,"84":-0.11199136823415756,"85":-0.07455679029226303,"86":-0.08223667740821838,"87":-0.2537170350551605,"88":-0.14994704723358154,"89":0.11622951179742813,"90":0.07262726873159409,"91":-0.09837593883275986,"92":-0.0863572284579277,"93":-0.0247685257345438,"94":-0.12373673170804977,"95":0.018689926713705063,"96":0.08718318492174149,"97":0.11495903879404068,"98":-0.1643160581588745,"99":0.20442482829093933,"100":0.10236621648073196,"101":0.13880115747451782,"102":0.029194358736276627,"103":-0.054246123880147934,"104":-0.19152036309242249,"105":-0.17590224742889404,"106":-0.08067559450864792,"107":-0.15256845951080322,"108":-0.03252521529793739,"109":-0.056933749467134476,"110":-0.16744622588157654,"111":-0.009977319277822971,"112":-0.06240503862500191,"113":-0.07480601221323013,"114":-0.08336790651082993}},"16":{"bias":0.16836059093475342,"weights":{"0":-0.12933717668056488,"1":0.034802861511707306,"2":-0.1808171570301056,"3":-0.04013564810156822,"4":0.17387911677360535,"5":-0.03793175891041756,"6":-0.05908926948904991,"7":-0.10127750784158707,"8":0.15047013759613037,"9":0.16765862703323364,"10":0.027615398168563843,"11":0.04603425785899162,"12":0.034323252737522125,"13":0.16443830728530884,"14":-0.15563884377479553,"15":-0.11216044425964355,"16":-0.10097124427556992,"17":-0.02876601368188858,"18":-0.029521547257900238,"19":0.09235482662916183,"20":0.10559152811765671,"21":-0.13645029067993164,"22":0.10934723168611526,"23":-0.21456453204154968,"24":-0.38902178406715393,"25":-0.03665349632501602,"26":-0.13235056400299072,"27":-0.14634639024734497,"28":0.16051644086837769,"29":0.004381299484521151,"30":0.019179604947566986,"31":0.08138806372880936,"32":-0.06915968656539917,"33":-0.06337642669677734,"34":-0.11254359781742096,"35":0.28241947293281555,"36":0.19509626924991608,"37":-0.004553602542728186,"38":-0.026168033480644226,"39":-0.13553816080093384,"40":0.13469615578651428,"41":-0.1984270215034485,"42":-0.13971014320850372,"43":-0.09852682799100876,"44":-0.09957486391067505,"45":-0.15720820426940918,"46":-0.15954184532165527,"47":-0.3786494731903076,"48":-0.5148581862449646,"49":-0.15246689319610596,"50":-0.04182448610663414,"51":0.04022965952754021,"52":0.21261516213417053,"53":0.4927581548690796,"54":0.23443900048732758,"55":-0.014284388162195683,"56":0.07009876519441605,"57":-0.13428615033626556,"58":0.10259408503770828,"59":0.08471422642469406,"60":0.08523739874362946,"61":-0.0062595210038125515,"62":0.16976457834243774,"63":0.09400803595781326,"64":-0.2939457595348358,"65":-0.21458958089351654,"66":0.10596725344657898,"67":0.1817968785762787,"68":-0.02306206524372101,"69":-0.12946346402168274,"70":-0.3591415584087372,"71":-0.4120364785194397,"72":0.015515170991420746,"73":0.17745143175125122,"74":0.09432029724121094,"75":0.20845849812030792,"76":0.38526251912117004,"77":0.21278704702854156,"78":-0.06356725841760635,"79":-0.042002324014902115,"80":0.12177060544490814,"81":0.15861184895038605,"82":0.08656752854585648,"83":-0.009240864776074886,"84":-0.13092643022537231,"85":0.13322710990905762,"86":-0.01363355666399002,"87":-0.14952942728996277,"88":0.1429295539855957,"89":0.159061998128891,"90":0.1140221431851387,"91":-0.05880089849233627,"92":-0.005073054227977991,"93":0.044595807790756226,"94":0.09227058291435242,"95":0.04166671261191368,"96":-0.15221929550170898,"97":0.11195459961891174,"98":0.13555163145065308,"99":0.08156590908765793,"100":-0.11184746772050858,"101":0.0024703918024897575,"102":-0.1346319019794464,"103":-0.06591929495334625,"104":-0.16587620973587036,"105":-0.19154104590415955,"106":0.09635864198207855,"107":0.06795366108417511,"108":0.10039415955543518,"109":0.035486381500959396,"110":0.1415199339389801,"111":0.04131915047764778,"112":0.05431469902396202,"113":0.018623918294906616,"114":0.07313279807567596}},"17":{"bias":-0.08698635548353195,"weights":{"0":-0.1872834861278534,"1":-0.1212531179189682,"2":0.014232969842851162,"3":0.08807507902383804,"4":-0.13435189425945282,"5":-0.18900221586227417,"6":-0.16651783883571625,"7":-0.03390515595674515,"8":-0.03476833552122116,"9":0.0946044921875,"10":0.10566803812980652,"11":0.13304133713245392,"12":-0.13271138072013855,"13":0.06708382070064545,"14":0.08365251868963242,"15":0.13957922160625458,"16":0.13903485238552094,"17":-0.1807938814163208,"18":-0.12778536975383759,"19":-0.05041596293449402,"20":0.1430836170911789,"21":-0.13137492537498474,"22":0.0894860103726387,"23":0.03498613089323044,"24":-0.15438993275165558,"25":-0.15378528833389282,"26":0.016568878665566444,"27":-0.0446474552154541,"28":-0.12831327319145203,"29":0.03483900800347328,"30":-0.12584951519966125,"31":-0.028614286333322525,"32":0.041321948170661926,"33":-0.13479259610176086,"34":-0.003580329241231084,"35":-0.07577460259199142,"36":0.11876310408115387,"37":-0.02715543657541275,"38":-0.16955289244651794,"39":0.10242319107055664,"40":-0.04798281937837601,"41":-0.1776619404554367,"42":-0.10322540998458862,"43":-0.05471985042095184,"44":0.11287078261375427,"45":-0.13788136839866638,"46":-0.03712669014930725,"47":0.007031366694718599,"48":0.16123244166374207,"49":-0.17465852200984955,"50":-0.1469542384147644,"51":0.08961372077465057,"52":-0.11538773775100708,"53":0.07940635830163956,"54":0.13935387134552002,"55":0.042147837579250336,"56":0.13684244453907013,"57":-0.094851553440094,"58":-0.11319995671510696,"59":-0.17705292999744415,"60":0.10633371770381927,"61":-0.10998938977718353,"62":0.013490034267306328,"63":-0.06387035548686981,"64":-0.07854880392551422,"65":0.025144092738628387,"66":-0.15187247097492218,"67":-0.1382889747619629,"68":-0.17746345698833466,"69":0.15037955343723297,"70":0.08052188903093338,"71":-0.16557659208774567,"72":0.002762793330475688,"73":0.1153322085738182,"74":-0.04034297913312912,"75":0.0005242813494987786,"76":0.06509821861982346,"77":-0.14587581157684326,"78":-0.13143014907836914,"79":-0.20176570117473602,"80":-0.087252676486969,"81":0.13863462209701538,"82":-0.0639985129237175,"83":0.10644762963056564,"84":-0.17489847540855408,"85":-0.17600272595882416,"86":0.11196291446685791,"87":-0.1460505574941635,"88":0.09890414774417877,"89":-0.1955997347831726,"90":-0.028526034206151962,"91":-0.18386173248291016,"92":-0.144503653049469,"93":-0.04843318834900856,"94":0.03941779583692551,"95":-0.060526810586452484,"96":0.024402394890785217,"97":-0.061627306044101715,"98":-0.13575871288776398,"99":-0.11345283687114716,"100":-0.08081220835447311,"101":-0.18724600970745087,"102":0.1609313040971756,"103":-0.15447887778282166,"104":0.05769343674182892,"105":0.038896575570106506,"106":0.06905436515808105,"107":-0.08432432264089584,"108":-0.036177460104227066,"109":0.18296997249126434,"110":-0.17975668609142303,"111":-0.01380601804703474,"112":0.005916866939514875,"113":-0.08816266059875488,"114":0.07023600488901138}},"18":{"bias":-0.038316842168569565,"weights":{"0":0.14800436794757843,"1":0.150246724486351,"2":-0.13435785472393036,"3":-0.006803101394325495,"4":0.20440050959587097,"5":-0.09990125894546509,"6":-0.0416027195751667,"7":0.01577863097190857,"8":0.18122313916683197,"9":-0.17170396447181702,"10":0.1963806003332138,"11":0.03910075128078461,"12":-0.12676949799060822,"13":0.049476686865091324,"14":-0.1701635718345642,"15":-0.001135819242335856,"16":-0.12249703705310822,"17":-0.18261776864528656,"18":-0.08584435284137726,"19":0.08980198204517365,"20":-0.012093882076442242,"21":0.15637166798114777,"22":-0.08161607384681702,"23":-0.10682176798582077,"24":-0.23923225700855255,"25":-0.16666430234909058,"26":0.07922370731830597,"27":-0.022154027596116066,"28":0.13793954253196716,"29":-0.15095610916614532,"30":-0.1667293757200241,"31":0.14652784168720245,"32":0.00883660838007927,"33":-0.09699828922748566,"34":-0.0629628598690033,"35":0.14794684946537018,"36":-0.0736919716000557,"37":-0.17934317886829376,"38":-0.1009209007024765,"39":0.11103515326976776,"40":0.16742166876792908,"41":0.32535627484321594,"42":0.02700657956302166,"43":0.15092581510543823,"44":0.20349781215190887,"45":0.0567319318652153,"46":0.03175162523984909,"47":-0.4622204005718231,"48":-0.36179980635643005,"49":-0.020019415766000748,"50":0.020371826365590096,"51":-0.029495198279619217,"52":0.04423023760318756,"53":0.10677793622016907,"54":-0.09326047450304031,"55":-0.16572341322898865,"56":-0.18500438332557678,"57":0.03928908333182335,"58":-0.01488527376204729,"59":-0.11497020721435547,"60":-0.02479025162756443,"61":-0.025256691500544548,"62":-0.10032124817371368,"63":0.3555144965648651,"64":0.6022650003433228,"65":0.10144170373678207,"66":-0.14836008846759796,"67":-0.11612389981746674,"68":-0.023069625720381737,"69":-0.11541800945997238,"70":-0.13021017611026764,"71":-0.22106081247329712,"72":0.1924557238817215,"73":-0.12579131126403809,"74":0.14464452862739563,"75":-0.14216355979442596,"76":-0.19493110477924347,"77":-0.11605553328990936,"78":-0.030062591657042503,"79":0.15985503792762756,"80":-0.10732784867286682,"81":-0.04726811870932579,"82":-0.12224293500185013,"83":0.04827670753002167,"84":0.14192497730255127,"85":0.1186206042766571,"86":0.15376196801662445,"87":0.35587531328201294,"88":-0.07935530692338943,"89":-0.045849572867155075,"90":0.04417818784713745,"91":0.20674313604831696,"92":0.11456401646137238,"93":-0.09905938804149628,"94":0.1215905249118805,"95":-0.03671150282025337,"96":-0.035547930747270584,"97":0.1356310099363327,"98":0.19784554839134216,"99":0.05740160122513771,"100":0.210293248295784,"101":0.12376630306243896,"102":0.07487520575523376,"103":-0.08557029068470001,"104":-0.13015130162239075,"105":0.18938465416431427,"106":-0.13943389058113098,"107":0.0765807032585144,"108":-0.12153930962085724,"109":-0.05218992754817009,"110":-0.14998435974121094,"111":-0.09304821491241455,"112":0.0955420732498169,"113":-0.023082805797457695,"114":0.11016848683357239}},"19":{"bias":0.0978260412812233,"weights":{"0":0.06142302602529526,"1":-0.13071408867835999,"2":-0.18913774192333221,"3":-0.0985485166311264,"4":0.1481030136346817,"5":-0.0376814641058445,"6":0.06352590769529343,"7":-0.0056406245566904545,"8":0.11164748668670654,"9":-0.03259660676121712,"10":-0.11376185715198517,"11":0.15756836533546448,"12":0.17770728468894958,"13":-0.16944777965545654,"14":-0.006145081948488951,"15":0.1335354447364807,"16":-0.13978981971740723,"17":-0.0806029736995697,"18":-0.10835200548171997,"19":-0.17049036920070648,"20":0.156471848487854,"21":0.08680866658687592,"22":-0.0029452976305037737,"23":0.10181774944067001,"24":-0.05775066837668419,"25":-0.04371153190732002,"26":-0.18915921449661255,"27":-0.12478451430797577,"28":-0.017558490857481956,"29":-0.13295495510101318,"30":-0.06352052092552185,"31":-0.09027557075023651,"32":-0.004630183335393667,"33":-0.0629977285861969,"34":-0.1377570778131485,"35":0.1674509048461914,"36":0.1951344758272171,"37":0.10524340718984604,"38":0.11184870451688766,"39":0.154461070895195,"40":-0.19640740752220154,"41":0.1000862643122673,"42":0.004782939329743385,"43":0.09745201468467712,"44":-0.13978949189186096,"45":0.16096638143062592,"46":-0.11852090805768967,"47":0.05741187185049057,"48":0.18261022865772247,"49":0.10955437272787094,"50":0.09320387989282608,"51":-0.15012064576148987,"52":-0.08379393815994263,"53":0.12406712025403976,"54":0.12471392750740051,"55":0.1958104372024536,"56":-0.16283771395683289,"57":0.12714196741580963,"58":0.14664895832538605,"59":-0.03585295379161835,"60":0.12341191619634628,"61":-0.1623888462781906,"62":0.028129518032073975,"63":-0.1568404883146286,"64":-0.007074792869389057,"65":-0.20660609006881714,"66":-0.15284956991672516,"67":-0.16713592410087585,"68":0.062197647988796234,"69":0.05542312562465668,"70":0.010107475332915783,"71":0.13689856231212616,"72":-0.10992954671382904,"73":-0.2028900384902954,"74":-0.03261365368962288,"75":-0.07526196539402008,"76":-0.13435402512550354,"77":0.05607394501566887,"78":0.06526326388120651,"79":-0.02050657570362091,"80":0.055234868079423904,"81":0.0797436386346817,"82":-0.09569218754768372,"83":-0.07969798147678375,"84":0.02972518652677536,"85":0.1298527866601944,"86":0.058093179017305374,"87":0.014949776232242584,"88":-0.012919547036290169,"89":0.07538793981075287,"90":-0.18063706159591675,"91":-0.037862516939640045,"92":-0.13675570487976074,"93":-0.16195136308670044,"94":-0.19110094010829926,"95":0.05099145695567131,"96":-0.11614246666431427,"97":-0.03552509844303131,"98":0.18691197037696838,"99":-0.07471312582492828,"100":0.037944260984659195,"101":-0.18851473927497864,"102":-0.055114056915044785,"103":-0.19211512804031372,"104":-0.014448655769228935,"105":0.18880657851696014,"106":-0.13982847332954407,"107":-0.1655707210302353,"108":-0.07496911287307739,"109":-0.017814841121435165,"110":-0.054486267268657684,"111":0.09769149869680405,"112":-0.1137024387717247,"113":0.08850777894258499,"114":0.06373078376054764}},"20":{"bias":-0.056278765201568604,"weights":{"0":-0.00813246238976717,"1":0.13645663857460022,"2":-0.1699119508266449,"3":-0.1116417795419693,"4":0.015679823234677315,"5":-0.19610820710659027,"6":0.16223233938217163,"7":0.040111761540174484,"8":0.03793120011687279,"9":0.12004108726978302,"10":-0.09962108731269836,"11":0.06619410216808319,"12":-0.008355092257261276,"13":0.11560732871294022,"14":0.025055361911654472,"15":-0.07423299551010132,"16":-0.11589232832193375,"17":-0.002439276548102498,"18":-0.18944871425628662,"19":-0.011599203571677208,"20":0.027032701298594475,"21":-0.02150641195476055,"22":0.019303807988762856,"23":0.10351397097110748,"24":0.2412097156047821,"25":0.15075454115867615,"26":-0.07699363678693771,"27":0.09598805755376816,"28":-0.11228451877832413,"29":-0.03811461478471756,"30":0.27733278274536133,"31":0.01967383362352848,"32":0.1551164984703064,"33":-0.06817889213562012,"34":-0.09083351492881775,"35":0.11550050228834152,"36":0.1916050761938095,"37":0.07508658617734909,"38":-0.0422135628759861,"39":-0.019450971856713295,"40":-0.035682521760463715,"41":-0.058113764971494675,"42":-0.06030553579330444,"43":-0.013549014925956726,"44":0.061273686587810516,"45":-0.024455653503537178,"46":0.00980528537184,"47":0.20149379968643188,"48":-0.0041619776748120785,"49":0.14712084829807281,"50":-0.1779952496290207,"51":0.18523065745830536,"52":0.08298728615045547,"53":0.13481366634368896,"54":0.028247691690921783,"55":0.0876496359705925,"56":0.02063559554517269,"57":-0.1782529205083847,"58":-0.12930727005004883,"59":-0.0666339322924614,"60":-0.12907272577285767,"61":-0.00627238629385829,"62":0.18525837361812592,"63":-0.18948368728160858,"64":-0.4738852083683014,"65":-0.10376755148172379,"66":0.07852218300104141,"67":0.15379959344863892,"68":-0.16222526133060455,"69":0.0557473748922348,"70":0.22664013504981995,"71":-0.05085325241088867,"72":0.07964029163122177,"73":0.05250890925526619,"74":-0.038644131273031235,"75":-0.08787107467651367,"76":0.2507433295249939,"77":0.18990826606750488,"78":-0.13587437570095062,"79":-0.08894544839859009,"80":-0.10568001121282578,"81":0.01827787235379219,"82":0.04745486006140709,"83":0.0019572486635297537,"84":0.150478795170784,"85":0.09416060894727707,"86":-0.32442882657051086,"87":-0.32579854130744934,"88":-0.0571959912776947,"89":0.08235565572977066,"90":0.14006415009498596,"91":-0.057792577892541885,"92":-0.15778885781764984,"93":-0.153360053896904,"94":-0.08005841076374054,"95":0.07454801350831985,"96":-0.0630350112915039,"97":-0.03676033392548561,"98":-0.06969787180423737,"99":0.18723063170909882,"100":0.1387796252965927,"101":-0.03646380081772804,"102":-0.07736910879611969,"103":0.059978146106004715,"104":-0.1608177125453949,"105":-0.1321234256029129,"106":-0.031316883862018585,"107":-0.06993898004293442,"108":0.17413507401943207,"109":0.13406383991241455,"110":0.07231879234313965,"111":-0.13219282031059265,"112":0.11863019317388535,"113":-0.18238967657089233,"114":-0.11146372556686401}},"21":{"bias":0.12069805711507797,"weights":{"0":0.04388211667537689,"1":-0.08200470358133316,"2":-0.0672985389828682,"3":0.15419821441173553,"4":0.14221073687076569,"5":-0.1571769267320633,"6":-0.023412037640810013,"7":-0.08714284747838974,"8":-0.023386597633361816,"9":0.1756897270679474,"10":-0.18968389928340912,"11":-0.001057522720657289,"12":-0.1493990123271942,"13":0.1906271129846573,"14":0.09921746701002121,"15":0.06394238024950027,"16":-0.04836386442184448,"17":-0.16883604228496552,"18":-0.007081330753862858,"19":0.09821044653654099,"20":-0.10968339443206787,"21":0.06933989375829697,"22":-0.17450173199176788,"23":0.06152784824371338,"24":0.17960438132286072,"25":0.13043548166751862,"26":-0.041888073086738586,"27":0.14513278007507324,"28":-0.10279609262943268,"29":-0.11784622073173523,"30":0.06976694613695145,"31":0.025050321593880653,"32":-0.15279485285282135,"33":-0.048707105219364166,"34":0.17472489178180695,"35":-0.07446154206991196,"36":0.06314969062805176,"37":0.09191202372312546,"38":0.009884416125714779,"39":-0.059277452528476715,"40":-0.15033304691314697,"41":-0.11656339466571808,"42":-0.02230985462665558,"43":-0.004351026378571987,"44":0.10829164832830429,"45":0.06490481644868851,"46":0.05380743369460106,"47":-0.11045308411121368,"48":0.05164036527276039,"49":0.024727271869778633,"50":-0.1071738600730896,"51":-0.0489933043718338,"52":0.20367254316806793,"53":0.09017124027013779,"54":0.2094302624464035,"55":0.05346246808767319,"56":-0.1051391065120697,"57":0.0823557898402214,"58":0.1740024983882904,"59":0.14165835082530975,"60":0.028993787243962288,"61":-0.2008046656847,"62":0.12446068972349167,"63":-0.1600901484489441,"64":-0.268340140581131,"65":-0.002051860559731722,"66":-0.03642735630273819,"67":0.025027163326740265,"68":-0.18931876122951508,"69":-0.008352533914148808,"70":0.19052405655384064,"71":0.12465327233076096,"72":-0.1578945517539978,"73":-0.04649129509925842,"74":0.09948772192001343,"75":-0.050902195274829865,"76":0.02383877895772457,"77":0.07130181044340134,"78":0.14545583724975586,"79":-0.17723636329174042,"80":0.1595815122127533,"81":0.026771947741508484,"82":-0.0875316932797432,"83":-0.0035413336008787155,"84":-0.0006143118953332305,"85":0.1163511723279953,"86":-0.17088966071605682,"87":-0.310156911611557,"88":-0.1381630301475525,"89":-0.09135812520980835,"90":0.1053791418671608,"91":-0.20258420705795288,"92":-0.036701612174510956,"93":-0.19829531013965607,"94":-0.08166946470737457,"95":-0.13057856261730194,"96":0.1010618507862091,"97":0.0674033910036087,"98":0.1276293247938156,"99":0.1431370973587036,"100":0.05299586057662964,"101":-0.11186111718416214,"102":0.08331175148487091,"103":0.0907377302646637,"104":-0.11924925446510315,"105":0.006890467368066311,"106":0.07929677516222,"107":0.054078929126262665,"108":-0.17814984917640686,"109":0.18432746827602386,"110":0.07800441980361938,"111":0.06526703387498856,"112":-0.1868187040090561,"113":-0.05296548455953598,"114":0.10439198464155197}},"22":{"bias":0.06256788223981857,"weights":{"0":-0.14419123530387878,"1":0.04766269773244858,"2":0.16977860033512115,"3":0.02504262700676918,"4":-0.010862292721867561,"5":0.08179529011249542,"6":-0.19690842926502228,"7":-0.18422390520572662,"8":0.09213466197252274,"9":0.06585820764303207,"10":0.10732565075159073,"11":-0.1963162124156952,"12":-0.048394471406936646,"13":0.06698731333017349,"14":0.09925199300050735,"15":0.06031782552599907,"16":-0.19280941784381866,"17":0.1586083024740219,"18":0.1475716233253479,"19":0.0621187761425972,"20":-0.11784742027521133,"21":-0.1953182816505432,"22":-0.1461893916130066,"23":-0.13601598143577576,"24":0.15688906610012054,"25":-0.06324953585863113,"26":0.1332942545413971,"27":0.1937057226896286,"28":-0.030836135149002075,"29":0.15907174348831177,"30":0.080263152718544,"31":0.06834975630044937,"32":-0.030119773000478745,"33":-0.13641853630542755,"34":-0.043435197323560715,"35":0.04265397787094116,"36":-0.04227043315768242,"37":0.1676652729511261,"38":0.017425380647182465,"39":-0.030375901609659195,"40":0.0025266469456255436,"41":-0.047967251390218735,"42":0.0760112926363945,"43":0.16771794855594635,"44":0.04036702588200569,"45":-0.06219364330172539,"46":-0.012728777714073658,"47":-0.07211819291114807,"48":-0.06661605834960938,"49":0.02846415713429451,"50":0.11484911292791367,"51":-0.07539566606283188,"52":-0.05987982824444771,"53":-0.09989878535270691,"54":-0.15003634989261627,"55":-0.18179839849472046,"56":-0.06491014361381531,"57":-0.04776039347052574,"58":-0.10173989832401276,"59":-0.2719518542289734,"60":0.07065001130104065,"61":0.15374167263507843,"62":-0.18921367824077606,"63":0.10127836465835571,"64":0.029303094372153282,"65":-0.1883261799812317,"66":0.09010130912065506,"67":0.0669974833726883,"68":-0.12486661970615387,"69":-0.031053787097334862,"70":-0.041079405695199966,"71":0.1927965134382248,"72":0.050203438848257065,"73":0.09771928191184998,"74":-0.17971709370613098,"75":0.13319672644138336,"76":0.19434486329555511,"77":-0.001979316119104624,"78":-0.11196334660053253,"79":-0.09242357313632965,"80":-0.04101791977882385,"81":-0.008284644223749638,"82":-0.07902144640684128,"83":-0.18346476554870605,"84":0.08749904483556747,"85":0.03961586579680443,"86":0.08457916975021362,"87":-0.13904337584972382,"88":-0.055044036358594894,"89":0.13274838030338287,"90":-0.17134696245193481,"91":-0.197929248213768,"92":-0.13597024977207184,"93":-0.09526798874139786,"94":-0.1456630975008011,"95":0.034594517201185226,"96":-0.07668127864599228,"97":-0.015797685831785202,"98":-0.08550607413053513,"99":0.1410100907087326,"100":-0.06291255354881287,"101":0.07208038121461868,"102":0.11231766641139984,"103":-0.08054240792989731,"104":-0.04476768150925636,"105":-0.057012155652046204,"106":-0.1119072362780571,"107":-0.07354467362165451,"108":-0.04593726247549057,"109":0.14280232787132263,"110":0.00804096832871437,"111":-0.0912814512848854,"112":-0.02254960685968399,"113":-0.05156276375055313,"114":-0.0006939124432392418}},"23":{"bias":0.06735824048519135,"weights":{"0":-0.1657695472240448,"1":0.0926973819732666,"2":-0.022831888869404793,"3":0.05663301423192024,"4":-0.15167352557182312,"5":0.06906764209270477,"6":0.21443718671798706,"7":0.1891927868127823,"8":-0.09953203052282333,"9":-0.09493938833475113,"10":-0.13121387362480164,"11":0.1855098009109497,"12":-0.1264924705028534,"13":-0.04638166353106499,"14":-0.16403527557849884,"15":0.015143333002924919,"16":0.2128937840461731,"17":0.02408106066286564,"18":0.15784841775894165,"19":0.11899420619010925,"20":0.07373770326375961,"21":-0.03283390775322914,"22":-0.09528309106826782,"23":-0.16226154565811157,"24":-0.022784549742937088,"25":-0.07249468564987183,"26":0.1731237918138504,"27":0.053678762167692184,"28":0.050362538546323776,"29":-0.11818601191043854,"30":0.015556415542960167,"31":-0.0035422034561634064,"32":0.01545810978859663,"33":0.15520741045475006,"34":-0.1258915811777115,"35":-0.07413756847381592,"36":-0.2329854518175125,"37":0.14542846381664276,"38":-0.08980228006839752,"39":0.18510626256465912,"40":0.12494389712810516,"41":-0.06552261859178543,"42":0.08382141590118408,"43":-0.1319745033979416,"44":-0.13669632375240326,"45":-0.0774802565574646,"46":0.11739486455917358,"47":0.12217424064874649,"48":-0.03311822935938835,"49":-0.1658860146999359,"50":-0.15119445323944092,"51":-0.16062353551387787,"52":-0.016984712332487106,"53":0.2203051745891571,"54":0.13526485860347748,"55":-0.04127630963921547,"56":-0.09282132983207703,"57":-0.11277114599943161,"58":-0.1687949001789093,"59":-0.24328799545764923,"60":0.001233923714607954,"61":0.09359661489725113,"62":0.09397747367620468,"63":0.18836943805217743,"64":-0.04743993654847145,"65":0.07662424445152283,"66":0.21245965361595154,"67":-0.14897242188453674,"68":0.16741865873336792,"69":0.13430079817771912,"70":-0.05104243755340576,"71":0.11364886164665222,"72":0.13458481431007385,"73":0.04067834094166756,"74":0.06070031598210335,"75":-0.03656300529837608,"76":-0.11064289510250092,"77":0.12875255942344666,"78":-0.15591323375701904,"79":-0.1155596449971199,"80":0.033927757292985916,"81":-0.2324274629354477,"82":-0.1386723518371582,"83":-0.10192088037729263,"84":0.060783956199884415,"85":0.15370412170886993,"86":-0.14392969012260437,"87":0.06659763306379318,"88":-0.15719430148601532,"89":-0.17587880790233612,"90":0.11682098358869553,"91":0.19661249220371246,"92":-0.1349024921655655,"93":-0.0522577166557312,"94":-0.16928429901599884,"95":-0.10105804353952408,"96":0.20735007524490356,"97":-0.10014687478542328,"98":-0.03770982846617699,"99":0.06032733991742134,"100":-0.09203330427408218,"101":0.018385570496320724,"102":-0.11728665232658386,"103":-0.05989290028810501,"104":-0.07087240368127823,"105":0.19655096530914307,"106":0.08179745078086853,"107":0.07213487476110458,"108":-0.02217431552708149,"109":0.20469889044761658,"110":0.04698153957724571,"111":0.03765873610973358,"112":0.12122619897127151,"113":-0.02797229215502739,"114":-0.1607046276330948}},"24":{"bias":0.15160678327083588,"weights":{"0":-0.0021168941166251898,"1":0.13496066629886627,"2":-0.08895131945610046,"3":-0.1489204466342926,"4":0.15469367802143097,"5":0.030160803347826004,"6":0.13343070447444916,"7":0.012364989146590233,"8":0.016261044889688492,"9":-0.19429653882980347,"10":0.10660838335752487,"11":0.04544753208756447,"12":-0.07678709924221039,"13":-0.1694926768541336,"14":-0.05634624511003494,"15":0.010124989785254002,"16":0.09822848439216614,"17":0.12178722023963928,"18":-0.1162734180688858,"19":0.09133046865463257,"20":0.01771627925336361,"21":0.04848625138401985,"22":0.0518491268157959,"23":-0.10915759950876236,"24":0.040279824286699295,"25":0.13140933215618134,"26":0.10550842434167862,"27":0.10289384424686432,"28":0.11707530170679092,"29":0.06366699934005737,"30":-0.11967775970697403,"31":-0.04005115479230881,"32":0.0995040014386177,"33":0.16544954478740692,"34":0.18712987005710602,"35":-0.1266855001449585,"36":0.06045079603791237,"37":0.14207541942596436,"38":-0.031223950907588005,"39":0.12052474170923233,"40":0.16943180561065674,"41":-0.19985371828079224,"42":0.18070515990257263,"43":0.09145420789718628,"44":0.08774872124195099,"45":0.07556654512882233,"46":0.04718950018286705,"47":-0.0734870657324791,"48":-0.0024576918222010136,"49":0.05309273302555084,"50":0.06889425218105316,"51":0.15084701776504517,"52":0.11414439976215363,"53":0.1743851751089096,"54":-0.09330207854509354,"55":-0.0044468604028224945,"56":0.032496917992830276,"57":-0.1992577612400055,"58":0.07264900207519531,"59":0.07077149301767349,"60":0.04348033666610718,"61":-0.0889013335108757,"62":0.07720379531383514,"63":0.14689764380455017,"64":0.15102389454841614,"65":0.13758237659931183,"66":0.1748579442501068,"67":0.022699380293488503,"68":0.07224304229021072,"69":0.08330319076776505,"70":-0.18658989667892456,"71":-0.1710406392812729,"72":-0.132178395986557,"73":0.16917729377746582,"74":0.06560325622558594,"75":-0.13218194246292114,"76":0.007672268431633711,"77":0.002725418424233794,"78":0.017993520945310593,"79":-0.08137813210487366,"80":0.17489001154899597,"81":0.12371569871902466,"82":0.13182887434959412,"83":0.10764047503471375,"84":-0.15543173253536224,"85":0.04247687757015228,"86":0.05009099841117859,"87":0.17822515964508057,"88":-0.19459806382656097,"89":-0.0033143588807433844,"90":-0.09326504170894623,"91":-0.17919382452964783,"92":0.10969472676515579,"93":0.010093210265040398,"94":-0.027766557410359383,"95":0.16654755175113678,"96":0.11565135419368744,"97":0.0016315957764163613,"98":-0.19395272433757782,"99":0.15079601109027863,"100":0.17480212450027466,"101":-0.11319977045059204,"102":0.02620464190840721,"103":-0.1711174100637436,"104":-0.11340426653623581,"105":0.15363912284374237,"106":0.01906920224428177,"107":-0.11717234551906586,"108":0.06982944905757904,"109":-0.09936736524105072,"110":0.18066765367984772,"111":-0.13150419294834137,"112":0.11330650001764297,"113":0.009465117007493973,"114":0.05540559068322182}},"25":{"bias":0.14116378128528595,"weights":{"0":-0.1587115079164505,"1":-0.17665576934814453,"2":0.14594979584217072,"3":-0.10795022547245026,"4":-0.14770695567131042,"5":0.10772322118282318,"6":-0.01564650796353817,"7":0.002325264969840646,"8":-0.026594892144203186,"9":-0.19068826735019684,"10":0.056876253336668015,"11":0.07435397058725357,"12":0.05863705649971962,"13":0.07503032684326172,"14":0.14111065864562988,"15":0.14990471303462982,"16":-0.03720705583691597,"17":-0.0026424287352710962,"18":-0.1281052827835083,"19":-0.0421142540872097,"20":0.16743974387645721,"21":-0.1675570160150528,"22":0.12912122905254364,"23":-0.04197511076927185,"24":0.07491611689329147,"25":-0.28059497475624084,"26":-0.05382435396313667,"27":-0.006809049751609564,"28":-0.15714721381664276,"29":0.0016606644494459033,"30":0.06817446649074554,"31":0.16361786425113678,"32":0.0012600315967574716,"33":0.109108105301857,"34":0.1254289448261261,"35":-0.04591309279203415,"36":0.2659640908241272,"37":-0.07840797305107117,"38":0.03525523468852043,"39":-0.16500206291675568,"40":-0.07013395428657532,"41":0.11566253751516342,"42":0.21418413519859314,"43":-0.010317745618522167,"44":0.044361744076013565,"45":0.17725683748722076,"46":-0.16626565158367157,"47":-0.40723657608032227,"48":-0.3512779772281647,"49":-0.21287894248962402,"50":-0.1644883006811142,"51":-0.0775284618139267,"52":-0.1700950562953949,"53":-0.2710144519805908,"54":-0.06376137584447861,"55":0.15425458550453186,"56":-0.20788028836250305,"57":0.2074556201696396,"58":0.3084881603717804,"59":0.28490084409713745,"60":0.009420827962458134,"61":0.03158586472272873,"62":0.18977008759975433,"63":0.302219957113266,"64":0.41182881593704224,"65":-0.008030510507524014,"66":-0.032356854528188705,"67":0.14571428298950195,"68":-0.05519642308354378,"69":0.009254825301468372,"70":-0.01049270574003458,"71":0.05971028655767441,"72":-0.16735418140888214,"73":-0.1860704869031906,"74":0.013862300664186478,"75":-0.19803397357463837,"76":-0.3000224530696869,"77":-0.16115683317184448,"78":-0.01947827637195587,"79":0.04806938394904137,"80":-0.19821810722351074,"81":0.18709711730480194,"82":0.2027643322944641,"83":0.17271967232227325,"84":0.15947853028774261,"85":-0.012836444191634655,"86":-0.06084289029240608,"87":0.24821823835372925,"88":0.04160335659980774,"89":0.0743180587887764,"90":0.16401687264442444,"91":0.10155294835567474,"92":-0.15218289196491241,"93":0.10746984928846359,"94":0.17975427210330963,"95":-0.10148350894451141,"96":-0.16929207742214203,"97":0.08717671036720276,"98":-0.047187332063913345,"99":0.12657271325588226,"100":-0.07616648077964783,"101":0.08580905199050903,"102":-0.14519843459129333,"103":0.05045175924897194,"104":-0.04192676022648811,"105":-0.16012372076511383,"106":0.12968099117279053,"107":0.18303744494915009,"108":0.029765605926513672,"109":-0.18379288911819458,"110":-0.2078828364610672,"111":0.01332542672753334,"112":-0.15990491211414337,"113":-0.0861244648694992,"114":-0.0036626390647143126}},"26":{"bias":0.016642404720187187,"weights":{"0":0.12015622109174728,"1":0.18576914072036743,"2":0.014219165779650211,"3":-0.1465609073638916,"4":0.04846066236495972,"5":0.09706433862447739,"6":0.029789721593260765,"7":-0.15806418657302856,"8":-0.14657920598983765,"9":-0.09935145825147629,"10":-0.033278688788414,"11":0.11686349660158157,"12":-0.03701812028884888,"13":-0.1881389021873474,"14":0.1454334855079651,"15":0.03998618572950363,"16":0.15492969751358032,"17":0.09585153311491013,"18":0.009569917805492878,"19":-0.09605327993631363,"20":-0.030482091009616852,"21":-0.02498973160982132,"22":0.05654186010360718,"23":0.03892979770898819,"24":0.0998319536447525,"25":0.08467705547809601,"26":0.013902716338634491,"27":0.08182375878095627,"28":-0.12938986718654633,"29":-0.12074901908636093,"30":0.08310303092002869,"31":0.18425117433071136,"32":0.08977998048067093,"33":-0.15003858506679535,"34":0.20028162002563477,"35":0.2823580503463745,"36":0.025826195254921913,"37":0.1504664421081543,"38":-0.14413249492645264,"39":0.20403450727462769,"40":-0.11987938731908798,"41":-0.20873314142227173,"42":-0.13082925975322723,"43":0.1543237864971161,"44":-0.03237053006887436,"45":0.1384343057870865,"46":-0.20793527364730835,"47":-0.12921735644340515,"48":-0.26248008012771606,"49":-0.22740361094474792,"50":0.11132995039224625,"51":0.18475745618343353,"52":0.16887624561786652,"53":-0.088068887591362,"54":0.027183258906006813,"55":0.13836297392845154,"56":0.04170982539653778,"57":-0.09423740208148956,"58":0.27034807205200195,"59":0.21259942650794983,"60":0.14736950397491455,"61":-0.02352926880121231,"62":0.05830395221710205,"63":-0.20496992766857147,"64":-0.14519070088863373,"65":-0.13536538183689117,"66":-0.101752869784832,"67":0.11660953611135483,"68":0.11762490123510361,"69":-0.003036192152649164,"70":-0.07597851008176804,"71":-0.2928601801395416,"72":-0.045205067843198776,"73":0.20108935236930847,"74":-0.04637829214334488,"75":0.03511117398738861,"76":0.16541095077991486,"77":-0.08409281820058823,"78":0.0412592738866806,"79":0.03503715246915817,"80":0.11989714950323105,"81":0.03433821350336075,"82":0.15326270461082458,"83":-0.12521453201770782,"84":-0.08503831177949905,"85":-0.14053955674171448,"86":-0.08728417754173279,"87":-0.034286756068468094,"88":-0.08856543153524399,"89":-0.04209145903587341,"90":-0.04308558255434036,"91":-0.1884758174419403,"92":-0.16846728324890137,"93":-0.15492577850818634,"94":-0.07814540714025497,"95":0.14788953959941864,"96":-0.15497563779354095,"97":-0.1541443169116974,"98":0.012214295566082,"99":-0.08821656554937363,"100":0.20169810950756073,"101":-0.07549463957548141,"102":0.06767001748085022,"103":-0.03030802495777607,"104":0.00362294539809227,"105":-0.03954322636127472,"106":0.04471559822559357,"107":0.013949595391750336,"108":-0.13487811386585236,"109":0.18889808654785156,"110":-0.13436652719974518,"111":0.1518448144197464,"112":-0.011580321006476879,"113":0.12918439507484436,"114":-0.08843547850847244}},"27":{"bias":-0.0664907768368721,"weights":{"0":0.1915748119354248,"1":-0.1754239946603775,"2":0.1402999758720398,"3":-0.09265203773975372,"4":-0.07843312621116638,"5":-0.13734088838100433,"6":0.0642179623246193,"7":-0.020626811310648918,"8":0.08788250386714935,"9":0.07303689420223236,"10":0.02375330589711666,"11":-0.175678551197052,"12":0.18793030083179474,"13":0.16567666828632355,"14":-0.16952010989189148,"15":0.1657724678516388,"16":0.09866353869438171,"17":0.003655791049823165,"18":0.09343625605106354,"19":-0.08871199190616608,"20":0.009775307960808277,"21":0.14440515637397766,"22":-0.05352480709552765,"23":0.11216196417808533,"24":0.2521807849407196,"25":0.14152739942073822,"26":0.16398783028125763,"27":-0.13566574454307556,"28":-0.058699384331703186,"29":-0.16691313683986664,"30":-0.2515501081943512,"31":-0.08192038536071777,"32":0.10752105712890625,"33":0.15480951964855194,"34":0.1882881373167038,"35":0.15482130646705627,"36":0.026478545740246773,"37":-0.18291069567203522,"38":-0.024631572887301445,"39":0.051767200231552124,"40":0.02176055498421192,"41":0.11636970192193985,"42":0.15805645287036896,"43":-0.044981129467487335,"44":-0.18565386533737183,"45":0.02859007753431797,"46":-0.09274286776781082,"47":0.11171198636293411,"48":0.34354355931282043,"49":0.0030796010978519917,"50":0.051532335579395294,"51":-0.16132467985153198,"52":-0.35599619150161743,"53":-0.45287761092185974,"54":-0.3002331852912903,"55":0.07594652473926544,"56":0.06323553621768951,"57":0.06498678773641586,"58":-0.07646553963422775,"59":0.017538104206323624,"60":-0.06631044298410416,"61":-0.0892132818698883,"62":-0.08897048234939575,"63":-0.09961108863353729,"64":0.13559098541736603,"65":0.04442102089524269,"66":0.1486845761537552,"67":-0.14767688512802124,"68":-0.06561855971813202,"69":0.05418244004249573,"70":0.057224687188863754,"71":-0.05689842998981476,"72":0.11999894678592682,"73":0.10905787348747253,"74":0.18693606555461884,"75":-0.12779974937438965,"76":-0.2521040737628937,"77":-0.15077745914459229,"78":0.1529396027326584,"79":-0.12492683529853821,"80":-0.19474686682224274,"81":-0.18911948800086975,"82":-0.14080001413822174,"83":-0.08044220507144928,"84":-0.15432953834533691,"85":0.14241638779640198,"86":0.2228914499282837,"87":0.05415768548846245,"88":0.06594470888376236,"89":0.010751329362392426,"90":-0.19809995591640472,"91":-0.15226420760154724,"92":0.1739366203546524,"93":0.15890933573246002,"94":-0.03745752573013306,"95":0.016894923523068428,"96":-0.07279261946678162,"97":0.06078936159610748,"98":0.1439422369003296,"99":-0.06756189465522766,"100":0.02280675806105137,"101":0.12327556312084198,"102":-0.07226158678531647,"103":0.018491121008992195,"104":-0.10288825631141663,"105":-0.024365508928894997,"106":0.08714136481285095,"107":0.10652042925357819,"108":-0.20112013816833496,"109":0.1919759213924408,"110":-0.12023305892944336,"111":0.08966793119907379,"112":0.05601298063993454,"113":-0.19533997774124146,"114":-0.1527886837720871}},"28":{"bias":0.1370675265789032,"weights":{"0":0.10151764750480652,"1":-0.20046183466911316,"2":-0.039050836116075516,"3":0.028195414692163467,"4":0.004089252557605505,"5":0.040427133440971375,"6":0.03490471467375755,"7":-0.036437202244997025,"8":0.18771202862262726,"9":-0.0934048444032669,"10":0.15931057929992676,"11":0.11247257888317108,"12":-0.1467709243297577,"13":0.09454759955406189,"14":-0.08684618771076202,"15":-0.199865460395813,"16":0.12278342992067337,"17":-0.12998755276203156,"18":0.12188781052827835,"19":-0.03444955125451088,"20":0.048444945365190506,"21":-0.010393241420388222,"22":-0.1792479306459427,"23":-0.04719729349017143,"24":0.12032423168420792,"25":0.07245875149965286,"26":0.11717168986797333,"27":-0.11287136375904083,"28":0.08076061308383942,"29":0.15889565646648407,"30":0.00347664556466043,"31":0.08763375878334045,"32":-0.039210524410009384,"33":0.06874620914459229,"34":-0.022031720727682114,"35":-0.019744278863072395,"36":-0.0723983570933342,"37":-0.14183537662029266,"38":0.011498179286718369,"39":0.07389363646507263,"40":-0.21059024333953857,"41":-0.22884675860404968,"42":-0.22366414964199066,"43":0.17216193675994873,"44":-0.06755227595567703,"45":-0.16598661243915558,"46":-0.045214734971523285,"47":-0.06634676456451416,"48":0.3068389594554901,"49":-0.16144025325775146,"50":-0.02138792723417282,"51":-0.10735294222831726,"52":0.025237957015633583,"53":-0.019426004961133003,"54":-0.14406725764274597,"55":-0.03211592510342598,"56":-0.03537001088261604,"57":-0.06723776459693909,"58":-0.18654797971248627,"59":0.16931675374507904,"60":0.17891736328601837,"61":-0.1735886186361313,"62":-0.18316079676151276,"63":0.060994990170001984,"64":-0.36841481924057007,"65":0.032638996839523315,"66":-0.15992453694343567,"67":0.1938920021057129,"68":-0.10292190313339233,"69":0.19595955312252045,"70":0.18963921070098877,"71":-0.017986608669161797,"72":-0.1557985246181488,"73":0.04012850299477577,"74":0.12424780428409576,"75":-0.013443300500512123,"76":0.05640129745006561,"77":0.09914977848529816,"78":0.1396852284669876,"79":-0.11511189490556717,"80":-0.18387611210346222,"81":-0.12394323945045471,"82":-0.12523534893989563,"83":0.1889343112707138,"84":0.14460447430610657,"85":-0.02959505096077919,"86":-0.07669933140277863,"87":-0.21630074083805084,"88":-0.04490197077393532,"89":0.1323319673538208,"90":0.14564967155456543,"91":0.154770627617836,"92":0.18324512243270874,"93":0.07985720783472061,"94":-0.0767400935292244,"95":0.07909726351499557,"96":0.06920349597930908,"97":0.06979062408208847,"98":-0.0009403710137121379,"99":0.07380040735006332,"100":-0.11869627982378006,"101":0.0560455359518528,"102":-0.03534913435578346,"103":0.03231187164783478,"104":0.12524724006652832,"105":-0.13676609098911285,"106":-0.06709074229001999,"107":-0.14436283707618713,"108":0.14228621125221252,"109":0.16563309729099274,"110":0.15463969111442566,"111":-0.14785738289356232,"112":-0.1958712339401245,"113":0.16351397335529327,"114":0.1128443107008934}},"29":{"bias":0.06707199662923813,"weights":{"0":-0.08507445454597473,"1":-0.09949952363967896,"2":0.11112219095230103,"3":0.1988365203142166,"4":-0.010716701857745647,"5":-0.058503810316324234,"6":0.043001819401979446,"7":-0.07148328423500061,"8":-0.06249599903821945,"9":0.0900643914937973,"10":-0.1598203331232071,"11":0.15819914638996124,"12":0.21376313269138336,"13":0.14460690319538116,"14":0.05193769559264183,"15":0.09981180727481842,"16":0.12691113352775574,"17":0.0500902496278286,"18":0.0832933783531189,"19":0.12161700427532196,"20":-0.014610101468861103,"21":-0.0880664736032486,"22":0.07787229120731354,"23":0.09150352329015732,"24":0.35917362570762634,"25":0.20458009839057922,"26":-0.14524121582508087,"27":-0.1205551028251648,"28":0.03232641890645027,"29":-0.09086859226226807,"30":0.09487319737672806,"31":-0.09296554327011108,"32":-0.027021273970603943,"33":0.07523146271705627,"34":0.18482346832752228,"35":-0.2206021249294281,"36":-0.1384294480085373,"37":0.07082703709602356,"38":0.028371088206768036,"39":0.014146323315799236,"40":-0.14314661920070648,"41":-0.2659454345703125,"42":-0.1039973795413971,"43":-0.043357137590646744,"44":0.07780933380126953,"45":-0.06357894092798233,"46":0.2318294644355774,"47":0.4598577320575714,"48":0.5919340252876282,"49":0.005492118652909994,"50":-0.1267290562391281,"51":-0.1350993663072586,"52":0.028191471472382545,"53":-0.014583839103579521,"54":0.08414100855588913,"55":-0.022070199251174927,"56":0.1819392293691635,"57":-0.1958044320344925,"58":-0.08844462037086487,"59":-0.19542419910430908,"60":-0.14593547582626343,"61":-0.1134745180606842,"62":-0.17611442506313324,"63":-0.2638571858406067,"64":-0.10079402476549149,"65":-0.31711524724960327,"66":0.1422491818666458,"67":-0.06331551820039749,"68":0.09667228162288666,"69":0.006837646476924419,"70":0.3841930329799652,"71":0.2922678589820862,"72":-0.03876849263906479,"73":-0.045384351164102554,"74":-0.1289152055978775,"75":-0.05228689685463905,"76":-0.11549338698387146,"77":-0.021075570955872536,"78":-0.006629304029047489,"79":-0.047822508960962296,"80":0.014141217805445194,"81":-0.03481581434607506,"82":-0.23595470190048218,"83":-0.1551337093114853,"84":0.045129794627428055,"85":0.07753854990005493,"86":-0.05998469889163971,"87":0.015477357432246208,"88":-0.0677524209022522,"89":0.2184779793024063,"90":-0.12904570996761322,"91":-0.13291679322719574,"92":0.09947291016578674,"93":-0.06734924018383026,"94":0.034556131809949875,"95":0.007161669433116913,"96":-0.13597150146961212,"97":0.1882266253232956,"98":-0.020738691091537476,"99":0.0422443263232708,"100":0.06292740255594254,"101":0.027872085571289062,"102":0.10694141685962677,"103":-0.14671148359775543,"104":-0.04686935618519783,"105":-0.14994867146015167,"106":-0.1415594071149826,"107":0.11960087716579437,"108":0.0946291834115982,"109":-0.15258564054965973,"110":0.1817644089460373,"111":-0.045300666242837906,"112":0.17743946611881256,"113":-0.0072963242419064045,"114":-0.0996200442314148}},"30":{"bias":0.08555395901203156,"weights":{"0":-0.15749140083789825,"1":0.16907988488674164,"2":-0.021142655983567238,"3":0.047789230942726135,"4":0.13748298585414886,"5":0.024086609482765198,"6":-0.1407480388879776,"7":0.030097760260105133,"8":0.16791598498821259,"9":-0.06888958811759949,"10":-0.12800616025924683,"11":0.1724737584590912,"12":-0.12143656611442566,"13":-0.07672977447509766,"14":-0.13090065121650696,"15":-0.17928597331047058,"16":0.043595172464847565,"17":-0.045287586748600006,"18":0.015048765577375889,"19":-0.08209932595491409,"20":-0.1795821636915207,"21":-0.07320176810026169,"22":-0.1926443725824356,"23":0.15354657173156738,"24":-0.01863476261496544,"25":-0.08410440385341644,"26":-0.06380356848239899,"27":-0.039328962564468384,"28":0.038590773940086365,"29":-0.13362854719161987,"30":0.01906294748187065,"31":-0.134146049618721,"32":-0.10150162130594254,"33":-0.11390133202075958,"34":-0.18718796968460083,"35":-0.2110007107257843,"36":0.024606958031654358,"37":-0.0289244893938303,"38":0.0017155908280983567,"39":0.13177558779716492,"40":0.145027294754982,"41":-0.1848974972963333,"42":0.03781542554497719,"43":0.04222354292869568,"44":0.020483698695898056,"45":0.1811811476945877,"46":0.011155889369547367,"47":0.06772658228874207,"48":0.024048002436757088,"49":-0.14806517958641052,"50":0.17713673412799835,"51":-0.0397176668047905,"52":0.12819474935531616,"53":0.09794296324253082,"54":-0.04680204764008522,"55":0.1786167323589325,"56":-0.17446814477443695,"57":0.02519950456917286,"58":0.13516531884670258,"59":-0.020351946353912354,"60":-0.09907815605401993,"61":-0.01658179797232151,"62":-0.14825981855392456,"63":0.1892012059688568,"64":0.0734279677271843,"65":-0.16840767860412598,"66":-0.1759013682603836,"67":0.16402870416641235,"68":-0.18041490018367767,"69":0.1007407009601593,"70":-0.0903012603521347,"71":-0.10671624541282654,"72":-0.05287571996450424,"73":-0.1580972969532013,"74":0.07853925973176956,"75":0.10965050011873245,"76":-0.13007311522960663,"77":0.12784068286418915,"78":0.17573010921478271,"79":0.10131213814020157,"80":-0.08202710002660751,"81":-0.17554669082164764,"82":0.07234744727611542,"83":-0.19953417778015137,"84":-0.13352835178375244,"85":-0.11891600489616394,"86":-0.109537273645401,"87":0.127585768699646,"88":-0.1483311802148819,"89":0.09921383112668991,"90":-0.18523453176021576,"91":-0.06249437853693962,"92":-0.05685392767190933,"93":-0.17582839727401733,"94":-0.056104958057403564,"95":-0.11704845726490021,"96":0.03597022593021393,"97":0.08342947065830231,"98":-0.07660789042711258,"99":0.0724482536315918,"100":0.05076274275779724,"101":-0.09052567929029465,"102":0.05759912729263306,"103":-0.08454307168722153,"104":0.06215652823448181,"105":-0.09495285153388977,"106":-0.12179143726825714,"107":0.010335833765566349,"108":0.1182650774717331,"109":-0.1625823676586151,"110":0.06233043223619461,"111":0.11660020798444748,"112":-0.10665445774793625,"113":-0.04889494925737381,"114":-0.16004236042499542}},"31":{"bias":0.15169449150562286,"weights":{"0":0.07628364115953445,"1":-0.048474159091711044,"2":-0.21738138794898987,"3":-0.1406705528497696,"4":-0.16550593078136444,"5":0.043532274663448334,"6":-0.053766146302223206,"7":0.00639026565477252,"8":-0.05920968949794769,"9":0.11938958615064621,"10":-0.06304142624139786,"11":0.08656537532806396,"12":-0.0752638727426529,"13":-0.16581211984157562,"14":-0.046079859137535095,"15":-0.16180165112018585,"16":0.1378050297498703,"17":-0.14021191000938416,"18":0.049564335495233536,"19":0.09237272292375565,"20":-0.19732430577278137,"21":-0.10680105537176132,"22":-0.042270783334970474,"23":0.060543280094861984,"24":0.07591208815574646,"25":0.15024472773075104,"26":0.12503227591514587,"27":0.005736090242862701,"28":0.1697797179222107,"29":-0.21037043631076813,"30":-0.18764279782772064,"31":-0.20237815380096436,"32":-0.15566949546337128,"33":0.01570192538201809,"34":-0.16456715762615204,"35":0.02130196988582611,"36":-0.20257309079170227,"37":0.025905601680278778,"38":0.03992640972137451,"39":-0.11252649128437042,"40":0.05308298021554947,"41":0.00006562762428075075,"42":-0.19177387654781342,"43":0.0934411883354187,"44":-0.045136746019124985,"45":-0.20097318291664124,"46":0.13178667426109314,"47":-0.12238568067550659,"48":-0.013085964135825634,"49":0.09431463479995728,"50":-0.027909010648727417,"51":0.026667019352316856,"52":-0.1916988641023636,"53":0.11947348713874817,"54":-0.036680229008197784,"55":-0.20280468463897705,"56":0.1295071840286255,"57":0.12114111334085464,"58":-0.14549818634986877,"59":0.1718595027923584,"60":0.042630385607481,"61":-0.18213947117328644,"62":-0.10842099040746689,"63":0.044484131038188934,"64":-0.14200712740421295,"65":-0.11608757078647614,"66":-0.0897597074508667,"67":0.1550346165895462,"68":-0.08802423626184464,"69":-0.14436601102352142,"70":0.0073233493603765965,"71":-0.2246282398700714,"72":-0.21446320414543152,"73":-0.029765747487545013,"74":0.11639232188463211,"75":0.04713372141122818,"76":0.11422010511159897,"77":0.160310298204422,"78":0.03504309430718422,"79":-0.04943358898162842,"80":-0.06032691150903702,"81":0.13567130267620087,"82":-0.07566307485103607,"83":0.13767850399017334,"84":0.02076524868607521,"85":-0.034086551517248154,"86":0.13579991459846497,"87":0.14884452521800995,"88":-0.1536569893360138,"89":-0.18808293342590332,"90":-0.02568506821990013,"91":0.11877252161502838,"92":-0.199034184217453,"93":0.16941006481647491,"94":0.12439996749162674,"95":-0.14266981184482574,"96":-0.01837070845067501,"97":-0.1800510734319687,"98":-0.0014491938054561615,"99":0.1412811577320099,"100":-0.11777995526790619,"101":-0.05949196591973305,"102":-0.014648043550550938,"103":0.08041965216398239,"104":-0.15716122090816498,"105":0.11361739784479141,"106":-0.20730218291282654,"107":-0.09468047320842743,"108":-0.03425833582878113,"109":0.02185712940990925,"110":0.1038447916507721,"111":0.16483987867832184,"112":-0.09988796710968018,"113":0.11317812651395798,"114":-0.019377870485186577}},"32":{"bias":0.1874052733182907,"weights":{"0":-0.07011182606220245,"1":0.07398731261491776,"2":-0.14450311660766602,"3":0.02427642233669758,"4":0.15280520915985107,"5":-0.1960429847240448,"6":0.12557528913021088,"7":0.039821866899728775,"8":0.14202450215816498,"9":0.009231584146618843,"10":0.011862825602293015,"11":0.16017861664295197,"12":0.08292246609926224,"13":0.12863759696483612,"14":-0.15672609210014343,"15":0.126376673579216,"16":-0.03129630535840988,"17":0.11828956007957458,"18":0.101620614528656,"19":-0.16668356955051422,"20":0.11864073574542999,"21":0.1791808307170868,"22":-0.08745141327381134,"23":-0.04365859180688858,"24":-0.2755349576473236,"25":0.051786791533231735,"26":-0.01782182790338993,"27":0.16679957509040833,"28":-0.18975311517715454,"29":0.08990167826414108,"30":0.1732611507177353,"31":0.20849935710430145,"32":-0.1846693754196167,"33":0.0286665428429842,"34":0.08491084724664688,"35":0.254861444234848,"36":-0.06473342329263687,"37":-0.14549745619297028,"38":-0.04105962812900543,"39":0.05747830495238304,"40":0.022612066939473152,"41":-0.0357232503592968,"42":-0.10199558734893799,"43":-0.13260683417320251,"44":0.13271421194076538,"45":-0.16462987661361694,"46":-0.22209663689136505,"47":-0.3310944139957428,"48":-0.3555026352405548,"49":0.09713292121887207,"50":-0.1274348795413971,"51":0.034038566052913666,"52":0.221624955534935,"53":0.38197436928749084,"54":-0.04461882263422012,"55":0.14157162606716156,"56":0.15941135585308075,"57":-0.10714168101549149,"58":0.049740176647901535,"59":0.3331500291824341,"60":0.013257211074233055,"61":-0.09137582033872604,"62":-0.11268985271453857,"63":-0.20273509621620178,"64":-0.21787621080875397,"65":-0.10264948010444641,"66":0.1117975264787674,"67":-0.0928301215171814,"68":-0.11586163192987442,"69":-0.04128389433026314,"70":-0.08415575325489044,"71":-0.3500450849533081,"72":0.013017427176237106,"73":0.10142344236373901,"74":-0.031900305300951004,"75":-0.0828000158071518,"76":0.0971805602312088,"77":0.005940606351941824,"78":0.01182943768799305,"79":-0.023138558492064476,"80":0.019641650840640068,"81":-0.09665020555257797,"82":-0.016927501186728477,"83":-0.03191284462809563,"84":0.08035688102245331,"85":0.13828541338443756,"86":0.10101049393415451,"87":0.06144877150654793,"88":-0.13873803615570068,"89":-0.018451737239956856,"90":-0.13866083323955536,"91":0.14996002614498138,"92":0.11397770047187805,"93":-0.12438703328371048,"94":-0.13565649092197418,"95":-0.06724654883146286,"96":0.12365150451660156,"97":0.17322686314582825,"98":-0.0909319519996643,"99":-0.09999251365661621,"100":-0.060661111027002335,"101":0.0009706222917884588,"102":0.009871004149317741,"103":-0.13287267088890076,"104":-0.1643671989440918,"105":0.05473316088318825,"106":0.018996426835656166,"107":0.07690257579088211,"108":0.038506850600242615,"109":0.18930192291736603,"110":0.0074878474697470665,"111":0.06485360115766525,"112":-0.004010010045021772,"113":-0.09068170189857483,"114":0.0572616346180439}},"33":{"bias":0.06926347315311432,"weights":{"0":0.11074810475111008,"1":-0.11122157424688339,"2":0.013891823589801788,"3":0.14627531170845032,"4":0.05556131526827812,"5":-0.042821209877729416,"6":0.07322877645492554,"7":-0.049580927938222885,"8":0.18286773562431335,"9":0.009491726756095886,"10":-0.07213114947080612,"11":-0.11012578755617142,"12":0.016805393621325493,"13":-0.20229005813598633,"14":-0.18074432015419006,"15":-0.03200468048453331,"16":0.07921858131885529,"17":-0.17366862297058105,"18":0.12262182682752609,"19":0.1487150341272354,"20":-0.04736627638339996,"21":0.18011249601840973,"22":-0.005825108848512173,"23":-0.036690738052129745,"24":0.0720701590180397,