{"sizes":[115,57,4],"layers":[{"0":{},"1":{},"2":{},"3":{},"4":{},"5":{},"6":{},"7":{},"8":{},"9":{},"10":{},"11":{},"12":{},"13":{},"14":{},"15":{},"16":{},"17":{},"18":{},"19":{},"20":{},"21":{},"22":{},"23":{},"24":{},"25":{},"26":{},"27":{},"28":{},"29":{},"30":{},"31":{},"32":{},"33":{},"34":{},"35":{},"36":{},"37":{},"38":{},"39":{},"40":{},"41":{},"42":{},"43":{},"44":{},"45":{},"46":{},"47":{},"48":{},"49":{},"50":{},"51":{},"52":{},"53":{},"54":{},"55":{},"56":{},"57":{},"58":{},"59":{},"60":{},"61":{},"62":{},"63":{},"64":{},"65":{},"66":{},"67":{},"68":{},"69":{},"70":{},"71":{},"72":{},"73":{},"74":{},"75":{},"76":{},"77":{},"78":{},"79":{},"80":{},"81":{},"82":{},"83":{},"84":{},"85":{},"86":{},"87":{},"88":{},"89":{},"90":{},"91":{},"92":{},"93":{},"94":{},"95":{},"96":{},"97":{},"98":{},"99":{},"100":{},"101":{},"102":{},"103":{},"104":{},"105":{},"106":{},"107":{},"108":{},"109":{},"110":{},"111":{},"112":{},"113":{},"114":{}},{"0":{"bias":-0.11559128016233444,"weights":{"0":0.06225944310426712,"1":0.07206431776285172,"2":-0.1481429487466812,"3":0.07761950045824051,"4":-0.1383969485759735,"5":0.18075816333293915,"6":0.07372986525297165,"7":0.12754492461681366,"8":0.046754710376262665,"9":0.16225169599056244,"10":-0.04098616540431976,"11":0.05378049612045288,"12":-0.059835925698280334,"13":0.14414988458156586,"14":-0.13316532969474792,"15":-0.02748703397810459,"16":-0.033841896802186966,"17":-0.1500745713710785,"18":0.05436518043279648,"19":0.03134999796748161,"20":-0.14882707595825195,"21":0.09841520339250565,"22":-0.031216666102409363,"23":-0.10641874372959137,"24":-0.39012274146080017,"25":-0.06160859018564224,"26":-0.013335495255887508,"27":0.030812693759799004,"28":-0.03229515254497528,"29":0.22686555981636047,"30":0.015683747828006744,"31":0.17954716086387634,"32":0.05858050659298897,"33":0.11666237562894821,"34":0.16326458752155304,"35":0.056528814136981964,"36":-0.05486343055963516,"37":0.053769901394844055,"38":0.11833260208368301,"39":0.144183948636055,"40":-0.13404984772205353,"41":-0.11851388216018677,"42":0.015280124731361866,"43":0.12949302792549133,"44":0.09493214637041092,"45":-0.18535713851451874,"46":-0.04510796442627907,"47":-0.5793737769126892,"48":-0.510063886642456,"49":-0.12310493737459183,"50":-0.029764121398329735,"51":0.026066098362207413,"52":0.25814974308013916,"53":0.07754006236791611,"54":0.12018560618162155,"55":-0.09190299361944199,"56":-0.09998919814825058,"57":-0.06791312992572784,"58":0.24693119525909424,"59":0.18062661588191986,"60":0.19962194561958313,"61":0.009543645195662975,"62":0.1811554729938507,"63":0.07080945372581482,"64":-0.04738127440214157,"65":0.16787089407444,"66":-0.15799319744110107,"67":-0.055472105741500854,"68":-0.1780918389558792,"69":-0.1182633489370346,"70":-0.38203996419906616,"71":-0.10253311693668365,"72":-0.10950668156147003,"73":-0.20456640422344208,"74":-0.171622633934021,"75":-0.06796623766422272,"76":0.09164834767580032,"77":-0.15715301036834717,"78":-0.13574840128421783,"79":0.17085221409797668,"80":0.01481118705123663,"81":0.02631325274705887,"82":0.04653488099575043,"83":0.14054760336875916,"84":0.17935706675052643,"85":-0.12535254657268524,"86":0.002615050645545125,"87":0.20858116447925568,"88":0.04440285265445709,"89":-0.04437880963087082,"90":0.0021359699312597513,"91":-0.025974420830607414,"92":0.13613878190517426,"93":0.03759321942925453,"94":-0.052278101444244385,"95":-0.2069319784641266,"96":0.17302893102169037,"97":-0.08478609472513199,"98":0.03848704695701599,"99":0.13890805840492249,"100":-0.029594745486974716,"101":-0.02421244978904724,"102":-0.11539763957262039,"103":-0.20629361271858215,"104":-0.1480666995048523,"105":0.15132269263267517,"106":0.1761895716190338,"107":-0.07781986147165298,"108":-0.04644110053777695,"109":-0.019177796319127083,"110":0.11516221612691879,"111":0.13851673901081085,"112":-0.013504019007086754,"113":0.17434440553188324,"114":-0.1493612378835678}},"1":{"bias":-0.10655511170625687,"weights":{"0":0.013068897649645805,"1":-0.13164688646793365,"2":0.06700093299150467,"3":-0.06564804166555405,"4":-0.1363755613565445,"5":-0.018283743411302567,"6":0.010045500472187996,"7":0.0979713499546051,"8":-0.1318524330854416,"9":-0.07100704312324524,"10":0.19568000733852386,"11":-0.07380502671003342,"12":-0.06883910298347473,"13":-0.06584816426038742,"14":0.0008848014986142516,"15":0.09683813899755478,"16":-0.08787574619054794,"17":-0.08675512671470642,"18":-0.12459456920623779,"19":0.16505859792232513,"20":0.11337537318468094,"21":0.033359549939632416,"22":-0.08514263480901718,"23":-0.17591769993305206,"24":-0.2772921919822693,"25":-0.15640494227409363,"26":0.1977168470621109,"27":-0.021661661565303802,"28":0.053909074515104294,"29":0.135105162858963,"30":-0.0434190109372139,"31":-0.1472543329000473,"32":-0.1571711152791977,"33":-0.03976881131529808,"34":0.07480578124523163,"35":-0.22259929776191711,"36":-0.3700312077999115,"37":0.0632530227303505,"38":-0.1414509266614914,"39":-0.03656468167901039,"40":0.02606695331633091,"41":0.3977644145488739,"42":0.09681996703147888,"43":-0.06067128852009773,"44":0.007320654112845659,"45":0.1692040115594864,"46":-0.15268561244010925,"47":-0.3226878046989441,"48":-0.3212052881717682,"49":-0.04595276713371277,"50":0.03823496773838997,"51":0.00008294503641081974,"52":0.13915544748306274,"53":0.06225358322262764,"54":0.14252562820911407,"55":0.1425284892320633,"56":-0.038331445306539536,"57":0.08662781119346619,"58":-0.4439209997653961,"59":-0.4988730251789093,"60":-0.040827855467796326,"61":0.1347121149301529,"62":0.026683755218982697,"63":0.43986889719963074,"64":0.41346895694732666,"65":0.2543847858905792,"66":-0.1446562558412552,"67":-0.15230609476566315,"68":0.2110784500837326,"69":-0.17136453092098236,"70":-0.08554264903068542,"71":-0.17150208353996277,"72":-0.008897182531654835,"73":0.14240635931491852,"74":-0.043081942945718765,"75":0.2111755609512329,"76":0.0813818946480751,"77":0.09175331145524979,"78":-0.13134147226810455,"79":-0.0930594876408577,"80":-0.09136240184307098,"81":-0.008275733329355717,"82":-0.11682655662298203,"83":0.1843535155057907,"84":0.1286577433347702,"85":-0.09458044916391373,"86":0.09128358215093613,"87":0.41663581132888794,"88":0.1110745295882225,"89":-0.0665733590722084,"90":-0.14422617852687836,"91":0.07525595277547836,"92":-0.12483516335487366,"93":-0.0075362809002399445,"94":0.14311359822750092,"95":0.15466855466365814,"96":0.09754554182291031,"97":0.1125636175274849,"98":-0.1036391407251358,"99":0.03510615974664688,"100":-0.10469913482666016,"101":-0.12088794261217117,"102":0.11497446894645691,"103":0.08230875432491302,"104":0.04637889936566353,"105":-0.023604124784469604,"106":-0.10129751265048981,"107":0.16594292223453522,"108":0.11124114692211151,"109":0.06234254315495491,"110":0.14358089864253998,"111":-0.0035314897540956736,"112":0.05119502171874046,"113":0.19973985850811005,"114":-0.10560084134340286}},"2":{"bias":-0.14652593433856964,"weights":{"0":0.012565313838422298,"1":-0.050062116235494614,"2":-0.05102195590734482,"3":-0.054008256644010544,"4":-0.156374990940094,"5":-0.13878735899925232,"6":0.16704022884368896,"7":0.007542646024376154,"8":0.004109691828489304,"9":-0.14836379885673523,"10":-0.1801699995994568,"11":-0.04010959714651108,"12":0.06374251842498779,"13":0.10392702370882034,"14":0.01876991242170334,"15":0.003906223690137267,"16":-0.04019838199019432,"17":0.008270726539194584,"18":0.007523242849856615,"19":-0.0113773038610816,"20":-0.06100938841700554,"21":-0.10910550504922867,"22":0.180205300450325,"23":0.13027578592300415,"24":0.15501713752746582,"25":-0.11806964874267578,"26":0.142642542719841,"27":-0.0397210530936718,"28":-0.14189308881759644,"29":0.1595173329114914,"30":0.08349990099668503,"31":-0.15879948437213898,"32":0.0726168155670166,"33":-0.14615020155906677,"34":-0.13475358486175537,"35":-0.47306859493255615,"36":-0.17186561226844788,"37":-0.02757894992828369,"38":-0.10276706516742706,"39":-0.03124479204416275,"40":0.12406115978956223,"41":0.2656814157962799,"42":0.15223194658756256,"43":0.16429811716079712,"44":-0.054114218801259995,"45":0.003909244667738676,"46":0.068540558218956,"47":-0.042761676013469696,"48":0.23819264769554138,"49":0.19692492485046387,"50":0.09370842576026917,"51":0.13091403245925903,"52":0.11587682366371155,"53":0.09583155065774918,"54":0.20261138677597046,"55":0.1962365061044693,"56":-0.11301004141569138,"57":-0.22467055916786194,"58":-0.3078184425830841,"59":-0.5453965663909912,"60":-0.19077609479427338,"61":-0.0903005599975586,"62":-0.19616200029850006,"63":0.18026743829250336,"64":0.17178796231746674,"65":-0.02171596698462963,"66":-0.16057462990283966,"67":-0.16079393029212952,"68":0.12835544347763062,"69":0.11424858868122101,"70":0.20315055549144745,"71":0.018899865448474884,"72":0.10501150786876678,"73":0.06272612512111664,"74":0.16589736938476562,"75":-0.07847559452056885,"76":0.07238853722810745,"77":0.19471600651741028,"78":0.14743247628211975,"79":-0.08038702607154846,"80":0.04366963729262352,"81":-0.24806465208530426,"82":-0.23560376465320587,"83":-0.03209792450070381,"84":-0.20012885332107544,"85":-0.19386234879493713,"86":0.1892174631357193,"87":0.07760599255561829,"88":0.17828664183616638,"89":0.13090072572231293,"90":0.07408080250024796,"91":0.07903530448675156,"92":-0.10078649967908859,"93":-0.021093519404530525,"94":-0.029331009835004807,"95":0.008184806443750858,"96":-0.14935997128486633,"97":0.14074373245239258,"98":0.07799352705478668,"99":0.03470797836780548,"100":0.08001214265823364,"101":-0.12370599061250687,"102":-0.1911192387342453,"103":-0.06718296557664871,"104":-0.05550457909703255,"105":0.17465198040008545,"106":0.18923863768577576,"107":-0.20210859179496765,"108":-0.1351451277732849,"109":0.14370191097259521,"110":-0.10382388532161713,"111":0.11157134920358658,"112":-0.07948035001754761,"113":0.16061143577098846,"114":-0.13609132170677185}},"3":{"bias":-0.16972675919532776,"weights":{"0":0.08953360468149185,"1":0.03973233327269554,"2":-0.17030873894691467,"3":-0.14721138775348663,"4":-0.15396328270435333,"5":-0.17233896255493164,"6":0.16607216000556946,"7":-0.16985970735549927,"8":-0.09699586778879166,"9":0.12255652248859406,"10":0.034009698778390884,"11":-0.027437863871455193,"12":-0.12889346480369568,"13":0.07629000395536423,"14":-0.11203093081712723,"15":0.12153983116149902,"16":-0.1538390815258026,"17":-0.126255065202713,"18":0.14063365757465363,"19":-0.0007683027652092278,"20":0.14339858293533325,"21":-0.023087143898010254,"22":-0.15607713162899017,"23":-0.02009611949324608,"24":0.13471198081970215,"25":-0.021525532007217407,"26":-0.007268629036843777,"27":-0.012207800522446632,"28":0.11666766554117203,"29":-0.0852370485663414,"30":0.04711919277906418,"31":0.005555030424147844,"32":-0.04786611720919609,"33":-0.15099099278450012,"34":0.13769589364528656,"35":-0.16632136702537537,"36":0.2032734602689743,"37":0.03596806153655052,"38":-0.07880503684282303,"39":0.10705473273992538,"40":-0.18381473422050476,"41":-0.1572272926568985,"42":0.11248928308486938,"43":-0.052727412432432175,"44":-0.0761130228638649,"45":0.10313522070646286,"46":-0.06074118614196777,"47":0.09572172909975052,"48":0.16366234421730042,"49":0.02189548872411251,"50":0.09021634608507156,"51":0.10204226523637772,"52":-0.04714569076895714,"53":0.14387869834899902,"54":0.015573649667203426,"55":0.03118344210088253,"56":-0.156540647149086,"57":0.026927510276436806,"58":0.17462880909442902,"59":0.006094236858189106,"60":0.15341155230998993,"61":-0.18728192150592804,"62":-0.03655795380473137,"63":0.018049092963337898,"64":-0.012540962547063828,"65":0.09476085007190704,"66":-0.043907616287469864,"67":-0.09791969507932663,"68":-0.10527528077363968,"69":-0.06856437027454376,"70":-0.13109776377677917,"71":0.03282531350851059,"72":0.09434346854686737,"73":0.021180186420679092,"74":0.11431939154863358,"75":-0.21934762597084045,"76":0.08530090749263763,"77":0.054770588874816895,"78":-0.13175663352012634,"79":0.08855888992547989,"80":-0.10966820269823074,"81":-0.03801020234823227,"82":0.11327359825372696,"83":0.17967352271080017,"84":0.09084076434373856,"85":-0.045954007655382156,"86":-0.029606875032186508,"87":-0.03632501885294914,"88":0.04062953591346741,"89":0.05604002997279167,"90":-0.09329643100500107,"91":0.04395956173539162,"92":-0.11601708084344864,"93":-0.14852595329284668,"94":-0.11103049665689468,"95":-0.12664519250392914,"96":-0.12240252643823624,"97":-0.04652057960629463,"98":-0.19795866310596466,"99":0.1787741333246231,"100":0.05188487842679024,"101":-0.13473910093307495,"102":0.019115351140499115,"103":-0.027845142409205437,"104":0.06327714025974274,"105":-0.043866682797670364,"106":-0.04026517644524574,"107":-0.11827070266008377,"108":-0.19636087119579315,"109":-0.06976862996816635,"110":-0.020433008670806885,"111":-0.18918906152248383,"112":0.13312208652496338,"113":-0.16772806644439697,"114":0.13915376365184784}},"4":{"bias":0.04745320603251457,"weights":{"0":-0.04978223517537117,"1":0.013353372924029827,"2":0.18541759252548218,"3":0.12050370872020721,"4":0.007172273471951485,"5":-0.18906554579734802,"6":-0.0575254000723362,"7":0.026393363252282143,"8":-0.10186877846717834,"9":0.15822768211364746,"10":0.16218982636928558,"11":-0.07834203541278839,"12":0.14637261629104614,"13":-0.06094050034880638,"14":-0.18305614590644836,"15":0.06328704953193665,"16":0.17726312577724457,"17":0.18556177616119385,"18":0.06476377695798874,"19":0.14744159579277039,"20":-0.205943763256073,"21":0.11316448450088501,"22":-0.11645516753196716,"23":0.07307366281747818,"24":-0.04302322119474411,"25":-0.171309232711792,"26":-0.08561687171459198,"27":0.0037285785656422377,"28":-0.08118034899234772,"29":-0.20552045106887817,"30":-0.39566993713378906,"31":-0.2110873907804489,"32":0.18574537336826324,"33":-0.2038314938545227,"34":-0.19744159281253815,"35":0.27618810534477234,"36":0.2589697539806366,"37":-0.03650255873799324,"38":0.14921452105045319,"39":-0.16410644352436066,"40":0.1877765953540802,"41":0.07420148700475693,"42":0.23437495529651642,"43":-0.12398716807365417,"44":-0.08089649677276611,"45":-0.05977347120642662,"46":0.21983501315116882,"47":0.024060020223259926,"48":-0.0007546250126324594,"49":-0.18047888576984406,"50":-0.1321292370557785,"51":0.13797353208065033,"52":-0.5722779035568237,"53":-0.36218374967575073,"54":-0.3176076114177704,"55":-0.09479665756225586,"56":0.02314400114119053,"57":0.07895533740520477,"58":0.29536083340644836,"59":0.14653372764587402,"60":-0.15267832577228546,"61":-0.04165862873196602,"62":0.10098876059055328,"63":-0.05339118465781212,"64":0.42242106795310974,"65":-0.037409741431474686,"66":-0.13087448477745056,"67":0.19223946332931519,"68":-0.007478711195290089,"69":-0.04709743708372116,"70":0.013202598318457603,"71":0.19410601258277893,"72":-0.16361220180988312,"73":0.0664755254983902,"74":-0.1673603355884552,"75":-0.3448784053325653,"76":-0.4679393768310547,"77":-0.09995437413454056,"78":-0.20425792038440704,"79":0.18601514399051666,"80":0.18234142661094666,"81":0.14929625391960144,"82":-0.04121130332350731,"83":-0.08506494760513306,"84":-0.1683063805103302,"85":-0.029565969482064247,"86":0.02101000025868416,"87":0.10672218352556229,"88":0.21535509824752808,"89":0.1292884647846222,"90":-0.14280082285404205,"91":0.0913342535495758,"92":0.05026409402489662,"93":0.01072748564183712,"94":-0.025911720469594002,"95":0.09625102579593658,"96":0.05202089622616768,"97":0.11132676899433136,"98":-0.023934820666909218,"99":-0.09431977570056915,"100":-0.073911651968956,"101":0.11633513867855072,"102":0.12244030833244324,"103":0.09522189199924469,"104":0.15303629636764526,"105":0.1711815595626831,"106":0.15971927344799042,"107":-0.09244111180305481,"108":0.09273426234722137,"109":-0.15808828175067902,"110":0.02523738332092762,"111":-0.002193826250731945,"112":-0.11555104702711105,"113":-0.1088123470544815,"114":0.0307184886187315}},"5":{"bias":0.10753533244132996,"weights":{"0":-0.11206390708684921,"1":-0.16197626292705536,"2":0.08457306027412415,"3":0.0026303401682525873,"4":-0.05487562716007233,"5":0.013872680254280567,"6":-0.06447122246026993,"7":-0.10817291587591171,"8":-0.19537416100502014,"9":0.10918111354112625,"10":0.17588557302951813,"11":0.007839872501790524,"12":0.08659399300813675,"13":-0.1154971644282341,"14":0.12195733189582825,"15":0.12408268451690674,"16":-0.18315349519252777,"17":0.03544144332408905,"18":0.15792475640773773,"19":0.051798515021800995,"20":0.06650243699550629,"21":-0.056082867085933685,"22":-0.04258955270051956,"23":0.137221097946167,"24":0.1253170520067215,"25":-0.10455098003149033,"26":0.15639148652553558,"27":-0.08937232196331024,"28":0.03550700470805168,"29":-0.10344399511814117,"30":-0.22796018421649933,"31":0.03941596299409866,"32":-0.13157731294631958,"33":-0.051143523305654526,"34":-0.049767930060625076,"35":0.221616730093956,"36":0.22311607003211975,"37":-0.06727121025323868,"38":0.018721090629696846,"39":-0.14720460772514343,"40":-0.18618308007717133,"41":0.04293404147028923,"42":-0.00469016470015049,"43":0.006849996279925108,"44":0.17262522876262665,"45":-0.1303253322839737,"46":-0.05074551701545715,"47":0.32864123582839966,"48":0.022982541471719742,"49":0.1653071641921997,"50":0.03439243510365486,"51":-0.10096416622400284,"52":-0.41168734431266785,"53":-0.31449687480926514,"54":-0.02813228778541088,"55":-0.1682889312505722,"56":-0.11426869034767151,"57":0.1998344361782074,"58":0.45331522822380066,"59":0.474452942609787,"60":0.1724667102098465,"61":-0.07832248508930206,"62":-0.20033033192157745,"63":-0.204842209815979,"64":-0.42999446392059326,"65":-0.2856740653514862,"66":0.06826432049274445,"67":0.1558929979801178,"68":0.05851605162024498,"69":0.19744978845119476,"70":0.1775035262107849,"71":0.10595709830522537,"72":0.15077558159828186,"73":-0.19422130286693573,"74":0.14962749183177948,"75":-0.20968827605247498,"76":-0.32791879773139954,"77":0.14787490665912628,"78":-0.08545210212469101,"79":0.166770800948143,"80":-0.0234257522970438,"81":0.04390498995780945,"82":0.10644737631082535,"83":-0.1337248682975769,"84":-0.06455773115158081,"85":-0.11580260843038559,"86":0.03062533214688301,"87":-0.3304727375507355,"88":-0.0337587334215641,"89":0.10823103040456772,"90":-0.17739185690879822,"91":0.07126028090715408,"92":-0.14649543166160583,"93":-0.15498387813568115,"94":0.07882773876190186,"95":0.12655459344387054,"96":0.11787363141775131,"97":-0.028857631608843803,"98":0.17560701072216034,"99":-0.0853925347328186,"100":0.1659916490316391,"101":0.11552585661411285,"102":-0.030195215716958046,"103":-0.18923071026802063,"104":0.1687585562467575,"105":0.08955846726894379,"106":-0.04846654832363129,"107":-0.20653106272220612,"108":0.18742066621780396,"109":0.14088524878025055,"110":-0.10635245591402054,"111":0.14319291710853577,"112":0.18852420151233673,"113":0.13925135135650635,"114":-0.16277757287025452}},"6":{"bias":-0.005094199441373348,"weights":{"0":-0.12971492111682892,"1":0.1680588573217392,"2":0.1152593120932579,"3":0.06765861064195633,"4":0.16286416351795197,"5":-0.009520473890006542,"6":0.17101150751113892,"7":0.13321731984615326,"8":0.1348566859960556,"9":0.046101465821266174,"10":0.13633809983730316,"11":0.07598035782575607,"12":0.020389659330248833,"13":0.17879457771778107,"14":-0.04614333435893059,"15":-0.009238437749445438,"16":0.09509887546300888,"17":-0.1575796753168106,"18":-0.025875182822346687,"19":-0.11055266112089157,"20":-0.11448723077774048,"21":0.01913674734532833,"22":-0.04037891700863838,"23":-0.165347620844841,"24":-0.044725202023983,"25":0.15800872445106506,"26":0.0700109452009201,"27":0.21091888844966888,"28":-0.041416797786951065,"29":-0.14895614981651306,"30":-0.15616196393966675,"31":0.06988605856895447,"32":0.078284353017807,"33":-0.061957232654094696,"34":-0.030405370518565178,"35":-0.21565593779087067,"36":-0.08454403281211853,"37":0.10930649191141129,"38":-0.13605596125125885,"39":0.04460641369223595,"40":-0.01094483770430088,"41":-0.03752274066209793,"42":0.20089197158813477,"43":0.16218072175979614,"44":-0.030670402571558952,"45":0.17957307398319244,"46":0.10242616385221481,"47":0.13319605588912964,"48":0.044649042189121246,"49":-0.02529624104499817,"50":-0.07284809648990631,"51":-0.0796772688627243,"52":-0.23830343782901764,"53":-0.15526483952999115,"54":-0.1893150508403778,"55":-0.117398202419281,"56":-0.12784981727600098,"57":-0.07075896114110947,"58":-0.32339173555374146,"59":-0.10641883313655853,"60":-0.11622326076030731,"61":0.028109991922974586,"62":-0.15176597237586975,"63":-0.021957330405712128,"64":0.1384391039609909,"65":-0.10972807556390762,"66":-0.150649756193161,"67":-0.10410624742507935,"68":0.029545722529292107,"69":0.1015632301568985,"70":0.23144976794719696,"71":0.031457144767045975,"72":-0.0029807467944920063,"73":0.03736254945397377,"74":-0.11721229553222656,"75":-0.21925213932991028,"76":-0.18921047449111938,"77":-0.13131122291088104,"78":0.13591061532497406,"79":0.03637070208787918,"80":0.001983924303203821,"81":-0.2149997353553772,"82":-0.1854090690612793,"83":0.16383051872253418,"84":0.08438070863485336,"85":0.17988036572933197,"86":-0.04603910446166992,"87":-0.01500865537673235,"88":0.2148270159959793,"89":0.15383578836917877,"90":-0.07854381203651428,"91":0.04217125475406647,"92":0.12794147431850433,"93":0.12983925640583038,"94":-0.1342613697052002,"95":-0.021875789389014244,"96":-0.08357812464237213,"97":0.16035029292106628,"98":0.17257894575595856,"99":0.16577337682247162,"100":-0.06591487675905228,"101":-0.013208369724452496,"102":0.182297021150589,"103":-0.07262042909860611,"104":-0.012455510906875134,"105":0.04915572702884674,"106":0.029009560123085976,"107":-0.13312911987304688,"108":-0.03862990811467171,"109":-0.018442576751112938,"110":-0.008615761063992977,"111":0.03206336125731468,"112":0.06280284374952316,"113":-0.13966189324855804,"114":-0.1144065409898758}},"7":{"bias":0.11273018270730972,"weights":{"0":0.12414664030075073,"1":-0.1625402718782425,"2":0.10155107080936432,"3":-0.17286528646945953,"4":0.10057990252971649,"5":-0.04356157407164574,"6":-0.08213961869478226,"7":0.15049125254154205,"8":-0.15938620269298553,"9":0.12027637660503387,"10":-0.02841450460255146,"11":0.03630133718252182,"12":-0.17230947315692902,"13":-0.07406848669052124,"14":-0.0005420896923169494,"15":0.08938435465097427,"16":0.10617514699697495,"17":-0.022343629971146584,"18":-0.09353388100862503,"19":0.11044921725988388,"20":0.12482385337352753,"21":0.09150438010692596,"22":0.14794646203517914,"23":-0.16094040870666504,"24":0.07478229701519012,"25":0.06652580946683884,"26":0.13785703480243683,"27":0.05022558197379112,"28":0.051894981414079666,"29":-0.07293125241994858,"30":-0.3818773925304413,"31":-0.25370433926582336,"32":0.080804243683815,"33":-0.10528019070625305,"34":0.14530564844608307,"35":0.28146302700042725,"36":0.26250624656677246,"37":-0.15239010751247406,"38":0.17235006392002106,"39":0.042584922164678574,"40":0.10990258306264877,"41":-0.10806027054786682,"42":0.015967577695846558,"43":0.06328918784856796,"44":0.09032687544822693,"45":-0.10927493870258331,"46":-0.06823818385601044,"47":-0.0008267931407317519,"48":-0.1862650066614151,"49":-0.02319416031241417,"50":0.14087624847888947,"51":0.11673407256603241,"52":-0.18821875751018524,"53":-0.37540167570114136,"54":-0.4727644622325897,"55":0.034546028822660446,"56":0.13979704678058624,"57":0.17749464511871338,"58":0.24039581418037415,"59":0.41204193234443665,"60":0.26163285970687866,"61":0.17719723284244537,"62":0.07753119617700577,"63":-0.10114449262619019,"64":-0.10791308432817459,"65":0.07867813855409622,"66":0.08770257979631424,"67":0.08721709251403809,"68":0.09828805923461914,"69":-0.14195041358470917,"70":-0.19593827426433563,"71":0.0837496966123581,"72":0.08286840468645096,"73":-0.09451248496770859,"74":-0.03885657712817192,"75":-0.3211663067340851,"76":-0.24318140745162964,"77":-0.07779304683208466,"78":-0.14991359412670135,"79":-0.16214986145496368,"80":-0.16003139317035675,"81":0.32696908712387085,"82":0.12502188980579376,"83":0.14451174437999725,"84":-0.01610773615539074,"85":0.1420268565416336,"86":0.13991443812847137,"87":-0.008282925002276897,"88":0.02723838947713375,"89":-0.1148432195186615,"90":-0.2066435068845749,"91":-0.12279307097196579,"92":0.11985130608081818,"93":0.04887362942099571,"94":-0.13003619015216827,"95":0.01049082912504673,"96":-0.09652575105428696,"97":-0.196822389960289,"98":0.007024519145488739,"99":-0.09742801636457443,"100":-0.03320573642849922,"101":0.14778493344783783,"102":-0.07509798556566238,"103":-0.19767339527606964,"104":-0.037288133054971695,"105":-0.1113116443157196,"106":0.13965322077274323,"107":-0.17899172008037567,"108":0.13022612035274506,"109":0.04030326008796692,"110":-0.15248166024684906,"111":0.1607591062784195,"112":0.1770416647195816,"113":0.03141156956553459,"114":0.08776874840259552}},"8":{"bias":-0.09709913283586502,"weights":{"0":0.11382308602333069,"1":-0.1825440376996994,"2":0.024997757747769356,"3":-0.17511595785617828,"4":-0.1919202357530594,"5":0.14026491343975067,"6":0.07028374820947647,"7":-0.13337962329387665,"8":0.0603783056139946,"9":-0.03917574882507324,"10":-0.07103949040174484,"11":-0.1204315647482872,"12":0.10845570266246796,"13":-0.13839907944202423,"14":0.08783353120088577,"15":0.02897886373102665,"16":-0.002397137461230159,"17":0.19301359355449677,"18":-0.12990723550319672,"19":0.04239436984062195,"20":-0.058680154383182526,"21":0.11960979551076889,"22":0.0027129536028951406,"23":-0.0004116187628824264,"24":-0.06478133052587509,"25":-0.09020911157131195,"26":0.09038332104682922,"27":0.011550375260412693,"28":0.034487660974264145,"29":0.2148868292570114,"30":-0.07322009652853012,"31":0.21817097067832947,"32":0.08155377209186554,"33":-0.001404122798703611,"34":-0.004386263899505138,"35":-0.1246476024389267,"36":-0.39183151721954346,"37":-0.04815637320280075,"38":0.15913529694080353,"39":-0.05954412370920181,"40":0.09537341445684433,"41":0.19423265755176544,"42":0.2798693776130676,"43":-0.13693682849407196,"44":-0.010942588560283184,"45":0.05171886086463928,"46":0.05950642749667168,"47":-0.30170726776123047,"48":-0.10500046610832214,"49":-0.0641617476940155,"50":-0.13043130934238434,"51":0.1882210224866867,"52":0.26148131489753723,"53":0.1898655742406845,"54":0.2753937840461731,"55":-0.10229270905256271,"56":0.12760081887245178,"57":-0.0423489548265934,"58":-0.4905915856361389,"59":-0.47536274790763855,"60":-0.1697787195444107,"61":-0.014320528134703636,"62":0.10599914193153381,"63":0.2997032403945923,"64":0.15099747478961945,"65":0.26182785630226135,"66":-0.1687038391828537,"67":-0.09347867220640182,"68":0.18330346047878265,"69":-0.0635492280125618,"70":0.13358546793460846,"71":-0.1321876347064972,"72":-0.10478541254997253,"73":0.1848715990781784,"74":-0.11212722212076187,"75":0.13947926461696625,"76":0.11035968363285065,"77":-0.021680140867829323,"78":0.07609758526086807,"79":-0.049312837421894073,"80":-0.17749889194965363,"81":-0.22229398787021637,"82":-0.29376018047332764,"83":0.112923763692379,"84":0.14049170911312103,"85":0.07044864445924759,"86":0.004780840594321489,"87":0.29781267046928406,"88":0.21935750544071198,"89":-0.052526362240314484,"90":0.1701173633337021,"91":0.04132481664419174,"92":0.11117887496948242,"93":-0.12972575426101685,"94":-0.1580144315958023,"95":0.09249672293663025,"96":0.16195787489414215,"97":-0.20398513972759247,"98":-0.20011071860790253,"99":0.01580972783267498,"100":-0.08540811389684677,"101":0.09010409563779831,"102":0.176642045378685,"103":-0.0930040180683136,"104":-0.059423185884952545,"105":-0.20337484776973724,"106":-0.0330490916967392,"107":0.15811748802661896,"108":-0.1313537210226059,"109":-0.17085011303424835,"110":0.09795953333377838,"111":-0.03687339276075363,"112":-0.14565424621105194,"113":-0.03933338075876236,"114":-0.025603078305721283}},"9":{"bias":-0.04240523278713226,"weights":{"0":-0.1561836451292038,"1":-0.09708132594823837,"2":-0.06826319545507431,"3":-0.16074629127979279,"4":-0.10225624591112137,"5":-0.01854534074664116,"6":0.05170257389545441,"7":0.07163039594888687,"8":0.12575799226760864,"9":0.19730769097805023,"10":0.11899827420711517,"11":0.06509757041931152,"12":0.18583206832408905,"13":-0.1311519742012024,"14":0.19564425945281982,"15":-0.07059448957443237,"16":0.050598762929439545,"17":-0.16805385053157806,"18":0.07635988295078278,"19":0.1608501821756363,"20":0.06437300890684128,"21":0.12244082987308502,"22":-0.15563015639781952,"23":-0.023923629894852638,"24":-0.17759455740451813,"25":-0.25160977244377136,"26":-0.09106122702360153,"27":0.14986950159072876,"28":-0.1399363875389099,"29":0.010439629666507244,"30":0.2027777135372162,"31":-0.1262541115283966,"32":0.1319972574710846,"33":0.14158380031585693,"34":-0.1521538496017456,"35":0.38376036286354065,"36":0.05079033225774765,"37":0.1646561324596405,"38":-0.10171887278556824,"39":0.02679620310664177,"40":-0.18291518092155457,"41":-0.18849436938762665,"42":0.03949825465679169,"43":0.18527548015117645,"44":-0.15042774379253387,"45":-0.16227324306964874,"46":0.011683579534292221,"47":-0.49342450499534607,"48":-0.3524536192417145,"49":0.1445378065109253,"50":0.038303907960653305,"51":-0.17961011826992035,"52":0.0691424161195755,"53":0.31015917658805847,"54":0.08258402347564697,"55":0.10590056329965591,"56":0.09855376183986664,"57":0.0890289843082428,"58":0.2687898278236389,"59":0.3185904026031494,"60":0.21238715946674347,"61":0.020996633917093277,"62":-0.16524416208267212,"63":-0.1960018277168274,"64":-0.4040258228778839,"65":-0.2561059892177582,"66":-0.19119693338871002,"67":0.06769748032093048,"68":0.0888143926858902,"69":-0.09560374170541763,"70":-0.24928440153598785,"71":0.03837336227297783,"72":-0.19784796237945557,"73":0.12266264855861664,"74":0.08873783051967621,"75":0.16048762202262878,"76":0.18246205151081085,"77":-0.13151949644088745,"78":0.07693938165903091,"79":0.20567268133163452,"80":-0.0616336353123188,"81":0.0723280981183052,"82":0.2740005552768707,"83":0.08101901412010193,"84":-0.024270422756671906,"85":0.15699084103107452,"86":-0.14945100247859955,"87":-0.04972236230969429,"88":0.11093098670244217,"89":0.19571943581104279,"90":-0.03190839663147926,"91":-0.07046763598918915,"92":-0.0796959400177002,"93":0.07859804481267929,"94":-0.06342273205518723,"95":-0.0744030773639679,"96":-0.14541971683502197,"97":0.09714401513338089,"98":-0.0010499156778678298,"99":-0.10823813825845718,"100":0.11967545747756958,"101":0.1173798069357872,"102":0.01464592944830656,"103":-0.18856607377529144,"104":-0.10246789455413818,"105":0.1586889922618866,"106":-0.1390979140996933,"107":-0.18484430015087128,"108":0.17212630808353424,"109":-0.13760508596897125,"110":0.19477561116218567,"111":0.18899758160114288,"112":-0.18141992390155792,"113":-0.09312160313129425,"114":-0.06520561873912811}},"10":{"bias":-0.14083817601203918,"weights":{"0":0.03969638794660568,"1":0.1209336444735527,"2":0.05390515923500061,"3":-0.12508748471736908,"4":-0.13676124811172485,"5":0.11388224363327026,"6":-0.13289916515350342,"7":0.06138449162244797,"8":-0.11566412448883057,"9":0.022950539365410805,"10":0.07792794704437256,"11":-0.08518987894058228,"12":-0.06126779690384865,"13":0.03788706660270691,"14":0.0876154750585556,"15":-0.1581123173236847,"16":0.05073516070842743,"17":-0.1311310976743698,"18":-0.00508131505921483,"19":0.011381885036826134,"20":0.1535557210445404,"21":0.08210524916648865,"22":0.06499040871858597,"23":-0.017480364069342613,"24":0.13985905051231384,"25":0.19041654467582703,"26":0.2124839574098587,"27":-0.11812146753072739,"28":0.0794023722410202,"29":0.05001179501414299,"30":0.049418967217206955,"31":-0.06893937289714813,"32":0.0807848572731018,"33":-0.08405519276857376,"34":0.08106765896081924,"35":-0.11704664677381516,"36":-0.17175862193107605,"37":-0.13553336262702942,"38":0.019148945808410645,"39":-0.12917424738407135,"40":0.10472723841667175,"41":-0.13857883214950562,"42":0.15767177939414978,"43":0.171677365899086,"44":-0.09546121209859848,"45":-0.05815092474222183,"46":0.03536413609981537,"47":-0.09817995131015778,"48":0.16027052700519562,"49":0.08405853062868118,"50":-0.044947631657123566,"51":0.1880243420600891,"52":0.14439333975315094,"53":0.020948531106114388,"54":-0.060233451426029205,"55":-0.1693352907896042,"56":-0.18235677480697632,"57":-0.17976652085781097,"58":-0.1672169715166092,"59":-0.35115212202072144,"60":0.06912291795015335,"61":-0.041000522673130035,"62":0.14903424680233002,"63":0.08362622559070587,"64":0.2163446843624115,"65":0.06528432667255402,"66":-0.010552354156970978,"67":0.03195739537477493,"68":-0.18104548752307892,"69":0.1824175864458084,"70":0.15925553441047668,"71":0.02030208893120289,"72":0.11530714482069016,"73":-0.11705803871154785,"74":0.1800590455532074,"75":-0.04392893984913826,"76":0.0006797419628128409,"77":0.17766952514648438,"78":0.18104316294193268,"79":-0.18007616698741913,"80":0.0034215482883155346,"81":0.11461631953716278,"82":-0.02567559853196144,"83":-0.020192507654428482,"84":-0.1062873899936676,"85":0.17796753346920013,"86":-0.03181370720267296,"87":0.21263480186462402,"88":-0.033730026334524155,"89":-0.025408778339624405,"90":-0.17126649618148804,"91":-0.07900235801935196,"92":-0.13968661427497864,"93":0.12196101993322372,"94":0.06907780468463898,"95":-0.038826629519462585,"96":-0.0715188980102539,"97":-0.16091637313365936,"98":-0.1390448808670044,"99":-0.03269321471452713,"100":0.07440868765115738,"101":0.11886727064847946,"102":-0.15101377665996552,"103":-0.14084148406982422,"104":-0.09180986881256104,"105":-0.12984485924243927,"106":-0.018863685429096222,"107":-0.12637612223625183,"108":0.08602619916200638,"109":-0.1167093962430954,"110":0.09048563987016678,"111":0.12349646538496017,"112":0.00011893930786754936,"113":0.109302818775177,"114":-0.1598779261112213}},"11":{"bias":0.014368874952197075,"weights":{"0":-0.013080828823149204,"1":0.01536890771239996,"2":0.08250871300697327,"3":0.03314338997006416,"4":-0.0331222265958786,"5":-0.19663047790527344,"6":0.09680884331464767,"7":-0.15824033319950104,"8":-0.1764163076877594,"9":-0.03217240795493126,"10":-0.1305973380804062,"11":-0.19485224783420563,"12":-0.18903860449790955,"13":-0.024205999448895454,"14":-0.002955532632768154,"15":-0.02148774452507496,"16":-0.060976024717092514,"17":0.08705756068229675,"18":-0.09819094836711884,"19":0.027751116082072258,"20":0.06595666706562042,"21":0.023760827258229256,"22":-0.13345862925052643,"23":-0.1191897764801979,"24":-0.2039772868156433,"25":-0.1340278834104538,"26":-0.10537190735340118,"27":-0.02785528637468815,"28":0.06890682131052017,"29":0.07149485498666763,"30":0.21509835124015808,"31":0.03440408408641815,"32":-0.13926197588443756,"33":0.17516328394412994,"34":-0.12928004562854767,"35":0.21722851693630219,"36":0.12975147366523743,"37":0.07859709113836288,"38":-0.15271133184432983,"39":0.004127607215195894,"40":-0.1809142678976059,"41":0.06936028599739075,"42":0.2032422125339508,"43":0.05609627068042755,"44":0.0373079776763916,"45":-0.16322335600852966,"46":-0.28335291147232056,"47":-0.5139395594596863,"48":-0.17879970371723175,"49":0.0533788800239563,"50":-0.007474873214960098,"51":-0.05102314054965973,"52":0.023057276383042336,"53":0.2570946216583252,"54":0.08800652623176575,"55":-0.08532052487134933,"56":0.06744084507226944,"57":-0.12524829804897308,"58":0.28183475136756897,"59":0.14707890152931213,"60":0.172377347946167,"61":0.09801696240901947,"62":0.1724468469619751,"63":0.16546796262264252,"64":0.24753248691558838,"65":0.06845846772193909,"66":-0.1304229497909546,"67":0.10811968892812729,"68":0.19213977456092834,"69":0.07687147706747055,"70":-0.19671869277954102,"71":-0.08798886835575104,"72":-0.023188846185803413,"73":0.1372421383857727,"74":-0.06797148287296295,"75":-0.06278426200151443,"76":0.24635164439678192,"77":0.18099911510944366,"78":0.10837109386920929,"79":0.1747688204050064,"80":0.14518336951732635,"81":-0.025355426594614983,"82":-0.02676624432206154,"83":-0.07100891321897507,"84":-0.1612279862165451,"85":-0.005786310415714979,"86":-0.13402540981769562,"87":0.04944686219096184,"88":0.15197013318538666,"89":-0.17554891109466553,"90":0.1566137969493866,"91":0.03372073173522949,"92":-0.047962069511413574,"93":-0.14711697399616241,"94":-0.05654580146074295,"95":0.009648862294852734,"96":0.1251107007265091,"97":0.035278551280498505,"98":0.12536820769309998,"99":-0.09625836461782455,"100":0.14670373499393463,"101":0.12381874769926071,"102":-0.14551247656345367,"103":0.06265975534915924,"104":0.00644969055429101,"105":0.08661219477653503,"106":-0.18028829991817474,"107":-0.18323466181755066,"108":0.11162469536066055,"109":0.16259023547172546,"110":-0.17914798855781555,"111":-0.11831189692020416,"112":-0.1843494325876236,"113":0.0030712515581399202,"114":-0.09525410830974579}},"12":{"bias":-0.14732688665390015,"weights":{"0":-0.02550526149570942,"1":-0.09966728836297989,"2":0.14324329793453217,"3":0.11996719241142273,"4":-0.16105371713638306,"5":0.010199802927672863,"6":-0.04356849566102028,"7":-0.0176093652844429,"8":-0.1716817021369934,"9":-0.09049762785434723,"10":-0.08768028765916824,"11":0.03270325809717178,"12":-0.11959677189588547,"13":-0.08623728901147842,"14":-0.0962444618344307,"15":0.040479183197021484,"16":0.17724508047103882,"17":-0.04454448074102402,"18":-0.197829470038414,"19":0.05955095589160919,"20":-0.15929658710956573,"21":-0.12983430922031403,"22":-0.0006982531631365418,"23":0.1785339117050171,"24":-0.12063486874103546,"25":-0.16347576677799225,"26":-0.16363525390625,"27":0.1806362420320511,"28":0.04294046759605408,"29":0.15445883572101593,"30":0.11631742119789124,"31":-0.12956634163856506,"32":0.006794601678848267,"33":0.07585697621107101,"34":-0.2002398520708084,"35":0.016123536974191666,"36":-0.20613057911396027,"37":-0.04197590798139572,"38":-0.17691679298877716,"39":-0.12903152406215668,"40":0.041737936437129974,"41":-0.01021259743720293,"42":-0.182545468211174,"43":-0.1778915822505951,"44":-0.035532865673303604,"45":-0.01651347614824772,"46":-0.1939689666032791,"47":0.11962812393903732,"48":-0.0540522001683712,"49":-0.1422758251428604,"50":0.1163240298628807,"51":-0.01916542835533619,"52":-0.12839928269386292,"53":0.010773706249892712,"54":0.16273121535778046,"55":-0.05494910851120949,"56":-0.17684534192085266,"57":0.08695375174283981,"58":-0.07237058132886887,"59":0.0447193905711174,"60":-0.01613043062388897,"61":-0.2013208121061325,"62":-0.1337694674730301,"63":-0.17959736287593842,"64":-0.0176747664809227,"65":0.06675274670124054,"66":0.046032991260290146,"67":-0.07138068974018097,"68":-0.0579737164080143,"69":-0.08255138993263245,"70":0.14168915152549744,"71":-0.13638007640838623,"72":-0.0828646719455719,"73":-0.030177725479006767,"74":-0.03392826020717621,"75":0.19651100039482117,"76":-0.18203617632389069,"77":-0.1941685527563095,"78":-0.14522968232631683,"79":0.043684061616659164,"80":0.14180178940296173,"81":0.17730306088924408,"82":-0.0742579773068428,"83":0.18735061585903168,"84":0.006999016273766756,"85":-0.036374256014823914,"86":-0.06580676883459091,"87":-0.15959283709526062,"88":0.08710033446550369,"89":-0.03697270154953003,"90":0.02637355402112007,"91":-0.06111301854252815,"92":0.13619717955589294,"93":-0.04763832688331604,"94":-0.12356140464544296,"95":0.17534658312797546,"96":0.014534255489706993,"97":0.029428770765662193,"98":0.15080302953720093,"99":-0.15660586953163147,"100":0.10891254991292953,"101":-0.10623903572559357,"102":-0.19702106714248657,"103":-0.05864745005965233,"104":-0.19619803130626678,"105":0.15858909487724304,"106":0.07466284930706024,"107":0.0496811605989933,"108":-0.08648126572370529,"109":0.18176187574863434,"110":0.12173745781183243,"111":-0.08270008862018585,"112":0.04648478329181671,"113":0.18110217154026031,"114":0.055812131613492966}},"13":{"bias":-0.18479879200458527,"weights":{"0":0.05727958679199219,"1":-0.10465117543935776,"2":0.01638171449303627,"3":0.06160937249660492,"4":-0.1781812608242035,"5":0.0742257833480835,"6":0.09623035043478012,"7":-0.0360797643661499,"8":-0.13079877197742462,"9":-0.04157460853457451,"10":0.1928907334804535,"11":-0.09661658853292465,"12":-0.03652125969529152,"13":-0.04111970588564873,"14":0.13139326870441437,"15":-0.17676396667957306,"16":-0.03687401860952377,"17":-0.10288048535585403,"18":0.06188688427209854,"19":-0.08623698353767395,"20":-0.0465184785425663,"21":0.08844567835330963,"22":-0.14377479255199432,"23":-0.04314133897423744,"24":-0.01591535657644272,"25":0.11829929053783417,"26":-0.12061415612697601,"27":0.05023718625307083,"28":-0.04244313761591911,"29":-0.17594382166862488,"30":-0.10214287042617798,"31":0.029565611854195595,"32":-0.13648366928100586,"33":0.11281495541334152,"34":-0.14939098060131073,"35":0.07542973011732101,"36":0.09038975089788437,"37":0.16847677528858185,"38":0.03963961824774742,"39":-0.04925765097141266,"40":0.04098965600132942,"41":0.0828506126999855,"42":0.06371695548295975,"43":0.1079871878027916,"44":-0.04349026083946228,"45":0.015745321288704872,"46":0.22877973318099976,"47":-0.045477669686079025,"48":-0.03485019877552986,"49":-0.06145370751619339,"50":-0.0133059648796916,"51":-0.015463259071111679,"52":-0.022447461262345314,"53":-0.14987103641033173,"54":0.13513483107089996,"55":0.006915919482707977,"56":0.11093465238809586,"57":-0.03918581083416939,"58":-0.1466083824634552,"59":0.02359970472753048,"60":-0.1389939934015274,"61":0.1809769868850708,"62":0.0033466394525021315,"63":-0.05386606976389885,"64":-0.14955833554267883,"65":-0.11212609708309174,"66":0.14164666831493378,"67":-0.03431675210595131,"68":-0.10760416835546494,"69":0.04223192110657692,"70":-0.11545848846435547,"71":0.14324671030044556,"72":0.1518109291791916,"73":0.012646717950701714,"74":-0.10449686646461487,"75":0.03680255636572838,"76":-0.17969971895217896,"77":0.08333884179592133,"78":-0.08749569207429886,"79":-0.1307591050863266,"80":-0.003343750722706318,"81":0.10930652171373367,"82":0.07746414095163345,"83":0.1502397507429123,"84":-0.15174600481987,"85":0.04685470834374428,"86":-0.17153465747833252,"87":-0.19900183379650116,"88":-0.055344030261039734,"89":0.061556436121463776,"90":-0.11718502640724182,"91":-0.13986311852931976,"92":-0.031580373644828796,"93":0.15588712692260742,"94":0.15436331927776337,"95":-0.017085427418351173,"96":-0.031184112653136253,"97":-0.17896436154842377,"98":0.11020761728286743,"99":-0.1652403324842453,"100":-0.07706307619810104,"101":-0.19604980945587158,"102":-0.043052613735198975,"103":0.03148052841424942,"104":0.011077874340116978,"105":0.11989486217498779,"106":-0.07233373820781708,"107":-0.1534135937690735,"108":0.1605844348669052,"109":0.08347105234861374,"110":-0.0595732182264328,"111":-0.014424419030547142,"112":-0.07175174355506897,"113":0.11902372539043427,"114":-0.08961900323629379}},"14":{"bias":-0.025141149759292603,"weights":{"0":-0.14333079755306244,"1":-0.037901535630226135,"2":0.013929060660302639,"3":-0.07346534729003906,"4":0.1282721757888794,"5":-0.15622948110103607,"6":0.19360464811325073,"7":-0.07594841718673706,"8":0.18654946982860565,"9":-0.16744768619537354,"10":-0.052866410464048386,"11":-0.047495029866695404,"12":-0.15930487215518951,"13":0.14901825785636902,"14":-0.049671471118927,"15":0.20490342378616333,"16":0.13657982647418976,"17":-0.12367481738328934,"18":0.1613568663597107,"19":-0.04859573021531105,"20":-0.06317161023616791,"21":-0.06262356042861938,"22":0.055382564663887024,"23":0.11595065146684647,"24":-0.1388401985168457,"25":-0.25114527344703674,"26":0.09840424358844757,"27":0.012967671267688274,"28":0.08115081489086151,"29":0.15451757609844208,"30":0.031704846769571304,"31":-0.06734122335910797,"32":-0.12615282833576202,"33":-0.16018414497375488,"34":0.01803930662572384,"35":0.2570761740207672,"36":0.3336009681224823,"37":0.13833892345428467,"38":0.1134045273065567,"39":-0.104413241147995,"40":0.1488644927740097,"41":0.037443701177835464,"42":0.0436546690762043,"43":0.06272148340940475,"44":-0.14430199563503265,"45":-0.0727183073759079,"46":-0.09744173288345337,"47":-0.39126288890838623,"48":-0.18764811754226685,"49":0.112738236784935,"50":0.01313787791877985,"51":0.18593822419643402,"52":-0.027129964902997017,"53":0.004673927556723356,"54":-0.140763521194458,"55":-0.0794551819562912,"56":0.0077987415716052055,"57":0.034793272614479065,"58":0.14277729392051697,"59":0.23217184841632843,"60":0.17671899497509003,"61":0.011082378216087818,"62":0.04864473640918732,"63":0.0886344239115715,"64":0.1424197256565094,"65":0.10568637400865555,"66":0.10349789261817932,"67":0.16404618322849274,"68":0.09892046451568604,"69":-0.11904984712600708,"70":-0.1732930988073349,"71":-0.21653993427753448,"72":0.19215147197246552,"73":0.14375029504299164,"74":0.12464505434036255,"75":-0.1202031746506691,"76":-0.11998508870601654,"77":-0.12382900714874268,"78":-0.12569013237953186,"79":-0.13317380845546722,"80":-0.1715582013130188,"81":0.11180305480957031,"82":0.314193993806839,"83":-0.16069525480270386,"84":-0.004468363709747791,"85":-0.13728170096874237,"86":-0.002719729905948043,"87":-0.11702124774456024,"88":0.17631317675113678,"89":-0.16220809519290924,"90":-0.14169089496135712,"91":0.1612139493227005,"92":-0.16699478030204773,"93":0.00446948129683733,"94":0.06716740876436234,"95":0.1807067096233368,"96":-0.184868723154068,"97":-0.0643245130777359,"98":0.040584225207567215,"99":-0.03172599896788597,"100":-0.17428486049175262,"101":-0.006704660132527351,"102":-0.028581969439983368,"103":-0.15213558077812195,"104":0.17914973199367523,"105":-0.036330386996269226,"106":-0.1263100951910019,"107":-0.05070509761571884,"108":0.20086809992790222,"109":-0.006574589293450117,"110":0.08908528089523315,"111":0.20436696708202362,"112":-0.14501509070396423,"113":-0.016149815171957016,"114":-0.15295200049877167}},"15":{"bias":-0.046733107417821884,"weights":{"0":-0.14105616509914398,"1":0.040082260966300964,"2":0.2057870775461197,"3":-0.12599824368953705,"4":-0.12829826772212982,"5":0.12165609002113342,"6":-0.15443338453769684,"7":0.019572684541344643,"8":-0.005080638453364372,"9":-0.017280254513025284,"10":0.0620962418615818,"11":-0.02614801563322544,"12":0.06705867499113083,"13":-0.1510646790266037,"14":0.1817357838153839,"15":0.07876171916723251,"16":-0.018413346260786057,"17":-0.10687778890132904,"18":0.023583684116601944,"19":0.132779061794281,"20":0.055982306599617004,"21":-0.13625235855579376,"22":0.06706609576940536,"23":-0.12680862843990326,"24":-0.13488434255123138,"25":0.16840317845344543,"26":0.03645467385649681,"27":0.20744523406028748,"28":-0.04573409631848335,"29":-0.08626051247119904,"30":-0.04018789157271385,"31":0.12851287424564362,"32":-0.1021348163485527,"33":0.001868773135356605,"34":-0.16881005465984344,"35":-0.17903059720993042,"36":-0.3465624153614044,"37":-0.04870372638106346,"38":0.17810745537281036,"39":0.0853436142206192,"40":0.22463205456733704,"41":0.17671653628349304,"42":0.33597490191459656,"43":-0.11137908697128296,"44":-0.07409863919019699,"45":0.1755436360836029,"46":-0.10151000320911407,"47":-0.052302032709121704,"48":0.11133357882499695,"49":0.17852620780467987,"50":-0.054289136081933975,"51":-0.06356309354305267,"52":-0.10550051927566528,"53":-0.37779268622398376,"54":0.07790961116552353,"55":0.17634622752666473,"56":-0.0012579543981701136,"57":0.011895568110048771,"58":-0.2716350555419922,"59":-0.26459863781929016,"60":0.046323079615831375,"61":0.19606751203536987,"62":0.11462312936782837,"63":0.2589828073978424,"64":0.5274538993835449,"65":0.13796588778495789,"66":0.16627220809459686,"67":-0.18041543662548065,"68":0.07074291259050369,"69":0.12839160859584808,"70":0.044832851737737656,"71":-0.03961166366934776,"72":-0.141861230134964,"73":-0.10016904771327972,"74":0.0648365318775177,"75":-0.05548043176531792,"76":-0.22985363006591797,"77":-0.2028747797012329,"78":0.1262696385383606,"79":-0.10067547112703323,"80":-0.13277988135814667,"81":-0.18611566722393036,"82":-0.2734551429748535,"83":0.08391651511192322,"84":-0.0778488963842392,"85":0.029127322137355804,"86":0.1120159924030304,"87":0.1278424859046936,"88":0.03907603397965431,"89":-0.16057150065898895,"90":0.0852065160870552,"91":0.1579861044883728,"92":-0.025956975296139717,"93":0.18772369623184204,"94":0.06402816623449326,"95":-0.01365638617426157,"96":0.1881168633699417,"97":-0.17843233048915863,"98":-0.12216853350400925,"99":-0.10437314957380295,"100":0.08090420067310333,"101":-0.1719999760389328,"102":-0.02492145448923111,"103":0.1889074742794037,"104":-0.05314762145280838,"105":0.16197656095027924,"106":-0.1418357789516449,"107":-0.11424294114112854,"108":0.11777297407388687,"109":-0.15260037779808044,"110":-0.02239125594496727,"111":0.14051242172718048,"112":0.1767330914735794,"113":-0.1305006742477417,"114":-0.13474009931087494}},"16":{"bias":0.14209352433681488,"weights":{"0":0.00810316950082779,"1":-0.05550716444849968,"2":-0.13944904506206512,"3":-0.006428948603570461,"4":0.09686717391014099,"5":0.07543565332889557,"6":0.06139298900961876,"7":0.14304287731647491,"8":-0.13784940540790558,"9":0.16513614356517792,"10":0.0021965631749480963,"11":0.14080826938152313,"12":-0.18197588622570038,"13":-0.12112315744161606,"14":-0.17351584136486053,"15":-0.1452232450246811,"16":-0.049884941428899765,"17":0.03694026544690132,"18":-0.06669372320175171,"19":-0.14530937373638153,"20":-0.007148170843720436,"21":-0.11836756765842438,"22":-0.05104941502213478,"23":0.14103762805461884,"24":-0.2969639301300049,"25":-0.24118322134017944,"26":-0.09689529240131378,"27":0.03165943920612335,"28":0.14275749027729034,"29":0.04159307852387428,"30":-0.026236005127429962,"31":-0.0040697744116187096,"32":0.025080526247620583,"33":0.1522572785615921,"34":0.06598278880119324,"35":0.046132009476423264,"36":0.20883408188819885,"37":0.16489382088184357,"38":0.01878444291651249,"39":-0.059987518936395645,"40":-0.15672071278095245,"41":0.13442544639110565,"42":0.07115783542394638,"43":-0.11461007595062256,"44":0.013081051409244537,"45":-0.004574752412736416,"46":-0.21573814749717712,"47":-0.6205200552940369,"48":-0.4991534352302551,"49":-0.03185953199863434,"50":0.17323188483715057,"51":-0.21226893365383148,"52":0.23013781011104584,"53":0.07161776721477509,"54":0.13272030651569366,"55":0.08954867720603943,"56":0.08011437952518463,"57":0.17522560060024261,"58":0.18886958062648773,"59":0.09429332613945007,"60":-0.033460263162851334,"61":-0.06906203925609589,"62":0.13394196331501007,"63":0.16871270537376404,"64":0.0029634153470396996,"65":0.06880475580692291,"66":0.08462601900100708,"67":0.1208069771528244,"68":0.0538942925632,"69":0.08571112900972366,"70":-0.1757054626941681,"71":-0.25233137607574463,"72":-0.1554330736398697,"73":0.0976685881614685,"74":-0.04604411497712135,"75":0.03418687731027603,"76":0.11285136640071869,"77":0.08402173966169357,"78":-0.21834872663021088,"79":0.16006968915462494,"80":0.026165125891566277,"81":0.19948585331439972,"82":0.22350721061229706,"83":-0.09049007296562195,"84":-0.006649903021752834,"85":0.1477460414171219,"86":-0.15182822942733765,"87":-0.057657741010189056,"88":-0.16232798993587494,"89":0.03372211381793022,"90":-0.003085881471633911,"91":0.02889149822294712,"92":0.04575612023472786,"93":-0.027172425761818886,"94":-0.03628237172961235,"95":0.13755016028881073,"96":0.13607601821422577,"97":0.013172466307878494,"98":-0.12317588925361633,"99":0.14926643669605255,"100":0.029929837211966515,"101":0.02089184708893299,"102":-0.21310369670391083,"103":0.01639089174568653,"104":-0.17799551784992218,"105":0.06993286311626434,"106":-0.045724865049123764,"107":-0.00721113383769989,"108":-0.0626317635178566,"109":-0.16262848675251007,"110":-0.06753452122211456,"111":-0.08064711093902588,"112":-0.0366489551961422,"113":-0.09828349947929382,"114":0.1768164485692978}},"17":{"bias":-0.010256003588438034,"weights":{"0":0.1384078711271286,"1":0.09724126011133194,"2":0.16134357452392578,"3":-0.05933871865272522,"4":-0.13066768646240234,"5":-0.0970633327960968,"6":-0.12150771915912628,"7":-0.11173165589570999,"8":0.03440563380718231,"9":-0.1982676088809967,"10":0.16522438824176788,"11":-0.1845191866159439,"12":-0.07631254196166992,"13":0.056414417922496796,"14":0.15280137956142426,"15":0.12244858592748642,"16":0.032626502215862274,"17":0.08216477185487747,"18":-0.16439874470233917,"19":0.05057299882173538,"20":0.07822738587856293,"21":0.049815185368061066,"22":-0.07886727154254913,"23":0.12511871755123138,"24":-0.06999392807483673,"25":-0.030424319207668304,"26":0.1103060394525528,"27":-0.17307426035404205,"28":0.07731049507856369,"29":-0.18382515013217926,"30":0.1554589569568634,"31":0.12643641233444214,"32":0.0938909500837326,"33":0.08433513343334198,"34":-0.03862860053777695,"35":-0.1345043182373047,"36":-0.16630665957927704,"37":0.05787926912307739,"38":-0.007054655347019434,"39":0.00493199098855257,"40":0.0643170177936554,"41":-0.23501545190811157,"42":-0.19665926694869995,"43":0.038742125034332275,"44":-0.023233570158481598,"45":0.1860157549381256,"46":0.14859704673290253,"47":0.08071557432413101,"48":-0.1779996007680893,"49":-0.02156086452305317,"50":0.1760205179452896,"51":-0.11392002552747726,"52":-0.0883965864777565,"53":-0.07659944891929626,"54":0.1164989024400711,"55":-0.06165648251771927,"56":0.10984891653060913,"57":0.05967378243803978,"58":-0.044364407658576965,"59":0.1355564296245575,"60":-0.18053139746189117,"61":-0.17139478027820587,"62":0.09961481392383575,"63":-0.1618928462266922,"64":0.12001676857471466,"65":-0.051091086119413376,"66":-0.06410276889801025,"67":0.07956068962812424,"68":0.17460013926029205,"69":-0.1254482865333557,"70":-0.013307405635714531,"71":-0.0606721006333828,"72":-0.20441724359989166,"73":-0.10353301465511322,"74":-0.12102052569389343,"75":-0.17749516665935516,"76":0.17043615877628326,"77":0.10948747396469116,"78":0.1282454878091812,"79":0.03693481534719467,"80":0.16914179921150208,"81":0.057522695511579514,"82":-0.19091030955314636,"83":-0.20943012833595276,"84":-0.11801174283027649,"85":-0.14560717344284058,"86":-0.19753217697143555,"87":0.11570792645215988,"88":-0.07515841722488403,"89":-0.15396776795387268,"90":0.091861292719841,"91":-0.05301374942064285,"92":0.14382196962833405,"93":0.08817251771688461,"94":0.07830361276865005,"95":-0.10074499249458313,"96":0.1147199422121048,"97":-0.10338959842920303,"98":-0.20945899188518524,"99":-0.035249486565589905,"100":-0.09021934866905212,"101":-0.03467678278684616,"102":0.11153997480869293,"103":-0.12332227826118469,"104":-0.07448612153530121,"105":0.14110863208770752,"106":0.09441378712654114,"107":-0.17550718784332275,"108":-0.09819141775369644,"109":-0.1482403427362442,"110":0.04567696154117584,"111":-0.16835181415081024,"112":-0.1105223074555397,"113":-0.19778016209602356,"114":0.14278672635555267}},"18":{"bias":-0.11692970991134644,"weights":{"0":-0.03257395699620247,"1":0.09105392545461655,"2":-0.06951282173395157,"3":0.1410658359527588,"4":-0.10681254416704178,"5":-0.10809818655252457,"6":0.13752681016921997,"7":-0.054156750440597534,"8":0.16130578517913818,"9":0.08994690328836441,"10":-0.20520025491714478,"11":0.18973657488822937,"12":0.17572930455207825,"13":-0.17052048444747925,"14":0.17456966638565063,"15":-0.16359159350395203,"16":0.05821935087442398,"17":-0.03374190628528595,"18":-0.12048431485891342,"19":-0.03834956884384155,"20":0.11149881035089493,"21":-0.04164925217628479,"22":-0.08691249042749405,"23":-0.14872384071350098,"24":-0.2565050721168518,"25":-0.15811356902122498,"26":-0.1280193328857422,"27":0.11641519516706467,"28":-0.11242062598466873,"29":-0.12342528998851776,"30":0.04625396430492401,"31":-0.14486025273799896,"32":0.02109316550195217,"33":-0.1738075613975525,"34":-0.014104843139648438,"35":-0.17428895831108093,"36":0.04052184894680977,"37":-0.015100914053618908,"38":0.13697507977485657,"39":-0.1279717981815338,"40":0.08570507168769836,"41":0.2874327600002289,"42":0.413329541683197,"43":-0.1528027057647705,"44":0.12023181468248367,"45":0.09827304631471634,"46":-0.03881196677684784,"47":-0.3255250155925751,"48":-0.35674846172332764,"49":-0.055347587913274765,"50":-0.04878140985965729,"51":-0.1711534857749939,"52":-0.24044659733772278,"53":-0.050943173468112946,"54":-0.10655782371759415,"55":0.06166105717420578,"56":-0.068250872194767,"57":0.1933414191007614,"58":-0.1775166094303131,"59":-0.045420944690704346,"60":-0.2134150117635727,"61":0.07325375825166702,"62":0.04374299943447113,"63":0.477337509393692,"64":0.7406493425369263,"65":0.4875819981098175,"66":-0.1350339651107788,"67":0.13431748747825623,"68":-0.039990395307540894,"69":-0.015245321206748486,"70":-0.32495367527008057,"71":-0.21298378705978394,"72":-0.1754721999168396,"73":-0.09210548549890518,"74":0.11395571380853653,"75":-0.22840248048305511,"76":-0.2517225444316864,"77":0.06091288477182388,"78":-0.06210957467556,"79":-0.12294856458902359,"80":-0.03444432467222214,"81":0.10624710470438004,"82":0.1294630914926529,"83":0.1574978530406952,"84":-0.06263945251703262,"85":0.06356754153966904,"86":0.22464719414710999,"87":0.28043070435523987,"88":0.2661977708339691,"89":0.1271563470363617,"90":0.055613256990909576,"91":-0.022767437621951103,"92":-0.019257305189967155,"93":0.17394137382507324,"94":0.022185394540429115,"95":0.003146484959870577,"96":0.1682296097278595,"97":0.060843005776405334,"98":0.1603885293006897,"99":0.11367657035589218,"100":-0.14856001734733582,"101":-0.018391037359833717,"102":-0.019721856340765953,"103":0.006098998244851828,"104":0.10098963230848312,"105":-0.057107698172330856,"106":-0.00025784538593143225,"107":-0.04916233569383621,"108":0.1651356816291809,"109":0.1893576979637146,"110":0.06887129694223404,"111":-0.13317212462425232,"112":0.024604251608252525,"113":0.1610785722732544,"114":-0.19118443131446838}},"19":{"bias":-0.0331585519015789,"weights":{"0":0.09462197870016098,"1":0.11976346373558044,"2":0.01563245989382267,"3":0.13781408965587616,"4":0.00027064207824878395,"5":-0.1850682646036148,"6":0.06258571892976761,"7":0.013900741934776306,"8":-0.1299554705619812,"9":0.14446787536144257,"10":-0.11410941183567047,"11":0.049234744161367416,"12":-0.11648672074079514,"13":0.05988074466586113,"14":-0.0036605154164135456,"15":-0.13590015470981598,"16":-0.0322134904563427,"17":-0.13861605525016785,"18":-0.10708142817020416,"19":-0.15170729160308838,"20":-0.1258358359336853,"21":0.13868628442287445,"22":0.0808647945523262,"23":-0.11458510160446167,"24":-0.05032379925251007,"25":-0.05216804891824722,"26":0.049027759581804276,"27":-0.006781994830816984,"28":-0.055992793291807175,"29":0.17475630342960358,"30":0.23950882256031036,"31":0.05021025985479355,"32":-0.1304669827222824,"33":0.1325637251138687,"34":-0.15838158130645752,"35":-0.23056557774543762,"36":0.008406024426221848,"37":0.061727721244096756,"38":-0.003654138185083866,"39":-0.066109798848629,"40":0.168545663356781,"41":0.054299626499414444,"42":-0.05688130855560303,"43":0.15782925486564636,"44":-0.07070230692625046,"45":-0.1275063008069992,"46":0.056926265358924866,"47":0.08094483613967896,"48":0.1700202375650406,"49":-0.10601940006017685,"50":0.20008952915668488,"51":-0.010834470391273499,"52":0.17425955832004547,"53":0.3003883957862854,"54":0.18270240724086761,"55":-0.08059407025575638,"56":-0.04538800194859505,"57":-0.11442282050848007,"58":0.05320536345243454,"59":-0.1325923055410385,"60":0.19287213683128357,"61":0.12619289755821228,"62":0.048405859619379044,"63":-0.1624252051115036,"64":-0.12041652947664261,"65":0.04889608547091484,"66":0.20674322545528412,"67":-0.181547611951828,"68":0.07758224755525589,"69":-0.09908835589885712,"70":0.0319066196680069,"71":0.002325977198779583,"72":-0.008610484190285206,"73":0.07222770899534225,"74":0.10011247545480728,"75":0.19544066488742828,"76":0.10644260793924332,"77":0.08893770724534988,"78":-0.0928722694516182,"79":-0.17133435606956482,"80":0.05364283546805382,"81":-0.14876918494701385,"82":0.17679719626903534,"83":0.03395140543580055,"84":-0.11258922517299652,"85":-0.03577775880694389,"86":-0.0736222043633461,"87":-0.15484297275543213,"88":-0.10726280510425568,"89":0.17017345130443573,"90":-0.14807924628257751,"91":-0.034335676580667496,"92":0.12457025796175003,"93":0.0018252907320857048,"94":-0.08075769990682602,"95":0.029804734513163567,"96":-0.12478969991207123,"97":0.02299037016928196,"98":0.08732754737138748,"99":-0.04632365331053734,"100":0.1408999264240265,"101":-0.17301726341247559,"102":-0.09298218786716461,"103":0.12857729196548462,"104":0.1465792953968048,"105":-0.11871212720870972,"106":-0.1751735508441925,"107":0.052784908562898636,"108":-0.06457347422838211,"109":-0.041880007833242416,"110":0.054244305938482285,"111":0.06782189011573792,"112":-0.018975967541337013,"113":-0.01988857053220272,"114":0.08739147335290909}},"20":{"bias":0.1457938849925995,"weights":{"0":0.15123310685157776,"1":0.1384611874818802,"2":0.16983836889266968,"3":0.022894196212291718,"4":0.0803658664226532,"5":0.0802466943860054,"6":-0.08108149468898773,"7":0.05232835188508034,"8":0.0030982419848442078,"9":0.11622750759124756,"10":-0.04041648283600807,"11":-0.12556961178779602,"12":-0.1680355966091156,"13":-0.07503209263086319,"14":-0.15283063054084778,"15":0.02138729766011238,"16":-0.10453041642904282,"17":-0.06499893963336945,"18":0.022414937615394592,"19":0.1518229991197586,"20":-0.17485539615154266,"21":0.07803548872470856,"22":0.05019577965140343,"23":-0.10942162573337555,"24":-0.10201866179704666,"25":-0.195162832736969,"26":-0.19567839801311493,"27":-0.051371265202760696,"28":0.19299113750457764,"29":-0.14056254923343658,"30":-0.11628285050392151,"31":0.11464858055114746,"32":-0.1943938285112381,"33":0.02567218244075775,"34":0.1159539669752121,"35":0.1073029413819313,"36":0.004515152424573898,"37":0.09308037906885147,"38":0.06037212535738945,"39":0.13173672556877136,"40":0.13935568928718567,"41":0.158920556306839,"42":0.04604164883494377,"43":0.02968638762831688,"44":0.0033793363254517317,"45":0.08886457234621048,"46":-0.20358073711395264,"47":-0.4299071133136749,"48":-0.2533816695213318,"49":-0.0018916643457487226,"50":0.1623922735452652,"51":0.09615647047758102,"52":-0.1699303686618805,"53":-0.14737524092197418,"54":0.15676793456077576,"55":0.015352331101894379,"56":-0.11369235068559647,"57":0.06054987013339996,"58":0.027015138417482376,"59":-0.001014345558360219,"60":0.007231893017888069,"61":-0.12605403363704681,"62":0.18342112004756927,"63":0.0767754465341568,"64":0.11080851405858994,"65":0.2654035687446594,"66":0.08223536610603333,"67":-0.03307238593697548,"68":0.13452033698558807,"69":-0.08859207481145859,"70":-0.1272369623184204,"71":-0.10698268562555313,"72":0.1117001473903656,"73":0.14614780247211456,"74":-0.2008589804172516,"75":0.0014837102498859167,"76":-0.07050902396440506,"77":-0.1264897584915161,"78":0.07875148952007294,"79":-0.13077837228775024,"80":0.08179400861263275,"81":-0.0166010819375515,"82":-0.051902689039707184,"83":-0.02526937797665596,"84":-0.06127752736210823,"85":-0.02472945675253868,"86":0.15037980675697327,"87":0.04607719928026199,"88":-0.016364602372050285,"89":0.08756881207227707,"90":0.16649046540260315,"91":0.1280493140220642,"92":0.18017461895942688,"93":0.11534345895051956,"94":-0.18808011710643768,"95":-0.16598044335842133,"96":-0.06641565263271332,"97":0.15782283246517181,"98":-0.17039306461811066,"99":0.07633932679891586,"100":-0.17017890512943268,"101":-0.15365654230117798,"102":0.04041127488017082,"103":-0.14976860582828522,"104":0.05887569859623909,"105":-0.03062240406870842,"106":-0.15860968828201294,"107":0.12007676064968109,"108":-0.029954861849546432,"109":-0.10929974913597107,"110":0.16157105565071106,"111":-0.16025739908218384,"112":-0.05206375941634178,"113":-0.1731739342212677,"114":0.1875736117362976}},"21":{"bias":-0.002988959662616253,"weights":{"0":0.07602943480014801,"1":-0.06118766963481903,"2":0.04571054130792618,"3":-0.004440294578671455,"4":-0.03128626197576523,"5":-0.10424607247114182,"6":-0.08490441739559174,"7":0.07519682496786118,"8":-0.0009938626317307353,"9":0.13647642731666565,"10":-0.10941451787948608,"11":0.03257466480135918,"12":0.12828239798545837,"13":0.16058339178562164,"14":-0.17348316311836243,"15":0.169856995344162,"16":0.18513238430023193,"17":-0.17288368940353394,"18":0.03501866012811661,"19":0.14446894824504852,"20":-0.06617425382137299,"21":-0.1655755639076233,"22":-0.03651858866214752,"23":-0.16708414256572723,"24":-0.09194713085889816,"25":0.0698520615696907,"26":-0.10271967947483063,"27":-0.028798703104257584,"28":0.03195847570896149,"29":0.08832378685474396,"30":-0.07025714218616486,"31":-0.08564967662096024,"32":-0.16245684027671814,"33":0.13673606514930725,"34":0.021937496960163116,"35":-0.12013494968414307,"36":-0.2679593563079834,"37":0.06648524105548859,"38":0.13464480638504028,"39":0.07931008189916611,"40":-0.11117254197597504,"41":0.1336115300655365,"42":0.08205217868089676,"43":0.12387267500162125,"44":-0.040682487189769745,"45":-0.17958712577819824,"46":-0.0901050716638565,"47":-0.1053357794880867,"48":-0.1776316612958908,"49":-0.05417845398187637,"50":-0.11540406197309494,"51":0.18957257270812988,"52":-0.20952108502388,"53":-0.37211984395980835,"54":-0.20294256508350372,"55":0.0034090925473719835,"56":-0.13750527799129486,"57":-0.06112063676118851,"58":-0.09958987683057785,"59":-0.1296602189540863,"60":-0.18286806344985962,"61":0.16548247635364532,"62":-0.14534248411655426,"63":0.2306474894285202,"64":0.5349243879318237,"65":0.21055780351161957,"66":0.11869902908802032,"67":0.17962345480918884,"68":0.11154557019472122,"69":-0.002420049626380205,"70":0.17057804763317108,"71":-0.15247657895088196,"72":0.02825944684445858,"73":0.17001669108867645,"74":0.1180950179696083,"75":-0.12749014794826508,"76":-0.33686020970344543,"77":-0.008618470281362534,"78":-0.025987181812524796,"79":0.10618365556001663,"80":-0.08997688442468643,"81":0.1113872081041336,"82":0.13961756229400635,"83":-0.18183492124080658,"84":-0.17802947759628296,"85":0.1613338142633438,"86":0.12245070189237595,"87":0.2964917719364166,"88":-0.1454521268606186,"89":-0.14853376150131226,"90":0.165302574634552,"91":0.19131867587566376,"92":-0.0916127935051918,"93":-0.1662290394306183,"94":0.14275680482387543,"95":-0.11257269978523254,"96":0.1935458779335022,"97":0.19525019824504852,"98":0.1187472864985466,"99":-0.13970182836055756,"100":0.1517615020275116,"101":0.0582519993185997,"102":-0.05668250471353531,"103":-0.13451828062534332,"104":-0.12654149532318115,"105":0.20886947214603424,"106":0.012079953216016293,"107":-0.06434209644794464,"108":-0.03540457785129547,"109":0.16921468079090118,"110":0.16667449474334717,"111":-0.08703210204839706,"112":-0.012468780390918255,"113":0.1779981255531311,"114":-0.17050153017044067}},"22":{"bias":-0.07533441483974457,"weights":{"0":0.022743340581655502,"1":0.05414138734340668,"2":0.08190767467021942,"3":-0.08671535551548004,"4":-0.011304925195872784,"5":-0.10024147480726242,"6":-0.012410198338329792,"7":0.007082315627485514,"8":-0.1025763675570488,"9":0.1398015171289444,"10":-0.03064410760998726,"11":-0.148890420794487,"12":0.17921942472457886,"13":-0.17579999566078186,"14":-0.052008360624313354,"15":0.15257690846920013,"16":-0.15835191309452057,"17":-0.1842764914035797,"18":-0.022623103111982346,"19":-0.1561432182788849,"20":0.12990836799144745,"21":0.0015044852625578642,"22":-0.017483368515968323,"23":-0.09940887242555618,"24":-0.21761874854564667,"25":-0.18692751228809357,"26":0.016895698383450508,"27":-0.08142692595720291,"28":-0.17409339547157288,"29":-0.08692071586847305,"30":0.22757579386234283,"31":0.078929103910923,"32":0.0746413916349411,"33":0.0651886984705925,"34":0.1551918387413025,"35":0.14353865385055542,"36":0.2833087742328644,"37":0.00512689258903265,"38":-0.1466357260942459,"39":-0.14392149448394775,"40":0.08831514418125153,"41":0.07934603095054626,"42":-0.21680304408073425,"43":0.15061675012111664,"44":-0.14773054420948029,"45":-0.17614704370498657,"46":-0.19970741868019104,"47":-0.36833733320236206,"48":-0.35260170698165894,"49":-0.12325923889875412,"50":0.1019054502248764,"51":-0.17043249309062958,"52":0.3021647036075592,"53":0.38047075271606445,"54":0.17839932441711426,"55":-0.0420580729842186,"56":0.027626249939203262,"57":0.19515995681285858,"58":0.15811066329479218,"59":0.4308204650878906,"60":0.009118083864450455,"61":-0.025004036724567413,"62":0.014005214907228947,"63":-0.13066038489341736,"64":-0.07642713934183121,"65":-0.005031371954828501,"66":0.13530567288398743,"67":-0.157962828874588,"68":0.13633103668689728,"69":0.14454501867294312,"70":-0.3528648316860199,"71":-0.11804614961147308,"72":0.13629217445850372,"73":-0.0009875715477392077,"74":-0.19689370691776276,"75":0.1763181835412979,"76":0.3391225337982178,"77":-0.07286157459020615,"78":-0.04286442697048187,"79":0.02002866379916668,"80":-0.15639133751392365,"81":0.23959656059741974,"82":0.11631409078836441,"83":-0.08000025898218155,"84":0.12909339368343353,"85":0.04574093967676163,"86":-0.1651308685541153,"87":-0.07675065845251083,"88":-0.1935572475194931,"89":0.15496408939361572,"90":0.005688207224011421,"91":0.10844796150922775,"92":-0.053727440536022186,"93":0.15158075094223022,"94":0.11820661276578903,"95":-0.13562636077404022,"96":-0.1477062851190567,"97":0.1112731322646141,"98":0.031712498515844345,"99":0.18275849521160126,"100":0.16564838588237762,"101":-0.1813705563545227,"102":0.06546194106340408,"103":-0.033136285841464996,"104":-0.0037012656684964895,"105":-0.042502760887145996,"106":-0.08177508413791656,"107":-0.03269198536872864,"108":-0.1654323935508728,"109":0.10549953579902649,"110":-0.06347722560167313,"111":0.10254017263650894,"112":0.10510674864053726,"113":0.05476630479097366,"114":0.15297134220600128}},"23":{"bias":-0.17842760682106018,"weights":{"0":-0.012377145700156689,"1":-0.18820476531982422,"2":-0.1051800400018692,"3":0.19117075204849243,"4":0.007371548563241959,"5":0.03498837724328041,"6":-0.1968214213848114,"7":0.10133600234985352,"8":-0.03349326178431511,"9":0.13858027756214142,"10":-0.05117476359009743,"11":0.03767690062522888,"12":-0.009345202706754208,"13":-0.026839500293135643,"14":0.04203430563211441,"15":-0.1470964252948761,"16":-0.20669206976890564,"17":-0.02476237528026104,"18":-0.011225494556128979,"19":-0.06565702706575394,"20":0.1710151880979538,"21":-0.013233190402388573,"22":-0.052574560046195984,"23":-0.16012732684612274,"24":-0.16334888339042664,"25":-0.40359482169151306,"26":-0.0644223615527153,"27":0.0223399568349123,"28":-0.002355824923142791,"29":0.14268115162849426,"30":0.038423359394073486,"31":-0.1342494785785675,"32":0.1363573968410492,"33":-0.012783116661012173,"34":-0.10053594410419464,"35":0.16260801255702972,"36":0.13443376123905182,"37":0.1773771494626999,"38":0.06740781664848328,"39":-0.14786396920681,"40":0.18622837960720062,"41":0.24670341610908508,"42":0.14932914078235626,"43":0.1773310750722885,"44":0.06829525530338287,"45":-0.14007115364074707,"46":-0.0959668979048729,"47":-0.5622952580451965,"48":-0.5949913859367371,"49":-0.17196936905384064,"50":0.17842167615890503,"51":-0.014928821474313736,"52":-0.08340640366077423,"53":0.13016878068447113,"54":0.1324566900730133,"55":0.08375445008277893,"56":-0.07826033234596252,"57":-0.053212832659482956,"58":0.33240681886672974,"59":0.37436631321907043,"60":0.14444474875926971,"61":0.046472176909446716,"62":-0.1507585644721985,"63":0.19530555605888367,"64":0.22696779668331146,"65":0.04045911878347397,"66":0.13890869915485382,"67":0.011196638457477093,"68":0.1478247195482254,"69":-0.11262678354978561,"70":-0.4726406931877136,"71":-0.3461301028728485,"72":-0.21861562132835388,"73":-0.18648883700370789,"74":0.18767774105072021,"75":0.009242447093129158,"76":0.2073415070772171,"77":-0.05118655785918236,"78":0.06169429421424866,"79":0.0004734423418994993,"80":0.15355239808559418,"81":0.05805313214659691,"82":0.06754129379987717,"83":-0.12519571185112,"84":-0.019500387832522392,"85":0.12112665176391602,"86":0.24381722509860992,"87":0.24740827083587646,"88":0.09136107563972473,"89":0.07799065113067627,"90":0.02113855443894863,"91":0.021195070818066597,"92":-0.13451239466667175,"93":-0.028249450027942657,"94":-0.15073561668395996,"95":0.06982624530792236,"96":-0.07384584844112396,"97":0.014217986725270748,"98":-0.2014921009540558,"99":-0.025674333795905113,"100":-0.04714485630393028,"101":-0.19689632952213287,"102":0.19073420763015747,"103":-0.0054062893614172935,"104":-0.14446301758289337,"105":0.1344207227230072,"106":-0.0004664960433728993,"107":-0.004422269761562347,"108":-0.03497161716222763,"109":0.0573289655148983,"110":0.019739320501685143,"111":-0.13653938472270966,"112":0.04643229395151138,"113":-0.20785216987133026,"114":0.14025446772575378}},"24":{"bias":0.06699668616056442,"weights":{"0":-0.12754322588443756,"1":-0.10766506940126419,"2":-0.09773515909910202,"3":0.01019988488405943,"4":0.15299376845359802,"5":0.017818037420511246,"6":-0.1526518017053604,"7":-0.1427493542432785,"8":0.19083167612552643,"9":-0.16994011402130127,"10":-0.09633155912160873,"11":-0.09179151058197021,"12":-0.0625113919377327,"13":0.11422261595726013,"14":0.13234440982341766,"15":0.024247601628303528,"16":0.002929669339209795,"17":0.1378953754901886,"18":0.14191003143787384,"19":0.15973035991191864,"20":-0.09396469593048096,"21":-0.04721758887171745,"22":-0.013230530545115471,"23":0.14563778042793274,"24":-0.33768001198768616,"25":-0.3068714737892151,"26":0.03240932524204254,"27":0.16628679633140564,"28":-0.08530376851558685,"29":-0.17741362750530243,"30":0.16383740305900574,"31":0.10925332456827164,"32":0.15980097651481628,"33":0.06090373545885086,"34":0.01701180636882782,"35":0.1634281873703003,"36":-0.10096842795610428,"37":-0.13300757110118866,"38":-0.15824267268180847,"39":0.05572810024023056,"40":0.19501535594463348,"41":0.2568003535270691,"42":-0.06263209134340286,"43":0.11770334839820862,"44":-0.1596011370420456,"45":0.18528111279010773,"46":-0.17292088270187378,"47":-0.4814292788505554,"48":-0.33305269479751587,"49":0.0425894670188427,"50":-0.01460929587483406,"51":-0.14843977987766266,"52":0.06784822046756744,"53":-0.1681811660528183,"54":-0.13233236968517303,"55":-0.07034038007259369,"56":-0.1422814130783081,"57":0.1906202733516693,"58":0.11492177844047546,"59":0.31685906648635864,"60":0.1959795355796814,"61":0.09576919674873352,"62":-0.1562846302986145,"63":0.18508002161979675,"64":0.11511508375406265,"65":0.2967795431613922,"66":0.01894858479499817,"67":-0.16716080904006958,"68":-0.030625665560364723,"69":0.048431262373924255,"70":-0.01422981545329094,"71":-0.2531548738479614,"72":-0.19039857387542725,"73":-0.061604227870702744,"74":0.11758606880903244,"75":0.10138565301895142,"76":0.1362045854330063,"77":-0.10977654904127121,"78":-0.09123355895280838,"79":-0.019193004816770554,"80":0.03543245047330856,"81":0.03135552629828453,"82":-0.1028992086648941,"83":-0.0377914160490036,"84":-0.05808404088020325,"85":-0.030056951567530632,"86":-0.023460684344172478,"87":-0.022434528917074203,"88":-0.03924023360013962,"89":-0.13329993188381195,"90":-0.05292070657014847,"91":0.07289586216211319,"92":0.04502982273697853,"93":0.14692269265651703,"94":-0.1457172930240631,"95":0.16413481533527374,"96":-0.09602800011634827,"97":0.20245154201984406,"98":0.10667486488819122,"99":0.06416113674640656,"100":-0.09362047910690308,"101":0.07172443717718124,"102":-0.04757990315556526,"103":0.19461238384246826,"104":-0.15973176062107086,"105":-0.08567959070205688,"106":0.04093221202492714,"107":0.01630932278931141,"108":-0.006599419750273228,"109":-0.0012583249481394887,"110":-0.19097015261650085,"111":0.004791860468685627,"112":0.03202826529741287,"113":-0.005341906100511551,"114":0.1494089961051941}},"25":{"bias":0.15997754037380219,"weights":{"0":0.026928560808300972,"1":0.1598234325647354,"2":0.17811891436576843,"3":-0.21817532181739807,"4":0.12376777827739716,"5":-0.07003980129957199,"6":0.133215069770813,"7":0.09564545005559921,"8":-0.1251194328069687,"9":-0.11546511948108673,"10":0.11883147805929184,"11":0.09338761866092682,"12":-0.028198372572660446,"13":0.06307961791753769,"14":0.06551158428192139,"15":-0.14649991691112518,"16":-0.10295634716749191,"17":-0.18445047736167908,"18":0.14278551936149597,"19":-0.19229108095169067,"20":-0.01330865453928709,"21":0.03565310686826706,"22":-0.03639952093362808,"23":-0.017215227708220482,"24":-0.14517894387245178,"25":-0.020202068611979485,"26":0.14726944267749786,"27":-0.07952692359685898,"28":-0.19032323360443115,"29":-0.009873569943010807,"30":-0.22511932253837585,"31":0.10645952075719833,"32":-0.0020237432327121496,"33":0.07762212306261063,"34":0.0885554775595665,"35":-0.03595709800720215,"36":0.08167503774166107,"37":-0.12851643562316895,"38":-0.033685773611068726,"39":0.12484604865312576,"40":-0.09969118982553482,"41":0.26261746883392334,"42":-0.05856989696621895,"43":0.036744553595781326,"44":-0.017887800931930542,"45":0.17535990476608276,"46":-0.04824962839484215,"47":0.14544832706451416,"48":-0.07588561624288559,"49":-0.1087113618850708,"50":-0.07790809124708176,"51":-0.055055372416973114,"52":-0.05798140913248062,"53":-0.014172685332596302,"54":0.024583138525485992,"55":0.05453868955373764,"56":-0.13391156494617462,"57":0.040000393986701965,"58":-0.11274437606334686,"59":-0.22081948816776276,"60":-0.09843388944864273,"61":0.11466597765684128,"62":-0.08400759845972061,"63":0.2696273624897003,"64":0.40211355686187744,"65":0.08957619220018387,"66":0.14930057525634766,"67":-0.03369830548763275,"68":0.04824044555425644,"69":-0.21365918219089508,"70":0.10691146552562714,"71":0.05791036784648895,"72":0.11636080592870712,"73":0.1026335135102272,"74":-0.008087373338639736,"75":-0.10936073958873749,"76":-0.00004958401768817566,"77":-0.09610909223556519,"78":0.11484000086784363,"79":-0.1373664140701294,"80":0.11411192268133163,"81":0.003903314471244812,"82":0.04007411375641823,"83":0.03090193122625351,"84":-0.16696563363075256,"85":0.17655636370182037,"86":0.16665703058242798,"87":0.20479834079742432,"88":0.07367510348558426,"89":0.06716763228178024,"90":-0.13778533041477203,"91":0.003385762218385935,"92":0.02675441838800907,"93":-0.20524875819683075,"94":0.022477708756923676,"95":-0.011464397422969341,"96":-0.14841394126415253,"97":0.054643504321575165,"98":-0.1327146589756012,"99":0.08489181101322174,"100":0.0662911906838417,"101":-0.21242322027683258,"102":-0.12674415111541748,"103":0.13813632726669312,"104":0.012013821862637997,"105":0.07979444414377213,"106":0.1330060064792633,"107":0.004913143813610077,"108":-0.06267239153385162,"109":-0.06288550794124603,"110":0.11670657247304916,"111":0.0018752844771370292,"112":-0.20360346138477325,"113":-0.00618287269026041,"114":-0.13686615228652954}},"26":{"bias":0.15294162929058075,"weights":{"0":-0.056542426347732544,"1":-0.11128871142864227,"2":0.18837691843509674,"3":-0.1546086072921753,"4":-0.126472607254982,"5":-0.17633147537708282,"6":-0.010740990750491619,"7":0.12754742801189423,"8":0.046604596078395844,"9":-0.0520813912153244,"10":-0.026683125644922256,"11":-0.1866798996925354,"12":-0.11922617256641388,"13":0.1752944141626358,"14":0.047114670276641846,"15":-0.05563224107027054,"16":-0.18298915028572083,"17":-0.11645680665969849,"18":0.10215021669864655,"19":0.05810176581144333,"20":0.12001165747642517,"21":-0.011565065942704678,"22":0.15710200369358063,"23":0.1824832558631897,"24":-0.06812544912099838,"25":-0.08063588291406631,"26":0.07871704548597336,"27":0.1362132579088211,"28":0.16051574051380157,"29":-0.2042887955904007,"30":-0.09124420583248138,"31":0.06411849707365036,"32":-0.07585660368204117,"33":-0.1461014598608017,"34":0.17762194573879242,"35":-0.13714660704135895,"36":-0.05968250334262848,"37":-0.08927305787801743,"38":-0.17346546053886414,"39":-0.13387531042099,"40":0.04051380231976509,"41":0.1614031046628952,"42":0.08526149392127991,"43":0.050944797694683075,"44":0.12270480394363403,"45":0.05265267938375473,"46":0.10872282832860947,"47":0.10001801699399948,"48":0.2785024642944336,"49":-0.13528862595558167,"50":-0.1225854828953743,"51":-0.07097293436527252,"52":-0.3483312726020813,"53":-0.20455463230609894,"54":-0.08204617351293564,"55":-0.16801057755947113,"56":0.005093670450150967,"57":0.1678439825773239,"58":0.158879354596138,"59":0.13917073607444763,"60":-0.13004441559314728,"61":0.07762248069047928,"62":0.03941894322633743,"63":-0.00963034201413393,"64":-0.030261246487498283,"65":-0.21542125940322876,"66":0.02284257300198078,"67":0.037593089044094086,"68":-0.12128844857215881,"69":0.04894840344786644,"70":0.19267131388187408,"71":0.12573231756687164,"72":0.02042451500892639,"73":0.10422125458717346,"74":-0.18978916108608246,"75":-0.039433352649211884,"76":-0.23396748304367065,"77":0.029459957033395767,"78":-0.043854594230651855,"79":-0.05522929131984711,"80":-0.005773071199655533,"81":-0.14532391726970673,"82":0.05142506584525108,"83":0.0858045369386673,"84":-0.09724332392215729,"85":0.1737653613090515,"86":0.06854435056447983,"87":0.13570930063724518,"88":-0.13164879381656647,"89":-0.04450463503599167,"90":0.0887540876865387,"91":-0.019889533519744873,"92":0.15812896192073822,"93":0.15162393450737,"94":-0.06404543668031693,"95":-0.06299565732479095,"96":-0.0778282880783081,"97":-0.055258721113204956,"98":0.1340014636516571,"99":0.05365443974733353,"100":-0.08880823105573654,"101":-0.03350742161273956,"102":0.017164822667837143,"103":0.1898137480020523,"104":-0.04854836314916611,"105":-0.10556554794311523,"106":-0.09692976623773575,"107":-0.09013326466083527,"108":0.13351893424987793,"109":-0.08158110827207565,"110":0.07530486583709717,"111":-0.11637817323207855,"112":0.07420241832733154,"113":0.08776557445526123,"114":0.17175547778606415}},"27":{"bias":-0.076698437333107,"weights":{"0":-0.10739216208457947,"1":0.1542598009109497,"2":-0.00338361831381917,"3":0.1287902295589447,"4":0.1903907060623169,"5":0.12569493055343628,"6":-0.18789362907409668,"7":0.15363121032714844,"8":0.07129983603954315,"9":0.005042883567512035,"10":-0.08771142363548279,"11":0.057550836354494095,"12":-0.060806117951869965,"13":0.19218659400939941,"14":-0.1701374053955078,"15":0.18591389060020447,"16":0.17616650462150574,"17":-0.0033353716135025024,"18":-0.20119139552116394,"19":0.003511476330459118,"20":-0.015223908238112926,"21":0.1707964539527893,"22":0.09932136535644531,"23":0.08019468933343887,"24":0.4309692084789276,"25":0.353147029876709,"26":0.12667682766914368,"27":-0.07919768989086151,"28":-0.16306525468826294,"29":-0.19823622703552246,"30":-0.2558111846446991,"31":-0.027944518253207207,"32":0.04657704755663872,"33":-0.030022043734788895,"34":-0.033473894000053406,"35":-0.12340511381626129,"36":-0.18180827796459198,"37":-0.023633714765310287,"38":0.021962208673357964,"39":0.1363251507282257,"40":0.1890765279531479,"41":0.1165074035525322,"42":0.02045317180454731,"43":-0.11649124324321747,"44":0.11543585360050201,"45":-0.08157365024089813,"46":0.22678522765636444,"47":0.5931685566902161,"48":0.7147539258003235,"49":0.05228106677532196,"50":0.04813342168927193,"51":0.011518596671521664,"52":-0.4383910000324249,"53":-0.39290961623191833,"54":-0.40439724922180176,"55":-0.17045724391937256,"56":-0.041317056864500046,"57":0.14915181696414948,"58":-0.33552029728889465,"59":-0.37207701802253723,"60":0.03060084953904152,"61":0.04748331382870674,"62":0.030523566529154778,"63":0.02793111465871334,"64":-0.17182239890098572,"65":-0.026956850662827492,"66":0.031015459448099136,"67":-0.04367787018418312,"68":0.16134902834892273,"69":0.12017487734556198,"70":0.4834076464176178,"71":0.1831878274679184,"72":-0.06677933782339096,"73":0.043753813952207565,"74":-0.19628843665122986,"75":-0.19194935262203217,"76":-0.2651069164276123,"77":-0.11248639971017838,"78":-0.09731052815914154,"79":-0.019006876274943352,"80":-0.20202431082725525,"81":-0.04173162207007408,"82":-0.12960004806518555,"83":0.017772959545254707,"84":0.09096527099609375,"85":0.03842009976506233,"86":-0.004252507351338863,"87":0.06404846161603928,"88":0.14091241359710693,"89":-0.1888798475265503,"90":0.14819642901420593,"91":0.1009846180677414,"92":0.1452934741973877,"93":-0.17311204969882965,"94":0.05282175913453102,"95":-0.13275563716888428,"96":-0.0030738981440663338,"97":-0.17820104956626892,"98":0.06948469579219818,"99":-0.035401973873376846,"100":-0.05930199846625328,"101":-0.18320786952972412,"102":0.17471951246261597,"103":0.14902076125144958,"104":-0.15619444847106934,"105":0.09300407767295837,"106":-0.02272985130548477,"107":-0.13209429383277893,"108":0.050492528825998306,"109":0.11666397750377655,"110":-0.05598542466759682,"111":0.18109384179115295,"112":-0.15699869394302368,"113":-0.12570247054100037,"114":0.07035547494888306}},"28":{"bias":-0.15111654996871948,"weights":{"0":-0.0486845001578331,"1":-0.12325257807970047,"2":-0.022816594690084457,"3":0.1525973528623581,"4":0.01149662584066391,"5":0.11190097033977509,"6":-0.1490582376718521,"7":0.09955102205276489,"8":0.18091168999671936,"9":-0.16509318351745605,"10":0.08911362290382385,"11":0.16204090416431427,"12":-0.1702347695827484,"13":-0.06431286036968231,"14":-0.1065632700920105,"15":0.1765500158071518,"16":-0.0030845669098198414,"17":0.020518479868769646,"18":0.11452193558216095,"19":-0.026216596364974976,"20":-0.17185524106025696,"21":0.11761486530303955,"22":-0.06096701696515083,"23":0.0552893690764904,"24":-0.18549476563930511,"25":-0.04124985262751579,"26":-0.1802220642566681,"27":-0.012053290382027626,"28":0.16151201725006104,"29":-0.14269796013832092,"30":-0.2429817169904709,"31":0.10350450128316879,"32":0.2060282677412033,"33":-0.11416015028953552,"34":-0.052070602774620056,"35":0.30804139375686646,"36":0.28960734605789185,"37":0.049803394824266434,"38":-0.12431435286998749,"39":-0.11221678555011749,"40":0.19455616176128387,"41":0.23927819728851318,"42":-0.0587693452835083,"43":-0.009534021839499474,"44":-0.03592465817928314,"45":-0.1685192734003067,"46":-0.10754811763763428,"47":-0.20682626962661743,"48":-0.35444140434265137,"49":-0.151750847697258,"50":0.011656353250145912,"51":0.20252278447151184,"52":0.0027975791599601507,"53":-0.39014363288879395,"54":-0.07525308430194855,"55":0.10064330697059631,"56":-0.19343777000904083,"57":-0.05221308395266533,"58":0.08735931664705276,"59":0.30750420689582825,"60":0.17321011424064636,"61":0.05873294919729233,"62":0.08098681271076202,"63":0.19135823845863342,"64":0.41449475288391113,"65":0.152701735496521,"66":0.09992294013500214,"67":0.09779083728790283,"68":0.08860963582992554,"69":0.03488589823246002,"70":-0.07624819874763489,"71":-0.2972342371940613,"72":-0.09159507602453232,"73":-0.019147269427776337,"74":-0.1570274829864502,"75":0.05755142867565155,"76":-0.2911671996116638,"77":0.09913954138755798,"78":-0.1102685034275055,"79":0.16058629751205444,"80":0.033941786736249924,"81":0.041631437838077545,"82":0.0382162481546402,"83":0.013569872826337814,"84":0.16585469245910645,"85":0.14135444164276123,"86":0.2947569191455841,"87":0.3185007870197296,"88":-0.013705461286008358,"89":-0.1791142225265503,"90":0.06836569309234619,"91":0.13768981397151947,"92":-0.1458200365304947,"93":0.10878364741802216,"94":0.037348873913288116,"95":-0.005408833269029856,"96":0.14988312125205994,"97":0.019778942689299583,"98":-0.031598497182130814,"99":0.09123502671718597,"100":0.032372426241636276,"101":-0.01565713994204998,"102":-0.1892515867948532,"103":-0.18370002508163452,"104":-0.14592105150222778,"105":0.08746111392974854,"106":0.013590455055236816,"107":-0.04889819025993347,"108":-0.17007911205291748,"109":0.042510323226451874,"110":-0.12150219082832336,"111":-0.18929822742938995,"112":-0.1468723863363266,"113":0.0014062742702662945,"114":-0.18920645117759705}},"29":{"bias":0.07800066471099854,"weights":{"0":0.18683208525180817,"1":0.08781281113624573,"2":-0.09990283846855164,"3":-0.12488998472690582,"4":0.10755492746829987,"5":0.1561243236064911,"6":-0.13690593838691711,"7":0.008303925395011902,"8":-0.15963435173034668,"9":0.0023340785410255194,"10":-0.10531695187091827,"11":-0.03136197850108147,"12":-0.14397895336151123,"13":-0.013340604491531849,"14":-0.11940677464008331,"15":-0.06356443464756012,"16":0.1771184802055359,"17":0.16678102314472198,"18":-0.016978595405817032,"19":-0.05786016955971718,"20":-0.07860088348388672,"21":0.17107100784778595,"22":0.1427212953567505,"23":-0.053190089762210846,"24":0.006770339794456959,"25":-0.05432996526360512,"26":0.13779498636722565,"27":0.14788199961185455,"28":-0.006175669375807047,"29":-0.11815764009952545,"30":0.053601883351802826,"31":0.023055128753185272,"32":0.13390931487083435,"33":-0.11177891492843628,"34":0.13245746493339539,"35":0.1426878124475479,"36":-0.11036380380392075,"37":0.030342619866132736,"38":-0.1262553632259369,"39":-0.06316830217838287,"40":-0.011095335707068443,"41":-0.23616714775562286,"42":-0.29041606187820435,"43":-0.06427328288555145,"44":-0.1842982918024063,"45":-0.011806536465883255,"46":0.1277446746826172,"47":-0.07754579186439514,"48":0.22090959548950195,"49":0.17849257588386536,"50":-0.03617255389690399,"51":0.12612368166446686,"52":0.1496521383523941,"53":-0.14308397471904755,"54":0.20920854806900024,"55":-0.1794496476650238,"56":-0.04300205409526825,"57":0.02420852519571781,"58":0.2080897092819214,"59":0.07757818698883057,"60":-0.14618748426437378,"61":0.0379498228430748,"62":0.10501037538051605,"63":-0.2487228661775589,"64":-0.2029544711112976,"65":-0.22729094326496124,"66":-0.021936871111392975,"67":0.10929802060127258,"68":0.03718503937125206,"69":-0.013684951700270176,"70":0.23054002225399017,"71":-0.04758485406637192,"72":0.1524658054113388,"73":-0.18801899254322052,"74":0.008781910873949528,"75":-0.16247732937335968,"76":-0.002139181364327669,"77":0.027300013229250908,"78":-0.0859723836183548,"79":0.14979059994220734,"80":-0.10024945437908173,"81":0.17751552164554596,"82":0.10586520284414291,"83":-0.06743423640727997,"84":-0.1365426480770111,"85":-0.020465169101953506,"86":-0.005438065156340599,"87":-0.30191588401794434,"88":0.0014735516160726547,"89":0.09818725287914276,"90":-0.05992946773767471,"91":0.09412609040737152,"92":0.18064168095588684,"93":0.10688982903957367,"94":-0.020406555384397507,"95":0.13795341551303864,"96":0.05968169867992401,"97":-0.042392581701278687,"98":0.13456818461418152,"99":-0.1495135873556137,"100":-0.16454748809337616,"101":-0.15163305401802063,"102":-0.06516112387180328,"103":-0.0648680329322815,"104":-0.10874566435813904,"105":0.18298079073429108,"106":0.13264106214046478,"107":0.07064035534858704,"108":0.07565949857234955,"109":0.15276280045509338,"110":-0.10095669329166412,"111":-0.12544816732406616,"112":-0.01013278029859066,"113":0.06999169290065765,"114":-0.16542162001132965}},"30":{"bias":-0.11614453792572021,"weights":{"0":-0.19464486837387085,"1":-0.18889161944389343,"2":0.06649322807788849,"3":-0.002212732331827283,"4":0.19442418217658997,"5":0.16456913948059082,"6":-0.14585453271865845,"7":-0.11331012099981308,"8":0.07553572207689285,"9":0.13330239057540894,"10":-0.16076794266700745,"11":-0.005916908849030733,"12":-0.18216544389724731,"13":-0.04228030890226364,"14":0.12798015773296356,"15":-0.029000425711274147,"16":0.019778462126851082,"17":-0.029448900371789932,"18":-0.15858647227287292,"19":0.15051451325416565,"20":-0.16227471828460693,"21":-0.18512064218521118,"22":0.006821834947913885,"23":-0.01890130154788494,"24":-0.31486883759498596,"25":-0.028292791917920113,"26":0.059936631470918655,"27":0.16915437579154968,"28":-0.09048821777105331,"29":0.137594535946846,"30":0.30766746401786804,"31":0.1918192207813263,"32":0.02243458852171898,"33":0.16244783997535706,"34":0.005839996505528688,"35":-0.06466259062290192,"36":0.1279175579547882,"37":0.15881934762001038,"38":-0.051656339317560196,"39":-0.04603952169418335,"40":-0.18483740091323853,"41":0.10760079324245453,"42":-0.03231441602110863,"43":0.07482080906629562,"44":-0.1156458780169487,"45":-0.1186249852180481,"46":-0.1774582713842392,"47":-0.34590792655944824,"48":-0.3762097954750061,"49":-0.06796012818813324,"50":0.12312819063663483,"51":0.19327181577682495,"52":0.6261067390441895,"53":0.8161564469337463,"54":0.3737434148788452,"55":-0.10490088909864426,"56":-0.1677969992160797,"57":-0.05132560059428215,"58":0.024755749851465225,"59":-0.21966026723384857,"60":0.0222441665828228,"61":0.16825726628303528,"62":0.03221860155463219,"63":0.021122081205248833,"64":-0.3990108370780945,"65":-0.28680816292762756,"66":0.09563522785902023,"67":0.035893265157938004,"68":0.18395057320594788,"69":0.15842071175575256,"70":-0.16733503341674805,"71":-0.09936681389808655,"72":0.103448785841465,"73":0.07673456519842148,"74":-0.0759684219956398,"75":0.18535053730010986,"76":0.6587451696395874,"77":0.09121015667915344,"78":0.1729375422000885,"79":-0.09422685950994492,"80":-0.16056883335113525,"81":-0.03439551964402199,"82":-0.023352300748229027,"83":0.16172724962234497,"84":-0.1644309163093567,"85":0.07687004655599594,"86":-0.004741103854030371,"87":-0.1258278787136078,"88":-0.07427141070365906,"89":-0.20108520984649658,"90":0.055243879556655884,"91":0.11347583681344986,"92":0.06354086101055145,"93":-0.08787582069635391,"94":0.106791190803051,"95":0.10290450602769852,"96":-0.1284438520669937,"97":-0.12938335537910461,"98":-0.07568251341581345,"99":-0.14755845069885254,"100":0.17328545451164246,"101":0.0894191637635231,"102":0.19214856624603271,"103":0.16794288158416748,"104":0.013462364673614502,"105":-0.0767521932721138,"106":0.18988513946533203,"107":-0.07822784036397934,"108":-0.1764579713344574,"109":0.0576484352350235,"110":-0.0019563764799386263,"111":-0.1730811595916748,"112":0.016687477007508278,"113":0.03675438463687897,"114":-0.1744057834148407}},"31":{"bias":-0.08341627568006516,"weights":{"0":-0.1201753318309784,"1":-0.15946780145168304,"2":0.004709584638476372,"3":0.09692911803722382,"4":-0.08618614077568054,"5":0.15561626851558685,"6":-0.19819112122058868,"7":0.07788972556591034,"8":0.11650042980909348,"9":-0.023724457249045372,"10":0.15354783833026886,"11":0.11912041157484055,"12":-0.10892864316701889,"13":-0.05460165813565254,"14":-0.0503874309360981,"15":-0.1760060042142868,"16":-0.06865855306386948,"17":-0.12299218028783798,"18":-0.15788011252880096,"19":0.1436636596918106,"20":0.07364268600940704,"21":0.13398994505405426,"22":0.08522989600896835,"23":0.016240138560533524,"24":-0.21999120712280273,"25":-0.20473556220531464,"26":0.004112867638468742,"27":0.017222242429852486,"28":-0.2010592371225357,"29":-0.14780546724796295,"30":-0.2231515347957611,"31":0.035089362412691116,"32":0.12297618389129639,"33":-0.10948377102613449,"34":0.1595071405172348,"35":-0.09361781924962997,"36":0.1129528060555458,"37":-0.0833565965294838,"38":-0.0034220328088849783,"39":0.05661792680621147,"40":0.18632590770721436,"41":-0.06108730286359787,"42":0.13004380464553833,"43":-0.1281481236219406,"44":-0.037022095173597336,"45":-0.07833148539066315,"46":-0.040838055312633514,"47":-0.06471805274486542,"48":-0.3271443843841553,"49":-0.06527379900217056,"50":0.13235066831111908,"51":-0.09448721259832382,"52":-0.1489609181880951,"53":-0.3511347770690918,"54":-0.2986697554588318,"55":0.0682695209980011,"56":0.19183696806430817,"57":0.12291770428419113,"58":0.05373958870768547,"59":0.2578853666782379,"60":-0.06906449794769287,"61":-0.11383236199617386,"62":-0.038169536739587784,"63":0.09330081194639206,"64":0.3918416500091553,"65":0.29976803064346313,"66":0.07861944288015366,"67":0.17206116020679474,"68":0.06844157725572586,"69":0.05135282874107361,"70":-0.015340144746005535,"71":-0.3031919598579407,"72":-0.11621084809303284,"73":-0.007253082934767008,"74":0.029090577736496925,"75":-0.18749336898326874,"76":-0.385959655046463,"77":0.10924586653709412,"78":-0.07767298817634583,"79":-0.04525477811694145,"80":0.07851572334766388,"81":0.2677726745605469,"82":0.1352996826171875,"83":-0.09113241732120514,"84":0.14794041216373444,"85":0.12303462624549866,"86":0.2950623631477356,"87":0.3123258650302887,"88":0.001322458847425878,"89":0.1788398176431656,"90":0.024105185642838478,"91":0.08649063855409622,"92":-0.1289537400007248,"93":-0.02102803811430931,"94":-0.03549325093626976,"95":-0.04869556054472923,"96":-0.10065994411706924,"97":0.03789264336228371,"98":0.14753104746341705,"99":-0.12764979898929596,"100":0.1712617129087448,"101":-0.002349110320210457,"102":-0.10646205395460129,"103":0.014463458210229874,"104":-0.09556867927312851,"105":-0.05352892354130745,"106":0.08188749849796295,"107":0.1180693507194519,"108":-0.04608303681015968,"109":0.1634504646062851,"110":0.09782380610704422,"111":-0.027110999450087547,"112":0.05759437009692192,"113":-0.15057317912578583,"114":0.05408967658877373}},"32":{"bias":0.09639019519090652,"weights":{"0":-0.12328289449214935,"1":-0.011774306185543537,"2":-0.07973646372556686,"3":-0.0313522070646286,"4":0.09730849415063858,"5":-0.15395595133304596,"6":-0.11033082008361816,"7":-0.09050357341766357,"8":0.07660721987485886,"9":0.13143429160118103,"10":0.012155546806752682,"11":0.18586215376853943,"12":0.06101621687412262,"13":0.0674852579832077,"14":-0.047219857573509216,"15":-0.08184515684843063,"16":0.04615582525730133,"17":-0.09845930337905884,"18":-0.1534513533115387,"19":-0.0073836627416312695,"20":0.1716730296611786,"21":-0.11855059862136841,"22":-0.02569189853966236,"23":-0.1932348906993866,"24":0.14909343421459198,"25":0.23141270875930786,"26":0.004544845782220364,"27":0.07034406065940857,"28":-0.08788353949785233,"29":-0.0432489849627018,"30":-0.13637091219425201,"31":0.05914999172091484,"32":0.1845523566007614,"33":0.10641773045063019,"34":0.10591216385364532,"35":0.1793239265680313,"36":0.3366256654262543,"37":-0.09321538358926773,"38":-0.09966465830802917,"39":-0.014587203972041607,"40":0.05403277650475502,"41":-0.36949869990348816,"42":-0.17167767882347107,"43":0.18042276799678802,"44":-0.10641950368881226,"45":0.0176902636885643,"46":-0.10824989527463913,"47":0.22814764082431793,"48":0.3113456964492798,"49":0.1609620749950409,"50":0.01634734496474266,"51":-0.1921572983264923,"52":-0.23933209478855133,"53":-0.3445572555065155,"54":-0.23503533005714417,"55":0.10105080902576447,"56":-0.021746734157204628,"57":-0.021517427638173103,"58":0.33664414286613464,"59":0.42819154262542725,"60":0.32851076126098633,"61":0.17842791974544525,"62":0.06017182022333145,"63":-0.278851181268692,"64":-0.6547641158103943,"65":-0.15681785345077515,"66":0.06065002828836441,"67":0.031120646744966507,"68":0.020547976717352867,"69":0.1476091742515564,"70":0.12461752444505692,"71":-0.0727047398686409,"72":0.009325121529400349,"73":-0.10715533047914505,"74":0.09098413586616516,"75":-0.15432268381118774,"76":-0.18779172003269196,"77":-0.13025331497192383,"78":-0.19053037464618683,"79":0.11412036418914795,"80":-0.153845876455307,"81":0.22230947017669678,"82":0.14594610035419464,"83":-0.18765078485012054,"84":0.18987511098384857,"85":0.13740716874599457,"86":-0.1260046511888504,"87":-0.37431785464286804,"88":-0.15773729979991913,"89":0.10347060114145279,"90":0.17604735493659973,"91":-0.04246179759502411,"92":0.07516123354434967,"93":0.0005960154230706394,"94":0.17386353015899658,"95":0.07037344574928284,"96":-0.11648469418287277,"97":0.009357891045510769,"98":-0.05585705488920212,"99":-0.09488879889249802,"100":0.02423754520714283,"101":0.037792615592479706,"102":0.0471348762512207,"103":0.08087382465600967,"104":0.04439971596002579,"105":-0.19915685057640076,"106":-0.10255694389343262,"107":0.16545157134532928,"108":-0.0324551947414875,"109":0.14146262407302856,"110":-0.05947849154472351,"111":0.004641796927899122,"112":-0.20138554275035858,"113":0.15670497715473175,"114":0.0019166336860507727}},"33":{"bias":0.1116543859243393,"weights":{"0":0.10259498655796051,"1":0.15618477761745453,"2":0.015788622200489044,"3":0.14319662749767303,"4":0.14754830300807953,"5":0.1756659895181656,"6":0.1044304370880127,"7":-0.1853945404291153,"8":0.003976455889642239,"9":-0.11874271929264069,"10":-0.20663021504878998,"11":-0.1992332488298416,"12":0.0011679481249302626,"13":-0.08182735741138458,"14":0.07119591534137726,"15":0.1338551789522171,"16":-0.1903795748949051,"17":0.07883532345294952,"18":0.04486268386244774,"19":0.09261289238929749,"20":0.03603047505021095,"21":0.07278266549110413,"22":-0.04895583167672157,"23":0.12430214881896973,"24":0.023859510198235512,"25":0.14854136109352112,