{"sizes":[115,57,4],"layers":[{"0":{},"1":{},"2":{},"3":{},"4":{},"5":{},"6":{},"7":{},"8":{},"9":{},"10":{},"11":{},"12":{},"13":{},"14":{},"15":{},"16":{},"17":{},"18":{},"19":{},"20":{},"21":{},"22":{},"23":{},"24":{},"25":{},"26":{},"27":{},"28":{},"29":{},"30":{},"31":{},"32":{},"33":{},"34":{},"35":{},"36":{},"37":{},"38":{},"39":{},"40":{},"41":{},"42":{},"43":{},"44":{},"45":{},"46":{},"47":{},"48":{},"49":{},"50":{},"51":{},"52":{},"53":{},"54":{},"55":{},"56":{},"57":{},"58":{},"59":{},"60":{},"61":{},"62":{},"63":{},"64":{},"65":{},"66":{},"67":{},"68":{},"69":{},"70":{},"71":{},"72":{},"73":{},"74":{},"75":{},"76":{},"77":{},"78":{},"79":{},"80":{},"81":{},"82":{},"83":{},"84":{},"85":{},"86":{},"87":{},"88":{},"89":{},"90":{},"91":{},"92":{},"93":{},"94":{},"95":{},"96":{},"97":{},"98":{},"99":{},"100":{},"101":{},"102":{},"103":{},"104":{},"105":{},"106":{},"107":{},"108":{},"109":{},"110":{},"111":{},"112":{},"113":{},"114":{}},{"0":{"bias":-0.15261781215667725,"weights":{"0":-0.12238598614931107,"1":0.006182855926454067,"2":-0.15840819478034973,"3":-0.025602087378501892,"4":-0.050159160047769547,"5":-0.08159425854682922,"6":0.023505032062530518,"7":0.07227548956871033,"8":0.14265693724155426,"9":0.027840223163366318,"10":0.003258918644860387,"11":0.046239014714956284,"12":0.04900200292468071,"13":-0.08145053684711456,"14":-0.12457307428121567,"15":0.11675490438938141,"16":-0.126280277967453,"17":-0.13485699892044067,"18":-0.1863841712474823,"19":0.024915296584367752,"20":0.025691881775856018,"21":0.08770464360713959,"22":0.15067723393440247,"23":0.20187120139598846,"24":0.19737575948238373,"25":0.3002883493900299,"26":0.12234418094158173,"27":-0.030425379052758217,"28":0.058801326900720596,"29":-0.2741674780845642,"30":-0.12915675342082977,"31":-0.15085114538669586,"32":-0.18259507417678833,"33":0.17452964186668396,"34":0.050923462957143784,"35":-0.12164716422557831,"36":-0.16946592926979065,"37":0.16023778915405273,"38":-0.18309009075164795,"39":-0.027761310338974,"40":-0.18608465790748596,"41":-0.15074817836284637,"42":-0.1462847739458084,"43":-0.14568954706192017,"44":0.09897756576538086,"45":-0.18245059251785278,"46":0.30283981561660767,"47":0.7676545977592468,"48":0.5219079852104187,"49":0.19539418816566467,"50":0.11232273280620575,"51":-0.022246289998292923,"52":-0.4885674715042114,"53":-0.42524227499961853,"54":-0.17092835903167725,"55":0.09483173489570618,"56":-0.10403676331043243,"57":0.16379377245903015,"58":-0.06588558852672577,"59":-0.07931475341320038,"60":-0.026324240490794182,"61":-0.10807684063911438,"62":0.18370211124420166,"63":-0.06669174879789352,"64":-0.12489461898803711,"65":-0.019310016185045242,"66":0.1466558277606964,"67":0.09525613486766815,"68":0.14058586955070496,"69":0.09859661757946014,"70":0.4732293486595154,"71":0.32385069131851196,"72":-0.1082468032836914,"73":0.13061444461345673,"74":0.17077571153640747,"75":-0.15297211706638336,"76":-0.3358060121536255,"77":0.04730311036109924,"78":0.046170447021722794,"79":0.010797733440995216,"80":-0.06001312658190727,"81":0.0015467556659132242,"82":-0.11851413547992706,"83":0.16989850997924805,"84":-0.05300895497202873,"85":0.03835691884160042,"86":-0.02075693942606449,"87":-0.24896931648254395,"88":-0.08317670226097107,"89":0.11877314746379852,"90":-0.17323973774909973,"91":-0.13111168146133423,"92":-0.015829788520932198,"93":0.1161697581410408,"94":0.12181344628334045,"95":-0.08050607144832611,"96":0.12436527013778687,"97":-0.05719553306698799,"98":0.13189515471458435,"99":0.19077035784721375,"100":0.13033896684646606,"101":-0.036298926919698715,"102":0.01955847069621086,"103":0.10083433985710144,"104":0.08695024251937866,"105":0.15407344698905945,"106":-0.11722712218761444,"107":-0.1270514875650406,"108":-0.13137558102607727,"109":-0.15232959389686584,"110":0.012137881480157375,"111":-0.01893436163663864,"112":-0.14143189787864685,"113":0.1668834388256073,"114":0.06400087475776672}},"1":{"bias":0.046782348304986954,"weights":{"0":0.1345890462398529,"1":-0.12465274333953857,"2":0.15500466525554657,"3":0.0295017771422863,"4":-0.07836537063121796,"5":0.1164865717291832,"6":-0.11475488543510437,"7":-0.07437092810869217,"8":0.18609915673732758,"9":-0.1269056648015976,"10":-0.03330168128013611,"11":-0.19964103400707245,"12":0.0037771309725940228,"13":-0.16945752501487732,"14":0.14735069870948792,"15":-0.10394445806741714,"16":0.08646111935377121,"17":-0.10861574858427048,"18":0.16242961585521698,"19":-0.10855623334646225,"20":-0.136137917637825,"21":-0.10079649090766907,"22":-0.1891252100467682,"23":0.1826782077550888,"24":-0.15701566636562347,"25":-0.052123188972473145,"26":0.05019319802522659,"27":-0.14727608859539032,"28":-0.07069109380245209,"29":0.04068312793970108,"30":-0.07773391902446747,"31":0.09266907721757889,"32":0.11711408197879791,"33":-0.10488508641719818,"34":0.11419007182121277,"35":0.08242234587669373,"36":0.17386996746063232,"37":0.02442837879061699,"38":-0.019147787243127823,"39":-0.17352816462516785,"40":-0.18239814043045044,"41":-0.2603471577167511,"42":-0.09871365129947662,"43":-0.031137967482209206,"44":-0.1721213012933731,"45":-0.11819343268871307,"46":-0.07888167351484299,"47":0.07652044296264648,"48":0.0507454015314579,"49":0.15395045280456543,"50":-0.027285173535346985,"51":0.1250525861978531,"52":0.14047659933567047,"53":-0.030174482613801956,"54":-0.004880485124886036,"55":-0.0920172855257988,"56":-0.07922393828630447,"57":-0.11461815983057022,"58":0.16125158965587616,"59":0.0850164070725441,"60":0.008101818151772022,"61":0.04946839064359665,"62":-0.05646654590964317,"63":0.13993938267230988,"64":-0.1476854681968689,"65":0.022707171738147736,"66":-0.06876896321773529,"67":-0.010155237279832363,"68":0.00391473388299346,"69":-0.07613442838191986,"70":-0.198876291513443,"71":0.06870924681425095,"72":-0.18931685388088226,"73":-0.027140676975250244,"74":-0.11003054678440094,"75":-0.044544950127601624,"76":0.061882320791482925,"77":-0.14082637429237366,"78":-0.0036208652891218662,"79":-0.17383402585983276,"80":-0.16996817290782928,"81":-0.12169814854860306,"82":0.02896854281425476,"83":0.13646523654460907,"84":-0.12140179425477982,"85":0.01767340861260891,"86":0.05278605967760086,"87":0.05398814380168915,"88":-0.11309029161930084,"89":0.004488958045840263,"90":0.14908678829669952,"91":0.1617935746908188,"92":-0.19916702806949615,"93":0.1445172131061554,"94":-0.11253729462623596,"95":0.005176284816116095,"96":0.0998145267367363,"97":0.09620807319879532,"98":-0.0911879912018776,"99":-0.08035193383693695,"100":0.14643552899360657,"101":-0.05584010109305382,"102":0.10716749727725983,"103":0.17605061829090118,"104":0.1620727777481079,"105":0.1280255764722824,"106":0.09940514713525772,"107":-0.17815005779266357,"108":0.16281574964523315,"109":0.04558940604329109,"110":0.13588176667690277,"111":-0.09348902106285095,"112":0.16288676857948303,"113":0.1287432760000229,"114":0.11063665896654129}},"2":{"bias":0.13952256739139557,"weights":{"0":0.1621728539466858,"1":-0.16150371730327606,"2":-0.08400662243366241,"3":0.17202314734458923,"4":0.06381569802761078,"5":0.04249654710292816,"6":0.10595664381980896,"7":-0.18775302171707153,"8":0.09037496149539948,"9":-0.018557079136371613,"10":-0.1476137936115265,"11":0.0008594987448304892,"12":-0.19341906905174255,"13":-0.014596177265048027,"14":-0.028656724840402603,"15":0.062082793563604355,"16":0.154450923204422,"17":-0.02551845833659172,"18":-0.038198649883270264,"19":0.0711713582277298,"20":-0.017866093665361404,"21":-0.05204673111438751,"22":-0.15530388057231903,"23":-0.21001335978507996,"24":-0.07722042500972748,"25":-0.2795197367668152,"26":0.13588997721672058,"27":0.14990422129631042,"28":0.1593601256608963,"29":-0.006938272155821323,"30":0.2493310570716858,"31":0.1327008455991745,"32":0.12350721657276154,"33":-0.013486468233168125,"34":0.03266268968582153,"35":-0.2428579479455948,"36":0.0685717836022377,"37":-0.05498288571834564,"38":0.061232130974531174,"39":0.11318984627723694,"40":-0.1124180406332016,"41":0.11783186346292496,"42":0.1405092477798462,"43":0.020643319934606552,"44":0.024774212390184402,"45":-0.11386743187904358,"46":-0.10355231910943985,"47":-0.3556693494319916,"48":-0.28951048851013184,"49":-0.11691895872354507,"50":-0.04426952451467514,"51":0.16714440286159515,"52":0.4273315668106079,"53":0.6242154240608215,"54":0.37672874331474304,"55":0.1343877911567688,"56":0.12009871006011963,"57":-0.1287408024072647,"58":0.03960711881518364,"59":-0.1808866560459137,"60":-0.036250822246074677,"61":-0.015120106749236584,"62":-0.061168327927589417,"63":-0.05937642604112625,"64":-0.08882640302181244,"65":0.1731087863445282,"66":0.1487484723329544,"67":-0.11789845675230026,"68":0.04148133099079132,"69":-0.2298590987920761,"70":-0.2899424135684967,"71":-0.36891746520996094,"72":-0.06318230926990509,"73":0.1302442103624344,"74":-0.025949735194444656,"75":0.1359534114599228,"76":0.27607107162475586,"77":-0.010104745626449585,"78":0.0010822685435414314,"79":-0.13676288723945618,"80":-0.06591826677322388,"81":0.14474287629127502,"82":0.1446508765220642,"83":-0.0777648389339447,"84":0.14322689175605774,"85":0.12420089542865753,"86":0.03999834880232811,"87":0.1598018854856491,"88":-0.06296797096729279,"89":0.02272244542837143,"90":-0.19006261229515076,"91":0.008576902560889721,"92":0.10155859589576721,"93":0.1737016886472702,"94":-0.17096087336540222,"95":-0.12019982933998108,"96":-0.12741443514823914,"97":-0.07741470634937286,"98":-0.18471533060073853,"99":-0.02104013040661812,"100":0.014513152651488781,"101":0.0894891768693924,"102":-0.1106545478105545,"103":-0.03363422304391861,"104":-0.15430527925491333,"105":0.13317154347896576,"106":-0.012400426901876926,"107":0.15602606534957886,"108":0.0004721315926872194,"109":0.05406384915113449,"110":-0.13725578784942627,"111":-0.05607097968459129,"112":-0.10683298110961914,"113":-0.03456881642341614,"114":0.11253625154495239}},"3":{"bias":0.06811565160751343,"weights":{"0":0.0020884110126644373,"1":-0.13420157134532928,"2":-0.16247181594371796,"3":-0.015519929118454456,"4":0.15826183557510376,"5":-0.059813544154167175,"6":0.12441837042570114,"7":-0.05657315254211426,"8":0.1300937980413437,"9":0.13350199162960052,"10":-0.009375127963721752,"11":0.006336058955639601,"12":0.1403219848871231,"13":-0.21264854073524475,"14":0.12689520418643951,"15":0.0798436850309372,"16":-0.16300363838672638,"17":-0.037761494517326355,"18":-0.11121533811092377,"19":-0.12950527667999268,"20":0.037536486983299255,"21":-0.10501757264137268,"22":-0.02560957707464695,"23":0.1424807906150818,"24":0.22301265597343445,"25":0.10068339854478836,"26":0.03768610209226608,"27":0.008458329364657402,"28":0.08175042271614075,"29":0.0701000839471817,"30":0.005877258721739054,"31":0.00680665485560894,"32":0.18414351344108582,"33":-0.09959423542022705,"34":-0.0070245154201984406,"35":0.13493995368480682,"36":0.10659772902727127,"37":-0.08514177799224854,"38":-0.08632436394691467,"39":0.16426612436771393,"40":-0.009454533457756042,"41":-0.19468770921230316,"42":-0.012719103135168552,"43":-0.011935419403016567,"44":-0.09552477300167084,"45":0.0005746111273765564,"46":0.20544849336147308,"47":0.2033899426460266,"48":0.4684934616088867,"49":0.136257603764534,"50":-0.1754569560289383,"51":0.007978723384439945,"52":0.17216016352176666,"53":-0.15602336823940277,"54":0.01279320940375328,"55":0.11242003738880157,"56":-0.032699450850486755,"57":-0.091039277613163,"58":-0.04838386923074722,"59":-0.08036912232637405,"60":0.08430885523557663,"61":0.1332322061061859,"62":-0.014575803652405739,"63":-0.10924259573221207,"64":-0.2681262493133545,"65":-0.28307127952575684,"66":0.017503486946225166,"67":0.12724824249744415,"68":-0.15873737633228302,"69":0.04828694090247154,"70":0.09904646873474121,"71":0.2000163346529007,"72":0.12080328166484833,"73":-0.09302699565887451,"74":-0.09773735702037811,"75":-0.1085953563451767,"76":-0.014790247194468975,"77":0.12352670729160309,"78":0.15484672784805298,"79":-0.05226293206214905,"80":-0.016360023990273476,"81":0.029044751077890396,"82":0.14077042043209076,"83":-0.14703021943569183,"84":-0.04482804238796234,"85":-0.009134122170507908,"86":-0.002603210974484682,"87":-0.2809675633907318,"88":-0.0806492269039154,"89":-0.015605331398546696,"90":-0.0026172841899096966,"91":-0.1638926863670349,"92":0.11889193952083588,"93":0.13338129222393036,"94":-0.011754444800317287,"95":-0.013407076708972454,"96":-0.1313653439283371,"97":-0.136818066239357,"98":-0.06732791662216187,"99":-0.008400270715355873,"100":-0.17793677747249603,"101":-0.11949936300516129,"102":0.14963270723819733,"103":0.01122735533863306,"104":-0.09102776646614075,"105":-0.11093132197856903,"106":0.12816597521305084,"107":-0.17585739493370056,"108":-0.10085122287273407,"109":-0.0002568612399045378,"110":0.1717793196439743,"111":0.08176879584789276,"112":-0.11664177477359772,"113":0.12111596763134003,"114":-0.10018855333328247}},"4":{"bias":0.08188196271657944,"weights":{"0":-0.14428628981113434,"1":0.11243147403001785,"2":0.12480869889259338,"3":0.12679216265678406,"4":0.19111144542694092,"5":-0.16834332048892975,"6":0.09037255495786667,"7":-0.17979945242404938,"8":-0.07229646295309067,"9":0.12623420357704163,"10":0.06372849643230438,"11":0.00874973926693201,"12":-0.017179708927869797,"13":0.035925909876823425,"14":-0.002684545237571001,"15":0.07141480594873428,"16":-0.16616789996623993,"17":-0.08882883936166763,"18":0.16247950494289398,"19":-0.18456539511680603,"20":0.017299912869930267,"21":-0.1612144410610199,"22":-0.09677933901548386,"23":0.1659730076789856,"24":-0.049156442284584045,"25":0.10339239984750748,"26":-0.012062091380357742,"27":-0.06764998286962509,"28":-0.025600653141736984,"29":0.13594979047775269,"30":-0.21799491345882416,"31":-0.007589275948703289,"32":-0.03935440629720688,"33":0.14659421145915985,"34":-0.05013429746031761,"35":0.04582301527261734,"36":-0.07045494019985199,"37":0.19024622440338135,"38":0.18885645270347595,"39":-0.10217233747243881,"40":-0.136321023106575,"41":0.03592516854405403,"42":0.07522933930158615,"43":0.1357465237379074,"44":0.141415074467659,"45":0.13879595696926117,"46":-0.07892810553312302,"47":0.11979390680789948,"48":0.2016373574733734,"49":-0.0019760415889322758,"50":-0.07561924308538437,"51":-0.11706072837114334,"52":-0.11207406967878342,"53":0.011282878927886486,"54":-0.22933834791183472,"55":-0.009395950473845005,"56":0.07846084982156754,"57":0.07771392166614532,"58":0.08173703402280807,"59":-0.21479587256908417,"60":-0.23118922114372253,"61":0.16094137728214264,"62":0.15699893236160278,"63":0.221033975481987,"64":-0.00028830449446104467,"65":0.18125063180923462,"66":-0.12554188072681427,"67":-0.20586584508419037,"68":0.009716754779219627,"69":-0.012327890843153,"70":-0.03294341266155243,"71":-0.16946284472942352,"72":-0.1393306404352188,"73":-0.06685519963502884,"74":0.11921238154172897,"75":-0.06976637989282608,"76":-0.26404181122779846,"77":-0.20345687866210938,"78":-0.09092151373624802,"79":-0.1443532109260559,"80":-0.15512897074222565,"81":-0.19545449316501617,"82":-0.21515029668807983,"83":-0.07274671643972397,"84":0.14959120750427246,"85":0.15899990499019623,"86":-0.09873022139072418,"87":0.22985509037971497,"88":-0.030206605792045593,"89":-0.17516645789146423,"90":-0.1884605437517166,"91":0.13242457807064056,"92":0.1687612235546112,"93":0.07120540738105774,"94":0.017876509577035904,"95":0.06360749155282974,"96":-0.1233045682311058,"97":0.17309921979904175,"98":0.1726716309785843,"99":0.01274786051362753,"100":-0.10722967237234116,"101":-0.058140382170677185,"102":0.07725135236978531,"103":-0.03950224071741104,"104":0.11254475265741348,"105":-0.1553230881690979,"106":0.1466282606124878,"107":0.14910633862018585,"108":0.14448295533657074,"109":-0.08881207555532455,"110":0.10693701356649399,"111":-0.20273004472255707,"112":-0.1809510588645935,"113":0.1391659379005432,"114":0.037002645432949066}},"5":{"bias":-0.16773727536201477,"weights":{"0":0.060466207563877106,"1":0.12133507430553436,"2":0.06111930310726166,"3":-0.09662232547998428,"4":0.08539684861898422,"5":-0.04088238254189491,"6":0.02264903299510479,"7":0.113985575735569,"8":-0.04101697728037834,"9":0.18516677618026733,"10":-0.011292668990790844,"11":0.00045329457498155534,"12":-0.15307314693927765,"13":-0.008875856176018715,"14":-0.06805568188428879,"15":0.11651543527841568,"16":0.1688418835401535,"17":-0.1135021224617958,"18":0.11859668046236038,"19":0.05596580728888512,"20":0.10774644464254379,"21":-0.17580373585224152,"22":0.14714401960372925,"23":-0.07222636789083481,"24":-0.0330742709338665,"25":-0.039261333644390106,"26":-0.14836791157722473,"27":0.0458558015525341,"28":0.11048849672079086,"29":0.18719439208507538,"30":0.10339434444904327,"31":0.17741411924362183,"32":-0.08674896508455276,"33":0.06020979583263397,"34":-0.14869393408298492,"35":0.01915757916867733,"36":0.13112929463386536,"37":0.10715533047914505,"38":-0.024752220138907433,"39":-0.14155052602291107,"40":-0.1744946837425232,"41":-0.1043814942240715,"42":0.058847084641456604,"43":-0.11089015752077103,"44":-0.04010552540421486,"45":0.04431546479463577,"46":-0.1146564781665802,"47":0.04642387852072716,"48":-0.24309027194976807,"49":-0.05222222954034805,"50":-0.06820770353078842,"51":-0.010120910592377186,"52":0.4203859269618988,"53":0.3563498258590698,"54":0.1380273997783661,"55":-0.07020691782236099,"56":0.14275012910366058,"57":-0.10828518867492676,"58":0.06972803920507431,"59":-0.06498771905899048,"60":-0.02863430231809616,"61":-0.16520057618618011,"62":0.11597702652215958,"63":-0.1430150270462036,"64":-0.5069125890731812,"65":-0.3434160053730011,"66":-0.05155254900455475,"67":-0.055357675999403,"68":0.15142832696437836,"69":-0.0498243011534214,"70":-0.1490044742822647,"71":-0.07819425314664841,"72":0.08166678249835968,"73":0.02142355777323246,"74":-0.027003368362784386,"75":0.042465969920158386,"76":0.10881662368774414,"77":0.0898667648434639,"78":-0.07485000044107437,"79":0.1908639669418335,"80":0.028261739760637283,"81":-0.12454535812139511,"82":-0.14478179812431335,"83":0.11073180288076401,"84":-0.1661325842142105,"85":0.03827456012368202,"86":-0.20010903477668762,"87":-0.38350436091423035,"88":0.016239754855632782,"89":-0.1356515884399414,"90":-0.05331990867853165,"91":0.06283999979496002,"92":-0.15788477659225464,"93":0.05861082673072815,"94":0.15952394902706146,"95":0.15881562232971191,"96":0.18510553240776062,"97":0.10574185103178024,"98":0.0327594019472599,"99":-0.1676809936761856,"100":0.187714621424675,"101":-0.11588715761899948,"102":-0.010115220211446285,"103":0.1665727198123932,"104":-0.16986431181430817,"105":0.19881485402584076,"106":-0.07378318160772324,"107":-0.007484433241188526,"108":0.20944438874721527,"109":-0.07391379028558731,"110":0.12312532216310501,"111":0.007983596995472908,"112":-0.05451366305351257,"113":-0.023669561371207237,"114":0.12407764047384262}},"6":{"bias":-0.1212288960814476,"weights":{"0":-0.07433993369340897,"1":-0.042102813720703125,"2":-0.0966508761048317,"3":-0.20360101759433746,"4":0.057579316198825836,"5":0.014512548223137856,"6":-0.19063785672187805,"7":0.06439851969480515,"8":-0.13609153032302856,"9":-0.01901225931942463,"10":-0.1290702223777771,"11":-0.0803871676325798,"12":-0.16046513617038727,"13":-0.1729804277420044,"14":-0.027428368106484413,"15":0.08402951061725616,"16":-0.1643446534872055,"17":-0.00021127879153937101,"18":-0.009527825750410557,"19":0.08381564170122147,"20":-0.12018582969903946,"21":-0.00854586623609066,"22":0.011923371814191341,"23":-0.017773540690541267,"24":0.29475077986717224,"25":0.09468720853328705,"26":-0.03644021600484848,"27":0.18496599793434143,"28":0.11255716532468796,"29":-0.09296556562185287,"30":0.20500065386295319,"31":0.19387000799179077,"32":0.11152327060699463,"33":-0.0675804540514946,"34":0.0962609350681305,"35":-0.04733581468462944,"36":-0.21051877737045288,"37":-0.031281907111406326,"38":0.07122036814689636,"39":-0.12717178463935852,"40":0.01992463693022728,"41":0.008687731809914112,"42":0.09995520859956741,"43":0.05202975124120712,"44":0.1323842853307724,"45":0.12858429551124573,"46":0.14637215435504913,"47":0.3186754286289215,"48":0.3863908350467682,"49":0.009782083332538605,"50":0.13136523962020874,"51":-0.11334622651338577,"52":0.008953984826803207,"53":0.09438811987638474,"54":0.1641545593738556,"55":0.1301017701625824,"56":0.08354771882295609,"57":-0.05113162845373154,"58":-0.4247775673866272,"59":-0.27747786045074463,"60":-0.19714055955410004,"61":-0.20875702798366547,"62":0.06753221154212952,"63":-0.016099972650408745,"64":-0.06405788660049438,"65":0.04409410059452057,"66":0.15724968910217285,"67":0.020747946575284004,"68":0.04781055450439453,"69":0.10509127378463745,"70":0.29358091950416565,"71":-0.006089494097977877,"72":0.1650323122739792,"73":0.04743301868438721,"74":0.0935942754149437,"75":-0.1570911556482315,"76":0.25783079862594604,"77":-0.10612797737121582,"78":0.03744695335626602,"79":-0.17789870500564575,"80":0.154689759016037,"81":-0.08844119310379028,"82":-0.007678401190787554,"83":0.16013841331005096,"84":-0.06479278951883316,"85":0.09852702170610428,"86":-0.04179602488875389,"87":-0.14113731682300568,"88":-0.14166009426116943,"89":0.1652289181947708,"90":-0.04485608637332916,"91":0.07977417856454849,"92":0.037579894065856934,"93":0.025546003133058548,"94":0.14785413444042206,"95":-0.1981291025876999,"96":0.0945485532283783,"97":0.17151586711406708,"98":0.029039843007922173,"99":-0.0037977269385010004,"100":0.05589507520198822,"101":0.07812725752592087,"102":-0.20645198225975037,"103":-0.196566641330719,"104":-0.1280803084373474,"105":-0.12173714488744736,"106":-0.20341715216636658,"107":-0.0554528534412384,"108":-0.1944909393787384,"109":-0.030805403366684914,"110":-0.028933042660355568,"111":0.023209279403090477,"112":-0.19340753555297852,"113":0.15089213848114014,"114":-0.09939492493867874}},"7":{"bias":-0.18445049226284027,"weights":{"0":0.09299261122941971,"1":-0.03304261341691017,"2":-0.07039675861597061,"3":0.027737943455576897,"4":0.06319505721330643,"5":-0.033141858875751495,"6":0.030736392363905907,"7":-0.15473251044750214,"8":0.17907702922821045,"9":0.17952346801757812,"10":0.20554232597351074,"11":-0.01725909113883972,"12":0.06257826089859009,"13":-0.01888008415699005,"14":-0.19008570909500122,"15":-0.08855021744966507,"16":-0.09479490667581558,"17":-0.16846111416816711,"18":0.13630136847496033,"19":-0.17107588052749634,"20":0.002615182427689433,"21":-0.09134171158075333,"22":0.044895511120557785,"23":0.14781750738620758,"24":0.3071064352989197,"25":0.23646333813667297,"26":-0.17568349838256836,"27":-0.10976966470479965,"28":0.07436027377843857,"29":-0.178435817360878,"30":0.06982963532209396,"31":-0.008111019618809223,"32":0.1957951784133911,"33":0.13031484186649323,"34":-0.04008115455508232,"35":-0.39962971210479736,"36":-0.24361121654510498,"37":-0.18260252475738525,"38":-0.14265033602714539,"39":0.1316618025302887,"40":-0.03501417860388756,"41":-0.04649525135755539,"42":0.1080859899520874,"43":0.005369845312088728,"44":-0.18976321816444397,"45":-0.10665237158536911,"46":-0.016108468174934387,"47":0.4249688386917114,"48":0.40959450602531433,"49":0.006715291179716587,"50":0.06083057075738907,"51":0.012266237288713455,"52":-0.16837844252586365,"53":-0.3561818599700928,"54":-0.006976030766963959,"55":0.04008143022656441,"56":0.1892833709716797,"57":0.10618223994970322,"58":-0.4911157190799713,"59":-0.5311431288719177,"60":-0.009110507555305958,"61":0.10979139059782028,"62":-0.13433898985385895,"63":0.15644362568855286,"64":0.3214658200740814,"65":0.34050267934799194,"66":-0.02267220802605152,"67":0.18161828815937042,"68":-0.03371777385473251,"69":0.03743448108434677,"70":0.16140876710414886,"71":0.3356713056564331,"72":0.0232440996915102,"73":0.1584511548280716,"74":0.20208042860031128,"75":-0.24354135990142822,"76":-0.20173481106758118,"77":-0.1753651201725006,"78":0.013410920277237892,"79":0.0210785623639822,"80":-0.171696275472641,"81":-0.2842710614204407,"82":-0.12415984272956848,"83":-0.11709757894277573,"84":-0.008264177478849888,"85":0.16277463734149933,"86":0.2255474030971527,"87":0.16273747384548187,"88":0.22620584070682526,"89":0.20419208705425262,"90":0.048313241451978683,"91":0.027838613837957382,"92":0.09125342220067978,"93":-0.1665567010641098,"94":-0.0962132140994072,"95":-0.04145408794283867,"96":-0.09554774314165115,"97":0.17533011734485626,"98":-0.09175904840230942,"99":-0.12417814135551453,"100":0.142467200756073,"101":-0.013329409062862396,"102":-0.0956251248717308,"103":-0.17600172758102417,"104":-0.012440793216228485,"105":0.17680704593658447,"106":-0.17454974353313446,"107":-0.18402014672756195,"108":0.14853934943675995,"109":-0.18862739205360413,"110":0.059560082852840424,"111":-0.08442353457212448,"112":-0.17879553139209747,"113":0.08828931301832199,"114":0.11759961396455765}},"8":{"bias":-0.10235171020030975,"weights":{"0":0.04218631237745285,"1":0.026591001078486443,"2":-0.09550920873880386,"3":-0.1332273930311203,"4":0.021198423579335213,"5":0.059492141008377075,"6":0.04155062511563301,"7":-0.05636699125170708,"8":0.02077772282063961,"9":0.0745319202542305,"10":-0.1568320244550705,"11":0.18549981713294983,"12":0.051093265414237976,"13":0.07420551031827927,"14":-0.059018611907958984,"15":0.08389448374509811,"16":0.012763399630784988,"17":0.012068327516317368,"18":-0.10297929495573044,"19":0.13351386785507202,"20":0.009038669988512993,"21":-0.0372636541724205,"22":0.02853977121412754,"23":-0.15285304188728333,"24":0.3230586051940918,"25":0.20449519157409668,"26":-0.12068559974431992,"27":0.03596435487270355,"28":0.01661144383251667,"29":-0.052321355789899826,"30":-0.23599594831466675,"31":-0.024621427059173584,"32":0.13054069876670837,"33":-0.008856464177370071,"34":0.16254907846450806,"35":-0.2314794659614563,"36":-0.1557006537914276,"37":-0.18732699751853943,"38":-0.08804904669523239,"39":0.15393541753292084,"40":-0.16347914934158325,"41":0.16087555885314941,"42":-0.06133640557527542,"43":-0.13815061748027802,"44":0.11853127926588058,"45":-0.16400600969791412,"46":0.2310904860496521,"47":0.5468235611915588,"48":0.5385164022445679,"49":0.0020707605872303247,"50":0.08449844270944595,"51":0.10305716842412949,"52":-0.20926766097545624,"53":-0.4320921301841736,"54":-0.15397386252880096,"55":-0.0412716269493103,"56":-0.0877634659409523,"57":-0.182834655046463,"58":-0.33386102318763733,"59":-0.2738272547721863,"60":0.11886069178581238,"61":-0.08834170550107956,"62":-0.18804828822612762,"63":0.17395693063735962,"64":-0.143519327044487,"65":0.02882031537592411,"66":0.0919886901974678,"67":0.06676943600177765,"68":-0.056448426097631454,"69":-0.16996578872203827,"70":0.16488200426101685,"71":0.35857856273651123,"72":0.11819207668304443,"73":0.02172188274562359,"74":0.17936213314533234,"75":-0.025141103193163872,"76":-0.39144980907440186,"77":-0.09617772698402405,"78":0.11306143552064896,"79":-0.13321234285831451,"80":-0.16678671538829803,"81":-0.1331169754266739,"82":0.05642138421535492,"83":0.1200791671872139,"84":-0.006447538733482361,"85":0.16823866963386536,"86":0.19773942232131958,"87":0.11609999090433121,"88":-0.05586408078670502,"89":0.11228258162736893,"90":-0.13589875400066376,"91":0.09231499582529068,"92":0.16012060642242432,"93":0.012368789874017239,"94":-0.023649299517273903,"95":0.09935153275728226,"96":0.047192301601171494,"97":-0.0799688920378685,"98":-0.12278111279010773,"99":0.05341457948088646,"100":0.01865249313414097,"101":-0.13416089117527008,"102":0.13964106142520905,"103":-0.09560736268758774,"104":0.1764044463634491,"105":0.01199563778936863,"106":-0.06563734263181686,"107":-0.20337477326393127,"108":-0.0786212757229805,"109":-0.07712513953447342,"110":-0.03922620788216591,"111":0.15888479351997375,"112":0.12899796664714813,"113":0.10559999197721481,"114":0.08526068180799484}},"9":{"bias":0.05384960025548935,"weights":{"0":-0.09794061630964279,"1":0.035995278507471085,"2":0.1660829484462738,"3":-0.1940372884273529,"4":-0.12122388929128647,"5":0.09502629190683365,"6":-0.15460205078125,"7":0.06367697566747665,"8":-0.10166669636964798,"9":0.16951537132263184,"10":-0.15268290042877197,"11":0.17360690236091614,"12":0.18295954167842865,"13":-0.07945529371500015,"14":-0.1403629183769226,"15":-0.168874591588974,"16":0.04081913083791733,"17":0.04849236458539963,"18":-0.006499350070953369,"19":0.0775623545050621,"20":-0.14928725361824036,"21":-0.03143768757581711,"22":0.10025443881750107,"23":0.11570712178945541,"24":-0.016224976629018784,"25":-0.04622192680835724,"26":-0.19079342484474182,"27":-0.156927227973938,"28":0.1297755092382431,"29":0.18326245248317719,"30":0.23179878294467926,"31":-0.02279902994632721,"32":0.17872528731822968,"33":-0.0394420400261879,"34":-0.03545863926410675,"35":-0.16983333230018616,"36":-0.04510857164859772,"37":-0.11618808656930923,"38":0.11610487848520279,"39":0.14482314884662628,"40":0.15750037133693695,"41":0.0025631713215261698,"42":-0.10604871064424515,"43":-0.15219484269618988,"44":0.013885029591619968,"45":0.11403640359640121,"46":0.24541185796260834,"47":0.38236668705940247,"48":0.18523171544075012,"49":0.14333578944206238,"50":-0.007455166429281235,"51":0.14193399250507355,"52":-0.04757671430706978,"53":0.13620688021183014,"54":0.2852558493614197,"55":-0.03215297311544418,"56":-0.13691963255405426,"57":-0.159959077835083,"58":-0.2752988338470459,"59":-0.17355097830295563,"60":0.002658023964613676,"61":-0.11889021843671799,"62":-0.07761143893003464,"63":-0.013706251047551632,"64":-0.3731379210948944,"65":-0.24914899468421936,"66":-0.04126301407814026,"67":-0.034858956933021545,"68":0.11897898465394974,"69":0.010832399129867554,"70":0.11519625037908554,"71":0.1792421191930771,"72":-0.0033956253901124,"73":-0.1226319894194603,"74":0.12135440856218338,"75":0.21533308923244476,"76":-0.09320409595966339,"77":-0.12932728230953217,"78":0.12356888502836227,"79":0.1951524168252945,"80":0.036262933164834976,"81":-0.23963689804077148,"82":0.001105786650441587,"83":0.032906997948884964,"84":-0.1427299678325653,"85":-0.1145116314291954,"86":-0.14896206557750702,"87":-0.30649974942207336,"88":0.061192966997623444,"89":0.11178367584943771,"90":-0.1777169406414032,"91":-0.02623187191784382,"92":0.015489446930587292,"93":-0.027771811932325363,"94":0.14863283932209015,"95":0.19041743874549866,"96":-0.11917569488286972,"97":-0.07655850797891617,"98":-0.1794942319393158,"99":-0.10724178701639175,"100":0.11028381437063217,"101":0.15097935497760773,"102":-0.09897256642580032,"103":0.16949528455734253,"104":-0.11447032541036606,"105":0.15922845900058746,"106":0.02300836332142353,"107":0.044269584119319916,"108":-0.1175619438290596,"109":-0.025579893961548805,"110":0.0436381995677948,"111":-0.11899394541978836,"112":-0.12113069742918015,"113":0.09374190121889114,"114":0.1897936314344406}},"10":{"bias":-0.09752411395311356,"weights":{"0":0.03810199350118637,"1":-0.15646663308143616,"2":0.10055123269557953,"3":0.07978536188602448,"4":-0.10098271071910858,"5":0.02894667163491249,"6":0.043802596628665924,"7":-0.08028003573417664,"8":-0.022434242069721222,"9":-0.16231344640254974,"10":-0.11695656180381775,"11":-0.10394597053527832,"12":0.058209262788295746,"13":-0.09784233570098877,"14":-0.057068757712841034,"15":-0.19715474545955658,"16":-0.00392879918217659,"17":0.10761493444442749,"18":0.017932388931512833,"19":-0.14636164903640747,"20":-0.15716667473316193,"21":-0.014424332417547703,"22":0.1276559978723526,"23":0.012879973277449608,"24":0.2991531789302826,"25":0.23390252888202667,"26":-0.14863713085651398,"27":-0.0006129475659690797,"28":-0.11759468913078308,"29":-0.15616761147975922,"30":-0.030072741210460663,"31":0.05962030589580536,"32":-0.06448829919099808,"33":0.14636127650737762,"34":-0.008382457308471203,"35":-0.062321487814188004,"36":0.13687863945960999,"37":0.051720522344112396,"38":-0.08217865228652954,"39":0.026442956179380417,"40":-0.06931527704000473,"41":-0.136196106672287,"42":-0.2983548641204834,"43":0.07461903989315033,"44":-0.15909786522388458,"45":0.09787102043628693,"46":0.14619559049606323,"47":0.47135448455810547,"48":0.31317800283432007,"49":0.09626105427742004,"50":-0.07447747886180878,"51":0.12998278439044952,"52":-0.13450318574905396,"53":0.19837036728858948,"54":0.1961459219455719,"55":0.023312825709581375,"56":0.14356455206871033,"57":-0.08260829001665115,"58":0.026648923754692078,"59":0.08714504539966583,"60":0.14095963537693024,"61":0.043185584247112274,"62":0.08463895320892334,"63":-0.3088308572769165,"64":-0.49421200156211853,"65":-0.1032862663269043,"66":-0.0816228985786438,"67":0.15214039385318756,"68":0.14410904049873352,"69":0.11813568323850632,"70":0.21042779088020325,"71":0.16257965564727783,"72":-0.1012207493185997,"73":0.13307972252368927,"74":-0.09950973093509674,"75":0.12140537053346634,"76":0.18503990769386292,"77":0.09610513597726822,"78":-0.14017346501350403,"79":-0.0758584588766098,"80":-0.014912066049873829,"81":0.1208336129784584,"82":-0.03017278015613556,"83":0.05454408377408981,"84":0.0312312301248312,"85":-0.06995885074138641,"86":-0.325819730758667,"87":-0.17908403277397156,"88":0.060616180300712585,"89":-0.09363308548927307,"90":0.10538996756076813,"91":0.01583893969655037,"92":0.0383048951625824,"93":-0.046626489609479904,"94":-0.056122519075870514,"95":-0.06450478732585907,"96":-0.04407018423080444,"97":-0.19683173298835754,"98":-0.03976698964834213,"99":-0.07613271474838257,"100":-0.15943992137908936,"101":0.10219748318195343,"102":0.12169848382472992,"103":0.15920935571193695,"104":0.018742434680461884,"105":-0.052472591400146484,"106":-0.08786818385124207,"107":-0.1288214921951294,"108":0.06787469983100891,"109":-0.0512130931019783,"110":-0.1417022943496704,"111":0.1423441469669342,"112":-0.04328534007072449,"113":0.0430140420794487,"114":0.09169396758079529}},"11":{"bias":0.14247891306877136,"weights":{"0":-0.15108095109462738,"1":0.08010923117399216,"2":0.10449015349149704,"3":-0.054369088262319565,"4":0.15579628944396973,"5":-0.15972203016281128,"6":0.16503480076789856,"7":0.022431090474128723,"8":0.08145131170749664,"9":0.07111752778291702,"10":-0.04601038619875908,"11":0.08723771572113037,"12":-0.01158334780484438,"13":-0.11282191425561905,"14":-0.03876190260052681,"15":-0.051905110478401184,"16":-0.035457223653793335,"17":0.05711514130234718,"18":-0.04182317480444908,"19":0.16762584447860718,"20":0.09592219442129135,"21":0.027463410049676895,"22":-0.2006477564573288,"23":-0.13565854728221893,"24":0.10756892710924149,"25":0.21699155867099762,"26":0.15551146864891052,"27":-0.11316642165184021,"28":0.039330482482910156,"29":-0.13300277292728424,"30":-0.1709846556186676,"31":0.08791131526231766,"32":-0.07144789397716522,"33":0.04053930193185806,"34":-0.13171470165252686,"35":0.31690165400505066,"36":-0.03519068658351898,"37":0.06524044275283813,"38":0.07194925099611282,"39":0.05074393376708031,"40":0.11522601544857025,"41":-0.25051960349082947,"42":0.031632792204618454,"43":-0.10558591783046722,"44":-0.09485818445682526,"45":-0.10828188806772232,"46":0.26121148467063904,"47":0.29907289147377014,"48":0.44097447395324707,"49":0.2313387095928192,"50":-0.16213399171829224,"51":0.0978376567363739,"52":-0.233622744679451,"53":-0.2631273567676544,"54":-0.26842328906059265,"55":0.013649092987179756,"56":-0.1987377405166626,"57":-0.13134393095970154,"58":0.38592520356178284,"59":0.3666887581348419,"60":0.05324892699718475,"61":0.07112913578748703,"62":-0.15989358723163605,"63":-0.21348151564598083,"64":-0.07505019754171371,"65":-0.19892793893814087,"66":-0.17178085446357727,"67":-0.1717359572649002,"68":0.0691031962633133,"69":0.1491318643093109,"70":0.3419649004936218,"71":0.03452222794294357,"72":0.05912978574633598,"73":0.05520997196435928,"74":-0.05624854937195778,"75":-0.12437640130519867,"76":-0.35472235083580017,"77":0.06382214277982712,"78":0.06957560032606125,"79":0.05077178776264191,"80":0.1680365353822708,"81":0.03614846616983414,"82":0.022175392135977745,"83":-0.006207263562828302,"84":-0.16265960037708282,"85":-0.04418287053704262,"86":-0.18721142411231995,"87":-0.15350529551506042,"88":0.0952891930937767,"89":0.008397144265472889,"90":-0.15117840468883514,"91":0.04485921934247017,"92":-0.1676604151725769,"93":0.08817382156848907,"94":-0.08852143585681915,"95":-0.03091929852962494,"96":0.05379325523972511,"97":0.15743988752365112,"98":-0.13736620545387268,"99":-0.027253136038780212,"100":-0.152888685464859,"101":-0.09888400137424469,"102":-0.1924702227115631,"103":-0.0386662483215332,"104":-0.05379567667841911,"105":0.07940047234296799,"106":0.021901600062847137,"107":0.08108227699995041,"108":0.1521211862564087,"109":-0.10961353778839111,"110":0.1073191687464714,"111":-0.13249605894088745,"112":-0.08958369493484497,"113":0.19627761840820312,"114":0.17755985260009766}},"12":{"bias":0.1906813681125641,"weights":{"0":0.11787459254264832,"1":0.051520708948373795,"2":0.1705685257911682,"3":0.07950803637504578,"4":0.18436084687709808,"5":-0.005088477861136198,"6":0.09734515100717545,"7":-0.15804621577262878,"8":0.1068263053894043,"9":-0.00514644430950284,"10":-0.05750091373920441,"11":0.117339588701725,"12":0.15741463005542755,"13":-0.10923516005277634,"14":-0.19335529208183289,"15":-0.0036867253948003054,"16":-0.03680677339434624,"17":-0.10432945191860199,"18":0.11408606916666031,"19":-0.1611364632844925,"20":0.0579664371907711,"21":0.040682364255189896,"22":0.038369860500097275,"23":-0.04377380758523941,"24":0.06188879907131195,"25":-0.09186282008886337,"26":-0.08504847437143326,"27":-0.06568536907434464,"28":-0.16266871988773346,"29":0.12940384447574615,"30":-0.14598111808300018,"31":0.030249176546931267,"32":0.1938166469335556,"33":0.08727513998746872,"34":-0.05443989858031273,"35":0.12843888998031616,"36":0.11093757301568985,"37":-0.014957406558096409,"38":-0.09051065146923065,"39":-0.08494872599840164,"40":-0.18612684309482574,"41":-0.15275821089744568,"42":-0.042219992727041245,"43":-0.11323826014995575,"44":-0.0785328596830368,"45":-0.03442878648638725,"46":0.11420424282550812,"47":0.06643965095281601,"48":0.15754292905330658,"49":-0.19135774672031403,"50":0.07738637179136276,"51":0.07230114191770554,"52":-0.23958979547023773,"53":-0.30319878458976746,"54":-0.10497917234897614,"55":-0.006085892673581839,"56":0.11306888610124588,"57":0.18029899895191193,"58":0.4669843316078186,"59":0.2502581775188446,"60":0.17774184048175812,"61":0.18720631301403046,"62":-0.05184093490242958,"63":0.06958220154047012,"64":-0.3208957016468048,"65":-0.16628293693065643,"66":-0.05067666247487068,"67":0.1004243940114975,"68":-0.13858169317245483,"69":0.0606282502412796,"70":-0.13768163323402405,"71":-0.19210167229175568,"72":-0.07810093462467194,"73":-0.1943627893924713,"74":0.0026840404607355595,"75":-0.08254872262477875,"76":-0.22448033094406128,"77":-0.057900574058294296,"78":-0.07943145185709,"79":0.15132634341716766,"80":0.05693474039435387,"81":-0.037468671798706055,"82":0.09458529949188232,"83":0.07096546143293381,"84":0.0562361441552639,"85":-0.17667171359062195,"86":-0.04622729867696762,"87":-0.11450310796499252,"88":-0.15491783618927002,"89":0.19698096811771393,"90":0.1431424915790558,"91":0.10641048103570938,"92":0.0913005918264389,"93":0.1250389665365219,"94":0.03747342899441719,"95":-0.010806294158101082,"96":-0.03909151628613472,"97":-0.09664788097143173,"98":-0.15114553272724152,"99":-0.09759688377380371,"100":-0.19635525345802307,"101":-0.12054280936717987,"102":-0.015388132072985172,"103":0.16665570437908173,"104":-0.1345672458410263,"105":0.18648022413253784,"106":0.1784539669752121,"107":-0.09152570366859436,"108":0.1267205774784088,"109":0.0477386899292469,"110":0.1592736840248108,"111":0.08342429995536804,"112":0.0685652494430542,"113":-0.16120272874832153,"114":0.16732844710350037}},"13":{"bias":-0.014686750248074532,"weights":{"0":0.16169272363185883,"1":-0.19622930884361267,"2":0.1608758568763733,"3":0.05979149416089058,"4":0.10056436061859131,"5":0.1619870513677597,"6":-0.15018823742866516,"7":0.09400127083063126,"8":0.18052858114242554,"9":-0.08405127376317978,"10":0.14044535160064697,"11":0.16440661251544952,"12":0.025669006630778313,"13":-0.134994238615036,"14":-0.08962902426719666,"15":-0.03203941136598587,"16":-0.09181611984968185,"17":-0.1701304167509079,"18":0.017090512439608574,"19":-0.11253735423088074,"20":-0.09694814682006836,"21":-0.06805318593978882,"22":-0.12103275954723358,"23":-0.0014958473620936275,"24":0.09877784550189972,"25":0.10041316598653793,"26":-0.13480380177497864,"27":-0.06343820691108704,"28":0.011794745922088623,"29":0.02276834473013878,"30":0.21114186942577362,"31":-0.18285340070724487,"32":0.06823596358299255,"33":-0.03524966165423393,"34":0.041244667023420334,"35":0.12674686312675476,"36":-0.11483247578144073,"37":0.08634653687477112,"38":-0.10478860884904861,"39":-0.14512419700622559,"40":0.06774219125509262,"41":-0.1091889888048172,"42":-0.05703236162662506,"43":0.04234099015593529,"44":-0.15513700246810913,"45":-0.11208344250917435,"46":0.2258908897638321,"47":0.19885136187076569,"48":0.29058581590652466,"49":0.049915071576833725,"50":-0.10727895051240921,"51":-0.16809183359146118,"52":0.19518715143203735,"53":-0.12477058172225952,"54":0.16731737554073334,"55":0.019711555913090706,"56":-0.12674321234226227,"57":-0.0704692006111145,"58":0.25316935777664185,"59":0.2832406163215637,"60":0.14964795112609863,"61":-0.18102161586284637,"62":0.03235549107193947,"63":-0.32029426097869873,"64":-0.4231973886489868,"65":0.010258425958454609,"66":0.01628362573683262,"67":-0.14793336391448975,"68":0.11827079951763153,"69":0.007002478465437889,"70":-0.11071762442588806,"71":0.18090882897377014,"72":0.08042500168085098,"73":-0.005613713525235653,"74":-0.14193324744701385,"75":-0.11913756281137466,"76":0.15857404470443726,"77":-0.021942177787423134,"78":-0.1322477012872696,"79":0.04355378821492195,"80":0.145349383354187,"81":0.01518750935792923,"82":0.1471441388130188,"83":0.0698411762714386,"84":0.011585555970668793,"85":0.015235458500683308,"86":-0.061243195086717606,"87":-0.10900890082120895,"88":-0.04156811535358429,"89":0.1482817679643631,"90":0.028621824458241463,"91":-0.0809791088104248,"92":-0.06536176055669785,"93":0.05700729787349701,"94":-0.13189467787742615,"95":-0.11667346954345703,"96":0.15343095362186432,"97":0.007834961637854576,"98":-0.04801224544644356,"99":0.05992419645190239,"100":-0.027165843173861504,"101":-0.009832696989178658,"102":0.005800014361739159,"103":0.03347242623567581,"104":-0.04190212860703468,"105":-0.062194667756557465,"106":-0.13702791929244995,"107":-0.1314418464899063,"108":0.08107532560825348,"109":0.18721221387386322,"110":-0.199196457862854,"111":0.12544436752796173,"112":-0.039856310933828354,"113":0.093293197453022,"114":-0.04100966826081276}},"14":{"bias":-0.16352303326129913,"weights":{"0":0.17728087306022644,"1":0.06227489933371544,"2":-0.07349005341529846,"3":0.007095788139849901,"4":-0.13856038451194763,"5":0.09257223457098007,"6":0.14088788628578186,"7":0.0463748499751091,"8":-0.11779645830392838,"9":0.18668138980865479,"10":-0.043711863458156586,"11":-0.1826501041650772,"12":0.10828273743391037,"13":0.07929441332817078,"14":0.1527509242296219,"15":-0.0776136964559555,"16":-0.1729174256324768,"17":0.06889094412326813,"18":-0.0828874334692955,"19":-0.08392304182052612,"20":-0.1004798486828804,"21":-0.06425133347511292,"22":0.21357138454914093,"23":0.19755731523036957,"24":0.06756364554166794,"25":-0.05960842967033386,"26":-0.13329893350601196,"27":-0.06113740801811218,"28":-0.15085069835186005,"29":0.11134202778339386,"30":-0.1513158082962036,"31":-0.09597646445035934,"32":-0.16252003610134125,"33":-0.16472013294696808,"34":-0.018946638330817223,"35":0.09686944633722305,"36":-0.040649835020303726,"37":-0.04834012687206268,"38":0.013789751566946507,"39":0.03687328100204468,"40":-0.06987480074167252,"41":0.2522505521774292,"42":0.04365919530391693,"43":0.14755204319953918,"44":-0.01878589205443859,"45":-0.17372465133666992,"46":-0.12218890339136124,"47":0.12757353484630585,"48":-0.034714892506599426,"49":0.12576983869075775,"50":-0.06123517453670502,"51":0.007164705079048872,"52":-0.41049879789352417,"53":-0.48963648080825806,"54":-0.03000049479305744,"55":0.14192277193069458,"56":0.16266083717346191,"57":0.11204098165035248,"58":-0.31670641899108887,"59":-0.21827128529548645,"60":-0.13764198124408722,"61":0.014343292452394962,"62":0.21011395752429962,"63":0.0699586346745491,"64":0.45728135108947754,"65":0.3620932102203369,"66":0.21286515891551971,"67":-0.07506261020898819,"68":-0.12508560717105865,"69":0.19314102828502655,"70":0.19242802262306213,"71":-0.04570743814110756,"72":0.05775829032063484,"73":-0.01717505045235157,"74":0.08887176960706711,"75":-0.17931635677814484,"76":-0.35029667615890503,"77":-0.07475700229406357,"78":-0.1309904307126999,"79":-0.13135787844657898,"80":0.05103715509176254,"81":0.16892382502555847,"82":0.01923249661922455,"83":0.10972979664802551,"84":-0.10560503602027893,"85":-0.04134941101074219,"86":0.3661513030529022,"87":0.2956914007663727,"88":0.24912628531455994,"89":-0.14171993732452393,"90":-0.04324021935462952,"91":-0.024480197578668594,"92":0.19818973541259766,"93":0.00493596401065588,"94":0.07258529216051102,"95":0.0016602633986622095,"96":0.19832903146743774,"97":-0.12102535367012024,"98":-0.12970685958862305,"99":-0.1475936770439148,"100":-0.07707294821739197,"101":-0.15932753682136536,"102":0.11928139626979828,"103":0.08229976147413254,"104":0.02069939486682415,"105":-0.07743319869041443,"106":-0.04141322523355484,"107":0.18576860427856445,"108":0.1747594028711319,"109":0.16739626228809357,"110":0.10770981013774872,"111":-0.16942456364631653,"112":-0.1685439646244049,"113":-0.11456404626369476,"114":-0.07665529102087021}},"15":{"bias":-0.02949564903974533,"weights":{"0":-0.006608216091990471,"1":0.1486632525920868,"2":-0.0826755091547966,"3":-0.11591833084821701,"4":0.01956360973417759,"5":0.06424897164106369,"6":0.11616490036249161,"7":0.09365931898355484,"8":0.13321633636951447,"9":-0.14518430829048157,"10":-0.0017289766110479832,"11":-0.00633921567350626,"12":0.11133100837469101,"13":0.0018283670069649816,"14":-0.0992250069975853,"15":0.1497514843940735,"16":-0.07928735762834549,"17":-0.06450947374105453,"18":0.07752769440412521,"19":-0.14544424414634705,"20":0.0972997173666954,"21":-0.1491149365901947,"22":-0.004420080687850714,"23":0.0819002240896225,"24":-0.35418495535850525,"25":-0.17946308851242065,"26":0.11213146895170212,"27":-0.02207810804247856,"28":0.01617158204317093,"29":0.28340524435043335,"30":0.34217262268066406,"31":0.18413405120372772,"32":0.0203583762049675,"33":0.09350048750638962,"34":-0.0598643459379673,"35":-0.03871659189462662,"36":0.26011428236961365,"37":-0.10411269217729568,"38":-0.0215342715382576,"39":-0.03238290548324585,"40":0.1158982366323471,"41":0.06013452634215355,"42":-0.06452351808547974,"43":0.13683761656284332,"44":0.02358265221118927,"45":-0.16864840686321259,"46":-0.03863741084933281,"47":-0.5116745829582214,"48":-0.3045065701007843,"49":-0.0032190841156989336,"50":-0.07316095381975174,"51":-0.06581229716539383,"52":0.4762476086616516,"53":0.5030929446220398,"54":0.3070676624774933,"55":0.04249216616153717,"56":-0.15784800052642822,"57":-0.15078026056289673,"58":0.30586397647857666,"59":0.3111819922924042,"60":0.029286736622452736,"61":-0.12095068395137787,"62":0.10489726811647415,"63":-0.009324777871370316,"64":-0.0772821307182312,"65":-0.1945844441652298,"66":-0.1540161669254303,"67":-0.12685513496398926,"68":-0.027539320290088654,"69":-0.08605753630399704,"70":-0.26852813363075256,"71":-0.07205870002508163,"72":-0.15849967300891876,"73":-0.05916370078921318,"74":-0.114852674305439,"75":0.07587418705224991,"76":0.17437587678432465,"77":0.11409880965948105,"78":-0.155385360121727,"79":-0.1679767668247223,"80":0.11694926768541336,"81":-0.02337454818189144,"82":0.09848499298095703,"83":0.0900159701704979,"84":-0.17479050159454346,"85":0.0680302157998085,"86":-0.010876835323870182,"87":0.08461805433034897,"88":-0.13348162174224854,"89":0.13138887286186218,"90":-0.002258958062157035,"91":-0.016113663092255592,"92":-0.08263476938009262,"93":0.15922322869300842,"94":-0.14570719003677368,"95":-0.07523124665021896,"96":0.0854906365275383,"97":0.04142216593027115,"98":-0.09622783213853836,"99":-0.07446443289518356,"100":-0.019456572830677032,"101":-0.1243714764714241,"102":0.1051068976521492,"103":0.131517231464386,"104":-0.11652126163244247,"105":0.06475668400526047,"106":0.15978330373764038,"107":0.18278206884860992,"108":-0.17096132040023804,"109":-0.09924843162298203,"110":0.017072787508368492,"111":-0.20366458594799042,"112":0.18545712530612946,"113":-0.03191719949245453,"114":0.04099739342927933}},"16":{"bias":0.10491803288459778,"weights":{"0":0.03100634180009365,"1":-0.0928763747215271,"2":0.17328517138957977,"3":-0.15670618414878845,"4":0.11210751533508301,"5":0.15222804248332977,"6":-0.0598285049200058,"7":0.16329415142536163,"8":0.1299981027841568,"9":-0.18473012745380402,"10":-0.049646470695734024,"11":-0.03226681426167488,"12":0.05164795741438866,"13":-0.14079131186008453,"14":-0.1281297206878662,"15":-0.030950652435421944,"16":-0.04895750805735588,"17":0.05475636199116707,"18":-0.09694831073284149,"19":0.034936677664518356,"20":-0.057056114077568054,"21":-0.0011761060450226068,"22":0.13348029553890228,"23":0.07278739660978317,"24":-0.010496111586689949,"25":0.1418282836675644,"26":-0.015110890381038189,"27":0.08640727400779724,"28":0.18534882366657257,"29":0.08259286731481552,"30":0.04198053479194641,"31":-0.012044682167470455,"32":-0.07122426480054855,"33":-0.16987566649913788,"34":-0.09728828072547913,"35":-0.07480571419000626,"36":0.23893864452838898,"37":-0.04578808322548866,"38":-0.018244897946715355,"39":0.17976389825344086,"40":-0.04596841335296631,"41":0.17626987397670746,"42":0.07655780762434006,"43":0.10234183818101883,"44":0.09877388924360275,"45":0.03015393204987049,"46":0.15438054502010345,"47":-0.0009754956117831171,"48":0.23533836007118225,"49":0.11636023223400116,"50":0.008397844620049,"51":-0.025799399241805077,"52":-0.29832619428634644,"53":-0.2299855351448059,"54":-0.0730196014046669,"55":-0.1606249064207077,"56":0.03736701235175133,"57":0.03767520189285278,"58":0.1537109613418579,"59":-0.03641393035650253,"60":0.18924909830093384,"61":-0.1583627611398697,"62":-0.11068011820316315,"63":-0.21959006786346436,"64":-0.21291859447956085,"65":0.130899116396904,"66":-0.1415368914604187,"67":0.1722029447555542,"68":0.06899653375148773,"69":0.0358295813202858,"70":-0.017408424988389015,"71":-0.08216293901205063,"72":0.1347225308418274,"73":-0.11135436594486237,"74":0.14902646839618683,"75":-0.2152760922908783,"76":-0.2687419652938843,"77":-0.04095679894089699,"78":-0.015098915435373783,"79":0.001706186681985855,"80":-0.057534459978342056,"81":0.16619855165481567,"82":-0.05291524901986122,"83":0.04262521490454674,"84":0.19555576145648956,"85":0.06878682971000671,"86":-0.0625823512673378,"87":-0.15704293549060822,"88":-0.0603145956993103,"89":0.08151372522115707,"90":0.020666226744651794,"91":0.1671777367591858,"92":0.12477743625640869,"93":0.1679999679327011,"94":-0.10313411056995392,"95":0.13118040561676025,"96":-0.19464686512947083,"97":0.1235235184431076,"98":0.17782261967658997,"99":-0.0065901018679142,"100":-0.17379266023635864,"101":-0.1809321939945221,"102":-0.19409488141536713,"103":-0.1799069195985794,"104":-0.04054928198456764,"105":-0.19633246958255768,"106":-0.02397054433822632,"107":-0.10596092790365219,"108":-0.022482657805085182,"109":-0.19371545314788818,"110":0.09233086556196213,"111":-0.05433623865246773,"112":0.024466244503855705,"113":0.05066031590104103,"114":-0.13093158602714539}},"17":{"bias":-0.170840322971344,"weights":{"0":0.14944308996200562,"1":0.027967549860477448,"2":-0.0536150261759758,"3":0.01035827212035656,"4":-0.08548721671104431,"5":0.017840851098299026,"6":-0.1373344361782074,"7":-0.0811709314584732,"8":0.1216900646686554,"9":0.020493026822805405,"10":-0.06557449698448181,"11":0.04217038303613663,"12":-0.027318965643644333,"13":0.01126907579600811,"14":-0.09680956602096558,"15":-0.11545836925506592,"16":-0.09565469622612,"17":0.1276261806488037,"18":-0.12719544768333435,"19":0.021626189351081848,"20":0.1089407354593277,"21":-0.015036985278129578,"22":0.04526325315237045,"23":-0.0843508169054985,"24":-0.20594577491283417,"25":-0.032275378704071045,"26":0.017186906188726425,"27":-0.161002516746521,"28":-0.09250339865684509,"29":-0.027594000101089478,"30":0.13790807127952576,"31":-0.08508333563804626,"32":-0.07534059882164001,"33":-0.189192533493042,"34":0.14846816658973694,"35":0.34429383277893066,"36":0.4140074551105499,"37":-0.0706334114074707,"38":0.064287930727005,"39":-0.09243731200695038,"40":-0.056077875196933746,"41":-0.16247345507144928,"42":-0.27294468879699707,"43":0.1600034236907959,"44":0.12274736166000366,"45":0.13776877522468567,"46":-0.24577756226062775,"47":-0.29353034496307373,"48":-0.46319958567619324,"49":-0.11507812142372131,"50":0.16482800245285034,"51":-0.039382413029670715,"52":0.040375471115112305,"53":0.10761340707540512,"54":0.027450034394860268,"55":0.08814948797225952,"56":-0.13033637404441833,"57":0.2473171353340149,"58":0.7676107287406921,"59":0.49697422981262207,"60":0.2719884514808655,"61":-0.06162283942103386,"62":0.16379359364509583,"63":-0.3623606562614441,"64":-0.44778093695640564,"65":-0.24624194204807281,"66":-0.04474366456270218,"67":0.19419372081756592,"68":0.18817806243896484,"69":0.16062483191490173,"70":-0.25156790018081665,"71":-0.23348751664161682,"72":-0.038939449936151505,"73":0.1090880036354065,"74":-0.10078567266464233,"75":-0.025035474449396133,"76":0.1716075837612152,"77":-0.0016039394540712237,"78":0.09493710100650787,"79":0.10573869943618774,"80":-0.1730228066444397,"81":0.2771155834197998,"82":0.22262988984584808,"83":0.078902468085289,"84":0.11725914478302002,"85":0.13630005717277527,"86":-0.32465168833732605,"87":-0.23839256167411804,"88":0.11761777102947235,"89":0.08751772344112396,"90":-0.00015292201715055853,"91":-0.10806548595428467,"92":-0.18421760201454163,"93":-0.1616014838218689,"94":0.1900278627872467,"95":0.020792294293642044,"96":0.0026112054474651814,"97":0.18316838145256042,"98":0.18714365363121033,"99":0.17958050966262817,"100":-0.08456841111183167,"101":0.1631033718585968,"102":0.019388191401958466,"103":-0.1562384068965912,"104":0.08685891330242157,"105":-0.17630568146705627,"106":0.06610821187496185,"107":-0.1839372217655182,"108":-0.08122113347053528,"109":0.11694087088108063,"110":0.027865540236234665,"111":0.10062751173973083,"112":0.04540657997131348,"113":-0.035168834030628204,"114":-0.05466876178979874}},"18":{"bias":0.13494659960269928,"weights":{"0":-0.14064650237560272,"1":0.15972493588924408,"2":-0.024891715496778488,"3":-0.0363534539937973,"4":-0.16769519448280334,"5":-0.0056436751037836075,"6":-0.19410236179828644,"7":0.19140708446502686,"8":0.035628944635391235,"9":-0.19402749836444855,"10":-0.09718121588230133,"11":0.12723085284233093,"12":-0.2055356204509735,"13":0.009967795573174953,"14":0.07227614521980286,"15":-0.07972270250320435,"16":-0.1939605325460434,"17":-0.010372123681008816,"18":-0.0684073269367218,"19":0.17750181257724762,"20":-0.03002719208598137,"21":0.17811653017997742,"22":-0.16643202304840088,"23":0.042707689106464386,"24":-0.2849554121494293,"25":0.11363068968057632,"26":-0.20079970359802246,"27":-0.06316640228033066,"28":-0.16455382108688354,"29":0.1481844186782837,"30":0.3654092848300934,"31":0.22672438621520996,"32":-0.18500718474388123,"33":0.0033631357364356518,"34":0.13921429216861725,"35":-0.29315635561943054,"36":-0.4693170487880707,"37":-0.0797683447599411,"38":-0.11754123121500015,"39":-0.15879176557064056,"40":0.16103190183639526,"41":0.19739052653312683,"42":-0.0740717351436615,"43":0.03783288598060608,"44":0.13748566806316376,"45":0.01132919080555439,"46":0.04832519218325615,"47":-0.2392590492963791,"48":-0.05843009799718857,"49":0.10608162730932236,"50":-0.07869474589824677,"51":0.017003517597913742,"52":0.43281611800193787,"53":0.47723692655563354,"54":0.43062326312065125,"55":-0.15024316310882568,"56":0.020207621157169342,"57":-0.20925672352313995,"58":-0.4958628714084625,"59":-0.5557765364646912,"60":-0.08691549301147461,"61":-0.02607039362192154,"62":0.03419659286737442,"63":0.1901409924030304,"64":0.20540867745876312,"65":0.1415240615606308,"66":0.13920189440250397,"67":-0.16950614750385284,"68":0.18873625993728638,"69":0.12041150033473969,"70":0.03569196164608002,"71":0.009661372750997543,"72":0.1191565990447998,"73":-0.14437001943588257,"74":0.0854424312710762,"75":0.17746958136558533,"76":0.25485703349113464,"77":-0.08517695218324661,"78":-0.02734297141432762,"79":-0.08388293534517288,"80":0.1029421016573906,"81":-0.2821435034275055,"82":-0.214888334274292,"83":0.12022016942501068,"84":-0.08917797356843948,"85":-0.01322033628821373,"86":0.14634203910827637,"87":0.26905572414398193,"88":0.07434084266424179,"89":0.12331010401248932,"90":0.03009074553847313,"91":-0.12308439612388611,"92":0.07368776202201843,"93":-0.09415437281131744,"94":-0.057477787137031555,"95":0.09747195988893509,"96":0.05331216752529144,"97":0.08111053705215454,"98":-0.09307777136564255,"99":0.04759250581264496,"100":0.11469032615423203,"101":0.13425201177597046,"102":0.14663709700107574,"103":-0.11634968221187592,"104":-0.13093411922454834,"105":-0.15634731948375702,"106":-0.15466755628585815,"107":0.07979550957679749,"108":-0.03747864067554474,"109":0.1352274864912033,"110":-0.013146286830306053,"111":-0.1135345995426178,"112":-0.11512434482574463,"113":0.07574582099914551,"114":-0.09902071207761765}},"19":{"bias":0.1574103981256485,"weights":{"0":-0.20572657883167267,"1":0.14244583249092102,"2":-0.14595042169094086,"3":0.003944557160139084,"4":0.03433239832520485,"5":0.1394684910774231,"6":0.12752056121826172,"7":0.0011737787863239646,"8":0.07569945603609085,"9":0.0768268033862114,"10":0.1727830320596695,"11":-0.06756894290447235,"12":0.10130447894334793,"13":-0.13481847941875458,"14":0.037667788565158844,"15":0.07669241726398468,"16":-0.20017574727535248,"17":-0.140213742852211,"18":-0.1874588429927826,"19":0.039428647607564926,"20":-0.06910437345504761,"21":-0.09546942263841629,"22":0.12825307250022888,"23":0.053397223353385925,"24":-0.07878187298774719,"25":0.011420289985835552,"26":-0.10780086368322372,"27":0.10973966866731644,"28":-0.04894744232296944,"29":-0.13217853009700775,"30":-0.14263640344142914,"31":-0.08795293420553207,"32":-0.19008468091487885,"33":-0.009314324706792831,"34":-0.038528211414813995,"35":0.015840163454413414,"36":-0.11096811294555664,"37":-0.17987209558486938,"38":-0.024255797266960144,"39":0.0014912727056071162,"40":0.003024424659088254,"41":0.16071061789989471,"42":0.21043214201927185,"43":-0.20749038457870483,"44":-0.186942920088768,"45":0.1394796520471573,"46":-0.07685969024896622,"47":0.0476769395172596,"48":-0.10687310993671417,"49":0.13476915657520294,"50":0.01949521340429783,"51":0.12757278978824615,"52":0.06328875571489334,"53":0.08082608133554459,"54":-0.03420885279774666,"55":-0.12073633074760437,"56":0.010139081627130508,"57":-0.043997347354888916,"58":-0.17586500942707062,"59":0.022542299702763557,"60":0.013015207834541798,"61":-0.07360464334487915,"62":-0.020613307133316994,"63":0.18098010122776031,"64":0.37876033782958984,"65":0.010899052955210209,"66":-0.0740618109703064,"67":0.16104929149150848,"68":0.1570572555065155,"69":-0.009382890537381172,"70":-0.11860066652297974,"71":-0.04003686085343361,"72":0.01292167603969574,"73":-0.18307094275951385,"74":0.09575770795345306,"75":0.07125401496887207,"76":-0.08696363121271133,"77":0.1547873318195343,"78":-0.08566486835479736,"79":0.08114359527826309,"80":-0.11374618113040924,"81":0.11577752977609634,"82":0.07212945818901062,"83":0.09171596169471741,"84":-0.17552140355110168,"85":-0.15094535052776337,"86":0.04393637552857399,"87":0.28388330340385437,"88":0.1635502725839615,"89":0.05171076953411102,"90":-0.008725816383957863,"91":0.018778732046484947,"92":0.12321799248456955,"93":-0.1730869710445404,"94":-0.19617576897144318,"95":-0.06169622018933296,"96":0.1591717153787613,"97":-0.051122747361660004,"98":0.09432682394981384,"99":0.07590173184871674,"100":-0.14224909245967865,"101":0.012668946757912636,"102":0.13712367415428162,"103":-0.12846438586711884,"104":0.021280134096741676,"105":-0.05823483690619469,"106":0.1166461855173111,"107":-0.0085675660520792,"108":-0.016482427716255188,"109":-0.07238341122865677,"110":-0.005316113121807575,"111":0.13200123608112335,"112":0.01881890371441841,"113":0.11684222519397736,"114":0.09345269203186035}},"20":{"bias":-0.02151799574494362,"weights":{"0":-0.0422460176050663,"1":0.1643185019493103,"2":-0.14785905182361603,"3":0.05977322906255722,"4":0.008732077665627003,"5":0.04016466438770294,"6":-0.10431265085935593,"7":-0.19560621678829193,"8":-0.18171589076519012,"9":-0.12303146719932556,"10":0.06692932546138763,"11":-0.04436446726322174,"12":0.0740298330783844,"13":-0.014191268011927605,"14":-0.10367272794246674,"15":-0.039194170385599136,"16":0.10635097324848175,"17":-0.1889728456735611,"18":-0.1735614687204361,"19":-0.06903276592493057,"20":0.18722330033779144,"21":0.08568605780601501,"22":0.18141737580299377,"23":-0.17755866050720215,"24":-0.12132693827152252,"25":-0.008104696869850159,"26":0.011144683696329594,"27":0.001988328294828534,"28":-0.00569180166348815,"29":0.03199157863855362,"30":-0.047816209495067596,"31":0.1254132091999054,"32":-0.09591124206781387,"33":-0.12549926340579987,"34":0.03617759793996811,"35":0.04275098070502281,"36":0.030808161944150925,"37":-0.12391656637191772,"38":0.12479622662067413,"39":0.05313127487897873,"40":0.000017915890566655435,"41":-0.18364867568016052,"42":0.1531197726726532,"43":-0.04781379550695419,"44":-0.10691162198781967,"45":0.17627960443496704,"46":0.17508049309253693,"47":0.08069369196891785,"48":-0.1548706442117691,"49":0.12629924714565277,"50":-0.021145908161997795,"51":0.021148670464754105,"52":0.0012922186870127916,"53":-0.07079712301492691,"54":0.1464155614376068,"55":-0.1011490598320961,"56":0.046916794031858444,"57":-0.1850614696741104,"58":-0.2380816489458084,"59":-0.06852184981107712,"60":-0.09370299428701401,"61":0.08104025572538376,"62":0.1076967641711235,"63":-0.07804787158966064,"64":-0.13387207686901093,"65":0.021502403542399406,"66":0.13388918340206146,"67":0.09120391309261322,"68":-0.11080941557884216,"69":0.0170024074614048,"70":-0.09809263050556183,"71":0.09746141731739044,"72":-0.07113824784755707,"73":-0.11158345639705658,"74":-0.15805195271968842,"75":-0.09358778595924377,"76":-0.044436320662498474,"77":0.10331444442272186,"78":0.07524523884057999,"79":-0.0172136053442955,"80":-0.06323744356632233,"81":0.13228850066661835,"82":-0.11566828936338425,"83":-0.14222502708435059,"84":-0.07968006283044815,"85":-0.08786197006702423,"86":0.19069159030914307,"87":-0.06574048101902008,"88":0.024450130760669708,"89":-0.07561282068490982,"90":-0.15932872891426086,"91":-0.00604169350117445,"92":-0.19817523658275604,"93":-0.08120477944612503,"94":0.0901440903544426,"95":0.05573924630880356,"96":-0.1780901700258255,"97":-0.12249714136123657,"98":0.023223601281642914,"99":-0.09328829497098923,"100":-0.11137339472770691,"101":0.06765148788690567,"102":0.14513148367404938,"103":0.1218588575720787,"104":-0.054062001407146454,"105":-0.17955493927001953,"106":0.018309133127331734,"107":-0.11369188129901886,"108":0.12337640672922134,"109":-0.11099140346050262,"110":0.1472310721874237,"111":0.12785349786281586,"112":-0.1194150522351265,"113":-0.03383699432015419,"114":0.19256006181240082}},"21":{"bias":-0.005169029347598553,"weights":{"0":0.18062114715576172,"1":-0.13498754799365997,"2":-0.10022373497486115,"3":-0.0011667166836559772,"4":-0.10867321491241455,"5":-0.02592519298195839,"6":-0.0892995297908783,"7":-0.16096802055835724,"8":0.18083712458610535,"9":-0.01942175067961216,"10":-0.1885162740945816,"11":-0.15056394040584564,"12":0.04587250202894211,"13":0.11147090792655945,"14":-0.05730772018432617,"15":-0.14496147632598877,"16":-0.13339699804782867,"17":-0.046517230570316315,"18":0.09135188907384872,"19":-0.19612500071525574,"20":-0.05177190527319908,"21":0.151138037443161,"22":0.04563668742775917,"23":0.02066047303378582,"24":0.2047366052865982,"25":-0.05350322276353836,"26":-0.0782502219080925,"27":0.1224898248910904,"28":0.17373977601528168,"29":-0.013538180850446224,"30":-0.10241612792015076,"31":0.10106425732374191,"32":-0.10427911579608917,"33":0.1368710994720459,"34":-0.035039227455854416,"35":0.14526279270648956,"36":0.18979541957378387,"37":0.1089845523238182,"38":-0.03796696662902832,"39":-0.09679204225540161,"40":-0.042727548629045486,"41":0.16533882915973663,"42":0.0811220332980156,"43":0.02785257063806057,"44":-0.03515506163239479,"45":-0.06868549436330795,"46":-0.07372137159109116,"47":0.15728992223739624,"48":0.254675030708313,"49":-0.0006473807734437287,"50":-0.11757874488830566,"51":0.16914379596710205,"52":-0.2738315165042877,"53":-0.4231886565685272,"54":-0.3537430763244629,"55":0.18199189007282257,"56":-0.061001259833574295,"57":0.1195107102394104,"58":0.07099407911300659,"59":0.05852993577718735,"60":-0.14288929104804993,"61":-0.18425612151622772,"62":0.032637350261211395,"63":-0.0817008689045906,"64":0.2772001326084137,"65":-0.022112390026450157,"66":-0.1433829665184021,"67":0.06301102787256241,"68":-0.07730303704738617,"69":0.13235467672348022,"70":-0.08887524157762527,"71":-0.10965731739997864,"72":0.05583447962999344,"73":-0.06269712746143341,"74":0.177201509475708,"75":0.0029466249980032444,"76":-0.2646602690219879,"77":0.0842990055680275,"78":0.09256768971681595,"79":-0.07960198819637299,"80":-0.08183608949184418,"81":-0.01427938137203455,"82":0.13971665501594543,"83":0.07239186763763428,"84":-0.16147786378860474,"85":-0.029561715200543404,"86":0.00991862267255783,"87":0.184564471244812,"88":-0.10531430691480637,"89":0.08970629423856735,"90":-0.07834253460168839,"91":-0.03845151886343956,"92":-0.0846778154373169,"93":0.13642597198486328,"94":-0.01850544475018978,"95":-0.14489001035690308,"96":0.09428291022777557,"97":0.14772596955299377,"98":-0.17439422011375427,"99":-0.036605916917324066,"100":-0.024983786046504974,"101":0.19650286436080933,"102":0.11162478476762772,"103":0.19197551906108856,"104":-0.1050473153591156,"105":0.14407309889793396,"106":0.15391495823860168,"107":-0.04722299799323082,"108":-0.056567512452602386,"109":-0.18693958222866058,"110":-0.12692193686962128,"111":0.10495448112487793,"112":0.10137035697698593,"113":0.20145994424819946,"114":-0.19633445143699646}},"22":{"bias":0.10349835455417633,"weights":{"0":0.05072904750704765,"1":0.006201835349202156,"2":-0.18909643590450287,"3":0.04141592979431152,"4":0.11453161388635635,"5":-0.044043440371751785,"6":0.09173344820737839,"7":0.18912602961063385,"8":0.018732992932200432,"9":0.1436368077993393,"10":0.13629122078418732,"11":-0.1796746402978897,"12":-0.05830037593841553,"13":0.13869433104991913,"14":-0.1538897007703781,"15":0.14291216433048248,"16":-0.17809252440929413,"17":-0.08080971986055374,"18":-0.05853873863816261,"19":0.023684922605752945,"20":0.1326390951871872,"21":0.1416032761335373,"22":-0.14474345743656158,"23":0.2070889174938202,"24":0.2549024820327759,"25":-0.05423469841480255,"26":0.11122789233922958,"27":-0.11817534267902374,"28":-0.03785087913274765,"29":-0.03369280695915222,"30":-0.09021253883838654,"31":-0.05521475151181221,"32":0.03305096551775932,"33":-0.13612575829029083,"34":0.1846480816602707,"35":-0.17566527426242828,"36":-0.039478693157434464,"37":-0.036148399114608765,"38":-0.19029824435710907,"39":-0.022155504673719406,"40":-0.18055103719234467,"41":0.1279713213443756,"42":0.055608563125133514,"43":0.026845380663871765,"44":-0.10668402165174484,"45":-0.07341381162405014,"46":0.22901500761508942,"47":0.4365999102592468,"48":0.23585821688175201,"49":0.23075400292873383,"50":-0.16920648515224457,"51":0.04820781573653221,"52":-0.3305118680000305,"53":-0.3173893988132477,"54":-0.2563144564628601,"55":0.18973492085933685,"56":0.02390425279736519,"57":-0.1612285077571869,"58":-0.27001315355300903,"59":-0.3007350564002991,"60":-0.3104932904243469,"61":-0.009058519266545773,"62":0.03925323486328125,"63":-0.03729328140616417,"64":0.22755351662635803,"65":0.2541596591472626,"66":0.1668989509344101,"67":0.040616922080516815,"68":0.036316052079200745,"69":0.19753368198871613,"70":0.2188124656677246,"71":0.05808820575475693,"72":0.1821494698524475,"73":0.13108812272548676,"74":-0.01585286110639572,"75":-0.28454476594924927,"76":-0.0954502746462822,"77":-0.18335609138011932,"78":0.039468687027692795,"79":0.01860073208808899,"80":-0.18455831706523895,"81":-0.10056328028440475,"82":-0.24072591960430145,"83":0.18701152503490448,"84":-0.11069151014089584,"85":-0.09870656579732895,"86":0.2116829752922058,"87":0.33300209045410156,"88":-0.03392209857702255,"89":-0.0758010521531105,"90":-0.1830148845911026,"91":0.004578569438308477,"92":0.017938733100891113,"93":0.09385676681995392,"94":-0.09362714737653732,"95":0.1313047856092453,"96":-0.0667574480175972,"97":0.1144011989235878,"98":0.037890005856752396,"99":-0.08318676799535751,"100":-0.18503911793231964,"101":0.13517554104328156,"102":-0.040332477539777756,"103":-0.20474661886692047,"104":-0.17118363082408905,"105":0.14221049845218658,"106":0.19272954761981964,"107":-0.02690364047884941,"108":0.14109961688518524,"109":0.1844324916601181,"110":-0.11901430040597916,"111":0.0032498447690159082,"112":0.0956997498869896,"113":-0.15205790102481842,"114":-0.19952978193759918}},"23":{"bias":-0.07497154176235199,"weights":{"0":-0.1599893718957901,"1":-0.007540870923548937,"2":0.014338691718876362,"3":0.09200910478830338,"4":0.0416700579226017,"5":-0.11936906725168228,"6":-0.10639900714159012,"7":-0.19596244394779205,"8":-0.03258618339896202,"9":-0.1953718215227127,"10":-0.1775805950164795,"11":0.15226861834526062,"12":0.08659405261278152,"13":0.1875385344028473,"14":-0.1358782798051834,"15":-0.15470802783966064,"16":0.04053865745663643,"17":-0.0777694582939148,"18":-0.13027454912662506,"19":-0.02352277934551239,"20":0.15621605515480042,"21":0.1639033854007721,"22":-0.012895398773252964,"23":0.031549789011478424,"24":0.1742052286863327,"25":-0.004864708986133337,"26":0.0909656286239624,"27":-0.1761464923620224,"28":-0.12971071898937225,"29":-0.06001456454396248,"30":-0.14190958440303802,"31":0.06584122031927109,"32":-0.010076799429953098,"33":0.12386605888605118,"34":0.08343584835529327,"35":-0.2497534155845642,"36":0.05162712186574936,"37":0.026407552883028984,"38":0.15621843934059143,"39":0.12232103943824768,"40":0.04822632297873497,"41":0.1519933044910431,"42":0.055764272809028625,"43":0.020705705508589745,"44":0.0024284205865114927,"45":-0.034760501235723495,"46":-0.14555971324443817,"47":0.12467040866613388,"48":0.10658130794763565,"49":0.1757546067237854,"50":0.07158847153186798,"51":0.1080784797668457,"52":0.07422946393489838,"53":-0.12851622700691223,"54":-0.13106054067611694,"55":-0.18825240433216095,"56":-0.1715242564678192,"57":0.1817050576210022,"58":-0.2616792619228363,"59":-0.023357849568128586,"60":-0.02474774792790413,"61":-0.0255818422883749,"62":-0.12260019034147263,"63":0.05027107149362564,"64":-0.09682317078113556,"65":0.027688490226864815,"66":-0.16100053489208221,"67":0.10127488523721695,"68":-0.1307140737771988,"69":-0.016493452712893486,"70":0.0888991430401802,"71":0.10802644491195679,"72":-0.05079116299748421,"73":-0.08776630461215973,"74":0.13490769267082214,"75":0.013459195382893085,"76":-0.09558289498090744,"77":0.02616143971681595,"78":0.08877000212669373,"79":0.14844869077205658,"80":-0.05386543646454811,"81":-0.054215721786022186,"82":0.14219637215137482,"83":0.09485286474227905,"84":0.11019616574048996,"85":-0.10915247350931168,"86":-0.14055857062339783,"87":-0.05661457031965256,"88":0.038183342665433884,"89":0.1654883325099945,"90":-0.13697472214698792,"91":-0.04371001943945885,"92":-0.10164671391248703,"93":-0.13571105897426605,"94":0.11911603808403015,"95":-0.10487101972103119,"96":0.17390340566635132,"97":0.07490096241235733,"98":0.041674789041280746,"99":0.14385302364826202,"100":0.15884901583194733,"101":-0.1946084052324295,"102":0.19194172322750092,"103":-0.03922117128968239,"104":0.1038193628191948,"105":-0.03896624222397804,"106":-0.1750577837228775,"107":-0.059218406677246094,"108":0.1280706375837326,"109":-0.08599460870027542,"110":0.07685869932174683,"111":-0.029206885024905205,"112":-0.12950842082500458,"113":0.04081161320209503,"114":-0.18550808727741241}},"24":{"bias":-0.03310215473175049,"weights":{"0":-0.032125573605298996,"1":0.15246017277240753,"2":0.05881362035870552,"3":0.16867344081401825,"4":0.16502197086811066,"5":-0.048602331429719925,"6":-0.16075274348258972,"7":0.028260596096515656,"8":0.12003026157617569,"9":-0.18264511227607727,"10":0.1631692498922348,"11":-0.08475521951913834,"12":0.12103357166051865,"13":0.01662915199995041,"14":0.08104947954416275,"15":0.07097727805376053,"16":-0.08984989672899246,"17":-0.0934719368815422,"18":0.09426099807024002,"19":-0.1734938621520996,"20":0.17419415712356567,"21":-0.12315718084573746,"22":0.1233169361948967,"23":0.040823958814144135,"24":-0.10689443349838257,"25":-0.047584205865859985,"26":0.05349866673350334,"27":-0.007017130497843027,"28":-0.025646422058343887,"29":-0.192787766456604,"30":-0.05943973362445831,"31":-0.07849138230085373,"32":-0.14410419762134552,"33":-0.07403068989515305,"34":0.08720671385526657,"35":0.11486932635307312,"36":0.10269352793693542,"37":0.08183317631483078,"38":-0.11564012616872787,"39":-0.13351942598819733,"40":0.11348497867584229,"41":0.07449168711900711,"42":-0.02423115260899067,"43":0.011720269918441772,"44":-0.14847102761268616,"45":-0.17736923694610596,"46":0.026280542835593224,"47":-0.37978047132492065,"48":0.008119866251945496,"49":-0.1561175286769867,"50":0.20063668489456177,"51":-0.0461382158100605,"52":0.14736856520175934,"53":-0.11589246243238449,"54":-0.059208232909440994,"55":-0.17076534032821655,"56":-0.07963868230581284,"57":0.08858078718185425,"58":0.30218076705932617,"59":0.4177577793598175,"60":0.10164768248796463,"61":-0.1389567255973816,"62":0.08932439237833023,"63":-0.15069632232189178,"64":-0.16464731097221375,"65":-0.2007754147052765,"66":0.0007774826954118907,"67":-0.0880751684308052,"68":0.08959022909402847,"69":-0.13641034066677094,"70":0.034602537751197815,"71":-0.08409258723258972,"72":-0.1710761934518814,"73":0.0966571643948555,"74":-0.19140593707561493,"75":-0.1346973031759262,"76":0.05218540504574776,"77":-0.045270416885614395,"78":0.18295341730117798,"79":0.08820832520723343,"80":-0.0333433635532856,"81":0.16288651525974274,"82":0.06655121594667435,"83":0.10932473093271255,"84":-0.03759686276316643,"85":-0.18087869882583618,"86":-0.19443438947200775,"87":0.04073072597384453,"88":0.10165166854858398,"89":0.0470195971429348,"90":-0.18766164779663086,"91":0.1924988031387329,"92":-0.036510635167360306,"93":0.05283261463046074,"94":0.12517955899238586,"95":0.046910468488931656,"96":0.13054248690605164,"97":0.17172610759735107,"98":-0.0781518891453743,"99":0.1149682030081749,"100":0.10237950831651688,"101":0.03119523823261261,"102":-0.04738472029566765,"103":-0.09908635169267654,"104":-0.06047492474317551,"105":0.0051461090333759785,"106":0.20358677208423615,"107":0.13734009861946106,"108":0.032436471432447433,"109":-0.11146218329668045,"110":0.060622308403253555,"111":0.029933784157037735,"112":0.11773998290300369,"113":-0.1323886215686798,"114":0.18938016891479492}},"25":{"bias":-0.043114058673381805,"weights":{"0":0.06970591843128204,"1":0.014419849961996078,"2":-0.10540834069252014,"3":0.07679213583469391,"4":-0.04332813620567322,"5":-0.16729936003684998,"6":-0.13938581943511963,"7":0.0023629851639270782,"8":-0.2022574543952942,"9":0.13676702976226807,"10":0.030174298211932182,"11":0.024733593687415123,"12":-0.10518160462379456,"13":-0.2057129442691803,"14":0.15031728148460388,"15":-0.15944309532642365,"16":-0.00524501409381628,"17":-0.09398777782917023,"18":0.15384913980960846,"19":0.09134362637996674,"20":-0.08566541969776154,"21":-0.08672918379306793,"22":-0.12258060276508331,"23":-0.00307141849771142,"24":0.13797591626644135,"25":0.3031926453113556,"26":-0.03226194903254509,"27":0.0025716647505760193,"28":-0.1283232420682907,"29":0.21731582283973694,"30":0.2454672008752823,"31":0.16826669871807098,"32":-0.15441516041755676,"33":-0.15750698745250702,"34":0.038709886372089386,"35":-0.19132199883460999,"36":-0.16187609732151031,"37":0.14750710129737854,"38":0.007601654157042503,"39":0.1194383054971695,"40":-0.035765256732702255,"41":0.10384062677621841,"42":-0.1277344971895218,"43":0.17112991213798523,"44":-0.0762968361377716,"45":0.09268121421337128,"46":0.051956892013549805,"47":0.484390527009964,"48":0.13061903417110443,"49":-0.13364723324775696,"50":-0.17160353064537048,"51":0.06769008934497833,"52":0.09039346873760223,"53":0.28705209493637085,"54":0.13112057745456696,"55":-0.0068007661029696465,"56":-0.07140675187110901,"57":0.049941208213567734,"58":-0.5167747735977173,"59":-0.481413871049881,"60":-0.22695088386535645,"61":0.11732107400894165,"62":0.18500839173793793,"63":-0.22663997113704681,"64":-0.18179091811180115,"65":0.008200653828680515,"66":-0.14647333323955536,"67":0.10653646290302277,"68":0.09348547458648682,"69":0.20918862521648407,"70":0.234798863530159,"71":0.13662898540496826,"72":0.18379078805446625,"73":-0.13409219682216644,"74":-0.08717599511146545,"75":0.20553240180015564,"76":0.27108290791511536,"77":-0.010476767085492611,"78":0.07552765309810638,"79":0.16169922053813934,"80":0.16741742193698883,"81":-0.12488042563199997,"82":-0.04248904809355736,"83":-0.11877217888832092,"84":0.11345912516117096,"85":-0.17708472907543182,"86":-0.2661804258823395,"87":0.014365113340318203,"88":-0.14074458181858063,"89":0.17939086258411407,"90":-0.11766019463539124,"91":0.040499016642570496,"92":-0.20556941628456116,"93":-0.19157421588897705,"94":0.08244048058986664,"95":0.12083044648170471,"96":-0.20166456699371338,"97":-0.20162424445152283,"98":-0.06827346980571747,"99":0.12790636718273163,"100":-0.11806489527225494,"101":-0.11677467823028564,"102":-0.03028142638504505,"103":0.044270969927310944,"104":-0.045233093202114105,"105":-0.10372467339038849,"106":0.13619060814380646,"107":-0.03383733332157135,"108":0.10591940581798553,"109":-0.15999966859817505,"110":0.11270995438098907,"111":0.16779233515262604,"112":-0.0697706788778305,"113":0.12381882965564728,"114":0.1491253674030304}},"26":{"bias":-0.08231018483638763,"weights":{"0":-0.07489509880542755,"1":-0.1678970754146576,"2":0.06496977061033249,"3":0.074918732047081,"4":0.1764276623725891,"5":0.12484946101903915,"6":0.037179894745349884,"7":-0.08201435208320618,"8":-0.015935951843857765,"9":0.08397869765758514,"10":-0.036810919642448425,"11":0.18282032012939453,"12":-0.1643681526184082,"13":0.05770495533943176,"14":-0.12536466121673584,"15":0.08954447507858276,"16":-0.04581946134567261,"17":-0.13058674335479736,"18":-0.19298768043518066,"19":0.14812323451042175,"20":-0.09285621345043182,"21":0.13546739518642426,"22":0.025645069777965546,"23":0.06693416088819504,"24":-0.05941524729132652,"25":0.21525274217128754,"26":-0.1363186240196228,"27":0.19238507747650146,"28":0.12158668041229248,"29":0.013652087189257145,"30":0.24560688436031342,"31":0.21944960951805115,"32":-0.10343137383460999,"33":-0.044984862208366394,"34":0.12239649146795273,"35":-0.08616381883621216,"36":-0.10340573638677597,"37":-0.14222195744514465,"38":0.035524845123291016,"39":-0.05379858613014221,"40":0.03705354779958725,"41":-0.1412108838558197,"42":-0.00014619805733673275,"43":-0.10223525762557983,"44":-0.12681643664836884,"45":-0.11336009204387665,"46":0.16574427485466003,"47":0.10420248657464981,"48":0.14903077483177185,"49":0.0576760433614254,"50":0.11971014738082886,"51":-0.013992286287248135,"52":0.2497071474790573,"53":0.34398460388183594,"54":0.04593893885612488,"55":-0.15312805771827698,"56":-0.10582378506660461,"57":-0.008350756950676441,"58":-0.3102196156978607,"59":-0.34995725750923157,"60":0.11792061477899551,"61":0.18655547499656677,"62":-0.1931694746017456,"63":-0.09302595257759094,"64":-0.3840498924255371,"65":-0.21098122000694275,"66":0.09125405550003052,"67":-0.15933635830879211,"68":0.15358424186706543,"69":-0.09526553004980087,"70":0.13190628588199615,"71":0.1501438319683075,"72":-0.10757744312286377,"73":-0.09374693036079407,"74":0.15555760264396667,"75":0.189134880900383,"76":0.3343842923641205,"77":0.00979167502373457,"78":0.16576465964317322,"79":0.15402373671531677,"80":0.14356783032417297,"81":0.03338397666811943,"82":0.043836530297994614,"83":-0.0034242153633385897,"84":-0.028466371819376945,"85":-0.11081850528717041,"86":-0.09318877011537552,"87":-0.08282572776079178,"88":-0.13088315725326538,"89":-0.08759492635726929,"90":0.035255517810583115,"91":0.06018814072012901,"92":-0.11805520951747894,"93":0.016119210049510002,"94":0.004643768072128296,"95":-0.01995694637298584,"96":-0.04154844582080841,"97":0.04866652190685272,"98":-0.07227043807506561,"99":-0.15142172574996948,"100":0.0618416927754879,"101":-0.05474972724914551,"102":0.19188448786735535,"103":0.07255734503269196,"104":-0.03236015886068344,"105":0.16708028316497803,"106":0.01780315302312374,"107":-0.15598002076148987,"108":0.09129570424556732,"109":0.11902618408203125,"110":-0.1906849443912506,"111":-0.15146338939666748,"112":-0.009987053461372852,"113":-0.19749388098716736,"114":-0.17937302589416504}},"27":{"bias":-0.15149255096912384,"weights":{"0":-0.05756140872836113,"1":-0.1052873432636261,"2":0.17673209309577942,"3":-0.1831892430782318,"4":-0.09250035881996155,"5":0.04535279422998428,"6":0.012961515225470066,"7":-0.12597770988941193,"8":-0.16744980216026306,"9":0.04419730603694916,"10":-0.1807527244091034,"11":-0.18402546644210815,"12":0.1557925045490265,"13":-0.20937800407409668,"14":0.074184350669384,"15":0.12441571056842804,"16":0.08451862633228302,"17":-0.20152196288108826,"18":0.15444865822792053,"19":0.10721556842327118,"20":0.07614821195602417,"21":-0.08711140602827072,"22":0.12735803425312042,"23":0.17823734879493713,"24":0.13557212054729462,"25":0.18183568120002747,"26":0.09475494176149368,"27":-0.17835578322410583,"28":-0.016889862716197968,"29":-0.0027604540809988976,"30":-0.14284801483154297,"31":0.004183096811175346,"32":-0.050570324063301086,"33":0.09074252098798752,"34":-0.004735116846859455,"35":-0.1906275600194931,"36":0.16183969378471375,"37":0.0021977864671498537,"38":-0.15803900361061096,"39":-0.1811947226524353,"40":0.08818095922470093,"41":0.10520818829536438,"42":-0.08076487481594086,"43":-0.10383376479148865,"44":-0.1427983045578003,"45":0.058114901185035706,"46":0.2667340040206909,"47":0.32980576157569885,"48":0.33086445927619934,"49":-0.14098553359508514,"50":-0.06125489994883537,"51":0.11481474339962006,"52":-0.6152201294898987,"53":-0.6079785823822021,"54":-0.2886476516723633,"55":0.03216804936528206,"56":0.1505100131034851,"57":-0.0780022069811821,"58":-0.03549724817276001,"59":0.1591208428144455,"60":-0.07418043166399002,"61":-0.03152552619576454,"62":-0.17362919449806213,"63":0.33512094616889954,"64":0.45351001620292664,"65":0.3047497868537903,"66":0.054722823202610016,"67":0.08398967981338501,"68":0.11225753277540207,"69":0.14179718494415283,"70":-0.03632894903421402,"71":0.2746832072734833,"72":-0.11598636209964752,"73":0.07381251454353333,"74":0.1484018862247467,"75":-0.3736652731895447,"76":-0.28287675976753235,"77":-0.19495083391666412,"78":-0.06870274990797043,"79":0.16449591517448425,"80":-0.005452083423733711,"81":0.04945719614624977,"82":0.020670125260949135,"83":-0.025134943425655365,"84":-0.1429295837879181,"85":-0.1329919993877411,"86":0.17642952501773834,"87":0.1690925657749176,"88":0.1609925776720047,"89":-0.006793736480176449,"90":0.05143757164478302,"91":0.07597631216049194,"92":0.03772576153278351,"93":0.12021490186452866,"94":-0.1496765911579132,"95":-0.17288094758987427,"96":-0.1916021704673767,"97":-0.17843061685562134,"98":-0.07896854728460312,"99":-0.19551783800125122,"100":0.07886815816164017,"101":0.07463639229536057,"102":0.05928576737642288,"103":0.14080026745796204,"104":0.0031285679433494806,"105":-0.17254507541656494,"106":-0.10946988314390182,"107":0.12303631752729416,"108":0.0017324030632153153,"109":-0.0955522358417511,"110":0.18214741349220276,"111":-0.015068012289702892,"112":0.18643593788146973,"113":-0.07305559515953064,"114":0.06091303005814552}},"28":{"bias":-0.042435113340616226,"weights":{"0":0.12289848923683167,"1":0.17328675091266632,"2":0.12645690143108368,"3":-0.15928077697753906,"4":-0.15652690827846527,"5":-0.07972370088100433,"6":-0.10305917263031006,"7":0.11968635022640228,"8":-0.06217826157808304,"9":0.17424695193767548,"10":-0.017042171210050583,"11":-0.11611348390579224,"12":-0.21394816040992737,"13":-0.19100016355514526,"14":0.17908644676208496,"15":0.07866309583187103,"16":0.015908459201455116,"17":0.0900915265083313,"18":-0.09796015918254852,"19":-0.03674275800585747,"20":0.14451003074645996,"21":0.10835184156894684,"22":0.16478194296360016,"23":-0.18445086479187012,"24":-0.2407286912202835,"25":-0.10855706036090851,"26":0.008640462532639503,"27":0.057639095932245255,"28":-0.012666682712733746,"29":-0.20314756035804749,"30":-0.10704374313354492,"31":-0.14223244786262512,"32":-0.052091989666223526,"33":0.07073293626308441,"34":0.11245164275169373,"35":0.14728806912899017,"36":-0.03840130567550659,"37":-0.13919667899608612,"38":0.1391940861940384,"39":-0.12521393597126007,"40":0.08767339587211609,"41":0.20875832438468933,"42":0.23012718558311462,"43":0.0999981015920639,"44":-0.10792289674282074,"45":0.13812382519245148,"46":-0.0525740310549736,"47":-0.08920004218816757,"48":-0.11017635464668274,"49":0.06313871592283249,"50":0.045866962522268295,"51":-0.12472536414861679,"52":-0.0262961033731699,"53":0.08370140194892883,"54":0.11576443165540695,"55":0.12281259894371033,"56":0.045931342989206314,"57":-0.1938050389289856,"58":0.0025831684470176697,"59":-0.07376769185066223,"60":0.13498741388320923,"61":-0.0788823664188385,"62":-0.11034660041332245,"63":-0.0763428807258606,"64":0.3577462434768677,"65":0.09842371195554733,"66":-0.004340030252933502,"67":-0.010303535498678684,"68":0.0015276148915290833,"69":0.1330997496843338,"70":-0.06090114638209343,"71":-0.0705275684595108,"72":-0.04379288852214813,"73":-0.04375401511788368,"74":0.13129422068595886,"75":0.008350478485226631,"76":0.02161845937371254,"77":0.0024359049275517464,"78":0.09059897065162659,"79":0.03687446191906929,"80":-0.009459462948143482,"81":0.2020253986120224,"82":0.12961387634277344,"83":-0.09889775514602661,"84":0.12941710650920868,"85":0.14714443683624268,"86":0.07286813855171204,"87":0.16672678291797638,"88":0.19931429624557495,"89":-0.001724923262372613,"90":-0.12279199063777924,"91":-0.16758954524993896,"92":-0.18274807929992676,"93":0.017745042219758034,"94":-0.060563962906599045,"95":-0.159596785902977,"96":-0.13229990005493164,"97":-0.1801840364933014,"98":-0.04056331142783165,"99":0.08301229774951935,"100":-0.2070135772228241,"101":0.10858042538166046,"102":0.14439669251441956,"103":0.029288798570632935,"104":0.17426446080207825,"105":-0.06634396314620972,"106":-0.02084653079509735,"107":-0.07431629300117493,"108":0.015414898283779621,"109":-0.07574953138828278,"110":0.0030809056479483843,"111":-0.1156262457370758,"112":-0.11602039635181427,"113":0.010138819925487041,"114":0.10035274922847748}},"29":{"bias":-0.0154660539701581,"weights":{"0":-0.09140366315841675,"1":-0.05168120563030243,"2":0.198184534907341,"3":-0.06874218583106995,"4":-0.0876750499010086,"5":0.16904689371585846,"6":0.0122353695333004,"7":0.04317883402109146,"8":0.11529402434825897,"9":0.12546145915985107,"10":-0.18821100890636444,"11":-0.10461115837097168,"12":-0.15514691174030304,"13":-0.19251008331775665,"14":-0.04067295789718628,"15":0.016191337257623672,"16":-0.01533450372517109,"17":0.1643737405538559,"18":-0.024972837418317795,"19":-0.1251748651266098,"20":-0.09473343193531036,"21":-0.00283363601192832,"22":0.13378633558750153,"23":0.189386785030365,"24":0.3242310583591461,"25":0.04375198855996132,"26":-0.015602710656821728,"27":0.08744485676288605,"28":-0.14476491510868073,"29":0.12801502645015717,"30":-0.05293386057019234,"31":-0.03719523921608925,"32":0.11598892509937286,"33":-0.15000341832637787,"34":-0.02168000116944313,"35":0.3205927312374115,"36":0.3581590950489044,"37":0.1708582192659378,"38":0.11209225654602051,"39":0.0398809015750885,"40":-0.20831404626369476,"41":-0.21933765709400177,"42":-0.1803787648677826,"43":0.18172048032283783,"44":0.01092845294624567,"45":0.0009203124791383743,"46":0.2728484570980072,"47":0.34622442722320557,"48":0.35674747824668884,"49":0.11357647180557251,"50":0.10064762830734253,"51":-0.1365901678800583,"52":-0.3750284016132355,"53":-0.3588695526123047,"54":-0.17776449024677277,"55":-0.13408486545085907,"56":-0.17649324238300323,"57":0.052322495728731155,"58":0.4868156909942627,"59":0.5639039278030396,"60":-0.017453327775001526,"61":-0.11047573387622833,"62":-0.15699656307697296,"63":-0.011350839398801327,"64":-0.25602129101753235,"65":-0.19465139508247375,"66":0.03983527421951294,"67":-0.10456427931785583,"68":-0.1548726111650467,"69":0.037179186940193176,"70":0.2643679976463318,"71":0.048311904072761536,"72":-0.033007748425006866,"73":-0.13194535672664642,"74":0.033958978950977325,"75":0.0002683679049368948,"76":-0.21491174399852753,"77":-0.12570467591285706,"78":0.19529666006565094,"79":-0.15577058494091034,"80":0.04840642213821411,"81":0.3047795295715332,"82":0.05566154047846794,"83":0.03720557689666748,"84":0.05381256341934204,"85":0.03141104802489281,"86":-0.03697407618165016,"87":-0.31593045592308044,"88":-0.13164889812469482,"89":0.02241457626223564,"90":-0.17183367908000946,"91":-0.18171922862529755,"92":-0.057597532868385315,"93":0.1257278323173523,"94":-0.12123569846153259,"95":0.17993058264255524,"96":-0.044138602912425995,"97":-0.08834309875965118,"98":-0.1261533945798874,"99":-0.17181788384914398,"100":0.0592503547668457,"101":-0.16377322375774384,"102":-0.1738031953573227,"103":-0.06238796189427376,"104":-0.055121682584285736,"105":0.12706579267978668,"106":0.09480191767215729,"107":0.15786446630954742,"108":-0.12393832951784134,"109":0.141351118683815,"110":0.16461624205112457,"111":0.03274056315422058,"112":-0.15037043392658234,"113":0.07025691866874695,"114":0.11453616619110107}},"30":{"bias":0.09142150729894638,"weights":{"0":0.05447554588317871,"1":0.16208703815937042,"2":-0.08316139876842499,"3":-0.06602862477302551,"4":0.07301034778356552,"5":0.0897972583770752,"6":-0.11712957173585892,"7":0.041957270354032516,"8":0.13399669528007507,"9":0.14217963814735413,"10":-0.04360606148838997,"11":0.08870720863342285,"12":-0.15702183544635773,"13":0.09081712365150452,"14":0.01619187742471695,"15":-0.10397227108478546,"16":-0.013867449015378952,"17":0.03728342056274414,"18":0.028949640691280365,"19":0.04121185466647148,"20":0.0008258247980847955,"21":0.04115801677107811,"22":-0.1583239585161209,"23":0.039116986095905304,"24":-0.20851024985313416,"25":0.11833805590867996,"26":-0.003916014917194843,"27":0.01800755225121975,"28":-0.007580943871289492,"29":0.056454047560691833,"30":0.10759207606315613,"31":-0.10327363759279251,"32":0.11161379516124725,"33":0.062021978199481964,"34":0.13932284712791443,"35":0.20245088636875153,"36":-0.11760640144348145,"37":-0.10620653629302979,"38":-0.005981429945677519,"39":0.1134837418794632,"40":-0.06754080206155777,"41":-0.03203106299042702,"42":-0.04507053643465042,"43":0.19323167204856873,"44":-0.10199187695980072,"45":-0.1049874871969223,"46":-0.03586462512612343,"47":-0.3288564085960388,"48":0.0567302331328392,"49":0.12278604507446289,"50":-0.16204851865768433,"51":-0.024541545659303665,"52":0.1707678586244583,"53":-0.11762069910764694,"54":0.23494181036949158,"55":0.01709071360528469,"56":-0.11945990473031998,"57":-0.1649259775876999,"58":-0.1371099054813385,"59":-0.016317063942551613,"60":-0.07787131518125534,"61":-0.05027593672275543,"62":-0.06671257317066193,"63":0.10625523328781128,"64":0.27717339992523193,"65":0.03289711847901344,"66":0.05028712376952171,"67":0.017903588712215424,"68":-0.07965104281902313,"69":-0.1611901819705963,"70":-0.22782498598098755,"71":-0.06475341320037842,"72":0.08545128256082535,"73":0.11824637651443481,"74":0.12106850743293762,"75":-0.10833955556154251,"76":0.13228455185890198,"77":0.0032881733495742083,"78":0.09430995583534241,"79":-0.09533239901065826,"80":-0.09552209079265594,"81":-0.11781776696443558,"82":-0.1534382700920105,"83":0.20337200164794922,"84":0.07674732059240341,"85":-0.05275851488113403,"86":-0.06904777139425278,"87":0.2421601116657257,"88":-0.145457923412323,"89":0.0011753042927011847,"90":-0.15463998913764954,"91":-0.15492947399616241,"92":-0.004424557089805603,"93":-0.027049211785197258,"94":0.11900003254413605,"95":-0.03310181573033333,"96":0.03517694026231766,"97":0.09010826051235199,"98":-0.13790664076805115,"99":0.013318216428160667,"100":-0.148879274725914,"101":0.11004661023616791,"102":0.045755110681056976,"103":0.1663094460964203,"104":-0.07016626000404358,"105":-0.14514219760894775,"106":-0.015562237240374088,"107":-0.062421176582574844,"108":0.21811899542808533,"109":0.1790311485528946,"110":0.20633864402770996,"111":-0.12469951063394547,"112":0.021595913916826248,"113":-0.10005052387714386,"114":-0.1537780463695526}},"31":{"bias":0.1157667264342308,"weights":{"0":-0.07674999535083771,"1":-0.10768620669841766,"2":0.061553433537483215,"3":0.1781090646982193,"4":0.09630393981933594,"5":0.045177336782217026,"6":-0.05852290615439415,"7":0.06025448068976402,"8":0.15806202590465546,"9":0.13146628439426422,"10":-0.031819723546504974,"11":-0.058157917112112045,"12":-0.05338691547513008,"13":-0.20114104449748993,"14":-0.030180728062987328,"15":-0.03410926088690758,"16":0.15808089077472687,"17":-0.029770033434033394,"18":-0.15458814799785614,"19":0.10166135430335999,"20":0.17922024428844452,"21":-0.20798726379871368,"22":-0.06521743535995483,"23":0.07721161842346191,"24":0.12416835129261017,"25":-0.046339284628629684,"26":0.01749330200254917,"27":0.07189798355102539,"28":-0.17503757774829865,"29":-0.005097602494060993,"30":0.2740771472454071,"31":-0.027667969465255737,"32":-0.15630720555782318,"33":0.047696005553007126,"34":0.06760476529598236,"35":-0.08847884088754654,"36":-0.38738447427749634,"37":-0.2047516107559204,"38":-0.18987423181533813,"39":0.12359709292650223,"40":0.09252817183732986,"41":-0.12624835968017578,"42":0.20544151961803436,"43":-0.17913006246089935,"44":0.14179834723472595,"45":-0.14786255359649658,"46":0.16856680810451508,"47":0.01083434373140335,"48":0.20238396525382996,"49":-0.1522992104291916,"50":-0.13907082378864288,"51":0.05017092451453209,"52":0.20535382628440857,"53":0.15912453830242157,"54":0.2723335921764374,"55":0.18253543972969055,"56":-0.19018441438674927,"57":-0.24945910274982452,"58":-0.2224489450454712,"59":-0.31340140104293823,"60":0.09011340886354446,"61":-0.03914695605635643,"62":0.07280534505844116,"63":-0.164229616522789,"64":-0.09331802278757095,"65":0.13779954612255096,"66":-0.0830746591091156,"67":0.15352444350719452,"68":0.0647096186876297,"69":-0.005603400524705648,"70":0.14399370551109314,"71":0.15096651017665863,"72":-0.17923204600811005,"73":0.038881730288267136,"74":0.07433237135410309,"75":0.09295107424259186,"76":0.3767105042934418,"77":0.19251616299152374,"78":-0.0835687667131424,"79":-0.10749323666095734,"80":-0.0980745404958725,"81":0.0447673499584198,"82":-0.1810646504163742,"83":-0.04502932354807854,"84":0.031466830521821976,"85":0.08477362990379333,"86":0.12402137368917465,"87":-0.1163405105471611,"88":0.022733667865395546,"89":0.1304236203432083,"90":-0.11668407917022705,"91":-0.1940767914056778,"92":-0.10768114030361176,"93":-0.11313886940479279,"94":-0.08082824945449829,"95":0.18020378053188324,"96":0.10960020124912262,"97":-0.0760408490896225,"98":0.0864647626876831,"99":-0.03785709664225578,"100":-0.18762971460819244,"101":-0.11680757999420166,"102":-0.17183203995227814,"103":-0.11645542085170746,"104":-0.016811314970254898,"105":-0.0028931766282767057,"106":0.015745364129543304,"107":0.03163452446460724,"108":0.12294033169746399,"109":-0.05645798519253731,"110":0.10045523941516876,"111":0.13642483949661255,"112":0.02887445129454136,"113":0.09614086151123047,"114":-0.00356566091068089}},"32":{"bias":-0.1788797825574875,"weights":{"0":-0.19871385395526886,"1":-0.035786330699920654,"2":-0.05715258792042732,"3":0.11738337576389313,"4":-0.10850633680820465,"5":0.13345515727996826,"6":0.09859155118465424,"7":0.08391620218753815,"8":0.08523832261562347,"9":-0.02091088704764843,"10":0.04710535705089569,"11":-0.14177565276622772,"12":0.11849022656679153,"13":0.08058804273605347,"14":0.010530381463468075,"15":0.14815545082092285,"16":-0.17558103799819946,"17":-0.1228855773806572,"18":0.09212155640125275,"19":0.020417101681232452,"20":0.002021120861172676,"21":-0.004203373566269875,"22":0.022833777591586113,"23":-0.08246387541294098,"24":0.3339335024356842,"25":0.05679444968700409,"26":-0.17973962426185608,"27":0.001778709702193737,"28":0.1716439574956894,"29":0.15542234480381012,"30":-0.20594742894172668,"31":0.048047736287117004,"32":-0.03686950355768204,"33":-0.20199595391750336,"34":-0.1113349050283432,"35":0.0017794090090319514,"36":0.33695539832115173,"37":0.054662808775901794,"38":-0.18806438148021698,"39":0.17441435158252716,"40":0.03451286628842354,"41":-0.33734190464019775,"42":-0.3076760172843933,"43":0.08532878756523132,"44":0.025655582547187805,"45":-0.1205577552318573,"46":0.2417360544204712,"47":0.31037402153015137,"48":0.33797135949134827,"49":-0.07002414017915726,"50":-0.02908945269882679,"51":0.1894361972808838,"52":-0.22249314188957214,"53":-0.2433633655309677,"54":0.07084139436483383,"55":0.08919456601142883,"56":-0.08394938707351685,"57":-0.10695686936378479,"58":0.4646478295326233,"59":0.4647785723209381,"60":0.014653156511485577,"61":-0.013561214320361614,"62":0.17387156188488007,"63":-0.09370911121368408,"64":-0.5182670950889587,"65":-0.3171498775482178,"66":-0.0312756784260273,"67":-0.10017509758472443,"68":-0.1981208175420761,"69":0.16991348564624786,"70":0.3195304870605469,"71":0.21778693795204163,"72":0.04904502257704735,"73":-0.05884770676493645,"74":0.15188004076480865,"75":-0.23702019453048706,"76":0.039650991559028625,"77":-0.1667531281709671,"78":-0.024299761280417442,"79":-0.14571531116962433,"80":0.08303925395011902,"81":0.11351025849580765,"82":0.19288155436515808,"83":0.12713728845119476,"84":0.15855319797992706,"85":0.18667006492614746,"86":-0.17920471727848053,"87":-0.2559897303581238,"88":-0.06463747471570969,"89":0.04338827729225159,"90":-0.08036080002784729,"91":-0.04473856836557388,"92":0.18858465552330017,"93":-0.06964525580406189,"94":0.1620914191007614,"95":0.18565881252288818,"96":-0.039066120982170105,"97":-0.12381160259246826,"98":-0.0326206274330616,"99":-0.13467825949192047,"100":-0.17032834887504578,"101":-0.15151084959506989,"102":-0.11373651027679443,"103":0.012308589182794094,"104":-0.11077684164047241,"105":-0.13681073486804962,"106":-0.022663647308945656,"107":-0.0025011016987264156,"108":0.09003971517086029,"109":-0.13069608807563782,"110":-0.07963903248310089,"111":-0.036995045840740204,"112":0.15266071259975433,"113":0.012467294000089169,"114":-0.10305596888065338}},"33":{"bias":0.03411996364593506,"weights":{"0":0.0695069208741188,"1":0.10592542588710785,"2":-0.009293155744671822,"3":-0.18121927976608276,"4":0.11323831975460052,"5":0.003784500528126955,"6":-0.06795106828212738,"7":0.007511721458286047,"8":-0.18326550722122192,"9":-0.10275888442993164,"10":0.06534834951162338,"11":0.15535959601402283,"12":0.037957482039928436,"13":0.1817743480205536,"14":0.1220230907201767,"15":0.16163146495819092,"16":-0.036574844270944595,"17":-0.01321004144847393,"18":-0.03946061059832573,"19":-0.05802082270383835,"20":-0.10459262132644653,"21":0.07543177902698517,"22":0.03125937283039093,"23":0.08395466953516006,