{"sizes":[115,57,4],"layers":[{"0":{},"1":{},"2":{},"3":{},"4":{},"5":{},"6":{},"7":{},"8":{},"9":{},"10":{},"11":{},"12":{},"13":{},"14":{},"15":{},"16":{},"17":{},"18":{},"19":{},"20":{},"21":{},"22":{},"23":{},"24":{},"25":{},"26":{},"27":{},"28":{},"29":{},"30":{},"31":{},"32":{},"33":{},"34":{},"35":{},"36":{},"37":{},"38":{},"39":{},"40":{},"41":{},"42":{},"43":{},"44":{},"45":{},"46":{},"47":{},"48":{},"49":{},"50":{},"51":{},"52":{},"53":{},"54":{},"55":{},"56":{},"57":{},"58":{},"59":{},"60":{},"61":{},"62":{},"63":{},"64":{},"65":{},"66":{},"67":{},"68":{},"69":{},"70":{},"71":{},"72":{},"73":{},"74":{},"75":{},"76":{},"77":{},"78":{},"79":{},"80":{},"81":{},"82":{},"83":{},"84":{},"85":{},"86":{},"87":{},"88":{},"89":{},"90":{},"91":{},"92":{},"93":{},"94":{},"95":{},"96":{},"97":{},"98":{},"99":{},"100":{},"101":{},"102":{},"103":{},"104":{},"105":{},"106":{},"107":{},"108":{},"109":{},"110":{},"111":{},"112":{},"113":{},"114":{}},{"0":{"bias":-0.10481313616037369,"weights":{"0":0.031181491911411285,"1":-0.02204582281410694,"2":-0.07903919368982315,"3":-0.16931571066379547,"4":-0.08493246138095856,"5":0.020285354927182198,"6":-0.068277508020401,"7":-0.08399201184511185,"8":-0.18413107097148895,"9":-0.18189220130443573,"10":-0.04631781578063965,"11":-0.15723060071468353,"12":-0.03870092332363129,"13":0.17510823905467987,"14":-0.17161186039447784,"15":0.13813571631908417,"16":0.057166725397109985,"17":-0.001735497498884797,"18":0.08075549453496933,"19":-0.05103587359189987,"20":-0.06474781781435013,"21":0.11000614613294601,"22":0.08323170244693756,"23":0.01978137344121933,"24":-0.14041423797607422,"25":0.2324962466955185,"26":0.08334453403949738,"27":-0.11478805541992188,"28":0.16007988154888153,"29":-0.0165597815066576,"30":0.0898851826786995,"31":0.09019500017166138,"32":-0.025058241561055183,"33":-0.021878736093640327,"34":0.11116629093885422,"35":-0.12274324148893356,"36":-0.00914711132645607,"37":-0.16035149991512299,"38":-0.05434657633304596,"39":0.04378680884838104,"40":0.04659514129161835,"41":0.07960821688175201,"42":-0.027026275172829628,"43":0.02945154905319214,"44":-0.035794153809547424,"45":-0.03513335436582565,"46":-0.06764096021652222,"47":0.03199821338057518,"48":0.1006702333688736,"49":0.04790741950273514,"50":-0.06412852555513382,"51":0.03324569761753082,"52":0.1548532247543335,"53":0.11460447311401367,"54":0.136611670255661,"55":0.06243123859167099,"56":-0.004875975660979748,"57":-0.18951013684272766,"58":-0.3516893982887268,"59":-0.13597282767295837,"60":-0.19561707973480225,"61":-0.06910552829504013,"62":-0.08667266368865967,"63":0.02848151884973049,"64":0.1580924540758133,"65":0.0007807085057720542,"66":-0.09089749306440353,"67":0.12987565994262695,"68":-0.14696098864078522,"69":-0.036967020481824875,"70":0.14887772500514984,"71":0.1549873948097229,"72":0.10032256692647934,"73":0.1987399309873581,"74":0.029494628310203552,"75":0.11323827505111694,"76":0.2728044092655182,"77":0.1046561747789383,"78":-0.16995669901371002,"79":0.011625733226537704,"80":0.023343855515122414,"81":-0.24073922634124756,"82":-0.07623031735420227,"83":0.0720226913690567,"84":-0.17209891974925995,"85":0.13967306911945343,"86":0.01732785627245903,"87":-0.043242327868938446,"88":-0.15472520887851715,"89":-0.17902801930904388,"90":-0.1401408463716507,"91":-0.13457955420017242,"92":0.1862606555223465,"93":0.11467885971069336,"94":-0.09261065721511841,"95":0.07628890126943588,"96":-0.013298803940415382,"97":-0.15536366403102875,"98":0.11406068503856659,"99":-0.04456454515457153,"100":0.013874782249331474,"101":-0.13182206451892853,"102":0.051648274064064026,"103":-0.13502137362957,"104":0.1338011473417282,"105":0.14923907816410065,"106":-0.16511698067188263,"107":0.13104242086410522,"108":0.010630298405885696,"109":0.07804100215435028,"110":0.056558385491371155,"111":0.16758929193019867,"112":-0.10485994815826416,"113":0.17030088603496552,"114":0.20270119607448578}},"1":{"bias":-0.16759449243545532,"weights":{"0":0.08694511651992798,"1":-0.08377638459205627,"2":0.12085780501365662,"3":0.1783994734287262,"4":-0.04380623623728752,"5":0.016267912462353706,"6":-0.07888948917388916,"7":-0.04507165774703026,"8":-0.07005409896373749,"9":-0.13264431059360504,"10":-0.01693524606525898,"11":-0.09977135062217712,"12":-0.13121256232261658,"13":-0.10174813866615295,"14":0.19731301069259644,"15":0.18989615142345428,"16":-0.04099036380648613,"17":0.059404682368040085,"18":-0.08221939206123352,"19":0.005279619712382555,"20":0.14604876935482025,"21":-0.08500538766384125,"22":0.0626869946718216,"23":0.03310340642929077,"24":0.012445488944649696,"25":0.13647840917110443,"26":-0.10081441700458527,"27":0.14739064872264862,"28":-0.12072989344596863,"29":0.10078310966491699,"30":0.029462914913892746,"31":-0.08039829134941101,"32":-0.140659362077713,"33":0.06225685402750969,"34":0.09454230964183807,"35":-0.26221582293510437,"36":-0.22151193022727966,"37":-0.0189277995377779,"38":0.0865492969751358,"39":-0.050605472177267075,"40":0.1990320235490799,"41":-0.0546501949429512,"42":0.1345672607421875,"43":-0.149717316031456,"44":0.18444772064685822,"45":0.06668797135353088,"46":0.020963473245501518,"47":0.02622062712907791,"48":0.2581113278865814,"49":-0.09394431859254837,"50":0.0486595444381237,"51":0.033233124762773514,"52":0.29889965057373047,"53":0.1634141504764557,"54":0.25358548760414124,"55":-0.1897464543581009,"56":-0.15550658106803894,"57":-0.10508628934621811,"58":-0.09058841317892075,"59":-0.13845126330852509,"60":-0.18262304365634918,"61":-0.00459300447255373,"62":0.011092445813119411,"63":0.09365709125995636,"64":-0.17292913794517517,"65":-0.14167019724845886,"66":0.15030783414840698,"67":0.04821769520640373,"68":-0.17700809240341187,"69":-0.07057919353246689,"70":0.040074948221445084,"71":0.09045924246311188,"72":0.19259928166866302,"73":0.07183346897363663,"74":-0.048558060079813004,"75":-0.034748561680316925,"76":-0.021683894097805023,"77":-0.13787227869033813,"78":-0.052896302193403244,"79":-0.148966446518898,"80":0.009731171652674675,"81":-0.2649303078651428,"82":-0.08689980208873749,"83":-0.07964079082012177,"84":-0.020362524315714836,"85":-0.08743344247341156,"86":0.16414900124073029,"87":-0.032863155007362366,"88":0.18866106867790222,"89":-0.1721394807100296,"90":-0.00759603176265955,"91":0.15028683841228485,"92":-0.1082378625869751,"93":0.0907381996512413,"94":0.14005964994430542,"95":0.0317147858440876,"96":0.1305050551891327,"97":0.1578671634197235,"98":0.078741155564785,"99":-0.18327873945236206,"100":-0.13070142269134521,"101":-0.17853698134422302,"102":-0.03848010674118996,"103":0.18535096943378448,"104":0.1924975961446762,"105":0.18650874495506287,"106":0.0413215346634388,"107":0.15190885961055756,"108":-0.13171270489692688,"109":-0.08830665051937103,"110":0.08912108838558197,"111":-0.16877780854701996,"112":-0.03966460004448891,"113":-0.1521703600883484,"114":0.12914535403251648}},"2":{"bias":0.038126248866319656,"weights":{"0":-0.07120902836322784,"1":-0.12386052310466766,"2":0.030919400975108147,"3":-0.11548958718776703,"4":0.060478709638118744,"5":-0.04378850385546684,"6":0.13635273277759552,"7":0.05741622671484947,"8":-0.09911049902439117,"9":-0.10060007870197296,"10":0.19505570828914642,"11":-0.006130145397037268,"12":-0.11758847534656525,"13":-0.1446179300546646,"14":-0.07546491920948029,"15":-0.08266843855381012,"16":0.029769090935587883,"17":0.04990644380450249,"18":0.17256666719913483,"19":0.14855553209781647,"20":-0.18558360636234283,"21":-0.13054664433002472,"22":0.16461436450481415,"23":0.0629613995552063,"24":0.14544129371643066,"25":0.05377642437815666,"26":-0.07392589747905731,"27":-0.09592726826667786,"28":-0.15794478356838226,"29":-0.23211723566055298,"30":-0.17897962033748627,"31":-0.09161219000816345,"32":-0.044983647763729095,"33":0.07061924040317535,"34":-0.03298330679535866,"35":-0.1638089269399643,"36":-0.2599889636039734,"37":-0.0009853658266365528,"38":-0.184160515666008,"39":0.160084530711174,"40":-0.01219218596816063,"41":-0.10910191386938095,"42":0.14175081253051758,"43":-0.14003340899944305,"44":0.012781876139342785,"45":0.1077851951122284,"46":0.18270814418792725,"47":0.12811312079429626,"48":0.06312788277864456,"49":0.20062355697155,"50":0.14024002850055695,"51":-0.1510389894247055,"52":-0.2179678976535797,"53":-0.02723151072859764,"54":-0.22661423683166504,"55":-0.1834055632352829,"56":-0.12794636189937592,"57":-0.06285718083381653,"58":-0.12738502025604248,"59":-0.3322146236896515,"60":-0.18298354744911194,"61":-0.006221952382475138,"62":0.13682352006435394,"63":0.23827053606510162,"64":0.047537002712488174,"65":-0.03247619420289993,"66":0.035092879086732864,"67":0.10969901084899902,"68":0.1833273023366928,"69":0.11842349171638489,"70":0.2847155034542084,"71":0.15143655240535736,"72":0.19003236293792725,"73":-0.03368578851222992,"74":-0.20151866972446442,"75":-0.1179313138127327,"76":-0.24759560823440552,"77":-0.016784481704235077,"78":0.057816389948129654,"79":-0.19116301834583282,"80":0.11132393777370453,"81":-0.10953114926815033,"82":0.11055497825145721,"83":0.02634175680577755,"84":0.17294438183307648,"85":0.011780726723372936,"86":0.11324146389961243,"87":0.09681354463100433,"88":0.01605115830898285,"89":-0.0686100423336029,"90":-0.017344554886221886,"91":0.06481859087944031,"92":0.1780061274766922,"93":0.06872116029262543,"94":0.08550772070884705,"95":0.015410912223160267,"96":-0.20412321388721466,"97":-0.08864213526248932,"98":0.03546099364757538,"99":0.1537712663412094,"100":0.0210887361317873,"101":0.1658061295747757,"102":-0.1455368846654892,"103":-0.043600693345069885,"104":0.13462330400943756,"105":-0.04137132689356804,"106":-0.04640687257051468,"107":-0.0343565009534359,"108":0.006673100870102644,"109":0.19305916130542755,"110":-0.03703629598021507,"111":0.11312690377235413,"112":0.08211402595043182,"113":0.12061303853988647,"114":0.10498888790607452}},"3":{"bias":-0.0198344923555851,"weights":{"0":-0.0002048251189989969,"1":-0.16769324243068695,"2":0.16127456724643707,"3":0.007467444986104965,"4":0.05707612633705139,"5":-0.01996743306517601,"6":-0.04992861673235893,"7":-0.03987458720803261,"8":0.0344645157456398,"9":0.16135092079639435,"10":0.04216547682881355,"11":0.11917540431022644,"12":-0.031735606491565704,"13":-0.09597199410200119,"14":-0.12146691977977753,"15":0.11209804564714432,"16":-0.0448707714676857,"17":-0.13176025450229645,"18":0.001508061890490353,"19":0.19849257171154022,"20":-0.12888826429843903,"21":0.14356084167957306,"22":-0.015922319144010544,"23":-0.14407801628112793,"24":-0.01604374125599861,"25":0.027581578120589256,"26":-0.14485733211040497,"27":0.11804153770208359,"28":-0.06543029099702835,"29":0.18795211613178253,"30":-0.02627631649374962,"31":-0.08398832380771637,"32":-0.15688087046146393,"33":-0.08742517232894897,"34":-0.01869095489382744,"35":-0.1746165007352829,"36":0.08340226113796234,"37":-0.02975485473871231,"38":0.0341610461473465,"39":-0.0722697526216507,"40":0.17071804404258728,"41":0.12566059827804565,"42":-0.08005796372890472,"43":-0.05916738137602806,"44":-0.1076272502541542,"45":0.06332707405090332,"46":-0.10241974890232086,"47":0.20805510878562927,"48":0.23329757153987885,"49":0.1173289567232132,"50":0.21105284988880157,"51":0.10348357260227203,"52":-0.03631584346294403,"53":-0.012531211599707603,"54":-0.12914405763149261,"55":0.0966697633266449,"56":0.030414734035730362,"57":0.055915217846632004,"58":-0.1935863196849823,"59":-0.13916103541851044,"60":-0.0037492038682103157,"61":-0.15156324207782745,"62":-0.13551448285579681,"63":-0.13848690688610077,"64":-0.0890100970864296,"65":-0.03695838153362274,"66":0.1995881050825119,"67":0.11694841831922531,"68":0.17851077020168304,"69":-0.018595898523926735,"70":-0.05790216848254204,"71":0.10568001866340637,"72":0.007653146516531706,"73":-0.06874049454927444,"74":0.03118928149342537,"75":0.08061742037534714,"76":0.018169935792684555,"77":-0.09462418407201767,"78":-0.022542709484696388,"79":-0.1154780164361,"80":0.1452193707227707,"81":0.18532028794288635,"82":-0.1736038625240326,"83":-0.01375644002109766,"84":0.07336822152137756,"85":-0.14702467620372772,"86":-0.04112769663333893,"87":0.040125250816345215,"88":-0.18114708364009857,"89":-0.08354555815458298,"90":-0.0633576437830925,"91":-0.13440854847431183,"92":0.05290340632200241,"93":-0.16843774914741516,"94":-0.049866706132888794,"95":-0.18295665085315704,"96":0.16511602699756622,"97":-0.15024952590465546,"98":-0.09117152541875839,"99":-0.04929613694548607,"100":0.16419662535190582,"101":-0.18153811991214752,"102":-0.08211038261651993,"103":0.07814905792474747,"104":-0.037674255669116974,"105":0.06227504089474678,"106":0.013008647598326206,"107":-0.14487145841121674,"108":0.18214459717273712,"109":-0.028859542682766914,"110":0.0992191955447197,"111":-0.04177693650126457,"112":-0.17510946094989777,"113":-0.013039645738899708,"114":0.20175351202487946}},"4":{"bias":-0.05040755495429039,"weights":{"0":0.07314928621053696,"1":0.1771659106016159,"2":-0.1287238895893097,"3":-0.18408609926700592,"4":-0.17349691689014435,"5":-0.06084400787949562,"6":-0.07075817883014679,"7":-0.005811512470245361,"8":0.0971183329820633,"9":0.16152191162109375,"10":0.14809705317020416,"11":-0.07909026741981506,"12":0.055707696825265884,"13":-0.17476283013820648,"14":0.14570751786231995,"15":-0.06345853209495544,"16":-0.10934294760227203,"17":-0.192301407456398,"18":-0.041948165744543076,"19":-0.04813399165868759,"20":0.08867955207824707,"21":-0.05582159012556076,"22":-0.10522383451461792,"23":-0.14629428088665009,"24":-0.2906666100025177,"25":-0.3326953649520874,"26":-0.0676703006029129,"27":0.09058891236782074,"28":0.16687354445457458,"29":-0.19404146075248718,"30":-0.06624569743871689,"31":0.09877020865678787,"32":0.19011445343494415,"33":0.04693930223584175,"34":0.15009328722953796,"35":0.17083677649497986,"36":-0.020952589809894562,"37":-0.01212386041879654,"38":0.030663663521409035,"39":0.1296679824590683,"40":0.0727478563785553,"41":0.273630291223526,"42":0.23430794477462769,"43":-0.19426597654819489,"44":-0.031425200402736664,"45":0.14850933849811554,"46":0.04457397013902664,"47":-0.23814691603183746,"48":-0.41918709874153137,"49":0.053568560630083084,"50":-0.01423114538192749,"51":0.1773615926504135,"52":-0.19287145137786865,"53":0.0757129117846489,"54":0.12964339554309845,"55":-0.06357571482658386,"56":-0.056749891489744186,"57":-0.11472982913255692,"58":0.09208915382623672,"59":0.12916994094848633,"60":0.0014855695189908147,"61":0.012977777048945427,"62":0.09708333015441895,"63":0.13194237649440765,"64":0.3475373685359955,"65":0.3218928575515747,"66":0.10235379636287689,"67":0.031831853091716766,"68":-0.08047482371330261,"69":0.10857845842838287,"70":-0.3379914164543152,"71":-0.16787360608577728,"72":0.13987997174263,"73":0.08769580721855164,"74":0.04144718125462532,"75":0.016477355733513832,"76":-0.1044953465461731,"77":-0.0697670504450798,"78":-0.1314041167497635,"79":0.08871084451675415,"80":-0.1037537008523941,"81":0.15136279165744781,"82":-0.04021967574954033,"83":0.10289829969406128,"84":0.0972587913274765,"85":-0.0026902419049292803,"86":0.27759042382240295,"87":0.39089223742485046,"88":-0.03377658873796463,"89":0.01152106188237667,"90":0.08603525161743164,"91":0.1416909098625183,"92":-0.14278654754161835,"93":-0.09044238924980164,"94":-0.17139838635921478,"95":-0.13795432448387146,"96":-0.16386346518993378,"97":-0.1925238072872162,"98":0.14813177287578583,"99":0.02050849050283432,"100":-0.09986431896686554,"101":0.1455528736114502,"102":-0.03272052854299545,"103":-0.16632144153118134,"104":-0.10929785668849945,"105":0.19312289357185364,"106":-0.02884158492088318,"107":0.14999423921108246,"108":-0.18406088650226593,"109":-0.07988353073596954,"110":-0.029182372614741325,"111":0.12544739246368408,"112":-0.09154069423675537,"113":-0.010310599580407143,"114":-0.13565555214881897}},"5":{"bias":-0.15267865359783173,"weights":{"0":-0.010131542570888996,"1":-0.015953589230775833,"2":-0.12355862557888031,"3":-0.096941277384758,"4":-0.12700963020324707,"5":0.07127980887889862,"6":0.03739674761891365,"7":0.08050747215747833,"8":-0.08959813416004181,"9":0.07572069764137268,"10":-0.11223927140235901,"11":0.15058398246765137,"12":0.09041385352611542,"13":0.04800041764974594,"14":0.18935774266719818,"15":-0.03843933343887329,"16":-0.18567664921283722,"17":0.12857666611671448,"18":-0.0402815118432045,"19":-0.1690753698348999,"20":0.1262928992509842,"21":-0.08268612623214722,"22":0.15384350717067719,"23":-0.11908134073019028,"24":0.20077058672904968,"25":0.21768836677074432,"26":0.14582400023937225,"27":0.08328886330127716,"28":-0.008939933031797409,"29":0.10761470347642899,"30":-0.11404842883348465,"31":0.14676205813884735,"32":0.014949353411793709,"33":0.0030214765574783087,"34":-0.0710001289844513,"35":0.0858650952577591,"36":-0.0161299891769886,"37":0.17333729565143585,"38":0.07449594140052795,"39":0.06754574179649353,"40":-0.12369414418935776,"41":0.14977961778640747,"42":-0.1728477030992508,"43":0.13612978160381317,"44":-0.1579265296459198,"45":-0.14450065791606903,"46":0.13311955332756042,"47":-0.0037929441314190626,"48":0.3190177381038666,"49":0.004458955954760313,"50":0.10419352352619171,"51":-0.009784959256649017,"52":-0.09946230053901672,"53":-0.34551993012428284,"54":-0.38574376702308655,"55":-0.06672368943691254,"56":0.15367285907268524,"57":-0.090387262403965,"58":0.27545708417892456,"59":0.2592115104198456,"60":-0.14864788949489594,"61":0.022121567279100418,"62":0.07908962666988373,"63":0.10586976259946823,"64":0.0727984756231308,"65":-0.06107703968882561,"66":-0.18468715250492096,"67":-0.025283003225922585,"68":0.05419252812862396,"69":0.07360903918743134,"70":0.0347917415201664,"71":0.16017314791679382,"72":0.11642944812774658,"73":-0.003638905007392168,"74":0.021749015897512436,"75":-0.18555080890655518,"76":-0.33065125346183777,"77":-0.17265552282333374,"78":-0.009628631174564362,"79":-0.06220175698399544,"80":-0.057014063000679016,"81":0.04767133295536041,"82":0.15344712138175964,"83":-0.16357600688934326,"84":-0.04906317591667175,"85":-0.03856091946363449,"86":0.019968237727880478,"87":-0.07449930161237717,"88":-0.039807144552469254,"89":0.15066106617450714,"90":0.08497294783592224,"91":-0.09543167054653168,"92":-0.02579113282263279,"93":-0.1199822947382927,"94":0.08341281116008759,"95":0.064418725669384,"96":-0.050690799951553345,"97":0.11364954710006714,"98":0.09044574201107025,"99":0.008028841577470303,"100":-0.1333814263343811,"101":-0.009131141006946564,"102":0.09965603053569794,"103":-0.08984526991844177,"104":-0.0583757609128952,"105":-0.14251413941383362,"106":0.01693309284746647,"107":-0.1487247794866562,"108":0.18002071976661682,"109":-0.11420471966266632,"110":-0.07076892256736755,"111":-0.17589806020259857,"112":0.12833361327648163,"113":0.0017078694654628634,"114":-0.12829291820526123}},"6":{"bias":-0.0010005093645304441,"weights":{"0":0.012570036575198174,"1":-0.15358275175094604,"2":-0.1747431755065918,"3":-0.18317490816116333,"4":0.12159573286771774,"5":-0.13194319605827332,"6":0.13892951607704163,"7":0.19229429960250854,"8":-0.12492567300796509,"9":0.029432864859700203,"10":-0.11425154656171799,"11":-0.15944048762321472,"12":-0.02531263791024685,"13":-0.18138137459754944,"14":-0.1848098635673523,"15":-0.14396294951438904,"16":0.005944720469415188,"17":-0.11523755639791489,"18":0.11819187551736832,"19":0.08410201221704483,"20":0.0807763859629631,"21":0.11851801723241806,"22":0.10346943885087967,"23":0.12230934202671051,"24":0.2318575084209442,"25":0.19872160255908966,"26":-0.05857744440436363,"27":0.09203868359327316,"28":-0.04681983217597008,"29":0.186743825674057,"30":0.1816110759973526,"31":0.0692492350935936,"32":-0.1545712649822235,"33":-0.17806825041770935,"34":-0.0312681570649147,"35":-0.11908922344446182,"36":0.1572466641664505,"37":0.060504671186208725,"38":-0.12811186909675598,"39":0.07584843784570694,"40":0.06452339887619019,"41":-0.10416284203529358,"42":-0.06816725432872772,"43":-0.0443127416074276,"44":0.08447466045618057,"45":0.08312173932790756,"46":-0.07841421663761139,"47":0.15410055220127106,"48":0.22213022410869598,"49":-0.061786700040102005,"50":-0.09148227423429489,"51":0.09268762916326523,"52":0.2521207928657532,"53":0.03653612360358238,"54":-0.011679844930768013,"55":-0.19011655449867249,"56":0.07007310539484024,"57":-0.0722551941871643,"58":0.18843673169612885,"59":0.02934507094323635,"60":0.012127797119319439,"61":0.049225952476263046,"62":-0.03990421071648598,"63":-0.20948684215545654,"64":-0.5858145952224731,"65":-0.44289639592170715,"66":0.13779237866401672,"67":-0.1752866506576538,"68":-0.01994648016989231,"69":-0.0434742197394371,"70":-0.02907426841557026,"71":0.24019095301628113,"72":0.1743311882019043,"73":-0.18072476983070374,"74":-0.14415329694747925,"75":-0.029173923656344414,"76":0.3216530680656433,"77":0.146696999669075,"78":0.04555807635188103,"79":-0.16669726371765137,"80":-0.12967008352279663,"81":-0.06296952813863754,"82":-0.10109326243400574,"83":0.10270550101995468,"84":-0.009839331731200218,"85":0.030192295089364052,"86":-0.37607038021087646,"87":-0.09335996955633163,"88":0.044471580535173416,"89":0.059086743742227554,"90":-0.03801553323864937,"91":0.18565410375595093,"92":0.07114539295434952,"93":0.17141832411289215,"94":0.1793302595615387,"95":0.09131691604852676,"96":0.0999424085021019,"97":0.12083946913480759,"98":0.006224141456186771,"99":0.08204502612352371,"100":0.04239869490265846,"101":-0.0946286991238594,"102":-0.19963017106056213,"103":-0.004680429585278034,"104":-0.09330501407384872,"105":-0.20042696595191956,"106":0.13683712482452393,"107":0.08942075818777084,"108":0.14967384934425354,"109":-0.0014512032503262162,"110":-0.17550566792488098,"111":-0.17585042119026184,"112":0.15725645422935486,"113":-0.06409648805856705,"114":0.11865764111280441}},"7":{"bias":-0.15607863664627075,"weights":{"0":-0.13246001303195953,"1":-0.07810677587985992,"2":0.07409979403018951,"3":-0.025455523282289505,"4":0.09828243404626846,"5":0.18401874601840973,"6":-0.022246111184358597,"7":0.0331328809261322,"8":-0.1100379228591919,"9":-0.05576598644256592,"10":0.04385720193386078,"11":0.18123015761375427,"12":-0.030060984194278717,"13":-0.0019116790499538183,"14":-0.03910290449857712,"15":0.008241243660449982,"16":-0.16048915684223175,"17":-0.03657197207212448,"18":0.005364618729799986,"19":-0.1615680307149887,"20":0.1929892599582672,"21":0.14523929357528687,"22":-0.062017444521188736,"23":-0.08055479824542999,"24":-0.17262133955955505,"25":-0.08814136683940887,"26":-0.1806286871433258,"27":-0.0371236652135849,"28":-0.19256630539894104,"29":-0.10625600069761276,"30":0.12619973719120026,"31":-0.0551372729241848,"32":-0.04425173997879028,"33":0.015455507673323154,"34":0.163343146443367,"35":-0.15502282977104187,"36":-0.06542246043682098,"37":0.14535848796367645,"38":-0.11037048697471619,"39":0.19465921819210052,"40":-0.08429419249296188,"41":0.1277683824300766,"42":-0.009471030905842781,"43":-0.07319682091474533,"44":0.000731048290617764,"45":-0.11750490218400955,"46":-0.19351567327976227,"47":0.15551769733428955,"48":-0.013146813027560711,"49":0.1336897760629654,"50":0.0676112025976181,"51":0.03599022328853607,"52":0.00009446951298741624,"53":0.12674985826015472,"54":0.11032861471176147,"55":0.08447350561618805,"56":0.2013760358095169,"57":-0.18679513037204742,"58":0.045931875705718994,"59":-0.19128935039043427,"60":-0.006741920951753855,"61":-0.17263157665729523,"62":0.042582184076309204,"63":0.06320324540138245,"64":-0.057551611214876175,"65":0.1417342722415924,"66":0.05057918280363083,"67":-0.07477160543203354,"68":-0.05910972133278847,"69":0.05825522541999817,"70":-0.20305970311164856,"71":-0.163429856300354,"72":-0.09897912293672562,"73":0.0034104951191693544,"74":0.201845183968544,"75":0.07041099667549133,"76":0.2867259085178375,"77":-0.04958665743470192,"78":-0.024569734930992126,"79":0.14876264333724976,"80":-0.08304455131292343,"81":-0.15885938704013824,"82":0.05900873243808746,"83":0.08838371187448502,"84":0.17170360684394836,"85":-0.166537806391716,"86":0.16584420204162598,"87":-0.15476804971694946,"88":-0.10473395884037018,"89":0.10684796422719955,"90":-0.08543547242879868,"91":0.1994159072637558,"92":0.03277447819709778,"93":0.08217805624008179,"94":-0.12660977244377136,"95":0.17461609840393066,"96":0.03983332961797714,"97":0.1380939930677414,"98":0.08503171801567078,"99":0.0817175954580307,"100":0.0823063924908638,"101":-0.06450506299734116,"102":0.1436462253332138,"103":-0.046700283885002136,"104":0.1567353755235672,"105":0.08651169389486313,"106":-0.11841447651386261,"107":-0.14028775691986084,"108":-0.17558114230632782,"109":0.06651559472084045,"110":0.17560690641403198,"111":-0.1746019423007965,"112":-0.04594164341688156,"113":-0.11651982367038727,"114":-0.07595502585172653}},"8":{"bias":0.09116783738136292,"weights":{"0":0.025540465489029884,"1":-0.16849097609519958,"2":-0.01770566962659359,"3":-0.04970431327819824,"4":-0.09392677247524261,"5":-0.09531417489051819,"6":-0.08264509588479996,"7":-0.10103122144937515,"8":-0.059214212000370026,"9":-0.16787254810333252,"10":-0.04678783565759659,"11":0.035523273050785065,"12":0.053333960473537445,"13":0.11750829219818115,"14":-0.05588110536336899,"15":0.13560441136360168,"16":-0.12798474729061127,"17":-0.12120389938354492,"18":-0.02732609398663044,"19":0.1760861873626709,"20":0.1387757658958435,"21":0.09530725330114365,"22":0.1795780062675476,"23":-0.18045742809772491,"24":-0.02646658942103386,"25":-0.039033301174640656,"26":-0.062028005719184875,"27":0.05908391624689102,"28":-0.15653914213180542,"29":0.2983193099498749,"30":0.0346185564994812,"31":-0.06946109235286713,"32":0.004720883909612894,"33":-0.005277206655591726,"34":0.17861124873161316,"35":0.02022618055343628,"36":0.19073234498500824,"37":-0.03953300416469574,"38":0.022920003160834312,"39":-0.08062504976987839,"40":-0.07279238849878311,"41":-0.19289077818393707,"42":-0.09822998940944672,"43":-0.10247942060232162,"44":0.029981045052409172,"45":0.15389639139175415,"46":-0.07781205326318741,"47":-0.35649558901786804,"48":-0.4070945084095001,"49":0.04337969422340393,"50":0.13359060883522034,"51":-0.053330130875110626,"52":0.10015352070331573,"53":0.512967050075531,"54":0.2051009237766266,"55":0.11086492985486984,"56":0.19570684432983398,"57":-0.036196622997522354,"58":0.009068884886801243,"59":-0.019793186336755753,"60":-0.07186058163642883,"61":-0.02361571229994297,"62":-0.017355458810925484,"63":-0.20058660209178925,"64":0.06566750258207321,"65":-0.10046148300170898,"66":0.19462990760803223,"67":0.027095673605799675,"68":-0.10942608118057251,"69":0.12447347491979599,"70":-0.049393270164728165,"71":0.020306140184402466,"72":0.05682690441608429,"73":0.08181872963905334,"74":0.14060920476913452,"75":0.18925094604492188,"76":0.3674198091030121,"77":0.023593146353960037,"78":0.12144290655851364,"79":-0.037640348076820374,"80":-0.0695875957608223,"81":-0.1539660394191742,"82":-0.12416861206293106,"83":-0.06627866625785828,"84":-0.16612130403518677,"85":0.12162869423627853,"86":-0.10611767321825027,"87":-0.21584506332874298,"88":-0.05067376792430878,"89":0.16909602284431458,"90":-0.09386328607797623,"91":0.026409557089209557,"92":0.15083986520767212,"93":-0.14306892454624176,"94":-0.008206536062061787,"95":0.12048730999231339,"96":-0.0961695984005928,"97":-0.1310139149427414,"98":-0.19100520014762878,"99":0.17552995681762695,"100":0.18849697709083557,"101":-0.1573580503463745,"102":0.15471875667572021,"103":0.01972859911620617,"104":0.01658519171178341,"105":0.19975340366363525,"106":0.03194400295615196,"107":0.005581200588494539,"108":0.04835931956768036,"109":0.1845412254333496,"110":0.0720890611410141,"111":-0.17132887244224548,"112":-0.12000935524702072,"113":-0.011880483478307724,"114":-0.03783135116100311}},"9":{"bias":0.04650687798857689,"weights":{"0":0.16134072840213776,"1":-0.10027596354484558,"2":-0.03141811490058899,"3":0.08179761469364166,"4":-0.16197781264781952,"5":-0.19417686760425568,"6":-0.02081604301929474,"7":0.10442301630973816,"8":0.02982834354043007,"9":-0.0016377741703763604,"10":-0.1460542231798172,"11":0.11423474550247192,"12":-0.00960471946746111,"13":0.02899172529578209,"14":-0.11880484968423843,"15":-0.01698315143585205,"16":0.011576526798307896,"17":-0.12876977026462555,"18":-0.07211229205131531,"19":-0.1994282752275467,"20":-0.0007503334782086313,"21":-0.015362957492470741,"22":0.14169134199619293,"23":0.14801083505153656,"24":0.4312736392021179,"25":0.27262407541275024,"26":-0.025455880910158157,"27":-0.09700354933738708,"28":-0.009933372028172016,"29":-0.1292683482170105,"30":-0.5058679580688477,"31":0.06450025737285614,"32":0.09316204488277435,"33":-0.1820584386587143,"34":0.11574754118919373,"35":-0.1482895165681839,"36":-0.34866878390312195,"37":0.060792431235313416,"38":-0.09464289247989655,"39":-0.13226903975009918,"40":-0.08732040226459503,"41":0.3126557171344757,"42":-0.006038386840373278,"43":0.049075040966272354,"44":0.04605269059538841,"45":0.08916641771793365,"46":0.39125823974609375,"47":0.6194494366645813,"48":0.706719696521759,"49":0.18758508563041687,"50":-0.07874354720115662,"51":0.1315234750509262,"52":-0.7459291815757751,"53":-0.5308522582054138,"54":-0.5246956944465637,"55":0.1462959498167038,"56":-0.08246201276779175,"57":-0.15880905091762543,"58":-0.06537952274084091,"59":-0.2782859206199646,"60":0.08187593519687653,"61":-0.20291905105113983,"62":-0.07343156635761261,"63":0.1985522359609604,"64":0.41032445430755615,"65":0.2886667549610138,"66":-0.05127802863717079,"67":-0.04369571432471275,"68":0.18664704263210297,"69":-0.007231366820633411,"70":0.46699991822242737,"71":0.3269864618778229,"72":-0.14698946475982666,"73":0.0978909581899643,"74":0.04482079669833183,"75":-0.41388988494873047,"76":-0.6876667141914368,"77":0.0871332660317421,"78":-0.043899763375520706,"79":-0.1438317745923996,"80":0.024404402822256088,"81":-0.07608245313167572,"82":0.044558871537446976,"83":0.030938927084207535,"84":0.18179072439670563,"85":-0.0819302648305893,"86":0.12452344596385956,"87":0.27685579657554626,"88":-0.08090765029191971,"89":-0.12364716827869415,"90":0.07762300968170166,"91":0.14376972615718842,"92":-0.06938669085502625,"93":0.15195374190807343,"94":-0.0028836021665483713,"95":-0.02837061509490013,"96":-0.049003396183252335,"97":0.05601085349917412,"98":-0.061185795813798904,"99":0.18684189021587372,"100":-0.12609271705150604,"101":0.15898655354976654,"102":0.1452980786561966,"103":0.14948509633541107,"104":-0.1396048218011856,"105":-0.15614356100559235,"106":0.06070997565984726,"107":-0.10934765636920929,"108":0.14467601478099823,"109":-0.1098068505525589,"110":-0.10408337414264679,"111":0.18803896009922028,"112":-0.08313371241092682,"113":-0.11902158707380295,"114":-0.18574954569339752}},"10":{"bias":0.011553749442100525,"weights":{"0":0.13266293704509735,"1":0.18548572063446045,"2":-0.05747143551707268,"3":0.048407163470983505,"4":0.06870276480913162,"5":-0.01896953582763672,"6":-0.07062416523694992,"7":-0.06175340339541435,"8":0.18414275348186493,"9":-0.06574755907058716,"10":0.03808823972940445,"11":0.13096198439598083,"12":0.0859772339463234,"13":0.10044202953577042,"14":-0.11746306717395782,"15":0.01386347133666277,"16":-0.058945588767528534,"17":-0.07979884743690491,"18":-0.017615415155887604,"19":0.08716230094432831,"20":-0.16975849866867065,"21":-0.08120473474264145,"22":-0.11512724310159683,"23":-0.17331832647323608,"24":0.13138462603092194,"25":0.17512080073356628,"26":-0.18744592368602753,"27":-0.1450362652540207,"28":0.057019248604774475,"29":0.04786615073680878,"30":-0.15444229543209076,"31":-0.1036781296133995,"32":0.06473107635974884,"33":0.17151157557964325,"34":-0.1291806697845459,"35":-0.081900455057621,"36":0.01209376659244299,"37":0.13433487713336945,"38":0.13360661268234253,"39":-0.06005261838436127,"40":-0.2050330489873886,"41":-0.08577123284339905,"42":-0.008150544948875904,"43":0.12109758704900742,"44":0.07882142812013626,"45":0.06840476393699646,"46":0.2900306284427643,"47":0.3535687029361725,"48":0.4643669128417969,"49":0.21066129207611084,"50":-0.0070387921296060085,"51":0.09814585000276566,"52":-0.32179293036460876,"53":-0.020956581458449364,"54":0.10615627467632294,"55":0.06817590445280075,"56":0.1387673318386078,"57":0.007952741347253323,"58":-0.05206078663468361,"59":-0.07312130182981491,"60":0.07477026432752609,"61":-0.05175359547138214,"62":0.14786545932292938,"63":0.02376394160091877,"64":-0.35913950204849243,"65":0.0899662971496582,"66":-0.18298561871051788,"67":-0.04656818509101868,"68":-0.09529215842485428,"69":0.03577890619635582,"70":0.2425604611635208,"71":0.14992256462574005,"72":0.02041403017938137,"73":-0.1326199322938919,"74":-0.17824672162532806,"75":-0.1697709709405899,"76":-0.07195339351892471,"77":0.12701641023159027,"78":-0.05907054245471954,"79":0.18391770124435425,"80":0.029746655374765396,"81":-0.01155860535800457,"82":-0.08799173682928085,"83":0.08862227201461792,"84":0.000908518792130053,"85":0.15081797540187836,"86":-0.2589227557182312,"87":-0.2499254196882248,"88":-0.022130360826849937,"89":0.04917578771710396,"90":-0.12972113490104675,"91":0.178281769156456,"92":0.17460386455059052,"93":-0.02180602215230465,"94":-0.0678587406873703,"95":-0.033068932592868805,"96":0.07390975207090378,"97":-0.1197378933429718,"98":0.10416743904352188,"99":0.08730505406856537,"100":0.18098582327365875,"101":-0.10541661083698273,"102":-0.11902777850627899,"103":-0.14123274385929108,"104":0.08926653861999512,"105":-0.07191552966833115,"106":-0.05300915986299515,"107":-0.10922692716121674,"108":-0.1234603077173233,"109":0.001261483528651297,"110":0.1409936398267746,"111":0.04078342765569687,"112":-0.12641958892345428,"113":-0.055519796907901764,"114":-0.15019890666007996}},"11":{"bias":-0.05296163260936737,"weights":{"0":-0.14856182038784027,"1":0.05293763801455498,"2":0.017141632735729218,"3":0.09884007275104523,"4":-0.0357467420399189,"5":-0.1872691512107849,"6":0.09254077076911926,"7":0.15610717236995697,"8":0.06699655950069427,"9":-0.15769749879837036,"10":-0.12576760351657867,"11":-0.09802694618701935,"12":0.03245990723371506,"13":0.11024691164493561,"14":-0.1470358967781067,"15":-0.10752445459365845,"16":-0.022665822878479958,"17":0.09950079023838043,"18":-0.05885725095868111,"19":0.1802823841571808,"20":0.08470238745212555,"21":-0.1770622432231903,"22":0.046415653079748154,"23":-0.034593433141708374,"24":-0.0677524134516716,"25":0.09099012613296509,"26":0.009797303937375546,"27":-0.10499578714370728,"28":-0.1454124003648758,"29":-0.13123425841331482,"30":-0.14972375333309174,"31":0.12849143147468567,"32":-0.020882943645119667,"33":-0.1532757729291916,"34":0.021603187546133995,"35":0.25802871584892273,"36":-0.05778266489505768,"37":-0.038230475038290024,"38":-0.008374826051294804,"39":-0.020723043009638786,"40":-0.08335347473621368,"41":-0.100067138671875,"42":-0.02919098548591137,"43":-0.025235457345843315,"44":0.05293935909867287,"45":0.01316248532384634,"46":0.20152795314788818,"47":0.25924327969551086,"48":0.1844380497932434,"49":0.13960446417331696,"50":0.0018161338521167636,"51":0.16354545950889587,"52":-0.44081151485443115,"53":-0.3152185380458832,"54":-0.014704789035022259,"55":-0.030954835936427116,"56":0.2003331184387207,"57":0.10308443754911423,"58":0.3016343116760254,"59":0.20614661276340485,"60":0.2209567427635193,"61":-0.19054104387760162,"62":0.11079230904579163,"63":0.13546504080295563,"64":0.2007286548614502,"65":0.18789295852184296,"66":-0.0006353326607495546,"67":-0.19297723472118378,"68":0.18384036421775818,"69":-0.058559875935316086,"70":0.009037642739713192,"71":-0.032862402498722076,"72":-0.1533290296792984,"73":-0.04473135992884636,"74":0.16353897750377655,"75":-0.2801865041255951,"76":-0.2300313264131546,"77":-0.052164226770401,"78":0.1420779973268509,"79":0.030160048976540565,"80":-0.053509023040533066,"81":-0.0723763182759285,"82":0.10899429023265839,"83":-0.06317874789237976,"84":-0.0977916419506073,"85":-0.11694401502609253,"86":0.07494879513978958,"87":0.10587681084871292,"88":-0.057462502270936966,"89":0.039693478494882584,"90":-0.04177127406001091,"91":-0.10262405872344971,"92":-0.06721697747707367,"93":0.18855182826519012,"94":0.13329625129699707,"95":-0.011662046425044537,"96":-0.05778921768069267,"97":-0.15569064021110535,"98":0.024281052872538567,"99":0.0763738602399826,"100":-0.01643494702875614,"101":-0.057897139340639114,"102":-0.13819797337055206,"103":-0.12897983193397522,"104":-0.0416857935488224,"105":-0.17288224399089813,"106":0.05638684704899788,"107":-0.1504882276058197,"108":-0.0915280431509018,"109":0.09754474461078644,"110":0.18528302013874054,"111":-0.10791681706905365,"112":0.020554307848215103,"113":0.17889708280563354,"114":0.02059411257505417}},"12":{"bias":-0.15808138251304626,"weights":{"0":-0.15081892907619476,"1":0.08890324831008911,"2":-0.16320247948169708,"3":-0.20180505514144897,"4":-0.12617017328739166,"5":0.0024097589775919914,"6":-0.18104662001132965,"7":0.17016229033470154,"8":0.049960583448410034,"9":-0.1627219319343567,"10":-0.034581758081912994,"11":0.1579241305589676,"12":0.11392180621623993,"13":-0.13967926800251007,"14":0.12203770875930786,"15":0.012141295708715916,"16":0.14031697809696198,"17":-0.032769571989774704,"18":0.021803895011544228,"19":0.0853247418999672,"20":-0.1776520311832428,"21":0.05506816878914833,"22":-0.16158899664878845,"23":-0.126299649477005,"24":-0.27680787444114685,"25":0.05013754963874817,"26":0.026948345825076103,"27":-0.10067589581012726,"28":-0.09530912339687347,"29":-0.09555485844612122,"30":0.01989981345832348,"31":-0.17726527154445648,"32":-0.08563055843114853,"33":-0.0879473090171814,"34":-0.05701342970132828,"35":0.15798448026180267,"36":-0.03462858870625496,"37":0.03497866913676262,"38":-0.05023202672600746,"39":0.03345897048711777,"40":-0.015656156465411186,"41":0.19093039631843567,"42":0.17811159789562225,"43":0.06172249838709831,"44":-0.1582883894443512,"45":0.17253942787647247,"46":-0.2866052985191345,"47":-0.21057774126529694,"48":-0.06810601055622101,"49":-0.2433772087097168,"50":0.075409896671772,"51":-0.03732876852154732,"52":0.16701732575893402,"53":0.12303128093481064,"54":0.16440145671367645,"55":0.09544076025485992,"56":0.08092837780714035,"57":-0.03352572023868561,"58":0.12106946110725403,"59":0.27972739934921265,"60":-0.11222534626722336,"61":0.12712670862674713,"62":0.14712169766426086,"63":-0.045326825231313705,"64":-0.003217850113287568,"65":0.2516253888607025,"66":-0.13018199801445007,"67":0.05786736309528351,"68":-0.014030721969902515,"69":0.05215062201023102,"70":-0.1178564801812172,"71":0.0370732881128788,"72":-0.024536950513720512,"73":0.053607478737831116,"74":-0.06747991591691971,"75":-0.10883672535419464,"76":-0.1063218042254448,"77":0.15477213263511658,"78":-0.04518790915608406,"79":-0.1908486783504486,"80":-0.036488622426986694,"81":0.1738908290863037,"82":0.04389212280511856,"83":-0.06152430176734924,"84":0.014068624004721642,"85":0.021869992837309837,"86":0.018693704158067703,"87":0.019444335252046585,"88":0.02488284558057785,"89":0.18713873624801636,"90":-0.16397814452648163,"91":0.006345083005726337,"92":0.05735136568546295,"93":-0.2041996717453003,"94":-0.09749092906713486,"95":-0.04292949289083481,"96":0.08824848383665085,"97":0.14276587963104248,"98":-0.0024132030084729195,"99":0.15477892756462097,"100":0.18701352179050446,"101":-0.05151500180363655,"102":0.08898512274026871,"103":0.06543304026126862,"104":0.07705263048410416,"105":-0.07885024696588516,"106":-0.07035466283559799,"107":0.19601409137248993,"108":-0.07897848635911942,"109":0.04167043790221214,"110":0.11961571127176285,"111":0.1513233780860901,"112":-0.11865860223770142,"113":0.09422281384468079,"114":-0.1285545527935028}},"13":{"bias":0.04199469834566116,"weights":{"0":-0.17687398195266724,"1":0.03723107650876045,"2":0.03921912983059883,"3":-0.060050543397665024,"4":-0.02684270776808262,"5":-0.003056175075471401,"6":-0.11233599483966827,"7":0.12063049525022507,"8":-0.028735149651765823,"9":-0.01036007422953844,"10":-0.020721031352877617,"11":0.1326998770236969,"12":0.13647866249084473,"13":-0.15715669095516205,"14":-0.12413153797388077,"15":0.0051556662656366825,"16":0.18317553400993347,"17":0.034753162413835526,"18":-0.0795384868979454,"19":0.05534612759947777,"20":-0.040059056133031845,"21":-0.11147692799568176,"22":0.12362666428089142,"23":-0.18402767181396484,"24":-0.08734653145074844,"25":-0.07908543944358826,"26":0.08460304886102676,"27":0.07408013194799423,"28":0.18408237397670746,"29":0.0673750638961792,"30":-0.012773689813911915,"31":-0.18373708426952362,"32":-0.1125737726688385,"33":-0.12586051225662231,"34":0.11738333106040955,"35":0.31114551424980164,"36":0.1283995360136032,"37":0.08063249289989471,"38":0.1276262104511261,"39":0.11025144904851913,"40":-0.13395120203495026,"41":-0.054281849414110184,"42":-0.126163512468338,"43":0.023200714960694313,"44":-0.08011820912361145,"45":-0.1308663785457611,"46":-0.18328829109668732,"47":-0.1874108910560608,"48":0.10648282617330551,"49":-0.08364567160606384,"50":-0.14920073747634888,"51":0.18894542753696442,"52":-0.1670551896095276,"53":-0.1766299307346344,"54":-0.028014766052365303,"55":0.18590880930423737,"56":0.12216921895742416,"57":-0.099705770611763,"58":0.39767545461654663,"59":0.15470853447914124,"60":0.09609972685575485,"61":0.12387813627719879,"62":-0.1430916041135788,"63":-0.09090298414230347,"64":-0.33577337861061096,"65":0.017786186188459396,"66":0.132384791970253,"67":0.06559602171182632,"68":-0.13419565558433533,"69":0.10389602184295654,"70":0.07836127281188965,"71":-0.19838395714759827,"72":0.1618375927209854,"73":0.11815594136714935,"74":-0.06905129551887512,"75":0.07784097641706467,"76":-0.2617377042770386,"77":0.16814130544662476,"78":0.13269378244876862,"79":-0.13801150023937225,"80":0.1068669781088829,"81":-0.04970037564635277,"82":0.2875213325023651,"83":-0.02713458612561226,"84":0.009305663406848907,"85":0.0481732077896595,"86":-0.02955293469130993,"87":-0.2155878245830536,"88":0.10704928636550903,"89":0.09731783717870712,"90":-0.18033379316329956,"91":0.007596635725349188,"92":0.021550502628087997,"93":0.17890025675296783,"94":0.18523147702217102,"95":0.13821391761302948,"96":-0.18377669155597687,"97":-0.008357199840247631,"98":-0.10872718691825867,"99":0.008369388990104198,"100":-0.19832205772399902,"101":-0.01677495427429676,"102":-0.08543267101049423,"103":-0.20767343044281006,"104":-0.11766829341650009,"105":-0.0009161810157820582,"106":0.15573947131633759,"107":0.14227193593978882,"108":0.10656621307134628,"109":-0.09663614630699158,"110":-0.13447940349578857,"111":-0.019262993708252907,"112":0.12941059470176697,"113":0.145130917429924,"114":0.043289270251989365}},"14":{"bias":-0.16873286664485931,"weights":{"0":0.0009679605136625469,"1":-0.1899692863225937,"2":0.03447623550891876,"3":0.09007441252470016,"4":-0.15310968458652496,"5":0.12666761875152588,"6":-0.147187277674675,"7":0.05354486405849457,"8":-0.18424342572689056,"9":0.05769077688455582,"10":-0.204335018992424,"11":0.17244119942188263,"12":0.14116360247135162,"13":-0.029820917174220085,"14":0.09695164114236832,"15":-0.05744490399956703,"16":-0.1628524512052536,"17":0.14374367892742157,"18":0.14670781791210175,"19":-0.03834226727485657,"20":0.09466711431741714,"21":0.14572449028491974,"22":0.12470701336860657,"23":0.14181509613990784,"24":-0.018657267093658447,"25":0.07037696987390518,"26":0.14937175810337067,"27":-0.03340703994035721,"28":-0.02566624991595745,"29":-0.017902908846735954,"30":-0.034557539969682693,"31":-0.1882977932691574,"32":-0.1998138576745987,"33":-0.06616799533367157,"34":0.05154570937156677,"35":-0.23384183645248413,"36":-0.3005772531032562,"37":-0.18954293429851532,"38":-0.12354432046413422,"39":-0.10203079134225845,"40":-0.04921972379088402,"41":0.28573259711265564,"42":0.2664063572883606,"43":0.0883699357509613,"44":0.0023701891768723726,"45":-0.0875709056854248,"46":-0.08734628558158875,"47":-0.1198347881436348,"48":-0.34156733751296997,"49":0.10162542760372162,"50":0.09570713341236115,"51":0.04646410048007965,"52":0.13203416764736176,"53":0.18851806223392487,"54":-0.1896461844444275,"55":0.015506843104958534,"56":0.17491327226161957,"57":-0.023238899186253548,"58":-0.1410467028617859,"59":-0.27983272075653076,"60":0.08559782803058624,"61":0.17387251555919647,"62":0.14705674350261688,"63":0.1577569544315338,"64":0.48076385259628296,"65":0.31619250774383545,"66":-0.09437020868062973,"67":-0.20427291095256805,"68":-0.07820529490709305,"69":-0.12264224886894226,"70":-0.30201607942581177,"71":0.06762129813432693,"72":-0.17182163894176483,"73":0.1073516458272934,"74":0.0009106716024689376,"75":-0.11319246143102646,"76":0.16764959692955017,"77":0.08122556656599045,"78":0.10991059243679047,"79":-0.21265743672847748,"80":-0.07426426559686661,"81":0.05916867032647133,"82":0.0037038056179881096,"83":0.13628123700618744,"84":-0.07204388082027435,"85":-0.17700086534023285,"86":0.13935554027557373,"87":0.1698584407567978,"88":0.02576044201850891,"89":-0.12751980125904083,"90":-0.07350953668355942,"91":-0.06575168669223785,"92":-0.1077146828174591,"93":-0.07564596086740494,"94":0.11629661172628403,"95":-0.045560114085674286,"96":0.05835534632205963,"97":-0.06991095840930939,"98":-0.18018855154514313,"99":0.00853673554956913,"100":-0.20934854447841644,"101":0.07520661503076553,"102":-0.0006942652398720384,"103":0.1209321990609169,"104":0.17869772017002106,"105":0.060431040823459625,"106":0.08420932292938232,"107":0.10290201753377914,"108":0.17277060449123383,"109":0.0984840840101242,"110":0.1594434231519699,"111":-0.18834413588047028,"112":0.16737274825572968,"113":0.13929010927677155,"114":0.04694195091724396}},"15":{"bias":0.1850012093782425,"weights":{"0":-0.07169211655855179,"1":0.027142932638525963,"2":-0.1348543018102646,"3":-0.05828029662370682,"4":0.10698380321264267,"5":-0.07299379259347916,"6":0.08817828446626663,"7":0.12124548107385635,"8":0.009404362179338932,"9":0.12510567903518677,"10":-0.21389330923557281,"11":0.16959123313426971,"12":0.013824915513396263,"13":0.1815539449453354,"14":0.16293011605739594,"15":0.1822250634431839,"16":-0.09077370911836624,"17":-0.15788297355175018,"18":0.13783572614192963,"19":0.16057975590229034,"20":-0.07857916504144669,"21":0.16143076121807098,"22":0.04555573686957359,"23":-0.12014256417751312,"24":0.19721674919128418,"25":0.09908782690763474,"26":0.16819845139980316,"27":0.01388472132384777,"28":0.07535748928785324,"29":-0.29551446437835693,"30":-0.25334832072257996,"31":0.03248072415590286,"32":0.025898264721035957,"33":-0.20629708468914032,"34":0.019782183691859245,"35":0.18042133748531342,"36":0.015790317207574844,"37":-0.13216041028499603,"38":-0.20554666221141815,"39":0.13079260289669037,"40":0.05071476101875305,"41":0.25483909249305725,"42":-0.04698789864778519,"43":-0.07788043469190598,"44":-0.10383037477731705,"45":-0.11928966641426086,"46":-0.16321004927158356,"47":0.11044830828905106,"48":0.08796586096286774,"49":-0.18639405071735382,"50":0.07965961843729019,"51":-0.0533469095826149,"52":-0.5175344347953796,"53":-0.5393199324607849,"54":-0.5006563067436218,"55":-0.11407264322042465,"56":0.16016335785388947,"57":0.07960250228643417,"58":0.2787195146083832,"59":0.39808326959609985,"60":0.09039319306612015,"61":0.07194674760103226,"62":-0.1412685066461563,"63":-0.01997961848974228,"64":0.06263895332813263,"65":-0.09696342796087265,"66":-0.06449569016695023,"67":0.09162826091051102,"68":0.08512213081121445,"69":0.1139981672167778,"70":0.023891199380159378,"71":-0.040249016135931015,"72":-0.03976887837052345,"73":-0.004593557212501764,"74":-0.21330328285694122,"75":-0.2778562307357788,"76":-0.21179039776325226,"77":-0.26687222719192505,"78":0.11428175121545792,"79":0.18476207554340363,"80":-0.12014371901750565,"81":0.184911847114563,"82":0.24754472076892853,"83":0.030688947066664696,"84":-0.15539319813251495,"85":0.07155036181211472,"86":0.2635805308818817,"87":0.30122292041778564,"88":-0.00995553471148014,"89":0.14251269400119781,"90":-0.13109023869037628,"91":0.11514347046613693,"92":0.007584382314234972,"93":-0.102181077003479,"94":0.03745979070663452,"95":-0.18073515594005585,"96":-0.16306842863559723,"97":-0.20857073366641998,"98":0.033383212983608246,"99":0.1807505041360855,"100":-0.1350918859243393,"101":0.14046217501163483,"102":0.12122847884893417,"103":0.11430295556783676,"104":0.1341649740934372,"105":0.12308380752801895,"106":-0.2107497602701187,"107":-0.05165005847811699,"108":-0.17631374299526215,"109":-0.07445438951253891,"110":0.11422231048345566,"111":-0.07366415113210678,"112":-0.14878149330615997,"113":-0.13290469348430634,"114":0.039980072528123856}},"16":{"bias":-0.1299162358045578,"weights":{"0":0.08737903088331223,"1":0.21268892288208008,"2":0.08388018608093262,"3":-0.09655016660690308,"4":0.11299128085374832,"5":-0.11097927391529083,"6":0.06854353845119476,"7":0.10803307592868805,"8":-0.05854126811027527,"9":0.15238958597183228,"10":0.16512228548526764,"11":0.2020844966173172,"12":-0.15539973974227905,"13":0.011481817811727524,"14":-0.11187461763620377,"15":-0.08041606098413467,"16":0.18896687030792236,"17":-0.13244682550430298,"18":-0.16347217559814453,"19":0.16311253607273102,"20":-0.09784895181655884,"21":-0.1367918998003006,"22":-0.09087696671485901,"23":0.049953874200582504,"24":0.30410081148147583,"25":0.15579605102539062,"26":-0.1091403216123581,"27":0.1464778184890747,"28":-0.07072436809539795,"29":-0.20778131484985352,"30":-0.23456090688705444,"31":-0.055161815136671066,"32":0.04929739981889725,"33":0.12350139766931534,"34":0.12492115795612335,"35":-0.02107938565313816,"36":-0.22084130346775055,"37":-0.14681598544120789,"38":-0.16507892310619354,"39":-0.0913228988647461,"40":-0.08500538021326065,"41":0.07532968372106552,"42":0.11486668139696121,"43":-0.15458935499191284,"44":0.08830540627241135,"45":-0.1463019996881485,"46":-0.018080532550811768,"47":0.25399887561798096,"48":0.18360738456249237,"49":0.1397969126701355,"50":-0.10897757112979889,"51":-0.005886516999453306,"52":-0.46329623460769653,"53":-0.4188111424446106,"54":-0.20653262734413147,"55":0.11889802664518356,"56":0.001389791606925428,"57":0.21117058396339417,"58":-0.19402296841144562,"59":-0.2865932285785675,"60":-0.026677671819925308,"61":0.10214676707983017,"62":0.0989079624414444,"63":0.03322402015328407,"64":0.3095788061618805,"65":0.04444747045636177,"66":-0.12957513332366943,"67":0.024478333070874214,"68":0.02552192099392414,"69":0.0551208071410656,"70":0.3266633450984955,"71":0.19055184721946716,"72":-0.16115599870681763,"73":0.19370795786380768,"74":0.1354224681854248,"75":0.005465304479002953,"76":-0.4131033718585968,"77":-0.06585657596588135,"78":0.13703161478042603,"79":-0.08682716637849808,"80":0.06440279632806778,"81":-0.19347558915615082,"82":-0.04550303891301155,"83":0.17475707828998566,"84":0.1857711672782898,"85":-0.12819531559944153,"86":0.16308008134365082,"87":0.35234302282333374,"88":0.18203428387641907,"89":-0.15685857832431793,"90":-0.13404108583927155,"91":-0.08483843505382538,"92":-0.13313348591327667,"93":0.024811090901494026,"94":-0.02929115667939186,"95":0.12338752299547195,"96":0.06155477464199066,"97":-0.09130052477121353,"98":0.15502330660820007,"99":0.04262787103652954,"100":-0.003965113777667284,"101":-0.09754454344511032,"102":-0.14444711804389954,"103":0.011195176281034946,"104":-0.11325596272945404,"105":-0.09005536139011383,"106":0.07911547273397446,"107":-0.11591114848852158,"108":0.12778781354427338,"109":-0.15036945044994354,"110":0.10966841131448746,"111":0.04417926073074341,"112":-0.1211652085185051,"113":-0.12989561259746552,"114":0.19087032973766327}},"17":{"bias":0.053174909204244614,"weights":{"0":-0.133510559797287,"1":0.20615534484386444,"2":0.06505424529314041,"3":-0.13026279211044312,"4":0.09342865645885468,"5":0.06045675650238991,"6":0.14198224246501923,"7":-0.08266725391149521,"8":-0.054520804435014725,"9":0.0677696093916893,"10":0.061932194977998734,"11":-0.1228480413556099,"12":0.1414920836687088,"13":-0.06659352779388428,"14":0.020593764260411263,"15":0.00931333564221859,"16":0.005261136684566736,"17":-0.015426911413669586,"18":-0.12324167042970657,"19":-0.03313392773270607,"20":-0.11661197245121002,"21":0.04103073850274086,"22":-0.15516212582588196,"23":-0.09190815687179565,"24":-0.3334118127822876,"25":-0.11915895342826843,"26":0.09093240648508072,"27":-0.06874431669712067,"28":-0.014515118673443794,"29":-0.12580668926239014,"30":0.08344367891550064,"31":0.07163000851869583,"32":-0.14757950603961945,"33":-0.09148313105106354,"34":0.16576321423053741,"35":0.26263055205345154,"36":0.020520640537142754,"37":0.1964108943939209,"38":-0.12770894169807434,"39":0.041977349668741226,"40":-0.08913389593362808,"41":0.18143440783023834,"42":0.29764774441719055,"43":0.2080591470003128,"44":-0.12474212050437927,"45":0.18025098741054535,"46":0.050163332372903824,"47":-0.43589019775390625,"48":-0.5694866180419922,"49":-0.18999218940734863,"50":0.023725716397166252,"51":-0.17041996121406555,"52":0.04115041345357895,"53":-0.020407119765877724,"54":0.11261452734470367,"55":-0.13227976858615875,"56":0.15215343236923218,"57":-0.12251663953065872,"58":0.35768625140190125,"59":0.023822443559765816,"60":0.15616220235824585,"61":-0.13164322078227997,"62":0.08901667594909668,"63":0.0867491364479065,"64":0.4205581545829773,"65":0.04692607745528221,"66":0.010305237025022507,"67":-0.03805214539170265,"68":-0.1549130529165268,"69":0.0874611884355545,"70":-0.08318386971950531,"71":-0.12636789679527283,"72":-0.19741149246692657,"73":-0.025378232821822166,"74":-0.16765421628952026,"75":-0.1904575675725937,"76":-0.17422112822532654,"77":-0.03844712674617767,"78":0.13396044075489044,"79":0.09428395330905914,"80":0.07577907294034958,"81":0.267179012298584,"82":0.2233670949935913,"83":-0.10270505398511887,"84":0.09528089314699173,"85":-0.011329825967550278,"86":0.2230985313653946,"87":0.4066910445690155,"88":-0.004760002717375755,"89":-0.1837530881166458,"90":0.0387718640267849,"91":0.17309337854385376,"92":0.04517730697989464,"93":0.02834939956665039,"94":-0.15829972922801971,"95":0.00668737618252635,"96":-0.06663846969604492,"97":0.1347687542438507,"98":0.09384074062108994,"99":-0.16062095761299133,"100":-0.15451757609844208,"101":0.07271376997232437,"102":0.13893280923366547,"103":0.09596583992242813,"104":-0.1729876846075058,"105":-0.00404647272080183,"106":-0.17767833173274994,"107":0.022401174530386925,"108":-0.13202698528766632,"109":0.06488712877035141,"110":-0.10206282138824463,"111":-0.11218909919261932,"112":-0.10489549487829208,"113":0.1784648299217224,"114":-0.14489814639091492}},"18":{"bias":0.0500873327255249,"weights":{"0":-0.05199672654271126,"1":0.1795794814825058,"2":-0.19139128923416138,"3":0.10780871659517288,"4":-0.0906096026301384,"5":-0.021663380786776543,"6":-0.10353663563728333,"7":0.1254737675189972,"8":0.18718820810317993,"9":-0.17607605457305908,"10":-0.09165820479393005,"11":-0.16209495067596436,"12":-0.08022496849298477,"13":-0.03458010405302048,"14":-0.11322661489248276,"15":-0.19900648295879364,"16":0.10434677451848984,"17":0.137431338429451,"18":0.15399137139320374,"19":-0.14945659041404724,"20":-0.007917944341897964,"21":-0.12408918887376785,"22":0.1812649667263031,"23":0.18019667267799377,"24":-0.1009795069694519,"25":0.00975227914750576,"26":0.18947121500968933,"27":-0.010684749111533165,"28":0.16869008541107178,"29":-0.0643780305981636,"30":-0.15687867999076843,"31":0.08255160599946976,"32":0.07108128070831299,"33":-0.19390496611595154,"34":-0.11488296836614609,"35":-0.12882894277572632,"36":-0.22879956662654877,"37":-0.17147143185138702,"38":0.02329658716917038,"39":0.0707598626613617,"40":0.17730186879634857,"41":0.18380878865718842,"42":0.26499664783477783,"43":0.19336006045341492,"44":-0.13155829906463623,"45":-0.2003718465566635,"46":-0.16219407320022583,"47":-0.18952281773090363,"48":0.1168096587061882,"49":0.03134915232658386,"50":-0.005510616581887007,"51":0.023058611899614334,"52":-0.06294242292642593,"53":-0.01465460192412138,"54":0.10908595472574234,"55":0.12489026039838791,"56":0.15581685304641724,"57":-0.06366341561079025,"58":-0.5802642107009888,"59":-0.5674796104431152,"60":-0.21098819375038147,"61":0.1480730026960373,"62":-0.18263573944568634,"63":0.41656067967414856,"64":0.3198225796222687,"65":0.3097609281539917,"66":-0.11384200304746628,"67":-0.03531778231263161,"68":-0.1973777562379837,"69":0.02878975309431553,"70":0.11874547600746155,"71":-0.11360020935535431,"72":0.14512726664543152,"73":0.07238806039094925,"74":-0.00040771474596112967,"75":-0.023467067629098892,"76":-0.0955408588051796,"77":-0.0699707493185997,"78":-0.09892011433839798,"79":0.1524776816368103,"80":-0.07701676338911057,"81":-0.20823252201080322,"82":0.00852264929562807,"83":0.08627307415008545,"84":-0.15479743480682373,"85":0.0593256875872612,"86":0.13729645311832428,"87":0.46063992381095886,"88":0.17264185845851898,"89":-0.18018129467964172,"90":0.10829197615385056,"91":-0.17486409842967987,"92":0.061239976435899734,"93":-0.1897043138742447,"94":0.12345748394727707,"95":0.018424060195684433,"96":0.11813630908727646,"97":0.1379561722278595,"98":0.0033842234406620264,"99":0.14893078804016113,"100":-0.1364051103591919,"101":0.008492430672049522,"102":-0.07871993631124496,"103":-0.017041301354765892,"104":0.08707704395055771,"105":0.06755328923463821,"106":0.11656342446804047,"107":-0.12410198897123337,"108":0.060583945363759995,"109":-0.10462827235460281,"110":0.05268462002277374,"111":0.09110152721405029,"112":-0.20227283239364624,"113":0.16912630200386047,"114":0.0833863765001297}},"19":{"bias":0.09680881351232529,"weights":{"0":0.08212611824274063,"1":0.19112154841423035,"2":-0.111642025411129,"3":-0.004137215204536915,"4":-0.1863357424736023,"5":-0.012062731198966503,"6":-0.008759289979934692,"7":-0.18319079279899597,"8":0.1202850267291069,"9":-0.1264764368534088,"10":-0.03979284688830376,"11":0.032111186534166336,"12":-0.11360004544258118,"13":0.13033540546894073,"14":-0.08755997568368912,"15":0.1315779685974121,"16":0.04016847535967827,"17":-0.11661634594202042,"18":-0.14044447243213654,"19":-0.09912034124135971,"20":0.15028414130210876,"21":-0.028958534821867943,"22":0.11058224737644196,"23":0.021988481283187866,"24":-0.3120971620082855,"25":-0.07757922261953354,"26":-0.16721086204051971,"27":0.09884126484394073,"28":-0.025037946179509163,"29":0.12448126822710037,"30":-0.011153853498399258,"31":0.20822864770889282,"32":0.13663128018379211,"33":-0.021778060123324394,"34":-0.16382932662963867,"35":-0.17717044055461884,"36":-0.03303663805127144,"37":-0.1374828964471817,"38":0.0008536797831766307,"39":-0.04186626896262169,"40":0.20004291832447052,"41":-0.01068525854498148,"42":0.08468063175678253,"43":0.12341397255659103,"44":0.1893022656440735,"45":-0.15238945186138153,"46":-0.20869296789169312,"47":-0.5688657164573669,"48":-0.4844054579734802,"49":-0.10003388673067093,"50":-0.07340850681066513,"51":0.16104894876480103,"52":0.38193774223327637,"53":0.48881959915161133,"54":0.0023532065097242594,"55":-0.10696113854646683,"56":0.14120814204216003,"57":-0.07988870143890381,"58":0.16554713249206543,"59":0.03185393661260605,"60":-0.027329422533512115,"61":0.1760082095861435,"62":0.16773587465286255,"63":0.2373044490814209,"64":0.10866915434598923,"65":0.17711851000785828,"66":-0.08878058940172195,"67":-0.11817800253629684,"68":0.06667991727590561,"69":-0.03580934926867485,"70":-0.09028267115354538,"71":-0.16105009615421295,"72":-0.1741257756948471,"73":0.16799916326999664,"74":-0.13053670525550842,"75":0.3078203797340393,"76":0.34299609065055847,"77":0.07959803193807602,"78":-0.04534086212515831,"79":-0.007619829848408699,"80":0.015587125904858112,"81":-0.007571408525109291,"82":-0.10048351436853409,"83":-0.0683450773358345,"84":-0.20002256333827972,"85":0.09055459499359131,"86":0.24232342839241028,"87":0.09743593633174896,"88":0.05643879249691963,"89":-0.15353819727897644,"90":-0.07122690975666046,"91":-0.1918894350528717,"92":0.08934008330106735,"93":0.13290679454803467,"94":0.08461090922355652,"95":0.012335875071585178,"96":-0.07760496437549591,"97":0.07625198364257812,"98":-0.05157281830906868,"99":-0.1302558183670044,"100":0.04290742054581642,"101":0.003978222608566284,"102":-0.15084010362625122,"103":0.04528326913714409,"104":0.1350184828042984,"105":-0.04928497597575188,"106":-0.09743807464838028,"107":0.1792818158864975,"108":0.046984296292066574,"109":-0.12977051734924316,"110":0.04651295021176338,"111":-0.09400928765535355,"112":-0.04581454023718834,"113":-0.034929338842630386,"114":-0.1641177386045456}},"20":{"bias":0.11802525818347931,"weights":{"0":-0.21356740593910217,"1":-0.11062642931938171,"2":0.1439281404018402,"3":0.17812389135360718,"4":-0.08622467517852783,"5":-0.012110312469303608,"6":0.07455981522798538,"7":-0.012917104177176952,"8":0.12696458399295807,"9":0.07247143238782883,"10":0.09318594634532928,"11":0.07143542915582657,"12":0.061051640659570694,"13":0.14968925714492798,"14":-0.02439509518444538,"15":0.02053002454340458,"16":0.11110755801200867,"17":0.15245088934898376,"18":0.06318159401416779,"19":-0.053250569850206375,"20":-0.020811690017580986,"21":0.13787047564983368,"22":0.16260913014411926,"23":-0.06684229522943497,"24":-0.1244729682803154,"25":0.08823619037866592,"26":-0.0006995447329245508,"27":0.07779520750045776,"28":-0.10529524087905884,"29":0.09775884449481964,"30":0.10091884434223175,"31":0.0824049860239029,"32":-0.09959079325199127,"33":-0.16179236769676208,"34":0.11711820960044861,"35":0.019130177795886993,"36":-0.2871435880661011,"37":-0.08594876527786255,"38":0.12465115636587143,"39":-0.09759660065174103,"40":0.12176601588726044,"41":0.07983691245317459,"42":0.18587273359298706,"43":-0.02669006586074829,"44":-0.10461758822202682,"45":0.042520757764577866,"46":0.007977551780641079,"47":0.3044017255306244,"48":0.1670902967453003,"49":-0.02013043314218521,"50":-0.11473818123340607,"51":-0.19014675915241241,"52":-0.2945244610309601,"53":0.029591402038931847,"54":0.06137281283736229,"55":0.0738554447889328,"56":0.024799233302474022,"57":-0.1079307347536087,"58":-0.23531508445739746,"59":-0.3231000006198883,"60":-0.044749148190021515,"61":-0.02045472152531147,"62":0.13743560016155243,"63":0.11710036545991898,"64":0.13377146422863007,"65":0.01884390041232109,"66":0.0620436854660511,"67":0.11643443256616592,"68":-0.12560811638832092,"69":-0.06386615335941315,"70":-0.02086620032787323,"71":-0.02278190851211548,"72":0.11787563562393188,"73":0.1438397765159607,"74":0.13350090384483337,"75":-0.018476959317922592,"76":-0.27007579803466797,"77":-0.010241900570690632,"78":0.03311434015631676,"79":-0.02150106243789196,"80":-0.2139987349510193,"81":-0.04227900877594948,"82":0.03264614939689636,"83":-0.06861907988786697,"84":0.1751653552055359,"85":0.08555882424116135,"86":0.0016303797019645572,"87":0.015212373808026314,"88":0.08710454404354095,"89":0.005065521690994501,"90":0.09535837918519974,"91":0.115442655980587,"92":-0.09253083914518356,"93":0.024492450058460236,"94":0.05513985827565193,"95":-0.03901856020092964,"96":-0.046181295067071915,"97":-0.058250363916158676,"98":-0.16172674298286438,"99":-0.024719102308154106,"100":-0.04152633622288704,"101":0.010309497825801373,"102":0.003344088327139616,"103":-0.08836023509502411,"104":-0.10579296201467514,"105":0.15750743448734283,"106":-0.1630879044532776,"107":-0.11580757051706314,"108":-0.06981141120195389,"109":0.04342905059456825,"110":-0.1808386743068695,"111":-0.03600531443953514,"112":-0.2090575397014618,"113":-0.013975045643746853,"114":-0.06971119344234467}},"21":{"bias":-0.17709583044052124,"weights":{"0":0.011120764538645744,"1":0.199671670794487,"2":0.06943006068468094,"3":-0.03952183574438095,"4":-0.19069884717464447,"5":0.013031385838985443,"6":0.03817266970872879,"7":0.0714530348777771,"8":-0.10836376994848251,"9":0.13958442211151123,"10":0.14844195544719696,"11":-0.015372750349342823,"12":0.13526253402233124,"13":0.07790189236402512,"14":-0.08267225325107574,"15":0.13378016650676727,"16":0.12992219626903534,"17":0.13554134964942932,"18":0.08479045331478119,"19":0.06311771273612976,"20":0.11044115573167801,"21":-0.16218219697475433,"22":-0.11801186203956604,"23":0.15104734897613525,"24":0.03356098011136055,"25":-0.1314581334590912,"26":0.12935230135917664,"27":-0.14157794415950775,"28":-0.02936776913702488,"29":0.0056198337115347385,"30":-0.0230440404266119,"31":-0.1467580944299698,"32":-0.05491447448730469,"33":-0.08813013881444931,"34":-0.15399792790412903,"35":-0.1328263133764267,"36":-0.16048835217952728,"37":-0.004759615752846003,"38":0.05468777194619179,"39":-0.11659898608922958,"40":-0.1490297168493271,"41":-0.07781554758548737,"42":-0.0828845202922821,"43":-0.18944819271564484,"44":0.05986098572611809,"45":-0.15508560836315155,"46":0.021281784400343895,"47":0.15962277352809906,"48":-0.17839044332504272,"49":-0.0019634170457720757,"50":-0.003239763667806983,"51":-0.17007124423980713,"52":0.15142428874969482,"53":-0.02413077838718891,"54":-0.15783393383026123,"55":0.04343598708510399,"56":-0.018100179731845856,"57":0.1443459540605545,"58":-0.027876820415258408,"59":0.05864966660737991,"60":-0.05070711299777031,"61":0.10399986058473587,"62":0.09210554510354996,"63":-0.1619657278060913,"64":-0.14371857047080994,"65":0.0400506928563118,"66":-0.10149021446704865,"67":-0.17661333084106445,"68":-0.10112404078245163,"69":-0.18467044830322266,"70":0.11059390753507614,"71":0.0522124208509922,"72":-0.19654959440231323,"73":-0.08600645512342453,"74":-0.14083991944789886,"75":-0.06998911499977112,"76":-0.03799530491232872,"77":-0.17046667635440826,"78":-0.1791679561138153,"79":0.07756923884153366,"80":-0.004356572404503822,"81":-0.17509803175926208,"82":-0.06584672629833221,"83":0.15499873459339142,"84":-0.04850054904818535,"85":0.18434865772724152,"86":-0.22642436623573303,"87":-0.0685068666934967,"88":0.055292513221502304,"89":0.1368117481470108,"90":-0.025136955082416534,"91":-0.007657530251890421,"92":-0.06798585504293442,"93":-0.03620210662484169,"94":0.03997604921460152,"95":-0.1273193210363388,"96":-0.013381175696849823,"97":-0.17039085924625397,"98":0.10118469595909119,"99":-0.007475234568119049,"100":-0.03804738447070122,"101":-0.09772150963544846,"102":-0.03511609137058258,"103":0.1721644401550293,"104":0.06027922406792641,"105":-0.17735259234905243,"106":-0.07882928848266602,"107":-0.05122552067041397,"108":0.12801916897296906,"109":0.09961935132741928,"110":-0.1294393688440323,"111":0.07897768914699554,"112":0.05468054115772247,"113":0.048546429723501205,"114":-0.14968964457511902}},"22":{"bias":-0.18672174215316772,"weights":{"0":0.11179555952548981,"1":0.10499614477157593,"2":-0.02483459748327732,"3":0.1458294689655304,"4":-0.07459203898906708,"5":-0.06674067676067352,"6":0.06165264546871185,"7":-0.1207687258720398,"8":0.08842028677463531,"9":-0.16599026322364807,"10":0.12063241004943848,"11":-0.027975575998425484,"12":0.09144070744514465,"13":-0.05211753025650978,"14":0.06785237789154053,"15":0.18077808618545532,"16":0.1131267100572586,"17":-0.07716269791126251,"18":-0.12253820896148682,"19":-0.013197598047554493,"20":-0.1742057502269745,"21":0.19525879621505737,"22":-0.07281091809272766,"23":0.14271585643291473,"24":0.0920984074473381,"25":-0.0234136451035738,"26":0.11786694824695587,"27":0.03412192687392235,"28":0.11521083116531372,"29":0.10948626697063446,"30":-0.017548300325870514,"31":-0.14019520580768585,"32":-0.030365677550435066,"33":-0.04596288129687309,"34":0.08173510432243347,"35":-0.053092315793037415,"36":-0.3765251934528351,"37":-0.18194419145584106,"38":-0.0850197821855545,"39":-0.03479963168501854,"40":0.05316811800003052,"41":0.17085780203342438,"42":0.017362279817461967,"43":-0.169132798910141,"44":0.09464256465435028,"45":-0.07727281749248505,"46":-0.046531111001968384,"47":-0.15345385670661926,"48":-0.22656561434268951,"49":0.14562483131885529,"50":-0.10758960247039795,"51":0.16964107751846313,"52":0.306747168302536,"53":-0.005199172999709845,"54":0.15468277037143707,"55":-0.1923990547657013,"56":-0.0703391432762146,"57":-0.1723938137292862,"58":-0.27357614040374756,"59":-0.4074038565158844,"60":-0.12936659157276154,"61":0.19800150394439697,"62":-0.03988730534911156,"63":0.2503945827484131,"64":0.2948397397994995,"65":0.015115189366042614,"66":0.10631993412971497,"67":0.016861705109477043,"68":0.1590392291545868,"69":-0.12398076802492142,"70":-0.06952785700559616,"71":0.17107458412647247,"72":0.018354326486587524,"73":-0.1747569739818573,"74":-0.17265412211418152,"75":0.2187555879354477,"76":0.28543180227279663,"77":0.09561561793088913,"78":-0.11290469765663147,"79":-0.18261569738388062,"80":0.09807319939136505,"81":-0.17725522816181183,"82":-0.25820407271385193,"83":0.12308495491743088,"84":0.1445610225200653,"85":-0.16717880964279175,"86":0.17495106160640717,"87":-0.02788982354104519,"88":0.06241709366440773,"89":0.07775571942329407,"90":-0.1379571557044983,"91":-0.01571512408554554,"92":-0.13579067587852478,"93":-0.19072158634662628,"94":-0.14823594689369202,"95":0.15667718648910522,"96":0.07099442183971405,"97":0.04158608242869377,"98":0.03088284283876419,"99":-0.15059199929237366,"100":-0.03107699379324913,"101":-0.003469060407951474,"102":-0.15357977151870728,"103":0.03171524032950401,"104":0.19778668880462646,"105":0.14447134733200073,"106":0.004244234878569841,"107":0.13335612416267395,"108":-0.044999804347753525,"109":0.09544169902801514,"110":-0.028746897354722023,"111":0.03308245167136192,"112":-0.008619265630841255,"113":-0.011667356826364994,"114":0.04490305110812187}},"23":{"bias":0.002035297453403473,"weights":{"0":-0.2129051387310028,"1":-0.1366969347000122,"2":0.1596647948026657,"3":0.06530649214982986,"4":0.0010479791089892387,"5":0.08017383515834808,"6":0.06542342156171799,"7":0.03671523556113243,"8":0.05890651419758797,"9":0.09579555690288544,"10":0.058223020285367966,"11":0.12076537311077118,"12":-0.10028190910816193,"13":-0.026095720008015633,"14":0.16185811161994934,"15":-0.07151420414447784,"16":0.1681218147277832,"17":0.06876541674137115,"18":-0.2062656432390213,"19":-0.025905225425958633,"20":-0.048609282821416855,"21":0.012716121971607208,"22":-0.07894653081893921,"23":0.16441333293914795,"24":-0.19904404878616333,"25":-0.05432070046663284,"26":-0.0889996588230133,"27":0.14204218983650208,"28":-0.06860712170600891,"29":0.13224278390407562,"30":0.2309298813343048,"31":0.009039641357958317,"32":-0.11892246454954147,"33":0.06598809361457825,"34":-0.058969903737306595,"35":0.12041857093572617,"36":0.08536127209663391,"37":-0.13008418679237366,"38":0.03903763368725777,"39":-0.11519300937652588,"40":0.12065928429365158,"41":-0.15884792804718018,"42":-0.22646267712116241,"43":-0.10716705024242401,"44":-0.09366379678249359,"45":-0.1468035727739334,"46":-0.0696793645620346,"47":-0.2226954698562622,"48":0.06822510808706284,"49":-0.1311851292848587,"50":0.156621053814888,"51":0.0235633235424757,"52":0.09289970248937607,"53":0.16755114495754242,"54":0.21569699048995972,"55":-0.03360855206847191,"56":0.14166083931922913,"57":-0.16637130081653595,"58":-0.030354246497154236,"59":-0.023719757795333862,"60":0.04783148318529129,"61":-0.007440573535859585,"62":-0.11791107803583145,"63":0.11191969364881516,"64":-0.1024707555770874,"65":-0.061663899570703506,"66":0.15449893474578857,"67":0.15498954057693481,"68":-0.11645407974720001,"69":0.1674991250038147,"70":-0.016137689352035522,"71":-0.202815443277359,"72":0.0735621452331543,"73":0.14206552505493164,"74":-0.1118713915348053,"75":-0.17563003301620483,"76":-0.0678865984082222,"77":0.03048941306769848,"78":0.11009784042835236,"79":-0.09153901040554047,"80":0.13511410355567932,"81":0.11923889070749283,"82":-0.20811054110527039,"83":0.009511828422546387,"84":0.16688643395900726,"85":-0.08072859048843384,"86":0.13733406364917755,"87":-0.06276798248291016,"88":-0.06797294318675995,"89":0.05434690788388252,"90":-0.04369616135954857,"91":-0.1485341191291809,"92":0.09174515306949615,"93":0.06131850555539131,"94":-0.1566389948129654,"95":-0.2068900465965271,"96":0.054805953055620193,"97":-0.03207744285464287,"98":-0.07091549038887024,"99":0.10497115552425385,"100":-0.17804796993732452,"101":-0.09144081175327301,"102":-0.06069403514266014,"103":0.16506189107894897,"104":0.12461845576763153,"105":0.07249471545219421,"106":0.12989220023155212,"107":-0.16078849136829376,"108":0.038075994700193405,"109":-0.05400809273123741,"110":0.05365747585892677,"111":-0.0786314457654953,"112":-0.03272581472992897,"113":0.08440874516963959,"114":0.04084404185414314}},"24":{"bias":-0.007418711669743061,"weights":{"0":0.060794271528720856,"1":0.03364039584994316,"2":-0.07933086901903152,"3":-0.04725011810660362,"4":0.08198171108961105,"5":-0.05084189400076866,"6":0.1174226701259613,"7":-0.008082595653831959,"8":0.1313382238149643,"9":0.1494285613298416,"10":0.1456669718027115,"11":0.09411117434501648,"12":0.1514083296060562,"13":0.0904926061630249,"14":-0.08955355733633041,"15":0.11768226325511932,"16":0.051469217985868454,"17":-0.14597715437412262,"18":0.12420215457677841,"19":-0.1210031509399414,"20":0.17892704904079437,"21":0.07072649151086807,"22":0.006852892693132162,"23":0.15037867426872253,"24":-0.24530068039894104,"25":-0.20068134367465973,"26":0.03220198303461075,"27":-0.1440051943063736,"28":-0.04323161020874977,"29":0.27508580684661865,"30":0.31902527809143066,"31":0.1285126507282257,"32":-0.1317014843225479,"33":-0.032318513840436935,"34":0.01366835180670023,"35":-0.45896345376968384,"36":-0.06420665234327316,"37":0.1707325428724289,"38":-0.034553829580545425,"39":-0.018139569088816643,"40":0.08215177059173584,"41":0.06172896549105644,"42":0.14407862722873688,"43":-0.19105969369411469,"44":0.16921313107013702,"45":-0.13887758553028107,"46":-0.025753632187843323,"47":-0.2174980789422989,"48":-0.25085437297821045,"49":-0.10199688374996185,"50":0.04248911514878273,"51":0.19405461847782135,"52":0.3390931785106659,"53":0.5654788613319397,"54":0.38571804761886597,"55":-0.16679345071315765,"56":0.09365282207727432,"57":-0.22052673995494843,"58":-0.4784856140613556,"59":-0.28307926654815674,"60":-0.3069293200969696,"61":-0.10353884100914001,"62":-0.09157019853591919,"63":0.09237345308065414,"64":0.04431408643722534,"65":0.13614219427108765,"66":0.10837774723768234,"67":-0.12117734551429749,"68":0.13241581618785858,"69":-0.13135065138339996,"70":-0.1472724825143814,"71":-0.21814824640750885,"72":-0.0842503011226654,"73":-0.15147556364536285,"74":-0.14142067730426788,"75":0.30547183752059937,"76":0.3158329129219055,"77":0.07266838848590851,"78":0.05956941470503807,"79":0.16988123953342438,"80":0.06975868344306946,"81":-0.0010344295296818018,"82":-0.2697189152240753,"83":-0.1595732718706131,"84":-0.18704648315906525,"85":0.15599234402179718,"86":0.00329634640365839,"87":0.26162999868392944,"88":-0.040345702320337296,"89":0.006310550961643457,"90":0.1899801343679428,"91":-0.13044486939907074,"92":-0.03580128774046898,"93":-0.0622682049870491,"94":-0.18794797360897064,"95":-0.19550450146198273,"96":-0.144193634390831,"97":-0.01784554310142994,"98":0.11726009845733643,"99":-0.07920067012310028,"100":0.001100582187063992,"101":-0.11013643443584442,"102":-0.03911011293530464,"103":0.16626252233982086,"104":0.09536051005125046,"105":-0.030073517933487892,"106":0.18223614990711212,"107":-0.17786146700382233,"108":0.1128203347325325,"109":-0.16048534214496613,"110":-0.1525585800409317,"111":-0.04629574343562126,"112":0.1354191154241562,"113":0.060875099152326584,"114":0.06385371834039688}},"25":{"bias":0.15536107122898102,"weights":{"0":0.1163526102900505,"1":0.11962487548589706,"2":0.18422968685626984,"3":0.05423162877559662,"4":-0.1537676304578781,"5":-0.010825611650943756,"6":-0.05639277398586273,"7":-0.018499240279197693,"8":0.041842490434646606,"9":0.13790053129196167,"10":-0.199354350566864,"11":0.15458916127681732,"12":-0.03430178761482239,"13":-0.14054475724697113,"14":-0.042726702988147736,"15":0.06459788233041763,"16":0.17610305547714233,"17":-0.1367506980895996,"18":0.18893907964229584,"19":-0.0986533984541893,"20":-0.0775943323969841,"21":-0.0866175964474678,"22":-0.20894017815589905,"23":0.07971858233213425,"24":0.13228358328342438,"25":0.1998041421175003,"26":0.1338234543800354,"27":-0.09327315539121628,"28":-0.08226396888494492,"29":0.1237626001238823,"30":0.12512792646884918,"31":0.2057100534439087,"32":-0.1548515409231186,"33":-0.14065130054950714,"34":0.06872401386499405,"35":-0.45850038528442383,"36":-0.4654166102409363,"37":0.17754271626472473,"38":0.11623088270425797,"39":-0.11104612797498703,"40":0.04729638621211052,"41":0.17431721091270447,"42":0.1168489158153534,"43":-0.07039614766836166,"44":0.02648026868700981,"45":-0.06633273512125015,"46":-0.04178978130221367,"47":0.24406279623508453,"48":0.22989635169506073,"49":-0.06999373435974121,"50":-0.11584626883268356,"51":-0.025197096168994904,"52":-0.036646343767642975,"53":0.3464367985725403,"54":0.26153573393821716,"55":-0.08903125673532486,"56":-0.03362799063324928,"57":-0.14472879469394684,"58":-0.6830481290817261,"59":-0.6930316686630249,"60":-0.03682814538478851,"61":0.07514020055532455,"62":0.11991731077432632,"63":0.147898331284523,"64":0.2699875831604004,"65":0.1928495317697525,"66":-0.0540594607591629,"67":-0.2090832144021988,"68":-0.039416030049324036,"69":0.18482708930969238,"70":-0.06343930959701538,"71":0.024898188188672066,"72":-0.16033251583576202,"73":0.18372389674186707,"74":0.023912766948342323,"75":0.21022795140743256,"76":0.13137805461883545,"77":-0.11145035177469254,"78":0.07107920199632645,"79":-0.04807010293006897,"80":-0.11224380880594254,"81":-0.24765655398368835,"82":-0.09776362776756287,"83":-0.11418468505144119,"84":-0.18320201337337494,"85":0.11860016733407974,"86":0.11126168817281723,"87":0.16875582933425903,"88":-0.07262131571769714,"89":-0.08906824141740799,"90":-0.08648227900266647,"91":-0.16017737984657288,"92":0.14014936983585358,"93":-0.17785519361495972,"94":-0.186522975564003,"95":-0.03873612731695175,"96":0.05435876548290253,"97":0.12691009044647217,"98":-0.14594602584838867,"99":-0.010883611626923084,"100":-0.13441039621829987,"101":0.16602036356925964,"102":-0.1713773012161255,"103":-0.19579055905342102,"104":0.10809295624494553,"105":0.17783665657043457,"106":0.0418199747800827,"107":0.1292400062084198,"108":0.1095571294426918,"109":-0.01560105662792921,"110":-0.1781565546989441,"111":-0.18171066045761108,"112":0.060603294521570206,"113":0.01566612347960472,"114":0.15883280336856842}},"26":{"bias":0.1827675700187683,"weights":{"0":-0.073818638920784,"1":0.06718767434358597,"2":0.01990085281431675,"3":-0.09802407771348953,"4":-0.04130368307232857,"5":-0.07923239469528198,"6":-0.09871505200862885,"7":-0.02516174130141735,"8":0.18477821350097656,"9":0.004722163081169128,"10":-0.09030280262231827,"11":0.06644746661186218,"12":0.0004225033917464316,"13":-0.13284726440906525,"14":-0.18601937592029572,"15":0.020736994221806526,"16":0.010928566567599773,"17":-0.19633454084396362,"18":-0.04854898527264595,"19":0.09766404330730438,"20":-0.00558023527264595,"21":0.0876367911696434,"22":-0.05649988725781441,"23":-0.09470877796411514,"24":0.14891165494918823,"25":0.36121368408203125,"26":0.16468697786331177,"27":-0.0044693234376609325,"28":-0.19627811014652252,"29":0.10259237885475159,"30":-0.011555087752640247,"31":-0.16547125577926636,"32":-0.1591753214597702,"33":0.012742568738758564,"34":0.07148823142051697,"35":0.15365305542945862,"36":0.013548948802053928,"37":0.1541970670223236,"38":-0.07905852794647217,"39":-0.15616679191589355,"40":-0.04324007034301758,"41":-0.3439985513687134,"42":-0.3268539309501648,"43":-0.194032222032547,"44":0.10020497441291809,"45":-0.14584392309188843,"46":0.2587904930114746,"47":0.58896803855896,"48":0.255805104970932,"49":0.016925876960158348,"50":-0.07957106083631516,"51":-0.162344291806221,"52":0.21998606622219086,"53":-0.045760758221149445,"54":0.22463425993919373,"55":0.004781022667884827,"56":0.06265316903591156,"57":0.06356534361839294,"58":0.15274272859096527,"59":0.027818622067570686,"60":0.017354179173707962,"61":-0.18517401814460754,"62":0.04927048087120056,"63":-0.43659791350364685,"64":-0.5998997688293457,"65":-0.2576645016670227,"66":0.04560953006148338,"67":-0.007652069441974163,"68":0.18522955477237701,"69":-0.07424493134021759,"70":0.38150233030319214,"71":0.27286434173583984,"72":0.02507861703634262,"73":-0.1892816722393036,"74":-0.18900270760059357,"75":0.17248868942260742,"76":0.11319546401500702,"77":-0.01738707162439823,"78":-0.025944644585251808,"79":0.14358597993850708,"80":0.06927242130041122,"81":0.14936818182468414,"82":-0.05509708821773529,"83":0.10606623440980911,"84":-0.01292151864618063,"85":0.05558358132839203,"86":-0.4281202256679535,"87":-0.1611287146806717,"88":-0.26077213883399963,"89":-0.10395574569702148,"90":-0.1841733604669571,"91":0.06376893073320389,"92":0.10329662263393402,"93":0.03989892452955246,"94":0.157796710729599,"95":-0.08057399094104767,"96":-0.1957952082157135,"97":0.00479577761143446,"98":-0.07006971538066864,"99":-0.10055254399776459,"100":0.17996813356876373,"101":0.05399508401751518,"102":0.15941420197486877,"103":0.044606972485780716,"104":0.06042110174894333,"105":-0.05645019933581352,"106":0.09130191057920456,"107":0.1133129671216011,"108":0.16965080797672272,"109":0.04028504714369774,"110":-0.03066367469727993,"111":0.06717691570520401,"112":-0.16742262244224548,"113":-0.07036148756742477,"114":0.011258662678301334}},"27":{"bias":0.14756089448928833,"weights":{"0":-0.20129188895225525,"1":-0.06669050455093384,"2":-0.05886160582304001,"3":-0.02488422393798828,"4":0.0959734320640564,"5":0.06663836538791656,"6":-0.012667188420891762,"7":-0.004090041387826204,"8":0.0839046761393547,"9":0.18462449312210083,"10":-0.06765642017126083,"11":0.018753375858068466,"12":-0.0024362863041460514,"13":-0.18351972103118896,"14":0.16028141975402832,"15":-0.10240542143583298,"16":0.02322826161980629,"17":0.02591419219970703,"18":0.11105001717805862,"19":-0.04897136986255646,"20":0.17747730016708374,"21":-0.02581789717078209,"22":0.10393043607473373,"23":-0.02584052085876465,"24":0.06742687523365021,"25":-0.16085760295391083,"26":-0.2052927315235138,"27":-0.17507688701152802,"28":-0.19054339826107025,"29":0.1446298360824585,"30":0.1503569483757019,"31":-0.19621039927005768,"32":0.0842956155538559,"33":0.015744496136903763,"34":-0.035416506230831146,"35":0.17663630843162537,"36":-0.02148895151913166,"37":0.11273381114006042,"38":-0.010524652898311615,"39":-0.038989730179309845,"40":0.05717625468969345,"41":0.2199724167585373,"42":-0.08331131190061569,"43":-0.194776713848114,"44":-0.1460554450750351,"45":-0.04109206050634384,"46":0.006323860492557287,"47":0.04619446024298668,"48":-0.013897759839892387,"49":0.08028466999530792,"50":-0.06917291134595871,"51":0.01999843865633011,"52":-0.05389370769262314,"53":-0.0032511469908058643,"54":0.11038806289434433,"55":0.14870738983154297,"56":-0.07078059762716293,"57":0.061132706701755524,"58":-0.06680434197187424,"59":0.15192878246307373,"60":0.07795528322458267,"61":-0.1809873729944229,"62":0.1613040715456009,"63":0.11218921840190887,"64":-0.05693897232413292,"65":0.20178842544555664,"66":-0.048580579459667206,"67":-0.12084256857633591,"68":0.0641566663980484,"69":-0.16442009806632996,"70":-0.19700923562049866,"71":-0.16055752336978912,"72":-0.11303456127643585,"73":-0.09608005732297897,"74":-0.19486135244369507,"75":-0.003641544608399272,"76":-0.15082001686096191,"77":-0.026858411729335785,"78":-0.07751577347517014,"79":-0.10224784165620804,"80":-0.13463856279850006,"81":-0.1785048097372055,"82":0.18881075084209442,"83":-0.09448620676994324,"84":-0.10519147664308548,"85":-0.19859236478805542,"86":0.15898488461971283,"87":-0.028420239686965942,"88":0.15032808482646942,"89":0.0987766906619072,"90":0.04156643897294998,"91":0.05205390602350235,"92":0.17562495172023773,"93":-0.16027091443538666,"94":-0.17197221517562866,"95":-0.15887634456157684,"96":0.17135106027126312,"97":-0.0666862204670906,"98":-0.09299974888563156,"99":-0.0757674127817154,"100":0.12630009651184082,"101":0.12136871367692947,"102":0.15703663229942322,"103":0.08525700122117996,"104":-0.03024378791451454,"105":-0.0019970182329416275,"106":-0.12910011410713196,"107":-0.11897419393062592,"108":-0.12312564998865128,"109":-0.14858052134513855,"110":-0.16137267649173737,"111":-0.1387251615524292,"112":0.18361307680606842,"113":-0.18514184653759003,"114":0.0504298210144043}},"28":{"bias":0.1118040531873703,"weights":{"0":0.03987736999988556,"1":-0.11018363386392593,"2":-0.0693579837679863,"3":0.17571264505386353,"4":-0.048794716596603394,"5":0.1574784368276596,"6":-0.003979146014899015,"7":-0.06647933274507523,"8":-0.13850733637809753,"9":-0.01916690170764923,"10":-0.07039204984903336,"11":-0.03558153659105301,"12":-0.04893244802951813,"13":-0.0022971867583692074,"14":-0.08940710872411728,"15":0.1069548949599266,"16":0.020138023421168327,"17":-0.07683012634515762,"18":-0.004634287673979998,"19":-0.05200137197971344,"20":0.02736375853419304,"21":-0.04590728133916855,"22":0.012287325225770473,"23":-0.13612191379070282,"24":0.19650739431381226,"25":-0.0063968198373913765,"26":0.018283380195498466,"27":0.1257016658782959,"28":0.11776448041200638,"29":-0.24961139261722565,"30":-0.39152318239212036,"31":-0.18648992478847504,"32":0.15074002742767334,"33":-0.10763213783502579,"34":0.08711256831884384,"35":0.1492384821176529,"36":0.11128944903612137,"37":-0.1484190970659256,"38":0.0358317568898201,"39":-0.19222410023212433,"40":-0.05055280774831772,"41":0.16586647927761078,"42":0.2670310437679291,"43":-0.047773413360118866,"44":0.11911796778440475,"45":0.12453573942184448,"46":0.03482762351632118,"47":0.03410813584923744,"48":0.16667184233665466,"49":0.18865664303302765,"50":0.021844618022441864,"51":-0.10772014409303665,"52":-0.3363683521747589,"53":-0.5348553657531738,"54":-0.01778137870132923,"55":0.08923768252134323,"56":-0.17935523390769958,"57":-0.03328521549701691,"58":-0.11808864772319794,"59":0.15553860366344452,"60":0.02800746262073517,"61":0.12045852094888687,"62":-0.09911143034696579,"63":0.24042843282222748,"64":0.19434626400470734,"65":0.19025439023971558,"66":-0.07784628123044968,"67":-0.19366218149662018,"68":-0.19976845383644104,"69":0.09588094800710678,"70":-0.07689659297466278,"71":0.178121879696846,"72":-0.18769638240337372,"73":-0.08024325221776962,"74":-0.1736447811126709,"75":0.048489585518836975,"76":-0.22377480566501617,"77":-0.2297334223985672,"78":-0.007481035310775042,"79":-0.148482084274292,"80":0.19269977509975433,"81":-0.1370457112789154,"82":-0.15535256266593933,"83":-0.007458558771759272,"84":-0.1569231003522873,"85":0.15204420685768127,"86":0.13841086626052856,"87":0.3223389685153961,"88":-0.08473174273967743,"89":-0.04900805652141571,"90":-0.11134061962366104,"91":0.020536746829748154,"92":0.04680275917053223,"93":0.031227394938468933,"94":-0.04549826681613922,"95":0.0012125790817663074,"96":0.04269172251224518,"97":0.13155314326286316,"98":-0.031901370733976364,"99":0.08835580199956894,"100":-0.023949459195137024,"101":0.06242954358458519,"102":-0.10855215042829514,"103":0.18187980353832245,"104":0.11722996085882187,"105":0.16765335202217102,"106":0.1536882072687149,"107":0.15546825528144836,"108":0.07133051007986069,"109":-0.017555084079504013,"110":-0.08109445124864578,"111":0.0753493383526802,"112":0.058747537434101105,"113":-0.17266198992729187,"114":0.04954638332128525}},"29":{"bias":0.017622947692871094,"weights":{"0":-0.08751466125249863,"1":-0.019801311194896698,"2":0.11512544751167297,"3":-0.10676973313093185,"4":-0.08687660843133926,"5":0.07194418460130692,"6":0.13933534920215607,"7":-0.07658853381872177,"8":0.03230028226971626,"9":-0.17681601643562317,"10":-0.008811939507722855,"11":0.11550023406744003,"12":0.014393690042197704,"13":0.1023741140961647,"14":0.04930892214179039,"15":0.011635888367891312,"16":0.03610723093152046,"17":-0.08418945968151093,"18":-0.04703159257769585,"19":-0.0787600502371788,"20":-0.09871659427881241,"21":-0.1629120260477066,"22":0.15140074491500854,"23":-0.1602642983198166,"24":-0.04852916672825813,"25":0.23038417100906372,"26":0.022023074328899384,"27":0.20439335703849792,"28":0.17354995012283325,"29":-0.24772033095359802,"30":-0.30956923961639404,"31":-0.08916480839252472,"32":-0.02992236241698265,"33":0.13344694674015045,"34":-0.14434459805488586,"35":0.43209731578826904,"36":0.09176349639892578,"37":0.20092281699180603,"38":0.15884722769260406,"39":-0.044481147080659866,"40":-0.06410650908946991,"41":-0.34357425570487976,"42":-0.259701132774353,"43":-0.15840783715248108,"44":0.0182638019323349,"45":-0.006507284939289093,"46":-0.07844894379377365,"47":0.2841760218143463,"48":0.27506569027900696,"49":0.02411797270178795,"50":0.17949017882347107,"51":-0.051429178565740585,"52":-0.35710620880126953,"53":-0.27704277634620667,"54":-0.13175468146800995,"55":0.011377906426787376,"56":-0.15458418428897858,"57":0.13673566281795502,"58":0.4854501783847809,"59":0.5706360340118408,"60":0.20593588054180145,"61":0.12619347870349884,"62":-0.1921124905347824,"63":-0.34018778800964355,"64":-0.21543139219284058,"65":-0.22027458250522614,"66":0.19649705290794373,"67":0.15442928671836853,"68":0.11487258225679398,"69":0.01280959602445364,"70":0.2791610360145569,"71":0.23095478117465973,"72":-0.05977693572640419,"73":-0.0812186449766159,"74":-0.14435598254203796,"75":-0.1482332944869995,"76":-0.13465522229671478,"77":0.035311419516801834,"78":0.16688787937164307,"79":-0.193266823887825,"80":0.10724782943725586,"81":0.09230946004390717,"82":0.31438326835632324,"83":0.14650988578796387,"84":-0.021402858197689056,"85":-0.02826281264424324,"86":-0.15549565851688385,"87":-0.2873735725879669,"88":-0.11590138077735901,"89":0.010439072735607624,"90":-0.07826641201972961,"91":-0.055036917328834534,"92":0.09527227282524109,"93":0.2040637582540512,"94":-0.14499720931053162,"95":0.17616227269172668,"96":-0.015662075951695442,"97":0.027469411492347717,"98":-0.18945389986038208,"99":0.08446770161390305,"100":-0.06299877911806107,"101":-0.13532231748104095,"102":-0.17801450192928314,"103":0.022789940237998962,"104":-0.013705556280910969,"105":-0.018438585102558136,"106":-0.00964550580829382,"107":0.17238257825374603,"108":-0.08736716955900192,"109":-0.13163016736507416,"110":0.13570372760295868,"111":-0.1398918330669403,"112":0.0336335189640522,"113":0.1289011389017105,"114":0.01370274182409048}},"30":{"bias":0.10715264827013016,"weights":{"0":-0.207681804895401,"1":-0.11920386552810669,"2":0.043945904821157455,"3":-0.0015506488271057606,"4":0.06438148766756058,"5":0.04194333031773567,"6":-0.03023327887058258,"7":0.09787555038928986,"8":-0.15638388693332672,"9":-0.07584527134895325,"10":-0.09354604780673981,"11":0.10644577443599701,"12":-0.16194337606430054,"13":0.1137489452958107,"14":-0.19154632091522217,"15":-0.21026913821697235,"16":0.04977893829345703,"17":-0.13102290034294128,"18":-0.12834405899047852,"19":-0.15894094109535217,"20":0.06026967242360115,"21":-0.07065770030021667,"22":0.02618412673473358,"23":-0.06022581085562706,"24":-0.16181997954845428,"25":-0.006659661419689655,"26":0.016003791242837906,"27":-0.1979619264602661,"28":0.10948985069990158,"29":-0.11619293689727783,"30":0.07015784084796906,"31":-0.007152138743549585,"32":0.06399483978748322,"33":-0.19783344864845276,"34":0.07878432422876358,"35":0.001422928529791534,"36":-0.04797886684536934,"37":-0.1566484570503235,"38":0.021163158118724823,"39":-0.18499314785003662,"40":0.05375079810619354,"41":-0.09203970432281494,"42":0.15137560665607452,"43":-0.10187840461730957,"44":-0.047725073993206024,"45":-0.100704126060009,"46":-0.006469300482422113,"47":0.1300158053636551,"48":-0.12975232303142548,"49":-0.11901602894067764,"50":0.019992880523204803,"51":-0.11048026382923126,"52":-0.07176551967859268,"53":0.04508539289236069,"54":-0.06086967885494232,"55":-0.04321453347802162,"56":0.08237556368112564,"57":0.05904211848974228,"58":0.05833464115858078,"59":-0.0958448275923729,"60":0.1947837620973587,"61":0.05307833105325699,"62":-0.10455140471458435,"63":-0.18646599352359772,"64":-0.15807472169399261,"65":-0.07570568472146988,"66":0.01035394612699747,"67":-0.18290024995803833,"68":0.12345415353775024,"69":0.12017302960157394,"70":0.10436911135911942,"71":0.03599205240607262,"72":0.004309884738177061,"73":0.10071010142564774,"74":0.03644903749227524,"75":-0.16818097233772278,"76":0.07302636653184891,"77":-0.11785520613193512,"78":-0.03192541003227234,"79":-0.05538849160075188,"80":-0.09128254652023315,"81":-0.18387271463871002,"82":-0.04319725185632706,"83":0.11475012451410294,"84":-0.04968291521072388,"85":0.1222531795501709,"86":0.000087593580246903,"87":0.10812681168317795,"88":0.057461272925138474,"89":-0.05158945173025131,"90":-0.10658113658428192,"91":-0.03633587434887886,"92":0.0764969140291214,"93":-0.004100230522453785,"94":-0.041145648807287216,"95":0.10542231798171997,"96":0.06681161373853683,"97":0.09263528883457184,"98":-0.04667706787586212,"99":0.17635488510131836,"100":-0.1856662631034851,"101":0.11860529333353043,"102":0.14686697721481323,"103":0.15437237918376923,"104":0.124665267765522,"105":-0.12293124198913574,"106":0.13098730146884918,"107":-0.15211713314056396,"108":-0.14159956574440002,"109":-0.14985261857509613,"110":0.15874731540679932,"111":-0.032242462038993835,"112":0.026689138263463974,"113":-0.15742285549640656,"114":-0.08781018108129501}},"31":{"bias":-0.09112083166837692,"weights":{"0":-0.16232335567474365,"1":0.0858839824795723,"2":-0.06202124059200287,"3":-0.1832580864429474,"4":0.016542501747608185,"5":-0.11512221395969391,"6":-0.1427251696586609,"7":0.10106240957975388,"8":0.06429976224899292,"9":-0.07374586910009384,"10":-0.0879659429192543,"11":0.1711300015449524,"12":-0.1660258173942566,"13":-0.1874980330467224,"14":0.03823857009410858,"15":-0.036570437252521515,"16":0.03837389126420021,"17":-0.134955495595932,"18":-0.01047543901950121,"19":0.16595527529716492,"20":0.015263069421052933,"21":0.06331700831651688,"22":0.15065646171569824,"23":0.15817958116531372,"24":-0.14622673392295837,"25":-0.002629033289849758,"26":0.05503407120704651,"27":0.11073455959558487,"28":0.025203393772244453,"29":0.15619097650051117,"30":-0.1153872162103653,"31":-0.015524121932685375,"32":-0.04658553749322891,"33":-0.12603747844696045,"34":0.1834348738193512,"35":0.1368071585893631,"36":0.04133840277791023,"37":-0.054035644978284836,"38":0.19871464371681213,"39":-0.18320894241333008,"40":0.1502031832933426,"41":-0.031681668013334274,"42":-0.1652745008468628,"43":0.1909911036491394,"44":0.19649192690849304,"45":0.0761096253991127,"46":0.17433010041713715,"47":0.12333217263221741,"48":0.12400513142347336,"49":0.14245006442070007,"50":-0.13956013321876526,"51":0.0460994653403759,"52":-0.13558714091777802,"53":0.06948396563529968,"54":0.17058460414409637,"55":0.13492915034294128,"56":0.0024701724760234356,"57":0.05916869640350342,"58":0.21449831128120422,"59":0.1515059918165207,"60":-0.07995215803384781,"61":0.0633702501654625,"62":-0.14628809690475464,"63":-0.2520734369754791,"64":-0.2515791654586792,"65":-0.08729290962219238,"66":0.05203370377421379,"67":-0.06498726457357407,"68":0.003585627768188715,"69":-0.18349117040634155,"70":0.12639054656028748,"71":0.02655285969376564,"72":-0.15163202583789825,"73":0.08110851794481277,"74":-0.07702576369047165,"75":0.0006393257062882185,"76":-0.06544380635023117,"77":-0.0979992151260376,"78":-0.19165289402008057,"79":-0.15913298726081848,"80":0.004589281510561705,"81":0.011563245207071304,"82":-0.11976335942745209,"83":0.01061489712446928,"84":0.16458576917648315,"85":0.14018547534942627,"86":0.08879801630973816,"87":-0.23463702201843262,"88":0.022050244733691216,"89":0.1444578468799591,"90":-0.0034829273354262114,"91":-0.09520038217306137,"92":0.19367477297782898,"93":0.020541371777653694,"94":0.08425333350896835,"95":0.1211497113108635,"96":-0.027248481288552284,"97":-0.03176426142454147,"98":0.1803581416606903,"99":-0.15705439448356628,"100":-0.1576063632965088,"101":-0.16094791889190674,"102":-0.19740983843803406,"103":0.1763221025466919,"104":-0.0223698690533638,"105":-0.04886811971664429,"106":0.1290663778781891,"107":-0.003055264474824071,"108":-0.0800364688038826,"109":0.19124436378479004,"110":-0.18541693687438965,"111":0.13770660758018494,"112":-0.16832327842712402,"113":-0.1304568648338318,"114":-0.19288727641105652}},"32":{"bias":0.004628982860594988,"weights":{"0":0.1983431577682495,"1":0.15921209752559662,"2":0.009161688387393951,"3":-0.11490840464830399,"4":-0.013021767139434814,"5":-0.170258566737175,"6":0.10410354286432266,"7":-0.18218691647052765,"8":-0.0925908014178276,"9":0.0962449386715889,"10":-0.15781423449516296,"11":-0.037800829857587814,"12":0.07804086059331894,"13":0.127301886677742,"14":0.042152274399995804,"15":0.05804397538304329,"16":-0.14262528717517853,"17":0.125404492020607,"18":-0.03435773774981499,"19":-0.06612534075975418,"20":-0.030104059725999832,"21":0.14654628932476044,"22":0.20346203446388245,"23":-0.04055077210068703,"24":-0.28274717926979065,"25":-0.3776557147502899,"26":-0.0027050133794546127,"27":0.07049823552370071,"28":-0.19363653659820557,"29":-0.12308292090892792,"30":-0.029579654335975647,"31":-0.030438877642154694,"32":0.17693984508514404,"33":0.1575765609741211,"34":0.04237441346049309,"35":0.1773982048034668,"36":0.19182762503623962,"37":-0.03676416352391243,"38":-0.184823676943779,"39":0.03254339471459389,"40":0.03757767006754875,"41":0.31397464871406555,"42":0.05375916510820389,"43":0.01306111179292202,"44":-0.06750310212373734,"45":-0.07485692948102951,"46":-0.2669268846511841,"47":-0.7875175476074219,"48":-0.6187687516212463,"49":-0.1527484953403473,"50":0.10188614577054977,"51":-0.19096943736076355,"52":0.2048903852701187,"53":0.09101010113954544,"54":-0.11593018472194672,"55":-0.13329054415225983,"56":-0.14362502098083496,"57":-0.03958125784993172,"58":0.3623363673686981,"59":0.15765151381492615,"60":0.09850247949361801,"61":-0.021388810127973557,"62":0.0723632350564003,"63":0.16653414070606232,"64":0.4548856317996979,"65":0.2834824025630951,"66":0.1226036474108696,"67":-0.1401023417711258,"68":-0.14431822299957275,"69":-0.06599368155002594,"70":-0.3434116542339325,"71":-0.35045260190963745,"72":-0.15831109881401062,"73":0.012556169182062149,"74":0.15401233732700348,"75":-0.04367787390947342,"76":-0.021600132808089256,"77":0.08527608960866928,"78":0.14107708632946014,"79":-0.05565528944134712,"80":-0.007692908402532339,"81":0.30245521664619446,"82":0.2520233392715454,"83":-0.06428858637809753,"84":-0.030396614223718643,"85":0.030072633177042007,"86":0.05542731285095215,"87":0.24875018000602722,"88":-0.06909403204917908,"89":-0.15601490437984467,"90":0.12556472420692444,"91":0.10996746271848679,"92":0.12464839220046997,"93":-0.1450929492712021,"94":-0.1450943648815155,"95":0.04411229118704796,"96":-0.17559164762496948,"97":0.16484838724136353,"98":-0.052820924669504166,"99":0.17815713584423065,"100":0.02995096519589424,"101":0.13563567399978638,"102":0.019605815410614014,"103":-0.15100844204425812,"104":-0.10630472749471664,"105":-0.10248646885156631,"106":-0.09367441385984421,"107":0.09499051421880722,"108":0.03584539517760277,"109":-0.09777479618787766,"110":0.10806665569543839,"111":-0.18087078630924225,"112":-0.14704492688179016,"113":0.12236808985471725,"114":0.2006736695766449}},"33":{"bias":-0.05523259937763214,"weights":{"0":0.17845602333545685,"1":-0.16942092776298523,"2":0.07508108764886856,"3":0.03205646201968193,"4":-0.12815642356872559,"5":-0.1258249282836914,"6":0.11501304060220718,"7":-0.16872690618038177,"8":-0.07170291990041733,"9":0.07217580825090408,"10":0.1732536107301712,"11":-0.08287657052278519,"12":-0.13546696305274963,"13":0.1404925435781479,"14":-0.1965828686952591,"15":-0.20332969725131989,"16":-0.16891281306743622,"17":0.013647741638123989,"18":0.037330225110054016,"19":0.0005085648153908551,"20":0.013021604157984257,"21":-0.0844670906662941,"22":0.0680377408862114,"23":0.13178643584251404,"24":-0.09163554757833481,