{"sizes":[115,57,4],"layers":[{"0":{},"1":{},"2":{},"3":{},"4":{},"5":{},"6":{},"7":{},"8":{},"9":{},"10":{},"11":{},"12":{},"13":{},"14":{},"15":{},"16":{},"17":{},"18":{},"19":{},"20":{},"21":{},"22":{},"23":{},"24":{},"25":{},"26":{},"27":{},"28":{},"29":{},"30":{},"31":{},"32":{},"33":{},"34":{},"35":{},"36":{},"37":{},"38":{},"39":{},"40":{},"41":{},"42":{},"43":{},"44":{},"45":{},"46":{},"47":{},"48":{},"49":{},"50":{},"51":{},"52":{},"53":{},"54":{},"55":{},"56":{},"57":{},"58":{},"59":{},"60":{},"61":{},"62":{},"63":{},"64":{},"65":{},"66":{},"67":{},"68":{},"69":{},"70":{},"71":{},"72":{},"73":{},"74":{},"75":{},"76":{},"77":{},"78":{},"79":{},"80":{},"81":{},"82":{},"83":{},"84":{},"85":{},"86":{},"87":{},"88":{},"89":{},"90":{},"91":{},"92":{},"93":{},"94":{},"95":{},"96":{},"97":{},"98":{},"99":{},"100":{},"101":{},"102":{},"103":{},"104":{},"105":{},"106":{},"107":{},"108":{},"109":{},"110":{},"111":{},"112":{},"113":{},"114":{}},{"0":{"bias":-0.040961116552352905,"weights":{"0":-0.0550311841070652,"1":0.043145354837179184,"2":0.15810361504554749,"3":0.18969625234603882,"4":-0.0609683096408844,"5":0.016556281596422195,"6":0.018876928836107254,"7":0.024801451712846756,"8":0.12442304193973541,"9":0.05284124240279198,"10":0.17142796516418457,"11":0.04228616878390312,"12":-0.07222354412078857,"13":0.19299083948135376,"14":-0.13291236758232117,"15":0.06393086165189743,"16":0.19307732582092285,"17":-0.10488206148147583,"18":0.15787401795387268,"19":-0.02427426353096962,"20":-0.05848926678299904,"21":-0.05561145022511482,"22":-0.09787437319755554,"23":-0.07145574688911438,"24":-0.013738262467086315,"25":-0.16750381886959076,"26":0.08969050645828247,"27":-0.07079541683197021,"28":-0.10668748617172241,"29":0.039450500160455704,"30":-0.012348580174148083,"31":-0.01944572851061821,"32":0.06973832845687866,"33":0.08039531111717224,"34":-0.11376360058784485,"35":0.05706827715039253,"36":0.06606625765562057,"37":-0.1112915426492691,"38":0.16740566492080688,"39":-0.0676107406616211,"40":-0.03368503600358963,"41":0.09035935252904892,"42":0.07136499136686325,"43":-0.06823429465293884,"44":-0.13057264685630798,"45":-0.12755435705184937,"46":-0.09760027378797531,"47":0.06057405099272728,"48":0.17641808092594147,"49":0.1209353655576706,"50":-0.05905558541417122,"51":-0.021035030484199524,"52":-0.46467289328575134,"53":-0.45631885528564453,"54":-0.1053655743598938,"55":0.08230140805244446,"56":0.08737078309059143,"57":-0.16208703815937042,"58":0.07327603548765182,"59":0.24881479144096375,"60":-0.14793826639652252,"61":-0.062343768775463104,"62":-0.18372586369514465,"63":0.10695268958806992,"64":0.3234201967716217,"65":0.05964519456028938,"66":-0.02377113699913025,"67":-0.02056771144270897,"68":0.004301313776522875,"69":0.1082640290260315,"70":-0.17820100486278534,"71":-0.025006813928484917,"72":-0.020492268726229668,"73":0.08275213837623596,"74":-0.0450872965157032,"75":-0.010652030818164349,"76":-0.10833107680082321,"77":-0.21782030165195465,"78":-0.07512788474559784,"79":0.04680466279387474,"80":-0.13657450675964355,"81":0.14914478361606598,"82":-0.019310032948851585,"83":0.11315076053142548,"84":-0.19302526116371155,"85":-0.14501705765724182,"86":0.21038411557674408,"87":0.17245249450206757,"88":-0.033445920795202255,"89":-0.016762234270572662,"90":-0.02009252831339836,"91":0.18867403268814087,"92":0.06498701125383377,"93":-0.18248800933361053,"94":0.029502201825380325,"95":0.003761367639526725,"96":0.02149205654859543,"97":0.03051554411649704,"98":-0.19191887974739075,"99":0.19523689150810242,"100":0.08518746495246887,"101":0.182966411113739,"102":0.005794495809823275,"103":-0.10051681101322174,"104":-0.1330832540988922,"105":-0.10298331081867218,"106":-0.006178123410791159,"107":-0.022203784435987473,"108":0.0066157435066998005,"109":0.026349548250436783,"110":0.1005990207195282,"111":-0.12708032131195068,"112":0.13683918118476868,"113":0.07594984769821167,"114":0.020317338407039642}},"1":{"bias":0.04821983724832535,"weights":{"0":0.09255070984363556,"1":0.1527489423751831,"2":-0.08085811138153076,"3":0.026777619495987892,"4":0.1278555989265442,"5":0.025425102561712265,"6":0.0689496397972107,"7":0.050232287496328354,"8":0.1576356589794159,"9":-0.10166746377944946,"10":-0.06042799726128578,"11":-0.11694036424160004,"12":-0.07670408487319946,"13":0.17656323313713074,"14":0.03393865004181862,"15":-0.16387495398521423,"16":0.07727617025375366,"17":-0.009515698067843914,"18":0.06803140789270401,"19":-0.06982842087745667,"20":-0.0247625932097435,"21":0.07380598783493042,"22":0.037524666637182236,"23":0.1892067939043045,"24":0.08299844712018967,"25":0.3607783615589142,"26":-0.2059323489665985,"27":0.11479571461677551,"28":0.007208187133073807,"29":-0.0754186287522316,"30":-0.04298539459705353,"31":-0.1324688047170639,"32":-0.046511854976415634,"33":-0.15757891535758972,"34":0.09485027194023132,"35":0.19747556746006012,"36":-0.052865300327539444,"37":-0.09230464696884155,"38":-0.09526902437210083,"39":-0.03973611071705818,"40":0.026765983551740646,"41":-0.27542105317115784,"42":-0.24203859269618988,"43":0.06986337900161743,"44":-0.1310003697872162,"45":0.15745863318443298,"46":-0.017351429909467697,"47":0.4383273422718048,"48":0.4992421269416809,"49":0.1275174617767334,"50":0.16445350646972656,"51":0.1806817650794983,"52":-0.25414764881134033,"53":-0.135108083486557,"54":-0.3138713240623474,"55":0.09012523293495178,"56":-0.10512778162956238,"57":0.10444075614213943,"58":0.1478932946920395,"59":0.2621058523654938,"60":0.03469093143939972,"61":0.013898412697017193,"62":-0.1816067397594452,"63":-0.22204825282096863,"64":-0.1870855987071991,"65":-0.05126515403389931,"66":-0.12050577253103256,"67":-0.16942593455314636,"68":0.08688965439796448,"69":-0.015475120395421982,"70":0.3782806396484375,"71":0.1829303354024887,"72":-0.16333217918872833,"73":-0.01090280618518591,"74":0.1846752166748047,"75":-0.21790015697479248,"76":-0.07300066947937012,"77":-0.11508957296609879,"78":-0.04351579025387764,"79":0.1293095350265503,"80":0.06873328983783722,"81":0.16953778266906738,"82":0.06269276142120361,"83":-0.14419668912887573,"84":0.03749757632613182,"85":-0.02758212573826313,"86":-0.3400381803512573,"87":-0.31922945380210876,"88":0.09431309998035431,"89":-0.1502816379070282,"90":0.10318739712238312,"91":-0.1935679316520691,"92":-0.1396166980266571,"93":0.12620355188846588,"94":-0.040389273315668106,"95":0.1569177210330963,"96":-0.02419837936758995,"97":-0.08190535008907318,"98":0.016840394586324692,"99":-0.1343054175376892,"100":-0.029040880501270294,"101":0.08302371203899384,"102":-0.20079195499420166,"103":0.02902546525001526,"104":-0.11248944699764252,"105":-0.20481514930725098,"106":0.010248726233839989,"107":0.026468629017472267,"108":-0.10370741784572601,"109":0.17865046858787537,"110":0.18417659401893616,"111":-0.09463821351528168,"112":0.1760079264640808,"113":0.18151864409446716,"114":-0.02477036789059639}},"2":{"bias":-0.18472948670387268,"weights":{"0":-0.005813567899167538,"1":-0.08078975230455399,"2":0.03774728253483772,"3":0.15215431153774261,"4":-0.14113162457942963,"5":0.17391552031040192,"6":0.0933648869395256,"7":0.1376308649778366,"8":0.08860612660646439,"9":0.08485490828752518,"10":-0.06120153144001961,"11":-0.05205068364739418,"12":0.15643198788166046,"13":0.16958828270435333,"14":-0.038899946957826614,"15":-0.1898774951696396,"16":-0.07478930056095123,"17":-0.12495336681604385,"18":-0.024272415786981583,"19":0.13365723192691803,"20":0.07483880966901779,"21":-0.08866263926029205,"22":-0.03915824368596077,"23":0.1440085768699646,"24":-0.3190591633319855,"25":-0.4033550024032593,"26":0.003605930134654045,"27":0.055918674916028976,"28":-0.1730232685804367,"29":0.19945961236953735,"30":-0.02746630646288395,"31":-0.011239401064813137,"32":0.029454294592142105,"33":0.027418654412031174,"34":-0.12652753293514252,"35":-0.06790752708911896,"36":-0.3165735602378845,"37":-0.04643234238028526,"38":0.02439068630337715,"39":0.11422556638717651,"40":0.17316728830337524,"41":0.05204620584845543,"42":0.014562857337296009,"43":-0.09438944607973099,"44":-0.19946874678134918,"45":0.10146980732679367,"46":-0.15763632953166962,"47":-0.6795045733451843,"48":-0.6169141530990601,"49":-0.17929625511169434,"50":-0.024457789957523346,"51":-0.15175224840641022,"52":0.3026425242424011,"53":0.4386853277683258,"54":0.19855259358882904,"55":0.08487994223833084,"56":-0.004782470874488354,"57":-0.01864698715507984,"58":-0.27393361926078796,"59":-0.21448418498039246,"60":-0.2321706861257553,"61":-0.18590392172336578,"62":0.04553284868597984,"63":0.3113311529159546,"64":0.5700477957725525,"65":0.38453155755996704,"66":-0.05885028466582298,"67":0.059142474085092545,"68":0.13769568502902985,"69":0.029360434040427208,"70":-0.2717781960964203,"71":-0.18661610782146454,"72":0.02407684363424778,"73":0.041360098868608475,"74":-0.0950104370713234,"75":0.09967673569917679,"76":0.2944234311580658,"77":0.023119961842894554,"78":0.16335166990756989,"79":0.0028696886729449034,"80":0.054700758308172226,"81":-0.0313924141228199,"82":-0.14301852881908417,"83":0.13900737464427948,"84":-0.10139058530330658,"85":0.09155471622943878,"86":0.18975697457790375,"87":0.4410179853439331,"88":0.09351324290037155,"89":-0.14504508674144745,"90":-0.14524506032466888,"91":-0.047662172466516495,"92":0.040392179042100906,"93":-0.1419859081506729,"94":0.09615568816661835,"95":-0.019453521817922592,"96":0.046164680272340775,"97":0.10240966826677322,"98":0.17850740253925323,"99":-0.03362346068024635,"100":0.09478849917650223,"101":0.05830737575888634,"102":-0.16320569813251495,"103":0.06693372875452042,"104":0.004504539538174868,"105":-0.0540933795273304,"106":-0.03131847083568573,"107":-0.08764401078224182,"108":0.14352305233478546,"109":0.0022377939894795418,"110":-0.06281376630067825,"111":-0.03849605843424797,"112":0.020071761682629585,"113":0.16965998709201813,"114":-0.054110560566186905}},"3":{"bias":-0.11539067327976227,"weights":{"0":0.19842079281806946,"1":0.04096537455916405,"2":0.12891684472560883,"3":0.07614332437515259,"4":0.05173589661717415,"5":-0.1607770323753357,"6":0.0009059829753823578,"7":-0.06448476761579514,"8":-0.03927985206246376,"9":-0.07981109619140625,"10":-0.008558161556720734,"11":0.06716912239789963,"12":0.11427643895149231,"13":-0.07125899195671082,"14":0.1340130865573883,"15":-0.101270392537117,"16":0.18148475885391235,"17":0.01462035346776247,"18":0.08579879999160767,"19":-0.039897117763757706,"20":-0.15958547592163086,"21":-0.14185750484466553,"22":0.17747384309768677,"23":0.08166243135929108,"24":0.2214340716600418,"25":0.019834518432617188,"26":0.06839126348495483,"27":0.14819180965423584,"28":-0.12709790468215942,"29":-0.12428496778011322,"30":0.05358406528830528,"31":0.20618553459644318,"32":0.024368485435843468,"33":-0.09202004969120026,"34":-0.1753876656293869,"35":-0.14598003029823303,"36":-0.02617991715669632,"37":-0.12645506858825684,"38":-0.18463143706321716,"39":0.04638534411787987,"40":0.044948697090148926,"41":-0.09316308796405792,"42":-0.07814721763134003,"43":0.09415583312511444,"44":0.12839393317699432,"45":-0.1515102982521057,"46":0.12791095674037933,"47":0.49587109684944153,"48":0.5549544095993042,"49":-0.0017805332317948341,"50":0.15165141224861145,"51":0.11678923666477203,"52":0.1267358809709549,"53":0.2739982008934021,"54":0.1688721776008606,"55":0.05763896182179451,"56":-0.10636952519416809,"57":0.09552175551652908,"58":-0.38114723563194275,"59":-0.27321386337280273,"60":-0.20585156977176666,"61":0.040701065212488174,"62":0.05128009244799614,"63":0.003005059203132987,"64":-0.47292181849479675,"65":-0.40459156036376953,"66":-0.120335653424263,"67":0.008675131015479565,"68":-0.14063769578933716,"69":0.025649674236774445,"70":0.26656875014305115,"71":0.20896951854228973,"72":0.2002648264169693,"73":-0.1472378969192505,"74":0.09083989262580872,"75":0.2102820724248886,"76":0.21112406253814697,"77":-0.10661919414997101,"78":0.10886578261852264,"79":-0.04132269695401192,"80":-0.0019716834649443626,"81":-0.2304273098707199,"82":-0.21972666680812836,"83":-0.024536816403269768,"84":-0.061879031360149384,"85":-0.028072981163859367,"86":-0.18850019574165344,"87":-0.3940085470676422,"88":0.0050584739074110985,"89":0.17460697889328003,"90":-0.18255087733268738,"91":0.10132597386837006,"92":0.07640215754508972,"93":-0.023604517802596092,"94":-0.03143735229969025,"95":0.09322309494018555,"96":-0.014170417562127113,"97":0.151723250746727,"98":-0.1448892205953598,"99":0.1794077605009079,"100":0.027189044281840324,"101":-0.12597736716270447,"102":0.10165193676948547,"103":-0.01881050504744053,"104":-0.08028021454811096,"105":0.05530166998505592,"106":0.034691255539655685,"107":0.013865874148905277,"108":-0.18604792654514313,"109":-0.13430510461330414,"110":0.07693494856357574,"111":0.06953789293766022,"112":-0.0007031253189779818,"113":-0.09488186240196228,"114":-0.18734648823738098}},"4":{"bias":-0.18234993517398834,"weights":{"0":0.04949955642223358,"1":0.1416858434677124,"2":0.003742603352293372,"3":0.10859106481075287,"4":0.1554981768131256,"5":-0.06012507155537605,"6":-0.16407711803913116,"7":0.13377098739147186,"8":0.013757317326962948,"9":0.13998717069625854,"10":0.10749728977680206,"11":-0.14645317196846008,"12":0.1905977874994278,"13":0.14186206459999084,"14":0.17995403707027435,"15":0.012525857426226139,"16":0.03389839828014374,"17":-0.15354862809181213,"18":-0.16633962094783783,"19":-0.058231670409440994,"20":0.15551988780498505,"21":0.18331000208854675,"22":-0.17959126830101013,"23":-0.062282536178827286,"24":0.11552417278289795,"25":0.029811646789312363,"26":-0.06842702627182007,"27":-0.08854369819164276,"28":-0.13344192504882812,"29":-0.15283218026161194,"30":-0.0001481204089941457,"31":-0.19622910022735596,"32":0.0687195435166359,"33":0.10833810269832611,"34":-0.07124868035316467,"35":0.16310547292232513,"36":0.0477108396589756,"37":-0.1683954894542694,"38":0.06956519186496735,"39":-0.08713138103485107,"40":0.10314290225505829,"41":-0.07508686184883118,"42":0.07760658115148544,"43":-0.13743522763252258,"44":0.20300675928592682,"45":-0.019571376964449883,"46":-0.037478551268577576,"47":-0.1528545320034027,"48":-0.02292075753211975,"49":-0.00365852122195065,"50":-0.029991965740919113,"51":-0.008963818661868572,"52":-0.36233341693878174,"53":-0.13631987571716309,"54":-0.004468901548534632,"55":-0.1109950840473175,"56":0.20012010633945465,"57":-0.10555523633956909,"58":0.3443910479545593,"59":0.2921047508716583,"60":-0.1421767771244049,"61":0.14379653334617615,"62":0.1795065999031067,"63":0.13514389097690582,"64":0.0334053561091423,"65":-0.04513760656118393,"66":-0.18837745487689972,"67":0.20858700573444366,"68":-0.11126065254211426,"69":0.013167986646294594,"70":0.0683598443865776,"71":0.09280215203762054,"72":-0.09015924483537674,"73":0.007076536770910025,"74":0.1293031871318817,"75":-0.18427185714244843,"76":-0.3923262655735016,"77":-0.04878966510295868,"78":0.05192150920629501,"79":0.06362760812044144,"80":0.19300945103168488,"81":0.26877036690711975,"82":-0.06448789685964584,"83":-0.04933507740497589,"84":0.10567104816436768,"85":-0.18786121904850006,"86":-0.09389126300811768,"87":0.2593768835067749,"88":0.09720552712678909,"89":0.0020158763509243727,"90":-0.06466326117515564,"91":-0.1528516709804535,"92":0.08841942250728607,"93":-0.014504997991025448,"94":0.07100719958543777,"95":-0.024362118914723396,"96":-0.08115582168102264,"97":0.010485075414180756,"98":0.09625841677188873,"99":-0.1343538910150528,"100":-0.08316738903522491,"101":0.11396414041519165,"102":0.0824490487575531,"103":0.00962513405829668,"104":0.03092517890036106,"105":0.033940915018320084,"106":-0.035334326326847076,"107":-0.063224196434021,"108":-0.18661002814769745,"109":-0.1829349398612976,"110":0.1361878216266632,"111":0.024676037952303886,"112":-0.15970605611801147,"113":-0.1455913782119751,"114":-0.15069270133972168}},"5":{"bias":-0.16839468479156494,"weights":{"0":0.19258823990821838,"1":-0.0049970922991633415,"2":0.02952343411743641,"3":-0.15096735954284668,"4":-0.08159440755844116,"5":-0.17533665895462036,"6":-0.03813178464770317,"7":0.04845648631453514,"8":0.16013847291469574,"9":-0.048040661960840225,"10":-0.0708455964922905,"11":0.1061587929725647,"12":0.030861923471093178,"13":-0.13270942866802216,"14":0.15815900266170502,"15":0.1878359019756317,"16":0.09010619670152664,"17":-0.17613017559051514,"18":0.02296319790184498,"19":0.08722217381000519,"20":-0.19222882390022278,"21":-0.1393938660621643,"22":-0.04115607216954231,"23":0.15658916532993317,"24":0.14129047095775604,"25":0.011659663170576096,"26":0.13168102502822876,"27":0.03381568565964699,"28":0.15162710845470428,"29":0.024778421968221664,"30":-0.3391050398349762,"31":0.11939768493175507,"32":-0.14994783699512482,"33":0.05984174832701683,"34":-0.0264443289488554,"35":0.01933923177421093,"36":0.2189764678478241,"37":-0.10809721797704697,"38":-0.13596287369728088,"39":0.14755354821681976,"40":-0.050637200474739075,"41":0.19028876721858978,"42":-0.06364311277866364,"43":0.11567962169647217,"44":-0.10606980323791504,"45":-0.041380081325769424,"46":0.04700920358300209,"47":-0.11267951130867004,"48":0.14242620766162872,"49":-0.016499295830726624,"50":-0.1918051391839981,"51":0.13957832753658295,"52":-0.40130990743637085,"53":-0.22026070952415466,"54":-0.06716699153184891,"55":-0.15945886075496674,"56":-0.0742388367652893,"57":0.010938378982245922,"58":0.32026582956314087,"59":0.34743261337280273,"60":-0.04275123402476311,"61":-0.0061923665925860405,"62":0.0017040015663951635,"63":0.06217794120311737,"64":0.2243453562259674,"65":-0.018741166219115257,"66":0.10855323821306229,"67":-0.05333516374230385,"68":-0.001939927227795124,"69":0.10432065278291702,"70":0.10333049297332764,"71":-0.07720271497964859,"72":0.014198730699717999,"73":0.03066575713455677,"74":-0.146963432431221,"75":-0.014716613106429577,"76":-0.26736631989479065,"77":-0.17958062887191772,"78":-0.09123899787664413,"79":0.1336211860179901,"80":-0.18422538042068481,"81":0.022822435945272446,"82":-0.08168112486600876,"83":0.10274796932935715,"84":-0.10552863776683807,"85":-0.026370154693722725,"86":-0.11236903071403503,"87":0.11215800791978836,"88":-0.14280809462070465,"89":0.07279754430055618,"90":0.15546934306621552,"91":-0.01683810167014599,"92":-0.018050285056233406,"93":0.05914221331477165,"94":-0.13063663244247437,"95":0.0990869328379631,"96":0.03280627354979515,"97":-0.14465190470218658,"98":0.049305882304906845,"99":0.0458361841738224,"100":-0.19207532703876495,"101":0.1132039800286293,"102":0.0004642516723833978,"103":0.15795306861400604,"104":-0.06850278377532959,"105":-0.12186931073665619,"106":0.06798087805509567,"107":0.01711825467646122,"108":-0.05127311870455742,"109":-0.11472588032484055,"110":0.12465514987707138,"111":0.18994376063346863,"112":-0.06703516095876694,"113":0.12110194563865662,"114":0.02919217385351658}},"6":{"bias":0.018745029345154762,"weights":{"0":0.1511169672012329,"1":-0.2026647925376892,"2":0.16830071806907654,"3":-0.11625377833843231,"4":0.19285911321640015,"5":0.02926899492740631,"6":-0.016767160966992378,"7":0.0537421889603138,"8":0.07782703638076782,"9":-0.01419177744537592,"10":-0.12161362916231155,"11":-0.06793662160634995,"12":0.007225075736641884,"13":0.10689596831798553,"14":-0.1589246392250061,"15":0.1644320785999298,"16":0.1691652238368988,"17":-0.033127423375844955,"18":-0.14535659551620483,"19":-0.022197939455509186,"20":-0.004562092013657093,"21":0.1035088449716568,"22":0.021714165806770325,"23":-0.1994907706975937,"24":-0.31774476170539856,"25":-0.3438708484172821,"26":-0.1187603548169136,"27":-0.006226544268429279,"28":0.020563997328281403,"29":-0.05046830698847771,"30":0.0077607217244803905,"31":0.05365166440606117,"32":0.07545232027769089,"33":0.189634770154953,"34":0.01834220625460148,"35":0.30382803082466125,"36":0.3004418909549713,"37":0.1606268584728241,"38":0.07513629645109177,"39":0.09619848430156708,"40":0.022155603393912315,"41":-0.08513060957193375,"42":0.1555166095495224,"43":0.12393421679735184,"44":0.09607332944869995,"45":0.11350511014461517,"46":-0.18802973628044128,"47":-0.6327789425849915,"48":-0.585368275642395,"49":0.0015641036443412304,"50":0.00973454024642706,"51":0.14810267090797424,"52":0.045656297355890274,"53":0.20118314027786255,"54":-0.030033623799681664,"55":-0.07930990308523178,"56":-0.018502365797758102,"57":-0.09151379764080048,"58":0.4589470326900482,"59":0.2486456036567688,"60":0.11021043360233307,"61":-0.04029032215476036,"62":-0.04037373140454292,"63":-0.18874035775661469,"64":-0.13793233036994934,"65":0.003755030455067754,"66":-0.18832331895828247,"67":-0.013952434062957764,"68":-0.14808732271194458,"69":0.14849047362804413,"70":-0.17892950773239136,"71":-0.400341272354126,"72":0.08289816230535507,"73":0.05887753143906593,"74":-0.058177877217531204,"75":0.01315514650195837,"76":0.17701086401939392,"77":-0.0323466956615448,"78":-0.0552605576813221,"79":-0.015289505012333393,"80":0.1089622750878334,"81":-0.02230863645672798,"82":0.30800876021385193,"83":-0.01796628162264824,"84":-0.11759112775325775,"85":0.0984906405210495,"86":-0.1008615717291832,"87":0.08583539724349976,"88":-0.1363389492034912,"89":-0.09376838803291321,"90":-0.017670046538114548,"91":0.11816584318876266,"92":0.04279256984591484,"93":-0.071958027780056,"94":0.09792537987232208,"95":-0.07790003716945648,"96":0.047208745032548904,"97":-0.014329856261610985,"98":0.05245402082800865,"99":0.17909789085388184,"100":-0.026661960408091545,"101":-0.02331499010324478,"102":0.11475847661495209,"103":-0.12136249989271164,"104":-0.05386006459593773,"105":-0.008240827359259129,"106":-0.02862418256700039,"107":-0.14471542835235596,"108":-0.005539323203265667,"109":-0.1587846577167511,"110":0.08550352603197098,"111":0.013687481172382832,"112":-0.04382803663611412,"113":0.10908927768468857,"114":-0.133920818567276}},"7":{"bias":0.13689516484737396,"weights":{"0":0.16329258680343628,"1":-0.041395340114831924,"2":0.004347147420048714,"3":0.0257114265114069,"4":-0.19315673410892487,"5":0.17366452515125275,"6":0.15490445494651794,"7":0.047355830669403076,"8":-0.11932886391878128,"9":-0.15863987803459167,"10":0.1792089194059372,"11":0.1983661949634552,"12":-0.1505754590034485,"13":-0.06933729350566864,"14":0.1700456291437149,"15":-0.02358284778892994,"16":-0.14067143201828003,"17":0.1976291835308075,"18":-0.06590969860553741,"19":-0.10643056035041809,"20":0.03470699489116669,"21":0.0849185436964035,"22":0.1337003856897354,"23":-0.16684070229530334,"24":-0.049224697053432465,"25":0.0944262221455574,"26":0.07570385932922363,"27":0.030751854181289673,"28":0.09892188757658005,"29":0.12043993175029755,"30":0.023492416366934776,"31":0.0920456200838089,"32":0.15298056602478027,"33":0.15926091372966766,"34":-0.04336480051279068,"35":-0.04735611006617546,"36":0.003139959182590246,"37":-0.17165717482566833,"38":0.04491197690367699,"39":0.03664858266711235,"40":-0.18759222328662872,"41":-0.0788881778717041,"42":-0.1931736022233963,"43":-0.13898271322250366,"44":-0.1667630672454834,"45":0.047996606677770615,"46":-0.16518855094909668,"47":0.2686702311038971,"48":-0.04439469799399376,"49":-0.09768621623516083,"50":-0.010393635369837284,"51":-0.08675698935985565,"52":0.274635374546051,"53":0.4004683792591095,"54":0.3862389922142029,"55":-0.014216064475476742,"56":-0.1312953233718872,"57":0.1497868150472641,"58":-0.12934212386608124,"59":-0.35946178436279297,"60":-0.1654871702194214,"61":-0.0006676382618024945,"62":0.0985616147518158,"63":-0.05069863051176071,"64":-0.3426760733127594,"65":0.06754566729068756,"66":0.08032218366861343,"67":-0.1470443308353424,"68":0.12288490682840347,"69":-0.1725427806377411,"70":0.16725869476795197,"71":0.0871109589934349,"72":-0.16219212114810944,"73":0.07690167427062988,"74":-0.182550311088562,"75":0.1343448907136917,"76":0.3929596543312073,"77":0.006465031299740076,"78":0.1303112804889679,"79":0.13670235872268677,"80":0.03383674472570419,"81":-0.1265052706003189,"82":0.0062288399785757065,"83":0.08985850214958191,"84":0.1370430290699005,"85":0.11068832874298096,"86":0.049449093639850616,"87":-0.2744142413139343,"88":-0.22183185815811157,"89":-0.154183492064476,"90":-0.12711280584335327,"91":0.01329969521611929,"92":0.10775529593229294,"93":0.15929388999938965,"94":-0.13594213128089905,"95":0.16856421530246735,"96":0.0028916397131979465,"97":-0.16765011847019196,"98":-0.029982101172208786,"99":0.13946890830993652,"100":0.023628631606698036,"101":-0.08834576606750488,"102":-0.01892768032848835,"103":0.08280031383037567,"104":-0.16762468218803406,"105":-0.09720213711261749,"106":-0.058212246745824814,"107":-0.07248787581920624,"108":-0.11285385489463806,"109":-0.14538583159446716,"110":0.15981094539165497,"111":0.09563299268484116,"112":0.1007937341928482,"113":-0.1355798840522766,"114":-0.1791166216135025}},"8":{"bias":-0.13831521570682526,"weights":{"0":0.10501973330974579,"1":0.06449221819639206,"2":0.13399629294872284,"3":0.1356842964887619,"4":-0.13364718854427338,"5":0.11600279062986374,"6":0.031224701553583145,"7":-0.13490541279315948,"8":0.10990018397569656,"9":-0.03751795366406441,"10":-0.1706831008195877,"11":0.1852608472108841,"12":-0.05732767656445503,"13":0.1899375170469284,"14":-0.1250891387462616,"15":-0.045363105833530426,"16":-0.11331377923488617,"17":-0.13919608294963837,"18":0.11879158020019531,"19":0.0898236632347107,"20":0.024640673771500587,"21":-0.10396795719861984,"22":-0.16533823311328888,"23":0.08860776573419571,"24":0.2528117597103119,"25":0.08604618906974792,"26":-0.1661881059408188,"27":-0.1855064183473587,"28":0.14000000059604645,"29":0.002250386169180274,"30":0.09789107739925385,"31":-0.031217817217111588,"32":0.173706516623497,"33":-0.06797650456428528,"34":0.10155247896909714,"35":-0.2141040414571762,"36":-0.16738492250442505,"37":-0.07527676969766617,"38":0.01474676188081503,"39":-0.1756146103143692,"40":0.06720467656850815,"41":-0.16203534603118896,"42":0.15529075264930725,"43":-0.16726966202259064,"44":0.1676425188779831,"45":0.16806726157665253,"46":0.05325046554207802,"47":0.18506017327308655,"48":0.11175546795129776,"49":0.010258402675390244,"50":-0.06775470823049545,"51":-0.15409182012081146,"52":0.1067470833659172,"53":-0.24612925946712494,"54":0.10066916793584824,"55":0.02360261045396328,"56":0.1610439270734787,"57":0.1460885852575302,"58":-0.3495290279388428,"59":-0.28500306606292725,"60":-0.04089566692709923,"61":0.12038061767816544,"62":0.0819779559969902,"63":0.11464259028434753,"64":0.022218063473701477,"65":-0.013237246312201023,"66":0.15320511162281036,"67":-0.0881221666932106,"68":0.08863923698663712,"69":-0.05386388674378395,"70":-0.02983505092561245,"71":0.24399855732917786,"72":-0.04331023246049881,"73":-0.008461354300379753,"74":-0.144225612282753,"75":-0.018649477511644363,"76":-0.15698310732841492,"77":0.016057539731264114,"78":0.07853510230779648,"79":-0.058563608676195145,"80":-0.15958662331104279,"81":-0.012353811413049698,"82":-0.12324391305446625,"83":-0.04371459037065506,"84":0.03957293927669525,"85":-0.19999895989894867,"86":0.2295311987400055,"87":-0.04511251300573349,"88":0.010639196261763573,"89":-0.07889976352453232,"90":-0.18517793715000153,"91":-0.06562798470258713,"92":-0.03624214977025986,"93":0.1611120104789734,"94":0.03525224328041077,"95":0.16011826694011688,"96":0.02460705302655697,"97":-0.17897842824459076,"98":0.12902699410915375,"99":-0.1546267420053482,"100":-0.056097958236932755,"101":-0.1611894816160202,"102":0.06058149412274361,"103":-0.022485533729195595,"104":-0.07774295657873154,"105":-0.17984618246555328,"106":0.05021948367357254,"107":0.17428462207317352,"108":-0.11557837575674057,"109":0.006602595094591379,"110":0.15839098393917084,"111":0.15787802636623383,"112":0.03527361527085304,"113":0.10800281912088394,"114":0.14675401151180267}},"9":{"bias":0.17821623384952545,"weights":{"0":0.12757398188114166,"1":0.19503673911094666,"2":-0.06492038071155548,"3":-0.06158449500799179,"4":0.011698178015649319,"5":0.08284378796815872,"6":-0.19319286942481995,"7":-0.08530346304178238,"8":0.08545630425214767,"9":-0.13004374504089355,"10":-0.18426933884620667,"11":0.00002677318116184324,"12":-0.12661954760551453,"13":-0.040201470255851746,"14":-0.07069731503725052,"15":-0.05630671977996826,"16":0.13996434211730957,"17":-0.19090977311134338,"18":-0.16256073117256165,"19":0.057730577886104584,"20":0.13885462284088135,"21":0.13505399227142334,"22":-0.09558654576539993,"23":0.11709225922822952,"24":-0.16940030455589294,"25":-0.10896321386098862,"26":0.07572945207357407,"27":0.13232162594795227,"28":-0.18606683611869812,"29":0.23082485795021057,"30":0.07427901029586792,"31":0.13272269070148468,"32":-0.10624735802412033,"33":0.16038411855697632,"34":0.17619726061820984,"35":-0.05927364528179169,"36":-0.29992038011550903,"37":-0.19852790236473083,"38":-0.07547507435083389,"39":0.01111044641584158,"40":0.03420182690024376,"41":0.342989444732666,"42":0.3422470688819885,"43":0.10343391448259354,"44":0.14351460337638855,"45":0.1379295289516449,"46":-0.047637198120355606,"47":-0.6494214534759521,"48":-0.6863023638725281,"49":-0.23363089561462402,"50":0.08230673521757126,"51":-0.16399532556533813,"52":0.32117584347724915,"53":0.19645406305789948,"54":0.0053498405031859875,"55":-0.04672089219093323,"56":0.15724140405654907,"57":-0.1114978939294815,"58":-0.43606168031692505,"59":-0.36946040391921997,"60":-0.2691347897052765,"61":-0.025428812950849533,"62":0.12211214751005173,"63":0.2420952469110489,"64":0.6358217000961304,"65":0.259500652551651,"66":0.08750959485769272,"67":0.1913887858390808,"68":0.10657321661710739,"69":-0.2238328903913498,"70":-0.23927181959152222,"71":-0.29174426198005676,"72":-0.00336957024410367,"73":0.15190309286117554,"74":0.007988358847796917,"75":0.025651415809988976,"76":0.25493305921554565,"77":0.060224879533052444,"78":0.020516542717814445,"79":-0.041051074862480164,"80":-0.09312646836042404,"81":0.04299059137701988,"82":-0.12466857582330704,"83":-0.1192939281463623,"84":0.11230193823575974,"85":0.1350497305393219,"86":0.4599874019622803,"87":0.3494407832622528,"88":0.1237545758485794,"89":0.1578407883644104,"90":-0.08084898442029953,"91":0.05064212530851364,"92":0.0815662369132042,"93":-0.20480920374393463,"94":0.153469979763031,"95":-0.13215330243110657,"96":-0.1678740382194519,"97":0.04981517046689987,"98":0.03485429286956787,"99":-0.09301828593015671,"100":0.09422197192907333,"101":-0.01985611580312252,"102":-0.12006641179323196,"103":-0.19388988614082336,"104":-0.07372503727674484,"105":0.07400144636631012,"106":0.024719512090086937,"107":-0.15649887919425964,"108":-0.13314098119735718,"109":-0.14955222606658936,"110":0.03689000755548477,"111":0.08860696107149124,"112":0.1792350709438324,"113":0.0666559562087059,"114":-0.16433799266815186}},"10":{"bias":-0.18450702726840973,"weights":{"0":0.10650131106376648,"1":0.13545063138008118,"2":0.13373997807502747,"3":0.04284180700778961,"4":-0.09234905242919922,"5":-0.17612096667289734,"6":-0.025201717391610146,"7":-0.13704700767993927,"8":-0.14193914830684662,"9":-0.01602678932249546,"10":-0.15328660607337952,"11":0.07831187546253204,"12":0.05122186243534088,"13":-0.15402603149414062,"14":0.009020267054438591,"15":0.06378006190061569,"16":0.056306108832359314,"17":-0.04832145571708679,"18":0.02815614454448223,"19":0.0036132351960986853,"20":-0.09371565282344818,"21":0.10948581993579865,"22":-0.11321884393692017,"23":-0.18049082159996033,"24":0.0018812799826264381,"25":-0.13049477338790894,"26":0.18218135833740234,"27":0.026611322537064552,"28":0.016642313450574875,"29":0.03708411008119583,"30":0.268684983253479,"31":0.0948951318860054,"32":0.16811569035053253,"33":0.05869942158460617,"34":0.175553098320961,"35":-0.04887484759092331,"36":-0.02563180960714817,"37":0.04240722954273224,"38":-0.0044978028163313866,"39":-0.023007435724139214,"40":0.1524999588727951,"41":-0.06415184587240219,"42":0.2053140252828598,"43":-0.14568893611431122,"44":0.05529244244098663,"45":-0.06665092706680298,"46":-0.1916496604681015,"47":-0.33480551838874817,"48":-0.3048098087310791,"49":-0.2410677671432495,"50":-0.06403672695159912,"51":0.04390358179807663,"52":0.3896656632423401,"53":0.4175105094909668,"54":-0.005093758460134268,"55":-0.08674947917461395,"56":-0.02693171612918377,"57":-0.19091695547103882,"58":-0.3628856837749481,"59":-0.38833072781562805,"60":-0.011508600786328316,"61":-0.10638444125652313,"62":-0.20269769430160522,"63":-0.022721052169799805,"64":0.31519144773483276,"65":0.15450811386108398,"66":0.07491329312324524,"67":-0.0724121481180191,"68":0.16280922293663025,"69":0.1124662235379219,"70":-0.13708056509494781,"71":-0.2964343726634979,"72":-0.13148900866508484,"73":-0.1333055943250656,"74":0.13311180472373962,"75":0.05128346011042595,"76":0.3631879687309265,"77":0.03177347406744957,"78":0.04925151169300079,"79":-0.10893119871616364,"80":0.06901320815086365,"81":0.028196018189191818,"82":-0.053723592311143875,"83":0.16955634951591492,"84":0.0642566978931427,"85":0.06721149384975433,"86":-0.0865013524889946,"87":0.03374611958861351,"88":-0.0975876972079277,"89":-0.05604977905750275,"90":-0.16667737066745758,"91":0.09272131323814392,"92":-0.1583738625049591,"93":0.1703788787126541,"94":0.02718120999634266,"95":0.19308869540691376,"96":0.13721688091754913,"97":-0.06267526745796204,"98":-0.11412940919399261,"99":0.09389901161193848,"100":-0.01481468603014946,"101":-0.04280201345682144,"102":-0.1094452291727066,"103":-0.06778378784656525,"104":-0.08877000212669373,"105":0.18835905194282532,"106":0.08489637076854706,"107":0.19081032276153564,"108":0.1776556670665741,"109":-0.1033003181219101,"110":0.06547123193740845,"111":0.0023760306648910046,"112":0.14169318974018097,"113":0.014147859066724777,"114":0.08207453787326813}},"11":{"bias":-0.0356040820479393,"weights":{"0":0.18038524687290192,"1":-0.03920884057879448,"2":-0.04446616396307945,"3":-0.03367560729384422,"4":0.031112516298890114,"5":0.19373728334903717,"6":0.07725521922111511,"7":-0.13353265821933746,"8":0.06299396604299545,"9":-0.13841868937015533,"10":0.12405332922935486,"11":-0.029696078971028328,"12":-0.15321795642375946,"13":0.03952828422188759,"14":0.04568386450409889,"15":-0.18861518800258636,"16":-0.06238235533237457,"17":0.10833622515201569,"18":-0.17785446345806122,"19":-0.12874318659305573,"20":0.028422925621271133,"21":-0.03821169212460518,"22":-0.012417669408023357,"23":-0.10937482863664627,"24":0.2751938998699188,"25":0.31036776304244995,"26":-0.08932982385158539,"27":-0.1958666890859604,"28":-0.11339449882507324,"29":0.009133676066994667,"30":-0.34283459186553955,"31":-0.12794068455696106,"32":-0.02010072022676468,"33":0.07442083954811096,"34":-0.16288314759731293,"35":0.03169439360499382,"36":0.08811784535646439,"37":-0.08681802451610565,"38":0.019626859575510025,"39":-0.18179552257061005,"40":-0.09689988940954208,"41":-0.2224733680486679,"42":-0.15045326948165894,"43":0.15012101829051971,"44":-0.13930673897266388,"45":0.15419287979602814,"46":0.24389486014842987,"47":0.2720974087715149,"48":0.21960486471652985,"49":0.1952509880065918,"50":0.1646708995103836,"51":0.020510533824563026,"52":-0.327237606048584,"53":-0.20173244178295135,"54":-0.1525467336177826,"55":-0.1354907900094986,"56":0.008396227844059467,"57":0.11880133301019669,"58":0.24951277673244476,"59":0.1744489222764969,"60":0.13889624178409576,"61":-0.08751210570335388,"62":0.18926002085208893,"63":-0.19358834624290466,"64":-0.05896801874041557,"65":0.048304468393325806,"66":-0.037167396396398544,"67":-0.13482294976711273,"68":-0.039263766258955,"69":-0.10825888067483902,"70":0.24841991066932678,"71":0.3098932206630707,"72":0.12040140479803085,"73":0.030933208763599396,"74":-0.07793770730495453,"75":-0.2544506788253784,"76":-0.3906954228878021,"77":-0.17666292190551758,"78":0.1831640750169754,"79":-0.11356675624847412,"80":0.004479695577174425,"81":0.05371013283729553,"82":0.23471060395240784,"83":0.14256469905376434,"84":0.1105455607175827,"85":0.09217534959316254,"86":-0.03594208508729935,"87":0.09343603253364563,"88":-0.09538350254297256,"89":0.06328120827674866,"90":0.11562308669090271,"91":-0.08974005281925201,"92":0.17084242403507233,"93":-0.1283932477235794,"94":0.025359313935041428,"95":-0.14856640994548798,"96":-0.17856918275356293,"97":-0.009157481603324413,"98":-0.00945660937577486,"99":0.05737507715821266,"100":0.07915230095386505,"101":-0.1641521006822586,"102":-0.04772664234042168,"103":0.10318176448345184,"104":0.13208146393299103,"105":-0.021530229598283768,"106":0.192983940243721,"107":-0.04045768454670906,"108":0.17119453847408295,"109":-0.15201212465763092,"110":0.024613700807094574,"111":-0.15483792126178741,"112":0.10104593634605408,"113":0.10209515690803528,"114":0.06671203672885895}},"12":{"bias":0.19003285467624664,"weights":{"0":0.1568041443824768,"1":-0.20106816291809082,"2":-0.050536755472421646,"3":-0.1457262635231018,"4":-0.099518783390522,"5":0.17417050898075104,"6":-0.1724574863910675,"7":0.03928329050540924,"8":-0.11176607757806778,"9":0.03684155270457268,"10":-0.01337880827486515,"11":-0.13870251178741455,"12":-0.14756903052330017,"13":0.02682606317102909,"14":0.17606687545776367,"15":0.07141639292240143,"16":-0.12988616526126862,"17":-0.0034186344128102064,"18":-0.10866602510213852,"19":0.07795079797506332,"20":-0.13445700705051422,"21":-0.012148361653089523,"22":0.09848544001579285,"23":-0.09324024617671967,"24":-0.12158061563968658,"25":-0.0692867860198021,"26":-0.1556355506181717,"27":0.09160435199737549,"28":0.10672488808631897,"29":0.08758170157670975,"30":-0.10303841531276703,"31":-0.08841503411531448,"32":0.08549261838197708,"33":0.0682564526796341,"34":0.08057643473148346,"35":-0.04823698103427887,"36":0.06972233951091766,"37":-0.1716626137495041,"38":0.15386663377285004,"39":-0.20035769045352936,"40":0.1903887391090393,"41":0.13869495689868927,"42":0.15722379088401794,"43":0.026587503030896187,"44":0.08426662534475327,"45":0.008170215412974358,"46":0.11313795298337936,"47":0.07477318495512009,"48":-0.03437718749046326,"49":0.1014159694314003,"50":0.06923438608646393,"51":0.0075643546879291534,"52":-0.27993279695510864,"53":-0.46350544691085815,"54":-0.1621377021074295,"55":0.160017728805542,"56":-0.007358666509389877,"57":-0.13828878104686737,"58":0.21547630429267883,"59":0.31537848711013794,"60":0.214284285902977,"61":0.15034812688827515,"62":-0.07907772064208984,"63":0.260699063539505,"64":0.20005667209625244,"65":0.1305338740348816,"66":-0.14168989658355713,"67":0.052688732743263245,"68":0.0697927251458168,"69":-0.10200461000204086,"70":-0.24475547671318054,"71":-0.23128803074359894,"72":-0.0961683988571167,"73":-0.07995939999818802,"74":0.19398586452007294,"75":-0.07064676284790039,"76":-0.3812263011932373,"77":-0.2315458059310913,"78":0.013762015849351883,"79":-0.18568448722362518,"80":-0.09106376022100449,"81":-0.09763161092996597,"82":0.146856889128685,"83":-0.008953552693128586,"84":0.12361714243888855,"85":-0.18569740653038025,"86":0.07574261724948883,"87":0.14335604012012482,"88":0.20215120911598206,"89":-0.0699649527668953,"90":0.11475030332803726,"91":0.16735295951366425,"92":0.17236754298210144,"93":0.16884608566761017,"94":-0.16510654985904694,"95":0.1420857310295105,"96":0.09644140303134918,"97":0.05020496994256973,"98":-0.047574907541275024,"99":-0.18103832006454468,"100":-0.010691899806261063,"101":0.058284126222133636,"102":-0.03371930867433548,"103":0.13267891108989716,"104":0.17063255608081818,"105":0.04734012484550476,"106":0.04804748296737671,"107":-0.18705464899539948,"108":0.1266346126794815,"109":-0.06520624458789825,"110":-0.08122045546770096,"111":-0.13418292999267578,"112":-0.0813930556178093,"113":-0.011618340387940407,"114":-0.1891452819108963}},"13":{"bias":-0.03884834051132202,"weights":{"0":-0.0033708761911839247,"1":0.09500981867313385,"2":-0.041451215744018555,"3":0.06798364222049713,"4":-0.11127971112728119,"5":0.12318938970565796,"6":0.11416229605674744,"7":0.10065275430679321,"8":0.06940975785255432,"9":-0.1782345324754715,"10":0.11567820608615875,"11":-0.18531428277492523,"12":-0.16821709275245667,"13":0.1863526701927185,"14":0.0854540765285492,"15":-0.17185448110103607,"16":-0.09458012878894806,"17":-0.05095228552818298,"18":0.12914271652698517,"19":0.0727396309375763,"20":-0.11997058987617493,"21":0.20585176348686218,"22":0.05962814390659332,"23":-0.18020376563072205,"24":-0.023142917081713676,"25":0.2972305715084076,"26":-0.16794806718826294,"27":-0.05648253858089447,"28":0.20344074070453644,"29":0.190850168466568,"30":-0.1096416711807251,"31":0.05911185219883919,"32":0.09651973843574524,"33":-0.0672549307346344,"34":0.036168016493320465,"35":-0.2186242640018463,"36":0.13678261637687683,"37":0.06572199612855911,"38":0.13859005272388458,"39":0.1946324110031128,"40":-0.19651882350444794,"41":-0.2134905755519867,"42":-0.2876259684562683,"43":0.06784272193908691,"44":0.014125936664640903,"45":0.16871359944343567,"46":-0.08793936669826508,"47":0.2328542023897171,"48":0.3868124485015869,"49":0.15780381858348846,"50":0.10750505328178406,"51":0.01961202546954155,"52":-0.10221019387245178,"53":-0.10296454280614853,"54":-0.06620749831199646,"55":0.06321937590837479,"56":-0.04295423626899719,"57":0.07810318470001221,"58":-0.058658719062805176,"59":-0.256087988615036,"60":0.04163360595703125,"61":-0.15466411411762238,"62":0.0007634839275851846,"63":0.06979760527610779,"64":-0.19528979063034058,"65":-0.2164493054151535,"66":-0.10061672329902649,"67":0.12147146463394165,"68":0.03148290887475014,"69":0.18208710849285126,"70":0.035503022372722626,"71":0.11561025679111481,"72":0.0659625381231308,"73":-0.01691063866019249,"74":-0.09508207440376282,"75":-0.06207667663693428,"76":-0.09340526163578033,"77":0.0420328751206398,"78":-0.029875073581933975,"79":-0.16126075387001038,"80":-0.025197837501764297,"81":0.08871292322874069,"82":-0.09336322546005249,"83":-0.07957251369953156,"84":-0.10749579966068268,"85":-0.09333191812038422,"86":-0.20530995726585388,"87":-0.1087767630815506,"88":0.03460180386900902,"89":-0.061933692544698715,"90":-0.1321648210287094,"91":0.002362567698583007,"92":-0.13823477923870087,"93":0.19764715433120728,"94":0.13629603385925293,"95":0.01761007122695446,"96":0.06253866851329803,"97":-0.17355574667453766,"98":-0.14371097087860107,"99":0.0158177949488163,"100":0.11029328405857086,"101":0.15477760136127472,"102":-0.035394199192523956,"103":-0.036785826086997986,"104":-0.0408879891037941,"105":0.17812427878379822,"106":0.17710553109645844,"107":0.027948282659053802,"108":-0.029541952535510063,"109":-0.009326650761067867,"110":0.14972899854183197,"111":-0.0607491135597229,"112":-0.12720178067684174,"113":0.014383078552782536,"114":0.14518052339553833}},"14":{"bias":0.029387030750513077,"weights":{"0":0.058962639421224594,"1":0.13920395076274872,"2":-0.06705886870622635,"3":-0.033004093915224075,"4":0.09423422068357468,"5":0.17792287468910217,"6":0.10757450014352798,"7":-0.033086616545915604,"8":-0.10430369526147842,"9":0.14779707789421082,"10":0.1975908726453781,"11":0.1514703631401062,"12":-0.160847470164299,"13":-0.08293371647596359,"14":-0.04519912973046303,"15":0.15013225376605988,"16":-0.07330024987459183,"17":0.008274688385426998,"18":0.15302881598472595,"19":0.019388271495699883,"20":-0.10088574141263962,"21":-0.023114217445254326,"22":-0.005043794866651297,"23":0.13093534111976624,"24":0.35094451904296875,"25":0.21156486868858337,"26":0.11728738993406296,"27":-0.10393201559782028,"28":0.12803472578525543,"29":0.06338341534137726,"30":-0.15914683043956757,"31":-0.13344386219978333,"32":-0.14077888429164886,"33":-0.024385837838053703,"34":0.03169868513941765,"35":0.09005891531705856,"36":0.031249934807419777,"37":0.04284844174981117,"38":-0.13953456282615662,"39":-0.15587714314460754,"40":0.20019137859344482,"41":-0.09765941649675369,"42":-0.04361637309193611,"43":-0.12280895560979843,"44":0.06102294847369194,"45":-0.018685167655348778,"46":0.36395180225372314,"47":0.6302089095115662,"48":0.6559615731239319,"49":-0.07682214677333832,"50":-0.066940538585186,"51":-0.08468655496835709,"52":-0.3665895462036133,"53":-0.5550781488418579,"54":-0.2821751534938812,"55":-0.13846421241760254,"56":-0.1345338374376297,"57":-0.0475037544965744,"58":-0.1412888765335083,"59":-0.3770938217639923,"60":-0.11817944794893265,"61":-0.15092498064041138,"62":0.10664448887109756,"63":0.13792812824249268,"64":0.15047168731689453,"65":0.21006567776203156,"66":0.035085517913103104,"67":-0.15982669591903687,"68":0.18807770311832428,"69":0.20183435082435608,"70":0.07751155644655228,"71":0.1848507821559906,"72":0.07665430754423141,"73":-0.06589608639478683,"74":-0.05508529767394066,"75":-0.04160372167825699,"76":-0.14049986004829407,"77":-0.11373214423656464,"78":-0.12409797310829163,"79":-0.16509173810482025,"80":0.048584308475255966,"81":0.00197484134696424,"82":-0.2138887345790863,"83":0.015444381162524223,"84":0.14116564393043518,"85":-0.0815339908003807,"86":0.13080482184886932,"87":-0.04356962814927101,"88":0.20363716781139374,"89":0.012470484711229801,"90":-0.11380261927843094,"91":-0.10894570499658585,"92":-0.0092600854113698,"93":0.04209307208657265,"94":-0.07442579418420792,"95":0.000098056836577598,"96":-0.10783322900533676,"97":-0.10132991522550583,"98":-0.11076448112726212,"99":0.18096140027046204,"100":-0.10871613770723343,"101":-0.059732552617788315,"102":0.06530054658651352,"103":0.07488683611154556,"104":-0.15655380487442017,"105":-0.02138054557144642,"106":0.12675921618938446,"107":-0.0777866318821907,"108":0.0581158809363842,"109":-0.009095513261854649,"110":-0.16895130276679993,"111":0.12597955763339996,"112":0.03354218974709511,"113":0.02841218002140522,"114":0.005640472751110792}},"15":{"bias":-0.09184274822473526,"weights":{"0":0.016015734523534775,"1":-0.02084364742040634,"2":0.040013108402490616,"3":0.03729908540844917,"4":0.1626729518175125,"5":-0.027379382401704788,"6":-0.11424039304256439,"7":0.1986764371395111,"8":-0.1832149475812912,"9":0.0064697894267737865,"10":0.031974758952856064,"11":0.02018485963344574,"12":-0.020534567534923553,"13":0.19801002740859985,"14":-0.10455445945262909,"15":-0.08750608563423157,"16":0.1915539801120758,"17":0.03170529380440712,"18":0.05586676672101021,"19":-0.0668247640132904,"20":-0.08147178590297699,"21":-0.16854672133922577,"22":-0.06980961561203003,"23":0.08240655064582825,"24":-0.07298621535301208,"25":-0.22236892580986023,"26":-0.09783367812633514,"27":-0.01958046481013298,"28":-0.11227941513061523,"29":0.28781092166900635,"30":0.27701860666275024,"31":0.2413254678249359,"32":0.01261475682258606,"33":0.15042680501937866,"34":0.04246865585446358,"35":-0.13650695979595184,"36":0.05120115354657173,"37":-0.06095842644572258,"38":0.14348755776882172,"39":0.10824635624885559,"40":-0.1010352224111557,"41":-0.13220462203025818,"42":-0.31338343024253845,"43":0.13799962401390076,"44":-0.06895028799772263,"45":0.17574699223041534,"46":-0.2124146819114685,"47":-0.14859332144260406,"48":-0.3100075423717499,"49":0.1298545002937317,"50":-0.06085530295968056,"51":-0.030030807480216026,"52":0.7120116949081421,"53":0.8443508744239807,"54":0.4691475033760071,"55":-0.06863310188055038,"56":-0.051727037876844406,"57":0.07792412489652634,"58":0.03344283998012543,"59":0.008844397962093353,"60":0.018354948610067368,"61":0.08717730641365051,"62":-0.151096910238266,"63":-0.3070064187049866,"64":-0.5812171101570129,"65":-0.36312395334243774,"66":0.1544308215379715,"67":-0.025228451937437057,"68":-0.10420413315296173,"69":-0.07367637008428574,"70":-0.26425701379776,"71":-0.03645467758178711,"72":-0.11200464516878128,"73":-0.16592656075954437,"74":-0.1339387595653534,"75":0.0652388408780098,"76":0.5341567397117615,"77":0.21889972686767578,"78":-0.1055973619222641,"79":-0.1756080538034439,"80":0.08103971183300018,"81":-0.08988592028617859,"82":0.194097101688385,"83":-0.13241739571094513,"84":0.051114920526742935,"85":-0.1840590089559555,"86":-0.07732918113470078,"87":-0.06164948642253876,"88":0.026003705337643623,"89":0.035993631929159164,"90":0.09451812505722046,"91":0.025170713663101196,"92":0.1239236444234848,"93":0.042756255716085434,"94":0.12696580588817596,"95":-0.056798648089170456,"96":0.08356955647468567,"97":0.16984869539737701,"98":0.02271752431988716,"99":0.12348353117704391,"100":0.14582818746566772,"101":-0.0484263114631176,"102":-0.07678799331188202,"103":-0.11455635726451874,"104":-0.07988731563091278,"105":0.048814836889505386,"106":0.18287040293216705,"107":-0.0019417371368035674,"108":0.05641208961606026,"109":-0.05599874630570412,"110":0.09747147560119629,"111":-0.006542232818901539,"112":-0.14899882674217224,"113":-0.08175933361053467,"114":-0.118538498878479}},"16":{"bias":-0.03204069659113884,"weights":{"0":0.14928360283374786,"1":-0.033009327948093414,"2":-0.12397590279579163,"3":0.15162350237369537,"4":-0.12910687923431396,"5":0.030281521379947662,"6":-0.046330906450748444,"7":0.024752400815486908,"8":-0.1438172310590744,"9":0.05660782754421234,"10":0.17278943955898285,"11":0.08473744988441467,"12":-0.02142423391342163,"13":-0.0915885642170906,"14":-0.16284161806106567,"15":0.05595631152391434,"16":0.1704901158809662,"17":-0.12955160439014435,"18":0.13607634603977203,"19":0.10635370761156082,"20":0.014567622914910316,"21":0.1776321977376938,"22":-0.18230856955051422,"23":-0.21236392855644226,"24":-0.040015000849962234,"25":-0.008212595246732235,"26":0.10384208709001541,"27":0.16894806921482086,"28":0.02398405224084854,"29":-0.019105253741145134,"30":-0.06574369966983795,"31":0.14080187678337097,"32":-0.13708801567554474,"33":0.03294350951910019,"34":0.1559290885925293,"35":0.060554880648851395,"36":0.23750808835029602,"37":-0.05633383244276047,"38":0.01147557981312275,"39":0.125046968460083,"40":0.11407485604286194,"41":-0.04527478292584419,"42":-0.22642932832241058,"43":0.15618929266929626,"44":0.10266026109457016,"45":-0.06920969486236572,"46":0.17468707263469696,"47":0.17082911729812622,"48":-0.1502688229084015,"49":-0.20080585777759552,"50":-0.03810878098011017,"51":-0.0077643850818276405,"52":0.014812394045293331,"53":0.05125376582145691,"54":-0.12282496690750122,"55":-0.2000129222869873,"56":-0.025834091007709503,"57":-0.10705423355102539,"58":0.348154753446579,"59":0.18339723348617554,"60":0.10919009894132614,"61":0.1549065262079239,"62":-0.023274339735507965,"63":0.050517939031124115,"64":-0.34318095445632935,"65":0.07805458456277847,"66":-0.1290309727191925,"67":-0.15728886425495148,"68":0.030127692967653275,"69":-0.0476418137550354,"70":0.13506244122982025,"71":0.0842386782169342,"72":-0.21105892956256866,"73":-0.2010352462530136,"74":0.16777212917804718,"75":0.13726700842380524,"76":-0.1150088682770729,"77":-0.03348925709724426,"78":0.061091162264347076,"79":-0.19528983533382416,"80":0.09954147785902023,"81":0.09936995804309845,"82":0.04129289835691452,"83":0.13822214305400848,"84":0.036879800260066986,"85":0.07452557981014252,"86":-0.2692831754684448,"87":-0.09443803876638412,"88":0.01812616176903248,"89":-0.07621815800666809,"90":-0.08374489098787308,"91":-0.012786838226020336,"92":-0.022408444434404373,"93":0.06921619176864624,"94":0.131938636302948,"95":-0.14259691536426544,"96":-0.03655523061752319,"97":-0.20166288316249847,"98":0.006438938435167074,"99":0.03170330822467804,"100":0.044274091720581055,"101":-0.174684539437294,"102":0.0551280602812767,"103":-0.14637359976768494,"104":0.10803297162055969,"105":0.025010846555233,"106":-0.15118180215358734,"107":-0.061067864298820496,"108":-0.141235813498497,"109":-0.004633661825209856,"110":0.17371810972690582,"111":0.00663491478189826,"112":0.13685189187526703,"113":-0.07145346701145172,"114":0.011110798455774784}},"17":{"bias":-0.02806389331817627,"weights":{"0":0.016001034528017044,"1":0.18411096930503845,"2":-0.17871502041816711,"3":-0.17218932509422302,"4":0.11203473806381226,"5":-0.15786972641944885,"6":0.14107292890548706,"7":0.17221885919570923,"8":-0.10644443333148956,"9":0.14301416277885437,"10":0.11262337863445282,"11":0.0924224853515625,"12":0.0692320242524147,"13":-0.05560017749667168,"14":-0.1429157257080078,"15":-0.1024075448513031,"16":-0.016016241163015366,"17":-0.14873123168945312,"18":-0.14767172932624817,"19":0.12161369621753693,"20":-0.08823557943105698,"21":0.07109342515468597,"22":0.13481298089027405,"23":-0.13873428106307983,"24":-0.1722535490989685,"25":0.162788987159729,"26":0.03253072872757912,"27":-0.13251832127571106,"28":-0.07583298534154892,"29":0.1810898780822754,"30":-0.18174490332603455,"31":-0.20194000005722046,"32":0.07042096555233002,"33":0.1413760781288147,"34":-0.13508346676826477,"35":-0.06438345462083817,"36":0.16418254375457764,"37":-0.034782085567712784,"38":0.07966214418411255,"39":0.09476114064455032,"40":0.11584232747554779,"41":0.030488280579447746,"42":0.06191805750131607,"43":-0.1627333164215088,"44":0.12237296253442764,"45":-0.11202988773584366,"46":-0.08319727331399918,"47":0.024905553087592125,"48":-0.0712289810180664,"49":0.08026405423879623,"50":0.18134233355522156,"51":-0.1369975209236145,"52":0.10188024491071701,"53":-0.24727590382099152,"54":0.0980931892991066,"55":0.0852556899189949,"56":0.03171222656965256,"57":-0.020808421075344086,"58":0.20907938480377197,"59":-0.009076978079974651,"60":0.17374470829963684,"61":-0.12672856450080872,"62":0.035683292895555496,"63":0.11733041703701019,"64":0.04161737114191055,"65":-0.045008543878793716,"66":-0.14154598116874695,"67":0.14359351992607117,"68":-0.13976040482521057,"69":-0.14806219935417175,"70":0.014438937418162823,"71":-0.22757238149642944,"72":0.015707658603787422,"73":-0.18101608753204346,"74":-0.08497548848390579,"75":-0.13824056088924408,"76":0.15594695508480072,"77":-0.20346517860889435,"78":-0.19087481498718262,"79":-0.20472374558448792,"80":0.17963871359825134,"81":-0.007118620444089174,"82":0.1304149478673935,"83":-0.18596762418746948,"84":-0.04557278752326965,"85":-0.19155442714691162,"86":-0.14092379808425903,"87":-0.10949600487947464,"88":0.054744742810726166,"89":0.09373437613248825,"90":-0.1260519027709961,"91":-0.0706803947687149,"92":-0.17921894788742065,"93":-0.09221271425485611,"94":0.11096299439668655,"95":0.18208381533622742,"96":0.04938928037881851,"97":-0.10831017047166824,"98":0.16305962204933167,"99":-0.1385135054588318,"100":-0.05708150938153267,"101":-0.14651328325271606,"102":0.053901225328445435,"103":-0.004746417049318552,"104":-0.11596845835447311,"105":-0.12923294305801392,"106":-0.023471564054489136,"107":0.024692103266716003,"108":-0.03388359770178795,"109":0.15971964597702026,"110":0.07627511769533157,"111":0.16162830591201782,"112":-0.1926494538784027,"113":0.12532562017440796,"114":-0.20440161228179932}},"18":{"bias":-0.1812862753868103,"weights":{"0":-0.13886921107769012,"1":0.009513176046311855,"2":0.1490454226732254,"3":0.010091877542436123,"4":0.1396472454071045,"5":-0.09459269046783447,"6":0.018679676577448845,"7":0.14818337559700012,"8":-0.15527655184268951,"9":-0.08086786419153214,"10":-0.04140206426382065,"11":-0.014425410889089108,"12":-0.194289892911911,"13":0.16200514137744904,"14":0.14119833707809448,"15":0.11630198359489441,"16":-0.043336816132068634,"17":0.0010014199651777744,"18":-0.0205384511500597,"19":-0.027497349306941032,"20":-0.12350261956453323,"21":0.08100544661283493,"22":0.11543244123458862,"23":0.04376832768321037,"24":-0.1786520928144455,"25":-0.17346863448619843,"26":-0.1343589872121811,"27":0.02924974448978901,"28":0.07242710143327713,"29":0.09274041652679443,"30":-0.07379650324583054,"31":-0.1964188814163208,"32":0.0063005355186760426,"33":0.0971279889345169,"34":0.03660169243812561,"35":-0.003853241680189967,"36":0.011977230198681355,"37":0.08661061525344849,"38":-0.16016080975532532,"39":-0.08915427327156067,"40":0.05012113228440285,"41":-0.04695012792944908,"42":0.2166772037744522,"43":-0.12931326031684875,"44":0.17813193798065186,"45":0.05119308829307556,"46":0.1720353662967682,"47":0.06007589399814606,"48":-0.10154036432504654,"49":-0.022484881803393364,"50":-0.020574143156409264,"51":-0.13774777948856354,"52":-0.36921772360801697,"53":-0.5264668464660645,"54":-0.40302813053131104,"55":-0.11292825639247894,"56":0.1657792329788208,"57":0.21967318654060364,"58":0.20645497739315033,"59":0.13417837023735046,"60":0.1204909160733223,"61":-0.1283726990222931,"62":-0.14812606573104858,"63":0.09155455231666565,"64":0.34194397926330566,"65":-0.0121192317456007,"66":0.1902448982000351,"67":-0.143135666847229,"68":-0.07767339050769806,"69":0.03524218499660492,"70":0.14566344022750854,"71":0.14561142027378082,"72":-0.024577712640166283,"73":-0.04791553318500519,"74":0.0437752828001976,"75":-0.20986607670783997,"76":-0.29414042830467224,"77":0.0680461898446083,"78":0.06957385689020157,"79":-0.14239317178726196,"80":-0.08561266958713531,"81":-0.07013214379549026,"82":0.02495286613702774,"83":0.17266665399074554,"84":0.05200576037168503,"85":0.20038801431655884,"86":-0.0768171101808548,"87":0.005169515963643789,"88":-0.12447107583284378,"89":0.07057906687259674,"90":-0.06812947988510132,"91":0.01889103464782238,"92":0.1501951962709427,"93":-0.07489459216594696,"94":0.07047528773546219,"95":0.16826851665973663,"96":-0.18359209597110748,"97":0.1746659129858017,"98":-0.08222145587205887,"99":0.0879223570227623,"100":-0.05950940400362015,"101":0.16770179569721222,"102":-0.029466619715094566,"103":-0.06565307825803757,"104":0.041157446801662445,"105":-0.1677960753440857,"106":0.045438989996910095,"107":0.024301784113049507,"108":-0.13720513880252838,"109":-0.017014699056744576,"110":0.07631837576627731,"111":0.09080519527196884,"112":0.022340720519423485,"113":0.0305511225014925,"114":0.02506565861403942}},"19":{"bias":0.016121432185173035,"weights":{"0":-0.1625598520040512,"1":0.10647623240947723,"2":0.03119213506579399,"3":0.1822933405637741,"4":0.1583978682756424,"5":0.009010220877826214,"6":-0.0653257668018341,"7":0.050570495426654816,"8":-0.1411403864622116,"9":0.0972166582942009,"10":-0.15033476054668427,"11":0.00045142514863982797,"12":0.11108564585447311,"13":-0.0885014459490776,"14":-0.19598554074764252,"15":-0.04641299694776535,"16":0.162685826420784,"17":0.059515856206417084,"18":0.1493915170431137,"19":-0.1750233918428421,"20":-0.19314418733119965,"21":0.19330160319805145,"22":-0.13346250355243683,"23":0.16250170767307281,"24":-0.08015788346529007,"25":0.19076402485370636,"26":0.16364766657352448,"27":-0.06179497018456459,"28":-0.12293698638677597,"29":-0.21219363808631897,"30":-0.3260061740875244,"31":-0.041603680700063705,"32":0.03096928633749485,"33":-0.038132891058921814,"34":-0.16664107143878937,"35":0.04191788658499718,"36":-0.009822243824601173,"37":-0.17531274259090424,"38":-0.11810869723558426,"39":0.0248753409832716,"40":0.16447089612483978,"41":-0.09011535346508026,"42":0.18393023312091827,"43":0.10472380369901657,"44":0.17865265905857086,"45":0.16358841955661774,"46":-0.09929110109806061,"47":-0.10093164443969727,"48":-0.14752136170864105,"49":-0.13283978402614594,"50":-0.027430716902017593,"51":-0.03829145431518555,"52":-0.2604133188724518,"53":-0.3978883922100067,"54":-0.19035986065864563,"55":0.13430006802082062,"56":0.07399363815784454,"57":-0.1206507459282875,"58":0.3407716453075409,"59":0.19625087082386017,"60":-0.10440412908792496,"61":0.19781871140003204,"62":0.06677264720201492,"63":-0.018734322860836983,"64":0.1629113405942917,"65":0.06685129553079605,"66":0.006812132894992828,"67":0.056173332035541534,"68":-0.03588056564331055,"69":0.13790921866893768,"70":0.09691838920116425,"71":-0.07168669998645782,"72":-0.08930516242980957,"73":0.20155386626720428,"74":0.05026382952928543,"75":-0.2702868580818176,"76":-0.23037901520729065,"77":0.04954041168093681,"78":-0.09590937942266464,"79":-0.06260225921869278,"80":0.14005230367183685,"81":-0.0007029284606687725,"82":-0.009856239892542362,"83":-0.15870575606822968,"84":0.1687168926000595,"85":0.008017579093575478,"86":0.05181681364774704,"87":0.08070670068264008,"88":0.14468319714069366,"89":-0.1894136220216751,"90":-0.15637709200382233,"91":-0.042461954057216644,"92":0.01823197863996029,"93":-0.17854124307632446,"94":0.022718289867043495,"95":0.15927092730998993,"96":-0.00491607841104269,"97":0.14014621078968048,"98":-0.1557687669992447,"99":0.04377346485853195,"100":0.19570155441761017,"101":-0.19526375830173492,"102":0.000792581879068166,"103":0.20284707844257355,"104":0.16684089601039886,"105":-0.18618951737880707,"106":-0.05495106801390648,"107":-0.10724899917840958,"108":0.07195962965488434,"109":0.024282991886138916,"110":0.04137123003602028,"111":0.0767747312784195,"112":0.10349984467029572,"113":0.11115602403879166,"114":-0.1575935333967209}},"20":{"bias":-0.18446394801139832,"weights":{"0":-0.1874004304409027,"1":-0.09145965427160263,"2":0.15543007850646973,"3":0.018266411498188972,"4":0.03296874091029167,"5":0.008384713903069496,"6":0.032232578843832016,"7":-0.18487928807735443,"8":0.12177057564258575,"9":0.11380628496408463,"10":0.13019120693206787,"11":0.05884610116481781,"12":0.038888346403837204,"13":0.09102660417556763,"14":0.19178324937820435,"15":0.1795082986354828,"16":-0.1308695524930954,"17":-0.19762128591537476,"18":0.18366160988807678,"19":-0.18680061399936676,"20":0.1458761990070343,"21":-0.030478615313768387,"22":-0.15106086432933807,"23":-0.19887977838516235,"24":0.08841399103403091,"25":-0.04332837834954262,"26":-0.07589557766914368,"27":0.1320049911737442,"28":0.12304706871509552,"29":0.1404423713684082,"30":-0.05733003094792366,"31":-0.17705467343330383,"32":-0.007992892526090145,"33":-0.04190775007009506,"34":-0.1033870279788971,"35":0.06376925855875015,"36":-0.19397366046905518,"37":-0.09897464513778687,"38":-0.18314030766487122,"39":-0.11389700323343277,"40":-0.1554909348487854,"41":0.031769346445798874,"42":-0.04205404594540596,"43":-0.11017529666423798,"44":-0.14928734302520752,"45":-0.03782367706298828,"46":0.009903357364237309,"47":-0.04412274435162544,"48":-0.15045519173145294,"49":-0.03306024149060249,"50":-0.05446232855319977,"51":-0.13003204762935638,"52":0.023294972255825996,"53":0.05856772139668465,"54":0.16235791146755219,"55":-0.09750986844301224,"56":-0.02119901403784752,"57":0.020877152681350708,"58":-0.16881009936332703,"59":0.003494788194075227,"60":0.11805787682533264,"61":-0.01100019458681345,"62":-0.17284321784973145,"63":0.025829801335930824,"64":0.10345499962568283,"65":-0.06851036101579666,"66":-0.11569955945014954,"67":-0.18092796206474304,"68":0.13938108086585999,"69":-0.086597740650177,"70":-0.1826232671737671,"71":0.15035581588745117,"72":0.05116168409585953,"73":0.05047815293073654,"74":0.01266686711460352,"75":0.0937487930059433,"76":0.193461611866951,"77":-0.07606363296508789,"78":-0.1420585662126541,"79":0.03805025294423103,"80":0.13521292805671692,"81":-0.08112934976816177,"82":-0.11982983350753784,"83":0.1574619710445404,"84":0.04254040867090225,"85":0.02253085933625698,"86":-0.16628775000572205,"87":-0.12118072062730789,"88":-0.14689980447292328,"89":0.19623562693595886,"90":-0.11530496180057526,"91":-0.009835795499384403,"92":-0.12787967920303345,"93":-0.1957920640707016,"94":0.03318759799003601,"95":0.009333974681794643,"96":0.1603362262248993,"97":-0.17573562264442444,"98":0.03879414498806,"99":0.16314075887203217,"100":-0.07232485711574554,"101":-0.158542200922966,"102":0.14875778555870056,"103":-0.1938570886850357,"104":0.13299258053302765,"105":0.0175166018307209,"106":-0.030748657882213593,"107":0.16599322855472565,"108":-0.11710936576128006,"109":-0.07277850061655045,"110":0.08610689640045166,"111":0.029579877853393555,"112":0.051090262830257416,"113":0.037110380828380585,"114":0.12355019897222519}},"21":{"bias":0.11498840898275375,"weights":{"0":0.008704198524355888,"1":0.11325463652610779,"2":-0.04599638655781746,"3":0.14513403177261353,"4":-0.0756579339504242,"5":0.17174670100212097,"6":0.12101195752620697,"7":-0.07642833143472672,"8":-0.11590781062841415,"9":-0.15604189038276672,"10":-0.02827945351600647,"11":-0.04619618132710457,"12":-0.12147867679595947,"13":-0.07543794810771942,"14":0.04016406089067459,"15":0.1270374208688736,"16":0.025410715490579605,"17":-0.14125022292137146,"18":0.07631097733974457,"19":-0.08034376800060272,"20":0.08846782147884369,"21":-0.10498213022947311,"22":-0.17815297842025757,"23":0.16094592213630676,"24":0.16131795942783356,"25":-0.067559152841568,"26":0.20427533984184265,"27":0.20536498725414276,"28":0.12154088169336319,"29":-0.014623720198869705,"30":-0.007293304428458214,"31":-0.20743577182292938,"32":0.04720697179436684,"33":-0.11063618212938309,"34":0.07066046446561813,"35":-0.15790846943855286,"36":-0.06409188359975815,"37":0.0009988441597670317,"38":-0.07313896715641022,"39":-0.03684673085808754,"40":-0.1972815990447998,"41":0.14204126596450806,"42":-0.11793294548988342,"43":-0.12258852273225784,"44":0.010295608080923557,"45":0.19170814752578735,"46":-0.08182895928621292,"47":0.31115713715553284,"48":0.1295444518327713,"49":0.18004031479358673,"50":0.1351190209388733,"51":0.20020131766796112,"52":-0.078630730509758,"53":-0.2777572274208069,"54":-0.02696756273508072,"55":0.17571212351322174,"56":0.06433840841054916,"57":0.17653097212314606,"58":-0.18399225175380707,"59":0.13877777755260468,"60":-0.04734673723578453,"61":0.01661333441734314,"62":-0.004385633394122124,"63":-0.14315178990364075,"64":0.06669560074806213,"65":-0.09874346107244492,"66":-0.08123401552438736,"67":-0.03922251984477043,"68":-0.046448174864053726,"69":0.18408043682575226,"70":0.21765142679214478,"71":0.028969474136829376,"72":0.06516465544700623,"73":-0.14751119911670685,"74":-0.11561308056116104,"75":0.008827279321849346,"76":-0.11942508816719055,"77":0.04516484960913658,"78":0.013619215227663517,"79":0.030797580257058144,"80":0.14858248829841614,"81":-0.038862280547618866,"82":-0.045783013105392456,"83":0.041799161583185196,"84":0.15555095672607422,"85":0.06625007838010788,"86":-0.2200629711151123,"87":-0.22138161957263947,"88":-0.12151248008012772,"89":-0.10538735240697861,"90":0.14751313626766205,"91":0.06682467460632324,"92":-0.11317308992147446,"93":-0.08950172364711761,"94":-0.04814819619059563,"95":0.10700840502977371,"96":-0.1062554344534874,"97":0.16538047790527344,"98":-0.057616621255874634,"99":-0.15689627826213837,"100":-0.11708469688892365,"101":0.1010243371129036,"102":0.017978986725211143,"103":-0.0500817634165287,"104":-0.17008115351200104,"105":0.09511953592300415,"106":0.06451181322336197,"107":0.13008403778076172,"108":-0.09977757185697556,"109":-0.11874176561832428,"110":-0.008945350535213947,"111":0.045657187700271606,"112":0.029378701001405716,"113":-0.02157101035118103,"114":0.07363803684711456}},"22":{"bias":-0.13013887405395508,"weights":{"0":-0.17020867764949799,"1":0.1785917431116104,"2":0.1815926879644394,"3":-0.1449819654226303,"4":-0.18480701744556427,"5":-0.1625566929578781,"6":-0.19484831392765045,"7":-0.0415835902094841,"8":-0.06440574675798416,"9":-0.174648717045784,"10":-0.18778200447559357,"11":-0.1372249573469162,"12":0.012220829725265503,"13":-0.05853888764977455,"14":-0.03538936749100685,"15":0.15198348462581635,"16":0.009707637131214142,"17":0.18704797327518463,"18":0.005861273966729641,"19":-0.06763031333684921,"20":-0.005187556147575378,"21":-0.06868324428796768,"22":-0.14925386011600494,"23":0.10270906239748001,"24":-0.07101605832576752,"25":0.016321338713169098,"26":-0.19912143051624298,"27":0.004804510157555342,"28":0.007066432386636734,"29":0.04924445599317551,"30":-0.09343019872903824,"31":-0.03606877103447914,"32":0.13784393668174744,"33":0.05627582222223282,"34":0.17800675332546234,"35":-0.10344205051660538,"36":0.03759165480732918,"37":-0.01781957596540451,"38":-0.032718874514102936,"39":-0.08214227110147476,"40":-0.08058547228574753,"41":0.14978986978530884,"42":0.12865234911441803,"43":-0.0041969288140535355,"44":0.07516594976186752,"45":0.18746642768383026,"46":0.19728530943393707,"47":0.01738462969660759,"48":0.20235058665275574,"49":0.04678870737552643,"50":0.10610008984804153,"51":0.030224381014704704,"52":-0.13212141394615173,"53":0.1988312005996704,"54":-0.006217243615537882,"55":0.07763955742120743,"56":-0.11742015928030014,"57":-0.10437550395727158,"58":-0.1580355018377304,"59":-0.181252583861351,"60":0.13979528844356537,"61":0.10952319949865341,"62":-0.016172371804714203,"63":-0.005407025571912527,"64":0.02032836154103279,"65":-0.1744811236858368,"66":-0.11982467025518417,"67":-0.17527614533901215,"68":-0.012753779999911785,"69":-0.1808146834373474,"70":-0.06553035974502563,"71":0.010351335629820824,"72":0.03849531337618828,"73":0.10851172357797623,"74":-0.15067778527736664,"75":-0.09931260347366333,"76":0.10889330506324768,"77":0.05338462069630623,"78":-0.000933720322791487,"79":0.17361606657505035,"80":0.09504135698080063,"81":-0.14478059113025665,"82":-0.21727953851222992,"83":-0.053717441856861115,"84":0.01360347680747509,"85":-0.02049115300178528,"86":0.15109175443649292,"87":-0.2041836380958557,"88":-0.0739661380648613,"89":0.05632788687944412,"90":-0.08310092240571976,"91":0.029454991221427917,"92":0.14899690449237823,"93":0.09553540498018265,"94":0.012116793543100357,"95":-0.18737603724002838,"96":-0.10650018602609634,"97":-0.006766797974705696,"98":0.03663673624396324,"99":0.18918608129024506,"100":0.10235310345888138,"101":-0.044788163155317307,"102":0.08849137276411057,"103":-0.05906112492084503,"104":0.1858445554971695,"105":0.08108475059270859,"106":-0.12214788049459457,"107":0.13183800876140594,"108":0.18491987884044647,"109":-0.13285575807094574,"110":-0.054674334824085236,"111":0.06612148135900497,"112":0.1620137244462967,"113":0.07802002876996994,"114":0.13732674717903137}},"23":{"bias":-0.12229321151971817,"weights":{"0":0.09280329942703247,"1":0.17193545401096344,"2":0.024817580357193947,"3":-0.14860717952251434,"4":0.06414508074522018,"5":0.06415080279111862,"6":0.15287627279758453,"7":-0.1712733656167984,"8":-0.16782589256763458,"9":0.052743155509233475,"10":0.08937360346317291,"11":0.1872072070837021,"12":0.11327117681503296,"13":-0.14521841704845428,"14":-0.15030135214328766,"15":0.027376195415854454,"16":-0.048478346318006516,"17":-0.08115234971046448,"18":-0.06425827741622925,"19":-0.151466503739357,"20":-0.07259027659893036,"21":0.04218113049864769,"22":0.19824235141277313,"23":-0.051359400153160095,"24":0.2039589285850525,"25":0.1352461874485016,"26":-0.0648048147559166,"27":-0.06729286164045334,"28":-0.1677694171667099,"29":-0.15819630026817322,"30":-0.38560348749160767,"31":0.04677383229136467,"32":-0.04405968263745308,"33":-0.12142127752304077,"34":0.17238788306713104,"35":0.1328856199979782,"36":-0.1588025540113449,"37":0.13692466914653778,"38":-0.1299438327550888,"39":-0.05677733197808266,"40":0.020409487187862396,"41":0.18641722202301025,"42":0.19511738419532776,"43":-0.03081822581589222,"44":0.03438016027212143,"45":0.07766349613666534,"46":0.07267188280820847,"47":0.5060380697250366,"48":0.453296959400177,"49":-0.11010140925645828,"50":0.062069423496723175,"51":0.15717606246471405,"52":-0.5976622700691223,"53":-0.6772517561912537,"54":-0.47513338923454285,"55":-0.009124506264925003,"56":0.0925227701663971,"57":-0.08757436275482178,"58":-0.01840352453291416,"59":0.24414987862110138,"60":0.18758858740329742,"61":0.017550157383084297,"62":-0.15517951548099518,"63":0.2294481247663498,"64":-0.021464413031935692,"65":-0.04402174800634384,"66":-0.0021939422003924847,"67":0.11608704924583435,"68":-0.02563025988638401,"69":0.1469251811504364,"70":0.09550073742866516,"71":0.2913441061973572,"72":0.04633684083819389,"73":0.020713014528155327,"74":0.18240047991275787,"75":-0.3543016016483307,"76":-0.5498434901237488,"77":-0.16930481791496277,"78":0.08761672675609589,"79":-0.08518438041210175,"80":0.0035568629391491413,"81":-0.09289398044347763,"82":-0.15775930881500244,"83":-0.11977531015872955,"84":-0.18940575420856476,"85":-0.16432328522205353,"86":0.015642190352082253,"87":0.2065684199333191,"88":0.03100644424557686,"89":0.06219007819890976,"90":0.0857449471950531,"91":-0.03399449214339256,"92":-0.1490316540002823,"93":-0.11848114430904388,"94":0.0715254694223404,"95":-0.08016051352024078,"96":-0.149980828166008,"97":0.11053133010864258,"98":0.12906624376773834,"99":0.08372016251087189,"100":0.02114851213991642,"101":-0.026112744584679604,"102":-0.05337175354361534,"103":-0.10920856893062592,"104":-0.11837746202945709,"105":0.07232442498207092,"106":0.15226338803768158,"107":-0.01369883120059967,"108":0.05730665847659111,"109":0.1749739795923233,"110":0.16673611104488373,"111":0.11678101122379303,"112":-0.1926765888929367,"113":0.14375196397304535,"114":-0.05400462821125984}},"24":{"bias":-0.1207914873957634,"weights":{"0":-0.10238765180110931,"1":-0.05190649256110191,"2":0.013215091079473495,"3":-0.17979642748832703,"4":-0.11749178171157837,"5":-0.02288816310465336,"6":-0.11418949067592621,"7":0.043024901300668716,"8":-0.11891959607601166,"9":-0.12779290974140167,"10":0.11292192339897156,"11":-0.0964985340833664,"12":0.14917197823524475,"13":0.08952592313289642,"14":0.16514016687870026,"15":0.08555060625076294,"16":-0.05098191276192665,"17":-0.08494076132774353,"18":-0.17170430719852448,"19":-0.007132216356694698,"20":0.06764467060565948,"21":0.15504178404808044,"22":-0.19651111960411072,"23":-0.16591304540634155,"24":-0.034928303211927414,"25":0.21733908355236053,"26":0.16007614135742188,"27":-0.17435556650161743,"28":0.07386253774166107,"29":0.18999913334846497,"30":0.22705067694187164,"31":0.1551521271467209,"32":-0.09987485408782959,"33":0.12463029474020004,"34":-0.078092560172081,"35":0.006776423193514347,"36":0.04164956510066986,"37":0.03643319383263588,"38":-0.14915740489959717,"39":0.190229132771492,"40":-0.1053888276219368,"41":-0.34111663699150085,"42":-0.16254746913909912,"43":-0.16300614178180695,"44":-0.1676339954137802,"45":-0.017888423055410385,"46":0.19842156767845154,"47":0.19652573764324188,"48":0.01776738092303276,"49":-0.046356674283742905,"50":0.037968460470438004,"51":0.12316790968179703,"52":0.28688952326774597,"53":0.4414236843585968,"54":0.24118515849113464,"55":-0.15227237343788147,"56":0.19497691094875336,"57":0.1325710415840149,"58":0.10066733509302139,"59":0.07332132011651993,"60":0.20485380291938782,"61":-0.002432645997032523,"62":0.1909009963274002,"63":-0.1154143437743187,"64":-0.5799700617790222,"65":-0.2342327982187271,"66":0.06876520812511444,"67":-0.18652327358722687,"68":-0.16974781453609467,"69":-0.174532949924469,"70":-0.12425217777490616,"71":-0.06219226494431496,"72":0.19204001128673553,"73":-0.08845971524715424,"74":0.1262294501066208,"75":0.2748180627822876,"76":0.11457297950983047,"77":0.21085578203201294,"78":0.16717948019504547,"79":0.1340215504169464,"80":-0.006036432459950447,"81":-0.15866729617118835,"82":0.1640288084745407,"83":-0.18825046718120575,"84":-0.038717444986104965,"85":-0.1736127734184265,"86":-0.3174555003643036,"87":-0.4212638735771179,"88":-0.23261624574661255,"89":-0.005173582583665848,"90":0.06805402040481567,"91":0.08195632696151733,"92":-0.19000831246376038,"93":0.18555766344070435,"94":-0.17018111050128937,"95":0.059967461973428726,"96":-0.018231835216283798,"97":0.16665692627429962,"98":-0.07536771893501282,"99":-0.08500969409942627,"100":-0.09200058877468109,"101":0.15896724164485931,"102":0.1926615685224533,"103":-0.024730650708079338,"104":0.03647051379084587,"105":-0.07674607634544373,"106":-0.01728370226919651,"107":-0.17190705239772797,"108":-0.07654382288455963,"109":0.09087444841861725,"110":0.18964718282222748,"111":-0.021467765793204308,"112":0.07122647762298584,"113":-0.17248275876045227,"114":0.11439299583435059}},"25":{"bias":0.0939834862947464,"weights":{"0":-0.21482212841510773,"1":0.046946022659540176,"2":0.05719410255551338,"3":0.12720918655395508,"4":-0.17301130294799805,"5":0.07920888811349869,"6":0.13766349852085114,"7":0.0038550388999283314,"8":-0.06776861101388931,"9":-0.18048198521137238,"10":0.06541476398706436,"11":-0.0073938677087426186,"12":-0.16320262849330902,"13":-0.08645922690629959,"14":-0.056551504880189896,"15":0.15682685375213623,"16":0.08124401420354843,"17":0.1048417016863823,"18":-0.15374918282032013,"19":-0.17384545505046844,"20":0.08663845807313919,"21":0.13503040373325348,"22":-0.09801789373159409,"23":0.10271599888801575,"24":0.271052747964859,"25":0.0691382959485054,"26":-0.17894446849822998,"27":-0.04822516813874245,"28":-0.18854756653308868,"29":-0.016542736440896988,"30":-0.2361699640750885,"31":0.052976660430431366,"32":0.02195086143910885,"33":0.0012380002299323678,"34":-0.21625138819217682,"35":-0.4502127468585968,"36":-0.34176716208457947,"37":-0.05645656958222389,"38":-0.08758646994829178,"39":-0.04849780723452568,"40":-0.10631203651428223,"41":0.14128345251083374,"42":0.08428036421537399,"43":0.09878113120794296,"44":-0.14366468787193298,"45":-0.18865209817886353,"46":0.07476121932268143,"47":0.4614676833152771,"48":0.44377827644348145,"49":-0.004302122630178928,"50":0.17700262367725372,"51":-0.024120016023516655,"52":-0.017319755628705025,"53":-0.12102768570184708,"54":-0.013933369889855385,"55":0.13421911001205444,"56":0.07220154255628586,"57":-0.031770024448633194,"58":-0.5009422898292542,"59":-0.6750695109367371,"60":-0.22528263926506042,"61":0.1796044558286667,"62":0.15315131843090057,"63":0.007108605001121759,"64":0.4356689155101776,"65":0.14534179866313934,"66":-0.04986080899834633,"67":-0.19840675592422485,"68":0.07604136317968369,"69":-0.12347427010536194,"70":0.32346615195274353,"71":0.17822131514549255,"72":0.07930783927440643,"73":-0.14573389291763306,"74":0.07128269225358963,"75":0.051451675593853,"76":0.04522561654448509,"77":0.041175052523612976,"78":0.14938245713710785,"79":0.1360071897506714,"80":-0.07034718245267868,"81":-0.0972515121102333,"82":-0.021728938445448875,"83":-0.17146030068397522,"84":-0.1829727292060852,"85":-0.20930272340774536,"86":0.08772002905607224,"87":0.325233519077301,"88":0.1760849505662918,"89":-0.015542295761406422,"90":0.1715453714132309,"91":-0.047336336225271225,"92":0.16500110924243927,"93":0.0908501073718071,"94":0.077505923807621,"95":0.07361454516649246,"96":-0.07711499184370041,"97":-0.11670003086328506,"98":-0.002168910577893257,"99":-0.052965614944696426,"100":0.12483920902013779,"101":0.17434558272361755,"102":0.1616205871105194,"103":-0.21665550768375397,"104":-0.11023970693349838,"105":-0.13921073079109192,"106":0.14726679027080536,"107":-0.1055711880326271,"108":0.002194032771512866,"109":0.09205556660890579,"110":-0.08869484812021255,"111":-0.1304009109735489,"112":0.16110464930534363,"113":0.0731612965464592,"114":-0.12783369421958923}},"26":{"bias":-0.044778160750865936,"weights":{"0":-0.15401186048984528,"1":-0.16482044756412506,"2":0.004822667222470045,"3":-0.10755451768636703,"4":0.0018923048628494143,"5":-0.1480111926794052,"6":-0.03953548148274422,"7":0.07228413969278336,"8":0.09531524032354355,"9":-0.028546007350087166,"10":0.007929731160402298,"11":-0.19136779010295868,"12":0.02895430289208889,"13":-0.11005715280771255,"14":0.15262235701084137,"15":0.02422715537250042,"16":-0.09980232268571854,"17":-0.04064289480447769,"18":0.05385327711701393,"19":-0.10600276291370392,"20":0.1469735950231552,"21":-0.05682780593633652,"22":0.1275417059659958,"23":0.1701713651418686,"24":0.26726871728897095,"25":0.05220147967338562,"26":0.02471121959388256,"27":-0.0020717789884656668,"28":-0.02793549932539463,"29":0.1497945934534073,"30":0.3787373900413513,"31":0.08832394331693649,"32":-0.060373153537511826,"33":-0.10477404296398163,"34":0.0741962417960167,"35":0.03926360234618187,"36":-0.2137688398361206,"37":-0.13647638261318207,"38":0.15084002912044525,"39":0.05534261837601662,"40":-0.024281427264213562,"41":-0.11343486607074738,"42":-0.0315823070704937,"43":0.035000622272491455,"44":0.16331364214420319,"45":-0.17183806002140045,"46":0.18879511952400208,"47":0.05193194001913071,"48":0.25174421072006226,"49":0.22351595759391785,"50":0.04065020754933357,"51":-0.08016784489154816,"52":0.35611897706985474,"53":0.3526235818862915,"54":0.389476478099823,"55":0.022891996428370476,"56":-0.17930565774440765,"57":0.1296170949935913,"58":-0.059882089495658875,"59":-0.18590198457241058,"60":0.13513684272766113,"61":0.06938198953866959,"62":-0.0784902274608612,"63":-0.2424316555261612,"64":-0.29803887009620667,"65":-0.38688787817955017,"66":0.08030416816473007,"67":0.06397154927253723,"68":0.0617428719997406,"69":0.03167564049363136,"70":-0.11300350725650787,"71":0.1687353253364563,"72":-0.19429118931293488,"73":-0.025236407294869423,"74":-0.05590226128697395,"75":0.12463006377220154,"76":0.32440775632858276,"77":0.14762045443058014,"78":0.1547798067331314,"79":0.10386162996292114,"80":0.05115848779678345,"81":-0.16404779255390167,"82":-0.20394930243492126,"83":-0.16236655414104462,"84":-0.09428288042545319,"85":0.1748344451189041,"86":-0.24372386932373047,"87":-0.24322892725467682,"88":0.0028770824428647757,"89":0.10053027421236038,"90":-0.12187311798334122,"91":-0.18969319760799408,"92":-0.06092464551329613,"93":-0.16053406894207,"94":-0.1743646115064621,"95":-0.012737731449306011,"96":0.10750411450862885,"97":-0.022139152511954308,"98":0.1602754145860672,"99":-0.03854141756892204,"100":-0.025161294266581535,"101":0.056916244328022,"102":0.07806944102048874,"103":-0.17292152345180511,"104":0.06320216506719589,"105":0.15527047216892242,"106":-0.21116872131824493,"107":0.10746066272258759,"108":-0.1190478578209877,"109":-0.19341929256916046,"110":0.13202650845050812,"111":-0.2007085531949997,"112":0.17556507885456085,"113":-0.14838360249996185,"114":0.028624074533581734}},"27":{"bias":-0.0165692288428545,"weights":{"0":-0.19604718685150146,"1":0.009636999107897282,"2":-0.1618952602148056,"3":-0.07163717597723007,"4":-0.1896856278181076,"5":0.08227509260177612,"6":-0.003518316661939025,"7":0.004818398971110582,"8":0.047158919274806976,"9":0.038464076817035675,"10":-0.08108840137720108,"11":0.17285388708114624,"12":-0.17624615132808685,"13":-0.09507697075605392,"14":-0.09835987538099289,"15":0.1809977889060974,"16":-0.18046720325946808,"17":-0.17572610080242157,"18":-0.06987590342760086,"19":0.184572234749794,"20":-0.18029335141181946,"21":0.15197890996932983,"22":0.1689395308494568,"23":-0.023015381768345833,"24":0.10512923449277878,"25":-0.1048816367983818,"26":0.1048528254032135,"27":-0.09118425846099854,"28":-0.19156068563461304,"29":0.05904841795563698,"30":0.06303581595420837,"31":-0.04599567875266075,"32":-0.15159393846988678,"33":0.0020999691914767027,"34":0.04961986094713211,"35":0.2314995676279068,"36":0.22161294519901276,"37":-0.12731175124645233,"38":0.16381458938121796,"39":0.054133087396621704,"40":0.08012983947992325,"41":-0.09341483563184738,"42":0.0638655498623848,"43":0.004217285662889481,"44":0.19637934863567352,"45":-0.07280077785253525,"46":-0.1898840218782425,"47":0.004822961054742336,"48":-0.08707712590694427,"49":0.028863053768873215,"50":-0.04142611473798752,"51":0.0322473868727684,"52":0.03321808576583862,"53":0.05781864747405052,"54":0.18031099438667297,"55":-0.061127670109272,"56":0.14020085334777832,"57":-0.0924275666475296,"58":0.29570135474205017,"59":0.44104093313217163,"60":-0.06977908313274384,"61":0.058630332350730896,"62":-0.08619781583547592,"63":-0.15449362993240356,"64":-0.35591211915016174,"65":-0.30267658829689026,"66":0.18021905422210693,"67":0.021536853164434433,"68":0.025395875796675682,"69":-0.18469014763832092,"70":0.06573297828435898,"71":0.09768648445606232,"72":0.10913741588592529,"73":0.0026710222009569407,"74":-0.03373756259679794,"75":-0.1115865483880043,"76":0.06336064636707306,"77":-0.02720675803720951,"78":0.01725599728524685,"79":-0.09315168857574463,"80":-0.029614608734846115,"81":0.16500218212604523,"82":-0.07247036695480347,"83":0.1972021609544754,"84":-0.15234829485416412,"85":-0.1649312674999237,"86":-0.07292236387729645,"87":0.011672941967844963,"88":-0.08013495057821274,"89":-0.015414180234074593,"90":0.06208302080631256,"91":-0.19156649708747864,"92":0.078328937292099,"93":0.04440777748823166,"94":0.148901104927063,"95":0.031474750488996506,"96":0.009948217310011387,"97":0.026500264182686806,"98":0.12076428532600403,"99":-0.14548520743846893,"100":0.15443143248558044,"101":-0.04000832885503769,"102":-0.03262733668088913,"103":0.024682629853487015,"104":0.04694119840860367,"105":-0.19007426500320435,"106":0.03698498010635376,"107":-0.11239491403102875,"108":-0.023334454745054245,"109":-0.05860106274485588,"110":0.192530557513237,"111":0.18811464309692383,"112":-0.13083535432815552,"113":0.14006485044956207,"114":0.12254829704761505}},"28":{"bias":-0.17777273058891296,"weights":{"0":0.01863175630569458,"1":0.04085113853216171,"2":0.08576977998018265,"3":0.04093433916568756,"4":-0.00029235371039249003,"5":-0.06114646792411804,"6":-0.08670031279325485,"7":0.04419589787721634,"8":-0.05022592097520828,"9":-0.17915941774845123,"10":0.15814021229743958,"11":0.05306381732225418,"12":-0.12272445112466812,"13":0.005699670407921076,"14":0.031054619699716568,"15":0.19085583090782166,"16":-0.019036121666431427,"17":0.1846468597650528,"18":-0.18298833072185516,"19":0.08424412459135056,"20":0.04569423943758011,"21":-0.04915919154882431,"22":0.04635743796825409,"23":0.15114358067512512,"24":-0.35491567850112915,"25":-0.2768727242946625,"26":0.1373489797115326,"27":0.07982371002435684,"28":0.10927479714155197,"29":0.043647732585668564,"30":-0.047705426812171936,"31":0.14540152251720428,"32":-0.033535465598106384,"33":-0.060946881771087646,"34":0.16148357093334198,"35":0.04369790479540825,"36":0.06022190302610397,"37":0.006649607326835394,"38":0.0036579046864062548,"39":-0.06333832442760468,"40":-0.10752518475055695,"41":0.10210361331701279,"42":-0.09882845729589462,"43":0.1610817164182663,"44":0.01029802393168211,"45":0.041321635246276855,"46":-0.31101077795028687,"47":-0.5882609486579895,"48":-0.4055243730545044,"49":0.044462013989686966,"50":-0.1942332684993744,"51":-0.06115220487117767,"52":0.14597323536872864,"53":-0.11852158606052399,"54":0.1104169487953186,"55":0.08995220810174942,"56":-0.16088207066059113,"57":-0.0220287274569273,"58":0.1879546344280243,"59":0.32252517342567444,"60":-0.12128200381994247,"61":0.11106396466493607,"62":0.14788497984409332,"63":-0.08363393694162369,"64":0.2533554434776306,"65":-0.07338666170835495,"66":-0.0883239284157753,"67":0.09565230458974838,"68":0.15255652368068695,"69":-0.17164786159992218,"70":-0.26572275161743164,"71":-0.2418276071548462,"72":-0.1519852727651596,"73":0.009885112755000591,"74":-0.02697145566344261,"75":-0.058163031935691833,"76":0.10107414424419403,"77":-0.184594064950943,"78":-0.018241334706544876,"79":-0.18244808912277222,"80":0.07650790363550186,"81":0.0035816363524645567,"82":-0.07263527810573578,"83":0.16106846928596497,"84":0.08806254714727402,"85":-0.027122121304273605,"86":-0.032597944140434265,"87":0.2476680874824524,"88":0.10391682386398315,"89":-0.15412892401218414,"90":-0.10504166036844254,"91":-0.01706681400537491,"92":0.17211739718914032,"93":-0.014185748994350433,"94":-0.0413830503821373,"95":0.057739824056625366,"96":-0.06504756957292557,"97":-0.1331733763217926,"98":0.13351581990718842,"99":-0.13219596445560455,"100":0.2012648582458496,"101":0.0694785788655281,"102":0.06353681534528732,"103":0.15341700613498688,"104":0.1500634402036667,"105":0.13269400596618652,"106":0.0977315828204155,"107":0.0071821971796453,"108":-0.16365408897399902,"109":-0.1929483711719513,"110":-0.1511448323726654,"111":0.05208326876163483,"112":-0.07920699566602707,"113":0.1651015728712082,"114":0.1107986643910408}},"29":{"bias":0.029407748952507973,"weights":{"0":0.16940975189208984,"1":-0.1361043006181717,"2":-0.11971300095319748,"3":-0.17315132915973663,"4":0.014921914786100388,"5":-0.04399730637669563,"6":0.004234980326145887,"7":0.11419785767793655,"8":-0.1736738383769989,"9":-0.12313967943191528,"10":0.19239488244056702,"11":-0.015149255283176899,"12":-0.09569066017866135,"13":-0.1203395426273346,"14":-0.02901788055896759,"15":0.04161765053868294,"16":-0.14354398846626282,"17":-0.03499706834554672,"18":-0.047573868185281754,"19":0.06360335648059845,"20":0.07073893398046494,"21":0.10913463681936264,"22":0.15416403114795685,"23":-0.05727184936404228,"24":-0.4114072024822235,"25":-0.030562186613678932,"26":-0.07064890116453171,"27":0.09859960526227951,"28":0.12833508849143982,"29":0.0389174148440361,"30":0.061535436660051346,"31":0.20512977242469788,"32":0.05459022894501686,"33":0.14282165467739105,"34":0.06599890440702438,"35":-0.056009937077760696,"36":-0.04224507510662079,"37":0.03683377057313919,"38":-0.15888096392154694,"39":-0.11845573037862778,"40":0.10527484118938446,"41":0.0019106429535895586,"42":0.2557218372821808,"43":0.171625554561615,"44":0.04952226206660271,"45":0.16396746039390564,"46":-0.06316687166690826,"47":-0.5608718991279602,"48":-0.6229131817817688,"49":-0.22456330060958862,"50":0.08552560955286026,"51":-0.19519391655921936,"52":0.522019624710083,"53":0.5964677929878235,"54":0.26265111565589905,"55":0.07778885215520859,"56":-0.13582924008369446,"57":0.0036956940311938524,"58":-0.13187207281589508,"59":-0.04916976019740105,"60":-0.10751684755086899,"61":-0.14154218137264252,"62":-0.19406872987747192,"63":-0.1117149069905281,"64":0.21486590802669525,"65":0.10582628846168518,"66":0.11801166087388992,"67":-0.008388631977140903,"68":-0.1302185356616974,"69":0.03707839176058769,"70":-0.22057382762432098,"71":-0.1330311894416809,"72":-0.08601490408182144,"73":-0.17664535343647003,"74":0.13112087547779083,"75":-0.013811218552291393,"76":0.5244622230529785,"77":-0.08655858039855957,"78":0.03979266807436943,"79":-0.04394853487610817,"80":-0.04372839257121086,"81":-0.10117506980895996,"82":-0.17548850178718567,"83":0.08525840193033218,"84":-0.06197015568614006,"85":-0.0650082379579544,"86":0.2612694501876831,"87":-0.03299970552325249,"88":0.12076009064912796,"89":0.1308298110961914,"90":-0.19188815355300903,"91":-0.05295238271355629,"92":-0.005111514590680599,"93":0.05181001499295235,"94":0.10692793875932693,"95":-0.01446177065372467,"96":0.027374524623155594,"97":0.06785903871059418,"98":0.06937741488218307,"99":-0.1569182127714157,"100":0.11948681622743607,"101":-0.14014509320259094,"102":-0.0164712555706501,"103":-0.13262449204921722,"104":0.06290025264024734,"105":0.12773941457271576,"106":-0.0027396692894399166,"107":0.10463208705186844,"108":-0.04665696993470192,"109":0.07568695396184921,"110":-0.03571023792028427,"111":0.1882600635290146,"112":-0.12570486962795258,"113":0.18198426067829132,"114":-0.018454328179359436}},"30":{"bias":-0.18252594769001007,"weights":{"0":0.06567104905843735,"1":-0.004176343325525522,"2":-0.11736716330051422,"3":0.028691869229078293,"4":0.14837194979190826,"5":-0.13806311786174774,"6":-0.005452081561088562,"7":-0.17612214386463165,"8":0.16851459443569183,"9":0.2074289172887802,"10":0.1298421025276184,"11":0.13703203201293945,"12":-0.05501333624124527,"13":0.08712317049503326,"14":0.14656870067119598,"15":-0.16450132429599762,"16":-0.1889701634645462,"17":0.01406876090914011,"18":0.03055771067738533,"19":-0.10334914922714233,"20":-0.18319638073444366,"21":0.2055731564760208,"22":-0.021271783858537674,"23":0.10037139803171158,"24":-0.17327949404716492,"25":-0.23613648116588593,"26":-0.09122767299413681,"27":0.1549348086118698,"28":-0.03457317128777504,"29":0.08459082990884781,"30":-0.010110645554959774,"31":0.05857715755701065,"32":0.02678026258945465,"33":0.1497177928686142,"34":-0.12277042120695114,"35":-0.08088687062263489,"36":0.0415380597114563,"37":0.14047406613826752,"38":0.03065098449587822,"39":0.09591083228588104,"40":0.07386220991611481,"41":-0.010880563408136368,"42":0.29838767647743225,"43":-0.17706771194934845,"44":0.09963175654411316,"45":0.022373564541339874,"46":-0.0412265844643116,"47":-0.578748345375061,"48":-0.3092775046825409,"49":0.08146693557500839,"50":0.01706577092409134,"51":-0.08804044127464294,"52":0.004535614512860775,"53":0.21497094631195068,"54":0.060502804815769196,"55":0.15904591977596283,"56":0.0769408568739891,"57":0.1500091850757599,"58":0.25880834460258484,"59":-0.0055566709488630295,"60":-0.16013562679290771,"61":-0.10945259779691696,"62":0.09281342476606369,"63":0.2004595398902893,"64":0.3784733712673187,"65":0.27886873483657837,"66":-0.08313335478305817,"67":0.06780185550451279,"68":-0.18167941272258759,"69":-0.030474364757537842,"70":-0.33447256684303284,"71":-0.01782512478530407,"72":-0.1396045982837677,"73":0.10740911960601807,"74":-0.17826272547245026,"75":0.11678469926118851,"76":-0.12226548045873642,"77":-0.034337420016527176,"78":-0.18883280456066132,"79":-0.027525827288627625,"80":-0.02551693096756935,"81":-0.05150552839040756,"82":0.16317328810691833,"83":-0.007893400266766548,"84":0.13001331686973572,"85":0.09877052903175354,"86":0.2848048508167267,"87":0.1193772405385971,"88":-0.06508264690637589,"89":0.12494327872991562,"90":-0.028196431696414948,"91":-0.00981432106345892,"92":-0.15896908938884735,"93":-0.047879576683044434,"94":-0.07188966870307922,"95":0.07574383169412613,"96":-0.16743020713329315,"97":0.07941132038831711,"98":-0.13219575583934784,"99":-0.09087325632572174,"100":-0.03234405443072319,"101":0.10662808269262314,"102":-0.07916680723428726,"103":0.08501889556646347,"104":0.10040661692619324,"105":-0.04956528916954994,"106":-0.05114180967211723,"107":-0.040042977780103683,"108":-0.09311164170503616,"109":-0.015452256426215172,"110":-0.18775542080402374,"111":-0.14832700788974762,"112":0.06622711569070816,"113":-0.10318534076213837,"114":-0.02133231610059738}},"31":{"bias":0.14063818752765656,"weights":{"0":0.003936920315027237,"1":-0.04852920398116112,"2":0.012814921326935291,"3":-0.19595538079738617,"4":-0.1782972663640976,"5":0.14094780385494232,"6":0.09274435043334961,"7":-0.08379391580820084,"8":-0.13213977217674255,"9":0.03034382127225399,"10":0.0895245149731636,"11":0.14460647106170654,"12":-0.16508369147777557,"13":0.057726066559553146,"14":-0.1258971244096756,"15":0.013438747264444828,"16":-0.16798169910907745,"17":0.1129516139626503,"18":0.09168624132871628,"19":-0.17840614914894104,"20":0.0823066309094429,"21":-0.15088723599910736,"22":-0.04435666650533676,"23":0.045486558228731155,"24":-0.1059926301240921,"25":0.08884087204933167,"26":0.11692691594362259,"27":-0.16240958869457245,"28":0.18027041852474213,"29":-0.08380118012428284,"30":0.10671684890985489,"31":0.09865576028823853,"32":-0.08338598906993866,"33":-0.14123423397541046,"34":-0.08613462746143341,"35":0.058477260172367096,"36":-0.007921591401100159,"37":-0.13599799573421478,"38":0.06393048167228699,"39":-0.15062487125396729,"40":-0.20686252415180206,"41":0.07046026736497879,"42":-0.013259103521704674,"43":0.16681969165802002,"44":-0.17848333716392517,"45":-0.058837708085775375,"46":0.11107881367206573,"47":0.05998802185058594,"48":0.13288089632987976,"49":-0.13843761384487152,"50":0.06021714210510254,"51":0.09697914868593216,"52":-0.18774248659610748,"53":-0.01232792716473341,"54":-0.14413860440254211,"55":0.10078810900449753,"56":-0.04667142778635025,"57":0.08618717640638351,"58":-0.06655404716730118,"59":0.03607764467597008,"60":-0.07734440267086029,"61":-0.059752240777015686,"62":-0.14744225144386292,"63":-0.04746168479323387,"64":-0.04599853605031967,"65":-0.08004092425107956,"66":-0.1467028260231018,"67":-0.1876491904258728,"68":-0.06759260594844818,"69":0.18107126653194427,"70":0.029614320024847984,"71":-0.012634038925170898,"72":0.0521521270275116,"73":-0.009561074897646904,"74":-0.030083969235420227,"75":-0.0809231847524643,"76":0.0019881343469023705,"77":-0.10555072873830795,"78":-0.10794174671173096,"79":-0.06956193596124649,"80":-0.16067877411842346,"81":-0.14844757318496704,"82":0.05580247566103935,"83":-0.03043425641953945,"84":-0.02961764484643936,"85":-0.017761798575520515,"86":-0.05055782198905945,"87":-0.19096346199512482,"88":0.1491640955209732,"89":0.1420116275548935,"90":0.0439135916531086,"91":-0.19544130563735962,"92":0.17575712502002716,"93":0.04146164283156395,"94":-0.08613916486501694,"95":-0.08320096135139465,"96":-0.0308060422539711,"97":0.017587149515748024,"98":0.16025003790855408,"99":0.08397462964057922,"100":-0.11285214871168137,"101":0.14428476989269257,"102":0.14955806732177734,"103":0.07142321765422821,"104":0.15892240405082703,"105":0.061911653727293015,"106":-0.06187743321061134,"107":-0.1826348602771759,"108":0.004212346859276295,"109":-0.167793408036232,"110":-0.17882360517978668,"111":-0.00024152389960363507,"112":-0.038891974836587906,"113":0.07076874375343323,"114":-0.036114417016506195}},"32":{"bias":-0.05628611147403717,"weights":{"0":0.11414662003517151,"1":0.03442032262682915,"2":-0.11296708881855011,"3":-0.008349151350557804,"4":0.14358215034008026,"5":-0.008667201735079288,"6":-0.004023517016321421,"7":-0.1673758327960968,"8":-0.12697702646255493,"9":0.02528517134487629,"10":-0.007213042117655277,"11":-0.15485304594039917,"12":-0.13799473643302917,"13":0.059512123465538025,"14":0.009786217473447323,"15":0.047497302293777466,"16":-0.08344003558158875,"17":0.030841194093227386,"18":-0.14307479560375214,"19":0.11992931365966797,"20":0.024018680676817894,"21":-0.11538361757993698,"22":0.1448308378458023,"23":0.20286157727241516,"24":0.1877051740884781,"25":0.08977213501930237,"26":-0.01862897351384163,"27":0.005842576734721661,"28":-0.16112872958183289,"29":-0.10833637416362762,"30":-0.007264607585966587,"31":0.03030751645565033,"32":-0.18091000616550446,"33":-0.047068040817976,"34":-0.03814544156193733,"35":0.14985157549381256,"36":0.252805233001709,"37":-0.0556238517165184,"38":0.07407115399837494,"39":-0.08936312794685364,"40":0.03781413286924362,"41":-0.13213302195072174,"42":0.03893739730119705,"43":-0.17753373086452484,"44":0.1366947442293167,"45":-0.1348492056131363,"46":0.1010795533657074,"47":0.020311156287789345,"48":0.03664778918027878,"49":-0.02360803447663784,"50":0.04079773277044296,"51":0.19231301546096802,"52":-0.09385356307029724,"53":0.04671221971511841,"54":0.029171640053391457,"55":-0.05493243783712387,"56":-0.13223713636398315,"57":0.15510433912277222,"58":0.2934127449989319,"59":-0.009507512673735619,"60":-0.0005213117110542953,"61":-0.12016784399747849,"62":-0.055215880274772644,"63":-0.03502791374921799,"64":-0.23154570162296295,"65":-0.05005771666765213,"66":-0.1398748904466629,"67":0.06004190444946289,"68":0.18968981504440308,"69":-0.0958196148276329,"70":0.183511883020401,"71":-0.14713618159294128,"72":-0.025740962475538254,"73":0.21518878638744354,"74":0.059153228998184204,"75":-0.07789121568202972,"76":0.17961587011814117,"77":0.15737436711788177,"78":0.15925467014312744,"79":-0.020560814067721367,"80":-0.12711624801158905,"81":-0.055587057024240494,"82":0.20174376666545868,"83":0.15076620876789093,"84":0.06681560724973679,"85":-0.16981102526187897,"86":-0.1103234514594078,"87":-0.126738041639328,"88":-0.04030827805399895,"89":0.174523264169693,"90":-0.11002764105796814,"91":-0.008218266069889069,"92":0.023028641939163208,"93":-0.05570564791560173,"94":0.02142568677663803,"95":-0.047783393412828445,"96":-0.0890902727842331,"97":-0.10880985856056213,"98":0.19090239703655243,"99":0.07591994106769562,"100":0.06695990264415741,"101":0.07078477740287781,"102":-0.00323661882430315,"103":-0.15588557720184326,"104":-0.09366165101528168,"105":-0.018145520240068436,"106":-0.009012173861265182,"107":0.030707841739058495,"108":-0.11734181642532349,"109":0.18277138471603394,"110":0.10018768906593323,"111":-0.14970967173576355,"112":-0.010487008839845657,"113":-0.10516157746315002,"114":-0.12287309765815735}},"33":{"bias":0.12617690861225128,"weights":{"0":0.18207770586013794,"1":0.07581331580877304,"2":-0.13111460208892822,"3":-0.15908227860927582,"4":0.0640401840209961,"5":0.14746907353401184,"6":-0.07676529139280319,"7":-0.1837572157382965,"8":-0.06985535472631454,"9":0.17934049665927887,"10":-0.2005397379398346,"11":0.09676777571439743,"12":0.1720007061958313,"13":0.10598597675561905,"14":0.02674957923591137,"15":0.08625059574842453,"16":0.1711491197347641,"17":-0.20140135288238525,"18":0.022462233901023865,"19":0.054509058594703674,"20":-0.020174076780676842,"21":0.09185784310102463,"22":-0.08680412918329239,"23":-0.13249823451042175,"24":-0.06514149904251099,"25":-0.2092321813106537,