{"sizes":[115,57,4],"layers":[{"0":{},"1":{},"2":{},"3":{},"4":{},"5":{},"6":{},"7":{},"8":{},"9":{},"10":{},"11":{},"12":{},"13":{},"14":{},"15":{},"16":{},"17":{},"18":{},"19":{},"20":{},"21":{},"22":{},"23":{},"24":{},"25":{},"26":{},"27":{},"28":{},"29":{},"30":{},"31":{},"32":{},"33":{},"34":{},"35":{},"36":{},"37":{},"38":{},"39":{},"40":{},"41":{},"42":{},"43":{},"44":{},"45":{},"46":{},"47":{},"48":{},"49":{},"50":{},"51":{},"52":{},"53":{},"54":{},"55":{},"56":{},"57":{},"58":{},"59":{},"60":{},"61":{},"62":{},"63":{},"64":{},"65":{},"66":{},"67":{},"68":{},"69":{},"70":{},"71":{},"72":{},"73":{},"74":{},"75":{},"76":{},"77":{},"78":{},"79":{},"80":{},"81":{},"82":{},"83":{},"84":{},"85":{},"86":{},"87":{},"88":{},"89":{},"90":{},"91":{},"92":{},"93":{},"94":{},"95":{},"96":{},"97":{},"98":{},"99":{},"100":{},"101":{},"102":{},"103":{},"104":{},"105":{},"106":{},"107":{},"108":{},"109":{},"110":{},"111":{},"112":{},"113":{},"114":{}},{"0":{"bias":0.18054383993148804,"weights":{"0":0.06382519006729126,"1":0.001027195597998798,"2":-0.2029190957546234,"3":0.1266525834798813,"4":-0.06013654172420502,"5":0.03464529663324356,"6":-0.2042921632528305,"7":0.16584978997707367,"8":0.03439457714557648,"9":-0.12422482669353485,"10":-0.027969731017947197,"11":-0.07561138272285461,"12":-0.13831143081188202,"13":-0.017499538138508797,"14":-0.07758210599422455,"15":0.07401354610919952,"16":0.05096250772476196,"17":0.021774059161543846,"18":-0.14903458952903748,"19":0.1690981537103653,"20":-0.180009663105011,"21":-0.0908183604478836,"22":0.10773324966430664,"23":0.042064063251018524,"24":0.18073901534080505,"25":0.188186377286911,"26":0.17741091549396515,"27":-0.21913227438926697,"28":-0.12362797558307648,"29":-0.25689420104026794,"30":-0.22388263046741486,"31":-0.26733335852622986,"32":0.1731845587491989,"33":0.11258691549301147,"34":0.16550827026367188,"35":0.03251557797193527,"36":-0.08790165930986404,"37":-0.15319082140922546,"38":0.005162583198398352,"39":-0.1776314377784729,"40":-0.006025440990924835,"41":0.2403937131166458,"42":0.09042003750801086,"43":0.12152338773012161,"44":0.10368165373802185,"45":-0.13486632704734802,"46":0.14018885791301727,"47":0.36271387338638306,"48":0.19371019303798676,"49":0.09246271848678589,"50":-0.04246780276298523,"51":0.16999664902687073,"52":-0.5423391461372375,"53":-0.5695324540138245,"54":-0.1837795078754425,"55":-0.10163083672523499,"56":-0.0697690099477768,"57":-0.0316791757941246,"58":-0.058402251452207565,"59":0.25360119342803955,"60":0.026708047837018967,"61":0.012906000949442387,"62":-0.15598276257514954,"63":0.19744686782360077,"64":0.3415338099002838,"65":-0.08401346206665039,"66":-0.08891727030277252,"67":0.129630446434021,"68":0.1147540807723999,"69":0.012433421798050404,"70":0.2091597467660904,"71":0.08613555878400803,"72":0.08583921194076538,"73":-0.02108260802924633,"74":0.16312453150749207,"75":-0.25248751044273376,"76":-0.3796110153198242,"77":-0.260410875082016,"78":-0.007863728329539299,"79":-0.03784727305173874,"80":-0.013311709277331829,"81":0.1691666841506958,"82":-0.09680786728858948,"83":0.16886749863624573,"84":0.011605164967477322,"85":-0.1260846108198166,"86":0.14583276212215424,"87":0.29558947682380676,"88":0.19760948419570923,"89":0.05823051184415817,"90":0.023012319579720497,"91":-0.04274369776248932,"92":0.1352429986000061,"93":-0.12428714334964752,"94":0.10347944498062134,"95":-0.18391886353492737,"96":-0.22033071517944336,"97":0.15526966750621796,"98":-0.13053947687149048,"99":0.1619320958852768,"100":0.0870908796787262,"101":0.1350417584180832,"102":0.12794706225395203,"103":-0.06480029225349426,"104":-0.03072797879576683,"105":-0.16806191205978394,"106":-0.17102044820785522,"107":0.11976321786642075,"108":-0.2017950564622879,"109":-0.22011113166809082,"110":-0.12643902003765106,"111":-0.07301437854766846,"112":-0.030033839866518974,"113":0.1318826526403427,"114":-0.06245185807347298}},"1":{"bias":-0.04279027134180069,"weights":{"0":-0.038700494915246964,"1":-0.06146419420838356,"2":-0.10100298374891281,"3":0.08206163346767426,"4":-0.17071932554244995,"5":-0.000853853125590831,"6":0.1344708800315857,"7":0.04464047774672508,"8":-0.10656066238880157,"9":-0.13535887002944946,"10":-0.0808049812912941,"11":-0.028224050998687744,"12":0.09824639558792114,"13":0.04097548499703407,"14":-0.20143553614616394,"15":-0.01177181862294674,"16":-0.06997467577457428,"17":-0.1633247584104538,"18":0.06003331020474434,"19":-0.04691549763083458,"20":0.04247826710343361,"21":0.12673458456993103,"22":0.15858396887779236,"23":-0.08826781064271927,"24":-0.013491494581103325,"25":-0.2076026201248169,"26":0.01044069230556488,"27":0.10338171571493149,"28":0.01957908272743225,"29":0.04107332229614258,"30":-0.003237323369830847,"31":0.14069978892803192,"32":-0.09179490059614182,"33":-0.10144132375717163,"34":0.026950746774673462,"35":0.030928228050470352,"36":-0.024887362495064735,"37":0.08294839411973953,"38":-0.1239243596792221,"39":0.1112109050154686,"40":0.002539375564083457,"41":-0.17553861439228058,"42":0.0460139736533165,"43":-0.08205635845661163,"44":-0.1657625138759613,"45":0.1643996238708496,"46":-0.1050608679652214,"47":-0.213250070810318,"48":0.0015363654820248485,"49":0.014054282568395138,"50":0.056437086313962936,"51":-0.12828385829925537,"52":0.17278064787387848,"53":0.1773664802312851,"54":0.17368194460868835,"55":0.040165599435567856,"56":-0.14557701349258423,"57":0.1804596483707428,"58":0.19718894362449646,"59":0.24021480977535248,"60":-0.010275044478476048,"61":-0.09845355898141861,"62":0.12546174228191376,"63":-0.1903824359178543,"64":-0.22140510380268097,"65":0.1257154494524002,"66":-0.10437487065792084,"67":0.1559961885213852,"68":0.15087302029132843,"69":0.05281904339790344,"70":-0.19392354786396027,"71":0.0099195446819067,"72":-0.15177007019519806,"73":0.06813156604766846,"74":0.14372971653938293,"75":0.18709486722946167,"76":0.1734084188938141,"77":-0.16467593610286713,"78":-0.17554797232151031,"79":-0.11435830593109131,"80":0.16204023361206055,"81":0.1782357543706894,"82":-0.13210633397102356,"83":-0.07518348097801208,"84":0.13835495710372925,"85":0.15902070701122284,"86":-0.1183822751045227,"87":0.04020950198173523,"88":-0.04530568793416023,"89":0.08814730495214462,"90":-0.11657478660345078,"91":-0.05487116798758507,"92":0.05776418372988701,"93":0.13024811446666718,"94":-0.11384531855583191,"95":0.07638930529356003,"96":-0.11102543026208878,"97":-0.03181501105427742,"98":-0.13914348185062408,"99":0.10211104899644852,"100":-0.19797366857528687,"101":0.17836368083953857,"102":0.0778975784778595,"103":0.13270898163318634,"104":0.1396191567182541,"105":0.09864217042922974,"106":-0.14439956843852997,"107":-0.07624682784080505,"108":-0.0052545517683029175,"109":0.1667395532131195,"110":0.19027937948703766,"111":-0.19352033734321594,"112":-0.10946591943502426,"113":-0.10820505768060684,"114":0.10372506082057953}},"2":{"bias":-0.048533614724874496,"weights":{"0":-0.028180217370390892,"1":0.042973216623067856,"2":-0.11069203913211823,"3":0.1507095992565155,"4":0.16059112548828125,"5":0.10245008021593094,"6":0.018558746203780174,"7":0.04971109703183174,"8":-0.09204968065023422,"9":-0.06639492511749268,"10":-0.09549182653427124,"11":-0.08526095002889633,"12":0.139009028673172,"13":0.19176031649112701,"14":0.08785784244537354,"15":0.16273930668830872,"16":-0.16259874403476715,"17":0.1862579733133316,"18":0.059489812701940536,"19":0.06116959825158119,"20":0.14307668805122375,"21":-0.10738152265548706,"22":0.013930988498032093,"23":0.08755277842283249,"24":-0.11666706949472427,"25":-0.11419781297445297,"26":-0.13958725333213806,"27":0.11135877668857574,"28":0.2017914205789566,"29":0.031958479434251785,"30":-0.10411415249109268,"31":0.03817019984126091,"32":-0.0736965760588646,"33":-0.06243881210684776,"34":0.04247010871767998,"35":-0.05011339485645294,"36":-0.10949210822582245,"37":0.0742485448718071,"38":-0.07632094621658325,"39":0.17640146613121033,"40":-0.1588526964187622,"41":-0.022504840046167374,"42":-0.12579624354839325,"43":0.00438972981646657,"44":-0.1701967865228653,"45":0.17068491876125336,"46":-0.06366609036922455,"47":0.05779973790049553,"48":0.3221471309661865,"49":0.06559693068265915,"50":-0.014036883600056171,"51":-0.0203706044703722,"52":-0.04137123003602028,"53":0.17456801235675812,"54":0.2669180929660797,"55":0.06103774532675743,"56":0.13414159417152405,"57":0.1374666690826416,"58":-0.13970297574996948,"59":0.09591199457645416,"60":-0.10171108692884445,"61":-0.053793322294950485,"62":-0.07414988428354263,"63":-0.3155689537525177,"64":-0.34724777936935425,"65":-0.220870241522789,"66":0.004847748205065727,"67":0.12567967176437378,"68":0.02555706538259983,"69":0.14765281975269318,"70":0.08496269583702087,"71":-0.11525197327136993,"72":-0.06557047367095947,"73":0.08354038745164871,"74":0.1649397760629654,"75":0.10154049098491669,"76":-0.06543067842721939,"77":-0.14501908421516418,"78":-0.15003323554992676,"79":0.10343202203512192,"80":0.19651946425437927,"81":0.08578278124332428,"82":0.07493353635072708,"83":0.15334552526474,"84":-0.060856204479932785,"85":-0.08342152088880539,"86":-0.3032495379447937,"87":-0.32224196195602417,"88":-0.1778029501438141,"89":-0.18085436522960663,"90":0.07079017162322998,"91":0.07229871302843094,"92":0.09012940526008606,"93":0.16976161301136017,"94":0.06565091758966446,"95":-0.18406237661838531,"96":0.1989804357290268,"97":-0.1722971647977829,"98":-0.06728096306324005,"99":-0.07344851642847061,"100":-0.18431249260902405,"101":0.05405566468834877,"102":0.04294336959719658,"103":-0.12713351845741272,"104":-0.021452242508530617,"105":-0.020050039514899254,"106":0.06766221672296524,"107":-0.1931626945734024,"108":0.17866463959217072,"109":-0.02522779442369938,"110":0.006177579052746296,"111":0.022135594859719276,"112":-0.11386997252702713,"113":-0.04490383341908455,"114":-0.1801137775182724}},"3":{"bias":0.03302646428346634,"weights":{"0":0.08501661568880081,"1":0.0023007115814834833,"2":-0.10827188938856125,"3":0.14055073261260986,"4":-0.1641489565372467,"5":-0.06001796945929527,"6":-0.13726085424423218,"7":-0.036146264523267746,"8":0.18757294118404388,"9":0.07909522205591202,"10":-0.10563701391220093,"11":0.13349758088588715,"12":-0.18207959830760956,"13":-0.06735838204622269,"14":0.06957560032606125,"15":-0.09624987840652466,"16":0.01904955506324768,"17":-0.16536414623260498,"18":-0.02802523598074913,"19":0.10456660389900208,"20":0.14783382415771484,"21":-0.005471194162964821,"22":-0.15387655794620514,"23":-0.10173297673463821,"24":-0.06787975132465363,"25":-0.23366403579711914,"26":0.05551080405712128,"27":-0.00235688965767622,"28":0.010327441617846489,"29":-0.1706307977437973,"30":0.1760275959968567,"31":-0.14883096516132355,"32":0.05017291009426117,"33":0.11879759281873703,"34":0.06379976123571396,"35":0.0759023055434227,"36":-0.015006192959845066,"37":-0.18198567628860474,"38":0.19908654689788818,"39":-0.0628277063369751,"40":0.1700870543718338,"41":0.043707821518182755,"42":0.23474939167499542,"43":0.045651696622371674,"44":-0.1356092393398285,"45":0.18475690484046936,"46":-0.06900937855243683,"47":-0.07882563024759293,"48":-0.11416500806808472,"49":0.01962551474571228,"50":-0.05803455412387848,"51":-0.03213689476251602,"52":0.0969962328672409,"53":0.15017016232013702,"54":0.020865662023425102,"55":0.0867292582988739,"56":0.1820908635854721,"57":0.1913943588733673,"58":-0.126327246427536,"59":0.10751175135374069,"60":0.13168661296367645,"61":-0.01935703307390213,"62":-0.03816477954387665,"63":0.16252312064170837,"64":0.1760365217924118,"65":0.1564001441001892,"66":-0.16471894085407257,"67":-0.09332700818777084,"68":0.06550770998001099,"69":-0.19420386850833893,"70":-0.15601937472820282,"71":0.09997262060642242,"72":-0.03842279687523842,"73":-0.10635931044816971,"74":0.09997447580099106,"75":0.007371545769274235,"76":-0.09829872846603394,"77":-0.15860076248645782,"78":-0.06793450564146042,"79":0.09153570234775543,"80":-0.12716518342494965,"81":0.20587164163589478,"82":0.07222338765859604,"83":-0.17649224400520325,"84":-0.05963439494371414,"85":-0.17870691418647766,"86":0.05840437114238739,"87":0.1020679846405983,"88":0.19923868775367737,"89":-0.11929727345705032,"90":-0.10052186250686646,"91":-0.016654308885335922,"92":-0.12265094369649887,"93":-0.0790066197514534,"94":0.13575980067253113,"95":0.012390078976750374,"96":0.09999946504831314,"97":-0.14635896682739258,"98":-0.13643129169940948,"99":-0.05859338864684105,"100":0.03292226418852806,"101":0.07737933099269867,"102":-0.1267542839050293,"103":-0.18557079136371613,"104":0.2023743987083435,"105":-0.14010730385780334,"106":-0.12587915360927582,"107":0.059026215225458145,"108":0.03638182207942009,"109":-0.06943982094526291,"110":0.06145654246211052,"111":0.18515735864639282,"112":0.11110803484916687,"113":-0.09336567670106888,"114":-0.025630025193095207}},"4":{"bias":-0.15717078745365143,"weights":{"0":-0.05731606110930443,"1":-0.1834203004837036,"2":-0.11644504964351654,"3":0.050750501453876495,"4":-0.21021834015846252,"5":-0.16781306266784668,"6":-0.12123407423496246,"7":0.003574914997443557,"8":-0.06548000872135162,"9":0.06506288796663284,"10":0.16460902988910675,"11":0.12552078068256378,"12":0.004352734424173832,"13":-0.12887096405029297,"14":0.10284864902496338,"15":-0.2099548578262329,"16":-0.04469415917992592,"17":-0.21238113939762115,"18":0.021957116201519966,"19":0.1801729053258896,"20":0.12487645447254181,"21":0.10855202376842499,"22":0.18271495401859283,"23":-0.13066130876541138,"24":-0.0918838232755661,"25":0.11097845435142517,"26":-0.16575126349925995,"27":0.06639029830694199,"28":0.07127968221902847,"29":0.04743942618370056,"30":-0.17103977501392365,"31":-0.17849107086658478,"32":-0.05352077633142471,"33":-0.16319508850574493,"34":0.15510201454162598,"35":0.1336957812309265,"36":-0.04883996397256851,"37":0.0830112025141716,"38":-0.053589075803756714,"39":0.0004611080512404442,"40":0.1589013934135437,"41":0.09974025934934616,"42":-0.0011675040004774928,"43":0.012744273990392685,"44":-0.12213721126317978,"45":-0.047691646963357925,"46":-0.04484490677714348,"47":0.16603143513202667,"48":0.2898423373699188,"49":0.1107228547334671,"50":-0.10131344199180603,"51":-0.1670660823583603,"52":-0.2935504913330078,"53":-0.26014143228530884,"54":-0.18043312430381775,"55":0.15236034989356995,"56":0.07952509075403214,"57":0.08265314251184464,"58":0.07382198423147202,"59":0.1706022173166275,"60":-0.20241592824459076,"61":0.12127065658569336,"62":-0.07426629960536957,"63":-0.051380082964897156,"64":0.15970337390899658,"65":0.021039681509137154,"66":0.030142316594719887,"67":0.1841355413198471,"68":0.0176662877202034,"69":-0.10885941237211227,"70":-0.10714226216077805,"71":0.09059266000986099,"72":0.004419682081788778,"73":-0.12515567243099213,"74":0.1613229513168335,"75":-0.1424916535615921,"76":-0.25390657782554626,"77":-0.07094504684209824,"78":0.16005173325538635,"79":0.12419391423463821,"80":0.12513861060142517,"81":-0.1626964658498764,"82":-0.08379323035478592,"83":-0.10272058844566345,"84":-0.10293920338153839,"85":-0.032491110265254974,"86":-0.006617233157157898,"87":0.1197715625166893,"88":0.013157272711396217,"89":0.10036805272102356,"90":0.0928083285689354,"91":-0.06289838254451752,"92":-0.0027318596839904785,"93":-0.20846132934093475,"94":-0.14352282881736755,"95":0.07090309262275696,"96":0.09714929759502411,"97":0.18070435523986816,"98":-0.0016313353553414345,"99":0.046026550233364105,"100":0.16856728494167328,"101":-0.1310645192861557,"102":0.1318775862455368,"103":0.1393727958202362,"104":0.008411657996475697,"105":-0.04213619977235794,"106":-0.010983316227793694,"107":0.06938610225915909,"108":0.04886695370078087,"109":-0.138204887509346,"110":0.15188783407211304,"111":0.0059643336571753025,"112":0.12400392442941666,"113":-0.015223640017211437,"114":0.04833973944187164}},"5":{"bias":0.02737502008676529,"weights":{"0":0.16720730066299438,"1":0.11818896979093552,"2":-0.0007502332446165383,"3":0.07182372361421585,"4":0.13995540142059326,"5":0.106441430747509,"6":0.17942290008068085,"7":-0.16488109529018402,"8":-0.17650379240512848,"9":-0.1057380810379982,"10":0.06546755880117416,"11":-0.13497194647789001,"12":0.18590059876441956,"13":0.1009015217423439,"14":0.042347121983766556,"15":-0.17243772745132446,"16":-0.08247944712638855,"17":-0.003688233904540539,"18":0.13852952420711517,"19":0.1256052404642105,"20":0.20838309824466705,"21":0.06427227705717087,"22":0.12321436405181885,"23":-0.13379836082458496,"24":0.3816280961036682,"25":0.028980283066630363,"26":-0.06225648522377014,"27":-0.01683998294174671,"28":-0.030704516917467117,"29":-0.10947971045970917,"30":-0.20452071726322174,"31":-0.18794427812099457,"32":0.062168046832084656,"33":-0.052210915833711624,"34":-0.1403259038925171,"35":-0.03114108368754387,"36":0.19554458558559418,"37":-0.1704532504081726,"38":0.03614508733153343,"39":0.14894890785217285,"40":-0.09954333305358887,"41":-0.11186289042234421,"42":-0.03467082604765892,"43":-0.05947376787662506,"44":-0.005325627513229847,"45":0.16614358127117157,"46":0.34491318464279175,"47":0.25647851824760437,"48":0.37870198488235474,"49":0.2739179730415344,"50":0.007716082502156496,"51":0.05206354334950447,"52":-0.24085111916065216,"53":-0.4957563877105713,"54":-0.3548227846622467,"55":0.01824299991130829,"56":0.17847943305969238,"57":-0.003782173851504922,"58":0.03141501545906067,"59":-0.09490090608596802,"60":-0.05443352088332176,"61":0.08072174340486526,"62":-0.07586176693439484,"63":-0.135258749127388,"64":-0.20668688416481018,"65":-0.1980794370174408,"66":-0.018703794106841087,"67":-0.04840656742453575,"68":0.0063969725742936134,"69":0.004665940068662167,"70":0.153474360704422,"71":0.22347387671470642,"72":-0.11699984222650528,"73":0.08169343322515488,"74":0.18148960173130035,"75":0.06638668477535248,"76":-0.3832928240299225,"77":-0.07023071497678757,"78":0.003688396653160453,"79":-0.04753638431429863,"80":0.06044713035225868,"81":-0.15539388358592987,"82":-0.13016818463802338,"83":-0.04511537030339241,"84":-0.1643940508365631,"85":0.08011402189731598,"86":-0.18605266511440277,"87":-0.11544082313776016,"88":-0.19568392634391785,"89":0.17383524775505066,"90":0.12695831060409546,"91":-0.15183883905410767,"92":0.09168392419815063,"93":-0.1494007259607315,"94":-0.11899758130311966,"95":-0.17117725312709808,"96":-0.11007235944271088,"97":0.08679801970720291,"98":0.03572345897555351,"99":-0.026847252622246742,"100":0.052279043942689896,"101":0.11902523040771484,"102":-0.11289100348949432,"103":-0.1428280621767044,"104":0.17077037692070007,"105":0.11354021728038788,"106":0.04105887934565544,"107":-0.11435697227716446,"108":-0.0072483159601688385,"109":0.03726678714156151,"110":0.1800815463066101,"111":0.11376554518938065,"112":0.0021844597067683935,"113":-0.010176355950534344,"114":0.18783318996429443}},"6":{"bias":-0.02710135653614998,"weights":{"0":0.07279710471630096,"1":0.17228734493255615,"2":-0.18697485327720642,"3":0.042301882058382034,"4":0.029367925599217415,"5":-0.0031303963623940945,"6":-0.17588695883750916,"7":-0.14226652681827545,"8":0.11169103533029556,"9":-0.08389285206794739,"10":-0.13921892642974854,"11":-0.038251619786024094,"12":-0.13541482388973236,"13":0.09142106771469116,"14":0.03887507691979408,"15":-0.029683079570531845,"16":-0.03444524481892586,"17":0.012379005551338196,"18":-0.13461929559707642,"19":-0.0663306936621666,"20":0.10987923294305801,"21":0.02665073797106743,"22":-0.11751673370599747,"23":0.06302571296691895,"24":-0.040315281599760056,"25":0.08818171918392181,"26":-0.09239708632230759,"27":0.18627063930034637,"28":0.08022312074899673,"29":0.0786602720618248,"30":-0.12981201708316803,"31":0.0508592464029789,"32":-0.09419237822294235,"33":-0.14658834040164948,"34":-0.06264364719390869,"35":0.13195855915546417,"36":0.02170654386281967,"37":-0.04405314847826958,"38":-0.17211981117725372,"39":0.09090521186590195,"40":0.17203113436698914,"41":0.08670583367347717,"42":-0.06189679726958275,"43":0.15050996840000153,"44":-0.026410138234496117,"45":-0.06650356203317642,"46":-0.05265340209007263,"47":0.06371145695447922,"48":-0.074103944003582,"49":0.03617677465081215,"50":-0.14076657593250275,"51":-0.19171039760112762,"52":-0.11781664192676544,"53":0.07016828656196594,"54":-0.147009938955307,"55":-0.1596902459859848,"56":0.011956196278333664,"57":-0.052465490996837616,"58":-0.14373938739299774,"59":-0.10325129330158234,"60":-0.12161622196435928,"61":-0.07329854369163513,"62":-0.006720894481986761,"63":-0.09865538030862808,"64":0.14309066534042358,"65":-0.14102841913700104,"66":0.12469445914030075,"67":0.11391156911849976,"68":0.1478729248046875,"69":0.07488398253917694,"70":-0.0653303787112236,"71":-0.09216661006212234,"72":0.18509313464164734,"73":-0.06767760217189789,"74":-0.04878639429807663,"75":0.09981655329465866,"76":0.1565568447113037,"77":-0.11610157042741776,"78":-0.1769896149635315,"79":-0.13556022942066193,"80":-0.18561777472496033,"81":0.12718714773654938,"82":-0.18211334943771362,"83":0.033558353781700134,"84":-0.09198848903179169,"85":0.12890514731407166,"86":-0.007905404083430767,"87":-0.11967338621616364,"88":-0.12657706439495087,"89":0.12212315201759338,"90":-0.13738003373146057,"91":-0.20633864402770996,"92":-0.19460663199424744,"93":-0.1798902451992035,"94":-0.0861504003405571,"95":-0.0330774150788784,"96":-0.17477178573608398,"97":0.059129782021045685,"98":-0.1509922295808792,"99":-0.025324232876300812,"100":-0.053046390414237976,"101":-0.1612720936536789,"102":-0.20372374355793,"103":-0.05285564064979553,"104":0.12517774105072021,"105":-0.016411777585744858,"106":0.12486138939857483,"107":-0.11040785908699036,"108":0.13732419908046722,"109":0.07370148599147797,"110":-0.1893894076347351,"111":-0.19233214855194092,"112":0.15038050711154938,"113":0.043664153665304184,"114":-0.1578250229358673}},"7":{"bias":0.07297691702842712,"weights":{"0":-0.14315709471702576,"1":-0.15216347575187683,"2":-0.05901195853948593,"3":0.022416895255446434,"4":-0.03001309745013714,"5":-0.05775987729430199,"6":-0.02198890969157219,"7":0.042922843247652054,"8":0.19153672456741333,"9":-0.07408785074949265,"10":0.10588226467370987,"11":-0.16229546070098877,"12":-0.18348580598831177,"13":-0.14572712779045105,"14":-0.12331237643957138,"15":-0.1620061993598938,"16":-0.05943908542394638,"17":-0.024416107684373856,"18":-0.029293036088347435,"19":-0.051073480397462845,"20":-0.10649126023054123,"21":0.07466290146112442,"22":0.007210699375718832,"23":-0.1593226194381714,"24":-0.11739706248044968,"25":-0.08962494879961014,"26":0.13210922479629517,"27":0.14579680562019348,"28":-0.17808941006660461,"29":-0.17789629101753235,"30":-0.15300612151622772,"31":0.13335900008678436,"32":0.13098041713237762,"33":-0.18045181035995483,"34":-0.177616149187088,"35":-0.1663292795419693,"36":0.03804752603173256,"37":0.20202377438545227,"38":0.06674303859472275,"39":0.06901806592941284,"40":0.19827377796173096,"41":0.3553711175918579,"42":0.3444932699203491,"43":0.07988672703504562,"44":0.07477248460054398,"45":-0.05604267865419388,"46":-0.06467656046152115,"47":-0.11993712186813354,"48":0.05937545746564865,"49":-0.033171433955430984,"50":-0.18162423372268677,"51":-0.03178935497999191,"52":-0.13030901551246643,"53":-0.39559075236320496,"54":-0.2663869261741638,"55":-0.1794833242893219,"56":-0.04542326554656029,"57":0.07097569853067398,"58":-0.018004590645432472,"59":-0.153662770986557,"60":0.0446004644036293,"61":0.06977088004350662,"62":0.12238534539937973,"63":0.41070857644081116,"64":0.6229994297027588,"65":0.25689682364463806,"66":-0.10105068236589432,"67":-0.08721563965082169,"68":0.065830297768116,"69":0.11246668547391891,"70":-0.16597266495227814,"71":0.13893644511699677,"72":-0.1254328489303589,"73":0.2011319398880005,"74":0.18653389811515808,"75":-0.04190094396471977,"76":-0.3871340751647949,"77":-0.05202880874276161,"78":0.00036450280458666384,"79":0.04404130205512047,"80":-0.01761521026492119,"81":0.036800820380449295,"82":-0.11651875823736191,"83":-0.08664589375257492,"84":-0.016542401164770126,"85":0.04713227227330208,"86":0.35637328028678894,"87":0.3549804389476776,"88":0.10835304111242294,"89":0.12171538919210434,"90":-0.0917680487036705,"91":0.10060659795999527,"92":-0.004436291754245758,"93":-0.13151472806930542,"94":0.035928454250097275,"95":0.14944085478782654,"96":-0.012276808731257915,"97":-0.04040413722395897,"98":0.02966371551156044,"99":-0.1475841999053955,"100":-0.02926749736070633,"101":-0.015812918543815613,"102":0.11838840693235397,"103":0.09543905407190323,"104":0.17761948704719543,"105":-0.11846376210451126,"106":-0.004320390056818724,"107":0.21187371015548706,"108":0.02377217635512352,"109":0.0641428679227829,"110":0.025280427187681198,"111":-0.01828618347644806,"112":-0.09109073132276535,"113":0.1651366651058197,"114":-0.06961790472269058}},"8":{"bias":-0.16453947126865387,"weights":{"0":-0.053987231105566025,"1":0.16629323363304138,"2":0.02620338276028633,"3":0.038144391030073166,"4":0.10270600765943527,"5":0.16660112142562866,"6":-0.13286344707012177,"7":0.14867497980594635,"8":-0.0008922347915358841,"9":-0.11851874738931656,"10":0.0218314528465271,"11":-0.06985362619161606,"12":-0.10786478966474533,"13":-0.19251954555511475,"14":0.159037783741951,"15":0.12572228908538818,"16":0.18035832047462463,"17":0.1191117987036705,"18":-0.0020462647080421448,"19":0.1500195413827896,"20":-0.0028560669161379337,"21":0.05518550053238869,"22":-0.02699795365333557,"23":0.018708504736423492,"24":0.27048659324645996,"25":0.06367706507444382,"26":-0.17337748408317566,"27":0.05663584545254707,"28":0.07433672994375229,"29":0.16005583107471466,"30":0.050657760351896286,"31":0.12410245835781097,"32":-0.17578573524951935,"33":0.013770016841590405,"34":0.10433762520551682,"35":-0.011021402664482594,"36":0.13734227418899536,"37":-0.20167608559131622,"38":0.09320571273565292,"39":0.0716630294919014,"40":-0.07295883446931839,"41":-0.2511107623577118,"42":-0.18714994192123413,"43":-0.05012642964720726,"44":-0.12066710740327835,"45":-0.010418870486319065,"46":0.021185846999287605,"47":0.19334888458251953,"48":0.3323715925216675,"49":0.0910811796784401,"50":-0.09764005988836288,"51":-0.1649317592382431,"52":0.09593532979488373,"53":0.00764513248577714,"54":0.2056654989719391,"55":-0.1372467577457428,"56":-0.18099412322044373,"57":-0.16415727138519287,"58":0.205270916223526,"59":0.19195137917995453,"60":0.27647048234939575,"61":0.0041700853034853935,"62":-0.02556617185473442,"63":-0.4388401210308075,"64":-0.610453188419342,"65":-0.3477156460285187,"66":-0.0055215004831552505,"67":-0.09473209828138351,"68":0.03329789265990257,"69":-0.0835287794470787,"70":0.07164344191551208,"71":0.01372277457267046,"72":0.16825242340564728,"73":0.09969634562730789,"74":-0.08066307753324509,"75":0.08554969727993011,"76":0.10451257973909378,"77":0.08106590807437897,"78":0.08945249766111374,"79":0.010266918689012527,"80":-0.14982479810714722,"81":-0.02162966877222061,"82":0.11639951914548874,"83":0.1079857125878334,"84":0.09390854090452194,"85":-0.016408083960413933,"86":-0.4214760363101959,"87":-0.10809264332056046,"88":0.07338486611843109,"89":-0.19744203984737396,"90":-0.1913793534040451,"91":-0.010356917046010494,"92":0.05225156620144844,"93":0.12849640846252441,"94":0.031818512827157974,"95":0.14318698644638062,"96":0.1712876707315445,"97":-0.0029283706098794937,"98":0.05378807708621025,"99":-0.12959884107112885,"100":-0.10325225442647934,"101":0.16670946776866913,"102":0.058231908828020096,"103":-0.18181851506233215,"104":-0.2035844773054123,"105":-0.04466303065419197,"106":0.1440219283103943,"107":-0.056252483278512955,"108":-0.0413699708878994,"109":-0.06573023647069931,"110":-0.1813998520374298,"111":0.02202911302447319,"112":-0.16105155646800995,"113":-0.16478100419044495,"114":0.14114199578762054}},"9":{"bias":-0.18548941612243652,"weights":{"0":-0.1724839210510254,"1":0.08483363687992096,"2":-0.14543133974075317,"3":-0.12293815612792969,"4":-0.06769722700119019,"5":-0.11027225852012634,"6":-0.14270922541618347,"7":0.17605799436569214,"8":-0.1214587539434433,"9":-0.17123335599899292,"10":-0.06872604787349701,"11":0.18379420042037964,"12":0.05535353347659111,"13":0.15133222937583923,"14":-0.20763972401618958,"15":-0.1360650360584259,"16":0.10662269592285156,"17":-0.020693019032478333,"18":0.06879792362451553,"19":0.17269721627235413,"20":-0.12427086383104324,"21":0.0907464474439621,"22":0.10658903419971466,"23":0.06714973598718643,"24":0.32531437277793884,"25":0.14225687086582184,"26":-0.0885230302810669,"27":0.1462770402431488,"28":0.06300830096006393,"29":-0.2870878279209137,"30":-0.15581545233726501,"31":0.14398960769176483,"32":-0.1484544575214386,"33":0.1537419855594635,"34":-0.08414672315120697,"35":-0.16835318505764008,"36":0.17670293152332306,"37":0.11372452974319458,"38":-0.12945830821990967,"39":0.025236468762159348,"40":0.10857166349887848,"41":-0.2061796933412552,"42":0.02935909852385521,"43":-0.10773494839668274,"44":-0.18754711747169495,"45":-0.08086596429347992,"46":0.3122205436229706,"47":0.5969683527946472,"48":0.6994351744651794,"49":0.06369023025035858,"50":0.02006690576672554,"51":0.0357886403799057,"52":-0.2991492748260498,"53":-0.3127317726612091,"54":-0.24303914606571198,"55":-0.12699198722839355,"56":0.1201389878988266,"57":-0.09558160603046417,"58":-0.09891224652528763,"59":-0.1300021857023239,"60":0.029483476653695107,"61":-0.012221899814903736,"62":0.0703396201133728,"63":-0.0912940576672554,"64":-0.0635451152920723,"65":-0.2523185610771179,"66":0.01070775929838419,"67":0.16022655367851257,"68":-0.005012329202145338,"69":0.1516973078250885,"70":0.30920493602752686,"71":0.10379897058010101,"72":0.16485416889190674,"73":0.1772252321243286,"74":0.06294266879558563,"75":-0.24053718149662018,"76":-0.27969491481781006,"77":0.015674808993935585,"78":-0.14973047375679016,"79":-0.18161165714263916,"80":0.17343711853027344,"81":0.0694916844367981,"82":0.0006239774520508945,"83":-0.0845235139131546,"84":0.17186453938484192,"85":0.15170475840568542,"86":-0.0884084403514862,"87":-0.24140574038028717,"88":0.07179836183786392,"89":0.009226852096617222,"90":0.11177632212638855,"91":-0.1645733118057251,"92":-0.15521255135536194,"93":-0.16068877279758453,"94":0.18240055441856384,"95":0.11828874051570892,"96":0.16028326749801636,"97":0.17814287543296814,"98":-0.13524025678634644,"99":-0.14528170228004456,"100":0.06752530485391617,"101":-0.002150528132915497,"102":0.09837464988231659,"103":-0.19589322805404663,"104":0.1501317024230957,"105":0.08332392573356628,"106":0.05107518658041954,"107":0.0872967541217804,"108":0.17582425475120544,"109":0.0038732863031327724,"110":-0.13901537656784058,"111":-0.14581170678138733,"112":-0.020857051014900208,"113":0.15860962867736816,"114":0.13622629642486572}},"10":{"bias":0.09319520741701126,"weights":{"0":0.1470518559217453,"1":-0.031023742631077766,"2":-0.026003317907452583,"3":0.0655561164021492,"4":-0.09822288900613785,"5":0.09783240407705307,"6":0.1523597091436386,"7":0.08194073289632797,"8":-0.026822296902537346,"9":-0.12419874966144562,"10":0.013972809538245201,"11":0.15263593196868896,"12":-0.08091691881418228,"13":0.11284472793340683,"14":0.027239782735705376,"15":-0.17972223460674286,"16":0.025827249512076378,"17":-0.161409392952919,"18":0.12200508266687393,"19":0.18919441103935242,"20":0.1356002390384674,"21":-0.010478818789124489,"22":-0.14979273080825806,"23":-0.10687278211116791,"24":-0.09546730667352676,"25":-0.2729600965976715,"26":0.18073967099189758,"27":0.007050718646496534,"28":-0.07366498559713364,"29":0.04778163135051727,"30":0.12614163756370544,"31":0.08608454465866089,"32":0.04492444545030594,"33":-0.0445900484919548,"34":-0.18364301323890686,"35":-0.3604079782962799,"36":-0.09237189590930939,"37":-0.06648176163434982,"38":-0.11421184986829758,"39":-0.14068672060966492,"40":0.08893558382987976,"41":0.192894846200943,"42":0.08101985603570938,"43":-0.00891926046460867,"44":0.025494584813714027,"45":-0.07684537023305893,"46":-0.11173459887504578,"47":-0.32597842812538147,"48":-0.33926182985305786,"49":-0.09069707244634628,"50":-0.15013548731803894,"51":-0.002957231132313609,"52":0.2483273446559906,"53":0.3979202210903168,"54":-0.030018119141459465,"55":0.07805930823087692,"56":-0.15823613107204437,"57":-0.022566253319382668,"58":-0.17822220921516418,"59":-0.205514058470726,"60":-0.06508252024650574,"61":0.18247757852077484,"62":0.1540898233652115,"63":0.07716278731822968,"64":0.28941047191619873,"65":0.32279300689697266,"66":-0.13921216130256653,"67":0.04663195461034775,"68":0.1151537075638771,"69":0.1594412475824356,"70":-0.20340776443481445,"71":0.03044973872601986,"72":0.06635747104883194,"73":-0.08775267750024796,"74":0.07384698837995529,"75":0.014665640890598297,"76":0.13682962954044342,"77":0.05472161993384361,"78":-0.059838682413101196,"79":0.07220680266618729,"80":-0.11208010464906693,"81":-0.023339223116636276,"82":0.003949470818042755,"83":0.16147533059120178,"84":0.0024295614566653967,"85":-0.1945941150188446,"86":0.006938684731721878,"87":0.14654774963855743,"88":0.12366124987602234,"89":0.07148473709821701,"90":0.057221271097660065,"91":0.02242627553641796,"92":0.18461117148399353,"93":-0.009766868315637112,"94":-0.16350647807121277,"95":-0.09297718852758408,"96":-0.11372620612382889,"97":-0.1240144819021225,"98":-0.16948828101158142,"99":0.08920005708932877,"100":-0.12162382155656815,"101":-0.019858622923493385,"102":-0.06443709880113602,"103":0.05884546786546707,"104":0.12329372018575668,"105":-0.16412051022052765,"106":-0.16417360305786133,"107":0.029348092153668404,"108":0.01132849883288145,"109":0.010153877548873425,"110":0.00008746106323087588,"111":0.1788964867591858,"112":0.17068861424922943,"113":0.055720940232276917,"114":-0.07160242646932602}},"11":{"bias":0.10998683422803879,"weights":{"0":0.11748138815164566,"1":-0.09358400851488113,"2":0.06098568066954613,"3":0.1475696861743927,"4":-0.15542012453079224,"5":0.17046554386615753,"6":0.08779504150152206,"7":0.025222262367606163,"8":-0.12662488222122192,"9":0.05900875851511955,"10":0.1835464984178543,"11":0.13008448481559753,"12":0.15841074287891388,"13":0.12023697793483734,"14":0.05853690579533577,"15":-0.12254992872476578,"16":0.194382905960083,"17":-0.19626787304878235,"18":-0.09576068073511124,"19":0.09303317964076996,"20":-0.17770403623580933,"21":0.049988579005002975,"22":0.051587674766778946,"23":0.03403768315911293,"24":-0.17697159945964813,"25":-0.33370110392570496,"26":0.1358555406332016,"27":-0.05914784595370293,"28":-0.0033510809298604727,"29":0.05541413649916649,"30":0.04382456839084625,"31":-0.1633060872554779,"32":-0.013182960450649261,"33":-0.10306613892316818,"34":0.17750126123428345,"35":0.4674294590950012,"36":0.47410455346107483,"37":-0.021393587812781334,"38":0.15618376433849335,"39":0.15749849379062653,"40":0.16833864152431488,"41":0.04394729062914848,"42":-0.2507927119731903,"43":0.13113880157470703,"44":-0.18330000340938568,"45":0.022938711568713188,"46":-0.2945411801338196,"47":-0.6051604151725769,"48":-0.6505958437919617,"49":-0.10166925936937332,"50":0.19260086119174957,"51":-0.011294137686491013,"52":0.19948610663414001,"53":0.12223395705223083,"54":-0.10656766593456268,"55":-0.036684636026620865,"56":-0.16164875030517578,"57":-0.03789931908249855,"58":0.7215504050254822,"59":0.582849383354187,"60":0.15872621536254883,"61":-0.13394197821617126,"62":0.014342074282467365,"63":-0.27905169129371643,"64":-0.3507131040096283,"65":-0.07310431450605392,"66":-0.00040035528945736587,"67":0.17003174126148224,"68":-0.019394906237721443,"69":0.1571386158466339,"70":-0.40052130818367004,"71":-0.15766029059886932,"72":-0.11345891654491425,"73":-0.04093313589692116,"74":-0.1090681403875351,"75":-0.09170231223106384,"76":0.18481704592704773,"77":0.1207457184791565,"78":-0.04913550242781639,"79":0.17467449605464935,"80":-0.033669307827949524,"81":0.03925955668091774,"82":0.2598142921924591,"83":-0.062067799270153046,"84":-0.15018342435359955,"85":0.05996117368340492,"86":-0.19175168871879578,"87":-0.27783772349357605,"88":0.06494186073541641,"89":0.15963463485240936,"90":-0.06918410211801529,"91":-0.10053834319114685,"92":-0.16107872128486633,"93":0.1108768954873085,"94":-0.184462770819664,"95":-0.18172377347946167,"96":0.09496025741100311,"97":0.01593954488635063,"98":0.16905313730239868,"99":-0.1468319594860077,"100":0.1799873262643814,"101":0.06834547966718674,"102":0.135820209980011,"103":-0.06576050817966461,"104":0.13555404543876648,"105":-0.16205133497714996,"106":-0.022517530247569084,"107":-0.006452280096709728,"108":-0.005722842179238796,"109":-0.1015753522515297,"110":-0.013576860539615154,"111":-0.1258670836687088,"112":-0.0026807214599102736,"113":0.07383382320404053,"114":0.18667495250701904}},"12":{"bias":-0.16673819720745087,"weights":{"0":0.09615473449230194,"1":-0.059928569942712784,"2":0.1627507507801056,"3":0.16063019633293152,"4":-0.14081043004989624,"5":-0.13655810058116913,"6":-0.09297797083854675,"7":0.12139326333999634,"8":0.17012174427509308,"9":-0.091724693775177,"10":0.18141862750053406,"11":-0.09748589992523193,"12":-0.0028610872104763985,"13":0.11342962086200714,"14":0.06587246805429459,"15":0.007496573030948639,"16":0.032199639827013016,"17":-0.20592355728149414,"18":-0.19256508350372314,"19":-0.04657499119639397,"20":-0.14153750240802765,"21":-0.11806260794401169,"22":0.01600109227001667,"23":-0.049732934683561325,"24":-0.003210896160453558,"25":-0.017004864290356636,"26":0.19083747267723083,"27":0.04001113399863243,"28":0.1706024408340454,"29":0.032474976032972336,"30":-0.14087849855422974,"31":-0.16603823006153107,"32":-0.20020602643489838,"33":-0.17794804275035858,"34":-0.18148288130760193,"35":0.09810737520456314,"36":-0.010484689846634865,"37":-0.011733129620552063,"38":-0.0034468271769583225,"39":-0.07000026106834412,"40":0.12147361040115356,"41":0.11839193850755692,"42":-0.1631455421447754,"43":0.08468534052371979,"44":-0.10923905670642853,"45":0.0403393916785717,"46":-0.03779193386435509,"47":0.23280534148216248,"48":0.016389265656471252,"49":0.10990419238805771,"50":0.1672668159008026,"51":0.01692812703549862,"52":0.019865376874804497,"53":-0.01538645289838314,"54":0.09070936590433121,"55":-0.10376469790935516,"56":0.039097417145967484,"57":0.10408932715654373,"58":0.03773709759116173,"59":-0.162186399102211,"60":-0.1305646151304245,"61":0.1409493386745453,"62":-0.0745992511510849,"63":-0.03787390515208244,"64":0.17628559470176697,"65":0.1046595647931099,"66":0.061157211661338806,"67":0.12577256560325623,"68":0.015318638645112514,"69":-0.11631115525960922,"70":-0.11961069703102112,"71":0.2142663151025772,"72":0.15129131078720093,"73":-0.1302386224269867,"74":-0.05773286521434784,"75":0.06484992802143097,"76":-0.05789925530552864,"77":0.0008402516832575202,"78":-0.17556290328502655,"79":0.13568268716335297,"80":-0.09382711350917816,"81":-0.10563875734806061,"82":-0.14377711713314056,"83":0.01808079332113266,"84":-0.016184689477086067,"85":-0.09979476034641266,"86":0.03210049495100975,"87":0.09434402734041214,"88":-0.09064894914627075,"89":-0.19853387773036957,"90":0.018479278311133385,"91":0.12093862891197205,"92":-0.08245924115180969,"93":-0.18583856523036957,"94":-0.05746535584330559,"95":-0.08984716236591339,"96":-0.20762743055820465,"97":0.11844660341739655,"98":-0.200452521443367,"99":0.12941491603851318,"100":-0.06697690486907959,"101":0.07799528539180756,"102":-0.07840269804000854,"103":0.14147497713565826,"104":0.07685016095638275,"105":0.13596242666244507,"106":-0.012773214839398861,"107":-0.06441429257392883,"108":-0.09670935571193695,"109":0.1905231922864914,"110":-0.16667287051677704,"111":0.029785068705677986,"112":0.043716493993997574,"113":-0.09342379868030548,"114":0.08062709867954254}},"13":{"bias":0.004553775768727064,"weights":{"0":0.09681099653244019,"1":0.127534419298172,"2":0.19535768032073975,"3":0.05445388704538345,"4":0.17589223384857178,"5":-0.08149601519107819,"6":0.07761108875274658,"7":-0.1365465223789215,"8":-0.18790704011917114,"9":-0.028131945058703423,"10":-0.11587826907634735,"11":-0.06300104409456253,"12":0.031866367906332016,"13":0.018557069823145866,"14":0.03601662069559097,"15":-0.041623808443546295,"16":0.19130727648735046,"17":0.16749489307403564,"18":0.12886878848075867,"19":0.04375452548265457,"20":-0.03923261910676956,"21":-0.060644205659627914,"22":0.1645597219467163,"23":0.05176422744989395,"24":-0.13795949518680573,"25":0.018067339435219765,"26":-0.05916782096028328,"27":0.04506047070026398,"28":0.16289538145065308,"29":-0.08805711567401886,"30":-0.08105780184268951,"31":-0.02050314098596573,"32":-0.1293914020061493,"33":0.1183943897485733,"34":-0.11552345752716064,"35":-0.22109577059745789,"36":-0.4477170407772064,"37":-0.12554176151752472,"38":-0.0008050207979977131,"39":0.07348482310771942,"40":0.022345950827002525,"41":0.17346647381782532,"42":0.23878179490566254,"43":-0.16563260555267334,"44":-0.07834097743034363,"45":-0.14931973814964294,"46":0.12213616073131561,"47":-0.1700497269630432,"48":-0.25719153881073,"49":-0.18611225485801697,"50":0.12128892540931702,"51":0.034374844282865524,"52":0.22052186727523804,"53":0.18592338263988495,"54":0.07750377804040909,"55":-0.028033757582306862,"56":0.15249180793762207,"57":-0.02464342676103115,"58":-0.6280521750450134,"59":-0.5518033504486084,"60":-0.3070845305919647,"61":0.12707239389419556,"62":-0.03539081662893295,"63":0.1370268017053604,"64":0.6120942234992981,"65":0.3203970193862915,"66":0.0036486717872321606,"67":-0.18027746677398682,"68":0.1082708090543747,"69":0.0260465145111084,"70":-0.21278032660484314,"71":-0.08061409741640091,"72":0.04582750424742699,"73":0.026557402685284615,"74":-0.02602735348045826,"75":0.13120882213115692,"76":0.07703614234924316,"77":0.17701174318790436,"78":0.10251596570014954,"79":-0.023755045607686043,"80":0.08289022743701935,"81":-0.10992202907800674,"82":-0.35099294781684875,"83":-0.03622002154588699,"84":-0.15239790081977844,"85":0.1726967990398407,"86":0.08672424405813217,"87":0.39513224363327026,"88":0.023758960887789726,"89":-0.029944034293293953,"90":-0.11061292886734009,"91":-0.006990469992160797,"92":0.045972056686878204,"93":0.1720312535762787,"94":0.07205189764499664,"95":-0.0038069081492722034,"96":0.1295132339000702,"97":-0.14768382906913757,"98":-0.16545087099075317,"99":0.17155218124389648,"100":-0.09572456777095795,"101":-0.1306721270084381,"102":-0.03338727355003357,"103":0.03574831038713455,"104":-0.17377740144729614,"105":0.17374011874198914,"106":-0.004503603093326092,"107":-0.07968008518218994,"108":-0.036057308316230774,"109":0.02248946763575077,"110":-0.11561080813407898,"111":-0.06955058872699738,"112":0.06003112345933914,"113":-0.03736449033021927,"114":0.07474461197853088}},"14":{"bias":0.044495049864053726,"weights":{"0":-0.07564624398946762,"1":0.18277159333229065,"2":0.05679343640804291,"3":-0.16306814551353455,"4":0.16228486597537994,"5":0.1502578854560852,"6":-0.0983472689986229,"7":-0.14908455312252045,"8":0.05889523774385452,"9":-0.09600072354078293,"10":-0.127226784825325,"11":-0.054259464144706726,"12":0.18180616199970245,"13":-0.02966345101594925,"14":0.04700649529695511,"15":0.016281018033623695,"16":-0.15899629890918732,"17":0.04672607034444809,"18":0.14540062844753265,"19":0.06616674363613129,"20":-0.19164426624774933,"21":0.03436365723609924,"22":-0.08659359067678452,"23":0.1811354160308838,"24":0.007389646954834461,"25":-0.028414307162165642,"26":-0.18577060103416443,"27":0.1957125961780548,"28":0.08903376013040543,"29":-0.08340709656476974,"30":0.12929590046405792,"31":-0.03608986362814903,"32":0.16582347452640533,"33":-0.0547955259680748,"34":-0.12446277588605881,"35":0.1806342899799347,"36":0.0181129090487957,"37":-0.11608956009149551,"38":-0.10481252521276474,"39":0.10570176690816879,"40":-0.05427508056163788,"41":-0.06625105440616608,"42":-0.039179205894470215,"43":0.040629491209983826,"44":0.10065232962369919,"45":-0.1762673258781433,"46":0.010858496651053429,"47":0.13189366459846497,"48":0.18997704982757568,"49":-0.1782810539007187,"50":0.1863791048526764,"51":-0.01736610382795334,"52":-0.07546190917491913,"53":0.0010380998719483614,"54":0.0438326857984066,"55":-0.12612973153591156,"56":0.10526148229837418,"57":0.10033415257930756,"58":0.48226118087768555,"59":0.2595297694206238,"60":0.20019394159317017,"61":0.06819891184568405,"62":-0.14369110763072968,"63":-0.28629070520401,"64":-0.47775521874427795,"65":-0.04243212193250656,"66":-0.06095399335026741,"67":-0.1967732161283493,"68":0.05318358540534973,"69":-0.056763194501399994,"70":-0.13382741808891296,"71":0.042874958366155624,"72":0.13991567492485046,"73":0.17985594272613525,"74":-0.16199497878551483,"75":-0.03689046949148178,"76":0.06742576509714127,"77":0.13586604595184326,"78":-0.08698529750108719,"79":0.020612318068742752,"80":0.08502195030450821,"81":0.2869282066822052,"82":0.032320357859134674,"83":-0.18767382204532623,"84":-0.04074569791555405,"85":0.058268092572689056,"86":-0.30409348011016846,"87":-0.017974048852920532,"88":-0.061979372054338455,"89":-0.15663936734199524,"90":-0.07355236262083054,"91":-0.015032713301479816,"92":0.06654134392738342,"93":-0.045754335820674896,"94":-0.16033445298671722,"95":0.18490393459796906,"96":0.004762303549796343,"97":0.19350135326385498,"98":-0.06929907947778702,"99":-0.07297321408987045,"100":-0.19021157920360565,"101":-0.16744373738765717,"102":-0.048737093806266785,"103":-0.04711438715457916,"104":0.147881880402565,"105":0.04939831793308258,"106":0.14783261716365814,"107":0.05127141624689102,"108":0.03637254238128662,"109":-0.16657719016075134,"110":-0.04404084384441376,"111":0.1684575378894806,"112":0.19220329821109772,"113":-0.06418895721435547,"114":-0.11586981266736984}},"15":{"bias":0.04489631950855255,"weights":{"0":0.08020496368408203,"1":-0.04634600132703781,"2":-0.058450207114219666,"3":-0.03504885733127594,"4":-0.06731545180082321,"5":-0.10958541929721832,"6":-0.05541675537824631,"7":-0.06871417164802551,"8":0.05904547497630119,"9":-0.03615376725792885,"10":-0.19103920459747314,"11":0.07640749961137772,"12":-0.06002536416053772,"13":0.08135068416595459,"14":-0.06068864464759827,"15":-0.1160869151353836,"16":0.0986301377415657,"17":0.1823156476020813,"18":-0.01850263960659504,"19":-0.012186294421553612,"20":0.08056678622961044,"21":-0.021062472835183144,"22":0.1476592719554901,"23":-0.04862586781382561,"24":-0.07121920585632324,"25":-0.2604195177555084,"26":0.040834058076143265,"27":-0.01423795334994793,"28":-0.14694499969482422,"29":0.17887884378433228,"30":0.2127518504858017,"31":0.12656289339065552,"32":0.020464608445763588,"33":-0.02441173978149891,"34":0.04533034563064575,"35":-0.10821270197629929,"36":0.10842788219451904,"37":-0.13320274651050568,"38":0.17914091050624847,"39":-0.11344622820615768,"40":0.1850244551897049,"41":0.20364196598529816,"42":-0.0852612853050232,"43":-0.18943791091442108,"44":0.16816134750843048,"45":0.020340291783213615,"46":-0.09171544760465622,"47":-0.6003322601318359,"48":-0.5278818011283875,"49":0.07183990627527237,"50":-0.18508167564868927,"51":0.18321257829666138,"52":0.06699332594871521,"53":0.20042459666728973,"54":0.0012845750898122787,"55":-0.10177825391292572,"56":-0.04648136347532272,"57":0.07299863547086716,"58":0.07827930152416229,"59":-0.20838047564029694,"60":0.10451127588748932,"61":0.0514385923743248,"62":-0.12914392352104187,"63":0.10544638335704803,"64":0.19483210146427155,"65":0.0944502055644989,"66":0.0973031148314476,"67":-0.13160307705402374,"68":-0.09083624184131622,"69":0.14101248979568481,"70":-0.36597922444343567,"71":-0.29999595880508423,"72":-0.02742275781929493,"73":-0.0020793317817151546,"74":-0.0644342377781868,"75":-0.02499520219862461,"76":0.3293624818325043,"77":0.011321619153022766,"78":-0.13742102682590485,"79":-0.16726958751678467,"80":0.027374742552638054,"81":0.08480816334486008,"82":0.01924990676343441,"83":-0.1364465057849884,"84":0.013871120288968086,"85":-0.09561490267515182,"86":0.10191747546195984,"87":0.19877636432647705,"88":0.070583276450634,"89":0.1773030161857605,"90":0.13928736746311188,"91":0.1736804097890854,"92":0.014031074941158295,"93":-0.09425247460603714,"94":0.005935376044362783,"95":-0.0899788960814476,"96":0.018815813586115837,"97":0.1696874350309372,"98":-0.13109157979488373,"99":-0.0820484310388565,"100":-0.03291730582714081,"101":-0.1046629548072815,"102":-0.04110363870859146,"103":0.13102248311042786,"104":-0.04618631303310394,"105":-0.18263345956802368,"106":-0.06133775785565376,"107":0.15686722099781036,"108":0.11403530091047287,"109":0.15389089286327362,"110":-0.013743385672569275,"111":0.020643731579184532,"112":0.028468457981944084,"113":0.17938609421253204,"114":-0.11391407251358032}},"16":{"bias":0.06213734671473503,"weights":{"0":-0.025557996705174446,"1":-0.06265048682689667,"2":-0.003433938603848219,"3":0.04186927527189255,"4":0.174250528216362,"5":-0.15250515937805176,"6":0.1677139550447464,"7":-0.1218189224600792,"8":0.13711737096309662,"9":0.1671731323003769,"10":0.0504806712269783,"11":0.029144132509827614,"12":-0.1417047679424286,"13":0.09665846079587936,"14":0.07903822511434555,"15":0.14763367176055908,"16":0.01654101349413395,"17":-0.1391717940568924,"18":0.028146421536803246,"19":0.03619682788848877,"20":0.04207412898540497,"21":0.14652296900749207,"22":0.2020668089389801,"23":0.16993257403373718,"24":0.37106385827064514,"25":0.20587386190891266,"26":0.009335227310657501,"27":-0.10164184123277664,"28":-0.1571156084537506,"29":-0.23116464912891388,"30":-0.2522033751010895,"31":0.1278548538684845,"32":-0.11464225500822067,"33":-0.12716855108737946,"34":-0.08861684054136276,"35":0.10971120744943619,"36":-0.10259684175252914,"37":0.1476585417985916,"38":-0.16595453023910522,"39":0.16983641684055328,"40":-0.14384497702121735,"41":-0.15047310292720795,"42":-0.2573126256465912,"43":0.1721954494714737,"44":-0.06535854935646057,"45":-0.02740597166121006,"46":0.22780537605285645,"47":0.6311838030815125,"48":0.5841938853263855,"49":0.10268890112638474,"50":0.025073738768696785,"51":-0.051319658756256104,"52":-0.18238291144371033,"53":-0.07252725213766098,"54":-0.11370539665222168,"55":-0.12096505612134933,"56":-0.07759743183851242,"57":0.2034708857536316,"58":-0.0013586643617600203,"59":0.056236300617456436,"60":0.20456813275814056,"61":-0.07793321460485458,"62":0.07860750705003738,"63":-0.3284778296947479,"64":-0.4007294476032257,"65":-0.11118635535240173,"66":-0.0438920259475708,"67":-0.07545315474271774,"68":-0.015395628288388252,"69":-0.11463196575641632,"70":0.17417778074741364,"71":0.3583917021751404,"72":-0.06715183705091476,"73":0.15094499289989471,"74":-0.09298860281705856,"75":-0.22459028661251068,"76":-0.19081974029541016,"77":-0.1677110642194748,"78":-0.05337844789028168,"79":-0.011738423258066177,"80":0.046643659472465515,"81":-0.049317266792058945,"82":-0.056976549327373505,"83":0.13838616013526917,"84":-0.11157620698213577,"85":0.16051968932151794,"86":-0.2640638053417206,"87":-0.2897471487522125,"88":0.06127065047621727,"89":0.14790129661560059,"90":-0.03592371195554733,"91":0.16179627180099487,"92":0.013495828956365585,"93":0.06152937933802605,"94":-0.1461995393037796,"95":0.12839385867118835,"96":-0.06935962289571762,"97":-0.13678473234176636,"98":-0.08193402737379074,"99":-0.0255733709782362,"100":-0.02258365787565708,"101":-0.043295666575431824,"102":-0.0034986035898327827,"103":-0.16655446588993073,"104":0.20717306435108185,"105":0.04684945195913315,"106":-0.01897553913295269,"107":-0.07848770171403885,"108":0.049741148948669434,"109":0.08585067838430405,"110":0.038917362689971924,"111":-0.12709443271160126,"112":-0.13863161206245422,"113":0.14289705455303192,"114":-0.015812896192073822}},"17":{"bias":0.09442025423049927,"weights":{"0":-0.06954760104417801,"1":-0.17819736897945404,"2":0.18892578780651093,"3":0.044884707778692245,"4":0.12674634158611298,"5":0.17154407501220703,"6":-0.10879960656166077,"7":-0.07036272436380386,"8":0.0672365203499794,"9":-0.12923750281333923,"10":-0.15920276939868927,"11":-0.1356721669435501,"12":0.15880712866783142,"13":-0.14681673049926758,"14":-0.17981520295143127,"15":0.19043447077274323,"16":-0.011955052614212036,"17":-0.13076454401016235,"18":-0.08489101380109787,"19":-0.018598560243844986,"20":-0.13883177936077118,"21":-0.12784254550933838,"22":0.19519133865833282,"23":-0.05322129279375076,"24":-0.03326937183737755,"25":-0.05233899876475334,"26":-0.07738478481769562,"27":0.10281280428171158,"28":0.19385220110416412,"29":0.12232090532779694,"30":-0.116890087723732,"31":0.03614567220211029,"32":0.048912163823843,"33":-0.040738802403211594,"34":0.07660692185163498,"35":-0.19012628495693207,"36":-0.07595360279083252,"37":0.01890975795686245,"38":-0.026411645114421844,"39":-0.005361557472497225,"40":0.07850734144449234,"41":0.23271669447422028,"42":0.3164021074771881,"43":-0.1536535620689392,"44":0.1813887655735016,"45":0.08903634548187256,"46":-0.10154341906309128,"47":0.10872828215360641,"48":0.24554842710494995,"49":0.2014954388141632,"50":0.09008782356977463,"51":-0.07524474710226059,"52":-0.2916928827762604,"53":-0.21689753234386444,"54":-0.05025051161646843,"55":0.030343376100063324,"56":0.20332342386245728,"57":0.09023524820804596,"58":-0.3076584041118622,"59":-0.26236310601234436,"60":-0.021327340975403786,"61":-0.14530615508556366,"62":-0.12941479682922363,"63":0.1257290244102478,"64":0.3103165030479431,"65":0.19396983087062836,"66":-0.071047842502594,"67":-0.05515163764357567,"68":-0.11025623977184296,"69":-0.02135496586561203,"70":0.0954866111278534,"71":0.1827300488948822,"72":-0.060257285833358765,"73":-0.005494187120348215,"74":0.1646665632724762,"75":-0.15818236768245697,"76":0.06601860374212265,"77":0.1889435350894928,"78":-0.03341119363903999,"79":0.12800709903240204,"80":-0.010874757543206215,"81":0.01019648090004921,"82":-0.09424963593482971,"83":0.06624522060155869,"84":-0.12051539868116379,"85":0.113736592233181,"86":0.04939953237771988,"87":0.33225125074386597,"88":-0.09072062373161316,"89":-0.14269685745239258,"90":0.2079121172428131,"91":0.03548367694020271,"92":-0.13414494693279266,"93":-0.08735857903957367,"94":0.11698959767818451,"95":0.13539044559001923,"96":-0.17627455294132233,"97":-0.15706992149353027,"98":0.09038303792476654,"99":-0.15826416015625,"100":-0.16913680732250214,"101":-0.14260782301425934,"102":-0.09896300733089447,"103":-0.0027874961961060762,"104":-0.04336269572377205,"105":-0.11674073338508606,"106":0.05020260438323021,"107":0.2186589390039444,"108":-0.06567481905221939,"109":-0.160752534866333,"110":-0.12142970412969589,"111":0.09138467907905579,"112":0.13943615555763245,"113":0.1490362137556076,"114":-0.13966530561447144}},"18":{"bias":-0.0069331154227256775,"weights":{"0":-0.05379313975572586,"1":0.17760932445526123,"2":0.016516320407390594,"3":-0.2042214721441269,"4":-0.0349721759557724,"5":0.005743446294218302,"6":0.05955320596694946,"7":0.16620591282844543,"8":0.07329967617988586,"9":0.17517827451229095,"10":-0.10083562135696411,"11":-0.17767827212810516,"12":-0.16982406377792358,"13":-0.17176857590675354,"14":0.14042790234088898,"15":0.14552946388721466,"16":-0.14207421243190765,"17":0.04965700954198837,"18":-0.16029183566570282,"19":0.05664198100566864,"20":0.07902573049068451,"21":0.1182388961315155,"22":0.18084876239299774,"23":-0.14030571281909943,"24":-0.19862450659275055,"25":0.026248570531606674,"26":-0.06815381348133087,"27":-0.1507292091846466,"28":0.11600562930107117,"29":0.03972307965159416,"30":-0.0017202921444550157,"31":0.07234195619821548,"32":-0.088321253657341,"33":-0.18698035180568695,"34":-0.08296486735343933,"35":0.08334370702505112,"36":0.23742137849330902,"37":0.18772287666797638,"38":0.04461155831813812,"39":0.08216169476509094,"40":0.015943171456456184,"41":-0.017246142029762268,"42":-0.08788222074508667,"43":-0.09089909493923187,"44":0.09191934764385223,"45":-0.06511436402797699,"46":-0.04549349099397659,"47":-0.39586612582206726,"48":-0.2510805130004883,"49":0.08495351672172546,"50":0.013867692090570927,"51":0.02313685044646263,"52":-0.07854201644659042,"53":-0.26004496216773987,"54":0.07520582526922226,"55":-0.11219623684883118,"56":-0.08326520025730133,"57":-0.06979982554912567,"58":0.5310485363006592,"59":0.49618852138519287,"60":0.16921032965183258,"61":0.06010984629392624,"62":0.04567509889602661,"63":0.21045725047588348,"64":0.07190901786088943,"65":0.2137870341539383,"66":0.013714988715946674,"67":-0.1502402126789093,"68":0.1066863089799881,"69":-0.012998143211007118,"70":-0.26940613985061646,"71":-0.13579237461090088,"72":0.04922419786453247,"73":-0.03568235784769058,"74":0.08006010949611664,"75":0.011377371847629547,"76":-0.09999430924654007,"77":-0.13482023775577545,"78":-0.036798931658267975,"79":0.006664167623966932,"80":-0.08711893856525421,"81":-0.022549068555235863,"82":0.11338884383440018,"83":0.0903581827878952,"84":0.15900813043117523,"85":-0.08177734911441803,"86":0.027295615524053574,"87":0.19358816742897034,"88":-0.02382349781692028,"89":-0.05235408619046211,"90":-0.01873258873820305,"91":0.10884574055671692,"92":-0.20715244114398956,"93":0.08279463648796082,"94":-0.13795442879199982,"95":-0.09389108419418335,"96":0.0046921661123633385,"97":0.1284206658601761,"98":0.043946146965026855,"99":-0.18008321523666382,"100":0.035919882357120514,"101":-0.03447507321834564,"102":0.10280817747116089,"103":-0.07944628596305847,"104":-0.17193706333637238,"105":-0.09118148684501648,"106":0.14776074886322021,"107":0.1431330293416977,"108":-0.010220116935670376,"109":0.1747896373271942,"110":0.15558692812919617,"111":-0.204502671957016,"112":0.11741839349269867,"113":-0.19608160853385925,"114":0.02763192728161812}},"19":{"bias":-0.1850113421678543,"weights":{"0":-0.20037004351615906,"1":0.14892633259296417,"2":0.04781249165534973,"3":-0.0011729015968739986,"4":-0.142591655254364,"5":0.13386239111423492,"6":0.14452101290225983,"7":0.1820637285709381,"8":-0.09980257600545883,"9":-0.06759529560804367,"10":-0.12889064848423004,"11":0.13561727106571198,"12":0.014088839292526245,"13":0.14119108021259308,"14":-0.11393125355243683,"15":0.18054944276809692,"16":-0.13840532302856445,"17":-0.18431726098060608,"18":0.0032153273932635784,"19":-0.0584198422729969,"20":0.042868226766586304,"21":0.0996699258685112,"22":0.11541235446929932,"23":0.10691042244434357,"24":-0.05240613594651222,"25":-0.07226649671792984,"26":0.08361642807722092,"27":0.11211032420396805,"28":0.07928021997213364,"29":-0.16727617383003235,"30":0.02255697175860405,"31":-0.08640635013580322,"32":-0.12771792709827423,"33":0.1439436376094818,"34":-0.11849495768547058,"35":-0.005124140065163374,"36":0.236112579703331,"37":-0.08985769748687744,"38":-0.16745421290397644,"39":-0.030735187232494354,"40":-0.006384510546922684,"41":0.032967742532491684,"42":0.0626850426197052,"43":0.04468493163585663,"44":0.14525999128818512,"45":-0.19701053202152252,"46":0.08124218136072159,"47":-0.1882152110338211,"48":0.008646739646792412,"49":-0.07276621460914612,"50":0.1474969983100891,"51":0.07583219558000565,"52":-0.29129260778427124,"53":-0.07667472213506699,"54":-0.2341005951166153,"55":0.03357004374265671,"56":-0.01956733502447605,"57":-0.1509729027748108,"58":0.031235206872224808,"59":0.04554096981883049,"60":-0.11604077368974686,"61":-0.15549764037132263,"62":-0.00803728960454464,"63":-0.20621106028556824,"64":-0.17291557788848877,"65":-0.007033560890704393,"66":-0.05380528047680855,"67":0.1084752082824707,"68":-0.017513355240225792,"69":0.18638645112514496,"70":0.016874469816684723,"71":-0.23644781112670898,"72":-0.11866872012615204,"73":-0.07876027375459671,"74":0.19361351430416107,"75":0.08194458484649658,"76":0.03294984623789787,"77":-0.027293018996715546,"78":-0.06326265633106232,"79":-0.0867004245519638,"80":-0.05721992626786232,"81":0.14057385921478271,"82":0.15125209093093872,"83":0.17513179779052734,"84":-0.09854397922754288,"85":0.0888141617178917,"86":0.061857182532548904,"87":-0.04012327268719673,"88":-0.01090385764837265,"89":0.07821953296661377,"90":0.08745576441287994,"91":0.030679142102599144,"92":-0.055484648793935776,"93":-0.16455791890621185,"94":0.10008403658866882,"95":-0.0038804865907877684,"96":0.07412885874509811,"97":0.05023717135190964,"98":-0.1014876738190651,"99":0.07467733323574066,"100":-0.051006440073251724,"101":0.04914659261703491,"102":-0.05090482905507088,"103":-0.02086768113076687,"104":0.14099901914596558,"105":0.18786756694316864,"106":-0.0608346126973629,"107":-0.12968307733535767,"108":0.07565153390169144,"109":0.04200495406985283,"110":-0.10180658102035522,"111":0.09496746212244034,"112":0.08414573967456818,"113":-0.0012441780418157578,"114":0.006233617197722197}},"20":{"bias":-0.02258528210222721,"weights":{"0":-0.06559392064809799,"1":-0.07276169210672379,"2":0.02836521714925766,"3":-0.006451694760471582,"4":-0.05439040809869766,"5":-0.19957000017166138,"6":0.08211404830217361,"7":0.06881526857614517,"8":0.09346408396959305,"9":0.015532126650214195,"10":-0.09947959333658218,"11":0.1825057417154312,"12":0.18331389129161835,"13":0.11965528875589371,"14":0.12987026572227478,"15":0.01754288747906685,"16":-0.1720900535583496,"17":-0.16597917675971985,"18":-0.08305493742227554,"19":-0.1042507216334343,"20":-0.12598763406276703,"21":0.19655750691890717,"22":0.003974768333137035,"23":-0.09198596328496933,"24":-0.026593629270792007,"25":0.20926907658576965,"26":0.07343051582574844,"27":-0.06959346681833267,"28":0.16555465757846832,"29":0.035288114100694656,"30":-0.14038240909576416,"31":-0.005653972737491131,"32":0.04803205281496048,"33":-0.19209638237953186,"34":0.16913071274757385,"35":0.12544694542884827,"36":-0.1372532993555069,"37":-0.13515311479568481,"38":-0.15437407791614532,"39":-0.18508091568946838,"40":-0.04553671553730965,"41":-0.04916675016283989,"42":0.10203287750482559,"43":0.036011550575494766,"44":-0.03728560358285904,"45":-0.08751872926950455,"46":0.06048298627138138,"47":0.10182709991931915,"48":-0.03275002911686897,"49":-0.06051527336239815,"50":-0.1472780704498291,"51":0.1851893961429596,"52":-0.3757552206516266,"53":-0.19651451706886292,"54":-0.11923690140247345,"55":-0.14278030395507812,"56":-0.14911220967769623,"57":0.1922530084848404,"58":0.1622948795557022,"59":-0.1566498875617981,"60":0.0030980112496763468,"61":0.00429670512676239,"62":0.1542760729789734,"63":-0.0059458110481500626,"64":-0.05132583528757095,"65":0.22301751375198364,"66":0.015155174769461155,"67":-0.05569366365671158,"68":-0.11647439748048782,"69":0.2015649825334549,"70":0.2315496951341629,"71":0.07753829658031464,"72":-0.19404329359531403,"73":-0.14610403776168823,"74":0.07895626872777939,"75":-0.2734687626361847,"76":-0.05232496187090874,"77":0.07534387707710266,"78":0.053107574582099915,"79":0.09911321848630905,"80":-0.1718326061964035,"81":-0.11685243248939514,"82":0.14784422516822815,"83":0.17009061574935913,"84":-0.02174527570605278,"85":-0.20024064183235168,"86":0.09753375500440598,"87":-0.06569259613752365,"88":0.12009741365909576,"89":-0.027491111308336258,"90":-0.16581366956233978,"91":0.14171020686626434,"92":0.1145424023270607,"93":-0.04830283671617508,"94":0.06518061459064484,"95":0.09213284403085709,"96":0.023379884660243988,"97":-0.10019894689321518,"98":0.11510445922613144,"99":0.03124815598130226,"100":-0.10823022574186325,"101":0.12347996979951859,"102":0.1712319254875183,"103":-0.08812976628541946,"104":-0.04216281324625015,"105":0.14840194582939148,"106":-0.19312486052513123,"107":-0.07002391666173935,"108":-0.1450139880180359,"109":0.026791617274284363,"110":0.16790743172168732,"111":-0.1332683563232422,"112":0.058367982506752014,"113":0.18670397996902466,"114":0.02800454944372177}},"21":{"bias":0.026868527755141258,"weights":{"0":0.007955553010106087,"1":0.1650431901216507,"2":0.19792942702770233,"3":0.02354200929403305,"4":0.12656435370445251,"5":-0.031297467648983,"6":-0.053959012031555176,"7":0.08582155406475067,"8":-0.09457293152809143,"9":0.014772164635360241,"10":0.16654212772846222,"11":-0.06135916709899902,"12":-0.019086897373199463,"13":0.04718279838562012,"14":-0.10669361054897308,"15":-0.07900924980640411,"16":-0.08169625699520111,"17":0.01836061105132103,"18":0.05447038263082504,"19":0.15807710587978363,"20":-0.01851438730955124,"21":0.07010678946971893,"22":0.11777734756469727,"23":-0.1607474386692047,"24":-0.2047606259584427,"25":-0.020455241203308105,"26":-0.008064838126301765,"27":0.12046681344509125,"28":0.16276071965694427,"29":0.2317473292350769,"30":-0.02094629406929016,"31":0.051660191267728806,"32":-0.02717319130897522,"33":0.01609540916979313,"34":0.16785182058811188,"35":-0.09850402921438217,"36":-0.1136622354388237,"37":-0.15652133524417877,"38":-0.19367994368076324,"39":-0.1060938686132431,"40":0.05196245014667511,"41":0.22413654625415802,"42":0.23565097153186798,"43":-0.12544766068458557,"44":0.0042493571527302265,"45":-0.1911352425813675,"46":0.022404909133911133,"47":-0.31829550862312317,"48":-0.043166693300008774,"49":-0.16694319248199463,"50":-0.10752488672733307,"51":0.10381488502025604,"52":0.33505648374557495,"53":0.07537584751844406,"54":0.2015368789434433,"55":0.048398323357105255,"56":0.04315800219774246,"57":-0.23354682326316833,"58":-0.5278034210205078,"59":-0.47987040877342224,"60":-0.2750883102416992,"61":0.13380034267902374,"62":0.01121018547564745,"63":-0.0033437330275774,"64":0.5141200423240662,"65":0.09905056655406952,"66":-0.12100502848625183,"67":-0.1755417436361313,"68":-0.04323174059391022,"69":0.0847512036561966,"70":0.013578614220023155,"71":-0.13088445365428925,"72":-0.046946555376052856,"73":0.1624002307653427,"74":-0.050010524690151215,"75":0.17117463052272797,"76":0.023809267207980156,"77":-0.025514040142297745,"78":-0.11748768389225006,"79":0.07340528070926666,"80":-0.08603620529174805,"81":-0.16608193516731262,"82":0.03900324925780296,"83":0.1999407857656479,"84":0.1166377067565918,"85":-0.18433527648448944,"86":-0.01023801788687706,"87":0.19236280024051666,"88":0.08677470684051514,"89":-0.16521988809108734,"90":-0.16013284027576447,"91":0.0290021151304245,"92":-0.09897179901599884,"93":-0.007981978356838226,"94":0.06229008734226227,"95":0.05464376509189606,"96":0.1224895566701889,"97":0.06537637114524841,"98":-0.13798384368419647,"99":-0.028342586010694504,"100":-0.009922207333147526,"101":-0.022634025663137436,"102":-0.16561342775821686,"103":0.1536516696214676,"104":0.028933919966220856,"105":-0.1368490606546402,"106":0.12972767651081085,"107":0.023544292896986008,"108":-0.19771428406238556,"109":0.08419916033744812,"110":0.010142008773982525,"111":0.10603466629981995,"112":-0.07885336875915527,"113":0.16214628517627716,"114":-0.0035976432263851166}},"22":{"bias":0.18915177881717682,"weights":{"0":-0.10559875518083572,"1":0.06864466518163681,"2":0.015819832682609558,"3":-0.13568736612796783,"4":-0.021180592477321625,"5":0.001330637838691473,"6":0.0855455994606018,"7":-0.06624047458171844,"8":0.1284921020269394,"9":0.0975562259554863,"10":-0.05917785316705704,"11":0.06767656654119492,"12":0.10125351697206497,"13":0.14476586878299713,"14":0.16689477860927582,"15":-0.10452952235937119,"16":-0.17240794003009796,"17":0.09614410251379013,"18":0.1623934954404831,"19":-0.12126284092664719,"20":0.10379467159509659,"21":-0.12152665108442307,"22":-0.007203349843621254,"23":-0.06478045135736465,"24":0.1550322026014328,"25":-0.08884437382221222,"26":-0.10167127102613449,"27":0.10891082882881165,"28":-0.0626264214515686,"29":-0.14027732610702515,"30":-0.10054095834493637,"31":-0.2152402698993683,"32":-0.14596675336360931,"33":-0.17184258997440338,"34":-0.006241321098059416,"35":0.26101619005203247,"36":0.12794728577136993,"37":0.11960937827825546,"38":-0.05449087545275688,"39":0.08836427330970764,"40":0.16737307608127594,"41":0.15747711062431335,"42":0.19284091889858246,"43":-0.17409692704677582,"44":-0.10623208433389664,"45":-0.19787190854549408,"46":0.05315495282411575,"47":0.32858607172966003,"48":0.37852180004119873,"49":0.17630629241466522,"50":-0.034683287143707275,"51":-0.13579700887203217,"52":-0.34785374999046326,"53":-0.4266127347946167,"54":-0.10524681955575943,"55":0.13740642368793488,"56":-0.013362045399844646,"57":-0.10422942042350769,"58":0.14637069404125214,"59":0.11309021711349487,"60":-0.059201743453741074,"61":0.012501245364546776,"62":-0.05924173444509506,"63":0.005375321954488754,"64":0.29216745495796204,"65":0.2319650650024414,"66":0.08560274541378021,"67":-0.15842370688915253,"68":0.09697572886943817,"69":-0.11534298211336136,"70":-0.0300693828612566,"71":0.23320257663726807,"72":-0.10102742165327072,"73":0.08912741392850876,"74":-0.17733369767665863,"75":-0.18316462635993958,"76":-0.301566481590271,"77":-0.08456681668758392,"78":-0.20242102444171906,"79":-0.05303537845611572,"80":0.12530536949634552,"81":0.18283648788928986,"82":-0.12315790355205536,"83":-0.01777120679616928,"84":-0.16928638517856598,"85":-0.08469799906015396,"86":0.02470274642109871,"87":0.1978493481874466,"88":0.013731414452195168,"89":-0.16366012394428253,"90":-0.07240544259548187,"91":-0.06630238890647888,"92":0.1364109069108963,"93":-0.10913325101137161,"94":-0.10522914677858353,"95":0.12334771454334259,"96":-0.029870079830288887,"97":0.041811343282461166,"98":-0.09213315695524216,"99":-0.10820136219263077,"100":0.014848579652607441,"101":0.1586751490831375,"102":-0.012878098525106907,"103":-0.16287671029567719,"104":-0.07438182085752487,"105":0.11656000465154648,"106":-0.00903595145791769,"107":0.12911909818649292,"108":-0.0003172559372615069,"109":-0.1859397441148758,"110":0.10182420164346695,"111":-0.00976705364882946,"112":0.06255370378494263,"113":-0.1082548201084137,"114":0.0752105787396431}},"23":{"bias":-0.19259554147720337,"weights":{"0":0.13553297519683838,"1":-0.02916642092168331,"2":-0.004389285109937191,"3":0.002355191158130765,"4":0.1686481237411499,"5":-0.045600440353155136,"6":0.11233091354370117,"7":0.04357670620083809,"8":-0.04411403462290764,"9":0.13510724902153015,"10":-0.07781466096639633,"11":0.006283071357756853,"12":-0.029659541323781013,"13":-0.07819637656211853,"14":-0.07691283524036407,"15":0.03583190590143204,"16":0.009548529982566833,"17":-0.17382991313934326,"18":0.08804377168416977,"19":-0.1213979721069336,"20":-0.047417473047971725,"21":0.06628013402223587,"22":-0.16043013334274292,"23":-0.1476278156042099,"24":0.06305857002735138,"25":0.08292476087808609,"26":0.1633380651473999,"27":0.13887470960617065,"28":-0.1621982753276825,"29":0.20797009766101837,"30":0.005682827439159155,"31":0.12918604910373688,"32":-0.12211668491363525,"33":-0.04521148279309273,"34":-0.09381663054227829,"35":0.022569827735424042,"36":-0.22702358663082123,"37":-0.026303978636860847,"38":0.14033231139183044,"39":-0.07565519958734512,"40":0.024013632908463478,"41":-0.17071615159511566,"42":-0.09068762511014938,"43":-0.007812845520675182,"44":0.19912666082382202,"45":-0.11133779585361481,"46":0.030007168650627136,"47":0.25951117277145386,"48":0.4311770796775818,"49":0.1515536904335022,"50":-0.10741067677736282,"51":0.07677687704563141,"52":0.36885756254196167,"53":0.37117403745651245,"54":0.2317827194929123,"55":0.18975943326950073,"56":-0.16149574518203735,"57":0.16654033958911896,"58":-0.29807665944099426,"59":-0.32144710421562195,"60":0.12271782010793686,"61":-0.061798423528671265,"62":0.1861274242401123,"63":-0.28557273745536804,"64":-0.467816561460495,"65":-0.2624238431453705,"66":-0.17826467752456665,"67":-0.16879811882972717,"68":0.033048115670681,"69":-0.08356910943984985,"70":0.1904246062040329,"71":-0.019900748506188393,"72":0.09849287569522858,"73":-0.17193040251731873,"74":-0.037073541432619095,"75":-0.0006922236061654985,"76":0.06563987582921982,"77":0.12815001606941223,"78":0.11895278841257095,"79":0.011188637465238571,"80":-0.06451848894357681,"81":-0.2760980427265167,"82":0.04352263733744621,"83":0.18680638074874878,"84":-0.18998128175735474,"85":0.020884813740849495,"86":-0.23754476010799408,"87":-0.07128407806158066,"88":-0.0843777060508728,"89":-0.02117403782904148,"90":0.08571797609329224,"91":-0.15206074714660645,"92":0.07621553540229797,"93":-0.11793434619903564,"94":-0.06659872829914093,"95":-0.001520179328508675,"96":-0.10297243297100067,"97":0.05784643068909645,"98":-0.07554662972688675,"99":0.14995700120925903,"100":0.11286205798387527,"101":0.07141108065843582,"102":0.09153062850236893,"103":0.07443867623806,"104":0.12988503277301788,"105":-0.05001707747578621,"106":0.07462877035140991,"107":0.16003873944282532,"108":0.15197372436523438,"109":0.036579813808202744,"110":-0.1047697514295578,"111":-0.06556254625320435,"112":-0.08142577856779099,"113":0.12028901278972626,"114":-0.12495823949575424}},"24":{"bias":0.0879191979765892,"weights":{"0":0.06766841560602188,"1":0.007204375229775906,"2":-0.006320411339402199,"3":-0.10004203766584396,"4":0.10200110077857971,"5":0.061135172843933105,"6":0.20642560720443726,"7":-0.08202231675386429,"8":0.19479651749134064,"9":0.1196586936712265,"10":-0.0986161157488823,"11":-0.18276844918727875,"12":0.004811474587768316,"13":0.11170391738414764,"14":0.06353574246168137,"15":0.11462550610303879,"16":-0.1581902801990509,"17":-0.17086026072502136,"18":0.12247758358716965,"19":-0.009937996044754982,"20":-0.13697484135627747,"21":0.14390075206756592,"22":0.1366775780916214,"23":-0.06132762134075165,"24":0.3387617766857147,"25":0.3073514401912689,"26":0.1631847321987152,"27":-0.09776356816291809,"28":0.05028851330280304,"29":-0.18731574714183807,"30":-0.09067080914974213,"31":0.07896772772073746,"32":0.08121498674154282,"33":0.024838201701641083,"34":0.013412382453680038,"35":-0.19237132370471954,"36":-0.14870932698249817,"37":0.14313162863254547,"38":-0.14295794069766998,"39":-0.04020362347364426,"40":0.12921930849552155,"41":0.026516323909163475,"42":-0.050064705312252045,"43":0.0008395459153689444,"44":-0.013679705560207367,"45":0.060917891561985016,"46":-0.0015806140145286918,"47":0.45307639241218567,"48":0.5301151871681213,"49":0.12283847481012344,"50":-0.14271467924118042,"51":-0.04886416345834732,"52":0.04083166643977165,"53":-0.08001916855573654,"54":-0.2232893854379654,"55":0.06888508796691895,"56":-0.07658194750547409,"57":-0.0429878868162632,"58":-0.2443620264530182,"59":-0.14984135329723358,"60":0.10802416503429413,"61":0.08850223571062088,"62":0.1494419276714325,"63":-0.1860595941543579,"64":-0.1633332222700119,"65":-0.240742027759552,"66":0.1143486350774765,"67":-0.06582047045230865,"68":-0.07602009922266006,"69":0.11709193885326385,"70":0.31951165199279785,"71":0.2676214873790741,"72":-0.06726684421300888,"73":-0.08941803127527237,"74":-0.037072256207466125,"75":-0.06298799812793732,"76":-0.2666631042957306,"77":0.03855739161372185,"78":0.21068088710308075,"79":0.053680576384067535,"80":-0.1490093469619751,"81":-0.23644576966762543,"82":0.011371875181794167,"83":-0.009871473535895348,"84":-0.011681126430630684,"85":0.009170569479465485,"86":0.05841344594955444,"87":-0.18977133929729462,"88":0.01734302192926407,"89":-0.011965405195951462,"90":0.16757182776927948,"91":-0.10937625169754028,"92":0.12740029394626617,"93":-0.0019419931340962648,"94":0.08147674798965454,"95":-0.1655600219964981,"96":-0.18283025920391083,"97":-0.023602508008480072,"98":-0.12083714455366135,"99":0.01746874675154686,"100":0.19132806360721588,"101":-0.06430418789386749,"102":0.12745407223701477,"103":-0.014423225075006485,"104":-0.08747190982103348,"105":-0.10322531312704086,"106":0.07091733813285828,"107":-0.05835819989442825,"108":-0.09433402866125107,"109":-0.12471123039722443,"110":0.10250972956418991,"111":0.1520548015832901,"112":-0.16284897923469543,"113":-0.1299455314874649,"114":0.04523176699876785}},"25":{"bias":-0.16655318439006805,"weights":{"0":0.17605863511562347,"1":0.20214544236660004,"2":-0.16429276764392853,"3":0.11009247601032257,"4":-0.09286957234144211,"5":0.14528320729732513,"6":0.03194748982787132,"7":0.197391077876091,"8":0.08546248078346252,"9":0.05741763487458229,"10":-0.16226376593112946,"11":0.15598328411579132,"12":-0.08883663266897202,"13":-0.06764870882034302,"14":0.18508712947368622,"15":0.11732214689254761,"16":-0.17381076514720917,"17":0.042428817600011826,"18":0.025481246411800385,"19":-0.0045199464075267315,"20":-0.139375701546669,"21":-0.05523010715842247,"22":-0.025860248133540154,"23":0.20170649886131287,"24":0.14136630296707153,"25":-0.18884055316448212,"26":-0.13670875132083893,"27":0.04378339275717735,"28":-0.09581876546144485,"29":0.08653426915407181,"30":-0.15456874668598175,"31":0.007655073422938585,"32":-0.044096689671278,"33":-0.010575555264949799,"34":0.1857955902814865,"35":-0.07657794654369354,"36":-0.2190905064344406,"37":-0.17617599666118622,"38":-0.13525529205799103,"39":0.1337546706199646,"40":0.008996893651783466,"41":0.04500679671764374,"42":0.11334167420864105,"43":-0.0631483793258667,"44":-0.10360949486494064,"45":-0.13738353550434113,"46":0.14618045091629028,"47":-0.22781971096992493,"48":-0.0228219423443079,"49":-0.13630789518356323,"50":-0.06751374155282974,"51":0.019788363948464394,"52":-0.09736017137765884,"53":-0.22028200328350067,"54":-0.252239465713501,"55":0.017953673377633095,"56":-0.12255996465682983,"57":-0.1773069202899933,"58":0.046703826636075974,"59":-0.22831104695796967,"60":-0.007964493706822395,"61":-0.05497448518872261,"62":0.09747818112373352,"63":0.1435098499059677,"64":0.5377023816108704,"65":0.26514169573783875,"66":0.12486383318901062,"67":0.028262905776500702,"68":0.12948192656040192,"69":-0.03812936320900917,"70":0.1358112394809723,"71":0.09783027321100235,"72":-0.1347733736038208,"73":-0.004645864944905043,"74":0.06472192704677582,"75":-0.028400013223290443,"76":-0.19105175137519836,"77":-0.07746485620737076,"78":-0.10102588683366776,"79":-0.015385222621262074,"80":0.16447414457798004,"81":-0.10371236503124237,"82":0.008924233727157116,"83":0.15865741670131683,"84":-0.06195972487330437,"85":-0.17190589010715485,"86":0.0852251648902893,"87":0.12244405597448349,"88":0.06672053784132004,"89":0.17302341759204865,"90":-0.15637673437595367,"91":0.06913425028324127,"92":0.1454477161169052,"93":-0.15302889049053192,"94":-0.1634790450334549,"95":0.20702694356441498,"96":-0.09851784259080887,"97":-0.03790641203522682,"98":-0.06927506625652313,"99":0.08802366256713867,"100":0.10414689034223557,"101":-0.17178626358509064,"102":0.049886252731084824,"103":-0.03933095559477806,"104":0.12867285311222076,"105":-0.043193016201257706,"106":-0.045776885002851486,"107":0.14664797484874725,"108":0.1518918126821518,"109":-0.10727854818105698,"110":0.10320471227169037,"111":0.19724808633327484,"112":-0.1438349038362503,"113":0.020717784762382507,"114":0.14353440701961517}},"26":{"bias":-0.11503114551305771,"weights":{"0":0.08591233938932419,"1":0.1485428661108017,"2":-0.1190689280629158,"3":-0.1901244819164276,"4":0.07708536088466644,"5":0.10771849006414413,"6":0.004129720851778984,"7":0.17149528861045837,"8":-0.05524805560708046,"9":-0.018593139946460724,"10":0.07537515461444855,"11":0.14879350364208221,"12":0.10501838475465775,"13":-0.036540985107421875,"14":-0.13320504128932953,"15":-0.10837063938379288,"16":0.10264454036951065,"17":-0.06448435038328171,"18":0.01122442539781332,"19":0.2067941129207611,"20":-0.10916455835103989,"21":0.1876782476902008,"22":0.09767960757017136,"23":-0.010018037632107735,"24":-0.12906213104724884,"25":-0.08515069633722305,"26":0.08069265633821487,"27":0.08735779672861099,"28":0.0022061229683458805,"29":0.11990270018577576,"30":0.0008736153249628842,"31":0.01857890374958515,"32":0.118720643222332,"33":-0.0033257354516535997,"34":-0.13563497364521027,"35":0.18559572100639343,"36":-0.051635704934597015,"37":-0.14441893994808197,"38":0.11238809674978256,"39":-0.03438568860292435,"40":0.10339228808879852,"41":-0.16037718951702118,"42":-0.23014751076698303,"43":0.10860175639390945,"44":0.04580489173531532,"45":-0.06395340710878372,"46":0.09323427826166153,"47":0.05283646658062935,"48":0.04354945942759514,"49":0.06005695089697838,"50":-0.1119621992111206,"51":-0.02524297498166561,"52":-0.07976015657186508,"53":-0.29448527097702026,"54":0.014166745357215405,"55":0.11799968034029007,"56":-0.08700836449861526,"57":-0.09084613621234894,"58":0.17824898660182953,"59":0.3282346725463867,"60":0.03135550022125244,"61":0.021354421973228455,"62":-0.13045106828212738,"63":-0.2400577962398529,"64":-0.10716019570827484,"65":-0.045721061527729034,"66":0.03011479787528515,"67":-0.12387063354253769,"68":-0.02193600870668888,"69":0.10503063350915909,"70":-0.008331114426255226,"71":-0.18339179456233978,"72":-0.1409347504377365,"73":-0.11594339460134506,"74":0.16560323536396027,"75":-0.2080729901790619,"76":-0.25777867436408997,"77":0.16168183088302612,"78":-0.11825580149888992,"79":0.07546794414520264,"80":-0.18456628918647766,"81":0.16858512163162231,"82":0.0038655237294733524,"83":-0.12225115299224854,"84":0.16751925647258759,"85":-0.17024977505207062,"86":-0.204009547829628,"87":-0.1025124341249466,"88":-0.026267722249031067,"89":0.11334238201379776,"90":0.11224260181188583,"91":0.14090411365032196,"92":-0.1645462065935135,"93":-0.16663546860218048,"94":0.054041557013988495,"95":0.17044392228126526,"96":-0.15187935531139374,"97":0.03100525215268135,"98":0.10900809615850449,"99":0.12476257979869843,"100":0.013547834940254688,"101":0.16898629069328308,"102":0.016123337671160698,"103":0.0704217180609703,"104":-0.08009564131498337,"105":0.1366724669933319,"106":0.07479801028966904,"107":0.07440830767154694,"108":0.1879623830318451,"109":-0.04477729648351669,"110":-0.01878983899950981,"111":-0.1283462643623352,"112":0.1770418882369995,"113":-0.041014738380908966,"114":-0.11656046658754349}},"27":{"bias":0.12597790360450745,"weights":{"0":0.05856747925281525,"1":0.020165476948022842,"2":-0.14101003110408783,"3":0.020757388323545456,"4":-0.1389164924621582,"5":0.0823659673333168,"6":-0.023961029946804047,"7":-0.06572506576776505,"8":0.07296643406152725,"9":0.18344533443450928,"10":-0.009227984584867954,"11":0.17381496727466583,"12":0.14533069729804993,"13":-0.1051962599158287,"14":0.0040717353112995625,"15":0.11244872957468033,"16":0.0499989353120327,"17":-0.11351648718118668,"18":0.09603006392717361,"19":-0.05352961644530296,"20":0.03148515522480011,"21":-0.09972748905420303,"22":-0.11920375376939774,"23":-0.1138836219906807,"24":0.17298777401447296,"25":0.1275762915611267,"26":-0.0659194141626358,"27":0.13826806843280792,"28":-0.06513974815607071,"29":0.16171422600746155,"30":0.26818761229515076,"31":0.04560574144124985,"32":-0.008814934641122818,"33":-0.06594450771808624,"34":-0.13152208924293518,"35":-0.46500158309936523,"36":-0.4048539698123932,"37":0.04863578453660011,"38":0.151155024766922,"39":-0.09449087828397751,"40":0.10068068653345108,"41":-0.2624814808368683,"42":-0.12915240228176117,"43":-0.04149680212140083,"44":0.13628330826759338,"45":-0.055467959493398666,"46":-0.08596686273813248,"47":0.39277219772338867,"48":0.38933825492858887,"49":-0.025829482823610306,"50":-0.18268246948719025,"51":-0.07582957297563553,"52":0.47110337018966675,"53":0.6921811699867249,"54":0.5111928582191467,"55":-0.008703978732228279,"56":-0.09428628534078598,"57":0.022085528820753098,"58":-0.4373742640018463,"59":-0.5811898708343506,"60":-0.15157751739025116,"61":0.0706477239727974,"62":-0.08684038370847702,"63":-0.2216046005487442,"64":-0.4692314565181732,"65":-0.17613303661346436,"66":0.04268345609307289,"67":-0.04785870388150215,"68":0.16547372937202454,"69":0.16580943763256073,"70":0.19459572434425354,"71":0.23675909638404846,"72":0.15683120489120483,"73":-0.05210475996136665,"74":0.1944631040096283,"75":0.18583011627197266,"76":0.4502328038215637,"77":0.24495355784893036,"78":-0.0868978276848793,"79":0.005237882025539875,"80":0.18036554753780365,"81":-0.28623300790786743,"82":-0.1772863268852234,"83":-0.17614945769309998,"84":0.04300879314541817,"85":-0.07390797883272171,"86":-0.21883663535118103,"87":-0.30582335591316223,"88":-0.10588696599006653,"89":0.140471950173378,"90":0.05015220120549202,"91":-0.0008290350087918341,"92":-0.09869400411844254,"93":0.010367644019424915,"94":0.05096394196152687,"95":-0.02411762997508049,"96":-0.12129988521337509,"97":-0.10440660268068314,"98":0.019939623773097992,"99":-0.14020976424217224,"100":0.1280166208744049,"101":0.09095052629709244,"102":-0.05739111825823784,"103":-0.09702732414007187,"104":-0.17180702090263367,"105":-0.14781899750232697,"106":0.03616305813193321,"107":0.14231476187705994,"108":-0.0765179917216301,"109":-0.08137353509664536,"110":0.14109736680984497,"111":-0.0554334856569767,"112":0.12140069156885147,"113":-0.15805940330028534,"114":0.02064686268568039}},"28":{"bias":-0.18857967853546143,"weights":{"0":-0.05905358865857124,"1":0.06342365592718124,"2":0.1327601820230484,"3":0.20047494769096375,"4":0.0766962543129921,"5":-0.0034452106337994337,"6":-0.10974229127168655,"7":0.19357798993587494,"8":-0.053205374628305435,"9":-0.16767041385173798,"10":0.0254384633153677,"11":0.04938090220093727,"12":0.10801345854997635,"13":0.01170226838439703,"14":0.10628608614206314,"15":0.13043895363807678,"16":-0.18870382010936737,"17":0.11234734207391739,"18":0.060030657798051834,"19":-0.07148853689432144,"20":-0.17840738594532013,"21":-0.11992431432008743,"22":-0.06343300640583038,"23":-0.05227361246943474,"24":0.15009331703186035,"25":0.19108112156391144,"26":0.05672857537865639,"27":-0.06387878209352493,"28":0.13314947485923767,"29":-0.21619130671024323,"30":-0.05933038145303726,"31":0.007433492690324783,"32":-0.19337449967861176,"33":-0.09537342935800552,"34":0.17452800273895264,"35":-0.12671948969364166,"36":-0.33207806944847107,"37":0.09595467895269394,"38":0.12619756162166595,"39":-0.05653933063149452,"40":-0.06490658968687057,"41":0.23772740364074707,"42":0.3196089267730713,"43":-0.1074332520365715,"44":0.14500632882118225,"45":-0.06607312709093094,"46":0.10201924294233322,"47":0.1674579232931137,"48":0.05511215329170227,"49":-0.016665276139974594,"50":0.10897468775510788,"51":-0.01765732280910015,"52":-0.1899421662092209,"53":-0.16622570157051086,"54":0.06780357658863068,"55":0.04754045233130455,"56":-0.1907423734664917,"57":0.05826609581708908,"58":-0.46267661452293396,"59":-0.28770503401756287,"60":-0.18010078370571136,"61":0.11470501869916916,"62":0.058282461017370224,"63":0.19422951340675354,"64":0.3312722146511078,"65":0.08171039074659348,"66":-0.14155088365077972,"67":-0.1237664669752121,"68":-0.1504628211259842,"69":0.029302319511771202,"70":0.3066987097263336,"71":0.25296884775161743,"72":0.07279272377490997,"73":-0.17300179600715637,"74":-0.11534572392702103,"75":0.02760009467601776,"76":0.028421124443411827,"77":-0.030175480991601944,"78":0.0631660670042038,"79":0.07331613451242447,"80":0.1402679830789566,"81":-0.18301516771316528,"82":-0.2158602774143219,"83":-0.01304852869361639,"84":-0.050886351615190506,"85":-0.12893681228160858,"86":0.3602447509765625,"87":0.046927012503147125,"88":0.2062140554189682,"89":-0.0921202078461647,"90":-0.1813170164823532,"91":0.15590713918209076,"92":-0.14394833147525787,"93":-0.028771501034498215,"94":-0.1216350570321083,"95":0.16145528852939606,"96":-0.19380055367946625,"97":-0.052512187510728836,"98":0.11877479404211044,"99":0.030487950891256332,"100":0.047244664281606674,"101":-0.12174511700868607,"102":-0.0000515212923346553,"103":-0.1237662136554718,"104":0.1836804747581482,"105":-0.19223958253860474,"106":0.028535021468997,"107":-0.00033676030579954386,"108":0.05138644948601723,"109":-0.06064346805214882,"110":0.05816325917840004,"111":0.14703302085399628,"112":0.16575047373771667,"113":-0.19376087188720703,"114":-0.1898907721042633}},"29":{"bias":0.13244213163852692,"weights":{"0":0.18777567148208618,"1":0.04230186343193054,"2":-0.023949284106492996,"3":0.023576639592647552,"4":0.05640631914138794,"5":-0.09286340326070786,"6":-0.11004550755023956,"7":-0.08301899582147598,"8":0.19107367098331451,"9":-0.16432735323905945,"10":-0.17085428535938263,"11":0.1430845558643341,"12":-0.07987666875123978,"13":-0.0729668140411377,"14":-0.013807235285639763,"15":-0.0032972642220556736,"16":-0.17429600656032562,"17":0.07208094000816345,"18":-0.13536445796489716,"19":0.13718421757221222,"20":0.07592443376779556,"21":0.09348849952220917,"22":0.14106367528438568,"23":-0.09419545531272888,"24":0.08090079575777054,"25":-0.15585578978061676,"26":-0.11852576583623886,"27":-0.06490259617567062,"28":-0.09508736431598663,"29":0.21792341768741608,"30":0.15895582735538483,"31":-0.005198436789214611,"32":0.16596487164497375,"33":0.015773171558976173,"34":-0.07764662057161331,"35":0.2645301818847656,"36":0.019108286127448082,"37":-0.1557791829109192,"38":-0.16707906126976013,"39":-0.1766621619462967,"40":0.03735056146979332,"41":-0.1443636119365692,"42":0.03952839970588684,"43":-0.03229192644357681,"44":-0.12815162539482117,"45":-0.11631161719560623,"46":-0.03333853930234909,"47":-0.26204466819763184,"48":-0.2866462171077728,"49":-0.14944039285182953,"50":-0.1411767452955246,"51":-0.054909273982048035,"52":0.3792014420032501,"53":0.24353623390197754,"54":0.34015071392059326,"55":-0.14173637330532074,"56":0.19704990088939667,"57":0.06304670125246048,"58":0.18870487809181213,"59":0.1290915608406067,"60":0.01648806594312191,"61":0.06498367339372635,"62":0.07873346656560898,"63":-0.18360477685928345,"64":-0.24472081661224365,"65":-0.24917200207710266,"66":0.13283684849739075,"67":-0.06440898030996323,"68":-0.0696842223405838,"69":-0.08813559263944626,"70":-0.1800982654094696,"71":-0.01616649515926838,"72":0.1782391369342804,"73":0.19309133291244507,"74":-0.10832437127828598,"75":0.1288178563117981,"76":0.18640345335006714,"77":0.21630537509918213,"78":-0.15606138110160828,"79":-0.001586882397532463,"80":0.06819601356983185,"81":-0.06214769929647446,"82":-0.0436866320669651,"83":0.002816794440150261,"84":0.014732930809259415,"85":-0.16972027719020844,"86":-0.2728271484375,"87":-0.3150692582130432,"88":0.02711169607937336,"89":-0.09802966564893723,"90":0.11671354621648788,"91":0.0036397306248545647,"92":-0.0325000137090683,"93":-0.18469540774822235,"94":0.13579706847667694,"95":-0.1279660314321518,"96":0.1651965230703354,"97":-0.09125582128763199,"98":0.09337449818849564,"99":0.06539406627416611,"100":0.05389935523271561,"101":-0.011944437399506569,"102":0.15815691649913788,"103":-0.1037476658821106,"104":0.0903981477022171,"105":0.05656694620847702,"106":0.1619577258825302,"107":-0.026643870398402214,"108":0.07811800390481949,"109":-0.03351800888776779,"110":-0.11501025408506393,"111":0.19348280131816864,"112":0.03970128297805786,"113":0.1526867300271988,"114":0.10230112820863724}},"30":{"bias":0.16263239085674286,"weights":{"0":-0.15944169461727142,"1":-0.19023014605045319,"2":-0.0720483660697937,"3":-0.20011532306671143,"4":-0.1933450996875763,"5":-0.013267423026263714,"6":0.14169171452522278,"7":-0.009901190176606178,"8":0.1294812709093094,"9":-0.06511270254850388,"10":-0.06657044589519501,"11":0.11286570131778717,"12":-0.06792786717414856,"13":0.05804697796702385,"14":-0.07195881009101868,"15":0.08164648711681366,"16":0.05118140950798988,"17":0.0400896854698658,"18":-0.19251112639904022,"19":0.12673811614513397,"20":0.18259063363075256,"21":0.035354819148778915,"22":0.06078074499964714,"23":0.009174897335469723,"24":0.1469368040561676,"25":-0.0981772392988205,"26":0.16195666790008545,"27":-0.024898305535316467,"28":0.06622787564992905,"29":0.17237478494644165,"30":-0.03140433132648468,"31":-0.20117957890033722,"32":0.17566779255867004,"33":0.0038290605880320072,"34":-0.002755895024165511,"35":0.12695856392383575,"36":-0.15175198018550873,"37":0.09786542505025864,"38":-0.03348085656762123,"39":-0.14399048686027527,"40":0.12457967549562454,"41":-0.03436790034174919,"42":-0.015142431482672691,"43":-0.1546081006526947,"44":0.14357717335224152,"45":-0.19013753533363342,"46":-0.09612420201301575,"47":0.17453500628471375,"48":0.3682786822319031,"49":-0.011901339516043663,"50":-0.18147766590118408,"51":-0.1356700211763382,"52":0.08777476102113724,"53":-0.15486712753772736,"54":0.016019359230995178,"55":0.1859227865934372,"56":0.14072664082050323,"57":-0.06614767760038376,"58":-0.0719492956995964,"59":-0.13023735582828522,"60":-0.08670000731945038,"61":0.1666974276304245,"62":0.1338527500629425,"63":0.09629321098327637,"64":-0.21704791486263275,"65":-0.2986506223678589,"66":0.0616501159965992,"67":-0.031241750344634056,"68":0.08686041831970215,"69":0.1280210316181183,"70":0.026968028396368027,"71":0.06833409518003464,"72":-0.08665461093187332,"73":-0.06722848862409592,"74":0.10497081279754639,"75":0.09516897797584534,"76":-0.08255372196435928,"77":-0.03498009219765663,"78":0.18699334561824799,"79":0.1467040777206421,"80":0.007528122514486313,"81":-0.19554603099822998,"82":-0.10761463642120361,"83":-0.08486329764127731,"84":-0.023796841502189636,"85":-0.051222216337919235,"86":-0.23041170835494995,"87":-0.19023370742797852,"88":0.1270403265953064,"89":0.04678038880228996,"90":0.10505553334951401,"91":-0.1665424108505249,"92":0.15021511912345886,"93":0.13814692199230194,"94":0.01949075236916542,"95":-0.09993511438369751,"96":0.0431164912879467,"97":0.13424824178218842,"98":-0.06289993226528168,"99":-0.11531698703765869,"100":0.03145356476306915,"101":-0.03708484396338463,"102":0.027193132787942886,"103":-0.08726633340120316,"104":-0.048921409994363785,"105":0.08413606882095337,"106":-0.14475460350513458,"107":0.08816418051719666,"108":0.1740192174911499,"109":-0.17531664669513702,"110":0.01087743416428566,"111":0.07893094420433044,"112":0.07105786353349686,"113":-0.12878520786762238,"114":0.15548250079154968}},"31":{"bias":-0.009600704535841942,"weights":{"0":-0.07372891902923584,"1":-0.17165781557559967,"2":-0.035385843366384506,"3":0.06716209650039673,"4":0.08077290654182434,"5":-0.16912025213241577,"6":0.11412155628204346,"7":-0.06677991151809692,"8":0.11710454523563385,"9":-0.026607953011989594,"10":-0.005492764990776777,"11":0.009418919682502747,"12":0.09737555682659149,"13":0.1503303498029709,"14":-0.14935466647148132,"15":0.034563980996608734,"16":0.05044522508978844,"17":-0.12045878171920776,"18":0.08488813042640686,"19":-0.06965270638465881,"20":0.058683786541223526,"21":-0.008541969582438469,"22":0.025452643632888794,"23":-0.17510457336902618,"24":0.030276289209723473,"25":0.09291625767946243,"26":0.20130015909671783,"27":0.12373071908950806,"28":0.054065871983766556,"29":-0.04617464169859886,"30":-0.0025963904336094856,"31":0.19485990703105927,"32":-0.1766926497220993,"33":-0.0758274644613266,"34":0.19505763053894043,"35":-0.22954340279102325,"36":0.1412832885980606,"37":0.09697835147380829,"38":-0.05569208785891533,"39":-0.16168861091136932,"40":-0.14664249122142792,"41":0.0433003231883049,"42":0.03556668385863304,"43":-0.019827518612146378,"44":0.17589417099952698,"45":-0.07602845132350922,"46":0.1751638799905777,"47":0.2626635432243347,"48":0.2992614805698395,"49":0.14992010593414307,"50":0.06990323960781097,"51":-0.03777361288666725,"52":-0.22597378492355347,"53":-0.027417702600359917,"54":-0.013720039278268814,"55":-0.05666564032435417,"56":0.015220103785395622,"57":-0.08404041826725006,"58":-0.003057090099900961,"59":-0.1338958889245987,"60":-0.13538271188735962,"61":-0.1287676990032196,"62":-0.03799942508339882,"63":0.03628675267100334,"64":-0.08694957196712494,"65":-0.08664107322692871,"66":-0.17145666480064392,"67":0.027824588119983673,"68":0.13566693663597107,"69":0.17594587802886963,"70":0.14334137737751007,"71":0.08010614663362503,"72":-0.05261647328734398,"73":0.14979778230190277,"74":0.10790273547172546,"75":0.034616414457559586,"76":-0.12271376699209213,"77":0.08317548036575317,"78":-0.009722523391246796,"79":0.051975641399621964,"80":0.1399298906326294,"81":-0.11817087233066559,"82":0.09158487617969513,"83":-0.18933378159999847,"84":-0.15490937232971191,"85":-0.020108990371227264,"86":-0.06307154148817062,"87":0.14062394201755524,"88":-0.02453485131263733,"89":-0.18359366059303284,"90":-0.0746428370475769,"91":-0.0653127133846283,"92":0.16542887687683105,"93":0.019130663946270943,"94":-0.13446152210235596,"95":0.1443912833929062,"96":-0.000904798274859786,"97":0.19643047451972961,"98":0.11792208254337311,"99":-0.13394193351268768,"100":0.06480218470096588,"101":-0.05851440504193306,"102":0.1098404973745346,"103":-0.011185115203261375,"104":-0.01758570969104767,"105":-0.06649582087993622,"106":0.021078720688819885,"107":-0.15642642974853516,"108":-0.06004263833165169,"109":0.11767047643661499,"110":-0.10164056718349457,"111":-0.1585524082183838,"112":0.044102128595113754,"113":0.09042756259441376,"114":-0.18024291098117828}},"32":{"bias":0.11697260290384293,"weights":{"0":-0.11859190464019775,"1":-0.1651930809020996,"2":-0.15159155428409576,"3":0.18641212582588196,"4":-0.04809105023741722,"5":-0.08887931704521179,"6":0.11187081038951874,"7":0.0691135823726654,"8":-0.07827100157737732,"9":-0.013476408086717129,"10":0.1700780689716339,"11":-0.11342307925224304,"12":-0.0864826887845993,"13":0.0933031290769577,"14":-0.14936283230781555,"15":0.018362751230597496,"16":-0.1003963053226471,"17":-0.057624850422143936,"18":0.012660418637096882,"19":-0.18194252252578735,"20":0.12650327384471893,"21":-0.04279348626732826,"22":-0.13021034002304077,"23":0.08885274082422256,"24":-0.20744086802005768,"25":-0.0013511569704860449,"26":0.08966068923473358,"27":-0.07590663433074951,"28":0.09553653001785278,"29":0.2667824923992157,"30":0.389482319355011,"31":0.021884627640247345,"32":-0.07346466183662415,"33":0.06592603027820587,"34":0.14060629904270172,"35":0.10735508799552917,"36":0.2900477945804596,"37":0.04923395439982414,"38":-0.019351458176970482,"39":-0.16487829387187958,"40":0.13126523792743683,"41":-0.33331575989723206,"42":-0.3669825792312622,"43":-0.10502532124519348,"44":-0.07430630922317505,"45":-0.1782948076725006,"46":0.08922138810157776,"47":0.03934592753648758,"48":-0.02623898722231388,"49":0.17902551591396332,"50":-0.09291557967662811,"51":0.14974012970924377,"52":0.15085868537425995,"53":0.5082188248634338,"54":0.049775391817092896,"55":0.150194451212883,"56":0.1366460770368576,"57":0.113261878490448,"58":-0.08903391659259796,"59":-0.023593710735440254,"60":0.11910141259431839,"61":0.012281504459679127,"62":0.15828822553157806,"63":-0.09693730622529984,"64":-0.6017964482307434,"65":-0.09196700155735016,"66":-0.10326874256134033,"67":-0.016947519034147263,"68":-0.0777740329504013,"69":-0.14827345311641693,"70":-0.05285043269395828,"71":-0.0001989019801840186,"72":0.15110774338245392,"73":-0.19034212827682495,"74":0.008584071882069111,"75":0.3044212758541107,"76":0.3972770869731903,"77":0.22051309049129486,"78":-0.08075430989265442,"79":-0.12545199692249298,"80":0.08866937458515167,"81":0.19378753006458282,"82":-0.08498192578554153,"83":-0.11628022789955139,"84":-0.0017377627082169056,"85":0.10416093468666077,"86":-0.2735579311847687,"87":-0.4408232867717743,"88":-0.03767188638448715,"89":0.16251049935817719,"90":0.11226093769073486,"91":0.07823164761066437,"92":0.0435144267976284,"93":-0.13799993693828583,"94":-0.00003242782622692175,"95":0.12769320607185364,"96":0.11368007957935333,"97":0.03811252489686012,"98":-0.20096711814403534,"99":0.01412663422524929,"100":-0.11794516444206238,"101":-0.06717108190059662,"102":-0.17813743650913239,"103":0.009057977236807346,"104":-0.012239071540534496,"105":0.1368257999420166,"106":-0.18976514041423798,"107":0.008850239217281342,"108":0.0286447424441576,"109":-0.06068805605173111,"110":-0.04886510595679283,"111":-0.1832764744758606,"112":-0.10962232947349548,"113":0.10211002826690674,"114":0.15187235176563263}},"33":{"bias":0.0018662787042558193,"weights":{"0":-0.16985829174518585,"1":0.07474979013204575,"2":-0.13512034714221954,"3":0.16379044950008392,"4":0.033085793256759644,"5":0.10088153183460236,"6":-0.039062388241291046,"7":0.04882050305604935,"8":-0.1828988492488861,"9":-0.18537434935569763,"10":-0.10697495192289352,"11":0.13917510211467743,"12":-0.04160028696060181,"13":-0.163229838013649,"14":-0.07524507492780685,"15":-0.017758116126060486,"16":0.15734964609146118,"17":0.1490475982427597,"18":0.03401809558272362,"19":-0.02008436992764473,"20":-0.01680881157517433,"21":0.15650030970573425,"22":0.18304508924484253,