{"sizes":[115,57,4],"layers":[{"0":{},"1":{},"2":{},"3":{},"4":{},"5":{},"6":{},"7":{},"8":{},"9":{},"10":{},"11":{},"12":{},"13":{},"14":{},"15":{},"16":{},"17":{},"18":{},"19":{},"20":{},"21":{},"22":{},"23":{},"24":{},"25":{},"26":{},"27":{},"28":{},"29":{},"30":{},"31":{},"32":{},"33":{},"34":{},"35":{},"36":{},"37":{},"38":{},"39":{},"40":{},"41":{},"42":{},"43":{},"44":{},"45":{},"46":{},"47":{},"48":{},"49":{},"50":{},"51":{},"52":{},"53":{},"54":{},"55":{},"56":{},"57":{},"58":{},"59":{},"60":{},"61":{},"62":{},"63":{},"64":{},"65":{},"66":{},"67":{},"68":{},"69":{},"70":{},"71":{},"72":{},"73":{},"74":{},"75":{},"76":{},"77":{},"78":{},"79":{},"80":{},"81":{},"82":{},"83":{},"84":{},"85":{},"86":{},"87":{},"88":{},"89":{},"90":{},"91":{},"92":{},"93":{},"94":{},"95":{},"96":{},"97":{},"98":{},"99":{},"100":{},"101":{},"102":{},"103":{},"104":{},"105":{},"106":{},"107":{},"108":{},"109":{},"110":{},"111":{},"112":{},"113":{},"114":{}},{"0":{"bias":0.05408867448568344,"weights":{"0":0.10227932780981064,"1":-0.0054512969218194485,"2":0.17413941025733948,"3":0.1051449179649353,"4":0.16353033483028412,"5":0.023317154496908188,"6":0.2026643306016922,"7":0.10104558616876602,"8":0.10365671664476395,"9":-0.13191647827625275,"10":-0.17808663845062256,"11":-0.032626207917928696,"12":-0.19151636958122253,"13":0.09442692250013351,"14":-0.1378820836544037,"15":0.021120741963386536,"16":0.07400739192962646,"17":0.06748712062835693,"18":-0.12867413461208344,"19":-0.1161639392375946,"20":-0.011985520832240582,"21":0.0742921233177185,"22":0.13041304051876068,"23":0.02780817076563835,"24":0.12676067650318146,"25":0.034822769463062286,"26":-0.12860740721225739,"27":-0.19593222439289093,"28":-0.18747641146183014,"29":0.2875958979129791,"30":0.4399506151676178,"31":0.023714587092399597,"32":0.06045934930443764,"33":0.11921747028827667,"34":0.051431361585855484,"35":-0.20061974227428436,"36":-0.23320886492729187,"37":0.031489912420511246,"38":0.14475545287132263,"39":0.073381207883358,"40":-0.15733779966831207,"41":-0.20411376655101776,"42":0.0038263939786702394,"43":0.08320173621177673,"44":-0.07397463917732239,"45":0.18363365530967712,"46":-0.1855943202972412,"47":0.0735609158873558,"48":-0.05429057404398918,"49":-0.20633426308631897,"50":0.11104251444339752,"51":0.13648071885108948,"52":0.3127889931201935,"53":0.16273503005504608,"54":0.09452645480632782,"55":0.1613483875989914,"56":0.012508534826338291,"57":0.010350781492888927,"58":-0.18084514141082764,"59":-0.2178986519575119,"60":0.10116057097911835,"61":0.08439409732818604,"62":0.1240091472864151,"63":-0.263956218957901,"64":-0.09679616242647171,"65":-0.18738508224487305,"66":0.08774898946285248,"67":-0.13797257840633392,"68":0.004818366374820471,"69":-0.146406352519989,"70":-0.15385021269321442,"71":-0.05713649094104767,"72":0.003441230393946171,"73":0.02395728975534439,"74":-0.13293562829494476,"75":0.14222192764282227,"76":0.09869696199893951,"77":-0.19587107002735138,"78":-0.17167970538139343,"79":-0.0889291912317276,"80":0.046798840165138245,"81":-0.08210401237010956,"82":-0.02316008135676384,"83":-0.162852481007576,"84":-0.012797829695045948,"85":-0.028415590524673462,"86":-0.03192753344774246,"87":0.0362652912735939,"88":0.0014281031908467412,"89":0.06424171477556229,"90":-0.20376814901828766,"91":0.1723748743534088,"92":0.15174974501132965,"93":0.05418815463781357,"94":-0.18587546050548553,"95":0.13438040018081665,"96":0.03675537183880806,"97":0.17806226015090942,"98":-0.17690806090831757,"99":0.17845754325389862,"100":0.07533739507198334,"101":-0.12696976959705353,"102":-0.1188502162694931,"103":0.16283753514289856,"104":0.08487941324710846,"105":0.11009581387042999,"106":-0.07395333051681519,"107":-0.07755020260810852,"108":-0.13743139803409576,"109":0.173864483833313,"110":0.034523334354162216,"111":-0.1318713128566742,"112":0.09360335767269135,"113":-0.050071876496076584,"114":0.012010105885565281}},"1":{"bias":0.07653350383043289,"weights":{"0":0.039926446974277496,"1":0.07743439078330994,"2":0.12420027703046799,"3":-0.04344945028424263,"4":-0.20314650237560272,"5":-0.1776236891746521,"6":-0.035881586372852325,"7":-0.09828846901655197,"8":0.0299522802233696,"9":0.033352043479681015,"10":0.08697225898504257,"11":0.04928227886557579,"12":-0.48261913657188416,"13":-0.19036011397838593,"14":0.18249103426933289,"15":0.11425448209047318,"16":0.1575377732515335,"17":-0.08868365734815598,"18":0.11604046076536179,"19":0.10474087297916412,"20":-0.01697748340666294,"21":-0.16121937334537506,"22":0.0006341986590996385,"23":0.25076794624328613,"24":0.43456652760505676,"25":0.265962690114975,"26":0.009142457507550716,"27":-0.022196978330612183,"28":-0.023832574486732483,"29":0.2158256322145462,"30":0.07038693130016327,"31":0.11279523372650146,"32":0.13653889298439026,"33":0.023465022444725037,"34":-0.34079188108444214,"35":-0.6781591773033142,"36":-0.30194419622421265,"37":-0.24095122516155243,"38":0.1773526817560196,"39":0.12284409254789352,"40":0.11460395902395248,"41":0.19294029474258423,"42":-0.19365492463111877,"43":-0.1940978616476059,"44":0.020901814103126526,"45":-0.1011509969830513,"46":-0.0331803560256958,"47":0.3432386815547943,"48":0.13675850629806519,"49":0.14951154589653015,"50":0.1630498617887497,"51":0.06743889302015305,"52":0.1523517221212387,"53":0.2002187967300415,"54":0.1603728085756302,"55":0.040327321738004684,"56":-0.018875805661082268,"57":-0.3125172257423401,"58":-0.07482059299945831,"59":-0.4376041889190674,"60":0.08455377072095871,"61":-0.16030147671699524,"62":-0.11605089157819748,"63":0.09288390725851059,"64":-0.1315266191959381,"65":-0.006438365671783686,"66":-0.006910966709256172,"67":-0.031361207365989685,"68":-0.09139100462198257,"69":-0.17508216202259064,"70":0.06678374111652374,"71":0.08752366155385971,"72":-0.008123282343149185,"73":0.16188442707061768,"74":0.14882247149944305,"75":0.17837724089622498,"76":0.03426111862063408,"77":0.10193445533514023,"78":-0.18658822774887085,"79":0.13763104379177094,"80":0.18504314124584198,"81":-0.11341104656457901,"82":0.14799685776233673,"83":-0.02249646931886673,"84":-0.17948868870735168,"85":0.027931366115808487,"86":-0.07911577820777893,"87":-0.10648950189352036,"88":0.12850281596183777,"89":-0.15805646777153015,"90":0.15138645470142365,"91":-0.15185004472732544,"92":0.01488721277564764,"93":-0.1854788064956665,"94":-0.15046708285808563,"95":-0.19842995703220367,"96":0.06254475563764572,"97":-0.1544404774904251,"98":-0.06632185727357864,"99":0.08997314423322678,"100":-0.04688255116343498,"101":0.04118960723280907,"102":-0.061397407203912735,"103":0.022112205624580383,"104":0.037108611315488815,"105":0.13005490601062775,"106":-0.10061535984277725,"107":0.11340340226888657,"108":0.10239473730325699,"109":-0.14262498915195465,"110":0.07755804806947708,"111":0.06602350622415543,"112":-0.1749277114868164,"113":-0.1756899505853653,"114":-0.13765232264995575}},"2":{"bias":0.06492763012647629,"weights":{"0":0.0872015506029129,"1":0.006823053117841482,"2":-0.07295746356248856,"3":0.030449772253632545,"4":0.0957980677485466,"5":-0.03729313984513283,"6":-0.1662907600402832,"7":0.05404147878289223,"8":0.019488448277115822,"9":0.05592009797692299,"10":-0.01603180356323719,"11":-0.14821122586727142,"12":-0.0424276702105999,"13":0.04327833652496338,"14":-0.0753045305609703,"15":0.06926009058952332,"16":-0.03867832571268082,"17":-0.04743097350001335,"18":0.045942094177007675,"19":0.00417887419462204,"20":-0.0631318986415863,"21":0.14024846255779266,"22":-0.18117590248584747,"23":-0.008068149909377098,"24":-0.11807946115732193,"25":0.05424027144908905,"26":-0.10507836192846298,"27":0.09215103089809418,"28":0.13426414132118225,"29":-0.08032775670289993,"30":-0.20125812292099,"31":-0.024202296510338783,"32":-0.16048377752304077,"33":-0.0893612653017044,"34":-0.04492921754717827,"35":0.04293474555015564,"36":-0.10041014850139618,"37":-0.12323958426713943,"38":0.01102446299046278,"39":-0.1195836216211319,"40":-0.14123763144016266,"41":-0.1659092754125595,"42":0.06392896175384521,"43":-0.17786931991577148,"44":-0.13645675778388977,"45":-0.041877493262290955,"46":-0.158015176653862,"47":-0.12820956110954285,"48":0.10927721858024597,"49":-0.19531749188899994,"50":0.01805967465043068,"51":0.03726211190223694,"52":-0.014971780590713024,"53":0.04744250327348709,"54":-0.09498564153909683,"55":-0.0006810544291511178,"56":0.008697235025465488,"57":-0.03952399641275406,"58":-0.021628957241773605,"59":0.025938713923096657,"60":0.05670532211661339,"61":-0.008958405815064907,"62":0.07379963248968124,"63":-0.10152308642864227,"64":0.15429538488388062,"65":0.12032299488782883,"66":-0.1642872542142868,"67":-0.013814099133014679,"68":-0.15345430374145508,"69":0.07337947934865952,"70":-0.1451062262058258,"71":-0.05133867636322975,"72":0.06082996353507042,"73":0.09035111218690872,"74":0.08237770944833755,"75":-0.05767655372619629,"76":0.07879722118377686,"77":-0.07412602752447128,"78":-0.10082198679447174,"79":-0.007845073007047176,"80":-0.1996344029903412,"81":-0.17406721413135529,"82":-0.1270749568939209,"83":0.1339077651500702,"84":0.13867418467998505,"85":0.010656717233359814,"86":-0.1676284819841385,"87":-0.17230848968029022,"88":-0.13016346096992493,"89":-0.07959987968206406,"90":0.05645095929503441,"91":0.14200051128864288,"92":0.1751108169555664,"93":0.08892010897397995,"94":0.10125279426574707,"95":-0.1854151040315628,"96":0.1714862734079361,"97":-0.1985546499490738,"98":0.09118171781301498,"99":-0.19805440306663513,"100":0.1735980361700058,"101":0.0236688069999218,"102":0.08471539616584778,"103":0.11995767802000046,"104":-0.030734065920114517,"105":-0.10414071381092072,"106":-0.0240885391831398,"107":-0.17219826579093933,"108":-0.18638792634010315,"109":0.10808247327804565,"110":0.01382428128272295,"111":-0.11745541542768478,"112":0.11286384612321854,"113":0.1192241981625557,"114":0.09287170320749283}},"3":{"bias":0.1480948030948639,"weights":{"0":-0.25841501355171204,"1":-0.387145459651947,"2":-0.26788851618766785,"3":-0.09192480891942978,"4":-0.013771932572126389,"5":0.023204516619443893,"6":-0.05951346457004547,"7":-0.18199695646762848,"8":-0.15610474348068237,"9":-0.051118843257427216,"10":-0.0635203942656517,"11":-0.033260054886341095,"12":0.19549502432346344,"13":0.25205492973327637,"14":0.16482815146446228,"15":-0.03595219925045967,"16":0.1656336635351181,"17":-0.07336103171110153,"18":-0.048918381333351135,"19":-0.018465982750058174,"20":0.1516708880662918,"21":-0.13205239176750183,"22":0.183385968208313,"23":-0.2535210847854614,"24":-0.30237504839897156,"25":-0.4653950333595276,"26":0.07080669701099396,"27":-0.045002080500125885,"28":-0.17213790118694305,"29":-0.41087958216667175,"30":-0.4788396954536438,"31":-0.19239825010299683,"32":0.02027786150574684,"33":0.16803276538848877,"34":0.2614402174949646,"35":0.20704609155654907,"36":0.4459100067615509,"37":0.2481049746274948,"38":0.07904482632875443,"39":0.026549022644758224,"40":0.255478173494339,"41":0.09191969782114029,"42":0.23474551737308502,"43":0.12267514318227768,"44":-0.1836499571800232,"45":0.13857822120189667,"46":-0.013601330108940601,"47":-0.41661593317985535,"48":-0.21262021362781525,"49":0.1465379148721695,"50":0.0023073493503034115,"51":-0.047520145773887634,"52":-0.04257636517286301,"53":-0.38871586322784424,"54":0.07128642499446869,"55":0.1486433744430542,"56":0.11327960342168808,"57":0.10305069386959076,"58":0.11937788128852844,"59":0.300169974565506,"60":-0.04191764444112778,"61":0.06378917396068573,"62":0.15954537689685822,"63":0.38874855637550354,"64":0.2329528033733368,"65":0.08460711687803268,"66":0.12139885872602463,"67":-0.006238908506929874,"68":-0.08443550020456314,"69":-0.10004397481679916,"70":-0.01517582032829523,"71":0.13552318513393402,"72":0.13453377783298492,"73":0.06946109980344772,"74":-0.1467454731464386,"75":0.11589222401380539,"76":-0.14353522658348083,"77":-0.024030670523643494,"78":-0.13085633516311646,"79":-0.005547010339796543,"80":0.009573583491146564,"81":0.11840187758207321,"82":0.09383376687765121,"83":-0.0638786181807518,"84":0.06895072013139725,"85":-0.127492293715477,"86":-0.03172805905342102,"87":-0.19042322039604187,"88":0.06257705390453339,"89":-0.12185691297054291,"90":0.011323469690978527,"91":0.019795600324869156,"92":0.042533114552497864,"93":-0.19216787815093994,"94":0.061756256967782974,"95":-0.01241143699735403,"96":-0.12064312398433685,"97":0.09365042299032211,"98":0.08095366507768631,"99":-0.02344600111246109,"100":-0.14231690764427185,"101":-0.14819400012493134,"102":0.00477195531129837,"103":-0.08968042582273483,"104":-0.039158277213573456,"105":0.03462117165327072,"106":0.019742831587791443,"107":-0.002765500918030739,"108":-0.14424550533294678,"109":0.16753584146499634,"110":-0.19079357385635376,"111":0.18851520121097565,"112":0.032149020582437515,"113":0.14444312453269958,"114":0.18808764219284058}},"4":{"bias":-0.006569677963852882,"weights":{"0":-0.13015197217464447,"1":-0.18129867315292358,"2":-0.24462449550628662,"3":-0.1773611605167389,"4":0.1508602648973465,"5":0.20085979998111725,"6":-0.2074059247970581,"7":-0.03567064180970192,"8":-0.11530725657939911,"9":-0.009889941662549973,"10":-0.10055364668369293,"11":-0.13586007058620453,"12":0.17440560460090637,"13":-0.1722777932882309,"14":0.12186260521411896,"15":0.07713115215301514,"16":-0.1110302060842514,"17":0.11573798954486847,"18":0.021591050550341606,"19":0.2840164601802826,"20":0.09266044199466705,"21":-0.03254597261548042,"22":-0.05476447567343712,"23":0.09319198131561279,"24":-0.2847817540168762,"25":-0.3152407705783844,"26":-0.021142685785889626,"27":-0.14794327318668365,"28":-0.077598437666893,"29":-0.26032766699790955,"30":-0.056415095925331116,"31":-0.16373448073863983,"32":-0.1774783879518509,"33":-0.06957243382930756,"34":-0.06987311691045761,"35":-0.03345257788896561,"36":-0.13646060228347778,"37":-0.12745264172554016,"38":-0.07640418410301208,"39":0.17913682758808136,"40":0.3529534339904785,"41":0.28140541911125183,"42":0.017586423084139824,"43":-0.009933218359947205,"44":0.0023863394744694233,"45":-0.11040064692497253,"46":-0.02263970673084259,"47":-0.32335031032562256,"48":0.05988851189613342,"49":-0.07685677707195282,"50":0.15906669199466705,"51":-0.01663033291697502,"52":-0.23896180093288422,"53":-0.12120741605758667,"54":0.08671355992555618,"55":0.1426478773355484,"56":-0.08667716383934021,"57":-0.030101826414465904,"58":0.10098566114902496,"59":0.06841541081666946,"60":0.07506494224071503,"61":0.15969468653202057,"62":0.1736690253019333,"63":0.11786641925573349,"64":0.3346375524997711,"65":0.19079571962356567,"66":-0.0868496298789978,"67":0.19411157071590424,"68":-0.17422060668468475,"69":0.1662335842847824,"70":-0.10756809264421463,"71":-0.07043679058551788,"72":0.13741999864578247,"73":0.1501358300447464,"74":0.07373486459255219,"75":0.029558829963207245,"76":0.01697014458477497,"77":0.04551592841744423,"78":-0.05697380378842354,"79":-0.033564236015081406,"80":-0.029713617637753487,"81":-0.000827963522169739,"82":0.053172435611486435,"83":0.05322183296084404,"84":0.007287712302058935,"85":-0.12329793721437454,"86":0.13234589993953705,"87":-0.09618151187896729,"88":0.13898548483848572,"89":0.07753525674343109,"90":-0.15833242237567902,"91":0.14367802441120148,"92":-0.04024353250861168,"93":0.09533266723155975,"94":-0.036928851157426834,"95":-0.11454227566719055,"96":0.12191492319107056,"97":0.0839511901140213,"98":0.05178719386458397,"99":0.020224634557962418,"100":0.07234424352645874,"101":-0.037169430404901505,"102":0.096563920378685,"103":0.11157350242137909,"104":0.026781637221574783,"105":-0.020655084401369095,"106":-0.0016385327326133847,"107":-0.015507728792726994,"108":-0.02420000359416008,"109":-0.09226174652576447,"110":0.17746980488300323,"111":-0.1788587123155594,"112":0.06843031942844391,"113":0.07708421349525452,"114":0.08389812707901001}},"5":{"bias":0.17743828892707825,"weights":{"0":0.04516701400279999,"1":-0.3751157820224762,"2":-0.08407869189977646,"3":-0.013659014366567135,"4":0.18912148475646973,"5":-0.02698718011379242,"6":0.18004705011844635,"7":0.12832693755626678,"8":-0.11867785453796387,"9":-0.11147404462099075,"10":0.0944242998957634,"11":0.13471511006355286,"12":0.12852899730205536,"13":0.11043691635131836,"14":0.1392049342393875,"15":0.12905927002429962,"16":0.025711078196763992,"17":-0.14260849356651306,"18":0.02039995603263378,"19":0.04381713271141052,"20":0.18503308296203613,"21":0.08596188575029373,"22":0.06413061171770096,"23":-0.36191269755363464,"24":-0.32589131593704224,"25":-0.12896579504013062,"26":-0.13102304935455322,"27":-0.05729800462722778,"28":-0.10313623398542404,"29":0.3577525019645691,"30":0.32705315947532654,"31":-0.0932147428393364,"32":-0.1463421881198883,"33":-0.05653415247797966,"34":0.13154146075248718,"35":0.1238524541258812,"36":0.13620056211948395,"37":0.11716997623443604,"38":-0.19720396399497986,"39":-0.09828194230794907,"40":0.06780356913805008,"41":0.06214827671647072,"42":0.0005552706425078213,"43":-0.16429418325424194,"44":0.05125867947936058,"45":-0.0068997666239738464,"46":0.03876018896698952,"47":-0.3425154983997345,"48":-0.30077213048934937,"49":-0.1306665539741516,"50":-0.013144925236701965,"51":0.06204625591635704,"52":0.2640782296657562,"53":0.3722722828388214,"54":0.16186636686325073,"55":0.022020414471626282,"56":0.07153508812189102,"57":0.10813194513320923,"58":-0.07576172798871994,"59":0.2469213455915451,"60":-0.09652409702539444,"61":-0.0010345949558541179,"62":-0.03838386386632919,"63":-0.10198618471622467,"64":-0.06616207212209702,"65":0.09320752322673798,"66":0.19392387568950653,"67":-0.11672378331422806,"68":-0.09273911267518997,"69":-0.053272660821676254,"70":-0.11848984658718109,"71":0.047282543033361435,"72":-0.10614485293626785,"73":-0.19080635905265808,"74":-0.050943393260240555,"75":-0.1624409407377243,"76":-0.003337104106321931,"77":-0.18807989358901978,"78":0.02210674062371254,"79":-0.04558352008461952,"80":0.058603305369615555,"81":0.09644000977277756,"82":0.0395309142768383,"83":-0.19040115177631378,"84":0.12545627355575562,"85":0.18282482028007507,"86":-0.20796799659729004,"87":0.18452130258083344,"88":0.10223186761140823,"89":-0.02507609874010086,"90":-0.06295232474803925,"91":-0.15606935322284698,"92":-0.19950778782367706,"93":-0.18095487356185913,"94":0.1327238529920578,"95":0.10179788619279861,"96":0.04365051910281181,"97":-0.06956150382757187,"98":0.12555406987667084,"99":0.018052920699119568,"100":-0.054240111261606216,"101":0.07426237314939499,"102":0.005669351667165756,"103":0.12138872593641281,"104":-0.18436352908611298,"105":-0.08397922664880753,"106":0.13490375876426697,"107":0.1621733009815216,"108":-0.1857011616230011,"109":0.10755232721567154,"110":0.07079357653856277,"111":-0.0669332966208458,"112":-0.17073854804039001,"113":0.0049201725050807,"114":0.11589821428060532}},"6":{"bias":-0.0898069515824318,"weights":{"0":0.12007967382669449,"1":-0.0608651302754879,"2":-0.06917586922645569,"3":0.0812687873840332,"4":0.1459914594888687,"5":-0.051280416548252106,"6":0.1268002986907959,"7":0.25083035230636597,"8":-0.16914227604866028,"9":-0.033987682312726974,"10":-0.09550570696592331,"11":-0.12889046967029572,"12":-0.15550322830677032,"13":-0.4270522892475128,"14":0.04421059042215347,"15":0.01612348109483719,"16":-0.12350688129663467,"17":0.28928080201148987,"18":0.3580855131149292,"19":0.3246028423309326,"20":0.09321708232164383,"21":0.01567085273563862,"22":-0.026501910760998726,"23":-0.22039715945720673,"24":-0.45489299297332764,"25":-0.3911307156085968,"26":-0.15690624713897705,"27":0.0195807833224535,"28":0.1622869223356247,"29":0.31074556708335876,"30":0.03559613972902298,"31":0.19456645846366882,"32":-0.10469548404216766,"33":-0.12004684656858444,"34":-0.2504694163799286,"35":-0.3087926208972931,"36":-0.4805319011211395,"37":-0.3234705626964569,"38":-0.040932729840278625,"39":0.37334680557250977,"40":0.4803389310836792,"41":0.6535709500312805,"42":0.04655380919575691,"43":0.16293965280056,"44":-0.07374504208564758,"45":0.08124255388975143,"46":-0.26644399762153625,"47":-0.3823182284832001,"48":0.05113017186522484,"49":0.07228247076272964,"50":-0.10377472639083862,"51":-0.07086068391799927,"52":-0.0010876801097765565,"53":-0.06045292690396309,"54":0.20418421924114227,"55":0.08869792520999908,"56":-0.07377939671278,"57":-0.07582715898752213,"58":-0.025242796167731285,"59":-0.16624926030635834,"60":-0.013136235997080803,"61":0.005829724948853254,"62":0.1269756257534027,"63":0.3782864212989807,"64":0.4363790452480316,"65":0.1947643756866455,"66":-0.07771486043930054,"67":0.0017767668468877673,"68":0.04159993678331375,"69":-0.13448230922222137,"70":-0.05056721717119217,"71":0.059335798025131226,"72":-0.1428421288728714,"73":0.011424845084547997,"74":-0.10268042236566544,"75":-0.09177762269973755,"76":0.148795947432518,"77":0.16350723803043365,"78":-0.027331313118338585,"79":0.14331679046154022,"80":0.17983318865299225,"81":-0.08808892965316772,"82":-0.11531712859869003,"83":-0.16705892980098724,"84":-0.031234439462423325,"85":-0.17266248166561127,"86":0.2353917956352234,"87":0.0655967965722084,"88":-0.1632051318883896,"89":0.03699691966176033,"90":-0.00020330309052951634,"91":-0.1857193559408188,"92":0.0073621999472379684,"93":0.017327681183815002,"94":0.19943709671497345,"95":-0.14087538421154022,"96":-0.18735186755657196,"97":0.1691826730966568,"98":0.040854208171367645,"99":-0.015905413776636124,"100":0.11958464980125427,"101":-0.1579340249300003,"102":0.1369120478630066,"103":-0.1018475592136383,"104":0.051282189786434174,"105":0.04140731692314148,"106":0.142911896109581,"107":-0.03855203837156296,"108":0.10149068385362625,"109":0.10192953050136566,"110":0.0892895981669426,"111":-0.0301342885941267,"112":-0.06201925128698349,"113":-0.11910422891378403,"114":-0.03561563044786453}},"7":{"bias":0.189574733376503,"weights":{"0":-0.2089475393295288,"1":-0.3096012473106384,"2":0.026844188570976257,"3":0.0425536073744297,"4":-0.04684115946292877,"5":-0.05497686192393303,"6":-0.2961578071117401,"7":-0.3513382077217102,"8":-0.03947822377085686,"9":-0.10224449634552002,"10":0.1361759603023529,"11":0.04952111095190048,"12":0.09991014748811722,"13":0.12605521082878113,"14":-0.09201344847679138,"15":0.16409701108932495,"16":-0.08303648233413696,"17":0.00014863500837236643,"18":0.2588624656200409,"19":0.19125628471374512,"20":0.049176834523677826,"21":-0.11218011379241943,"22":-0.04018310457468033,"23":0.09504728764295578,"24":-0.3090972900390625,"25":-0.07789634168148041,"26":-0.022652851417660713,"27":0.16868850588798523,"28":0.13010762631893158,"29":-0.4526771903038025,"30":-0.28698891401290894,"31":-0.11960461735725403,"32":0.14637452363967896,"33":0.043338172137737274,"34":0.2735306918621063,"35":0.4114256203174591,"36":0.41704872250556946,"37":0.06528531014919281,"38":-0.02662280760705471,"39":0.26725301146507263,"40":0.16196954250335693,"41":0.2513733208179474,"42":0.05976048856973648,"43":-0.1658475697040558,"44":-0.011679238639771938,"45":0.12343809753656387,"46":-0.11107295006513596,"47":-0.17549224197864532,"48":-0.11102186143398285,"49":0.13077211380004883,"50":0.1733393669128418,"51":0.022868622094392776,"52":-0.3371966481208801,"53":-0.4109959006309509,"54":-0.13089515268802643,"55":0.1478143036365509,"56":0.13245061039924622,"57":0.1223982647061348,"58":0.04859079048037529,"59":0.3075415790081024,"60":-0.00390233495272696,"61":-0.1330004334449768,"62":0.13649927079677582,"63":0.022579200565814972,"64":0.274550199508667,"65":0.08414636552333832,"66":-0.05869662016630173,"67":0.20058932900428772,"68":-0.0279715433716774,"69":-0.1821448802947998,"70":-0.0676092728972435,"71":-0.015165960416197777,"72":-0.1034870445728302,"73":0.0044803014025092125,"74":0.10164399445056915,"75":0.04761127382516861,"76":0.027578014880418777,"77":-0.1895049810409546,"78":0.059584494680166245,"79":0.10255734622478485,"80":0.1597091257572174,"81":0.14007234573364258,"82":-0.17643922567367554,"83":0.04010184854269028,"84":-0.05378704518079758,"85":-0.1462779939174652,"86":-0.02938399836421013,"87":-0.16493070125579834,"88":-0.043829090893268585,"89":-0.09945094585418701,"90":-0.18362957239151,"91":0.07701590657234192,"92":-0.16124913096427917,"93":-0.15114212036132812,"94":0.19836965203285217,"95":0.05554370582103729,"96":-0.08473862707614899,"97":0.08534535765647888,"98":-0.07738366723060608,"99":0.1194167286157608,"100":-0.07131758332252502,"101":-0.17707401514053345,"102":0.1963697373867035,"103":-0.05392538011074066,"104":0.043067626655101776,"105":-0.07123129069805145,"106":0.1721895933151245,"107":-0.17149749398231506,"108":-0.0996149480342865,"109":-0.007285847328603268,"110":-0.19042545557022095,"111":-0.09157413244247437,"112":-0.06695984303951263,"113":0.18792754411697388,"114":-0.06564973294734955}},"8":{"bias":-0.15329527854919434,"weights":{"0":-0.050491973757743835,"1":0.12901772558689117,"2":0.02671404927968979,"3":-0.02007010020315647,"4":-0.0597817562520504,"5":0.14662499725818634,"6":-0.11740639805793762,"7":-0.05279449373483658,"8":0.1862732619047165,"9":0.04812696576118469,"10":0.06297175586223602,"11":0.052340541034936905,"12":0.03870255872607231,"13":0.260092556476593,"14":-0.19700169563293457,"15":-0.01156738493591547,"16":0.01970716565847397,"17":-0.2964264154434204,"18":0.016753192991018295,"19":-0.06907409429550171,"20":0.19461621344089508,"21":-0.13617870211601257,"22":0.09183800220489502,"23":0.15452201664447784,"24":0.29683518409729004,"25":0.023235637694597244,"26":-0.1720864176750183,"27":-0.13898570835590363,"28":-0.09307827055454254,"29":0.10528869926929474,"30":0.21364519000053406,"31":0.10545671731233597,"32":0.0028935535810887814,"33":-0.08478859066963196,"34":0.11376291513442993,"35":0.037332456558942795,"36":0.2678648829460144,"37":0.10565786063671112,"38":0.15894818305969238,"39":-0.3172439634799957,"40":-0.48305878043174744,"41":-0.2369508147239685,"42":-0.11405251175165176,"43":-0.12271811068058014,"44":0.15540993213653564,"45":-0.02355920895934105,"46":0.11649366468191147,"47":0.030374769121408463,"48":0.02382170781493187,"49":-0.10610389709472656,"50":0.16021326184272766,"51":0.1339196413755417,"52":0.04806198552250862,"53":0.046647366136312485,"54":0.0317922942340374,"55":0.0957958996295929,"56":-0.09195168316364288,"57":-0.15793539583683014,"58":-0.07581668347120285,"59":0.19381116330623627,"60":0.1422264277935028,"61":-0.03208652138710022,"62":-0.022870784625411034,"63":-0.5124814510345459,"64":-0.2531881332397461,"65":-0.1791253387928009,"66":-0.1745307296514511,"67":0.006133866962045431,"68":0.15100634098052979,"69":-0.015354488976299763,"70":0.17214934527873993,"71":0.17464639246463776,"72":0.026761803776025772,"73":0.11093905568122864,"74":0.1467580646276474,"75":-0.037453822791576385,"76":-0.0077348146587610245,"77":-0.04690972715616226,"78":0.03986090421676636,"79":0.043256789445877075,"80":0.1510213315486908,"81":-0.059494346380233765,"82":0.11979320645332336,"83":0.16500595211982727,"84":-0.03620169311761856,"85":-0.046592943370342255,"86":0.07754631340503693,"87":-0.12798914313316345,"88":0.13201270997524261,"89":-0.07312385737895966,"90":0.060493167489767075,"91":-0.1417556256055832,"92":0.1456724852323532,"93":-0.13872861862182617,"94":-0.19950684905052185,"95":0.13067938387393951,"96":-0.02841399610042572,"97":0.04826842248439789,"98":0.05763088911771774,"99":-0.14606422185897827,"100":-0.054364949464797974,"101":-0.14456550776958466,"102":-0.16734954714775085,"103":-0.19421261548995972,"104":-0.11497616767883301,"105":-0.17589782178401947,"106":0.11636652052402496,"107":0.09459392726421356,"108":-0.10738600790500641,"109":-0.06265081465244293,"110":-0.05253268778324127,"111":0.08275818824768066,"112":-0.04107675701379776,"113":0.017442606389522552,"114":0.15767990052700043}},"9":{"bias":-0.10498865693807602,"weights":{"0":0.31292498111724854,"1":0.256368488073349,"2":0.2820553183555603,"3":-0.04920972138643265,"4":-0.17919450998306274,"5":0.06615794450044632,"6":-0.0963791236281395,"7":-0.024287139996886253,"8":-0.02027546986937523,"9":0.1122635155916214,"10":-0.1588980257511139,"11":0.039058227092027664,"12":-0.0944637805223465,"13":0.022872094064950943,"14":0.007315245922654867,"15":-0.07003142684698105,"16":-0.010005854070186615,"17":-0.03333336487412453,"18":-0.176176980137825,"19":-0.183365598320961,"20":-0.007931037805974483,"21":-0.005186721216887236,"22":-0.11216463893651962,"23":0.0321536660194397,"24":0.5446138381958008,"25":0.514786958694458,"26":-0.001755841774865985,"27":-0.1471615433692932,"28":0.09895358979701996,"29":-0.17848217487335205,"30":-0.3810349404811859,"31":-0.21208295226097107,"32":-0.09017237275838852,"33":-0.12361039221286774,"34":0.20751447975635529,"35":-0.053639624267816544,"36":0.1464482992887497,"37":0.10695546120405197,"38":0.07312270253896713,"39":-0.0006964403437450528,"40":-0.1883171647787094,"41":0.022783316671848297,"42":-0.04616202786564827,"43":0.18986766040325165,"44":-0.020563963800668716,"45":0.035734981298446655,"46":0.3261285722255707,"47":0.4207112491130829,"48":0.2603490650653839,"49":-0.0438501313328743,"50":0.038073644042015076,"51":-0.07468181848526001,"52":-0.20039354264736176,"53":-0.20187321305274963,"54":-0.030108075588941574,"55":-0.0999688133597374,"56":0.17899854481220245,"57":-0.10289491713047028,"58":-0.16332697868347168,"59":0.0016618914669379592,"60":-0.1703762412071228,"61":0.1592503935098648,"62":0.03256547078490257,"63":-0.13990211486816406,"64":-0.21864387392997742,"65":0.14211125671863556,"66":0.1854591965675354,"67":-0.048725686967372894,"68":0.1527981162071228,"69":0.15946362912654877,"70":-0.15999506413936615,"71":-0.05403029918670654,"72":0.17879624664783478,"73":-0.12933136522769928,"74":-0.01568363793194294,"75":0.1569616198539734,"76":-0.03585921227931976,"77":-0.11119633913040161,"78":-0.1772184520959854,"79":-0.07529827952384949,"80":0.1788955181837082,"81":0.028697334229946136,"82":0.20158976316452026,"83":-0.08688466995954514,"84":-0.04801707714796066,"85":-0.0980863869190216,"86":-0.1208929717540741,"87":-0.11336401849985123,"88":0.00634976290166378,"89":-0.04746069759130478,"90":-0.06307747960090637,"91":0.10555500537157059,"92":-0.15051354467868805,"93":0.11196678131818771,"94":0.01576174795627594,"95":-0.008721062913537025,"96":0.13510668277740479,"97":-0.12166576087474823,"98":0.08059241622686386,"99":0.03677205741405487,"100":0.1503099948167801,"101":0.1618114858865738,"102":0.023330647498369217,"103":-0.1578238159418106,"104":-0.04751173406839371,"105":-0.07005256414413452,"106":0.20759835839271545,"107":-0.14767122268676758,"108":-0.025447934865951538,"109":-0.08298514038324356,"110":-0.15641529858112335,"111":-0.03605865687131882,"112":-0.0209331177175045,"113":0.02926778793334961,"114":0.20630590617656708}},"10":{"bias":-0.10070887207984924,"weights":{"0":-0.07380408048629761,"1":-0.005940924398601055,"2":0.02720026485621929,"3":0.022969596087932587,"4":-0.00990233663469553,"5":0.033079467713832855,"6":0.26124605536460876,"7":0.29715096950531006,"8":-0.07492496073246002,"9":-0.09036137163639069,"10":0.05565795302391052,"11":-0.00504658417776227,"12":0.16241565346717834,"13":-0.033915404230356216,"14":0.14766302704811096,"15":0.04914151132106781,"16":0.13111819326877594,"17":-0.2421489804983139,"18":-0.13002094626426697,"19":-0.08235330879688263,"20":-0.11012295633554459,"21":0.09020759165287018,"22":0.16513334214687347,"23":0.1671505868434906,"24":-0.04708974435925484,"25":-0.13140244781970978,"26":0.08416156470775604,"27":0.11985700577497482,"28":-0.16764435172080994,"29":0.33057841658592224,"30":0.33795660734176636,"31":-0.030294112861156464,"32":-0.1098797395825386,"33":0.042062558233737946,"34":-0.1271241307258606,"35":0.011083438992500305,"36":0.002219014335423708,"37":0.19129271805286407,"38":0.1900186687707901,"39":-0.2918698787689209,"40":-0.25720903277397156,"41":-0.3258453607559204,"42":-0.21388408541679382,"43":-0.19164009392261505,"44":-0.16263146698474884,"45":-0.1703224778175354,"46":-0.19726675748825073,"47":-0.18948769569396973,"48":0.04885287582874298,"49":0.10932076722383499,"50":-0.02443021722137928,"51":0.15470008552074432,"52":0.08597039431333542,"53":0.2623141407966614,"54":0.2440364509820938,"55":0.001557523268274963,"56":0.09415245801210403,"57":-0.06318726390600204,"58":0.13461565971374512,"59":-0.19913572072982788,"60":0.04899371415376663,"61":0.19374901056289673,"62":0.07741980999708176,"63":-0.37131160497665405,"64":-0.24758821725845337,"65":0.012247259728610516,"66":0.10688747465610504,"67":-0.18735183775424957,"68":0.007967226207256317,"69":-0.08573722094297409,"70":-0.09500913321971893,"71":0.0748167559504509,"72":-0.1418761909008026,"73":-0.09953760355710983,"74":-0.12067309021949768,"75":-0.11475317180156708,"76":-0.040616631507873535,"77":0.15622885525226593,"78":-0.15610630810260773,"79":0.14539432525634766,"80":0.11956550925970078,"81":-0.15968920290470123,"82":0.04560568183660507,"83":-0.15499967336654663,"84":0.0424145832657814,"85":0.004558417946100235,"86":-0.15856356918811798,"87":-0.06123970076441765,"88":0.018351731821894646,"89":-0.1369502693414688,"90":0.084126777946949,"91":0.06148534268140793,"92":0.16534246504306793,"93":0.10069360584020615,"94":-0.039482615888118744,"95":0.04365093261003494,"96":0.130593940615654,"97":0.1301978975534439,"98":0.1132659986615181,"99":-0.10836837440729141,"100":-0.10716614127159119,"101":0.1493682712316513,"102":-0.18365488946437836,"103":0.15049338340759277,"104":0.03602875769138336,"105":0.16338397562503815,"106":-0.09292299300432205,"107":0.1275157779455185,"108":0.1317509114742279,"109":-0.09645892679691315,"110":-0.10440011322498322,"111":0.14188234508037567,"112":0.02239101193845272,"113":-0.007161750458180904,"114":0.12026651203632355}},"11":{"bias":0.16609129309654236,"weights":{"0":-0.07333415746688843,"1":-0.43745875358581543,"2":-0.03503949195146561,"3":0.07094613462686539,"4":0.14303582906723022,"5":0.12017730623483658,"6":0.2999270260334015,"7":0.14098882675170898,"8":0.11403752118349075,"9":0.12193141877651215,"10":0.021413655951619148,"11":0.12240427732467651,"12":-0.003477984806522727,"13":0.14335118234157562,"14":-0.00773604353889823,"15":0.20058298110961914,"16":0.0099865747615695,"17":0.1461041420698166,"18":-0.02261612005531788,"19":-0.07817699760198593,"20":-0.046459708362817764,"21":-0.12745222449302673,"22":-0.05870198458433151,"23":-0.3282889127731323,"24":-0.6402015089988708,"25":-0.5031570196151733,"26":0.14807067811489105,"27":-0.08519899100065231,"28":-0.08054691553115845,"29":0.397932767868042,"30":0.39598900079727173,"31":-0.051489610224962234,"32":0.20159807801246643,"33":-0.03918612748384476,"34":0.0686851441860199,"35":0.14681459963321686,"36":0.1664968729019165,"37":0.05015649273991585,"38":-0.1350947469472885,"39":0.10492172837257385,"40":-0.10851151496171951,"41":0.1564776748418808,"42":-0.15406534075737,"43":0.07468462735414505,"44":0.01128257717937231,"45":-0.140247642993927,"46":0.03834475204348564,"47":-0.38500073552131653,"48":-0.287290096282959,"49":-0.1336260288953781,"50":0.142070934176445,"51":-0.059701576828956604,"52":0.28263992071151733,"53":0.14164020121097565,"54":0.2604466676712036,"55":-0.057324375957250595,"56":-0.06800442188978195,"57":0.06698297709226608,"58":0.0395515002310276,"59":0.06156015023589134,"60":0.1316782534122467,"61":0.10115805268287659,"62":0.17865420877933502,"63":0.02039184793829918,"64":-0.023058544844388962,"65":0.15347415208816528,"66":-0.15554188191890717,"67":0.2046329528093338,"68":-0.1457548290491104,"69":-0.08345000445842743,"70":0.0014249607920646667,"71":-0.12143999338150024,"72":0.10299048572778702,"73":0.10549288988113403,"74":-0.15952804684638977,"75":-0.04909136891365051,"76":-0.07197561115026474,"77":-0.06888928264379501,"78":0.18082216382026672,"79":0.03607235476374626,"80":-0.060252945870161057,"81":-0.1733633279800415,"82":-0.1251172423362732,"83":-0.08790858089923859,"84":0.07978767156600952,"85":-0.19281615316867828,"86":0.026903580874204636,"87":-0.18118984997272491,"88":-0.03904682397842407,"89":-0.14146870374679565,"90":0.13818471133708954,"91":-0.10107890516519547,"92":-0.12500576674938202,"93":0.14682525396347046,"94":-0.042063694447278976,"95":-0.007373038679361343,"96":0.16723808646202087,"97":-0.19339540600776672,"98":0.10996852815151215,"99":-0.05065162479877472,"100":0.05584712699055672,"101":0.16217955946922302,"102":-0.19137291610240936,"103":-0.058537378907203674,"104":-0.16949810087680817,"105":-0.12792345881462097,"106":0.162903293967247,"107":0.02535635605454445,"108":-0.0998527854681015,"109":-0.10514362156391144,"110":-0.15879908204078674,"111":-0.07388313859701157,"112":-0.029469667002558708,"113":0.19168198108673096,"114":-0.004290024749934673}},"12":{"bias":0.18099364638328552,"weights":{"0":0.05191753804683685,"1":-0.04839799925684929,"2":-0.20969939231872559,"3":-0.18543191254138947,"4":-0.15755751729011536,"5":0.16825741529464722,"6":0.25387153029441833,"7":-0.040523651987314224,"8":-0.013331755995750427,"9":0.17846348881721497,"10":-0.0022521994542330503,"11":-0.0665571466088295,"12":0.06583216041326523,"13":-0.054879385977983475,"14":-0.0728105753660202,"15":0.1634070724248886,"16":0.054734911769628525,"17":-0.05622253939509392,"18":-0.2485080361366272,"19":-0.26510411500930786,"20":0.11985671520233154,"21":0.11373937129974365,"22":-0.01859932579100132,"23":-0.026591815054416656,"24":-0.05070388317108154,"25":-0.005011707078665495,"26":-0.032354485243558884,"27":-0.1349724382162094,"28":0.10433503985404968,"29":0.37254810333251953,"30":0.373276948928833,"31":0.13693957030773163,"32":-0.10996146500110626,"33":0.11632506549358368,"34":0.17316855490207672,"35":0.26509639620780945,"36":0.26461324095726013,"37":0.25716787576675415,"38":-0.17367437481880188,"39":0.0375269278883934,"40":-0.3676737844944,"41":-0.41050198674201965,"42":-0.23503872752189636,"43":0.18854093551635742,"44":-0.039621178060770035,"45":0.010212133638560772,"46":-0.12315372377634048,"47":-0.20329782366752625,"48":0.07788919657468796,"49":0.024602020159363747,"50":-0.1393292248249054,"51":-0.019208664074540138,"52":0.3498828113079071,"53":0.09022760391235352,"54":0.06547514349222183,"55":0.019491562619805336,"56":0.12576228380203247,"57":0.12309379130601883,"58":0.06208116561174393,"59":0.2168637216091156,"60":0.15990909934043884,"61":0.01660284958779812,"62":-0.007955329492688179,"63":-0.14797641336917877,"64":0.023113571107387543,"65":0.08818544447422028,"66":-0.18968500196933746,"67":0.04876745864748955,"68":-0.09713323414325714,"69":0.030380409210920334,"70":0.05882911756634712,"71":-0.17465312778949738,"72":-0.20722819864749908,"73":0.012186454609036446,"74":0.09091213345527649,"75":0.12437223643064499,"76":0.025011276826262474,"77":0.08341120183467865,"78":-0.14836210012435913,"79":-0.0768871158361435,"80":0.06077827885746956,"81":-0.17071852087974548,"82":-0.20432788133621216,"83":0.011022067628800869,"84":0.005749837029725313,"85":-0.2008189558982849,"86":-0.2354738861322403,"87":-0.16049236059188843,"88":-0.14972342550754547,"89":-0.051822107285261154,"90":0.030967112630605698,"91":-0.16559061408042908,"92":0.12444913387298584,"93":-0.1629248708486557,"94":-0.1306857317686081,"95":-0.17090438306331635,"96":0.038283150643110275,"97":0.09171967208385468,"98":0.03041406348347664,"99":-0.04779694601893425,"100":0.1582648903131485,"101":-0.19821883738040924,"102":0.1856255680322647,"103":0.11913540959358215,"104":-0.013999206013977528,"105":-0.1117793470621109,"106":-0.026013733819127083,"107":0.10733218491077423,"108":0.003427268238738179,"109":0.11240434646606445,"110":0.0738522857427597,"111":-0.016379211097955704,"112":0.19056855142116547,"113":0.08416260778903961,"114":-0.1376572847366333}},"13":{"bias":-0.10347793251276016,"weights":{"0":-0.198382169008255,"1":-0.2195550501346588,"2":-0.13608220219612122,"3":0.137799933552742,"4":-0.15386874973773956,"5":-0.13047346472740173,"6":-0.2605054974555969,"7":-0.36641672253608704,"8":-0.004364464432001114,"9":-0.03860346972942352,"10":-0.002489673439413309,"11":0.14230135083198547,"12":0.38663408160209656,"13":0.01436216663569212,"14":-0.03455279767513275,"15":-0.05738886445760727,"16":-0.020496521145105362,"17":0.0030656547751277685,"18":0.02531999722123146,"19":-0.07086452841758728,"20":0.17888511717319489,"21":0.15655842423439026,"22":-0.13998189568519592,"23":0.11055836826562881,"24":-0.2562222182750702,"25":-0.23104754090309143,"26":0.13950493931770325,"27":-0.13713091611862183,"28":-0.15108662843704224,"29":-0.13334497809410095,"30":-0.5181627869606018,"31":-0.11035583913326263,"32":-0.1391511708498001,"33":0.06106558069586754,"34":0.3381115794181824,"35":0.5241997241973877,"36":0.5314210057258606,"37":0.25598815083503723,"38":0.10625765472650528,"39":-0.039778269827365875,"40":0.03888842463493347,"41":0.07043732702732086,"42":0.06109016388654709,"43":-0.15885460376739502,"44":-0.02117813751101494,"45":0.06062169745564461,"46":-0.19996002316474915,"47":-0.04927977919578552,"48":-0.2357933074235916,"49":0.17242813110351562,"50":-0.06868451088666916,"51":-0.17485979199409485,"52":-0.3701396584510803,"53":-0.32858264446258545,"54":0.05649891123175621,"55":0.11212616413831711,"56":0.16891205310821533,"57":0.2811259925365448,"58":0.3645018935203552,"59":0.13070550560951233,"60":-0.06508981436491013,"61":-0.13267160952091217,"62":0.229536771774292,"63":0.14156007766723633,"64":-0.10464227944612503,"65":0.11659017950296402,"66":-0.009703794494271278,"67":-0.11100728064775467,"68":0.09132302552461624,"69":-0.0163913331925869,"70":-0.1920848786830902,"71":0.11683566123247147,"72":0.01368948258459568,"73":0.14052936434745789,"74":0.009641170501708984,"75":-0.1378418356180191,"76":-0.0628696158528328,"77":0.08884631842374802,"78":0.17471107840538025,"79":0.008983079344034195,"80":-0.04490000009536743,"81":-0.12940102815628052,"82":-0.13346070051193237,"83":0.08897721022367477,"84":0.008100378327071667,"85":0.027744583785533905,"86":-0.07418609410524368,"87":-0.05171368271112442,"88":0.11146118491888046,"89":-0.12748229503631592,"90":0.04302187263965607,"91":0.19096775352954865,"92":-0.16108302772045135,"93":0.182126984000206,"94":-0.09559539705514908,"95":0.1367088109254837,"96":0.077492855489254,"97":0.18215148150920868,"98":-0.16748256981372833,"99":0.1641702502965927,"100":0.08911008387804031,"101":-0.1072748675942421,"102":-0.1907029002904892,"103":0.056546650826931,"104":0.12667788565158844,"105":0.12476202100515366,"106":0.05707518011331558,"107":-0.11756565421819687,"108":0.06958921998739243,"109":-0.16342519223690033,"110":0.11429139226675034,"111":0.023378562182188034,"112":0.044145651161670685,"113":0.06720612198114395,"114":0.1829780787229538}},"14":{"bias":0.08565255254507065,"weights":{"0":0.24324791133403778,"1":0.24403588473796844,"2":0.34790295362472534,"3":-0.07688028365373611,"4":0.06786590814590454,"5":0.006821773014962673,"6":-0.4367732107639313,"7":-0.40797659754753113,"8":0.03850299492478371,"9":0.16385047137737274,"10":0.10600595921278,"11":-0.24816039204597473,"12":-0.27296602725982666,"13":-0.2922289967536926,"14":-0.09719004482030869,"15":-0.009114631451666355,"16":-0.07358933240175247,"17":0.11944499611854553,"18":0.16945840418338776,"19":-0.049355603754520416,"20":-0.07095778733491898,"21":-0.14889837801456451,"22":-0.10166435688734055,"23":0.20293554663658142,"24":0.3367205262184143,"25":0.37725523114204407,"26":-0.13325569033622742,"27":0.18410618603229523,"28":0.03361238166689873,"29":-0.5605909824371338,"30":-0.5612528324127197,"31":0.013640877790749073,"32":0.05349951609969139,"33":0.07632444053888321,"34":-0.3472541868686676,"35":-0.5020837783813477,"36":-0.20791329443454742,"37":-0.22078126668930054,"38":-0.17741014063358307,"39":0.2294308990240097,"40":0.2738402485847473,"41":0.3705742657184601,"42":0.2102634459733963,"43":-0.06845781952142715,"44":0.021244116127490997,"45":-0.053413596004247665,"46":0.18804886937141418,"47":0.4942646622657776,"48":0.29885295033454895,"49":-0.18731839954853058,"50":-0.011102277785539627,"51":0.16502760350704193,"52":-0.35679131746292114,"53":-0.1789267659187317,"54":-0.1376132369041443,"55":0.15042497217655182,"56":-0.04487154260277748,"57":-0.3143531382083893,"58":-0.05865079537034035,"59":-0.1484779268503189,"60":-0.18393675982952118,"61":-0.1202722117304802,"62":-0.050634730607271194,"63":0.2086724489927292,"64":-0.021304946392774582,"65":0.12183961272239685,"66":0.16089479625225067,"67":0.03996017947793007,"68":0.0354798324406147,"69":-0.02396232634782791,"70":0.06018136441707611,"71":-0.1293996423482895,"72":-0.03733113035559654,"73":0.033833738416433334,"74":0.11349575966596603,"75":0.18797095119953156,"76":-0.12683312594890594,"77":0.15817715227603912,"78":-0.030505074188113213,"79":-0.17393915355205536,"80":-0.14550916850566864,"81":0.10208951681852341,"82":0.08867096155881882,"83":-0.07499649375677109,"84":0.196065291762352,"85":0.026354804635047913,"86":0.251853883266449,"87":0.1909985989332199,"88":0.0025640702806413174,"89":-0.0797896608710289,"90":0.0024033193476498127,"91":0.04464640095829964,"92":0.15400497615337372,"93":0.1251399666070938,"94":-0.15151934325695038,"95":0.05511322245001793,"96":-0.1834419220685959,"97":0.16686202585697174,"98":-0.198900505900383,"99":-0.07153543084859848,"100":-0.10767398029565811,"101":0.14035971462726593,"102":-0.055758286267519,"103":-0.030195049941539764,"104":0.014489436522126198,"105":0.1579284816980362,"106":-0.05221233144402504,"107":-0.1569356471300125,"108":0.07521698623895645,"109":0.1235339492559433,"110":0.05718357488512993,"111":0.08896113187074661,"112":-0.1742025762796402,"113":0.17449285089969635,"114":0.03236005827784538}},"15":{"bias":0.09279285371303558,"weights":{"0":-0.10508336126804352,"1":-0.45524075627326965,"2":-0.13172028958797455,"3":-0.03447310999035835,"4":0.0053481063805520535,"5":-0.16015976667404175,"6":0.2581236958503723,"7":0.260972797870636,"8":0.09812182188034058,"9":-0.006429208908230066,"10":0.13908621668815613,"11":0.00704429903998971,"12":0.11367335915565491,"13":0.18150830268859863,"14":-0.19337651133537292,"15":-0.0523253008723259,"16":-0.16817167401313782,"17":-0.11088204383850098,"18":0.13206155598163605,"19":-0.04453502967953682,"20":-0.04184841364622116,"21":0.17714157700538635,"22":-0.18185928463935852,"23":-0.2601805031299591,"24":-0.509423553943634,"25":-0.14582303166389465,"26":-0.06114175543189049,"27":0.17837020754814148,"28":0.12837128341197968,"29":0.3989836871623993,"30":0.3611465394496918,"31":0.05127691850066185,"32":0.14985498785972595,"33":-0.19648605585098267,"34":0.07544560730457306,"35":0.07466205954551697,"36":0.29913705587387085,"37":0.10469519346952438,"38":0.06362943351268768,"39":0.017339009791612625,"40":-0.20737965404987335,"41":-0.13718563318252563,"42":-0.16110417246818542,"43":-0.0005043888813816011,"44":0.08402887731790543,"45":-0.11653204262256622,"46":-0.13829760253429413,"47":-0.4487209916114807,"48":-0.03716956079006195,"49":0.015455562621355057,"50":-0.19385063648223877,"51":-0.11158161610364914,"52":0.22625192999839783,"53":0.29173779487609863,"54":0.0808858573436737,"55":-0.1951363980770111,"56":0.08269163966178894,"57":0.23596642911434174,"58":0.17997127771377563,"59":0.11458335816860199,"60":0.02813739702105522,"61":-0.05814002454280853,"62":-0.149142324924469,"63":-0.13773277401924133,"64":0.12609760463237762,"65":0.004874817561358213,"66":-0.1914711594581604,"67":-0.024215340614318848,"68":0.1532972753047943,"69":0.1046091765165329,"70":0.15930300951004028,"71":-0.16349604725837708,"72":0.054826848208904266,"73":0.04643179476261139,"74":-0.09964723140001297,"75":0.05434444546699524,"76":0.03090079501271248,"77":0.06775198131799698,"78":-0.011044055223464966,"79":0.1570856273174286,"80":0.04089799523353577,"81":0.06457348167896271,"82":0.07634223252534866,"83":0.11589431762695312,"84":-0.14336904883384705,"85":-0.029650654643774033,"86":-0.10510062426328659,"87":-0.194462388753891,"88":0.03266165032982826,"89":-0.18964064121246338,"90":-0.07582373917102814,"91":0.11434148252010345,"92":0.00009462627349421382,"93":0.03386318311095238,"94":-0.17715147137641907,"95":0.18402570486068726,"96":0.06110459938645363,"97":0.06005196273326874,"98":-0.019144538789987564,"99":0.006752616260200739,"100":-0.05147768557071686,"101":-0.001032125437632203,"102":0.03699905425310135,"103":0.19436296820640564,"104":-0.03254786878824234,"105":-0.09214863926172256,"106":0.13558250665664673,"107":-0.19977286458015442,"108":0.13199424743652344,"109":0.06101725995540619,"110":-0.12576241791248322,"111":-0.06334535777568817,"112":-0.09229458123445511,"113":0.0014319407055154443,"114":0.027666039764881134}},"16":{"bias":-0.026490578427910805,"weights":{"0":0.19943545758724213,"1":0.2846757173538208,"2":0.0312538705766201,"3":-0.02378642000257969,"4":-0.1917886584997177,"5":0.08929286152124405,"6":0.04485644772648811,"7":0.1942700296640396,"8":-0.03258787840604782,"9":0.14208681881427765,"10":0.07802081853151321,"11":-0.191877543926239,"12":-0.4248153567314148,"13":-0.11326896399259567,"14":0.17944572865962982,"15":-0.08761052042245865,"16":-0.029565170407295227,"17":-0.09766782075166702,"18":0.2686741054058075,"19":0.17137451469898224,"20":-0.11350535601377487,"21":-0.13563179969787598,"22":0.11206535995006561,"23":0.03913244977593422,"24":0.2869110703468323,"25":0.02105114795267582,"26":0.06664339452981949,"27":0.1185947135090828,"28":-0.10430112481117249,"29":0.06651275604963303,"30":0.11954165995121002,"31":0.007972284220159054,"32":0.19351954758167267,"33":0.019208580255508423,"34":-0.005547183565795422,"35":-0.4590059220790863,"36":-0.5597401261329651,"37":0.00022803296451456845,"38":-0.11303362250328064,"39":0.09955590963363647,"40":0.22933821380138397,"41":0.1260663866996765,"42":-0.06096784770488739,"43":-0.027705270797014236,"44":0.1326448917388916,"45":-0.0746031180024147,"46":-0.02115226536989212,"47":0.025074660778045654,"48":0.24653969705104828,"49":0.1675860732793808,"50":-0.1465417593717575,"51":-0.14424756169319153,"52":-0.012988130562007427,"53":-0.14567865431308746,"54":-0.04743571951985359,"55":-0.12043333053588867,"56":-0.13459254801273346,"57":-0.177419513463974,"58":-0.21068903803825378,"59":-0.2622870206832886,"60":0.1605025827884674,"61":-0.17151126265525818,"62":0.07217254489660263,"63":0.1346297264099121,"64":-0.056375034153461456,"65":0.21154570579528809,"66":-0.14887823164463043,"67":-0.12281887978315353,"68":0.07865136861801147,"69":0.1058402732014656,"70":0.14882925152778625,"71":0.1461498886346817,"72":-0.17569391429424286,"73":-0.0470329113304615,"74":0.13059347867965698,"75":-0.1951369345188141,"76":-0.07887956500053406,"77":-0.16260187327861786,"78":-0.18423688411712646,"79":0.17885465919971466,"80":0.100575752556324,"81":0.09404824674129486,"82":0.1427403837442398,"83":0.043438706547021866,"84":0.032031264156103134,"85":-0.11981233954429626,"86":-0.1557658314704895,"87":-0.09263908863067627,"88":-0.0658983662724495,"89":0.04264103248715401,"90":-0.028610218316316605,"91":-0.1636618971824646,"92":0.07185711711645126,"93":0.03324674442410469,"94":0.18149423599243164,"95":0.07590170204639435,"96":0.0813613012433052,"97":0.007192805875092745,"98":-0.08633328974246979,"99":0.027538761496543884,"100":-0.05493262782692909,"101":0.009908151812851429,"102":-0.038756635040044785,"103":-0.09458242356777191,"104":0.1334448903799057,"105":0.04154862090945244,"106":-0.13960477709770203,"107":0.08766599744558334,"108":0.08341009169816971,"109":0.05122305825352669,"110":-0.05658958479762077,"111":0.15608903765678406,"112":-0.16570821404457092,"113":-0.16341303288936615,"114":-0.0672575831413269}},"17":{"bias":0.12574702501296997,"weights":{"0":0.10173068195581436,"1":0.2696382999420166,"2":0.14963842928409576,"3":-0.14005908370018005,"4":-0.12976430356502533,"5":-0.03152815252542496,"6":0.0647435188293457,"7":-0.07689788192510605,"8":0.01650945656001568,"9":0.10516732186079025,"10":-0.04062134772539139,"11":-0.1050853282213211,"12":0.2517976462841034,"13":0.3007219433784485,"14":-0.09855706244707108,"15":-0.14870740473270416,"16":-0.15560154616832733,"17":-0.00446430454030633,"18":-0.23049186170101166,"19":-0.07251863181591034,"20":0.027283910661935806,"21":-0.021525215357542038,"22":-0.085626982152462,"23":0.00662995595484972,"24":0.1420135498046875,"25":0.07609657198190689,"26":-0.037838272750377655,"27":-0.009163309819996357,"28":0.1403767615556717,"29":-0.2268913984298706,"30":-0.05631202831864357,"31":-0.12530072033405304,"32":0.011821809224784374,"33":-0.16174495220184326,"34":-0.0733887180685997,"35":0.2935098111629486,"36":0.14206573367118835,"37":0.13402539491653442,"38":0.1991157978773117,"39":0.023494331166148186,"40":-0.4343664348125458,"41":-0.19805799424648285,"42":-0.3031759560108185,"43":0.01152044627815485,"44":0.1508893519639969,"45":-0.12199220061302185,"46":0.16981135308742523,"47":0.20303380489349365,"48":0.18923600018024445,"49":-0.1276869773864746,"50":-0.12085246294736862,"51":-0.14374223351478577,"52":-0.16081832349300385,"53":0.15423992276191711,"54":0.00933773536235094,"55":-0.19337886571884155,"56":0.0484207421541214,"57":-0.03295101597905159,"58":0.276258647441864,"59":0.14603711664676666,"60":-0.11825800687074661,"61":0.0370195098221302,"62":-0.06966877728700638,"63":-0.09733488410711288,"64":-0.25279495120048523,"65":-0.03857739269733429,"66":-0.07587132602930069,"67":-0.013224581256508827,"68":-0.1098233014345169,"69":0.19569317996501923,"70":0.021821973845362663,"71":0.18924590945243835,"72":-0.006719446741044521,"73":0.1757369041442871,"74":-0.1599089503288269,"75":-0.036043256521224976,"76":0.18054315447807312,"77":0.07979533821344376,"78":-0.0786847397685051,"79":-0.15635649859905243,"80":-0.19168062508106232,"81":0.11582203954458237,"82":0.1390075534582138,"83":0.0383310429751873,"84":0.19725902378559113,"85":-0.053544193506240845,"86":0.15640558302402496,"87":-0.04323462396860123,"88":0.07182013988494873,"89":-0.044133372604846954,"90":0.1154182180762291,"91":0.027297023683786392,"92":-0.18502087891101837,"93":0.09341432899236679,"94":-0.12863872945308685,"95":-0.03750045597553253,"96":0.2037963569164276,"97":-0.1403624713420868,"98":-0.010040109045803547,"99":0.0470728874206543,"100":-0.17988057434558868,"101":-0.0768142119050026,"102":0.13592642545700073,"103":0.07372306287288666,"104":-0.1276387721300125,"105":-0.18521179258823395,"106":0.0694032609462738,"107":-0.10542726516723633,"108":0.06251126527786255,"109":-0.10692157596349716,"110":0.10871017724275589,"111":-0.08108172565698624,"112":0.18852974474430084,"113":0.03685343638062477,"114":0.1431724727153778}},"18":{"bias":0.14140461385250092,"weights":{"0":0.07585832476615906,"1":-0.09432937204837799,"2":0.12402818351984024,"3":-0.17047956585884094,"4":0.032096296548843384,"5":0.1232098937034607,"6":-0.2621768116950989,"7":-0.11667526513338089,"8":-0.00046390958596020937,"9":-0.07052552700042725,"10":0.013364867307245731,"11":0.18645234405994415,"12":-0.0862194150686264,"13":0.004628720693290234,"14":-0.20541499555110931,"15":0.09225378930568695,"16":0.10442560911178589,"17":-0.08797894418239594,"18":0.1710357964038849,"19":0.11848023533821106,"20":-0.16342076659202576,"21":-0.11570031940937042,"22":0.15227119624614716,"23":-0.12139789015054703,"24":-0.00409820768982172,"25":-0.15596413612365723,"26":0.027600258588790894,"27":-0.06985209882259369,"28":-0.05631706491112709,"29":-0.11419877409934998,"30":-0.26011955738067627,"31":0.15042632818222046,"32":0.016919028013944626,"33":0.059335075318813324,"34":0.14013800024986267,"35":0.33660343289375305,"36":0.3138830363750458,"37":0.10072135925292969,"38":-0.1535203754901886,"39":-0.157084122300148,"40":0.1309477686882019,"41":0.04043303802609444,"42":-0.126371830701828,"43":0.030624698847532272,"44":0.038527753204107285,"45":-0.0500476211309433,"46":-0.10399773716926575,"47":-0.2130873203277588,"48":0.060104720294475555,"49":-0.1682344228029251,"50":0.09693779051303864,"51":0.14424993097782135,"52":-0.09465395659208298,"53":-0.15799404680728912,"54":-0.0735468864440918,"55":0.0135538624599576,"56":0.031246662139892578,"57":0.21351279318332672,"58":0.1718032956123352,"59":0.18140281736850739,"60":0.1111549586057663,"61":0.1523594856262207,"62":0.19777657091617584,"63":0.10992927849292755,"64":-0.054788075387477875,"65":-0.0525885634124279,"66":0.15400733053684235,"67":-0.0575270876288414,"68":0.13954617083072662,"69":-0.11109569668769836,"70":0.08421964943408966,"71":0.09780831634998322,"72":-0.006921377964317799,"73":-0.1682461053133011,"74":-0.17149312794208527,"75":0.023687023669481277,"76":-0.09738563001155853,"77":-0.1370229572057724,"78":0.0910530686378479,"79":-0.030102115124464035,"80":-0.11972561478614807,"81":0.1358860284090042,"82":0.1041671633720398,"83":0.05983351171016693,"84":-0.21254245936870575,"85":-0.13514626026153564,"86":-0.01895778253674507,"87":0.07044416666030884,"88":0.08729857206344604,"89":0.03790568560361862,"90":-0.17253859341144562,"91":-0.019032809883356094,"92":0.15197913348674774,"93":-0.15782485902309418,"94":0.09956152737140656,"95":0.05485735088586807,"96":-0.005244706757366657,"97":0.06439828872680664,"98":-0.1034500002861023,"99":-0.012619802728295326,"100":0.14646688103675842,"101":-0.2091066688299179,"102":-0.010877775959670544,"103":-0.0030216241721063852,"104":0.16469550132751465,"105":0.16356562077999115,"106":0.059646591544151306,"107":-0.11573435366153717,"108":-0.10600721836090088,"109":0.03209831193089485,"110":0.027394697070121765,"111":0.008450896479189396,"112":-0.09633775055408478,"113":-0.21252253651618958,"114":-0.19527114927768707}},"19":{"bias":-0.2216433882713318,"weights":{"0":0.10527712851762772,"1":0.36008134484291077,"2":0.15704737603664398,"3":0.15573087334632874,"4":-0.08093655854463577,"5":-0.21755531430244446,"6":0.12132194638252258,"7":0.1274726837873459,"8":0.08654014021158218,"9":-0.010268256068229675,"10":0.15094740688800812,"11":-0.005030943546444178,"12":0.05165821686387062,"13":0.19696782529354095,"14":-0.057486921548843384,"15":0.0036402111873030663,"16":0.10935819894075394,"17":-0.35579779744148254,"18":-0.16078484058380127,"19":-0.2104618102312088,"20":-0.0864730253815651,"21":-0.14443376660346985,"22":-0.0462370365858078,"23":0.23002201318740845,"24":0.6391035914421082,"25":0.42178064584732056,"26":0.1605658233165741,"27":0.008383468724787235,"28":-0.1194470077753067,"29":-0.017758021131157875,"30":0.12426099181175232,"31":0.16095247864723206,"32":0.06560736894607544,"33":-0.024522751569747925,"34":0.12521465122699738,"35":-0.0843428298830986,"36":0.20028232038021088,"37":0.2497512847185135,"38":0.05617716908454895,"39":-0.2878686189651489,"40":-0.5897719860076904,"41":-0.4717901349067688,"42":-0.2434498816728592,"43":-0.038560666143894196,"44":0.0035710406955331564,"45":-0.141402468085289,"46":0.14059942960739136,"47":0.34297364950180054,"48":0.31249141693115234,"49":-0.06598678231239319,"50":-0.1399085521697998,"51":-0.0890178456902504,"52":0.1160803809762001,"53":-0.02699868753552437,"54":0.11906486004590988,"55":0.16391712427139282,"56":0.07854225486516953,"57":0.05695875734090805,"58":0.02798505313694477,"59":-0.070216603577137,"60":-0.01301764976233244,"61":0.09308973699808121,"62":-0.07103169709444046,"63":-0.4933706521987915,"64":-0.20619013905525208,"65":-0.17628628015518188,"66":0.08188370615243912,"67":-0.049019962549209595,"68":-0.03973989188671112,"69":-0.10081363469362259,"70":-0.008962700143456459,"71":0.13680604100227356,"72":0.0495373010635376,"73":-0.06434884667396545,"74":0.12448053807020187,"75":-0.02997029386460781,"76":0.1505315750837326,"77":-0.16029588878154755,"78":0.020826570689678192,"79":0.019441921263933182,"80":0.05273614078760147,"81":-0.06200437992811203,"82":-0.17742188274860382,"83":0.05742345005273819,"84":-0.02126610279083252,"85":-0.12116698175668716,"86":-0.16151423752307892,"87":-0.025405608117580414,"88":0.10779378563165665,"89":-0.12490321695804596,"90":-0.21053272485733032,"91":0.03673570603132248,"92":0.06662865728139877,"93":0.0069717420265078545,"94":0.0975160226225853,"95":0.16341416537761688,"96":0.13898323476314545,"97":0.16047567129135132,"98":-0.20231010019779205,"99":0.026941832154989243,"100":-0.17748062312602997,"101":-0.09476201981306076,"102":-0.12034912407398224,"103":0.15552881360054016,"104":-0.1288444995880127,"105":0.08554723113775253,"106":-0.0032466992270201445,"107":-0.05866368114948273,"108":0.024935364723205566,"109":0.11112111061811447,"110":0.09751611202955246,"111":-0.07321486622095108,"112":-0.15791429579257965,"113":-0.04481697082519531,"114":-0.2216922640800476}},"20":{"bias":-0.14165599644184113,"weights":{"0":-0.11663736402988434,"1":0.13842767477035522,"2":-0.17588990926742554,"3":0.10898379236459732,"4":-0.08935799449682236,"5":0.1963757872581482,"6":-0.1003190129995346,"7":-0.021806471049785614,"8":-0.15399055182933807,"9":-0.09488744288682938,"10":0.03158651292324066,"11":0.0482327900826931,"12":-0.08437205851078033,"13":-0.0077789849601686,"14":-0.1352095901966095,"15":0.1946089118719101,"16":-0.09612128883600235,"17":0.03746004030108452,"18":0.13454589247703552,"19":-0.12617476284503937,"20":0.06133122369647026,"21":0.027255503460764885,"22":-0.07212896645069122,"23":0.06112838536500931,"24":0.015047915279865265,"25":-0.11233089864253998,"26":0.14749263226985931,"27":0.053989995270967484,"28":-0.09867661446332932,"29":0.08337075263261795,"30":0.0973270982503891,"31":0.05262399837374687,"32":0.12033025175333023,"33":-0.18743564188480377,"34":-0.08492540568113327,"35":-0.17389817535877228,"36":-0.2456185221672058,"37":-0.2541239857673645,"38":-0.1108451709151268,"39":0.16396759450435638,"40":0.03356589376926422,"41":-0.024136871099472046,"42":-0.011292804963886738,"43":-0.10509219020605087,"44":0.10411736369132996,"45":0.16100944578647614,"46":0.1041083112359047,"47":0.18918044865131378,"48":0.20061741769313812,"49":0.030232461169362068,"50":-0.18270540237426758,"51":0.12996941804885864,"52":-0.06954919546842575,"53":0.057268936187028885,"54":-0.08937353640794754,"55":0.07415571063756943,"56":-0.06870849430561066,"57":-0.07233602553606033,"58":-0.11680182069540024,"59":-0.24060890078544617,"60":-0.1766577810049057,"61":-0.16945354640483856,"62":-0.06592129170894623,"63":0.1490420550107956,"64":0.04647844657301903,"65":-0.057354532182216644,"66":0.08977623283863068,"67":0.06362905353307724,"68":0.03665011376142502,"69":0.0354350283741951,"70":-0.14505548775196075,"71":0.1163363829255104,"72":0.1569204479455948,"73":0.11758725345134735,"74":0.010289659723639488,"75":-0.09664470702409744,"76":0.15548112988471985,"77":0.12783940136432648,"78":0.08417011797428131,"79":0.09909145534038544,"80":0.11551915854215622,"81":-0.14822231233119965,"82":-0.11241930723190308,"83":0.11735532432794571,"84":-0.055381957441568375,"85":0.11665167659521103,"86":0.017945105209946632,"87":-0.017977839335799217,"88":0.057239171117544174,"89":-0.09151814877986908,"90":-0.14795374870300293,"91":0.18072743713855743,"92":0.005571585148572922,"93":-0.16445337235927582,"94":0.08226264268159866,"95":-0.08564884215593338,"96":0.006820137612521648,"97":-0.16501714289188385,"98":0.10348378866910934,"99":-0.043460432440042496,"100":-0.06667669862508774,"101":-0.10200297087430954,"102":-0.09911862015724182,"103":0.12807703018188477,"104":-0.10431385785341263,"105":0.15862444043159485,"106":0.05740868300199509,"107":-0.016271086409687996,"108":0.1994938999414444,"109":-0.08311837166547775,"110":0.18681778013706207,"111":-0.0867292657494545,"112":0.20560553669929504,"113":-0.05618085712194443,"114":-0.11463609337806702}},"21":{"bias":-0.09816298633813858,"weights":{"0":-0.1748705804347992,"1":0.13872621953487396,"2":-0.19042769074440002,"3":0.16078081727027893,"4":0.08267395198345184,"5":-0.13075117766857147,"6":-0.16707873344421387,"7":-0.14676088094711304,"8":0.18382570147514343,"9":-0.19790971279144287,"10":-0.1962464451789856,"11":0.16910484433174133,"12":0.1676308810710907,"13":-0.07941578328609467,"14":-0.019783509895205498,"15":-0.18112587928771973,"16":0.06593677401542664,"17":-0.0331006720662117,"18":-0.05166018754243851,"19":-0.23091928660869598,"20":0.09824647009372711,"21":-0.0028648648876696825,"22":-0.09104742109775543,"23":0.06428598612546921,"24":-0.1868422031402588,"25":-0.21063001453876495,"26":-0.05487162619829178,"27":0.06468629837036133,"28":-0.07957207411527634,"29":0.01279541477560997,"30":-0.056301604956388474,"31":0.011759785003960133,"32":0.17237824201583862,"33":-0.2068060338497162,"34":-0.04154294729232788,"35":0.021845119073987007,"36":0.26163429021835327,"37":-0.042287006974220276,"38":0.07565947622060776,"39":-0.10027597844600677,"40":-0.025354893878102303,"41":-0.05809468775987625,"42":-0.15486782789230347,"43":-0.09233330935239792,"44":-0.11827757209539413,"45":0.072357177734375,"46":0.15142874419689178,"47":0.13621287047863007,"48":0.14046432077884674,"49":-0.0417417548596859,"50":0.1238827034831047,"51":0.05186951532959938,"52":-0.17274168133735657,"53":-0.007856154814362526,"54":0.002651845570653677,"55":-0.027633128687739372,"56":0.16221536695957184,"57":-0.11347279697656631,"58":0.005631598643958569,"59":0.1605147272348404,"60":0.09052756428718567,"61":-0.16688385605812073,"62":-0.10605683922767639,"63":0.09162217378616333,"64":-0.062469884753227234,"65":0.04311339557170868,"66":-0.1521657109260559,"67":0.1478649228811264,"68":-0.13493475317955017,"69":0.1051277294754982,"70":-0.13559108972549438,"71":-0.018373465165495872,"72":0.07124872505664825,"73":-0.16223865747451782,"74":-0.12638306617736816,"75":0.037984780967235565,"76":-0.005268976557999849,"77":-0.044490739703178406,"78":-0.06906277686357498,"79":-0.054421477019786835,"80":-0.17786942422389984,"81":0.059579819440841675,"82":0.14693336188793182,"83":0.16795670986175537,"84":0.17895281314849854,"85":0.10048055648803711,"86":0.07831065356731415,"87":0.10251005738973618,"88":0.10831417888402939,"89":-0.04791733995079994,"90":0.03346610814332962,"91":-0.019040940329432487,"92":-0.10565238445997238,"93":0.06508517265319824,"94":0.09185101836919785,"95":-0.00222453149035573,"96":-0.0578484907746315,"97":0.18506039679050446,"98":0.01476332452148199,"99":0.026487046852707863,"100":0.13398106396198273,"101":-0.07211532443761826,"102":0.17469288408756256,"103":-0.17286871373653412,"104":-0.17868520319461823,"105":-0.09224412590265274,"106":0.16979652643203735,"107":0.086009182035923,"108":-0.14792513847351074,"109":0.07800404727458954,"110":0.09916555881500244,"111":0.04901580885052681,"112":0.036944471299648285,"113":-0.0042235455475747585,"114":0.03191320225596428}},"22":{"bias":-0.0947011187672615,"weights":{"0":0.046400152146816254,"1":-0.020873533561825752,"2":-0.13625174760818481,"3":-0.19032494723796844,"4":0.024802029132843018,"5":0.1590312421321869,"6":-0.13325172662734985,"7":-0.05323240906000137,"8":0.13301555812358856,"9":-0.1437179148197174,"10":0.07434744387865067,"11":-0.05360626429319382,"12":-0.02575453370809555,"13":-0.21944358944892883,"14":0.1287732571363449,"15":-0.17099349200725555,"16":0.07747247070074081,"17":0.19585083425045013,"18":0.07002629339694977,"19":0.10223875194787979,"20":0.14876510202884674,"21":0.1080840453505516,"22":0.09272266924381256,"23":-0.17498266696929932,"24":-0.33522406220436096,"25":-0.30725160241127014,"26":0.17490513622760773,"27":-0.1443360149860382,"28":-0.10234314948320389,"29":-0.10027796775102615,"30":-0.36561504006385803,"31":-0.21450522541999817,"32":0.051947951316833496,"33":-0.07744539529085159,"34":-0.19009456038475037,"35":-0.24320828914642334,"36":-0.2668777108192444,"37":-0.13969223201274872,"38":-0.15616418421268463,"39":0.15231755375862122,"40":0.45482316613197327,"41":0.6010605096817017,"42":0.19127045571804047,"43":-0.06870681792497635,"44":-0.1752167046070099,"45":0.1140703409910202,"46":-0.11557523161172867,"47":-0.26583024859428406,"48":0.08831692487001419,"49":-0.024246059358119965,"50":0.08360560238361359,"51":-0.08810809254646301,"52":-0.17821542918682098,"53":-0.2483377754688263,"54":-0.08331471681594849,"55":-0.12118171900510788,"56":0.06223941594362259,"57":0.18966500461101532,"58":0.10023998469114304,"59":-0.1619151085615158,"60":0.07738271355628967,"61":-0.059139885008335114,"62":-0.057392872869968414,"63":0.4348173141479492,"64":0.30184081196784973,"65":-0.05025879293680191,"66":-0.08467496931552887,"67":0.18865950405597687,"68":-0.06418845057487488,"69":0.17915110290050507,"70":-0.027665017172694206,"71":-0.012977604754269123,"72":0.1967870444059372,"73":0.0676017701625824,"74":0.08426214754581451,"75":0.0547909140586853,"76":-0.02693580463528633,"77":-0.020883556455373764,"78":-0.06751137971878052,"79":0.02613263949751854,"80":0.19210928678512573,"81":0.008813864551484585,"82":0.18616552650928497,"83":0.18849483132362366,"84":0.03688903525471687,"85":0.0941455066204071,"86":0.0878281369805336,"87":0.05703026056289673,"88":0.12923496961593628,"89":-0.06427020579576492,"90":0.1900475025177002,"91":-0.07744444161653519,"92":0.10549981892108917,"93":-0.12529806792736053,"94":0.09594739228487015,"95":-0.10390175879001617,"96":0.0708937719464302,"97":-0.115000419318676,"98":-0.004641591105610132,"99":0.14465878903865814,"100":0.04303741827607155,"101":-0.06870651245117188,"102":-0.07736530154943466,"103":-0.09819608926773071,"104":-0.042748019099235535,"105":-0.12197084724903107,"106":-0.09344130754470825,"107":-0.11895512044429779,"108":-0.10245086252689362,"109":-0.013969946652650833,"110":0.2126566469669342,"111":0.11932595819234848,"112":0.1554921269416809,"113":0.17890559136867523,"114":-0.00905554834753275}},"23":{"bias":-0.07117833197116852,"weights":{"0":-0.0059938798658549786,"1":0.09809694439172745,"2":0.23333653807640076,"3":-0.1622263491153717,"4":-0.1587114781141281,"5":-0.12321116775274277,"6":-0.2525327801704407,"7":-0.27270856499671936,"8":0.07271727174520493,"9":-0.17571541666984558,"10":0.14237867295742035,"11":0.14982859790325165,"12":-0.26509952545166016,"13":-0.2348928600549698,"14":-0.10750780999660492,"15":-0.048053476959466934,"16":0.09693214297294617,"17":0.05080664902925491,"18":-0.10664737969636917,"19":0.1597914695739746,"20":0.17650772631168365,"21":0.10780845582485199,"22":0.12889373302459717,"23":0.2775459587574005,"24":0.31757092475891113,"25":0.18586678802967072,"26":0.10270323604345322,"27":-0.07703989744186401,"28":-0.018760664388537407,"29":-0.4251265525817871,"30":-0.3048150837421417,"31":-0.23269541561603546,"32":-0.08178384602069855,"33":-0.15573090314865112,"34":0.11276354640722275,"35":-0.19010747969150543,"36":-0.16195209324359894,"37":0.06052149459719658,"38":-0.06034226343035698,"39":-0.11326547712087631,"40":0.01659294404089451,"41":0.22449468076229095,"42":0.14323730766773224,"43":0.16520385444164276,"44":-0.11744481325149536,"45":0.04168173298239708,"46":0.07973720133304596,"47":0.15240074694156647,"48":0.2685597538948059,"49":0.15956981480121613,"50":0.18915332853794098,"51":0.1049271821975708,"52":-0.30384087562561035,"53":-0.44423168897628784,"54":-0.0541570819914341,"55":0.022445254027843475,"56":-0.030836287885904312,"57":-0.015087003819644451,"58":0.16856445372104645,"59":0.10412854701280594,"60":-0.14555777609348297,"61":0.1721273511648178,"62":0.1477925181388855,"63":0.16514964401721954,"64":0.15957339107990265,"65":-0.04964161664247513,"66":-0.1768725961446762,"67":0.13178248703479767,"68":0.02403036504983902,"69":-0.100599005818367,"70":0.08594397455453873,"71":-0.16123820841312408,"72":0.04236255958676338,"73":-0.18249551951885223,"74":0.042953405529260635,"75":-0.0882224291563034,"76":0.024256817996501923,"77":0.11359347403049469,"78":-0.10465840995311737,"79":0.08793562650680542,"80":-0.08498786389827728,"81":-0.009640367701649666,"82":0.13157039880752563,"83":-0.1637926697731018,"84":-0.0659852921962738,"85":-0.07770563662052155,"86":0.1442597359418869,"87":0.11915057897567749,"88":-0.14379867911338806,"89":0.1450379490852356,"90":-0.039294783025979996,"91":0.17882491648197174,"92":0.18137618899345398,"93":0.16791753470897675,"94":-0.0953918993473053,"95":0.04366971179842949,"96":-0.1661933958530426,"97":0.178155779838562,"98":0.13717533648014069,"99":0.09910665452480316,"100":-0.1568429172039032,"101":-0.031707584857940674,"102":0.10858862102031708,"103":0.047066036611795425,"104":-0.19157111644744873,"105":-0.15491168200969696,"106":-0.11112080514431,"107":-0.02725531905889511,"108":-0.05256118252873421,"109":0.03928115591406822,"110":0.1633751541376114,"111":0.06404445320367813,"112":-0.08098594844341278,"113":-0.12945866584777832,"114":-0.18275322020053864}},"24":{"bias":0.05798764526844025,"weights":{"0":-0.13680028915405273,"1":0.14838846027851105,"2":-0.01956203393638134,"3":0.022314274683594704,"4":0.0537978857755661,"5":0.16454362869262695,"6":-0.20567618310451508,"7":0.14606092870235443,"8":0.1293555498123169,"9":0.20179569721221924,"10":0.17507898807525635,"11":0.09648728370666504,"12":0.06564229726791382,"13":0.1691892445087433,"14":-0.11476236581802368,"15":-0.030963271856307983,"16":-0.10954396426677704,"17":-0.07140015065670013,"18":-0.06706905364990234,"19":-0.16588252782821655,"20":-0.11436197906732559,"21":0.08037213236093521,"22":-0.19449159502983093,"23":0.11290556937456131,"24":-0.14306020736694336,"25":0.16376686096191406,"26":-0.15452173352241516,"27":-0.0650630071759224,"28":0.08292929828166962,"29":-0.23494288325309753,"30":-0.14234735071659088,"31":-0.20541994273662567,"32":0.07687244564294815,"33":-0.017360055819153786,"34":0.042013056576251984,"35":0.018881704658269882,"36":0.22171005606651306,"37":-0.0705053061246872,"38":0.044002167880535126,"39":0.09464291483163834,"40":0.10914296656847,"41":0.007814668118953705,"42":-0.07353450357913971,"43":0.03952609747648239,"44":-0.08436466753482819,"45":0.11844869703054428,"46":0.07074928283691406,"47":0.09955262392759323,"48":0.015149296261370182,"49":0.0010522372322157025,"50":-0.10310307145118713,"51":0.07071570307016373,"52":-0.09582249820232391,"53":-0.1978074610233307,"54":-0.19916340708732605,"55":-0.18957313895225525,"56":0.08215517550706863,"57":0.06240666285157204,"58":-0.0648561492562294,"59":-0.04395659640431404,"60":-0.11029589921236038,"61":0.08477677404880524,"62":0.08568481355905533,"63":-0.006147029343992472,"64":-0.18057027459144592,"65":-0.1839049607515335,"66":-0.15227645635604858,"67":-0.1047983467578888,"68":0.1715390980243683,"69":-0.029933655634522438,"70":-0.13592781126499176,"71":-0.07622890174388885,"72":0.1223587915301323,"73":0.16166546940803528,"74":-0.0033288481645286083,"75":-0.13017860054969788,"76":0.11798900365829468,"77":0.05833088979125023,"78":-0.17448389530181885,"79":0.09985695779323578,"80":-0.000059062818763777614,"81":0.05869896337389946,"82":0.15753045678138733,"83":-0.06766170263290405,"84":-0.11630862206220627,"85":0.14408907294273376,"86":0.03506668657064438,"87":0.03238889202475548,"88":0.12788426876068115,"89":-0.08964914828538895,"90":0.0893736481666565,"91":-0.01458718255162239,"92":0.023908065631985664,"93":0.128162682056427,"94":0.060529667884111404,"95":0.016971543431282043,"96":-0.14661607146263123,"97":-0.021775616332888603,"98":-0.1862962543964386,"99":-0.15407827496528625,"100":-0.15709510445594788,"101":-0.10469396412372589,"102":-0.19201460480690002,"103":0.07414959371089935,"104":0.14624974131584167,"105":-0.034353721886873245,"106":0.11145394295454025,"107":0.058773238211870193,"108":-0.06552346795797348,"109":0.08385269343852997,"110":-0.04236604645848274,"111":0.19227394461631775,"112":-0.003672188613563776,"113":-0.1821228265762329,"114":0.09748982638120651}},"25":{"bias":-0.1507287323474884,"weights":{"0":-0.17034967243671417,"1":-0.12684287130832672,"2":0.050116028636693954,"3":0.16011245548725128,"4":-0.18184155225753784,"5":0.11972682923078537,"6":-0.0387643426656723,"7":-0.24427011609077454,"8":0.030823422595858574,"9":0.032992567867040634,"10":-0.11039817333221436,"11":0.008548296988010406,"12":-0.07767084985971451,"13":-0.003397876163944602,"14":-0.023405984044075012,"15":0.14986716210842133,"16":0.04971776157617569,"17":0.06655541062355042,"18":0.11917253583669662,"19":0.11634427309036255,"20":0.0263705775141716,"21":0.0169060081243515,"22":-0.10552298277616501,"23":-0.14000383019447327,"24":-0.1909041851758957,"25":0.0849674865603447,"26":-0.0029739062301814556,"27":0.20829851925373077,"28":0.03737419471144676,"29":-0.23557451367378235,"30":-0.21837517619132996,"31":-0.1449005901813507,"32":0.18391023576259613,"33":0.06436173617839813,"34":0.16938497126102448,"35":0.05582880973815918,"36":0.18286344408988953,"37":0.1636987328529358,"38":-0.04760963097214699,"39":0.09355635195970535,"40":0.20616920292377472,"41":0.2360074520111084,"42":0.14777542650699615,"43":-0.026814838871359825,"44":-0.029758205637335777,"45":-0.13332632184028625,"46":0.12229269742965698,"47":-0.20535680651664734,"48":-0.13632412254810333,"49":-0.1272408366203308,"50":0.10420604795217514,"51":0.12805134057998657,"52":0.034473299980163574,"53":-0.038022831082344055,"54":-0.11911061406135559,"55":0.12997445464134216,"56":0.11585105210542679,"57":0.18706999719142914,"58":0.03638146445155144,"59":0.24210382997989655,"60":0.1522139310836792,"61":-0.053881675004959106,"62":-0.10440681129693985,"63":0.018935270607471466,"64":0.003020319389179349,"65":-0.05766654387116432,"66":-0.0061120218597352505,"67":-0.11679227650165558,"68":-0.1770903766155243,"69":-0.12616632878780365,"70":-0.12798604369163513,"71":0.10417652875185013,"72":-0.138844832777977,"73":-0.06103682145476341,"74":-0.0040559181943535805,"75":0.004544582683593035,"76":0.06013187766075134,"77":-0.061760637909173965,"78":0.04309440404176712,"79":-0.18393516540527344,"80":0.07740166783332825,"81":-0.05965711921453476,"82":0.1493801772594452,"83":-0.07467607408761978,"84":-0.010349470190703869,"85":-0.058051351457834244,"86":-0.10427504777908325,"87":-0.08467423170804977,"88":-0.07717711478471756,"89":-0.08094803243875504,"90":-0.011203638277947903,"91":0.16453352570533752,"92":-0.04529725760221481,"93":-0.13072314858436584,"94":0.17150601744651794,"95":0.15143181383609772,"96":0.16781125962734222,"97":-0.1668989062309265,"98":0.01183128822594881,"99":-0.08984645456075668,"100":0.07152578979730606,"101":-0.010979761369526386,"102":0.1789579540491104,"103":-0.0757153332233429,"104":-0.0065652853809297085,"105":-0.10355069488286972,"106":-0.17596876621246338,"107":0.20863322913646698,"108":-0.10185254365205765,"109":-0.016472890973091125,"110":0.06327062100172043,"111":-0.1818120926618576,"112":0.03518420830368996,"113":-0.07767213135957718,"114":0.11738822609186172}},"26":{"bias":-0.16971074044704437,"weights":{"0":-0.038240283727645874,"1":0.0009976294822990894,"2":0.17330560088157654,"3":0.09439348429441452,"4":-0.1225719302892685,"5":-0.16530269384384155,"6":-0.27798381447792053,"7":-0.27509820461273193,"8":-0.006123873870819807,"9":0.0013437294401228428,"10":0.08615509420633316,"11":-0.024524599313735962,"12":0.22265586256980896,"13":0.10993196815252304,"14":0.08976007252931595,"15":0.04481961950659752,"16":0.025248099118471146,"17":-0.23969286680221558,"18":-0.2102295607328415,"19":0.03417600691318512,"20":0.16634395718574524,"21":0.04716740921139717,"22":0.19607698917388916,"23":0.061865344643592834,"24":0.34887516498565674,"25":0.11209671199321747,"26":-0.033165350556373596,"27":-0.10135733336210251,"28":0.2019277960062027,"29":-0.10042496025562286,"30":-0.11313496530056,"31":-0.17655937373638153,"32":-0.04663120582699776,"33":0.18195635080337524,"34":0.2427251935005188,"35":0.13517943024635315,"36":0.35300400853157043,"37":0.19676248729228973,"38":-0.15948501229286194,"39":-0.1020059883594513,"40":-0.2793758809566498,"41":-0.21447905898094177,"42":-0.1495211124420166,"43":0.037409838289022446,"44":0.18036627769470215,"45":0.007501091808080673,"46":-0.016750680282711983,"47":0.2572140395641327,"48":-0.05014036223292351,"49":0.04465969279408455,"50":-0.12677055597305298,"51":-0.1197395920753479,"52":-0.11449465155601501,"53":-0.1571953445672989,"54":0.12266720831394196,"55":0.1671861708164215,"56":-0.11812993139028549,"57":-0.01497818436473608,"58":0.10035163909196854,"59":0.12040180712938309,"60":0.09015614539384842,"61":0.19730079174041748,"62":0.150278702378273,"63":-0.14952372014522552,"64":-0.12515805661678314,"65":-0.19695986807346344,"66":-0.15541934967041016,"67":-0.1542423665523529,"68":-0.08440213650465012,"69":-0.023541925475001335,"70":0.10718990862369537,"71":-0.15764528512954712,"72":-0.1354089081287384,"73":-0.1758674681186676,"74":-0.17698365449905396,"75":-0.08354444801807404,"76":-0.0064268577843904495,"77":0.06973672658205032,"78":-0.09073969721794128,"79":-0.13663113117218018,"80":0.09916750341653824,"81":0.10215162485837936,"82":-0.08395925164222717,"83":-0.07907793670892715,"84":-0.12799501419067383,"85":-0.0017442209646105766,"86":-0.19149154424667358,"87":0.154361754655838,"88":-0.11997684836387634,"89":-0.11326363682746887,"90":0.012494380585849285,"91":-0.054899755865335464,"92":0.19694337248802185,"93":-0.04648462310433388,"94":-0.16155493259429932,"95":0.04280707612633705,"96":0.027895180508494377,"97":-0.022394070401787758,"98":0.0020859527867287397,"99":0.18824544548988342,"100":0.0596606470644474,"101":0.04605914279818535,"102":0.1445130705833435,"103":0.1823398470878601,"104":-0.015349719673395157,"105":0.18658730387687683,"106":0.09745664149522781,"107":-0.0006587906973436475,"108":0.015975039452314377,"109":0.038045141845941544,"110":-0.1010555550456047,"111":0.1065378487110138,"112":0.15682026743888855,"113":0.12472637742757797,"114":-0.01662183366715908}},"27":{"bias":-0.08008596301078796,"weights":{"0":-0.10274717956781387,"1":0.23447521030902863,"2":-0.009633742272853851,"3":-0.08574366569519043,"4":0.041758738458156586,"5":-0.15506550669670105,"6":0.232738196849823,"7":0.12104331701993942,"8":0.21574930846691132,"9":-0.034548141062259674,"10":0.05685468018054962,"11":0.15292595326900482,"12":0.14174669981002808,"13":0.19684313237667084,"14":-0.03942792862653732,"15":-0.054193317890167236,"16":-0.047390297055244446,"17":-0.13150757551193237,"18":-0.2903445363044739,"19":-0.28938987851142883,"20":0.005840414669364691,"21":0.11450105160474777,"22":-0.017220720648765564,"23":0.0950574055314064,"24":0.22017931938171387,"25":0.2648106813430786,"26":-0.1736522614955902,"27":-0.08844999223947525,"28":0.1377369463443756,"29":0.18063782155513763,"30":0.022534795105457306,"31":-0.10437270253896713,"32":-0.07526002824306488,"33":-0.1844903826713562,"34":0.012499839998781681,"35":0.04383557289838791,"36":-0.011785229668021202,"37":0.00657360116019845,"38":-0.030517565086483955,"39":-0.2009102702140808,"40":-0.1585998684167862,"41":-0.5108093619346619,"42":-0.1533711701631546,"43":0.16312438249588013,"44":-0.07985047250986099,"45":0.11716637015342712,"46":0.025761151686310768,"47":-0.11948144435882568,"48":0.044392749667167664,"49":-0.11744220554828644,"50":-0.110110804438591,"51":-0.15310883522033691,"52":-0.03159564733505249,"53":-0.02345230244100094,"54":0.22859971225261688,"55":-0.09134005010128021,"56":0.1155264601111412,"57":0.1918817162513733,"58":0.04157313331961632,"59":0.21001575887203217,"60":0.1145762950181961,"61":-0.10828211158514023,"62":-0.0557977557182312,"63":-0.2235536128282547,"64":-0.36180761456489563,"65":-0.028267815709114075,"66":0.210478276014328,"67":0.03958062827587128,"68":-0.043997518718242645,"69":0.1565285176038742,"70":-0.016636520624160767,"71":-0.0875331237912178,"72":0.03177064657211304,"73":0.16010288894176483,"74":-0.1221122071146965,"75":-0.1279224455356598,"76":0.021699661388993263,"77":0.19380246102809906,"78":-0.009285460226237774,"79":0.1099478080868721,"80":0.01683487929403782,"81":0.14442914724349976,"82":0.03301470726728439,"83":-0.02916799858212471,"84":-0.05642257630825043,"85":-0.06875234097242355,"86":-0.1551763266324997,"87":-0.00813994463533163,"88":-0.05459365248680115,"89":0.1639111340045929,"90":-0.13565920293331146,"91":0.18203210830688477,"92":0.060118839144706726,"93":-0.061689406633377075,"94":0.18940038979053497,"95":-0.08972182124853134,"96":0.08906454592943192,"97":-0.17822407186031342,"98":0.050836145877838135,"99":-0.0628664493560791,"100":-0.16377408802509308,"101":0.10217901319265366,"102":-0.06174342334270477,"103":0.0675586611032486,"104":-0.09716548025608063,"105":-0.00419389083981514,"106":0.08158327639102936,"107":-0.04951173812150955,"108":0.17709136009216309,"109":0.013853644952178001,"110":-0.16823171079158783,"111":-0.07404536008834839,"112":0.21072223782539368,"113":-0.16106899082660675,"114":0.03697250783443451}},"28":{"bias":-0.11359454691410065,"weights":{"0":0.09764403104782104,"1":0.07957067340612411,"2":0.06898190826177597,"3":0.1127198338508606,"4":-0.15516193211078644,"5":0.018566155806183815,"6":0.12229622155427933,"7":0.1750745326280594,"8":0.07899897545576096,"9":0.06651274114847183,"10":-0.023947978392243385,"11":0.04745053872466087,"12":-0.2511727809906006,"13":-0.11904387921094894,"14":-0.05661797150969505,"15":0.10074366629123688,"16":-0.11858990788459778,"17":-0.029426131397485733,"18":-0.016125163063406944,"19":-0.17679567635059357,"20":-0.16220547258853912,"21":0.1126922070980072,"22":-0.017220569774508476,"23":-0.1228514239192009,"24":-0.0371408611536026,"25":-0.10689407587051392,"26":-0.13058972358703613,"27":0.06710583716630936,"28":-0.18874649703502655,"29":0.04548104852437973,"30":0.1134670227766037,"31":-0.0060684336349368095,"32":-0.042258162051439285,"33":-0.015057629905641079,"34":0.020950987935066223,"35":0.05166252329945564,"36":-0.03305070474743843,"37":0.008276225067675114,"38":-0.03643670305609703,"39":-0.19928975403308868,"40":-0.23498328030109406,"41":0.018018119037151337,"42":-0.20430423319339752,"43":0.17326126992702484,"44":-0.04464161768555641,"45":-0.07620766758918762,"46":0.047770529985427856,"47":0.10166173428297043,"48":0.14648233354091644,"49":-0.12439382076263428,"50":0.14743639528751373,"51":-0.00763614010065794,"52":0.02614634856581688,"53":0.054173268377780914,"54":0.08334635943174362,"55":0.1343088001012802,"56":0.1541132628917694,"57":-0.20842458307743073,"58":0.009126793593168259,"59":-0.035659220069646835,"60":-0.06879328936338425,"61":0.13841409981250763,"62":0.015753645449876785,"63":0.028648458421230316,"64":0.15351946651935577,"65":0.1447008103132248,"66":0.05713996663689613,"67":0.14980685710906982,"68":-0.06814347952604294,"69":-0.05772726237773895,"70":-0.09202329069375992,"71":-0.04673374071717262,"72":0.06849891692399979,"73":0.12661166489124298,"74":0.01752566732466221,"75":-0.07552105188369751,"76":-0.06900190562009811,"77":-0.0767645463347435,"78":0.004485805984586477,"79":-0.05435444787144661,"80":-0.1692000925540924,"81":0.1833125352859497,"82":0.1532987505197525,"83":0.1120326966047287,"84":0.016468355432152748,"85":-0.16061519086360931,"86":0.09903749078512192,"87":0.1583365797996521,"88":0.06504824012517929,"89":0.11037322878837585,"90":0.05893168970942497,"91":-0.046382125467061996,"92":-0.15417948365211487,"93":0.0767877921462059,"94":0.035684842616319656,"95":0.14026273787021637,"96":0.049707893282175064,"97":0.09551303088665009,"98":-0.00606321357190609,"99":0.1280096173286438,"100":-0.017936034128069878,"101":0.18557211756706238,"102":-0.2066618800163269,"103":-0.08900368213653564,"104":0.04058970883488655,"105":0.08609829097986221,"106":0.1632775068283081,"107":-0.08228329569101334,"108":-0.07248713076114655,"109":-0.06604930013418198,"110":0.002902513137087226,"111":0.05616619810461998,"112":-0.21269173920154572,"113":-0.2040618658065796,"114":0.1499844789505005}},"29":{"bias":0.06913044303655624,"weights":{"0":-0.15798988938331604,"1":0.051258958876132965,"2":-0.15034671127796173,"3":0.11376927047967911,"4":-0.07920702546834946,"5":-0.1057451069355011,"6":0.06418018043041229,"7":-0.08252285420894623,"8":-0.021955326199531555,"9":-0.13520511984825134,"10":0.011117623187601566,"11":0.15325629711151123,"12":-0.1419418901205063,"13":-0.04272976517677307,"14":-0.08867570757865906,"15":0.11038830131292343,"16":-0.12256916612386703,"17":0.01075867097824812,"18":-0.15775330364704132,"19":-0.1354842633008957,"20":0.05492141470313072,"21":0.03469938784837723,"22":0.10318993031978607,"23":-0.08233916759490967,"24":0.02300276793539524,"25":0.06231231614947319,"26":-0.16110529005527496,"27":0.13731038570404053,"28":-0.1483461856842041,"29":-0.05713246390223503,"30":-0.011919844895601273,"31":-0.09186165034770966,"32":0.156389519572258,"33":0.04844655469059944,"34":-0.06045522913336754,"35":0.0762249231338501,"36":0.0661732479929924,"37":0.19689111411571503,"38":-0.0026092189364135265,"39":-0.057996004819869995,"40":0.1046377420425415,"41":-0.14043664932250977,"42":0.1617266833782196,"43":-0.20276488363742828,"44":0.11868985742330551,"45":0.12498191744089127,"46":-0.10305936634540558,"47":0.009440208785235882,"48":-0.17819306254386902,"49":-0.1638135015964508,"50":0.01617647334933281,"51":-0.13230232894420624,"52":0.06770053505897522,"53":-0.1890939176082611,"54":-0.09705784916877747,"55":0.10433235764503479,"56":-0.18088474869728088,"57":0.12417568266391754,"58":-0.14194956421852112,"59":-0.0454537570476532,"60":0.09759026765823364,"61":0.03908514603972435,"62":-0.16872577369213104,"63":0.0653209462761879,"64":-0.10279300063848495,"65":-0.0007692708168178797,"66":-0.04844958707690239,"67":-0.09037798643112183,"68":-0.13335804641246796,"69":0.084855817258358,"70":-0.12439938634634018,"71":-0.04392191022634506,"72":-0.08669807016849518,"73":-0.036000195890665054,"74":0.10714395344257355,"75":-0.0911724790930748,"76":-0.14023767411708832,"77":0.08987633883953094,"78":-0.14334392547607422,"79":-0.05085540562868118,"80":-0.006625793874263763,"81":0.01879878155887127,"82":0.0001851680426625535,"83":-0.11625543236732483,"84":0.06585429608821869,"85":0.002739660907536745,"86":-0.08212167024612427,"87":0.07806745171546936,"88":-0.16887688636779785,"89":0.019760258495807648,"90":-0.13159485161304474,"91":-0.14199601113796234,"92":0.06261882930994034,"93":-0.12406748533248901,"94":0.11259675025939941,"95":0.037269651889801025,"96":-0.1193392276763916,"97":-0.09727394580841064,"98":-0.024983860552310944,"99":0.017198288813233376,"100":-0.09297750890254974,"101":-0.0065050371922552586,"102":-0.15708158910274506,"103":0.18466238677501678,"104":0.021479031071066856,"105":-0.10000849515199661,"106":-0.13117775321006775,"107":0.14640597999095917,"108":0.11394008994102478,"109":-0.05027664452791214,"110":0.029394328594207764,"111":0.17507053911685944,"112":-0.0879126638174057,"113":0.02214105799794197,"114":-0.010548196732997894}},"30":{"bias":0.13170838356018066,"weights":{"0":0.10529741644859314,"1":-0.09398985654115677,"2":-0.08249951153993607,"3":-0.17283353209495544,"4":0.13876478374004364,"5":-0.219859778881073,"6":-0.031235726550221443,"7":-0.06471075862646103,"8":0.1125362291932106,"9":0.07235807925462723,"10":0.024720432236790657,"11":0.16718731820583344,"12":0.18545950949192047,"13":0.06438254565000534,"14":-0.13102971017360687,"15":-0.051018744707107544,"16":0.03136239945888519,"17":0.21351079642772675,"18":0.045472316443920135,"19":0.014440091326832771,"20":0.10953253507614136,"21":0.006595835089683533,"22":-0.1959037333726883,"23":0.02598004788160324,"24":-0.3354851305484772,"25":-0.026937052607536316,"26":-0.09784066677093506,"27":-0.10867515951395035,"28":-0.20812323689460754,"29":-0.2488696128129959,"30":-0.041716329753398895,"31":0.050381388515233994,"32":0.012132865376770496,"33":0.02962878905236721,"34":-0.036942917853593826,"35":0.15972702205181122,"36":-0.1132737398147583,"37":-0.15167681872844696,"38":-0.04449716955423355,"39":0.15384143590927124,"40":-0.07461873441934586,"41":0.06695979088544846,"42":0.10358384996652603,"43":0.07659615576267242,"44":-0.022601114585995674,"45":0.06924177706241608,"46":0.04036925733089447,"47":-0.21044425666332245,"48":-0.25136032700538635,"49":-0.002322002314031124,"50":0.09540620446205139,"51":0.11580962687730789,"52":0.09200917929410934,"53":-0.16686661541461945,"54":-0.03047271817922592,"55":-0.17660948634147644,"56":-0.1736319661140442,"57":-0.02756286971271038,"58":-0.16735127568244934,"59":0.07836287468671799,"60":-0.04145873710513115,"61":0.09378385543823242,"62":0.18157190084457397,"63":0.07620677351951599,"64":0.2224441021680832,"65":0.1170482188463211,"66":-0.21597157418727875,"67":-0.02279145084321499,"68":-0.0472034253180027,"69":-0.12251733243465424,"70":-0.19972534477710724,"71":0.16342793405056,"72":0.07054601609706879,"73":-0.02845030464231968,"74":0.15367621183395386,"75":0.12066163867712021,"76":0.1518460363149643,"77":-0.025669444352388382,"78":-0.2026749551296234,"79":0.11473149806261063,"80":0.044527556747198105,"81":-0.07329178601503372,"82":-0.060769807547330856,"83":0.093963123857975,"84":0.09305516630411148,"85":0.05143790319561958,"86":0.1621987521648407,"87":0.059244945645332336,"88":-0.0950651690363884,"89":-0.05764409154653549,"90":0.13074003159999847,"91":0.047720640897750854,"92":-0.04010139778256416,"93":0.14066371321678162,"94":0.14183740317821503,"95":0.10195305943489075,"96":0.11842486262321472,"97":0.05143451318144798,"98":-0.22014251351356506,"99":-0.17232435941696167,"100":0.015788527205586433,"101":-0.03206752613186836,"102":-0.09942509979009628,"103":-0.17479826509952545,"104":0.09101583808660507,"105":-0.11934823542833328,"106":0.1470525711774826,"107":0.05121761932969093,"108":0.041438810527324677,"109":0.12209116667509079,"110":-0.04675867781043053,"111":-0.14629310369491577,"112":0.08262158930301666,"113":0.09701666980981827,"114":-0.08345749974250793}},"31":{"bias":-0.00509021058678627,"weights":{"0":-0.17483185231685638,"1":0.039199765771627426,"2":0.08806963264942169,"3":-0.1265866458415985,"4":0.18231290578842163,"5":0.15766552090644836,"6":-0.141201451420784,"7":0.12883184850215912,"8":0.03129167854785919,"9":0.18521499633789062,"10":-0.18026629090309143,"11":0.10511400550603867,"12":-0.1853839010000229,"13":0.02099505439400673,"14":0.1302804797887802,"15":0.15889202058315277,"16":0.05079027637839317,"17":0.08460673689842224,"18":0.12881916761398315,"19":-0.0143295768648386,"20":-0.018243517726659775,"21":0.11530376225709915,"22":-0.20446443557739258,"23":0.02020612545311451,"24":-0.2711549401283264,"25":-0.12599699199199677,"26":-0.17530770599842072,"27":-0.05402353033423424,"28":-0.13096608221530914,"29":0.029124634340405464,"30":0.014682050794363022,"31":-0.09644144773483276,"32":0.16585256159305573,"33":0.002708571497350931,"34":-0.23102498054504395,"35":0.048587147146463394,"36":-0.21636003255844116,"37":-0.05304477736353874,"38":0.14034835994243622,"39":0.2485409379005432,"40":0.4300801455974579,"41":0.2708371579647064,"42":0.24251961708068848,"43":-0.13255973160266876,"44":0.06885719299316406,"45":-0.09512365609407425,"46":-0.03682125732302666,"47":-0.23754936456680298,"48":-0.1619672030210495,"49":0.08849508315324783,"50":-0.17148122191429138,"51":0.06412459909915924,"52":-0.007630978245288134,"53":-0.15808182954788208,"54":0.16843973100185394,"55":0.10732541233301163,"56":0.11759606003761292,"57":0.016906840726733208,"58":-0.12969455122947693,"59":0.0015762196853756905,"60":0.16459310054779053,"61":0.1689843237400055,"62":0.14805074036121368,"63":0.18466240167617798,"64":0.10624381899833679,"65":0.24007506668567657,"66":0.02998306229710579,"67":0.05969488248229027,"68":-0.10540175437927246,"69":0.13375438749790192,"70":-0.1850927770137787,"71":0.06477918475866318,"72":-0.002088395645841956,"73":-0.025207342579960823,"74":0.07805098593235016,"75":-0.05943944677710533,"76":0.05571268871426582,"77":-0.19894155859947205,"78":0.04216108098626137,"79":-0.15385113656520844,"80":0.0332973338663578,"81":0.18054234981536865,"82":-0.20793257653713226,"83":-0.16942796111106873,"84":0.07965413480997086,"85":-0.12522299587726593,"86":-0.07605621963739395,"87":0.14164234697818756,"88":-0.03813036158680916,"89":-0.010861421935260296,"90":-0.2009795904159546,"91":-0.13494111597537994,"92":0.18585807085037231,"93":0.15812280774116516,"94":0.10829860717058182,"95":0.09402887523174286,"96":0.12013890594244003,"97":-0.06063718721270561,"98":0.031608618795871735,"99":-0.0007227315800264478,"100":-0.1953902542591095,"101":-0.08906581997871399,"102":0.092608742415905,"103":0.009083990007638931,"104":0.019414881244301796,"105":-0.16583126783370972,"106":-0.06643374264240265,"107":-0.14969922602176666,"108":0.009047606959939003,"109":-0.15423256158828735,"110":-0.16169294714927673,"111":-0.18514254689216614,"112":0.16217657923698425,"113":-0.008113871328532696,"114":-0.11661017686128616}},"32":{"bias":-0.1099781021475792,"weights":{"0":-0.014526313170790672,"1":0.13675396144390106,"2":0.09553645551204681,"3":0.0523836612701416,"4":-0.0750422477722168,"5":-0.17360399663448334,"6":0.15129050612449646,"7":0.2695668637752533,"8":-0.021624896675348282,"9":-0.08987520635128021,"10":0.17796474695205688,"11":0.005622711032629013,"12":-0.18562473356723785,"13":-0.301522433757782,"14":-0.0956338495016098,"15":0.11879269778728485,"16":-0.04195809364318848,"17":-0.053078871220350266,"18":0.09425567090511322,"19":-0.17174600064754486,"20":-0.18301242589950562,"21":0.014625174924731255,"22":0.10344626009464264,"23":-0.0741967037320137,"24":0.26347124576568604,"25":-0.03127409145236015,"26":0.06839285790920258,"27":0.0448995977640152,"28":0.11736542731523514,"29":0.19218440353870392,"30":0.3084983825683594,"31":0.09124155342578888,"32":-0.04344075173139572,"33":0.13027502596378326,"34":-0.1885928362607956,"35":-0.34068551659584045,"36":-0.5030800700187683,"37":-0.21136720478534698,"38":-0.044479332864284515,"39":-0.18159066140651703,"40":-0.131462961435318,"41":-0.2234499305486679,"42":-0.11674701422452927,"43":0.11442665755748749,"44":0.1463789939880371,"45":0.012628499418497086,"46":0.0646209716796875,"47":-0.01727573573589325,"48":0.22904470562934875,"49":-0.10200470685958862,"50":0.0627288892865181,"51":-0.07470619678497314,"52":0.07650139927864075,"53":0.010955995880067348,"54":0.10404012352228165,"55":0.11984343826770782,"56":-0.13147635757923126,"57":-0.1847655475139618,"58":-0.015097660943865776,"59":-0.21074210107326508,"60":0.10609911382198334,"61":-0.0442141592502594,"62":-0.06955116242170334,"63":-0.052544113248586655,"64":0.15525060892105103,"65":-0.05021311342716217,"66":-0.05136676877737045,"67":0.10441164672374725,"68":0.18660438060760498,"69":-0.10840563476085663,"70":-0.027406303212046623,"71":-0.035926453769207,"72":0.1444697082042694,"73":0.17896409332752228,"74":-0.15282250940799713,"75":-0.06964586675167084,"76":0.036502622067928314,"77":-0.052611880004405975,"78":-0.055909812450408936,"79":-0.15163704752922058,"80":-0.14843259751796722,"81":0.07819171249866486,"82":-0.12733297049999237,"83":0.020564815029501915,"84":0.08402535319328308,"85":0.07406194508075714,"86":-0.07697731256484985,"87":-0.03849820792675018,"88":-0.17022773623466492,"89":0.1305973380804062,"90":0.07703202962875366,"91":-0.04403631389141083,"92":-0.04530900716781616,"93":0.1966620236635208,"94":0.046091169118881226,"95":-0.16397051513195038,"96":0.05986173450946808,"97":-0.0957908034324646,"98":0.20402464270591736,"99":0.1644139140844345,"100":-0.1333882063627243,"101":0.001954626990482211,"102":-0.1481478363275528,"103":0.07602889835834503,"104":0.10499246418476105,"105":0.019228262826800346,"106":0.18502581119537354,"107":0.1603950560092926,"108":0.09258827567100525,"109":0.00957951694726944,"110":0.016033411026000977,"111":-0.15869614481925964,"112":0.14224964380264282,"113":0.16746896505355835,"114":-0.04547242075204849}},"33":{"bias":0.06996432691812515,"weights":{"0":0.19693785905838013,"1":0.24298423528671265,"2":0.23968344926834106,"3":0.1048964336514473,"4":-0.03784095495939255,"5":-0.17123115062713623,"6":-0.1574431210756302,"7":0.07830216735601425,"8":-0.0899694561958313,"9":0.03776141256093979,"10":-0.17714321613311768,"11":-0.037787605077028275,"12":0.04641479253768921,"13":0.03529684990644455,"14":0.15470126271247864,"15":0.01703411526978016,"16":0.043800316751003265,"17":-0.03348743915557861,"18":-0.08124931901693344,"19":-0.07350337505340576,"20":0.013657044619321823,"21":-0.12235480546951294,"22":0.19217315316200256,"23":0.0429888479411602,"24":0.620932400226593,"25":0.26396775245666504,"26":0.001951607409864664,"27":-0.16239452362060547,"28":-0.1596486121416092,