{"sizes":[105,52,4],"layers":[{"0":{},"1":{},"2":{},"3":{},"4":{},"5":{},"6":{},"7":{},"8":{},"9":{},"10":{},"11":{},"12":{},"13":{},"14":{},"15":{},"16":{},"17":{},"18":{},"19":{},"20":{},"21":{},"22":{},"23":{},"24":{},"25":{},"26":{},"27":{},"28":{},"29":{},"30":{},"31":{},"32":{},"33":{},"34":{},"35":{},"36":{},"37":{},"38":{},"39":{},"40":{},"41":{},"42":{},"43":{},"44":{},"45":{},"46":{},"47":{},"48":{},"49":{},"50":{},"51":{},"52":{},"53":{},"54":{},"55":{},"56":{},"57":{},"58":{},"59":{},"60":{},"61":{},"62":{},"63":{},"64":{},"65":{},"66":{},"67":{},"68":{},"69":{},"70":{},"71":{},"72":{},"73":{},"74":{},"75":{},"76":{},"77":{},"78":{},"79":{},"80":{},"81":{},"82":{},"83":{},"84":{},"85":{},"86":{},"87":{},"88":{},"89":{},"90":{},"91":{},"92":{},"93":{},"94":{},"95":{},"96":{},"97":{},"98":{},"99":{},"100":{},"101":{},"102":{},"103":{},"104":{}},{"0":{"bias":-0.12133866548538208,"weights":{"0":0.11303006112575531,"1":-0.0538097582757473,"2":-0.11821375042200089,"3":-0.012495753355324268,"4":0.1025918647646904,"5":0.1722514033317566,"6":0.12750859558582306,"7":0.3526248335838318,"8":0.05334220081567764,"9":-0.09764167666435242,"10":-0.09962712973356247,"11":0.1328595131635666,"12":0.11643233150243759,"13":0.04624434933066368,"14":0.173906147480011,"15":-0.19307881593704224,"16":-0.07463481277227402,"17":-0.36932066082954407,"18":-0.378232479095459,"19":-0.16881459951400757,"20":0.18621352314949036,"21":0.20651261508464813,"22":0.18249952793121338,"23":0.17889881134033203,"24":-0.1986849009990692,"25":-0.10588281601667404,"26":-0.10633194446563721,"27":0.4144737720489502,"28":0.4084010124206543,"29":0.09780844300985336,"30":0.03413831815123558,"31":0.07455698400735855,"32":-0.07208143919706345,"33":0.13562804460525513,"34":0.02450639009475708,"35":0.043279360979795456,"36":-0.1020226776599884,"37":-0.07437706738710403,"38":-0.5092682242393494,"39":-0.7980664968490601,"40":-0.1619068682193756,"41":0.17236396670341492,"42":-0.13898301124572754,"43":-0.05651671066880226,"44":-0.17391625046730042,"45":-0.18452832102775574,"46":0.14172913134098053,"47":0.04601173475384712,"48":-0.04915379360318184,"49":0.04230807349085808,"50":-0.058497972786426544,"51":-0.07416000962257385,"52":-0.07287567108869553,"53":-0.0930008590221405,"54":0.21310955286026,"55":0.011283968575298786,"56":0.11058729887008667,"57":0.022801103070378304,"58":-0.24752222001552582,"59":-0.37422406673431396,"60":-0.14709943532943726,"61":0.09390659630298615,"62":0.08847200125455856,"63":-0.012685919180512428,"64":0.11747578531503677,"65":0.11414889246225357,"66":-0.160621777176857,"67":-0.009480774402618408,"68":0.0206132922321558,"69":0.020948713645339012,"70":0.11220845580101013,"71":-0.08429203927516937,"72":-0.04016520455479622,"73":0.0801616758108139,"74":0.04388213902711868,"75":0.146477609872818,"76":-0.1560608148574829,"77":0.10798877477645874,"78":0.18167367577552795,"79":0.03229544684290886,"80":-0.04927550628781319,"81":0.09791287779808044,"82":0.09656854718923569,"83":0.0615496002137661,"84":0.0029072524048388004,"85":-0.09319823980331421,"86":-0.018157506361603737,"87":0.152208611369133,"88":-0.19806666672229767,"89":0.05016287788748741,"90":-0.06290271878242493,"91":0.11737414449453354,"92":0.1838977038860321,"93":0.12803904712200165,"94":0.08464566618204117,"95":0.14799140393733978,"96":0.1810285896062851,"97":-0.12484230101108551,"98":0.02968556620180607,"99":-0.11444418877363205,"100":-0.047342944890260696,"101":-0.1755761355161667,"102":-0.19259320199489594,"103":-0.14719393849372864,"104":-0.052134133875370026}},"1":{"bias":-0.08790991455316544,"weights":{"0":0.06667900830507278,"1":0.016361694782972336,"2":-0.055229514837265015,"3":0.18176233768463135,"4":-0.046668969094753265,"5":-0.02165338583290577,"6":-0.2217569202184677,"7":-0.17607265710830688,"8":0.046401578933000565,"9":-0.011656580492854118,"10":0.12374239414930344,"11":-0.11107082664966583,"12":0.11569641530513763,"13":0.06898552924394608,"14":-0.07946497946977615,"15":0.18504512310028076,"16":-0.16561253368854523,"17":-0.21734920144081116,"18":-0.15156513452529907,"19":-0.22598975896835327,"20":-0.01158980093896389,"21":0.08206787705421448,"22":0.3687620460987091,"23":0.15538719296455383,"24":-0.049344561994075775,"25":-0.05506710708141327,"26":0.07385434210300446,"27":0.038590554147958755,"28":-0.17370615899562836,"29":-0.09002531319856644,"30":-0.1615813672542572,"31":0.06285632401704788,"32":0.26144444942474365,"33":0.13006336987018585,"34":-0.037950534373521805,"35":0.04368356987833977,"36":-0.06876736134290695,"37":-0.234422504901886,"38":-0.36229848861694336,"39":-0.4598924219608307,"40":-0.18268941342830658,"41":0.19083334505558014,"42":0.18111629784107208,"43":-0.0026672016829252243,"44":-0.04516930505633354,"45":-0.19579282402992249,"46":-0.058192603290081024,"47":0.18121454119682312,"48":0.13661475479602814,"49":-0.136372372508049,"50":0.18285422027111053,"51":0.10897311568260193,"52":0.14941377937793732,"53":0.044910747557878494,"54":0.1340443342924118,"55":0.06843449175357819,"56":-0.07671006768941879,"57":0.1371680200099945,"58":0.15021663904190063,"59":-0.050817444920539856,"60":0.042551182210445404,"61":-0.037563249468803406,"62":0.14283587038516998,"63":-0.060296431183815,"64":0.16085386276245117,"65":0.1146155521273613,"66":0.034098975360393524,"67":-0.10502566397190094,"68":-0.16398127377033234,"69":0.18128979206085205,"70":-0.17937637865543365,"71":0.10136866569519043,"72":-0.1177329495549202,"73":0.1422795206308365,"74":-0.08275587856769562,"75":-0.17901510000228882,"76":0.1983034312725067,"77":-0.06991641968488693,"78":-0.003342969575896859,"79":0.0794501006603241,"80":0.006939691957086325,"81":-0.16767655313014984,"82":-0.15458272397518158,"83":-0.19345660507678986,"84":-0.12919388711452484,"85":0.1385779231786728,"86":0.10619278252124786,"87":0.08683779090642929,"88":-0.06509857624769211,"89":0.046371445059776306,"90":0.10464739054441452,"91":0.14223505556583405,"92":0.013744132593274117,"93":0.12414044886827469,"94":-0.07961063832044601,"95":-0.09725887328386307,"96":0.05597485601902008,"97":0.04322994500398636,"98":0.13694186508655548,"99":-0.03882872313261032,"100":-0.005963032599538565,"101":-0.1987738162279129,"102":-0.034081682562828064,"103":0.06754875183105469,"104":0.06822455674409866}},"2":{"bias":0.144387349486351,"weights":{"0":-0.39273980259895325,"1":-0.34688425064086914,"2":-0.1572931557893753,"3":-0.09326593577861786,"4":-0.15372508764266968,"5":0.005541987717151642,"6":0.07105603814125061,"7":0.15015669167041779,"8":0.12939192354679108,"9":-0.16177071630954742,"10":-0.04901943355798721,"11":0.27328258752822876,"12":0.4032613933086395,"13":0.16543914377689362,"14":0.030746670439839363,"15":-0.08696460723876953,"16":-0.09275004267692566,"17":0.0599132664501667,"18":-0.1735134869813919,"19":0.12502554059028625,"20":0.015051214024424553,"21":-0.24257920682430267,"22":-0.6706893444061279,"23":-0.3118455708026886,"24":0.0005342394579201937,"25":-0.04490986093878746,"26":-0.03069399856030941,"27":0.08390429615974426,"28":-0.2061123102903366,"29":-0.12940837442874908,"30":0.0038747466169297695,"31":0.27682605385780334,"32":0.2389308661222458,"33":0.6759214401245117,"34":0.360130250453949,"35":0.15507526695728302,"36":0.04669962450861931,"37":-0.09104734659194946,"38":0.03968029096722603,"39":0.07357806712388992,"40":0.09317115694284439,"41":-0.011523590423166752,"42":-0.2474932223558426,"43":-0.2479512095451355,"44":-0.23841264843940735,"45":0.17855338752269745,"46":0.18322274088859558,"47":0.07842420041561127,"48":0.12087657302618027,"49":0.13887234032154083,"50":0.03125187009572983,"51":0.17898349463939667,"52":0.021731434389948845,"53":0.34835630655288696,"54":0.21375101804733276,"55":-0.03549085184931755,"56":0.18688863515853882,"57":-0.12257513403892517,"58":-0.1656111776828766,"59":-0.055092718452215195,"60":0.06780673563480377,"61":0.017887040972709656,"62":0.0015853762160986662,"63":-0.10515974462032318,"64":-0.12462262809276581,"65":0.017473874613642693,"66":-0.17464080452919006,"67":-0.15877299010753632,"68":-0.04926440492272377,"69":0.09242327511310577,"70":0.07416841387748718,"71":-0.014784674160182476,"72":0.015070424415171146,"73":-0.04657784476876259,"74":0.15692387521266937,"75":-0.20784741640090942,"76":0.02300741709768772,"77":-0.08446411788463593,"78":-0.05645022913813591,"79":0.1519477367401123,"80":-0.07002611458301544,"81":-0.10721392929553986,"82":-0.0026511612813919783,"83":-0.06330689787864685,"84":0.053099650889635086,"85":0.06734009087085724,"86":0.11504870653152466,"87":-0.14192159473896027,"88":-0.19956950843334198,"89":0.11472354829311371,"90":0.15849725902080536,"91":-0.1385820358991623,"92":-0.17956198751926422,"93":0.07627728581428528,"94":0.021575232967734337,"95":0.011161881498992443,"96":0.14586950838565826,"97":0.025939373299479485,"98":-0.03014829009771347,"99":-0.005690055899322033,"100":0.13430340588092804,"101":0.02391132526099682,"102":0.012729103676974773,"103":-0.03957400098443031,"104":-0.19381551444530487}},"3":{"bias":-0.15434466302394867,"weights":{"0":0.38922998309135437,"1":0.5476083755493164,"2":0.3166028559207916,"3":0.13048388063907623,"4":0.006068787537515163,"5":0.19787423312664032,"6":0.09464443475008011,"7":0.3405575752258301,"8":0.0913277119398117,"9":-0.029428919777274132,"10":0.0004894185694865882,"11":-0.38016653060913086,"12":-0.2340942919254303,"13":-0.2525593340396881,"14":-0.12444738298654556,"15":0.14290276169776917,"16":0.16304264962673187,"17":-0.22418297827243805,"18":-0.18439273536205292,"19":-0.1825622320175171,"20":-0.04519190639257431,"21":0.6043663620948792,"22":0.7147547006607056,"23":0.17667101323604584,"24":-0.045352231711149216,"25":-0.0034937094897031784,"26":0.11658460646867752,"27":0.358590692281723,"28":0.22579656541347504,"29":0.11231384426355362,"30":-0.1490534543991089,"31":0.02588098868727684,"32":-0.2587985396385193,"33":-0.28480345010757446,"34":-0.13879171013832092,"35":0.09344889223575592,"36":0.12365075200796127,"37":-0.3056239187717438,"38":-0.41302216053009033,"39":-0.5032177567481995,"40":-0.284823477268219,"41":0.06611992418766022,"42":0.20064187049865723,"43":0.4411774277687073,"44":0.20351536571979523,"45":-0.16834388673305511,"46":0.03605051338672638,"47":0.004595346283167601,"48":-0.0785965546965599,"49":-0.026396820321679115,"50":-0.11120648682117462,"51":-0.11295045912265778,"52":0.09328103810548782,"53":-0.27484607696533203,"54":-0.16858014464378357,"55":0.05316130816936493,"56":-0.11247318983078003,"57":0.16314229369163513,"58":-0.15084680914878845,"59":-0.3638201355934143,"60":-0.1347445696592331,"61":0.06954817473888397,"62":-0.04723955690860748,"63":-0.11160032451152802,"64":0.07082735002040863,"65":-0.029484912753105164,"66":-0.17133325338363647,"67":0.020770523697137833,"68":0.09869468212127686,"69":0.20466822385787964,"70":0.16632719337940216,"71":0.10079725086688995,"72":0.037408098578453064,"73":0.13223601877689362,"74":0.0006278834771364927,"75":0.056813620030879974,"76":0.045515283942222595,"77":-0.06342515349388123,"78":-0.0633213222026825,"79":-0.1739012449979782,"80":-0.09785725176334381,"81":0.046509578824043274,"82":0.1373595893383026,"83":-0.009091435000300407,"84":-0.14982065558433533,"85":-0.13789068162441254,"86":-0.13154752552509308,"87":-0.03443059325218201,"88":0.1490125060081482,"89":-0.01814967393875122,"90":0.0050777047872543335,"91":-0.10966053605079651,"92":0.18918442726135254,"93":0.056629568338394165,"94":-0.11545337736606598,"95":0.12755058705806732,"96":-0.0776868462562561,"97":-0.0866059958934784,"98":-0.03563079237937927,"99":-0.1122262179851532,"100":-0.11161132156848907,"101":-0.062270548194646835,"102":0.09274199604988098,"103":-0.10335750877857208,"104":0.16030257940292358}},"4":{"bias":0.06079930067062378,"weights":{"0":0.018367724493145943,"1":-0.26546797156333923,"2":-0.01808294653892517,"3":0.06791442632675171,"4":-0.08590223640203476,"5":0.05218265578150749,"6":0.47741827368736267,"7":0.27110013365745544,"8":0.20531269907951355,"9":0.0667586401104927,"10":0.07950004190206528,"11":-0.30823975801467896,"12":-0.6176964640617371,"13":-0.4015534818172455,"14":0.09864187985658646,"15":-0.21809864044189453,"16":-0.06036015599966049,"17":0.28672996163368225,"18":0.06512179225683212,"19":0.33597704768180847,"20":0.17327915132045746,"21":-0.23690198361873627,"22":-0.06147308647632599,"23":-0.14491324126720428,"24":-0.12745298445224762,"25":0.0053642322309315205,"26":0.20015855133533478,"27":0.42580828070640564,"28":0.4152574837207794,"29":-0.12071859836578369,"30":-0.20561133325099945,"31":-0.36694300174713135,"32":-0.46721261739730835,"33":-0.445048451423645,"34":-0.39611366391181946,"35":-0.284795880317688,"36":-0.1105380728840828,"37":0.16749140620231628,"38":0.32014790177345276,"39":0.2725583016872406,"40":0.23781973123550415,"41":0.0246830265969038,"42":0.05464756116271019,"43":-0.19894985854625702,"44":0.08126142621040344,"45":0.07242404669523239,"46":-0.0703430101275444,"47":-0.02786879427731037,"48":0.050114139914512634,"49":0.02585632912814617,"50":0.0017821491928771138,"51":0.07656873017549515,"52":0.011223630048334599,"53":-0.2286171317100525,"54":-0.07514685392379761,"55":0.02283434569835663,"56":0.05709616094827652,"57":-0.020103881135582924,"58":0.1561068594455719,"59":0.29836511611938477,"60":-0.08011579513549805,"61":0.19699667394161224,"62":-0.012335049919784069,"63":0.11851384490728378,"64":0.1574888974428177,"65":0.1574663519859314,"66":0.14385923743247986,"67":-0.15125779807567596,"68":-0.03383829444646835,"69":-0.11003974825143814,"70":-0.1279083490371704,"71":-0.04580674320459366,"72":-0.13171257078647614,"73":-0.17364925146102905,"74":0.16830238699913025,"75":0.10402848571538925,"76":-0.21439288556575775,"77":0.026364630088210106,"78":-0.12093421071767807,"79":-0.045912422239780426,"80":0.06846991926431656,"81":-0.18643079698085785,"82":-0.13521318137645721,"83":0.036607176065444946,"84":-0.2012842446565628,"85":0.1715390831232071,"86":-0.20952311158180237,"87":0.010541546158492565,"88":0.06847537308931351,"89":0.14540737867355347,"90":-0.00977288093417883,"91":-0.05121973901987076,"92":0.06395233422517776,"93":0.17135457694530487,"94":0.166610985994339,"95":0.06582856923341751,"96":-0.1906922161579132,"97":-0.07975024729967117,"98":0.011608724482357502,"99":0.06343413144350052,"100":0.1165490373969078,"101":-0.13240736722946167,"102":0.09016353636980057,"103":0.1692129522562027,"104":-0.020199986174702644}},"5":{"bias":0.08992408961057663,"weights":{"0":0.12322482466697693,"1":-0.12932506203651428,"2":-0.08173024654388428,"3":-0.1553526520729065,"4":-0.18014679849147797,"5":-0.1597651094198227,"6":0.018839174881577492,"7":0.005086512770503759,"8":0.16701295971870422,"9":0.02399318292737007,"10":0.07207431644201279,"11":0.21042877435684204,"12":0.37358105182647705,"13":0.33910563588142395,"14":0.07065486907958984,"15":0.14270474016666412,"16":0.11966274678707123,"17":-0.31156694889068604,"18":-0.1284051537513733,"19":-0.41986554861068726,"20":-0.0769079327583313,"21":-0.11654812097549438,"22":-0.09116299450397491,"23":0.20633681118488312,"24":-0.019399350509047508,"25":-0.17434023320674896,"26":0.0014394402969628572,"27":0.06700736284255981,"28":0.0757480338215828,"29":-0.17132887244224548,"30":-0.07701542973518372,"31":0.06870397180318832,"32":0.17705722153186798,"33":0.27913200855255127,"34":0.11009251326322556,"35":0.22886459529399872,"36":-0.11644034087657928,"37":-0.18634666502475739,"38":-0.46387577056884766,"39":-0.6804466247558594,"40":-0.19503051042556763,"41":0.14863601326942444,"42":0.17651279270648956,"43":0.13716645538806915,"44":-0.028662653639912605,"45":0.03077741526067257,"46":0.16457027196884155,"47":-0.1383393108844757,"48":0.17576421797275543,"49":0.23715253174304962,"50":-0.09574414789676666,"51":0.06644798815250397,"52":-0.035606712102890015,"53":0.1331482082605362,"54":-0.05212319642305374,"55":-0.07558511942625046,"56":0.14851905405521393,"57":-0.016159167513251305,"58":-0.015095182694494724,"59":-0.5001126527786255,"60":-0.1962515264749527,"61":-0.09200578182935715,"62":0.014936186373233795,"63":0.10399113595485687,"64":-0.05629502609372139,"65":-0.08767813444137573,"66":-0.16550789773464203,"67":-0.20262080430984497,"68":0.11236254870891571,"69":0.1732099950313568,"70":0.0532471127808094,"71":-0.02022811770439148,"72":-0.03355850651860237,"73":-0.15765415132045746,"74":0.11568455398082733,"75":-0.05033831670880318,"76":-0.01970529556274414,"77":-0.12085463106632233,"78":-0.04074333980679512,"79":-0.20933584868907928,"80":-0.022090278565883636,"81":-0.06070977449417114,"82":0.13004614412784576,"83":-0.1694132685661316,"84":0.016061794012784958,"85":-0.08920758962631226,"86":0.05731327831745148,"87":0.1339317262172699,"88":0.14288945496082306,"89":-0.05869346857070923,"90":0.008708207868039608,"91":-0.027519047260284424,"92":-0.11052116751670837,"93":0.11138047277927399,"94":0.15780463814735413,"95":0.05790172517299652,"96":0.08901585638523102,"97":-0.0540146641433239,"98":0.09621165692806244,"99":-0.08337424695491791,"100":0.15888196229934692,"101":0.08631663024425507,"102":0.1521892249584198,"103":-0.0003980463370680809,"104":0.11450719833374023}},"6":{"bias":-0.10272123664617538,"weights":{"0":-0.3994620144367218,"1":-0.43314680457115173,"2":-0.07228534668684006,"3":0.09588925540447235,"4":0.13594885170459747,"5":0.018343158066272736,"6":0.05185525864362717,"7":0.16491255164146423,"8":0.1098523736000061,"9":0.13831909000873566,"10":0.25184571743011475,"11":0.33363717794418335,"12":0.412553071975708,"13":0.29006800055503845,"14":-0.172893688082695,"15":-0.08727853000164032,"16":0.15724627673625946,"17":-0.20998115837574005,"18":-0.28316450119018555,"19":-0.2749421298503876,"20":-0.1344110518693924,"21":-0.4757006764411926,"22":-0.48580020666122437,"23":-0.3167785108089447,"24":0.056044381111860275,"25":-0.17846710979938507,"26":0.19079703092575073,"27":0.32245248556137085,"28":0.3955875039100647,"29":0.18685021996498108,"30":-0.07181228697299957,"31":0.35281893610954285,"32":0.5164933204650879,"33":0.7914215326309204,"34":0.46288129687309265,"35":0.276283323764801,"36":0.1236267164349556,"37":-0.250492662191391,"38":-0.43447229266166687,"39":-0.5273915529251099,"40":-0.21533651649951935,"41":-0.14170731604099274,"42":-0.02925347536802292,"43":-0.11238044500350952,"44":-0.16486188769340515,"45":-0.13415531814098358,"46":0.18762870132923126,"47":0.07211104035377502,"48":0.24005427956581116,"49":0.025860847905278206,"50":0.15867681801319122,"51":-0.15641187131404877,"52":0.31865936517715454,"53":0.005594664718955755,"54":0.10722170770168304,"55":0.17793221771717072,"56":0.0879550576210022,"57":0.03025628998875618,"58":-0.0824611708521843,"59":-0.11331239342689514,"60":-0.20262540876865387,"61":0.03734356909990311,"62":-0.11529767513275146,"63":-0.08533288538455963,"64":-0.09630069136619568,"65":-0.1474454551935196,"66":0.1232810765504837,"67":-0.0493510402739048,"68":-0.02396695502102375,"69":-0.087480828166008,"70":-0.07908333837985992,"71":0.003937019035220146,"72":0.14592091739177704,"73":0.05731973052024841,"74":-0.08296255767345428,"75":-0.07771384716033936,"76":0.09020321071147919,"77":-0.06798765063285828,"78":-0.13594044744968414,"79":0.10040080547332764,"80":0.1024053543806076,"81":-0.028079507872462273,"82":-0.14219577610492706,"83":-0.14460696280002594,"84":0.082131028175354,"85":0.1265215426683426,"86":0.123566634953022,"87":-0.12395048886537552,"88":-0.16934619843959808,"89":-0.12729407846927643,"90":0.12321414798498154,"91":0.18267853558063507,"92":-0.12928280234336853,"93":0.19317878782749176,"94":0.08570785820484161,"95":-0.1470615714788437,"96":0.05098120495676994,"97":0.11207404732704163,"98":-0.09512333571910858,"99":-0.16625531017780304,"100":-0.10864648222923279,"101":-0.13834653794765472,"102":-0.07124261558055878,"103":0.08677223324775696,"104":0.07282863557338715}},"7":{"bias":-0.10182863473892212,"weights":{"0":0.20496010780334473,"1":-0.038972917944192886,"2":0.10459598153829575,"3":0.21600811183452606,"4":0.07471883296966553,"5":-0.12848544120788574,"6":-0.2119705229997635,"7":-0.19482013583183289,"8":-0.061367910355329514,"9":-0.03612615540623665,"10":-0.058024320751428604,"11":0.008279959671199322,"12":-0.09632639586925507,"13":-0.12695637345314026,"14":0.03870980069041252,"15":0.20066876709461212,"16":-0.11157930642366409,"17":0.21158990263938904,"18":-0.07711973041296005,"19":0.16278061270713806,"20":0.0931011214852333,"21":0.3001018464565277,"22":0.2014932632446289,"23":0.2072116732597351,"24":0.16440552473068237,"25":0.20027941465377808,"26":-0.19360964000225067,"27":-0.3305656313896179,"28":-0.2618177831172943,"29":0.049247581511735916,"30":-0.11998020857572556,"31":0.04419098049402237,"32":-0.11676039546728134,"33":-0.03795832768082619,"34":-0.09588854759931564,"35":-0.1441180557012558,"36":-0.15902161598205566,"37":0.2445300817489624,"38":0.13857880234718323,"39":0.0949319526553154,"40":-0.08102688938379288,"41":-0.161851167678833,"42":-0.05744433030486107,"43":0.07677146792411804,"44":0.08666931837797165,"45":0.14753605425357819,"46":-0.004292246885597706,"47":-0.15739084780216217,"48":-0.03792954608798027,"49":-0.09202931076288223,"50":-0.017578747123479843,"51":-0.011784250847995281,"52":-0.01678786240518093,"53":-0.11194206774234772,"54":-0.19342531263828278,"55":-0.10700886696577072,"56":-0.18140488862991333,"57":0.12237843871116638,"58":0.16183295845985413,"59":-0.05270734056830406,"60":0.17028746008872986,"61":-0.10093595832586288,"62":0.15015459060668945,"63":-0.1660177856683731,"64":0.15469911694526672,"65":0.07133444398641586,"66":0.0895259752869606,"67":0.0708703100681305,"68":-0.13403883576393127,"69":-0.0055733975023031235,"70":0.10694092512130737,"71":-0.053908076137304306,"72":-0.16798818111419678,"73":0.03597452491521835,"74":-0.07303401827812195,"75":0.1076183021068573,"76":-0.013510347343981266,"77":0.05404975265264511,"78":0.14395926892757416,"79":-0.16151057183742523,"80":0.09679104387760162,"81":0.06893425434827805,"82":-0.09768199920654297,"83":-0.09248697012662888,"84":-0.08171351999044418,"85":0.042290784418582916,"86":0.12956750392913818,"87":0.026741180568933487,"88":0.21409747004508972,"89":0.06709973514080048,"90":0.14177031815052032,"91":0.0009168412652797997,"92":-0.12459380179643631,"93":0.07793702185153961,"94":-0.03337664529681206,"95":-0.09665542095899582,"96":0.09733046591281891,"97":-0.16285046935081482,"98":-0.1683626025915146,"99":0.16696618497371674,"100":-0.07460352778434753,"101":0.10055770725011826,"102":-0.04811540246009827,"103":-0.12043680995702744,"104":-0.030142731964588165}},"8":{"bias":-0.16217230260372162,"weights":{"0":-0.21717138588428497,"1":-0.18727082014083862,"2":-0.26178446412086487,"3":-0.09548082947731018,"4":0.174246147274971,"5":0.007800926920026541,"6":0.20746679604053497,"7":0.32460615038871765,"8":0.15551702678203583,"9":-0.09459450095891953,"10":0.015290895476937294,"11":-0.021443260833621025,"12":0.04597373306751251,"13":-0.04335557296872139,"14":-0.01277171354740858,"15":0.02876404859125614,"16":0.036739837378263474,"17":-0.10954274982213974,"18":0.14586910605430603,"19":0.04907858371734619,"20":0.17774906754493713,"21":-0.32723715901374817,"22":-0.45909613370895386,"23":-0.28167593479156494,"24":-0.13796183466911316,"25":-0.1009269580245018,"26":-0.07725606113672256,"27":0.14844904839992523,"28":0.03893284127116203,"29":0.26005837321281433,"30":0.18017809092998505,"31":-0.1195218488574028,"32":0.03343577682971954,"33":0.12145847082138062,"34":0.21532420814037323,"35":-0.07298152893781662,"36":-0.04098859429359436,"37":0.10944488644599915,"38":-0.01135219819843769,"39":0.04210718348622322,"40":0.16941893100738525,"41":-0.16366314888000488,"42":0.008559799753129482,"43":-0.18351145088672638,"44":-0.09354966878890991,"45":-0.06274105608463287,"46":0.0018244911916553974,"47":0.17965219914913177,"48":0.10085877031087875,"49":0.19072680175304413,"50":-0.08898653835058212,"51":0.21151790022850037,"52":-0.1165875568985939,"53":0.0954330712556839,"54":-0.014728143811225891,"55":-0.010976995341479778,"56":-0.14824987947940826,"57":-0.01006881333887577,"58":0.05735795199871063,"59":0.0032886278349906206,"60":0.20190149545669556,"61":-0.006793218199163675,"62":-0.03668202832341194,"63":0.15282027423381805,"64":0.1342887580394745,"65":0.06225569173693657,"66":0.15807099640369415,"67":-0.09422021359205246,"68":-0.12088477611541748,"69":-0.042583562433719635,"70":0.01871153898537159,"71":-0.08846130222082138,"72":-0.022615229710936546,"73":0.08761010318994522,"74":-0.12924082577228546,"75":0.07018119841814041,"76":-0.01848907582461834,"77":0.025298243388533592,"78":0.17529284954071045,"79":-0.12676368653774261,"80":-0.1220078319311142,"81":-0.011324644088745117,"82":-0.06199884042143822,"83":0.13976545631885529,"84":-0.15190395712852478,"85":-0.021712781861424446,"86":0.0011769323609769344,"87":-0.09775770455598831,"88":0.19467931985855103,"89":-0.011378083378076553,"90":-0.16402311623096466,"91":0.013963628560304642,"92":0.2194036990404129,"93":-0.11671256273984909,"94":0.08680059760808945,"95":-0.17551016807556152,"96":0.009805452078580856,"97":-0.03153516724705696,"98":0.09579996019601822,"99":-0.13995888829231262,"100":0.10716759413480759,"101":-0.11209338158369064,"102":-0.0604284293949604,"103":-0.026742510497570038,"104":-0.1302468478679657}},"9":{"bias":0.11152146756649017,"weights":{"0":-0.1782480776309967,"1":-0.42727550864219666,"2":-0.18935321271419525,"3":-0.18693192303180695,"4":0.0788990780711174,"5":0.22278417646884918,"6":0.17052218317985535,"7":0.1731242537498474,"8":0.008215419948101044,"9":0.18492206931114197,"10":-0.05886751785874367,"11":0.12885591387748718,"12":-0.09875834733247757,"13":0.05147011578083038,"14":0.06128130108118057,"15":-0.003585101803764701,"16":-0.1167869046330452,"17":0.2808730900287628,"18":0.1410524547100067,"19":0.10609734058380127,"20":0.06373761594295502,"21":-0.4304198622703552,"22":-0.6007275581359863,"23":-0.17711201310157776,"24":-0.03780660778284073,"25":0.09396978467702866,"26":-0.04550844430923462,"27":0.24029426276683807,"28":-0.02784695476293564,"29":-0.012053200975060463,"30":0.05665464699268341,"31":0.08862955868244171,"32":-0.120902419090271,"33":-0.055338114500045776,"34":0.16658301651477814,"35":0.10489346086978912,"36":-0.05574743449687958,"37":0.1735142022371292,"38":0.04650416597723961,"39":0.23986919224262238,"40":-0.0768960639834404,"41":-0.1808435022830963,"42":-0.27714598178863525,"43":-0.3343037962913513,"44":-0.19292716681957245,"45":-0.1855330765247345,"46":0.20390193164348602,"47":0.09261767566204071,"48":0.2115042805671692,"49":-0.13987258076667786,"50":-0.16475051641464233,"51":0.11593826860189438,"52":0.1825067698955536,"53":0.1112929955124855,"54":-0.1360923796892166,"55":-0.021528983488678932,"56":0.03785897046327591,"57":-0.18232935667037964,"58":-0.07279076427221298,"59":0.27327749133110046,"60":0.08999437093734741,"61":0.22834476828575134,"62":0.14710181951522827,"63":0.009708888828754425,"64":0.1648104339838028,"65":0.18042707443237305,"66":0.14890648424625397,"67":-0.07565025240182877,"68":0.18804825842380524,"69":0.020228618755936623,"70":0.16596990823745728,"71":0.041354671120643616,"72":-0.17422541975975037,"73":0.12160813063383102,"74":0.00641490938141942,"75":-0.016244664788246155,"76":-0.17668411135673523,"77":0.012646984308958054,"78":0.1772758960723877,"79":-0.07935028523206711,"80":0.009176380932331085,"81":0.061332620680332184,"82":-0.040462277829647064,"83":-0.19189180433750153,"84":-0.041615620255470276,"85":-0.15621976554393768,"86":-0.10580573230981827,"87":-0.03533361107110977,"88":-0.10786866396665573,"89":0.09434989839792252,"90":-0.06675746291875839,"91":0.03981635719537735,"92":0.008509237319231033,"93":-0.0479813814163208,"94":0.08157611638307571,"95":-0.10993597656488419,"96":0.17082719504833221,"97":-0.10467564314603806,"98":0.03903225064277649,"99":-0.04824747145175934,"100":-0.09431210905313492,"101":0.05321995168924332,"102":-0.16611509025096893,"103":-0.12701083719730377,"104":-0.15119720995426178}},"10":{"bias":0.07626190036535263,"weights":{"0":0.23457838594913483,"1":0.021246781572699547,"2":0.011106390506029129,"3":-0.11560404300689697,"4":0.10075938701629639,"5":-0.03594542294740677,"6":-0.13572463393211365,"7":-0.18111097812652588,"8":0.018219880759716034,"9":-0.0925857424736023,"10":0.127666637301445,"11":-0.07931489497423172,"12":-0.09850560128688812,"13":-0.17369921505451202,"14":-0.11041092872619629,"15":0.1417749524116516,"16":-0.04581911116838455,"17":-0.01177640538662672,"18":-0.10318288952112198,"19":0.115447036921978,"20":-0.11712248623371124,"21":0.03675626218318939,"22":0.3211199641227722,"23":-0.08003272861242294,"24":-0.06909027695655823,"25":0.08010192215442657,"26":-0.19967497885227203,"27":-0.05866015702486038,"28":0.021441804245114326,"29":0.11397304385900497,"30":0.1273425817489624,"31":0.095433309674263,"32":-0.08039779961109161,"33":-0.12690100073814392,"34":-0.2035350650548935,"35":0.005918050184845924,"36":0.10384590923786163,"37":-0.09015016257762909,"38":0.277866005897522,"39":0.030432386323809624,"40":0.07484252750873566,"41":0.08667080104351044,"42":0.07735174894332886,"43":-0.08314890414476395,"44":0.10586174577474594,"45":-0.01857020892202854,"46":-0.11421506106853485,"47":0.1070493757724762,"48":-0.2119767814874649,"49":-0.02669502981007099,"50":0.04912474751472473,"51":0.1400909125804901,"52":-0.17874106764793396,"53":-0.17075379192829132,"54":0.06256688386201859,"55":0.020810434594750404,"56":0.19982139766216278,"57":-0.10384513437747955,"58":-0.1191302016377449,"59":0.2273004800081253,"60":-0.013482315465807915,"61":-0.028468459844589233,"62":-0.06192759796977043,"63":-0.000930034730117768,"64":-0.1730109453201294,"65":-0.14714080095291138,"66":0.18155868351459503,"67":-0.1138443797826767,"68":-0.15639084577560425,"69":0.14838363230228424,"70":-0.0575653575360775,"71":0.01914745755493641,"72":0.1574345827102661,"73":0.18632283806800842,"74":-0.17896668612957,"75":0.17004458606243134,"76":-0.10808220505714417,"77":0.09322251379489899,"78":0.12908890843391418,"79":0.07163485884666443,"80":0.007740559987723827,"81":-0.1561117023229599,"82":0.03580852597951889,"83":-0.08835496008396149,"84":-0.11449655890464783,"85":-0.008578313514590263,"86":0.010799538344144821,"87":0.023463614284992218,"88":0.08011086285114288,"89":-0.1221708357334137,"90":-0.1344892978668213,"91":0.03147527948021889,"92":0.15315108001232147,"93":0.1381760984659195,"94":0.017260568216443062,"95":0.19385676085948944,"96":0.11578436195850372,"97":0.07559256255626678,"98":-0.1873094141483307,"99":0.09141743183135986,"100":-0.023547202348709106,"101":-0.10352848470211029,"102":0.20452633500099182,"103":0.024596327915787697,"104":-0.18217602372169495}},"11":{"bias":-0.003486385103315115,"weights":{"0":-0.14314934611320496,"1":-0.31300482153892517,"2":0.024435684084892273,"3":-0.04885634407401085,"4":0.07119666785001755,"5":0.06472094357013702,"6":0.00993712991476059,"7":0.193173348903656,"8":0.09412233531475067,"9":-0.19128139317035675,"10":0.16018149256706238,"11":0.046466000378131866,"12":0.07809312641620636,"13":0.20007522404193878,"14":-0.1676712930202484,"15":-0.12894730269908905,"16":-0.011653163470327854,"17":0.02481662482023239,"18":-0.13426244258880615,"19":0.05011877790093422,"20":0.04914838448166847,"21":-0.4075785279273987,"22":-0.2950623631477356,"23":-0.06754306703805923,"24":0.0032217621337622404,"25":-0.003417160827666521,"26":-0.08963936567306519,"27":-0.003952388186007738,"28":0.06899390369653702,"29":0.014591841027140617,"30":-0.056609172374010086,"31":0.15164698660373688,"32":0.09676002711057663,"33":0.009032458066940308,"34":-0.008509659208357334,"35":-0.028786279261112213,"36":0.159605473279953,"37":0.018384672701358795,"38":-0.017027148976922035,"39":-0.2390267252922058,"40":-0.13615402579307556,"41":-0.14694443345069885,"42":-0.03253386169672012,"43":-0.1860930174589157,"44":-0.06463193148374557,"45":0.1675158590078354,"46":0.037499263882637024,"47":-0.19549138844013214,"48":0.1369551122188568,"49":0.05466094985604286,"50":0.014687235467135906,"51":0.13361500203609467,"52":-0.13385766744613647,"53":0.17235705256462097,"54":-0.08588293939828873,"55":0.07640936225652695,"56":0.03537844866514206,"57":0.12366044521331787,"58":0.035166122019290924,"59":-0.0025324064772576094,"60":0.04483761638402939,"61":0.11890003085136414,"62":0.03467106446623802,"63":-0.14371459186077118,"64":-0.05240388587117195,"65":0.09435519576072693,"66":-0.024309061467647552,"67":0.008492921479046345,"68":-0.013793625868856907,"69":-0.009064697660505772,"70":0.12406180799007416,"71":-0.13492518663406372,"72":-0.14985215663909912,"73":-0.059764500707387924,"74":0.06060248240828514,"75":0.04663841053843498,"76":-0.012239140458405018,"77":0.050307247787714005,"78":0.02067798748612404,"79":-0.08697228133678436,"80":0.05307423695921898,"81":0.14652936160564423,"82":-0.07704541087150574,"83":-0.0874967873096466,"84":0.032136231660842896,"85":0.19029715657234192,"86":0.12865212559700012,"87":-0.027843251824378967,"88":-0.18119311332702637,"89":-0.2005891054868698,"90":0.13540035486221313,"91":0.11638438701629639,"92":-0.07831932604312897,"93":-0.0270700640976429,"94":0.05433480814099312,"95":0.03369295597076416,"96":0.08073882758617401,"97":0.08783923089504242,"98":0.13706012070178986,"99":0.1707480400800705,"100":0.03699374571442604,"101":0.006219466682523489,"102":-0.0783451646566391,"103":-0.09741520881652832,"104":0.02376275137066841}},"12":{"bias":0.18830588459968567,"weights":{"0":-0.15642152726650238,"1":-0.1621379554271698,"2":0.04129381105303764,"3":-0.21546274423599243,"4":0.04767400398850441,"5":0.15703777968883514,"6":0.259691447019577,"7":0.16775193810462952,"8":0.21393221616744995,"9":-0.030746806412935257,"10":0.040984999388456345,"11":0.17010517418384552,"12":-0.1974881887435913,"13":-0.12747527658939362,"14":0.03289500251412392,"15":-0.07314786314964294,"16":0.156306654214859,"17":0.19968795776367188,"18":0.09409750252962112,"19":-0.020966749638319016,"20":-0.09913735091686249,"21":-0.23176831007003784,"22":-0.3082044720649719,"23":-0.14420579373836517,"24":0.03998374938964844,"25":0.10998871922492981,"26":0.2206697016954422,"27":0.1707313358783722,"28":-0.01520074624568224,"29":0.2135859876871109,"30":0.047476883977651596,"31":-0.03019769676029682,"32":-0.1170143336057663,"33":-0.013091995380818844,"34":-0.18812662363052368,"35":0.16582484543323517,"36":0.03173801302909851,"37":0.19255615770816803,"38":0.15411172807216644,"39":0.06909345835447311,"40":0.10349076986312866,"41":-0.10051034390926361,"42":0.06780432909727097,"43":-0.3084608018398285,"44":-0.17911019921302795,"45":0.057131506502628326,"46":0.16388684511184692,"47":0.020903777331113815,"48":0.20172511041164398,"49":0.09943921118974686,"50":0.032681211829185486,"51":0.18956750631332397,"52":-0.10484858602285385,"53":-0.21876439452171326,"54":-0.03704168274998665,"55":0.01895516738295555,"56":-0.12157335877418518,"57":0.0911330133676529,"58":-0.133930042386055,"59":-0.045747071504592896,"60":0.17221534252166748,"61":0.12311972677707672,"62":-0.19171380996704102,"63":0.06314359605312347,"64":-0.16465750336647034,"65":-0.03335075452923775,"66":-0.1882965862751007,"67":0.17934468388557434,"68":-0.02480882778763771,"69":0.058607399463653564,"70":0.12787890434265137,"71":0.045399852097034454,"72":-0.05708165466785431,"73":0.18674293160438538,"74":-0.058511894196271896,"75":0.11906348168849945,"76":0.18517139554023743,"77":0.05477946251630783,"78":0.012902416288852692,"79":-0.15306806564331055,"80":-0.08262208104133606,"81":-0.14561963081359863,"82":-0.1256653368473053,"83":0.0847780853509903,"84":-0.017437249422073364,"85":-0.020048942416906357,"86":0.07565289735794067,"87":-0.16748857498168945,"88":0.16557160019874573,"89":-0.16522914171218872,"90":-0.022802788764238358,"91":0.015409914776682854,"92":-0.18097597360610962,"93":-0.07116945087909698,"94":-0.03145444765686989,"95":0.15412694215774536,"96":-0.20344600081443787,"97":-0.16213735938072205,"98":-0.1591743528842926,"99":0.1076979786157608,"100":0.03311419486999512,"101":-0.16775059700012207,"102":-0.032654568552970886,"103":-0.1320684254169464,"104":-0.023026924580335617}},"13":{"bias":0.18046283721923828,"weights":{"0":-0.2459009289741516,"1":0.0293415579944849,"2":0.05272127315402031,"3":-0.21306760609149933,"4":-0.040485769510269165,"5":-0.12630972266197205,"6":-0.1770930141210556,"7":0.11527737230062485,"8":-0.10059663653373718,"9":-0.1003917008638382,"10":0.010565213859081268,"11":-0.1086064800620079,"12":-0.35043463110923767,"13":-0.2353825867176056,"14":0.09161096066236496,"15":0.1422162503004074,"16":-0.004635179415345192,"17":0.13283854722976685,"18":0.2520958185195923,"19":0.3116653561592102,"20":0.09914007782936096,"21":0.05722222849726677,"22":-0.15827997028827667,"23":0.01600753515958786,"24":0.11293838173151016,"25":-0.062341682612895966,"26":0.02134539559483528,"27":0.0939374640583992,"28":-0.007383093237876892,"29":-0.20282958447933197,"30":-0.14383052289485931,"31":0.0857711061835289,"32":-0.13006767630577087,"33":-0.2155858874320984,"34":0.01563180983066559,"35":0.054869525134563446,"36":0.15963314473628998,"37":0.32597485184669495,"38":0.43980178236961365,"39":0.3852800726890564,"40":0.14857694506645203,"41":0.11970944702625275,"42":-0.07405431568622589,"43":-0.15739592909812927,"44":-0.07716938853263855,"45":-0.10948406159877777,"46":-0.12048675119876862,"47":0.0421956367790699,"48":0.0548410601913929,"49":0.1348857879638672,"50":-0.15909472107887268,"51":-0.0017313269199803472,"52":0.09136375784873962,"53":-0.2680903673171997,"54":0.010612064972519875,"55":0.0031022103503346443,"56":-0.15586858987808228,"57":0.13329222798347473,"58":0.042764320969581604,"59":0.3396091163158417,"60":0.19543135166168213,"61":-0.13538849353790283,"62":-0.06013866886496544,"63":0.14608465135097504,"64":-0.10745518654584885,"65":0.023742888122797012,"66":-0.02633889764547348,"67":-0.06459727883338928,"68":0.009650688618421555,"69":0.027007650583982468,"70":0.1710818111896515,"71":0.0015702618984505534,"72":-0.09652100503444672,"73":0.06643053144216537,"74":0.1679568588733673,"75":0.17660056054592133,"76":-0.05487383157014847,"77":0.08238790929317474,"78":0.11433528363704681,"79":-0.18061232566833496,"80":0.0022884919308125973,"81":-0.15675295889377594,"82":-0.0288400836288929,"83":0.08578520268201828,"84":0.050836674869060516,"85":-0.03101877123117447,"86":-0.02308565005660057,"87":-0.15433917939662933,"88":0.059273600578308105,"89":0.0028775178361684084,"90":-0.07997842133045197,"91":0.039430879056453705,"92":-0.20184338092803955,"93":-0.00018648867262527347,"94":0.1774536669254303,"95":0.0026812453288584948,"96":-0.193071648478508,"97":-0.16509145498275757,"98":-0.1051260456442833,"99":-0.017618268728256226,"100":0.09954836219549179,"101":-0.00998756568878889,"102":0.11750786751508713,"103":-0.007999180816113949,"104":-0.05539878085255623}},"14":{"bias":-0.10739989578723907,"weights":{"0":0.19483596086502075,"1":0.23736794292926788,"2":0.12250101566314697,"3":-0.1620958298444748,"4":-0.13141761720180511,"5":-0.01393819134682417,"6":-0.6035181283950806,"7":-0.42922934889793396,"8":-0.26860153675079346,"9":-0.13184866309165955,"10":0.20259547233581543,"11":0.028904635459184647,"12":0.24893781542778015,"13":0.07046861946582794,"14":-0.015277198515832424,"15":-0.1906256079673767,"16":-0.05503147095441818,"17":0.123075932264328,"18":0.10580804944038391,"19":-0.10980604588985443,"20":0.16743557155132294,"21":0.2417135089635849,"22":0.10434014350175858,"23":0.07320936024188995,"24":0.016636766493320465,"25":0.136247456073761,"26":-0.1728363037109375,"27":-0.6024935245513916,"28":-0.6068563461303711,"29":-0.15280230343341827,"30":-0.15492217242717743,"31":-0.05515584722161293,"32":0.2448798567056656,"33":0.47702813148498535,"34":0.2984160780906677,"35":-0.09484436362981796,"36":0.02777465432882309,"37":0.08663304150104523,"38":0.18103568255901337,"39":-0.060379937291145325,"40":-0.1523633450269699,"41":0.03681845963001251,"42":0.010439412668347359,"43":0.044548094272613525,"44":0.20346733927726746,"45":-0.0972972959280014,"46":0.17342010140419006,"47":0.004316659178584814,"48":-0.3483893871307373,"49":-0.35569608211517334,"50":-0.18331168591976166,"51":0.05579037219285965,"52":-0.041730839759111404,"53":0.01296903658658266,"54":0.2429870367050171,"55":0.21780556440353394,"56":0.07570856809616089,"57":-0.07183311134576797,"58":0.05180569738149643,"59":-0.10378994047641754,"60":0.13389746844768524,"61":0.15218937397003174,"62":0.20214293897151947,"63":-0.19530819356441498,"64":0.05012596398591995,"65":0.034901924431324005,"66":0.12021894752979279,"67":-0.14791788160800934,"68":0.11135631799697876,"69":0.035447195172309875,"70":-0.03257255256175995,"71":-0.017039310187101364,"72":0.03891219198703766,"73":0.1063985526561737,"74":-0.10009728372097015,"75":-0.15922412276268005,"76":-0.13632869720458984,"77":-0.11274558305740356,"78":0.00005865047569386661,"79":0.17461760342121124,"80":-0.17753483355045319,"81":-0.1937614530324936,"82":-0.17671002447605133,"83":-0.030661795288324356,"84":0.19879887998104095,"85":0.16063550114631653,"86":0.1300862729549408,"87":-0.017482683062553406,"88":0.0014747311361134052,"89":-0.05989638715982437,"90":-0.06463780999183655,"91":-0.16769307851791382,"92":-0.17318212985992432,"93":-0.15620049834251404,"94":0.1720401793718338,"95":0.12307212501764297,"96":0.07848228514194489,"97":0.007044550962746143,"98":-0.06745326519012451,"99":0.20221009850502014,"100":0.10395963490009308,"101":0.162235826253891,"102":0.048731520771980286,"103":-0.04835241287946701,"104":0.11410944163799286}},"15":{"bias":0.14090541005134583,"weights":{"0":0.18833886086940765,"1":0.15662844479084015,"2":-0.031399790197610855,"3":-0.13462074100971222,"4":0.17058534920215607,"5":-0.22323846817016602,"6":-0.3829100430011749,"7":-0.21598343551158905,"8":-0.03149859607219696,"9":-0.010285851545631886,"10":-0.09490497410297394,"11":0.19438476860523224,"12":0.33863407373428345,"13":0.18454492092132568,"14":-0.07001768797636032,"15":0.046787600964307785,"16":-0.08509117364883423,"17":-0.12278861552476883,"18":0.08095639199018478,"19":0.1409187763929367,"20":0.08698368072509766,"21":0.2095540314912796,"22":-0.09127472341060638,"23":-0.07566795498132706,"24":-0.1785098910331726,"25":0.005090062040835619,"26":-0.2763647735118866,"27":-0.6492730975151062,"28":-0.6026352643966675,"29":-0.035840000957250595,"30":-0.045558862388134,"31":0.24246804416179657,"32":0.2588520646095276,"33":0.4868718981742859,"34":0.2382560521364212,"35":0.09553836286067963,"36":-0.17003458738327026,"37":0.24023212492465973,"38":0.008214759640395641,"39":0.013792728073894978,"40":0.0451291985809803,"41":-0.040516793727874756,"42":0.11933179944753647,"43":0.08250033855438232,"44":-0.08720852434635162,"45":-0.07539838552474976,"46":0.0924287810921669,"47":0.006176249589771032,"48":-0.4193545877933502,"49":-0.07008235901594162,"50":-0.2038811594247818,"51":0.050543010234832764,"52":0.2219070941209793,"53":0.16792957484722137,"54":0.016322748735547066,"55":-0.13224981725215912,"56":-0.20012609660625458,"57":0.1660795360803604,"58":0.1706467866897583,"59":-0.10904306918382645,"60":0.1975608766078949,"61":0.1735113561153412,"62":0.05498984456062317,"63":0.10110749304294586,"64":0.016353163868188858,"65":0.016007687896490097,"66":-0.20216138660907745,"67":0.06474872678518295,"68":-0.03790072351694107,"69":0.09640022367238998,"70":-0.18513111770153046,"71":0.08985278010368347,"72":-0.08819399774074554,"73":0.08896024525165558,"74":-0.1584358662366867,"75":0.1585133820772171,"76":0.006564505863934755,"77":-0.16777187585830688,"78":-0.025539524853229523,"79":-0.02133801206946373,"80":0.16980215907096863,"81":0.1701982021331787,"82":-0.07958345860242844,"83":0.08681123703718185,"84":0.11696621030569077,"85":-0.1753973811864853,"86":0.012560400180518627,"87":0.08253233879804611,"88":-0.01645870879292488,"89":0.04060572758316994,"90":-0.07702184468507767,"91":-0.012066078372299671,"92":0.12654706835746765,"93":-0.022379852831363678,"94":-0.1123075783252716,"95":-0.20173877477645874,"96":0.020829759538173676,"97":-0.038473449647426605,"98":0.04710501804947853,"99":0.141087606549263,"100":-0.16174185276031494,"101":-0.03257064148783684,"102":-0.00018427838222123682,"103":-0.12786957621574402,"104":-0.17130985856056213}},"16":{"bias":-0.10811314731836319,"weights":{"0":0.2763146460056305,"1":0.4182778298854828,"2":0.14133533835411072,"3":0.1278332620859146,"4":-0.08134891837835312,"5":-0.05400647595524788,"6":0.34982946515083313,"7":0.3258778154850006,"8":0.08187680691480637,"9":-0.04383198544383049,"10":0.12111621350049973,"11":-0.024933211505413055,"12":-0.2493634968996048,"13":-0.043313052505254745,"14":-0.059847038239240646,"15":-0.1830986738204956,"16":-0.001206154702231288,"17":-0.24634596705436707,"18":-0.13798658549785614,"19":-0.26596835255622864,"20":0.17672637104988098,"21":0.4062950015068054,"22":0.44634923338890076,"23":0.22589822113513947,"24":0.19735871255397797,"25":0.16715484857559204,"26":-0.05907519534230232,"27":0.32307544350624084,"28":0.14554931223392487,"29":0.14187753200531006,"30":-0.05573650822043419,"31":-0.19254140555858612,"32":-0.26910480856895447,"33":-0.2477390021085739,"34":-0.09737405180931091,"35":-0.18872933089733124,"36":-0.04141813889145851,"37":-0.25427889823913574,"38":-0.3738950192928314,"39":-0.5349941253662109,"40":-0.2908044457435608,"41":0.1022939458489418,"42":0.060955021530389786,"43":0.1808735579252243,"44":0.03963005915284157,"45":0.12847566604614258,"46":0.0674307569861412,"47":0.0238129124045372,"48":0.00640244921669364,"49":0.06381391733884811,"50":-0.01737838238477707,"51":0.17233812808990479,"52":-0.1682480126619339,"53":0.0391266793012619,"54":-0.04223372042179108,"55":-0.14968137443065643,"56":0.06905541568994522,"57":-0.022526659071445465,"58":0.02054493874311447,"59":-0.3537745177745819,"60":-0.19723203778266907,"61":0.14593945443630219,"62":-0.09695880860090256,"63":-0.13783910870552063,"64":0.04505407437682152,"65":-0.023898381739854813,"66":0.16399171948432922,"67":-0.1350993514060974,"68":-0.1049756184220314,"69":-0.0034974829759448767,"70":0.16610485315322876,"71":0.018264712765812874,"72":0.16944465041160583,"73":0.07383985072374344,"74":-0.0009531909599900246,"75":-0.15669888257980347,"76":0.08517449349164963,"77":-0.16682207584381104,"78":-0.1660587191581726,"79":0.17066660523414612,"80":0.10430546849966049,"81":0.11259598284959793,"82":0.04100310429930687,"83":0.021437611430883408,"84":-0.09670905023813248,"85":-0.1787916123867035,"86":-0.010991358198225498,"87":0.13795754313468933,"88":0.13571885228157043,"89":0.1834903359413147,"90":-0.18205395340919495,"91":-0.11522195488214493,"92":-0.07886337488889694,"93":-0.05370429530739784,"94":-0.03985482081770897,"95":0.07036083191633224,"96":-0.06470075994729996,"97":-0.11402270942926407,"98":-0.03397023305296898,"99":0.18182307481765747,"100":-0.12249510735273361,"101":0.032243628054857254,"102":0.02625827118754387,"103":-0.12949153780937195,"104":0.0657356008887291}},"17":{"bias":-0.11238793283700943,"weights":{"0":0.2358698844909668,"1":0.24086691439151764,"2":-0.07178084552288055,"3":-0.03283253312110901,"4":-0.16219593584537506,"5":0.07832454890012741,"6":0.1801786869764328,"7":0.017662031576037407,"8":-0.10084521025419235,"9":-0.06997299194335938,"10":-0.07841599732637405,"11":-0.4015390872955322,"12":-0.5369782447814941,"13":-0.3773867189884186,"14":0.0251524206250906,"15":0.08536003530025482,"16":-0.05512433871626854,"17":0.01432834006845951,"18":0.06677744537591934,"19":-0.09857545047998428,"20":0.14770692586898804,"21":0.3028254806995392,"22":0.2455706000328064,"23":-0.046061400324106216,"24":0.18466715514659882,"25":0.1720247119665146,"26":-0.025007514283061028,"27":0.3752307891845703,"28":0.4118395149707794,"29":0.058675047010183334,"30":0.022559212520718575,"31":-0.12458637356758118,"32":-0.4131847620010376,"33":-0.5588154792785645,"34":-0.35259270668029785,"35":-0.02768152765929699,"36":-0.12877428531646729,"37":-0.11262784153223038,"38":0.09085995703935623,"39":0.05177384987473488,"40":0.12397260963916779,"41":0.16867583990097046,"42":0.22822780907154083,"43":0.01547648198902607,"44":0.024086708202958107,"45":0.08458538353443146,"46":-0.13079774379730225,"47":-0.001575410133227706,"48":-0.055265963077545166,"49":0.3008808195590973,"50":-0.08132347464561462,"51":0.045951660722494125,"52":0.02416796237230301,"53":-0.2998834252357483,"54":-0.286416620016098,"55":-0.2145751565694809,"56":-0.07438240945339203,"57":-0.19900451600551605,"58":-0.12931044399738312,"59":-0.14736689627170563,"60":0.12730154395103455,"61":0.19169043004512787,"62":0.03890819475054741,"63":-0.005051406566053629,"64":-0.048312511295080185,"65":0.08607621490955353,"66":0.1236690953373909,"67":0.050545159727334976,"68":-0.060752954334020615,"69":-0.11427541077136993,"70":-0.018806589767336845,"71":0.1780114620923996,"72":-0.0912732481956482,"73":0.01494024507701397,"74":0.043867822736501694,"75":-0.020902683958411217,"76":-0.12849999964237213,"77":0.0022293655201792717,"78":0.10129646956920624,"79":0.006256720516830683,"80":0.10208021104335785,"81":0.1849527806043625,"82":0.08754011988639832,"83":-0.08139979839324951,"84":-0.16213153302669525,"85":0.17984308302402496,"86":0.09891384840011597,"87":-0.17614246904850006,"88":0.05976657196879387,"89":0.16707871854305267,"90":-0.11582379043102264,"91":0.15232041478157043,"92":0.18762977421283722,"93":-0.016685044392943382,"94":-0.10427936911582947,"95":0.13747188448905945,"96":0.002800356363877654,"97":0.02175663597881794,"98":-0.042002227157354355,"99":-0.03807518258690834,"100":-0.1875733733177185,"101":-0.016917986795306206,"102":0.1820530891418457,"103":-0.05242880806326866,"104":-0.12422516942024231}},"18":{"bias":0.18038587272167206,"weights":{"0":-0.02502390928566456,"1":0.21986480057239532,"2":0.18154224753379822,"3":-0.06979171931743622,"4":0.12581230700016022,"5":-0.1737213432788849,"6":-0.24329279363155365,"7":-0.1974163055419922,"8":-0.13381239771842957,"9":0.0070841992273926735,"10":0.04537618160247803,"11":0.15045802295207977,"12":0.4056589603424072,"13":0.2868735194206238,"14":0.0883932113647461,"15":0.1877746284008026,"16":0.1559058278799057,"17":0.022961271926760674,"18":0.11356303840875626,"19":-0.13289131224155426,"20":0.06647802889347076,"21":0.15491554141044617,"22":0.30575236678123474,"23":-0.04175754636526108,"24":0.17268380522727966,"25":-0.06489209830760956,"26":-0.10871787369251251,"27":-0.1719733476638794,"28":-0.37168940901756287,"29":0.003824385115876794,"30":-0.15166987478733063,"31":0.1706847846508026,"32":0.12090276181697845,"33":0.3847324848175049,"34":0.24909758567810059,"35":-0.02714710310101509,"36":-0.19979283213615417,"37":-0.10401180386543274,"38":-0.20189358294010162,"39":-0.2410391867160797,"40":-0.07748015224933624,"41":0.18323276937007904,"42":0.1358449012041092,"43":0.21898402273654938,"44":-0.19408094882965088,"45":-0.13377584517002106,"46":-0.025051187723875046,"47":-0.13563969731330872,"48":-0.33121761679649353,"49":-0.14770086109638214,"50":-0.07566584646701813,"51":0.007485055364668369,"52":0.07479682564735413,"53":0.2208302915096283,"54":0.1617349535226822,"55":-0.0066724494099617004,"56":-0.16641396284103394,"57":-0.15179601311683655,"58":0.08409149944782257,"59":0.14875827729701996,"60":-0.0584910586476326,"61":0.17851078510284424,"62":0.0338362492620945,"63":0.1671583652496338,"64":-0.2085171639919281,"65":-0.1258271336555481,"66":-0.17778083682060242,"67":-0.01817353069782257,"68":-0.015878595411777496,"69":0.02940107136964798,"70":0.04537446051836014,"71":-0.07950793206691742,"72":-0.10097222030162811,"73":0.17801105976104736,"74":-0.08032640814781189,"75":-0.06584987044334412,"76":-0.17516671121120453,"77":-0.16255560517311096,"78":0.008730054832994938,"79":0.14685936272144318,"80":-0.15181909501552582,"81":-0.005630383267998695,"82":0.13379459083080292,"83":0.04443269222974777,"84":-0.1733151376247406,"85":-0.07869371771812439,"86":-0.15081000328063965,"87":-0.11529327929019928,"88":0.101707324385643,"89":0.015604189597070217,"90":-0.16282926499843597,"91":0.1676170825958252,"92":-0.12767887115478516,"93":0.09734998643398285,"94":0.06494589149951935,"95":0.08144770562648773,"96":-0.04825522005558014,"97":0.1291545331478119,"98":0.13394971191883087,"99":0.050886668264865875,"100":0.10936932265758514,"101":0.01483908761292696,"102":-0.19063825905323029,"103":-0.03892606496810913,"104":-0.15415821969509125}},"19":{"bias":-0.1952541619539261,"weights":{"0":0.2652018070220947,"1":0.20822066068649292,"2":-0.015146295540034771,"3":-0.0714254304766655,"4":0.14598529040813446,"5":-0.1833650767803192,"6":-0.4290344715118408,"7":-0.27025583386421204,"8":-0.24943320453166962,"9":0.016416875645518303,"10":-0.06689231842756271,"11":0.0788658857345581,"12":0.396283358335495,"13":0.3075978457927704,"14":0.02775576151907444,"15":0.08196690678596497,"16":0.18633486330509186,"17":-0.07365696132183075,"18":0.051926881074905396,"19":-0.07329139858484268,"20":0.1353098750114441,"21":-0.060599274933338165,"22":0.3336292803287506,"23":0.21410256624221802,"24":-0.0387936495244503,"25":-0.20133662223815918,"26":-0.22855979204177856,"27":-0.6271920204162598,"28":-0.3307245373725891,"29":0.01511407271027565,"30":-0.16781599819660187,"31":0.19236569106578827,"32":0.45019128918647766,"33":0.31360897421836853,"34":0.25344395637512207,"35":0.18056027591228485,"36":0.15006309747695923,"37":0.0034974017180502415,"38":0.0444934144616127,"39":0.10416128486394882,"40":0.07179044932126999,"41":0.11827552318572998,"42":-0.030296936631202698,"43":0.043124545365571976,"44":-0.001404789392836392,"45":-0.09397964179515839,"46":-0.02239682525396347,"47":0.06677445024251938,"48":-0.384601354598999,"49":-0.3638819754123688,"50":0.1610821932554245,"51":0.07478265464305878,"52":-0.08685849606990814,"53":0.279581218957901,"54":0.2853969633579254,"55":0.2485523521900177,"56":0.18303386867046356,"57":-0.18855422735214233,"58":0.0687042772769928,"59":-0.0022441507317125797,"60":-0.18822847306728363,"61":0.13910707831382751,"62":-0.03572347015142441,"63":-0.012026713229715824,"64":-0.09898783266544342,"65":-0.18651117384433746,"66":0.029689723625779152,"67":-0.08993899822235107,"68":-0.03385549038648605,"69":0.03028782643377781,"70":0.08672742545604706,"71":-0.18814422190189362,"72":0.1585759073495865,"73":-0.19796770811080933,"74":-0.10771296918392181,"75":0.17501278221607208,"76":-0.18949870765209198,"77":0.04535570740699768,"78":0.02954719588160515,"79":-0.14216779172420502,"80":0.1313711553812027,"81":-0.026918036863207817,"82":-0.08925020694732666,"83":-0.15018227696418762,"84":-0.0456366240978241,"85":-0.13244083523750305,"86":0.1405751258134842,"87":0.045342981815338135,"88":-0.05219779908657074,"89":0.01035533007234335,"90":-0.17351855337619781,"91":0.06013474613428116,"92":0.11938118934631348,"93":-0.016235094517469406,"94":-0.1192554384469986,"95":-0.18278032541275024,"96":-0.18911603093147278,"97":-0.12160831689834595,"98":0.020943008363246918,"99":0.172950878739357,"100":-0.17416024208068848,"101":0.17820946872234344,"102":-0.07893569767475128,"103":0.07459019124507904,"104":-0.03505337983369827}},"20":{"bias":-0.015214625746011734,"weights":{"0":0.06598491966724396,"1":-0.1971331536769867,"2":-0.1894737184047699,"3":-0.1672690063714981,"4":-0.15572060644626617,"5":0.08919510990381241,"6":-0.016143258661031723,"7":-0.01778794638812542,"8":0.03970889747142792,"9":0.05518978461623192,"10":0.09366650134325027,"11":-0.0449979342520237,"12":-0.4135212004184723,"13":-0.18490903079509735,"14":-0.16105465590953827,"15":-0.11998676508665085,"16":0.10360950976610184,"17":0.16047661006450653,"18":0.02137673646211624,"19":0.22723235189914703,"20":0.06601162999868393,"21":0.11420127749443054,"22":-0.05719764530658722,"23":-0.18290294706821442,"24":0.099615678191185,"25":-0.04322215914726257,"26":-0.013304218649864197,"27":0.3296319544315338,"28":0.21555659174919128,"29":0.16445307433605194,"30":0.19434325397014618,"31":-0.25655075907707214,"32":-0.2587147653102875,"33":-0.23066891729831696,"34":-0.026991844177246094,"35":-0.2655099034309387,"36":-0.10616550594568253,"37":0.164763942360878,"38":0.2713247239589691,"39":0.20301352441310883,"40":-0.07348161190748215,"41":0.001238353317603469,"42":-0.04358185827732086,"43":-0.0168143343180418,"44":-0.011055509559810162,"45":-0.016418004408478737,"46":0.05144750699400902,"47":-0.13165313005447388,"48":-0.11025644093751907,"49":0.2098684310913086,"50":-0.17874430119991302,"51":0.1552472859621048,"52":-0.03859320282936096,"53":-0.08652189373970032,"54":-0.10335684567689896,"55":0.05302073806524277,"56":0.17046432197093964,"57":0.0617232471704483,"58":0.06067458540201187,"59":-0.023550216108560562,"60":0.1903596967458725,"61":-0.07434587180614471,"62":0.19913558661937714,"63":0.06892877072095871,"64":0.042124196887016296,"65":-0.10300406068563461,"66":-0.18293894827365875,"67":-0.16435624659061432,"68":0.14422766864299774,"69":0.11073204129934311,"70":-0.06468354910612106,"71":0.14307411015033722,"72":0.0702720656991005,"73":-0.1217397078871727,"74":0.003223609644919634,"75":0.08010297268629074,"76":0.028904439881443977,"77":-0.02165612392127514,"78":-0.12353070825338364,"79":0.14588014781475067,"80":-0.17956982553005219,"81":-0.17598797380924225,"82":0.13313649594783783,"83":0.068001888692379,"84":0.17387615144252777,"85":0.1578570157289505,"86":0.014532317407429218,"87":0.11600253731012344,"88":-0.13191919028759003,"89":0.05737444385886192,"90":-0.11458586901426315,"91":-0.06659006327390671,"92":-0.1078280583024025,"93":-0.03307872638106346,"94":0.19089467823505402,"95":-0.16974790394306183,"96":-0.1492300182580948,"97":0.09282902628183365,"98":-0.061529189348220825,"99":-0.1849411576986313,"100":0.04201390594244003,"101":0.20516745746135712,"102":0.19976337254047394,"103":-0.1329319030046463,"104":0.03432788699865341}},"21":{"bias":-0.16899818181991577,"weights":{"0":-0.028819233179092407,"1":0.2345636934041977,"2":0.058460820466279984,"3":0.1937440037727356,"4":0.02024093270301819,"5":0.023951930925250053,"6":0.038339026272296906,"7":0.10272057354450226,"8":-0.1268812119960785,"9":-0.11491579562425613,"10":-0.2052023857831955,"11":-0.19360339641571045,"12":0.18544504046440125,"13":-0.0698733925819397,"14":0.1412203460931778,"15":0.12913131713867188,"16":0.03038782626390457,"17":0.039356477558612823,"18":0.05215572565793991,"19":-0.2517807185649872,"20":-0.17379705607891083,"21":0.05244031175971031,"22":0.3594677150249481,"23":0.2392926663160324,"24":-0.04439467936754227,"25":-0.05880685895681381,"26":-0.10623376071453094,"27":-0.08685294538736343,"28":0.07624702900648117,"29":0.16118133068084717,"30":0.19266855716705322,"31":0.18527069687843323,"32":0.05552840605378151,"33":-0.07847662270069122,"34":-0.027862712740898132,"35":-0.12998738884925842,"36":0.08439482748508453,"37":-0.14098002016544342,"38":-0.20328973233699799,"39":-0.1082533448934555,"40":-0.15187329053878784,"41":0.11248331516981125,"42":0.09447084367275238,"43":-0.03397698700428009,"44":0.15678918361663818,"45":0.18985876441001892,"46":-0.122468501329422,"47":0.1569817066192627,"48":-0.13326209783554077,"49":-0.2086353600025177,"50":-0.11346237361431122,"51":-0.15258842706680298,"52":-0.03859901800751686,"53":-0.0026297864969819784,"54":0.18834324181079865,"55":-0.1372360736131668,"56":-0.02849736250936985,"57":-0.10971292108297348,"58":0.08179498463869095,"59":-0.1967114806175232,"60":-0.18277767300605774,"61":0.034398891031742096,"62":-0.09206072241067886,"63":-0.08610884845256805,"64":-0.18658314645290375,"65":-0.09795103222131729,"66":0.17318876087665558,"67":-0.18382203578948975,"68":-0.053826190531253815,"69":-0.06774172931909561,"70":0.04796246811747551,"71":0.061092644929885864,"72":0.13440798223018646,"73":0.02118786796927452,"74":0.11956357210874557,"75":-0.15623517334461212,"76":0.15113139152526855,"77":0.02142150141298771,"78":-0.06163607910275459,"79":-0.04225154221057892,"80":-0.16343341767787933,"81":0.15261180698871613,"82":-0.09349967539310455,"83":0.1808062195777893,"84":0.12904252111911774,"85":0.12859179079532623,"86":-0.12455525249242783,"87":0.10024338215589523,"88":0.10730071365833282,"89":0.1465396285057068,"90":0.08431680500507355,"91":0.1520140916109085,"92":0.13982002437114716,"93":-0.13083416223526,"94":0.07635818421840668,"95":0.11114054918289185,"96":-0.1492435336112976,"97":-0.03988271951675415,"98":0.000390150846214965,"99":-0.019190916791558266,"100":-0.11722488701343536,"101":0.05520349368453026,"102":0.10211797803640366,"103":0.10096590965986252,"104":-0.11706724017858505}},"22":{"bias":0.06296695023775101,"weights":{"0":0.03919804096221924,"1":0.22768551111221313,"2":-0.005510898772627115,"3":-0.04674319177865982,"4":0.1209624782204628,"5":-0.13627316057682037,"6":0.0667586550116539,"7":-0.042252011597156525,"8":0.14409026503562927,"9":-0.07957281172275543,"10":-0.08431877195835114,"11":0.037188299000263214,"12":-0.4095815122127533,"13":-0.15684974193572998,"14":-0.017188118770718575,"15":0.09650620818138123,"16":-0.16109086573123932,"17":-0.07997488975524902,"18":-0.024146435782313347,"19":0.19446957111358643,"20":-0.0604405514895916,"21":0.2733892500400543,"22":0.3722377121448517,"23":0.04220635071396828,"24":0.04867205396294594,"25":-0.04666547849774361,"26":0.03001021407544613,"27":-0.09262009710073471,"28":-0.10747651010751724,"29":-0.08254361152648926,"30":-0.07244011014699936,"31":-0.2564622759819031,"32":-0.38037607073783875,"33":-0.19066479802131653,"34":-0.29599660634994507,"35":-0.26137369871139526,"36":-0.1577499508857727,"37":0.248971626162529,"38":0.23311062157154083,"39":0.31887930631637573,"40":0.11292169988155365,"41":0.19128791987895966,"42":-0.038717690855264664,"43":0.29471245408058167,"44":-0.018076810985803604,"45":0.14754877984523773,"46":0.07717670500278473,"47":-0.029994623735547066,"48":0.04346177354454994,"49":-0.08105065673589706,"50":-0.17003574967384338,"51":-0.12228955328464508,"52":-0.004376476164907217,"53":-0.13252997398376465,"54":-0.2401570975780487,"55":0.047594308853149414,"56":0.17319661378860474,"57":-0.05985785648226738,"58":0.04229731485247612,"59":-0.004043371882289648,"60":0.11952576786279678,"61":0.03352737054228783,"62":-0.17431902885437012,"63":-0.06299060583114624,"64":0.07661410421133041,"65":-0.14780837297439575,"66":0.0599387027323246,"67":0.06997040659189224,"68":-0.17489714920520782,"69":0.045577820390462875,"70":-0.18782112002372742,"71":0.1534045785665512,"72":-0.17481490969657898,"73":-0.052905987948179245,"74":-0.03428659960627556,"75":0.16517269611358643,"76":0.07092255353927612,"77":-0.06846917420625687,"78":-0.02360009215772152,"79":-0.1705561727285385,"80":0.13033151626586914,"81":0.12039272487163544,"82":0.028937382623553276,"83":0.01650296337902546,"84":0.1029202938079834,"85":0.10794872790575027,"86":-0.10531198978424072,"87":0.0061128828674554825,"88":-0.1393103450536728,"89":-0.1703040599822998,"90":0.1396557241678238,"91":0.1023433580994606,"92":-0.011638573370873928,"93":-0.14604242146015167,"94":0.06831036508083344,"95":0.20280833542346954,"96":0.1920471340417862,"97":-0.016873011365532875,"98":0.04965037479996681,"99":0.17525185644626617,"100":0.056509096175432205,"101":-0.07416769862174988,"102":-0.11651953309774399,"103":0.08269196003675461,"104":-0.07404622435569763}},"23":{"bias":-0.05924982577562332,"weights":{"0":-0.20022301375865936,"1":-0.3291116952896118,"2":-0.36194393038749695,"3":-0.12242971360683441,"4":-0.12886953353881836,"5":0.05570948123931885,"6":0.5905550122261047,"7":0.4065595865249634,"8":0.16703498363494873,"9":0.0653625950217247,"10":-0.12519124150276184,"11":0.12082621455192566,"12":0.002587713534012437,"13":0.14968957006931305,"14":0.1287892758846283,"15":-0.07536785304546356,"16":-0.15097814798355103,"17":-0.16638867557048798,"18":-0.11293147504329681,"19":-0.0014367494732141495,"20":-0.05143893137574196,"21":-0.5862153768539429,"22":-0.7366014122962952,"23":-0.4057442843914032,"24":0.09892178326845169,"25":-0.14921489357948303,"26":0.045641157776117325,"27":0.6417887806892395,"28":0.6204686164855957,"29":0.19236603379249573,"30":0.005521421320736408,"31":0.17301338911056519,"32":0.03767140954732895,"33":0.17937904596328735,"34":0.07500019669532776,"35":-0.032259657979011536,"36":-0.16288620233535767,"37":0.11767125874757767,"38":-0.09601064026355743,"39":-0.2985897660255432,"40":-0.09336579591035843,"41":-0.15061074495315552,"42":-0.17672187089920044,"43":-0.3965090215206146,"44":-0.22285602986812592,"45":0.14379552006721497,"46":0.16898280382156372,"47":-0.08535850793123245,"48":0.12816256284713745,"49":0.33860355615615845,"50":-0.17614752054214478,"51":-0.1444268822669983,"52":-0.050837866961956024,"53":0.10456076264381409,"54":0.004680647514760494,"55":-0.0468294657766819,"56":-0.12915602326393127,"57":-0.16408631205558777,"58":-0.022113662213087082,"59":-0.17060990631580353,"60":0.11173221468925476,"61":-0.12286882102489471,"62":0.16320902109146118,"63":0.11757561564445496,"64":0.12474947422742844,"65":0.0905570536851883,"66":0.1558428704738617,"67":0.011682331562042236,"68":0.15054798126220703,"69":-0.03875197842717171,"70":0.07609468698501587,"71":0.05158783122897148,"72":0.09884455800056458,"73":-0.023440690711140633,"74":0.010264469310641289,"75":0.045608293265104294,"76":0.17519745230674744,"77":0.197210431098938,"78":-0.07903997600078583,"79":0.048412177711725235,"80":-0.022662760689854622,"81":-0.053621165454387665,"82":0.17326021194458008,"83":0.05055880919098854,"84":-0.14559420943260193,"85":0.037511538714170456,"86":-0.11241671442985535,"87":-0.13223889470100403,"88":-0.040789682418107986,"89":0.19697073101997375,"90":-0.07182927429676056,"91":-0.02841717191040516,"92":0.1987667679786682,"93":-0.010409506037831306,"94":0.11622484028339386,"95":0.08111301064491272,"96":-0.08982908725738525,"97":0.052926454693078995,"98":-0.09118324518203735,"99":0.15544146299362183,"100":-0.003433160949498415,"101":0.11737336218357086,"102":0.1358753740787506,"103":-0.18303698301315308,"104":-0.06281081587076187}},"24":{"bias":-0.20765291154384613,"weights":{"0":0.07210693508386612,"1":0.17603762447834015,"2":0.2515842616558075,"3":-0.14472739398479462,"4":-0.0485684834420681,"5":0.023088818415999413,"6":-0.3990404009819031,"7":-0.13899117708206177,"8":-0.018552079796791077,"9":-0.0007563175167888403,"10":0.11113101989030838,"11":-0.011518829502165318,"12":-0.136587992310524,"13":-0.007511266507208347,"14":-0.1693013310432434,"15":0.1240236833691597,"16":0.14626874029636383,"17":0.19657962024211884,"18":0.09615451097488403,"19":0.1535925567150116,"20":-0.12230636179447174,"21":0.3304671347141266,"22":0.222145676612854,"23":0.022712422534823418,"24":-0.002168918726965785,"25":-0.018327370285987854,"26":-0.05418931320309639,"27":-0.28964507579803467,"28":-0.2319810688495636,"29":0.05939817801117897,"30":0.007721321657299995,"31":0.08873794227838516,"32":-0.11075864732265472,"33":-0.29758158326148987,"34":-0.2932727038860321,"35":-0.18580858409404755,"36":0.012058941647410393,"37":0.3231280744075775,"38":0.470065176486969,"39":0.3330923914909363,"40":0.24577902257442474,"41":0.16997560858726501,"42":0.15466435253620148,"43":0.06302135437726974,"44":-0.09678376466035843,"45":-0.14964164793491364,"46":-0.1328798085451126,"47":-0.06702298671007156,"48":-0.19333532452583313,"49":-0.34201955795288086,"50":-0.08530320227146149,"51":-0.18772558867931366,"52":0.11365264654159546,"53":-0.22958149015903473,"54":-0.040230125188827515,"55":0.08341652154922485,"56":0.09714164584875107,"57":-0.1697012186050415,"58":0.1387513428926468,"59":0.3428398072719574,"60":0.20766809582710266,"61":-0.16120555996894836,"62":0.11711537837982178,"63":-0.11233800649642944,"64":-0.06818731129169464,"65":0.02055678889155388,"66":0.04761361703276634,"67":0.07569608092308044,"68":0.10458122193813324,"69":0.05313241109251976,"70":-0.07842013239860535,"71":0.0048754578456282616,"72":-0.037260476499795914,"73":0.14681294560432434,"74":0.0003293419140391052,"75":-0.12679679691791534,"76":0.11151918768882751,"77":-0.12208601087331772,"78":-0.12206446379423141,"79":0.11460161954164505,"80":-0.14829333126544952,"81":0.1178038939833641,"82":-0.12757080793380737,"83":0.15401142835617065,"84":0.11056248843669891,"85":-0.20436403155326843,"86":0.12561984360218048,"87":0.18240216374397278,"88":0.18741261959075928,"89":0.021934974938631058,"90":-0.01795508712530136,"91":-0.03534354642033577,"92":0.17385388910770416,"93":-0.06838114559650421,"94":-0.12393259257078171,"95":-0.0033229123800992966,"96":-0.16567596793174744,"97":-0.1835293173789978,"98":0.018305912613868713,"99":-0.06113770604133606,"100":-0.1377648115158081,"101":-0.167636439204216,"102":0.1896439790725708,"103":-0.07533421367406845,"104":0.1659162938594818}},"25":{"bias":-0.049510277807712555,"weights":{"0":-0.31823182106018066,"1":-0.1447434276342392,"2":-0.3808790445327759,"3":0.009551621042191982,"4":-0.04630060866475105,"5":0.10004889965057373,"6":0.39971089363098145,"7":0.3073589503765106,"8":0.018656207248568535,"9":0.16428345441818237,"10":-0.06734099239110947,"11":-0.013571800664067268,"12":-0.48702359199523926,"13":-0.11198090016841888,"14":0.1757960021495819,"15":0.0682668462395668,"16":0.19668737053871155,"17":0.4649823307991028,"18":0.38067126274108887,"19":0.3507199287414551,"20":-0.1817513108253479,"21":-0.24193595349788666,"22":-0.6120097637176514,"23":-0.32231369614601135,"24":-0.04210195690393448,"25":0.12025477737188339,"26":0.32863882184028625,"27":0.37505486607551575,"28":0.1708650439977646,"29":0.23782317340373993,"30":0.006489144172519445,"31":-0.09157316386699677,"32":-0.40003475546836853,"33":-0.5932050943374634,"34":-0.4460378885269165,"35":-0.2838597893714905,"36":0.05512722209095955,"37":0.2205689400434494,"38":0.2394881695508957,"39":0.36202239990234375,"40":0.301798552274704,"41":-0.11441808193922043,"42":-0.022455940023064613,"43":-0.21574455499649048,"44":-0.21974612772464752,"45":-0.07707609981298447,"46":0.17469939589500427,"47":-0.032445333898067474,"48":-0.032223377376794815,"49":0.22222788631916046,"50":0.05427363142371178,"51":-0.059719379991292953,"52":-0.08891196548938751,"53":-0.2405971884727478,"54":0.027263730764389038,"55":-0.020094219595193863,"56":0.08939027041196823,"57":0.10307096689939499,"58":0.14729513227939606,"59":0.25956934690475464,"60":0.3284431993961334,"61":0.05976930633187294,"62":0.019482426345348358,"63":-0.15288132429122925,"64":-0.018776461482048035,"65":-0.0019910286646336317,"66":-0.012185821309685707,"67":0.03732150420546532,"68":-0.15120795369148254,"69":-0.0550943948328495,"70":0.17684227228164673,"71":-0.07415299862623215,"72":0.08994840830564499,"73":0.12886320054531097,"74":-0.04560155048966408,"75":0.12002139538526535,"76":0.1510431468486786,"77":-0.0838853195309639,"78":-0.1872301995754242,"79":0.04281211271882057,"80":0.11520195752382278,"81":-0.13693109154701233,"82":-0.1159399226307869,"83":-0.07512272149324417,"84":0.08323181420564651,"85":-0.14136260747909546,"86":0.0006508405786007643,"87":-0.10257814079523087,"88":0.09933709353208542,"89":0.11911880224943161,"90":-0.18424302339553833,"91":0.19122421741485596,"92":-0.14564231038093567,"93":-0.04295140132308006,"94":-0.1473293900489807,"95":-0.04983777180314064,"96":0.004159342963248491,"97":0.0762682631611824,"98":0.16224703192710876,"99":-0.1325150430202484,"100":0.0323035903275013,"101":-0.08379002660512924,"102":0.12415634840726852,"103":-0.10230561345815659,"104":-0.18651792407035828}},"26":{"bias":0.029611386358737946,"weights":{"0":0.21950262784957886,"1":0.19260519742965698,"2":0.2522200644016266,"3":0.032434992492198944,"4":-0.14972235262393951,"5":-0.02886875532567501,"6":-0.7068554162979126,"7":-0.4758411645889282,"8":-0.19348010420799255,"9":-0.1666569709777832,"10":0.17711764574050903,"11":0.15950748324394226,"12":0.24163788557052612,"13":-0.10113182663917542,"14":-0.10407771170139313,"15":-0.13687390089035034,"16":0.04229366034269333,"17":0.01675528474152088,"18":0.14278201758861542,"19":-0.06217242404818535,"20":0.1683240830898285,"21":0.3280314803123474,"22":0.27465176582336426,"23":0.11078134179115295,"24":0.12303603440523148,"25":-0.13439485430717468,"26":-0.3406110107898712,"27":-0.5745322108268738,"28":-0.36091819405555725,"29":-0.2520207464694977,"30":-0.20434187352657318,"31":0.14431224763393402,"32":0.10893680155277252,"33":-0.034705549478530884,"34":0.04368160665035248,"35":-0.01146024465560913,"36":0.004861376713961363,"37":0.1563410460948944,"38":0.00001345565942756366,"39":0.18169455230236053,"40":-0.1529703438282013,"41":0.168219655752182,"42":0.18552620708942413,"43":0.17654502391815186,"44":0.04489370808005333,"45":0.08245842158794403,"46":-0.09360969066619873,"47":0.03593698889017105,"48":-0.4659375846385956,"49":-0.18717090785503387,"50":-0.02475724369287491,"51":0.08591559529304504,"52":-0.16440054774284363,"53":0.13512542843818665,"54":-0.03842585161328316,"55":0.07124350965023041,"56":0.031882092356681824,"57":0.10392093658447266,"58":0.0844922661781311,"59":0.24504613876342773,"60":0.16743716597557068,"61":0.1332744061946869,"62":-0.22448989748954773,"63":0.07065753638744354,"64":0.0327099934220314,"65":-0.14537890255451202,"66":0.16697363555431366,"67":-0.024319011718034744,"68":0.018810056149959564,"69":-0.21933448314666748,"70":-0.11422336101531982,"71":0.08948545157909393,"72":-0.07056678831577301,"73":-0.1277603805065155,"74":0.1518731713294983,"75":0.04700592905282974,"76":-0.08317483961582184,"77":-0.12828429043293,"78":-0.03764435648918152,"79":-0.09239321947097778,"80":0.15109531581401825,"81":-0.22329716384410858,"82":0.017737053334712982,"83":-0.02213377133011818,"84":-0.013931562192738056,"85":-0.1477794200181961,"86":-0.14528889954090118,"87":0.1152234822511673,"88":0.10204191505908966,"89":-0.038954973220825195,"90":-0.13252553343772888,"91":-0.11848223209381104,"92":-0.0594913512468338,"93":0.13470356166362762,"94":0.13214091956615448,"95":0.03419507294893265,"96":0.13607263565063477,"97":-0.015765031799674034,"98":0.10886412858963013,"99":0.1229197233915329,"100":0.15693208575248718,"101":0.022406592965126038,"102":0.08963018655776978,"103":-0.16121383011341095,"104":0.16519343852996826}},"27":{"bias":-0.03377239778637886,"weights":{"0":-0.030302677303552628,"1":-0.05641401931643486,"2":0.01833818480372429,"3":0.1232369989156723,"4":-0.1445934921503067,"5":-0.0436810664832592,"6":0.037968818098306656,"7":-0.0018623829819262028,"8":-0.09398825466632843,"9":0.00783639494329691,"10":-0.07637416571378708,"11":-0.029152244329452515,"12":-0.3187183141708374,"13":-0.10891479253768921,"14":-0.11710643768310547,"15":0.0978659838438034,"16":0.1608695387840271,"17":0.15310324728488922,"18":0.0001596345828147605,"19":0.09549462795257568,"20":0.1340673267841339,"21":0.13582578301429749,"22":-0.08983007818460464,"23":-0.12279592454433441,"24":0.007733960170298815,"25":0.10320822894573212,"26":0.18097519874572754,"27":0.2867831587791443,"28":0.17556747794151306,"29":-0.06212522089481354,"30":-0.1890946328639984,"31":-0.22182966768741608,"32":-0.08397644758224487,"33":-0.2124486118555069,"34":-0.27097710967063904,"35":-0.14654752612113953,"36":-0.02493772655725479,"37":-0.092213936150074,"38":0.3482624888420105,"39":0.11331287026405334,"40":0.12976686656475067,"41":-0.025131847709417343,"42":0.14566829800605774,"43":-0.20391766726970673,"44":-0.02043280005455017,"45":-0.02842811495065689,"46":0.13498501479625702,"47":-0.055322933942079544,"48":0.15449154376983643,"49":0.007920585572719574,"50":-0.040105823427438736,"51":0.08249969780445099,"52":0.07819553464651108,"53":-0.27334195375442505,"54":0.046963077038526535,"55":-0.13892312347888947,"56":-0.05839155241847038,"57":-0.020789988338947296,"58":-0.11889954656362534,"59":0.1902930587530136,"60":0.09344945847988129,"61":0.20164117217063904,"62":-0.08597119152545929,"63":0.01569746620953083,"64":-0.07159414887428284,"65":-0.030364707112312317,"66":0.08596386015415192,"67":-0.12857817113399506,"68":0.10897853970527649,"69":0.012197698466479778,"70":0.09122197329998016,"71":-0.1164461225271225,"72":0.1582311987876892,"73":0.11513745784759521,"74":-0.07409654557704926,"75":-0.06781972944736481,"76":-0.01154488604515791,"77":-0.08969113230705261,"78":0.13397979736328125,"79":-0.0016541910590603948,"80":0.19890688359737396,"81":0.021201487630605698,"82":-0.18734699487686157,"83":0.1610492616891861,"84":-0.12250833958387375,"85":0.05022137239575386,"86":0.028352759778499603,"87":0.06188005581498146,"88":-0.02328953891992569,"89":0.019045338034629822,"90":-0.06547702848911285,"91":-0.05073313042521477,"92":0.04105802997946739,"93":-0.17035837471485138,"94":-0.11217771470546722,"95":-0.18493163585662842,"96":0.12353183329105377,"97":0.14382801949977875,"98":0.13691264390945435,"99":0.13889798521995544,"100":0.198251873254776,"101":-0.1695316582918167,"102":-0.07669505476951599,"103":-0.1767108142375946,"104":-0.06731556355953217}},"28":{"bias":0.1474546194076538,"weights":{"0":-0.21803420782089233,"1":-0.10603554546833038,"2":-0.22618311643600464,"3":-0.09037426114082336,"4":0.10882114619016647,"5":-0.056002117693424225,"6":-0.043979667127132416,"7":0.044422607868909836,"8":0.06422373652458191,"9":0.006371303927153349,"10":-0.02198055572807789,"11":0.031116213649511337,"12":0.2684330940246582,"13":-0.1208057552576065,"14":-0.08680497109889984,"15":-0.09881576150655746,"16":0.06831470876932144,"17":0.09186523407697678,"18":-0.06868646293878555,"19":-0.01329930778592825,"20":-0.19258996844291687,"21":-0.16089002788066864,"22":0.033931631594896317,"23":-0.0848659798502922,"24":0.1968633532524109,"25":0.010599655099213123,"26":-0.2748492956161499,"27":-0.41092216968536377,"28":-0.14188748598098755,"29":-0.20870117843151093,"30":0.08977209776639938,"31":0.10615251213312149,"32":0.09226818382740021,"33":0.35178959369659424,"34":-0.009988997131586075,"35":-0.026977121829986572,"36":0.11543645709753036,"37":-0.03919050097465515,"38":0.2888857424259186,"39":0.360195517539978,"40":-0.017930714413523674,"41":0.07682224363088608,"42":-0.03252452239394188,"43":-0.006031161639839411,"44":-0.11769399791955948,"45":-0.05352780222892761,"46":0.09950461983680725,"47":0.15052977204322815,"48":-0.24029508233070374,"49":-0.23654748499393463,"50":0.012849193997681141,"51":0.09057075530290604,"52":0.025584600865840912,"53":0.147077277302742,"54":0.12389101088047028,"55":0.03668579086661339,"56":0.18952646851539612,"57":-0.16054874658584595,"58":-0.13026590645313263,"59":0.1048625186085701,"60":0.07447532564401627,"61":-0.17464622855186462,"62":-0.056896843016147614,"63":-0.0035670956131070852,"64":0.20306658744812012,"65":0.037078194320201874,"66":-0.06346771866083145,"67":0.10380619764328003,"68":0.1329086422920227,"69":0.17624199390411377,"70":-0.1672908067703247,"71":0.057819612324237823,"72":0.023050298914313316,"73":0.0309766698628664,"74":-0.16242489218711853,"75":-0.017476214095950127,"76":-0.010607264004647732,"77":0.175920307636261,"78":-0.09440555423498154,"79":-0.03144706040620804,"80":0.0595431849360466,"81":0.02200291119515896,"82":0.17682471871376038,"83":0.08584561944007874,"84":0.1430387794971466,"85":-0.06359899044036865,"86":-0.06771096587181091,"87":0.00742696737870574,"88":-0.05777428299188614,"89":0.10950514674186707,"90":0.008367718197405338,"91":-0.08202432096004486,"92":0.19428107142448425,"93":-0.03826434165239334,"94":0.008182990364730358,"95":0.08256185054779053,"96":-0.07214953005313873,"97":-0.1258857250213623,"98":0.1530299186706543,"99":-0.0701601505279541,"100":-0.10076470673084259,"101":-0.19419682025909424,"102":0.025013552978634834,"103":-0.126512348651886,"104":-0.13992944359779358}},"29":{"bias":0.07665383070707321,"weights":{"0":-0.4677391052246094,"1":-0.3731819987297058,"2":-0.4135519564151764,"3":0.12378829717636108,"4":0.15228810906410217,"5":-0.01764647290110588,"6":-0.014674226753413677,"7":0.12159628421068192,"8":-0.056895285844802856,"9":0.18473756313323975,"10":-0.033839669078588486,"11":0.05776750296354294,"12":0.39020514488220215,"13":0.23646824061870575,"14":0.04736366868019104,"15":0.017249399796128273,"16":-0.20251864194869995,"17":0.10990453511476517,"18":0.16539877653121948,"19":0.30506446957588196,"20":-0.07564146816730499,"21":-0.41857707500457764,"22":-0.6039082407951355,"23":-0.4584459960460663,"24":-0.12315990775823593,"25":0.09723871946334839,"26":0.11053925007581711,"27":-0.08933614939451218,"28":-0.00813279114663601,"29":0.046492259949445724,"30":-0.10089556872844696,"31":0.30705562233924866,"32":0.1693086475133896,"33":0.5155963897705078,"34":0.16920451819896698,"35":0.1715177297592163,"36":-0.09170803427696228,"37":0.08847463130950928,"38":0.3310416340827942,"39":0.46703672409057617,"40":0.06165266036987305,"41":-0.14958812296390533,"42":-0.32279443740844727,"43":-0.13008663058280945,"44":-0.2161734253168106,"45":-0.18168339133262634,"46":-0.11717122793197632,"47":-0.08187359571456909,"48":0.14458158612251282,"49":0.0048758964985609055,"50":0.1198233962059021,"51":-0.034102484583854675,"52":0.2378203272819519,"53":-0.011002936400473118,"54":-0.021708017215132713,"55":0.11298461258411407,"56":-0.027773601934313774,"57":0.138329416513443,"58":-0.05266358330845833,"59":0.32446473836898804,"60":0.11034151166677475,"61":-0.17922313511371613,"62":-0.0832526832818985,"63":-0.06184037774801254,"64":0.13224825263023376,"65":-0.0591353178024292,"66":-0.1389840692281723,"67":-0.14556553959846497,"68":0.1914025843143463,"69":-0.008142916485667229,"70":-0.184860959649086,"71":-0.14163973927497864,"72":0.1871682107448578,"73":0.010580210015177727,"74":-0.06945079565048218,"75":0.11165376007556915,"76":-0.16549068689346313,"77":-0.05586918443441391,"78":0.16031970083713531,"79":-0.113527312874794,"80":0.18718592822551727,"81":0.07784335315227509,"82":0.03973190486431122,"83":-0.022625988349318504,"84":-0.013954585418105125,"85":-0.16128510236740112,"86":0.1694769710302353,"87":0.16540999710559845,"88":0.002751688240095973,"89":-0.00033109509968198836,"90":0.06933024525642395,"91":-0.08920872211456299,"92":-0.06804783642292023,"93":0.13590650260448456,"94":-0.18746520578861237,"95":-0.15991659462451935,"96":0.02142552100121975,"97":-0.177082359790802,"98":-0.16050145030021667,"99":0.1678241789340973,"100":-0.047975681722164154,"101":0.024158066138625145,"102":-0.06216518580913544,"103":-0.1705058366060257,"104":-0.1384119689464569}},"30":{"bias":0.08212368190288544,"weights":{"0":-0.005394868087023497,"1":-0.059922315180301666,"2":0.10555481910705566,"3":0.18050283193588257,"4":0.04749865457415581,"5":-0.028626438230276108,"6":0.004533079918473959,"7":0.022078830748796463,"8":0.035098426043987274,"9":-0.0010383116314187646,"10":-0.16687512397766113,"11":0.2540517747402191,"12":0.11965472251176834,"13":0.2626584470272064,"14":0.16795578598976135,"15":-0.08094928413629532,"16":-0.040545735508203506,"17":-0.18341004848480225,"18":-0.3041178584098816,"19":0.04284248128533363,"20":0.05608857795596123,"21":0.17100447416305542,"22":-0.023316560313105583,"23":0.10030528903007507,"24":-0.14030487835407257,"25":0.1773180365562439,"26":0.07443582266569138,"27":0.13326320052146912,"28":0.10224433243274689,"29":-0.16696424782276154,"30":0.012354587204754353,"31":0.03410148248076439,"32":0.17714080214500427,"33":0.3664095103740692,"34":0.19037014245986938,"35":0.16989636421203613,"36":-0.1284736692905426,"37":-0.024405380710959435,"38":-0.3278317153453827,"39":-0.35643401741981506,"40":0.033037181943655014,"41":-0.20956462621688843,"42":-0.0033092719968408346,"43":-0.18548619747161865,"44":0.10243460536003113,"45":0.15801900625228882,"46":-0.11972629278898239,"47":-0.019796505570411682,"48":0.02733996883034706,"49":0.007611236069351435,"50":0.12451814115047455,"51":-0.07524072378873825,"52":0.1270691454410553,"53":0.14801810681819916,"54":0.15559403598308563,"55":-0.09210696816444397,"56":-0.19208526611328125,"57":-0.20274406671524048,"58":-0.04740817844867706,"59":-0.06150944530963898,"60":0.004256535321474075,"61":0.12279009819030762,"62":0.18746280670166016,"63":-0.10767864435911179,"64":-0.018667001277208328,"65":-0.1702173948287964,"66":-0.13789784908294678,"67":0.10705553740262985,"68":-0.058201540261507034,"69":-0.20958176255226135,"70":-0.1580713391304016,"71":0.1292014718055725,"72":0.1361977458000183,"73":-0.13801205158233643,"74":0.046440113335847855,"75":0.1309971809387207,"76":-0.12885650992393494,"77":0.17299869656562805,"78":-0.19000256061553955,"79":0.04124930128455162,"80":-0.12630516290664673,"81":0.04788244143128395,"82":-0.1024717465043068,"83":-0.1180323138833046,"84":-0.16351094841957092,"85":-0.05814342573285103,"86":0.11571251600980759,"87":0.008525283075869083,"88":-0.1544106900691986,"89":-0.1335468590259552,"90":-0.030844591557979584,"91":-0.07782349735498428,"92":0.17637956142425537,"93":0.18453440070152283,"94":-0.09883932024240494,"95":-0.07987014204263687,"96":0.10825184732675552,"97":-0.011548995040357113,"98":0.12474236637353897,"99":-0.18584787845611572,"100":-0.16142886877059937,"101":0.1328742802143097,"102":0.1372872292995453,"103":0.14755120873451233,"104":0.020433980971574783}},"31":{"bias":0.1487106829881668,"weights":{"0":0.06501241028308868,"1":0.2714340090751648,"2":-0.09802699089050293,"3":-0.07929971814155579,"4":0.18963102996349335,"5":0.06627017259597778,"6":-0.0394437275826931,"7":-0.21597324311733246,"8":0.1655169576406479,"9":0.04499631002545357,"10":-0.15918897092342377,"11":-0.0838848128914833,"12":-0.04762406274676323,"13":-0.05067669227719307,"14":0.16509868204593658,"15":-0.12759700417518616,"16":-0.03788244351744652,"17":-0.12772758305072784,"18":-0.14818237721920013,"19":-0.13650555908679962,"20":-0.02729378454387188,"21":0.0103707704693079,"22":0.2904350161552429,"23":0.018872607499361038,"24":0.00916146207600832,"25":-0.07133254408836365,"26":-0.059871867299079895,"27":0.045064203441143036,"28":-0.059328217059373856,"29":-0.15256480872631073,"30":-0.012450003996491432,"31":-0.06102188304066658,"32":-0.2095176875591278,"33":-0.08000706881284714,"34":-0.04088293015956879,"35":-0.046964675188064575,"36":-0.17951396107673645,"37":0.11474546790122986,"38":0.15406692028045654,"39":0.07600291818380356,"40":-0.15848222374916077,"41":0.153402641415596,"42":-0.056118812412023544,"43":0.23653487861156464,"44":-0.12751473486423492,"45":-0.10445983707904816,"46":-0.1577468067407608,"47":-0.049888912588357925,"48":0.14918610453605652,"49":-0.00536311836913228,"50":0.16822336614131927,"51":0.17594385147094727,"52":-0.12517718970775604,"53":-0.03648233413696289,"54":0.11106385290622711,"55":0.1311062127351761,"56":-0.16006869077682495,"57":0.039177555590867996,"58":-0.13092103600502014,"59":-0.10087479650974274,"60":0.1993272602558136,"61":-0.09841734915971756,"62":0.15044772624969482,"63":-0.003150208154693246,"64":-0.167880579829216,"65":0.007122480776160955,"66":0.01980690285563469,"67":0.07195590436458588,"68":-0.16189292073249817,"69":-0.08682480454444885,"70":-0.014294520020484924,"71":-0.1805001050233841,"72":0.09367683529853821,"73":-0.09844011068344116,"74":0.18992270529270172,"75":0.07024410367012024,"76":0.019204774871468544,"77":0.1720149964094162,"78":0.10786016285419464,"79":-0.11173643171787262,"80":0.20694759488105774,"81":-0.09796378016471863,"82":0.14247383177280426,"83":-0.021822992712259293,"84":0.07631568610668182,"85":-0.09826987981796265,"86":-0.034649379551410675,"87":0.09748753905296326,"88":-0.002528359880670905,"89":-0.05564352124929428,"90":0.006210829131305218,"91":-0.14229080080986023,"92":0.1895328015089035,"93":-0.14756034314632416,"94":0.12856623530387878,"95":0.12214374542236328,"96":0.07240457832813263,"97":0.030253306031227112,"98":-0.16452720761299133,"99":-0.010208949446678162,"100":-0.13352982699871063,"101":0.11503101885318756,"102":-0.16525262594223022,"103":0.15907618403434753,"104":-0.013586357235908508}},"32":{"bias":0.07219289243221283,"weights":{"0":0.3207371234893799,"1":0.31121450662612915,"2":0.3027675151824951,"3":-0.09592314064502716,"4":0.077224001288414,"5":0.057066481560468674,"6":0.09069209545850754,"7":-0.21821720898151398,"8":-0.0471966378390789,"9":-0.16705307364463806,"10":-0.1200801432132721,"11":0.0075626857578754425,"12":-0.22573964297771454,"13":-0.14455324411392212,"14":-0.10184985399246216,"15":-0.16446033120155334,"16":-0.03313489258289337,"17":0.003097525332123041,"18":-0.2178596407175064,"19":-0.1299290657043457,"20":-0.05149298906326294,"21":0.36849328875541687,"22":0.3457799553871155,"23":0.3478038012981415,"24":0.16446781158447266,"25":0.1783943474292755,"26":0.07155438512563705,"27":-0.14737437665462494,"28":0.02065233699977398,"29":-0.010135072283446789,"30":-0.07878105342388153,"31":-0.0364789143204689,"32":-0.005902101285755634,"33":-0.09691479802131653,"34":-0.26053208112716675,"35":-0.08545728772878647,"36":-0.20613250136375427,"37":0.1394156813621521,"38":-0.11194443702697754,"39":-0.0877917930483818,"40":0.04463215544819832,"41":-0.20511475205421448,"42":0.018887821584939957,"43":0.016227848827838898,"44":0.004772110376507044,"45":0.08501416444778442,"46":0.043827444314956665,"47":-0.005399008747190237,"48":-0.11096975952386856,"49":-0.06374308466911316,"50":-0.1243329793214798,"51":0.12188304960727692,"52":0.029150089249014854,"53":-0.03971007093787193,"54":0.008934528566896915,"55":0.08723549544811249,"56":0.004742085933685303,"57":0.0985957533121109,"58":0.1413925290107727,"59":0.0002589909126982093,"60":-0.1159290000796318,"61":-0.06584171950817108,"62":0.06348390877246857,"63":0.07972817122936249,"64":0.036392152309417725,"65":-0.11785219609737396,"66":0.009903029538691044,"67":0.04017072916030884,"68":0.013802762143313885,"69":-0.002194460714235902,"70":0.033696118742227554,"71":-0.14532509446144104,"72":0.03501366078853607,"73":0.07474836707115173,"74":-0.05531969666481018,"75":0.008832775987684727,"76":0.035756535828113556,"77":-0.09415480494499207,"78":-0.1552257239818573,"79":0.15931716561317444,"80":0.07691873610019684,"81":0.11855578422546387,"82":0.09510913491249084,"83":0.040240876376628876,"84":0.015126851387321949,"85":0.15929478406906128,"86":0.11156491935253143,"87":-0.07532873749732971,"88":-0.12623482942581177,"89":-0.13917115330696106,"90":0.02244402840733528,"91":-0.049745962023735046,"92":0.08490784466266632,"93":-0.07850217819213867,"94":-0.07667121291160583,"95":-0.0962253212928772,"96":0.17824962735176086,"97":0.06331609189510345,"98":0.13356199860572815,"99":-0.07402417063713074,"100":-0.06284306943416595,"101":-0.18518581986427307,"102":0.005978087428957224,"103":0.12560993432998657,"104":0.09209629893302917}},"33":{"bias":0.18187029659748077,"weights":{"0":0.10356666892766953,"1":0.3234664499759674,"2":0.1111326664686203,"3":0.13705608248710632,"4":0.10745266079902649,"5":-0.05436089262366295,"6":-0.6687504053115845,"7":-0.5869395732879639,"8":-0.21558387577533722,"9":0.11342626065015793,"10":-0.13104116916656494,"11":-0.0368325337767601,"12":-0.0751609206199646,"13":-0.03895348310470581,"14":-0.17414215207099915,"15":0.17850464582443237,"16":-0.0638493075966835,"17":0.06180258467793465,"18":0.043707843869924545,"19":0.13427869975566864,"20":-0.023118913173675537,"21":0.24181027710437775,"22":0.3348536193370819,"23":0.10682729631662369,"24":0.042400188744068146,"25":0.11007730662822723,"26":-0.26303631067276,"27":-0.8243951797485352,"28":-0.6072816252708435,"29":-0.21198546886444092,"30":-0.14911508560180664,"31":0.03413979709148407,"32":-0.06969937682151794,"33":-0.01621134579181671,"34":0.07182623445987701,"35":-0.15189269185066223,"36":0.025228220969438553,"37":0.0060616303235292435,"38":0.21690575778484344,"39":0.4755415618419647,"40":0.23259086906909943,"41":0.128533273935318,"42":0.21586085855960846,"43":0.1802961826324463,"44":0.16792933642864227,"45":0.1732315719127655,"46":-0.054894477128982544,"47":-0.10023713856935501,"48":-0.3850316107273102,"49":-0.3850683569908142,"50":0.09803380072116852,"51":0.11515568196773529,"52":0.1903262734413147,"53":-0.08134129643440247,"54":0.016036678105592728,"55":-0.17624491453170776,"56":0.07854859530925751,"57":0.05192141979932785,"58":-0.0004438954929355532,"59":0.3180059492588043,"60":-0.024490706622600555,"61":0.05386548489332199,"62":0.11583460867404938,"63":0.10618145763874054,"64":-0.19642862677574158,"65":0.0453169047832489,"66":0.1383480727672577,"67":-0.18839776515960693,"68":-0.08224588632583618,"69":-0.16378477215766907,"70":-0.06906988471746445,"71":0.16133072972297668,"72":0.05810955911874771,"73":0.18903297185897827,"74":-0.020361214876174927,"75":0.009588249027729034,"76":0.016768118366599083,"77":0.19504913687705994,"78":0.18271225690841675,"79":0.1016589105129242,"80":-0.12601368129253387,"81":-0.03200136125087738,"82":-0.1234562024474144,"83":0.19947633147239685,"84":-0.11913690716028214,"85":0.11737028509378433,"86":-0.015076152980327606,"87":-0.08636622130870819,"88":-0.09452559053897858,"89":0.03653358295559883,"90":-0.1279194951057434,"91":-0.03874855116009712,"92":-0.0074352179653942585,"93":-0.07939688861370087,"94":0.08596843481063843,"95":-0.05078284442424774,"96":0.18557366728782654,"97":-0.05158281326293945,"98":-0.14398396015167236,"99":0.19083479046821594,"100":-0.19297322630882263,"101":-0.15085053443908691,"102":-0.18367412686347961,"103":-0.045123934745788574,"104":-0.005755943711847067}},"34":{"bias":0.023608559742569923,"weights":{"0":-0.16773009300231934,"1":0.14199985563755035,"2":0.0412573367357254,"3":0.14388056099414825,"4":0.083268903195858,"5":0.1540660858154297,"6":0.01647656410932541,"7":-0.028526339679956436,"8":-0.14917895197868347,"9":-0.01796732097864151,"10":-0.06624342501163483,"11":0.11856059730052948,"12":-0.2514530420303345,"13":-0.1915852427482605,"14":-0.021841978654265404,"15":0.03631218522787094,"16":0.12351756542921066,"17":0.09307711571455002,"18":-0.16084182262420654,"19":-0.05964922159910202,"20":-0.1493481993675232,"21":-0.035648077726364136,"22":0.05280957743525505,"23":0.01783245988190174,"24":-0.046793580055236816,"25":0.07500184327363968,"26":-0.12053383141756058,"27":-0.06654564291238785,"28":0.22411343455314636,"29":-0.17503690719604492,"30":0.028192583471536636,"31":-0.20934662222862244,"32":-0.1771802455186844,"33":-0.13012364506721497,"34":-0.038055669516325,"35":-0.1906011551618576,"36":-0.2011052519083023,"37":0.03781677410006523,"38":0.007493665441870689,"39":-0.19330812990665436,"40":-0.12078940868377686,"41":0.07467608898878098,"42":-0.16659021377563477,"43":0.20420363545417786,"44":-0.03484915941953659,"45":0.13636524975299835,"46":-0.17997878789901733,"47":-0.09728924185037613,"48":0.15151174366474152,"49":0.0009984011994674802,"50":-0.11412426829338074,"51":0.005233826115727425,"52":-0.09461887925863266,"53":-0.20641599595546722,"54":0.04810177907347679,"55":0.10573060810565948,"56":0.13692431151866913,"57":-0.006142273545265198,"58":0.07155141234397888,"59":0.11622612923383713,"60":-0.04781302437186241,"61":0.06390788406133652,"62":-0.10860170423984528,"63":0.04600483551621437,"64":0.0007936569745652378,"65":0.06408873200416565,"66":-0.14102841913700104,"67":-0.05353446304798126,"68":0.06918416917324066,"69":0.08006154000759125,"70":-0.11417253315448761,"71":0.023759210482239723,"72":0.171115443110466,"73":0.09508020430803299,"74":0.1547546684741974,"75":0.07151278108358383,"76":-0.13464495539665222,"77":-0.06590554118156433,"78":0.05849536880850792,"79":-0.053876638412475586,"80":-0.06259524822235107,"81":0.1542743444442749,"82":0.1448865532875061,"83":0.17328360676765442,"84":-0.06318897008895874,"85":-0.1973854899406433,"86":0.08499529212713242,"87":0.1415547877550125,"88":-0.10826440900564194,"89":-0.007177769672125578,"90":-0.034481775015592575,"91":0.022257080301642418,"92":0.12951155006885529,"93":0.14437872171401978,"94":0.12214092165231705,"95":0.18450233340263367,"96":-0.037450265139341354,"97":0.02774091623723507,"98":0.03236967697739601,"99":0.10987222194671631,"100":0.13635925948619843,"101":-0.14694549143314362,"102":-0.12236057221889496,"103":0.1519116759300232,"104":-0.14798490703105927}},"35":{"bias":-0.15368929505348206,"weights":{"0":-0.06175108626484871,"1":0.09743978828191757,"2":-0.084764264523983,"3":-0.005516620818525553,"4":0.11032161116600037,"5":0.0179526899009943,"6":0.23935331404209137,"7":0.2720627188682556,"8":-0.015795940533280373,"9":-0.02722921408712864,"10":0.031376902014017105,"11":-0.05921580269932747,"12":0.13148964941501617,"13":0.10447476804256439,"14":0.006265267729759216,"15":0.10639593005180359,"16":-0.20169521868228912,"17":-0.35363060235977173,"18":-0.2964891791343689,"19":-0.2526507079601288,"20":0.1408676654100418,"21":0.18426045775413513,"22":0.32386237382888794,"23":-0.10136476904153824,"24":0.06897643953561783,"25":0.15565304458141327,"26":0.016405867412686348,"27":0.41808459162712097,"28":0.0520736463367939,"29":0.1661006510257721,"30":-0.14071433246135712,"31":-0.040391020476818085,"32":0.15219439566135406,"33":-0.11960398405790329,"34":0.18522071838378906,"35":0.036793358623981476,"36":-0.12182704359292984,"37":-0.10792576521635056,"38":-0.6395878195762634,"39":-0.7292221188545227,"40":-0.17605750262737274,"41":-0.15299715101718903,"42":-0.006589127238839865,"43":0.12886126339435577,"44":0.10314078629016876,"45":0.08406531065702438,"46":0.032073769718408585,"47":0.06030626222491264,"48":0.13826783001422882,"49":0.034945569932460785,"50":0.08229339122772217,"51":-0.14092551171779633,"52":0.11432422697544098,"53":0.09775959700345993,"54":-0.1795879751443863,"55":-0.04672395810484886,"56":0.0443965345621109,"57":0.05019277334213257,"58":0.10181387513875961,"59":-0.4095589518547058,"60":-0.028169525787234306,"61":-0.24643705785274506,"62":-0.0692390725016594,"63":-0.11437226831912994,"64":0.04465968906879425,"65":0.1514848917722702,"66":0.023597894236445427,"67":-0.053434982895851135,"68":-0.15391771495342255,"69":0.11068165302276611,"70":0.06672759354114532,"71":-0.04826168715953827,"72":-0.12230110913515091,"73":0.11006438732147217,"74":-0.13446144759655,"75":0.10479660332202911,"76":-0.10125121474266052,"77":0.0721462070941925,"78":0.08370149880647659,"79":-0.020227475091814995,"80":-0.013189399614930153,"81":0.03242391720414162,"82":-0.13948042690753937,"83":-0.03966633975505829,"84":0.02479494921863079,"85":0.17505891621112823,"86":0.16577811539173126,"87":-0.19976450502872467,"88":0.07891648262739182,"89":0.1499646157026291,"90":-0.08805695176124573,"91":-0.08004215359687805,"92":0.1651388555765152,"93":-0.0867452397942543,"94":-0.0999768078327179,"95":-0.1485625058412552,"96":0.08646703511476517,"97":0.026550404727458954,"98":0.1428556889295578,"99":0.13883553445339203,"100":-0.1828392595052719,"101":0.15114735066890717,"102":0.019115375354886055,"103":-0.1601933091878891,"104":0.1203923225402832}},"36":{"bias":-0.079212985932827,"weights":{"0":-0.1719835102558136,"1":-0.03302660584449768,"2":-0.16309650242328644,"3":0.1399545818567276,"4":-0.040733419358730316,"5":0.14202509820461273,"6":-0.10454539954662323,"7":0.22749154269695282,"8":0.11912185698747635,"9":0.06148936599493027,"10":0.06292475014925003,"11":0.19729191064834595,"12":0.4588099718093872,"13":0.04291994869709015,"14":0.10050664097070694,"15":0.15134979784488678,"16":-0.1085207462310791,"17":-0.17445264756679535,"18":-0.17575925588607788,"19":-0.29855430126190186,"20":0.06056945025920868,"21":0.028321806341409683,"22":-0.09587536752223969,"23":-0.22282077372074127,"24":-0.17773936688899994,"25":-0.1552383303642273,"26":-0.10720320791006088,"27":0.02600006014108658,"28":0.1643689125776291,"29":0.1273709386587143,"30":-0.1430559903383255,"31":0.24359934031963348,"32":0.04670407250523567,"33":0.3466182053089142,"34":0.1980675309896469,"35":0.010779614560306072,"36":0.1893184781074524,"37":-0.21520118415355682,"38":-0.33795154094696045,"39":-0.27842041850090027,"40":-0.06778375059366226,"41":-0.07833894342184067,"42":-0.21444304287433624,"43":-0.09262290596961975,"44":-0.03549095615744591,"45":-0.09652768075466156,"46":-0.16184918582439423,"47":0.03113057278096676,"48":-0.03521018102765083,"49":0.1338910162448883,"50":0.19817353785037994,"51":0.17608122527599335,"52":-0.05859106779098511,"53":0.0016494612209498882,"54":0.14798784255981445,