{"sizes":[88,44,5],"layers":[{"0":{},"1":{},"2":{},"3":{},"4":{},"5":{},"6":{},"7":{},"8":{},"9":{},"10":{},"11":{},"12":{},"13":{},"14":{},"15":{},"16":{},"17":{},"18":{},"19":{},"20":{},"21":{},"22":{},"23":{},"24":{},"25":{},"26":{},"27":{},"28":{},"29":{},"30":{},"31":{},"32":{},"33":{},"34":{},"35":{},"36":{},"37":{},"38":{},"39":{},"40":{},"41":{},"42":{},"43":{},"44":{},"45":{},"46":{},"47":{},"48":{},"49":{},"50":{},"51":{},"52":{},"53":{},"54":{},"55":{},"56":{},"57":{},"58":{},"59":{},"60":{},"61":{},"62":{},"63":{},"64":{},"65":{},"66":{},"67":{},"68":{},"69":{},"70":{},"71":{},"72":{},"73":{},"74":{},"75":{},"76":{},"77":{},"78":{},"79":{},"80":{},"81":{},"82":{},"83":{},"84":{},"85":{},"86":{},"87":{}},{"0":{"bias":-0.06360335648059845,"weights":{"0":0.01324014738202095,"1":0.164308100938797,"2":-0.18058335781097412,"3":-0.17798033356666565,"4":-0.00866000261157751,"5":0.062092866748571396,"6":-0.21139857172966003,"7":0.07858007401227951,"8":-0.06858427822589874,"9":-0.17630629241466522,"10":-0.015302964486181736,"11":-0.048839010298252106,"12":-0.007887681946158409,"13":0.2638372480869293,"14":0.2214941382408142,"15":-0.13096222281455994,"16":0.032276611775159836,"17":0.08876583725214005,"18":-0.1505325883626938,"19":0.09763254970312119,"20":-0.07023494690656662,"21":0.02847125753760338,"22":0.24381111562252045,"23":-0.0819406509399414,"24":0.1845177263021469,"25":-0.18555302917957306,"26":-0.06695722788572311,"27":0.0534440279006958,"28":0.015097497031092644,"29":-0.0733879879117012,"30":0.09356778860092163,"31":-0.1627819538116455,"32":-0.04849812015891075,"33":0.2975083589553833,"34":0.4762212932109833,"35":0.28082627058029175,"36":0.22904692590236664,"37":-0.22589197754859924,"38":0.08347328007221222,"39":-0.09728986024856567,"40":-0.0009747561998665333,"41":-0.002389684785157442,"42":-0.21671123802661896,"43":-0.1857404112815857,"44":-0.0749770775437355,"45":-0.04988745227456093,"46":0.1340363770723343,"47":-0.22109182178974152,"48":-0.14549461007118225,"49":0.11133729666471481,"50":0.14065124094486237,"51":-0.1038152202963829,"52":-0.062353841960430145,"53":0.12233330309391022,"54":0.14121270179748535,"55":0.0629667341709137,"56":0.5136803984642029,"57":0.3918735980987549,"58":0.3950023055076599,"59":-0.11247191578149796,"60":0.13044022023677826,"61":0.0773586556315422,"62":0.0700603723526001,"63":-0.18506944179534912,"64":0.05081142112612724,"65":0.04432371258735657,"66":-0.12960422039031982,"67":-0.176356241106987,"68":-0.1377670168876648,"69":-0.1683051437139511,"70":0.05306943133473396,"71":0.09219711273908615,"72":-0.017674632370471954,"73":-0.09926185011863708,"74":0.010722403414547443,"75":-0.015244883485138416,"76":0.09198232740163803,"77":-0.11354956775903702,"78":0.33600980043411255,"79":0.21823963522911072,"80":0.1750977337360382,"81":-0.24958568811416626,"82":-0.17460955679416656,"83":-0.04280319809913635,"84":-0.0333067812025547,"85":0.12839695811271667,"86":-0.021062128245830536,"87":-0.12468471378087997}},"1":{"bias":-0.2419307678937912,"weights":{"0":0.21212004125118256,"1":0.030816754326224327,"2":-0.23481428623199463,"3":-0.04473133757710457,"4":-0.13176871836185455,"5":-0.1707766205072403,"6":0.08892740309238434,"7":-0.15905243158340454,"8":-0.2473362535238266,"9":0.09599857777357101,"10":0.09233130514621735,"11":-0.258914977312088,"12":-0.05980223789811134,"13":-0.32524552941322327,"14":0.10177521407604218,"15":-0.24343863129615784,"16":-0.053381796926259995,"17":-0.1318327784538269,"18":0.030154148116707802,"19":0.17971986532211304,"20":-0.2016926109790802,"21":0.04620311036705971,"22":0.29432564973831177,"23":0.22208288311958313,"24":0.35882776975631714,"25":0.22390061616897583,"26":-0.05200701579451561,"27":-0.16920679807662964,"28":-0.015635615214705467,"29":-0.09411385655403137,"30":-0.07871747761964798,"31":-0.21536894142627716,"32":-0.06266825646162033,"33":-0.04260488227009773,"34":-0.2248741090297699,"35":-0.18469935655593872,"36":-0.33451250195503235,"37":-0.021207336336374283,"38":0.16050224006175995,"39":0.3937331438064575,"40":0.2935015857219696,"41":0.5872712135314941,"42":0.13885487616062164,"43":0.10658973455429077,"44":0.5116903781890869,"45":0.6815153360366821,"46":0.6222730278968811,"47":-0.12400281429290771,"48":0.12130271643400192,"49":-0.22301366925239563,"50":0.13925449550151825,"51":-0.06444891542196274,"52":-0.09181135147809982,"53":-0.005937269888818264,"54":-0.06259382516145706,"55":-0.36580583453178406,"56":-0.4123033881187439,"57":-0.2769568860530853,"58":-0.06817106157541275,"59":-0.007019311189651489,"60":0.14271235466003418,"61":0.489585280418396,"62":0.6435701847076416,"63":0.48298466205596924,"64":-0.04369491711258888,"65":-0.17336757481098175,"66":0.16544869542121887,"67":0.19889706373214722,"68":0.05392492935061455,"69":-0.061465006321668625,"70":0.03592110797762871,"71":-0.1998152732849121,"72":0.031691618263721466,"73":-0.23561197519302368,"74":-0.14998435974121094,"75":-0.21769514679908752,"76":0.108521468937397,"77":-0.09703835844993591,"78":-0.19888679683208466,"79":-0.30618539452552795,"80":0.08729823678731918,"81":-0.22418802976608276,"82":0.11924852430820465,"83":0.10535538196563721,"84":0.18724101781845093,"85":0.299125075340271,"86":0.03797313943505287,"87":0.11338604986667633}},"2":{"bias":-0.04580023139715195,"weights":{"0":0.11411865055561066,"1":-0.0079334806650877,"2":0.009698249399662018,"3":-0.12532447278499603,"4":0.021452834829688072,"5":0.08685654401779175,"6":-0.06137143447995186,"7":0.0367206335067749,"8":-0.1490963101387024,"9":-0.009943277575075626,"10":0.16827532649040222,"11":-0.051460277289152145,"12":0.2754547595977783,"13":0.1579275131225586,"14":-0.054527245461940765,"15":-0.04642542451620102,"16":-0.09656485170125961,"17":0.18846020102500916,"18":-0.16745145618915558,"19":0.1324114352464676,"20":-0.0721467137336731,"21":0.07151366770267487,"22":-0.09696841984987259,"23":-0.13359902799129486,"24":-0.007131942547857761,"25":-0.09554467350244522,"26":0.029526347294449806,"27":-0.04945971444249153,"28":-0.012607483193278313,"29":-0.043461285531520844,"30":-0.054312728345394135,"31":0.049714382737874985,"32":0.011630180291831493,"33":0.15085338056087494,"34":-0.031448666006326675,"35":0.1952349841594696,"36":0.08656058460474014,"37":-0.04144563525915146,"38":-0.016934795305132866,"39":-0.2864486277103424,"40":-0.3813193738460541,"41":-0.15856269001960754,"42":0.05824912339448929,"43":0.08588728308677673,"44":-0.059830863028764725,"45":-0.035853415727615356,"46":-0.11987654119729996,"47":0.1696408987045288,"48":0.03960026800632477,"49":0.0700799822807312,"50":0.05787406489253044,"51":-0.16897891461849213,"52":-0.09418447315692902,"53":-0.0638936311006546,"54":0.17512305080890656,"55":0.08625172823667526,"56":-0.0020254990085959435,"57":0.22670742869377136,"58":0.24456432461738586,"59":-0.10189224779605865,"60":0.08016721904277802,"61":-0.5708210468292236,"62":-0.42548954486846924,"63":-0.46792301535606384,"64":-0.11575555056333542,"65":0.08093136548995972,"66":0.1048157587647438,"67":0.17262399196624756,"68":0.10706550627946854,"69":-0.0731927752494812,"70":-0.011179446242749691,"71":0.13505691289901733,"72":-0.10804545879364014,"73":0.19235949218273163,"74":-0.14008916914463043,"75":0.17643220722675323,"76":-0.10313490033149719,"77":-0.1341143250465393,"78":0.25789642333984375,"79":-0.002966729924082756,"80":-0.09967704117298126,"81":0.022125832736492157,"82":-0.0042151398956775665,"83":-0.20301192998886108,"84":-0.017528703436255455,"85":-0.13547848165035248,"86":0.0031454479321837425,"87":0.17702651023864746}},"3":{"bias":0.15999382734298706,"weights":{"0":-0.08923205733299255,"1":0.007501748390495777,"2":0.28447121381759644,"3":-0.03117937408387661,"4":-0.05491898953914642,"5":0.17331483960151672,"6":0.03316451981663704,"7":0.028661619871854782,"8":0.27632924914360046,"9":0.03100714087486267,"10":0.14287278056144714,"11":-0.13599109649658203,"12":-0.3620859980583191,"13":-0.2517738342285156,"14":0.13100233674049377,"15":0.08942786604166031,"16":0.26497095823287964,"17":0.14218680560588837,"18":0.2361406832933426,"19":0.021764975041151047,"20":0.08680498600006104,"21":-0.06226466968655586,"22":0.0495932511985302,"23":0.029044263064861298,"24":0.07848067581653595,"25":0.14614807069301605,"26":0.23781579732894897,"27":-0.08034293353557587,"28":0.14507409930229187,"29":0.0782635360956192,"30":0.004311149474233389,"31":0.3109714984893799,"32":-0.06403537839651108,"33":-0.36526185274124146,"34":-0.7364690899848938,"35":-0.7452470064163208,"36":-0.3949272930622101,"37":0.2175377905368805,"38":-0.1241242066025734,"39":0.037370894104242325,"40":0.024124599993228912,"41":-0.16716499626636505,"42":0.23517248034477234,"43":0.06084425374865532,"44":0.10713265836238861,"45":-0.3131779134273529,"46":-0.18522636592388153,"47":-0.08091451227664948,"48":-0.08642318844795227,"49":-0.054425083100795746,"50":0.11013095825910568,"51":-0.006412642542272806,"52":-0.004692777059972286,"53":0.03049827553331852,"54":0.13026607036590576,"55":-0.6668754816055298,"56":-0.9097800254821777,"57":-0.6985394358634949,"58":-0.49876487255096436,"59":0.23091351985931396,"60":-0.05370103940367699,"61":-0.40109995007514954,"62":-0.12108960002660751,"63":-0.34342464804649353,"64":0.22412702441215515,"65":0.0309614147990942,"66":-0.04984694719314575,"67":-0.09402596950531006,"68":0.2005021870136261,"69":0.2436847686767578,"70":0.2814975678920746,"71":0.0008670836105011404,"72":0.27727368474006653,"73":0.2131800800561905,"74":0.27723419666290283,"75":0.11725778877735138,"76":0.18658921122550964,"77":0.19194668531417847,"78":-0.44372501969337463,"79":-0.29586827754974365,"80":0.055300023406744,"81":0.2781112790107727,"82":0.031253885477781296,"83":-0.06976067274808884,"84":-0.0032936804927885532,"85":-0.06608650833368301,"86":0.15466934442520142,"87":0.1838732808828354}},"4":{"bias":-0.010741711594164371,"weights":{"0":-0.08599728345870972,"1":0.02729945257306099,"2":0.0973697155714035,"3":-0.1931653767824173,"4":0.14239048957824707,"5":0.1707734316587448,"6":-0.24460847675800323,"7":-0.3097638487815857,"8":-0.02331971749663353,"9":-0.05085369199514389,"10":0.02828248031437397,"11":-0.17800787091255188,"12":-0.021569455042481422,"13":0.03154609352350235,"14":-0.16765567660331726,"15":0.17250211536884308,"16":-0.19449253380298615,"17":0.030665148049592972,"18":0.08214116096496582,"19":-0.04460279271006584,"20":0.05841509625315666,"21":0.1888468712568283,"22":-0.08659143000841141,"23":0.13173452019691467,"24":0.11544964462518692,"25":0.14554516971111298,"26":-0.008475369773805141,"27":-0.055434513837099075,"28":-0.5491989254951477,"29":-0.8523921966552734,"30":-0.551024854183197,"31":-0.07931982725858688,"32":0.19501285254955292,"33":-0.06068394333124161,"34":0.25317180156707764,"35":0.10804448276758194,"36":-0.06867247819900513,"37":-0.03827524930238724,"38":0.020374637097120285,"39":0.24199458956718445,"40":0.23068052530288696,"41":0.16402919590473175,"42":0.04794329032301903,"43":-0.10056982934474945,"44":0.20249001681804657,"45":0.08400125056505203,"46":0.02918149344623089,"47":0.018306318670511246,"48":0.11516670137643814,"49":-0.11374209076166153,"50":-0.6872961521148682,"51":-0.9267626404762268,"52":-0.6687694191932678,"53":0.16512151062488556,"54":0.19307242333889008,"55":0.12295383960008621,"56":0.14920344948768616,"57":0.17295409739017487,"58":0.22226227819919586,"59":-0.18888096511363983,"60":-0.15855270624160767,"61":0.3142203390598297,"62":0.21857823431491852,"63":0.06044613569974899,"64":0.019991397857666016,"65":0.054723478853702545,"66":0.1837025284767151,"67":-0.04569996893405914,"68":0.00014194424147717655,"69":0.06437050551176071,"70":0.15016748011112213,"71":-0.10710860788822174,"72":-0.23539499938488007,"73":-0.48629868030548096,"74":-0.38549044728279114,"75":-0.03633739799261093,"76":0.19037456810474396,"77":0.17109109461307526,"78":0.0761469230055809,"79":-0.08959130942821503,"80":-0.020967071875929832,"81":-0.0319480374455452,"82":0.021413741633296013,"83":0.13383279740810394,"84":0.24636191129684448,"85":-0.04429550841450691,"86":0.11085762828588486,"87":0.12024807184934616}},"5":{"bias":-0.05496957153081894,"weights":{"0":0.010214441455900669,"1":0.039853595197200775,"2":0.13664552569389343,"3":0.275422602891922,"4":0.2943478524684906,"5":0.19428586959838867,"6":-0.01393035613000393,"7":0.2027657926082611,"8":0.012552633881568909,"9":0.30039182305336,"10":0.044094376266002655,"11":0.2199455201625824,"12":0.3048313558101654,"13":0.17866091430187225,"14":0.1372530311346054,"15":-0.039845217019319534,"16":0.04765805974602699,"17":0.26356741786003113,"18":-0.02771780639886856,"19":0.16048021614551544,"20":0.17299772799015045,"21":0.24091605842113495,"22":-0.24606500566005707,"23":-0.3934036195278168,"24":-0.5332253575325012,"25":0.005996290128678083,"26":0.21434444189071655,"27":0.0020382856018841267,"28":-0.41698402166366577,"29":-0.4043283760547638,"30":0.04789378121495247,"31":-0.0021501113660633564,"32":0.11455123126506805,"33":0.30941134691238403,"34":0.02599075250327587,"35":0.26921430230140686,"36":0.2227528989315033,"37":-0.04317334666848183,"38":0.05832662433385849,"39":-0.3963162899017334,"40":-0.3279941976070404,"41":-0.36726728081703186,"42":-0.03683077171444893,"43":0.0002633807307574898,"44":-0.3556673228740692,"45":-0.6794425249099731,"46":-0.5568962693214417,"47":-0.07614806294441223,"48":0.25361764430999756,"49":0.03162660077214241,"50":-0.4102969467639923,"51":-0.34607887268066406,"52":-0.33694031834602356,"53":0.08060821145772934,"54":-0.03953170403838158,"55":-0.044128820300102234,"56":0.07419779151678085,"57":-0.07036370038986206,"58":0.15508128702640533,"59":0.24245043098926544,"60":0.04368797317147255,"61":-0.33237162232398987,"62":-0.6985613107681274,"63":-0.36702412366867065,"64":0.014647052623331547,"65":0.24000626802444458,"66":0.011010054498910904,"67":-0.2695021629333496,"68":0.020715776830911636,"69":0.3053767681121826,"70":0.18698638677597046,"71":-0.020098086446523666,"72":-0.06031491979956627,"73":0.045152757316827774,"74":-0.18836116790771484,"75":-0.05959906801581383,"76":-0.07159948348999023,"77":0.28939011693000793,"78":0.21905846893787384,"79":0.06654056161642075,"80":0.29404696822166443,"81":0.20231042802333832,"82":0.18146125972270966,"83":0.1020566076040268,"84":-0.10830502212047577,"85":-0.21744734048843384,"86":-0.09210179001092911,"87":0.02211465686559677}},"6":{"bias":-0.1596376895904541,"weights":{"0":0.09031088650226593,"1":-0.2500178813934326,"2":-0.04706934839487076,"3":-0.07310132682323456,"4":0.17292998731136322,"5":0.13227152824401855,"6":-0.09331636875867844,"7":0.11303872615098953,"8":-0.15295453369617462,"9":0.0014064753195270896,"10":-0.05090443417429924,"11":-0.0675802156329155,"12":0.11460991948843002,"13":-0.031792838126420975,"14":0.025681380182504654,"15":0.10648010671138763,"16":0.18061645328998566,"17":-0.062110673636198044,"18":0.030960019677877426,"19":-0.0189058780670166,"20":0.16749314963817596,"21":-0.009580627083778381,"22":-0.16401144862174988,"23":-0.3919523060321808,"24":-0.3810514509677887,"25":0.009432883933186531,"26":-0.06921035051345825,"27":0.0899413451552391,"28":-0.1340843290090561,"29":-0.18612951040267944,"30":-0.16732384264469147,"31":0.1651800572872162,"32":-0.04009523615241051,"33":0.026528391987085342,"34":-0.02291790395975113,"35":0.09142900258302689,"36":0.16189444065093994,"37":0.17029963433742523,"38":0.03520346060395241,"39":0.3304547965526581,"40":0.1920279860496521,"41":0.19833165407180786,"42":-0.08643452823162079,"43":-0.10030107200145721,"44":-0.49034568667411804,"45":-0.4718170464038849,"46":-0.5384137034416199,"47":0.13674071431159973,"48":0.061737317591905594,"49":0.02530049718916416,"50":-0.17813853919506073,"51":-0.3916018605232239,"52":-0.3925844728946686,"53":0.08744974434375763,"54":0.06588031351566315,"55":-0.014411812648177147,"56":0.0589965395629406,"57":-0.006050668656826019,"58":0.15199777483940125,"59":0.1841014176607132,"60":-0.02648831345140934,"61":0.2841933071613312,"62":0.29356032609939575,"63":0.2901780903339386,"64":0.20585599541664124,"65":-0.028866734355688095,"66":-0.029081327840685844,"67":-0.16921713948249817,"68":-0.026903264224529266,"69":0.051079098135232925,"70":-0.004517096094787121,"71":-0.03778325393795967,"72":0.0173422209918499,"73":-0.2946012318134308,"74":-0.021131565794348717,"75":0.11374160647392273,"76":0.11823625862598419,"77":-0.07722695171833038,"78":0.1723448485136032,"79":-0.06571128964424133,"80":-0.16397446393966675,"81":-0.0826641321182251,"82":-0.04270157590508461,"83":0.21238741278648376,"84":0.047237277030944824,"85":0.05171634629368782,"86":0.2030608057975769,"87":0.0708518698811531}},"7":{"bias":0.03233613818883896,"weights":{"0":-0.1648629754781723,"1":0.15561716258525848,"2":0.1516610085964203,"3":-0.12924674153327942,"4":0.05384858325123787,"5":0.1474921554327011,"6":-0.05927693471312523,"7":-0.015417532064020634,"8":0.026495277881622314,"9":0.009991293773055077,"10":-0.11465539038181305,"11":-0.15485532581806183,"12":0.02968318946659565,"13":-0.18452443182468414,"14":0.06830698251724243,"15":-0.09337522089481354,"16":0.06714966893196106,"17":0.15311701595783234,"18":0.04808966815471649,"19":-0.020886138081550598,"20":-0.05276995152235031,"21":-0.07983586192131042,"22":0.07069717347621918,"23":0.2387584000825882,"24":0.2599344849586487,"25":-0.042735714465379715,"26":-0.07822765409946442,"27":0.2116331309080124,"28":0.3369477391242981,"29":0.2710127830505371,"30":0.3480987250804901,"31":-0.12845605611801147,"32":0.07429255545139313,"33":0.1557023823261261,"34":-0.20532450079917908,"35":0.02104230411350727,"36":0.01762959361076355,"37":0.14962400496006012,"38":-0.0207075122743845,"39":-0.14355704188346863,"40":-0.31086188554763794,"41":0.047648634761571884,"42":-0.0975819081068039,"43":-0.14027179777622223,"44":0.2712777554988861,"45":0.28127583861351013,"46":-0.0696922093629837,"47":0.043799903243780136,"48":0.16161368787288666,"49":-0.1239798441529274,"50":0.39878809452056885,"51":0.18065685033798218,"52":0.1846337914466858,"53":-0.14053598046302795,"54":-0.11665792763233185,"55":0.029325101524591446,"56":-0.10111642628908157,"57":-0.2016751915216446,"58":-0.07815101742744446,"59":0.18785525858402252,"60":0.1776384562253952,"61":-0.28348976373672485,"62":-0.05172567069530487,"63":-0.06946650892496109,"64":-0.1390247792005539,"65":-0.09542183578014374,"66":0.1687219887971878,"67":-0.14215712249279022,"68":-0.12263096123933792,"69":0.03695576265454292,"70":-0.12600067257881165,"71":-0.17598332464694977,"72":-0.014127972535789013,"73":-0.05643066018819809,"74":0.20324069261550903,"75":-0.08526016771793365,"76":-0.07808032631874084,"77":-0.11011527478694916,"78":0.03918144851922989,"79":0.0529332309961319,"80":-0.08612050116062164,"81":-0.1384485512971878,"82":-0.03179448843002319,"83":-0.15054230391979218,"84":0.12398751080036163,"85":0.04972473159432411,"86":0.18499131500720978,"87":-0.015904879197478294}},"8":{"bias":0.0195564404129982,"weights":{"0":-0.07554265856742859,"1":-0.011639946140348911,"2":0.0512557327747345,"3":0.08699348568916321,"4":0.15362952649593353,"5":-0.16856208443641663,"6":0.17486967146396637,"7":-0.11716260761022568,"8":0.044694364070892334,"9":0.10714224725961685,"10":0.11298280954360962,"11":-0.03896225616335869,"12":0.05028267577290535,"13":-0.07811004668474197,"14":0.1676115095615387,"15":0.1897621750831604,"16":0.06370784342288971,"17":0.014035053551197052,"18":0.14430804550647736,"19":-0.2174706608057022,"20":0.14520405232906342,"21":0.17756864428520203,"22":0.2515720725059509,"23":0.23458823561668396,"24":-0.038339175283908844,"25":-0.0701824352145195,"26":0.16586244106292725,"27":0.05149191990494728,"28":0.20468351244926453,"29":0.06990271806716919,"30":0.10238676518201828,"31":0.058442991226911545,"32":0.13986948132514954,"33":0.00590856559574604,"34":0.06221020966768265,"35":0.24169546365737915,"36":-0.11217018961906433,"37":0.16847559809684753,"38":-0.0995175689458847,"39":-0.3302996754646301,"40":-0.5001683235168457,"41":-0.20833100378513336,"42":-0.1922091543674469,"43":0.056756988167762756,"44":0.04016510769724846,"45":0.25304195284843445,"46":-0.011804702691733837,"47":-0.032800305634737015,"48":-0.02778448909521103,"49":-0.01773187518119812,"50":-0.1084280014038086,"51":-0.13620661199092865,"52":0.0156872421503067,"53":-0.07992301881313324,"54":-0.16402757167816162,"55":0.0012754260096699,"56":0.21424515545368195,"57":0.17009885609149933,"58":0.22873947024345398,"59":-0.07315631210803986,"60":-0.21331045031547546,"61":-0.4990689158439636,"62":-0.37426549196243286,"63":-0.5646202564239502,"64":-0.2853001654148102,"65":0.10477156192064285,"66":0.05135147273540497,"67":0.04418754577636719,"68":0.21287301182746887,"69":-0.058217525482177734,"70":-0.18062126636505127,"71":-0.1076471358537674,"72":-0.17378376424312592,"73":-0.06325345486402512,"74":-0.018288515508174896,"75":-0.10122183710336685,"76":0.16661600768566132,"77":-0.08344575762748718,"78":-0.07446686923503876,"79":0.2352696806192398,"80":-0.050983723253011703,"81":0.16994525492191315,"82":0.031554874032735825,"83":-0.2695229649543762,"84":-0.20355409383773804,"85":-0.19086000323295593,"86":0.09862218052148819,"87":-0.13325627148151398}},"9":{"bias":-0.2500775158405304,"weights":{"0":0.21773825585842133,"1":-0.01662466488778591,"2":0.07858337461948395,"3":0.001739251776598394,"4":-0.17096377909183502,"5":-0.23824594914913177,"6":0.13479673862457275,"7":0.06267383694648743,"8":-0.25554969906806946,"9":0.005907307844609022,"10":0.010110659524798393,"11":0.06048351153731346,"12":0.07000882178544998,"13":-0.05943746864795685,"14":0.08826760947704315,"15":-0.010916611179709435,"16":-0.11645926535129547,"17":-0.20754405856132507,"18":-0.11426516622304916,"19":-0.0782841145992279,"20":-0.15444645285606384,"21":-0.06199066340923309,"22":0.2169991433620453,"23":0.5674343109130859,"24":0.6296846866607666,"25":0.04984159767627716,"26":-0.03380395844578743,"27":-0.23209939897060394,"28":0.12894423305988312,"29":0.17847605049610138,"30":0.0582902617752552,"31":-0.05117221921682358,"32":-0.1705767959356308,"33":-0.13444861769676208,"34":-0.27198684215545654,"35":-0.11735571175813675,"36":-0.28705331683158875,"37":-0.01927541010081768,"38":0.0012897931737825274,"39":0.29122379422187805,"40":0.4216482639312744,"41":0.4895283579826355,"42":-0.09431895613670349,"43":-0.05292242765426636,"44":0.7013059258460999,"45":0.7738484740257263,"46":0.7610747218132019,"47":-0.039100345224142075,"48":-0.08148091286420822,"49":0.08939430862665176,"50":-0.10844989120960236,"51":-0.12950806319713593,"52":0.052200641483068466,"53":0.06040458008646965,"54":-0.06641057133674622,"55":-0.03456496819853783,"56":-0.16464181244373322,"57":-0.20930464565753937,"58":-0.22640816867351532,"59":-0.2955200672149658,"60":-0.12994135916233063,"61":0.5574396252632141,"62":0.3600882589817047,"63":0.5249506831169128,"64":0.029716594144701958,"65":-0.2092403620481491,"66":0.113197922706604,"67":0.22295747697353363,"68":0.3404400646686554,"69":-0.262491375207901,"70":-0.21889494359493256,"71":-0.039011456072330475,"72":-0.0929916724562645,"73":-0.1918029934167862,"74":-0.1600845605134964,"75":-0.2722785472869873,"76":-0.26614630222320557,"77":-0.05240326374769211,"78":-0.16754406690597534,"79":-0.09443025290966034,"80":-0.039943233132362366,"81":-0.09917629510164261,"82":-0.2210990935564041,"83":0.22062896192073822,"84":0.2282329946756363,"85":-0.014562449418008327,"86":-0.1325138658285141,"87":-0.03180970251560211}},"10":{"bias":0.06581607460975647,"weights":{"0":-0.1226191446185112,"1":0.16202208399772644,"2":-0.24179328978061676,"3":-0.26369836926460266,"4":-0.16957487165927887,"5":-0.22046740353107452,"6":-0.0016093651065602899,"7":0.026848936453461647,"8":0.11059701442718506,"9":-0.2501702606678009,"10":-0.0038595993537455797,"11":-0.028334112837910652,"12":-0.3317640423774719,"13":-0.052777260541915894,"14":-0.03692759945988655,"15":0.009006133303046227,"16":0.05607881397008896,"17":-0.19705824553966522,"18":0.11846219003200531,"19":0.0074586099945008755,"20":-0.21261772513389587,"21":-0.20411747694015503,"22":0.38030850887298584,"23":0.14392335712909698,"24":0.44511374831199646,"25":-0.005831039976328611,"26":-0.020160777494311333,"27":0.04386740177869797,"28":0.42435935139656067,"29":0.5636548399925232,"30":0.22750802338123322,"31":-0.07260553538799286,"32":-0.035920191556215286,"33":-0.19173847138881683,"34":-0.3613675832748413,"35":-0.20341016352176666,"36":-0.0368933230638504,"37":0.06646300107240677,"38":-0.04391517490148544,"39":0.2539554834365845,"40":0.32609522342681885,"41":0.2400764524936676,"42":-0.03173510357737541,"43":-0.06728290021419525,"44":0.23048633337020874,"45":0.5732524991035461,"46":0.4863121211528778,"47":-0.13635265827178955,"48":-0.24796339869499207,"49":0.04808219149708748,"50":0.2926618158817291,"51":0.2811189293861389,"52":0.2093566209077835,"53":-0.21834567189216614,"54":0.07683388888835907,"55":-0.26967653632164,"56":-0.14674444496631622,"57":-0.2544408142566681,"58":-0.3585565686225891,"59":-0.245435893535614,"60":-0.19168472290039062,"61":0.0827169194817543,"62":0.4464194178581238,"63":0.056483447551727295,"64":0.14273566007614136,"65":-0.03489777445793152,"66":-0.18282537162303925,"67":0.3566870391368866,"68":0.06967582553625107,"69":-0.17347390949726105,"70":-0.2522374987602234,"71":-0.11656669527292252,"72":0.22408278286457062,"73":0.32260432839393616,"74":0.18094708025455475,"75":0.01937108300626278,"76":-0.17918704450130463,"77":-0.013895325362682343,"78":-0.036740127950906754,"79":0.03483456000685692,"80":-0.12401147186756134,"81":-0.023180313408374786,"82":-0.1273682862520218,"83":0.08679023385047913,"84":-0.04095565900206566,"85":-0.05346013233065605,"86":0.10543207824230194,"87":-0.05784124881029129}},"11":{"bias":-0.21732911467552185,"weights":{"0":0.15672509372234344,"1":-0.03133498504757881,"2":-0.11240939795970917,"3":0.13833865523338318,"4":-0.20723646879196167,"5":-0.13040341436862946,"6":0.0757886990904808,"7":0.061136096715927124,"8":0.15988102555274963,"9":-0.0314004011452198,"10":0.1358661949634552,"11":-0.13492847979068756,"12":0.31986919045448303,"13":0.28933656215667725,"14":-0.10819890350103378,"15":-0.1651347130537033,"16":0.10856829583644867,"17":-0.11445175111293793,"18":-0.2602703273296356,"19":-0.10894054919481277,"20":-0.10754146426916122,"21":0.10496348142623901,"22":-0.08857238292694092,"23":0.18178696930408478,"24":0.11666302382946014,"25":-0.13706336915493011,"26":-0.22896721959114075,"27":0.1269051432609558,"28":0.34161025285720825,"29":0.07919196039438248,"30":0.34441202878952026,"31":0.05960643291473389,"32":0.1243247389793396,"33":0.22734041512012482,"34":0.37660616636276245,"35":0.4423708915710449,"36":-0.07473760843276978,"37":-0.11233989894390106,"38":0.04040959104895592,"39":-0.23009958863258362,"40":-0.4748958349227905,"41":-0.3695877492427826,"42":0.06416919827461243,"43":-0.015619341284036636,"44":0.22050851583480835,"45":0.015718622133135796,"46":-0.014185214415192604,"47":0.15212462842464447,"48":-0.22792471945285797,"49":-0.09442231804132462,"50":0.1908116638660431,"51":0.22098320722579956,"52":0.394743412733078,"53":-0.07054607570171356,"54":-0.07952415198087692,"55":0.3205723762512207,"56":0.47363466024398804,"57":0.3024376332759857,"58":0.08337364345788956,"59":-0.11432620137929916,"60":0.12956629693508148,"61":-0.32643792033195496,"62":-0.4781593084335327,"63":-0.3778919279575348,"64":-0.12770064175128937,"65":-0.17773647606372833,"66":-0.2044455111026764,"67":0.055491603910923004,"68":-0.025943227112293243,"69":-0.11179176717996597,"70":0.1356213539838791,"71":-0.23173001408576965,"72":0.2592180371284485,"73":0.20949849486351013,"74":0.07876726239919662,"75":-0.015820162370800972,"76":0.13873028755187988,"77":0.09816562384366989,"78":0.03269534930586815,"79":0.21679691970348358,"80":-0.04697204381227493,"81":-0.11813172698020935,"82":-0.15799124538898468,"83":0.053741488605737686,"84":-0.3224163353443146,"85":-0.2538869082927704,"86":-0.08819716423749924,"87":0.07028951495885849}},"12":{"bias":-0.05679335445165634,"weights":{"0":-0.15392230451107025,"1":-0.02605574205517769,"2":0.1170625314116478,"3":0.00837902631610632,"4":0.10249383747577667,"5":0.09988802671432495,"6":0.022235505282878876,"7":0.059547822922468185,"8":0.039751891046762466,"9":0.19340044260025024,"10":0.017767399549484253,"11":-0.06523296236991882,"12":0.05059744790196419,"13":-0.2711152136325836,"14":0.1971234530210495,"15":-0.08133198320865631,"16":0.008450665511190891,"17":0.12413477897644043,"18":0.28057342767715454,"19":-0.13066023588180542,"20":0.07786516845226288,"21":0.015156388282775879,"22":-0.3287762999534607,"23":-0.3345458209514618,"24":-0.14219063520431519,"25":-0.14885739982128143,"26":-0.13805896043777466,"27":-0.0632016658782959,"28":-0.09615779668092728,"29":0.011445836164057255,"30":0.2163335531949997,"31":0.0598737932741642,"32":-0.03187423199415207,"33":-0.06743980199098587,"34":-0.18972593545913696,"35":-0.21739043295383453,"36":-0.007130596786737442,"37":0.13172374665737152,"38":-0.028961043804883957,"39":-0.009076254442334175,"40":0.11004438251256943,"41":0.005766006652265787,"42":-0.0826488807797432,"43":0.24310234189033508,"44":-0.3912688195705414,"45":-0.34142816066741943,"46":-0.26143011450767517,"47":0.001502998173236847,"48":-0.0642932653427124,"49":0.03288968652486801,"50":0.017339710146188736,"51":0.10794905573129654,"52":0.08887697011232376,"53":-0.09304767847061157,"54":0.0770624503493309,"55":-0.19029054045677185,"56":-0.2971617877483368,"57":-0.45285770297050476,"58":-0.3376937210559845,"59":0.1698480099439621,"60":0.13011561334133148,"61":0.09315627068281174,"62":0.08713499456644058,"63":-0.011865928769111633,"64":0.1638684868812561,"65":-0.13065987825393677,"66":-0.12551935017108917,"67":-0.11814054101705551,"68":-0.05945054814219475,"69":0.16816140711307526,"70":-0.12584516406059265,"71":0.2513898015022278,"72":0.17912624776363373,"73":0.20520281791687012,"74":-0.02142951264977455,"75":0.2516428232192993,"76":0.06936392933130264,"77":-0.11343766748905182,"78":-0.050164591521024704,"79":-0.027153966948390007,"80":0.16781088709831238,"81":-0.0625893771648407,"82":-0.13728967308998108,"83":0.14062093198299408,"84":0.14128366112709045,"85":0.12139646708965302,"86":0.022286172956228256,"87":0.2609771490097046}},"13":{"bias":0.1568966656923294,"weights":{"0":0.00387368630617857,"1":-0.08776441216468811,"2":-0.03819013014435768,"3":-0.13550972938537598,"4":0.06972428411245346,"5":-0.17964497208595276,"6":-0.17507971823215485,"7":0.0007405229262076318,"8":0.0450812503695488,"9":0.019497981294989586,"10":-0.17369845509529114,"11":0.16034166514873505,"12":0.013237661682069302,"13":-0.1477513462305069,"14":-0.20255109667778015,"15":-0.19342991709709167,"16":0.03821144625544548,"17":0.13643822073936462,"18":0.1080051064491272,"19":0.08608070760965347,"20":0.13639962673187256,"21":-0.09864402562379837,"22":0.07352417707443237,"23":0.2702522873878479,"24":0.3094559609889984,"25":0.023255227133631706,"26":-0.22721683979034424,"27":-0.05819431692361832,"28":-0.10583142191171646,"29":0.12702153623104095,"30":-0.20739518105983734,"31":0.08172886818647385,"32":-0.17022359371185303,"33":0.13369446992874146,"34":-0.02341071516275406,"35":-0.19305837154388428,"36":0.13290396332740784,"37":0.1502196490764618,"38":0.03151649981737137,"39":0.06301629543304443,"40":0.23953935503959656,"41":0.27612465620040894,"42":0.09816791862249374,"43":-0.2235715687274933,"44":0.39707452058792114,"45":0.6097044348716736,"46":0.5011908411979675,"47":0.14082613587379456,"48":0.05895363539457321,"49":-0.16788195073604584,"50":0.02721724472939968,"51":0.07678499072790146,"52":-0.09422086924314499,"53":-0.01806224137544632,"54":-0.10608520358800888,"55":-0.17992331087589264,"56":-0.07894807308912277,"57":-0.1725783795118332,"58":-0.19440767168998718,"59":0.11795023828744888,"60":-0.20220288634300232,"61":-0.023003825917840004,"62":0.270431250333786,"63":0.3025064468383789,"64":0.15138575434684753,"65":0.03345729783177376,"66":0.007131367921829224,"67":0.2656041383743286,"68":0.14493437111377716,"69":-0.17566737532615662,"70":0.031293898820877075,"71":-0.21951714158058167,"72":-0.224089115858078,"73":0.1246941015124321,"74":-0.1345147043466568,"75":0.0727185532450676,"76":-0.017496997490525246,"77":0.14026939868927002,"78":-0.011340430937707424,"79":0.0011454324703663588,"80":-0.09845732152462006,"81":-0.05543990805745125,"82":-0.12082438915967941,"83":-0.04801458120346069,"84":0.009850679896771908,"85":0.10716653615236282,"86":-0.13869068026542664,"87":-0.19140976667404175}},"14":{"bias":0.1847393810749054,"weights":{"0":-0.11169635504484177,"1":-0.15858326852321625,"2":-0.07696770131587982,"3":0.18315283954143524,"4":0.22122587263584137,"5":-0.11155139654874802,"6":-0.08420438319444656,"7":-0.2115013748407364,"8":-0.20640914142131805,"9":0.10029707103967667,"10":-0.11260084807872772,"11":-0.00025051142438314855,"12":0.28189578652381897,"13":0.05739760026335716,"14":-0.051387399435043335,"15":0.029956050217151642,"16":0.13080783188343048,"17":0.16276125609874725,"18":0.032601624727249146,"19":0.0750407725572586,"20":0.15355995297431946,"21":0.07573869824409485,"22":-0.30278152227401733,"23":-0.6578148603439331,"24":-0.4375367760658264,"25":-0.05155380815267563,"26":-0.05067622289061546,"27":0.12133592367172241,"28":-0.3034478724002838,"29":-0.2668288052082062,"30":-0.17282067239284515,"31":0.06694401055574417,"32":-0.023418445140123367,"33":0.2293235808610916,"34":0.12982948124408722,"35":0.265550822019577,"36":0.16959959268569946,"37":0.06826119869947433,"38":0.19566379487514496,"39":0.04792340472340584,"40":0.02765144407749176,"41":0.07981015741825104,"42":-0.1539127230644226,"43":-0.02853587083518505,"44":-0.5942528247833252,"45":-0.4685363173484802,"46":-0.4942208528518677,"47":0.053412456065416336,"48":0.1534394770860672,"49":0.14863929152488708,"50":-0.09433604031801224,"51":-0.2561156749725342,"52":-0.27179449796676636,"53":0.21438823640346527,"54":0.10933802276849747,"55":0.26103755831718445,"56":0.28521591424942017,"57":0.3051339387893677,"58":0.0929945632815361,"59":0.04240785911679268,"60":0.13673469424247742,"61":0.04219706356525421,"62":-0.0196272823959589,"63":-0.11286511272192001,"64":-0.015688899904489517,"65":0.05327356234192848,"66":-0.12606793642044067,"67":-0.32589825987815857,"68":-0.22129157185554504,"69":-0.03625432029366493,"70":-0.13199101388454437,"71":0.14445315301418304,"72":-0.034478578716516495,"73":-0.15134526789188385,"74":0.0853898748755455,"75":-0.026084721088409424,"76":-0.0956602469086647,"77":0.14699554443359375,"78":0.11814320087432861,"79":-0.000144335106597282,"80":0.07244455069303513,"81":-0.08039476722478867,"82":0.22241298854351044,"83":0.11523908376693726,"84":-0.08741524070501328,"85":-0.12510499358177185,"86":0.18991829454898834,"87":0.10998337715864182}},"15":{"bias":-0.18038202822208405,"weights":{"0":0.09067025780677795,"1":0.07877057045698166,"2":0.013572831638157368,"3":0.06718306988477707,"4":0.14952895045280457,"5":-0.04870894178748131,"6":0.05870695412158966,"7":-0.07299870997667313,"8":-0.20024609565734863,"9":0.03777119144797325,"10":-0.015396666713058949,"11":0.11621450632810593,"12":0.0995209664106369,"13":0.13801777362823486,"14":-0.11657493561506271,"15":-0.17957258224487305,"16":-0.06805381178855896,"17":-0.07848891615867615,"18":0.05112529546022415,"19":0.1836177408695221,"20":-0.16204117238521576,"21":0.028791261836886406,"22":-0.17756511270999908,"23":-0.13329000771045685,"24":-0.02351825125515461,"25":0.08862362056970596,"26":-0.15801545977592468,"27":-0.01152691338211298,"28":-0.3517739772796631,"29":-0.02227535843849182,"30":-0.047498367726802826,"31":-0.12514549493789673,"32":-0.001046034856699407,"33":-0.007017649710178375,"34":0.47561463713645935,"35":0.5072563290596008,"36":0.22830358147621155,"37":-0.1281047761440277,"38":0.004557976499199867,"39":-0.017661474645137787,"40":0.2125960737466812,"41":0.34988462924957275,"42":0.041838619858026505,"43":-0.10394316166639328,"44":0.034837063401937485,"45":-0.10612734407186508,"46":-0.2525908946990967,"47":-0.04718597233295441,"48":-0.06402957439422607,"49":-0.034127142280340195,"50":-0.2814193367958069,"51":-0.04326098412275314,"52":-0.2481619119644165,"53":-0.23909609019756317,"54":-0.16167135536670685,"55":0.23434635996818542,"56":0.34988972544670105,"57":0.16396676003932953,"58":0.23782050609588623,"59":0.05773227661848068,"60":-0.22407791018486023,"61":0.42825475335121155,"62":0.3707191050052643,"63":0.4527384638786316,"64":0.06385031342506409,"65":-0.22092951834201813,"66":-0.18930818140506744,"67":0.00034777764813043177,"68":-0.21103009581565857,"69":-0.06953752040863037,"70":0.07382950931787491,"71":-0.22122366726398468,"72":0.0446852445602417,"73":-0.07007241249084473,"74":0.11749209463596344,"75":-0.1445954442024231,"76":-0.12626215815544128,"77":0.13012009859085083,"78":0.1702086180448532,"79":0.03261547163128853,"80":0.16169199347496033,"81":-0.03150143474340439,"82":-0.08734721690416336,"83":0.21291717886924744,"84":-0.032261379063129425,"85":0.23002217710018158,"86":0.014056931249797344,"87":0.10376720875501633}},"16":{"bias":-0.028793523088097572,"weights":{"0":0.17180415987968445,"1":0.18805371224880219,"2":0.10607509315013885,"3":0.21810048818588257,"4":-0.0951475128531456,"5":-0.029669644311070442,"6":0.002242746064439416,"7":-0.11683178693056107,"8":-0.03949124738574028,"9":-0.1100539043545723,"10":0.2518327236175537,"11":-0.12546178698539734,"12":0.11447268724441528,"13":-0.125043585896492,"14":-0.027467573061585426,"15":-0.07545232027769089,"16":0.2191830277442932,"17":0.1574951708316803,"18":-0.012231043539941311,"19":-0.10873056203126907,"20":0.2483735978603363,"21":0.22629982233047485,"22":-0.2201111763715744,"23":-0.30969536304473877,"24":-0.27574795484542847,"25":0.0491613931953907,"26":-0.07997225970029831,"27":0.18905694782733917,"28":0.2842128872871399,"29":0.0813995748758316,"30":0.0799577385187149,"31":0.09351914376020432,"32":0.10447066277265549,"33":0.02918139472603798,"34":0.017494242638349533,"35":0.05716579779982567,"36":0.03338437154889107,"37":0.2576603591442108,"38":-0.10777287930250168,"39":-0.1307622492313385,"40":-0.49999725818634033,"41":-0.4572553336620331,"42":-0.11948426812887192,"43":0.022504832595586777,"44":-0.3169480562210083,"45":-0.009952438995242119,"46":-0.10513409227132797,"47":0.03543621301651001,"48":0.151851624250412,"49":0.2655370235443115,"50":0.16896533966064453,"51":0.3216805160045624,"52":0.013724048621952534,"53":0.25710487365722656,"54":0.06359080970287323,"55":0.12171657383441925,"56":-0.006786194164305925,"57":0.12326747924089432,"58":0.10993564128875732,"59":-0.0059324209578335285,"60":-0.031212355941534042,"61":-0.6057887673377991,"62":-0.6223089694976807,"63":-0.36571747064590454,"64":0.0402444489300251,"65":-0.1156964972615242,"66":0.07292522490024567,"67":-0.10772381722927094,"68":-0.2084178924560547,"69":-0.11568504571914673,"70":0.034837450832128525,"71":0.004969090223312378,"72":0.039589352905750275,"73":0.1592971682548523,"74":-0.08080154657363892,"75":0.0771116390824318,"76":-0.0675177201628685,"77":0.23096072673797607,"78":-0.128620907664299,"79":0.1600661426782608,"80":-0.1379402130842209,"81":-0.09656202048063278,"82":0.04677847400307655,"83":-0.20475934445858002,"84":-0.20328916609287262,"85":-0.28436756134033203,"86":0.11812260001897812,"87":-0.11017210781574249}},"17":{"bias":0.1333177536725998,"weights":{"0":0.021022573113441467,"1":-0.151410773396492,"2":-0.06908553838729858,"3":-0.09765493869781494,"4":0.05536988005042076,"5":-0.0055971406400203705,"6":0.2590920627117157,"7":0.30500856041908264,"8":0.2082614302635193,"9":0.020309260115027428,"10":-0.07358130067586899,"11":-0.12370547652244568,"12":-0.2286163717508316,"13":-0.3018089830875397,"14":-0.09683427959680557,"15":-0.06668359786272049,"16":0.04200020805001259,"17":0.067144013941288,"18":0.01584583893418312,"19":0.24121037125587463,"20":0.21085791289806366,"21":0.00839438196271658,"22":-0.5099841952323914,"23":-0.7366101145744324,"24":-0.30633994936943054,"25":0.08127053827047348,"26":0.22660811245441437,"27":0.25169456005096436,"28":0.512424111366272,"29":0.5715962052345276,"30":0.18245603144168854,"31":0.14407028257846832,"32":0.037021078169345856,"33":-0.2768377661705017,"34":-0.802912175655365,"35":-0.47873690724372864,"36":-0.14095978438854218,"37":0.187117800116539,"38":-0.03273031488060951,"39":0.17694297432899475,"40":0.07515894621610641,"41":-0.022417904809117317,"42":0.07955124974250793,"43":0.2651151120662689,"44":-0.5397856831550598,"45":-0.963254451751709,"46":-0.5336753129959106,"47":0.08058459311723709,"48":0.21969710290431976,"49":0.023975497111678123,"50":0.4905342757701874,"51":0.4335280954837799,"52":0.24317193031311035,"53":0.09029906243085861,"54":0.0855143740773201,"55":-0.4573543965816498,"56":-0.7032501697540283,"57":-0.8145513534545898,"58":-0.6230965852737427,"59":0.21465884149074554,"60":0.07221104949712753,"61":0.22745132446289062,"62":0.21538086235523224,"63":0.10047322511672974,"64":0.2288520336151123,"65":-0.06672721356153488,"66":-0.07596935331821442,"67":-0.47351357340812683,"68":-0.36552461981773376,"69":0.038301754742860794,"70":0.2618859112262726,"71":0.19674162566661835,"72":0.08537208288908005,"73":0.2725980877876282,"74":0.20904457569122314,"75":0.13461916148662567,"76":0.04383934661746025,"77":0.2782174050807953,"78":-0.36465534567832947,"79":-0.18936973810195923,"80":-0.15372605621814728,"81":0.2251102477312088,"82":0.11835279315710068,"83":-0.056284256279468536,"84":0.25544852018356323,"85":-0.05877295881509781,"86":0.02746785804629326,"87":0.008295400999486446}},"18":{"bias":0.022818149998784065,"weights":{"0":-0.13146157562732697,"1":0.19527602195739746,"2":0.0747634544968605,"3":0.20127525925636292,"4":-0.006169851869344711,"5":-0.013826479203999043,"6":-0.23147591948509216,"7":-0.09492961317300797,"8":0.054719228297472,"9":0.13104556500911713,"10":0.11963881552219391,"11":0.234134703874588,"12":0.018052944913506508,"13":-0.17255304753780365,"14":0.0760735273361206,"15":0.12383316457271576,"16":0.1493510901927948,"17":0.19512926042079926,"18":0.2680666446685791,"19":0.007339781150221825,"20":0.08487623184919357,"21":-0.06686367094516754,"22":0.07551112771034241,"23":-0.1492893397808075,"24":-0.01017016265541315,"25":0.01797337457537651,"26":0.14841675758361816,"27":0.02525031939148903,"28":-0.7916262149810791,"29":-0.6946946382522583,"30":-0.4845910370349884,"31":0.13522350788116455,"32":0.1539299637079239,"33":-0.0846439003944397,"34":-0.19248135387897491,"35":0.08839461207389832,"36":0.13011513650417328,"37":-0.08718188107013702,"38":-0.010651219636201859,"39":0.03220503032207489,"40":-0.17187699675559998,"41":0.1754913330078125,"42":0.17802836000919342,"43":0.16046424210071564,"44":-0.031733445823192596,"45":-0.08330473303794861,"46":0.12743549048900604,"47":0.20271235704421997,"48":-0.04379734396934509,"49":-0.03392031043767929,"50":-0.8416406512260437,"51":-1.002436637878418,"52":-0.5892984867095947,"53":0.05634985864162445,"54":0.11033707857131958,"55":-0.1733449101448059,"56":0.09185301512479782,"57":0.08311620354652405,"58":-0.16653196513652802,"59":0.17197327315807343,"60":0.2590578496456146,"61":-0.12945596873760223,"62":-0.20405133068561554,"63":0.08245432376861572,"64":-0.10200699418783188,"65":0.2559853196144104,"66":0.07461407035589218,"67":-0.007021744269877672,"68":-0.06568937003612518,"69":0.2183782458305359,"70":0.18583199381828308,"71":0.19121535122394562,"72":-0.2711098790168762,"73":-0.48071131110191345,"74":-0.1855316013097763,"75":-0.010712294839322567,"76":-0.10903946310281754,"77":0.1950312852859497,"78":-0.19870534539222717,"79":0.17596140503883362,"80":-0.06610502302646637,"81":0.018924420699477196,"82":0.13855040073394775,"83":-0.12269946932792664,"84":0.10935746133327484,"85":0.09505846351385117,"86":0.23186226189136505,"87":0.09746862947940826}},"19":{"bias":0.14391900599002838,"weights":{"0":0.1614733189344406,"1":-0.0814259722828865,"2":-0.020761264488101006,"3":-0.1010143980383873,"4":0.19098682701587677,"5":0.1854592114686966,"6":-0.1472737044095993,"7":-0.02106575481593609,"8":-0.27001693844795227,"9":0.035300999879837036,"10":-0.07769829779863358,"11":0.24218030273914337,"12":0.2446289360523224,"13":0.07384372502565384,"14":0.12590306997299194,"15":0.13070280849933624,"16":0.036380499601364136,"17":-0.109359510242939,"18":-0.11782045662403107,"19":0.23195423185825348,"20":0.03809713199734688,"21":0.22808407247066498,"22":0.15721118450164795,"23":-0.10110750049352646,"24":0.10248903185129166,"25":0.14656342566013336,"26":0.16574953496456146,"27":-0.2682279646396637,"28":-0.7673318386077881,"29":-0.7852240800857544,"30":-0.56287682056427,"31":-0.14541937410831451,"32":0.026934228837490082,"33":0.06499992311000824,"34":-0.035853344947099686,"35":0.02164897322654724,"36":0.11151234805583954,"37":0.15105576813220978,"38":0.21487940847873688,"39":-0.004340191837400198,"40":0.026854155585169792,"41":0.1723037213087082,"42":0.03225329518318176,"43":0.1274041384458542,"44":-0.025538600981235504,"45":-0.050866562873125076,"46":-0.16705188155174255,"47":0.22143827378749847,"48":0.19427724182605743,"49":-0.05399126186966896,"50":-0.7840235829353333,"51":-0.8681418299674988,"52":-0.7540562748908997,"53":0.0970626175403595,"54":0.13534969091415405,"55":0.10328973829746246,"56":0.005814646370708942,"57":0.04494072496891022,"58":0.0439508892595768,"59":0.05061528459191322,"60":0.16493205726146698,"61":0.1692534238100052,"62":0.25998786091804504,"63":-0.03008086234331131,"64":-0.05744581297039986,"65":0.02793721668422222,"66":-0.07481113076210022,"67":0.044491518288850784,"68":-0.165145605802536,"69":0.12132053822278976,"70":-0.12907256186008453,"71":-0.12029995024204254,"72":-0.2911897897720337,"73":-0.45966753363609314,"74":-0.07168795168399811,"75":-0.05777230113744736,"76":-0.05653594434261322,"77":0.10874952375888824,"78":0.07231321185827255,"79":0.03461334481835365,"80":-0.1089090034365654,"81":-0.10549268871545792,"82":0.05525209382176399,"83":-0.06594647467136383,"84":0.0806279256939888,"85":0.1545029878616333,"86":0.15967552363872528,"87":0.2237561196088791}},"20":{"bias":0.13666144013404846,"weights":{"0":0.022951124235987663,"1":-0.18822899460792542,"2":0.08235756307840347,"3":-0.048627518117427826,"4":0.03797350823879242,"5":0.043390437960624695,"6":-0.12493777275085449,"7":-0.07338124513626099,"8":-0.05642395094037056,"9":-0.16125735640525818,"10":-0.05448778718709946,"11":0.08231444656848907,"12":0.17347510159015656,"13":-0.1415155678987503,"14":-0.12238489091396332,"15":-0.10919467359781265,"16":-0.061656080186367035,"17":0.037219882011413574,"18":-0.15158377587795258,"19":-0.043233223259449005,"20":-0.048805031925439835,"21":0.03691910207271576,"22":-0.47928884625434875,"23":-0.5737453103065491,"24":-0.5084976553916931,"25":-0.022896675392985344,"26":0.017416760325431824,"27":0.17498110234737396,"28":0.246211439371109,"29":0.1153797060251236,"30":-0.10769426822662354,"31":-0.07215141505002975,"32":0.1915920078754425,"33":-0.0637524425983429,"34":-0.03543940186500549,"35":0.16792985796928406,"36":0.2149207592010498,"37":0.13060735166072845,"38":0.16518214344978333,"39":0.24842846393585205,"40":0.23570841550827026,"41":0.17254461348056793,"42":0.2146461308002472,"43":0.12333419919013977,"44":-0.606421947479248,"45":-0.8681540489196777,"46":-0.7064887285232544,"47":0.004601902794092894,"48":-0.023864077404141426,"49":0.03883492201566696,"50":-0.046452999114990234,"51":0.1086730808019638,"52":-0.05353105440735817,"53":0.07572963833808899,"54":0.16286593675613403,"55":0.03523365780711174,"56":0.2318425476551056,"57":0.06944811344146729,"58":-0.007963603362441063,"59":-0.027768874540925026,"60":0.1465424746274948,"61":0.2712290585041046,"62":0.11642766743898392,"63":0.16747239232063293,"64":0.03973305597901344,"65":-0.18203267455101013,"66":-0.1831819713115692,"67":-0.36419981718063354,"68":-0.09175804257392883,"69":0.013900344260036945,"70":0.16871720552444458,"71":-0.04566936939954758,"72":0.08180920034646988,"73":0.017758991569280624,"74":-0.03250624239444733,"75":-0.0365518182516098,"76":0.036568284034729004,"77":-0.0579538494348526,"78":0.020831884816288948,"79":-0.08657655119895935,"80":-0.08477610349655151,"81":-0.021834619343280792,"82":0.1259980946779251,"83":-0.09706538915634155,"84":0.19326813519001007,"85":0.1396046280860901,"86":-0.08151017129421234,"87":0.10318666696548462}},"21":{"bias":-0.11469771713018417,"weights":{"0":-0.13965049386024475,"1":0.0051965718157589436,"2":0.030558984726667404,"3":-0.12334014475345612,"4":-0.06768619269132614,"5":0.12991446256637573,"6":0.08286366611719131,"7":0.0765143632888794,"8":0.10962492972612381,"9":0.15407803654670715,"10":0.0681518092751503,"11":0.10829238593578339,"12":0.06877078115940094,"13":-0.08648458868265152,"14":0.21303965151309967,"15":-0.13117505609989166,"16":-0.05645793303847313,"17":0.22047029435634613,"18":0.12368312478065491,"19":0.0438443087041378,"20":0.2118811309337616,"21":0.010686664842069149,"22":-0.07239700108766556,"23":-0.35287240147590637,"24":-0.3983043432235718,"25":0.026052389293909073,"26":0.028379755094647408,"27":-0.1396348774433136,"28":0.07089345902204514,"29":0.03310590982437134,"30":0.096083864569664,"31":-0.07999017834663391,"32":-0.06626192480325699,"33":0.04521802067756653,"34":-0.09871797263622284,"35":-0.15494585037231445,"36":0.10004322230815887,"37":-0.14757971465587616,"38":0.07748626172542572,"39":0.2058798372745514,"40":0.3574286699295044,"41":0.1817447692155838,"42":-0.06723259389400482,"43":0.10126910358667374,"44":-0.5400581359863281,"45":-0.45097336173057556,"46":-0.5513284802436829,"47":0.014341537840664387,"48":0.13458287715911865,"49":-0.054768651723861694,"50":-0.32908499240875244,"51":-0.17234311997890472,"52":-0.13372963666915894,"53":0.07332757115364075,"54":0.028863312676548958,"55":0.08770741522312164,"56":0.00248446362093091,"57":-0.2261052429676056,"58":-0.12586838006973267,"59":0.20856694877147675,"60":-0.05056624114513397,"61":0.19047829508781433,"62":0.38504594564437866,"63":0.036417391151189804,"64":-0.07160874456167221,"65":0.10227861255407333,"66":-0.11809342354536057,"67":-0.3281390070915222,"68":-0.11021900922060013,"69":-0.13595734536647797,"70":0.008217721246182919,"71":0.191165953874588,"72":0.06572366505861282,"73":-0.14290779829025269,"74":-0.0965883806347847,"75":-0.1462591141462326,"76":0.11033200472593307,"77":0.11166132241487503,"78":0.09338551014661789,"79":0.09488081187009811,"80":0.00763225881382823,"81":0.24297484755516052,"82":-0.0778673067688942,"83":-0.056009188294410706,"84":0.19286659359931946,"85":-0.004443822894245386,"86":-0.1233389675617218,"87":0.004241204354912043}},"22":{"bias":0.15369373559951782,"weights":{"0":-0.023714572191238403,"1":-0.05595692992210388,"2":-0.04456654563546181,"3":-0.0188215970993042,"4":-0.07541193068027496,"5":-0.19583925604820251,"6":-0.11300738155841827,"7":-0.05744551122188568,"8":0.20873716473579407,"9":0.054660920053720474,"10":-0.1078595519065857,"11":-0.08985947072505951,"12":0.24740222096443176,"13":0.0017595964018255472,"14":-0.12591539323329926,"15":0.07112162560224533,"16":0.05906316265463829,"17":-0.16435986757278442,"18":-0.006336326245218515,"19":-0.011711855418980122,"20":-0.08816610276699066,"21":0.06632997840642929,"22":-0.10543951392173767,"23":-0.13801582157611847,"24":0.1454027146100998,"25":-0.11780808866024017,"26":0.011229158379137516,"27":-0.13346830010414124,"28":-0.067551389336586,"29":0.18151575326919556,"30":-0.11485492438077927,"31":0.08674284815788269,"32":-0.04058132693171501,"33":0.13777467608451843,"34":0.4747815430164337,"35":0.1672641932964325,"36":0.28346389532089233,"37":0.11379586905241013,"38":0.12656167149543762,"39":0.022018717601895332,"40":-0.3370317816734314,"41":-0.09956825524568558,"42":-0.21713177859783173,"43":0.0010753292590379715,"44":-0.15768809616565704,"45":-0.08636771887540817,"46":-0.028369911015033722,"47":0.058097247034311295,"48":-0.1262003630399704,"49":-0.0760279968380928,"50":0.14802919328212738,"51":0.2716432511806488,"52":0.1034562736749649,"53":0.058297354727983475,"54":-0.06246362626552582,"55":0.26447129249572754,"56":0.35987794399261475,"57":0.3475351333618164,"58":0.258611261844635,"59":0.13115368783473969,"60":-0.15166603028774261,"61":-0.30928269028663635,"62":-0.05964082479476929,"63":-0.05991532653570175,"64":-0.17440100014209747,"65":0.04352087900042534,"66":0.1293792426586151,"67":-0.1335861086845398,"68":0.1363918036222458,"69":0.14918933808803558,"70":-0.07347410172224045,"71":-0.06334803253412247,"72":-0.01045333780348301,"73":0.14781461656093597,"74":0.07884172350168228,"75":0.1526680588722229,"76":-0.07575774192810059,"77":0.12852400541305542,"78":0.17552165687084198,"79":0.19713656604290009,"80":-0.034790195524692535,"81":-0.04848611727356911,"82":0.014875730499625206,"83":-0.03837423399090767,"84":-0.07347117364406586,"85":-0.16967105865478516,"86":-0.1648551970720291,"87":-0.057415854185819626}},"23":{"bias":-0.09973388910293579,"weights":{"0":-0.08005920052528381,"1":-0.19210410118103027,"2":-0.034831903874874115,"3":0.11481127887964249,"4":-0.07437928020954132,"5":0.05257568135857582,"6":-0.08940461277961731,"7":0.14329960942268372,"8":-0.11166784912347794,"9":0.09847675263881683,"10":0.03937497362494469,"11":-0.08247095346450806,"12":0.04034232348203659,"13":-0.19971436262130737,"14":0.11674685776233673,"15":0.05847853049635887,"16":-0.06594589352607727,"17":0.12677209079265594,"18":-0.10207846015691757,"19":-0.20050457119941711,"20":0.14865659177303314,"21":-0.008568719029426575,"22":0.16395647823810577,"23":0.035027869045734406,"24":-0.20192407071590424,"25":-0.08037643879652023,"26":-0.12704779207706451,"27":0.1680251657962799,"28":-0.1488737314939499,"29":-0.11682593822479248,"30":-0.16579703986644745,"31":-0.10718747973442078,"32":-0.14641466736793518,"33":0.02079169452190399,"34":0.014938747510313988,"35":0.1663922518491745,"36":-0.03424818813800812,"37":-0.14487147331237793,"38":-0.0350862517952919,"39":0.000017875052435556427,"40":-0.07098787277936935,"41":-0.004008921794593334,"42":0.11881828308105469,"43":0.155989408493042,"44":-0.03876463696360588,"45":0.03531944751739502,"46":-0.10907737910747528,"47":0.08984381705522537,"48":0.021918999031186104,"49":-0.16038793325424194,"50":-0.1480410397052765,"51":-0.05783136188983917,"52":-0.03668858855962753,"53":0.16531682014465332,"54":-0.0102615375071764,"55":0.0671149343252182,"56":0.03869025409221649,"57":-0.16299234330654144,"58":-0.0408133789896965,"59":-0.06043019890785217,"60":-0.17188219726085663,"61":-0.18462930619716644,"62":0.12311924993991852,"63":0.07201407104730606,"64":0.12945622205734253,"65":-0.06752138584852219,"66":0.1299489587545395,"67":-0.009601145051419735,"68":-0.11967537552118301,"69":-0.031512148678302765,"70":-0.01010017842054367,"71":0.06652387231588364,"72":0.08453545719385147,"73":0.03866882622241974,"74":-0.03867458924651146,"75":0.05767646059393883,"76":-0.020208707079291344,"77":-0.11501728743314743,"78":-0.043525755405426025,"79":-0.11058541387319565,"80":-0.11990465968847275,"81":-0.19037586450576782,"82":0.1244349330663681,"83":0.027228249236941338,"84":0.009920543059706688,"85":-0.0014922526897862554,"86":0.06813635677099228,"87":-0.032409243285655975}},"24":{"bias":-0.03444599732756615,"weights":{"0":-0.019968364387750626,"1":0.04435066133737564,"2":-0.07155002653598785,"3":0.017547156661748886,"4":0.18682058155536652,"5":0.20078034698963165,"6":0.15782876312732697,"7":0.1877538412809372,"8":0.22457709908485413,"9":-0.12826086580753326,"10":0.145405113697052,"11":0.07066673040390015,"12":-0.02826147899031639,"13":0.28075870871543884,"14":0.0021251393482089043,"15":-0.1238740012049675,"16":0.18154355883598328,"17":-0.06392718106508255,"18":0.03098095953464508,"19":-0.16496223211288452,"20":-0.007851392962038517,"21":-0.018634598702192307,"22":-0.276504784822464,"23":-0.5200780034065247,"24":-0.40561443567276,"25":-0.13778451085090637,"26":0.24994847178459167,"27":0.1507602483034134,"28":0.29358938336372375,"29":0.2729816734790802,"30":0.1371496319770813,"31":-0.0439029261469841,"32":0.019249597564339638,"33":0.040490444749593735,"34":0.128317728638649,"35":0.31775516271591187,"36":0.29696124792099,"37":0.15833449363708496,"38":0.07319033145904541,"39":-0.3988606035709381,"40":-0.6556781530380249,"41":-0.2959548830986023,"42":0.0468437559902668,"43":-0.06622707098722458,"44":-0.3010832965373993,"45":-0.8028539419174194,"46":-0.7117987275123596,"47":0.03127073869109154,"48":0.07035362720489502,"49":-0.10213661938905716,"50":0.1345878541469574,"51":0.12115634977817535,"52":0.11025745421648026,"53":-0.004775371868163347,"54":0.029937930405139923,"55":0.29460203647613525,"56":0.21170543134212494,"57":0.18541303277015686,"58":0.03989313542842865,"59":0.03388754650950432,"60":-0.01790112629532814,"61":-0.6238498687744141,"62":-0.7558208703994751,"63":-0.4129670262336731,"64":0.023407582193613052,"65":0.17533215880393982,"66":0.058166638016700745,"67":-0.22633284330368042,"68":-0.2338087409734726,"69":0.0997389480471611,"70":0.08022106438875198,"71":-0.03377661854028702,"72":0.0152555787935853,"73":0.1786198765039444,"74":0.18478859961032867,"75":0.02358829416334629,"76":-0.07562581449747086,"77":0.038665272295475006,"78":0.0862879529595375,"79":0.18943972885608673,"80":0.05718671903014183,"81":0.17754052579402924,"82":0.03909840062260628,"83":-0.06534385681152344,"84":-0.41047966480255127,"85":-0.20649206638336182,"86":0.12711288034915924,"87":0.2484690099954605}},"25":{"bias":0.16516649723052979,"weights":{"0":0.16991040110588074,"1":0.3302454352378845,"2":0.157051220536232,"3":0.03773541748523712,"4":-0.0370723120868206,"5":0.1371665596961975,"6":0.11073452979326248,"7":0.06380252540111542,"8":-0.1852380484342575,"9":0.04831552132964134,"10":0.2228102684020996,"11":0.16268718242645264,"12":-0.2976028323173523,"13":-0.3364346921443939,"14":-0.05770775303244591,"15":0.2119455635547638,"16":0.26492565870285034,"17":0.03714070841670036,"18":0.18270358443260193,"19":0.08649201691150665,"20":0.04973423853516579,"21":0.22230687737464905,"22":0.47410300374031067,"23":0.6848052144050598,"24":0.5561415553092957,"25":0.16197897493839264,"26":0.2146379053592682,"27":0.08481795340776443,"28":-0.46277672052383423,"29":-0.5561034679412842,"30":-0.21610292792320251,"31":0.15319743752479553,"32":0.2338733971118927,"33":-0.12397000193595886,"34":-0.4807705879211426,"35":-0.47537457942962646,"36":-0.030742881819605827,"37":0.18799924850463867,"38":-0.0604226179420948,"39":-0.1995954066514969,"40":-0.6361756920814514,"41":-0.627196729183197,"42":-0.027286840602755547,"43":0.24749276041984558,"44":0.6329745650291443,"45":0.6153359413146973,"46":0.32809510827064514,"47":0.2445473074913025,"48":0.26123908162117004,"49":-0.22441227734088898,"50":-0.556536853313446,"51":-0.7311806082725525,"52":-0.5576391816139221,"53":0.20137950778007507,"54":0.30840861797332764,"55":-0.5146451592445374,"56":-0.72417151927948,"57":-0.35250669717788696,"58":-0.21025389432907104,"59":0.06372074037790298,"60":0.05347207933664322,"61":-0.5981677174568176,"62":-0.598763644695282,"63":-0.5938268303871155,"64":-0.07901701331138611,"65":0.32435619831085205,"66":0.08987433463335037,"67":0.2100609391927719,"68":0.3549061715602875,"69":0.2662452459335327,"70":0.12259410321712494,"71":0.18127785623073578,"72":-0.15564225614070892,"73":-0.11725945770740509,"74":-0.20731596648693085,"75":-0.005102178081870079,"76":0.26041826605796814,"77":-0.06422420591115952,"78":-0.11305936425924301,"79":-0.20946159958839417,"80":0.1444852650165558,"81":0.04259828105568886,"82":-0.06207924708724022,"83":-0.18826018273830414,"84":-0.08561285585165024,"85":-0.17839211225509644,"86":0.2388191819190979,"87":0.032028887420892715}},"26":{"bias":0.013976038433611393,"weights":{"0":-0.009954043664038181,"1":0.06823082268238068,"2":-0.21888460218906403,"3":-0.02091830037534237,"4":0.12376900762319565,"5":-0.0938212051987648,"6":0.08022104948759079,"7":0.08571097254753113,"8":-0.08306241780519485,"9":-0.2355295568704605,"10":-0.010407847352325916,"11":-0.22152577340602875,"12":0.06776542961597443,"13":-0.14221270382404327,"14":0.009329021908342838,"15":-0.19846533238887787,"16":0.10408812016248703,"17":-0.16295601427555084,"18":0.12571969628334045,"19":-0.18167774379253387,"20":-0.24629320204257965,"21":0.032484881579875946,"22":-0.048264939337968826,"23":-0.25343218445777893,"24":-0.4025442600250244,"25":-0.08701469004154205,"26":-0.11972004175186157,"27":0.23135055601596832,"28":0.4258085787296295,"29":0.45357465744018555,"30":0.3162829875946045,"31":0.10329985618591309,"32":0.07184174656867981,"33":-0.20347154140472412,"34":-0.27283746004104614,"35":-0.10445874184370041,"36":0.10334423184394836,"37":-0.11999905109405518,"38":0.07628713548183441,"39":0.35044077038764954,"40":0.26307785511016846,"41":0.38341569900512695,"42":-0.015723571181297302,"43":-0.16943643987178802,"44":-0.10722370445728302,"45":-0.4210752546787262,"46":-0.38059547543525696,"47":-0.23425117135047913,"48":-0.043928489089012146,"49":0.20748105645179749,"50":0.714850664138794,"51":0.8326122760772705,"52":0.4913485050201416,"53":0.015012014657258987,"54":-0.15625225007534027,"55":-0.06339287012815475,"56":-0.2317437082529068,"57":0.09084875881671906,"58":-0.20515203475952148,"59":-0.05547301471233368,"60":-0.007019639480859041,"61":0.5407819747924805,"62":0.28065526485443115,"63":0.5299479961395264,"64":0.09874413907527924,"65":-0.03193765878677368,"66":-0.26646944880485535,"67":-0.12385547161102295,"68":-0.020870434120297432,"69":0.10536529868841171,"70":-0.2515605092048645,"71":0.06796598434448242,"72":0.05156154930591583,"73":0.2021016627550125,"74":0.1991061568260193,"75":-0.07888118177652359,"76":0.13308541476726532,"77":-0.0920863077044487,"78":-0.23200243711471558,"79":-0.042637914419174194,"80":0.07428600639104843,"81":-0.18828870356082916,"82":0.13655944168567657,"83":-0.029678473249077797,"84":0.033101100474596024,"85":0.17832323908805847,"86":-0.20615671575069427,"87":0.025693459436297417}},"27":{"bias":-0.18264392018318176,"weights":{"0":0.02025701105594635,"1":0.0492173507809639,"2":-0.19069772958755493,"3":-0.08592261373996735,"4":-0.029850566759705544,"5":-0.1850685179233551,"6":-0.07342921197414398,"7":0.11285647004842758,"8":0.15003730356693268,"9":0.07608248293399811,"10":-0.002130235778167844,"11":-0.041472334414720535,"12":0.1567012518644333,"13":-0.02963879331946373,"14":0.07883402705192566,"15":0.040507107973098755,"16":0.13295519351959229,"17":0.10648027807474136,"18":-0.19006909430027008,"19":-0.09579896181821823,"20":0.037101861089468,"21":0.0646515041589737,"22":0.06894484907388687,"23":-0.00801902636885643,"24":0.16158068180084229,"25":-0.12787297368049622,"26":-0.20944951474666595,"27":-0.05343296006321907,"28":-0.02243533544242382,"29":-0.12708371877670288,"30":-0.03158196061849594,"31":-0.21089686453342438,"32":-0.1277616173028946,"33":-0.03321358561515808,"34":-0.1629062294960022,"35":0.136472687125206,"36":-0.060341332107782364,"37":0.06262541562318802,"38":0.1299494504928589,"39":-0.026350857689976692,"40":0.11324530839920044,"41":-0.023558542132377625,"42":-0.03965352848172188,"43":-0.18948623538017273,"44":0.05786939337849617,"45":-0.16567982733249664,"46":-0.008717374876141548,"47":0.0786028504371643,"48":-0.07880821079015732,"49":0.09231165796518326,"50":0.061406705528497696,"51":0.14744506776332855,"52":-0.0015456753317266703,"53":-0.15830518305301666,"54":-0.21628080308437347,"55":0.1252351701259613,"56":-0.2177368849515915,"57":-0.13316521048545837,"58":0.1169855073094368,"59":-0.06512371450662613,"60":-0.015215679071843624,"61":0.17474694550037384,"62":-0.0976652055978775,"63":0.13557156920433044,"64":-0.1867699921131134,"65":-0.03999676555395126,"66":-0.1394224464893341,"67":0.15755312144756317,"68":-0.13015778362751007,"69":-0.0036534296814352274,"70":-0.13338397443294525,"71":-0.10607968270778656,"72":0.07342097163200378,"73":-0.02669636718928814,"74":-0.09647652506828308,"75":-0.01785098947584629,"76":-0.022339336574077606,"77":-0.11614866554737091,"78":-0.045335330069065094,"79":-0.192590594291687,"80":-0.05709954351186752,"81":0.019621066749095917,"82":0.10387233644723892,"83":0.14187468588352203,"84":-0.19411976635456085,"85":-0.012086610309779644,"86":-0.11132500320672989,"87":0.0971422791481018}},"28":{"bias":0.1626616269350052,"weights":{"0":-0.0880875512957573,"1":-0.17234578728675842,"2":-0.09400375932455063,"3":0.09099766612052917,"4":0.07242538779973984,"5":0.057862360030412674,"6":0.13792525231838226,"7":0.21011222898960114,"8":0.1371086686849594,"9":-0.1517854928970337,"10":0.13737641274929047,"11":-0.08984974771738052,"12":0.14592385292053223,"13":0.19793076813220978,"14":0.01921575702726841,"15":-0.05766624957323074,"16":-0.08536365628242493,"17":0.04035336151719093,"18":0.20850643515586853,"19":-0.182543084025383,"20":-0.15221355855464935,"21":0.12957186996936798,"22":-0.20361825823783875,"23":-0.2194199115037918,"24":-0.040225159376859665,"25":-0.14256808161735535,"26":0.16287454962730408,"27":-0.03921045735478401,"28":0.12905047833919525,"29":-0.10702867805957794,"30":0.15977638959884644,"31":0.11069571226835251,"32":0.08820950984954834,"33":-0.09018400311470032,"34":0.10766486823558807,"35":-0.20719511806964874,"36":0.010478440672159195,"37":0.23389938473701477,"38":-0.0032624949235469103,"39":0.05297856777906418,"40":-0.21722404658794403,"41":0.002747601130977273,"42":0.013616451062262058,"43":0.15972667932510376,"44":-0.12396739423274994,"45":-0.07432913035154343,"46":-0.08513286709785461,"47":-0.08029130846261978,"48":0.03485852852463722,"49":-0.0830075666308403,"50":-0.046736154705286026,"51":-0.012980001978576183,"52":-0.18388567864894867,"53":0.07199448347091675,"54":-0.09340186417102814,"55":-0.11039229482412338,"56":-0.04520104080438614,"57":-0.1303367018699646,"58":0.053207773715257645,"59":0.006861418019980192,"60":-0.11955448985099792,"61":-0.384481817483902,"62":-0.3945820927619934,"63":-0.37583792209625244,"64":-0.0965443029999733,"65":0.12294124066829681,"66":0.15266840159893036,"67":0.15801586210727692,"68":0.11857489496469498,"69":-0.07863567769527435,"70":-0.06670063734054565,"71":0.03924776613712311,"72":-0.0719098448753357,"73":-0.19249707460403442,"74":-0.14538414776325226,"75":0.05804193764925003,"76":0.13651016354560852,"77":0.21604633331298828,"78":0.04639499634504318,"79":0.18168115615844727,"80":0.09500187635421753,"81":0.20719373226165771,"82":-0.12673333287239075,"83":-0.2071714550256729,"84":0.026293013244867325,"85":0.00908927246928215,"86":-0.144424706697464,"87":0.0652896910905838}},"29":{"bias":-0.1032700389623642,"weights":{"0":0.1413029581308365,"1":-0.0756608322262764,"2":0.16679421067237854,"3":0.16191275417804718,"4":0.11155888438224792,"5":-0.13824136555194855,"6":-0.11519370973110199,"7":0.16269727051258087,"8":0.013281027786433697,"9":0.19635780155658722,"10":-0.05399366840720177,"11":0.07222741097211838,"12":-0.15074226260185242,"13":-0.09057971835136414,"14":0.05905848369002342,"15":0.13998164236545563,"16":0.15094061195850372,"17":-0.063435859978199,"18":0.10138317197561264,"19":0.05864543095231056,"20":-0.16569730639457703,"21":0.1556164175271988,"22":-0.028597090393304825,"23":-0.3003706634044647,"24":-0.21946558356285095,"25":-0.005043321754783392,"26":0.014482715167105198,"27":0.165021151304245,"28":-0.029806485399603844,"29":-0.10259740799665451,"30":-0.04650747403502464,"31":-0.005860375706106424,"32":0.11162117123603821,"33":-0.04548121616244316,"34":-0.20637190341949463,"35":-0.18324148654937744,"36":-0.2793746888637543,"37":0.0369286946952343,"38":-0.14571848511695862,"39":0.1038496270775795,"40":0.2830768823623657,"41":0.051947906613349915,"42":0.20897641777992249,"43":-0.13331778347492218,"44":-0.15110395848751068,"45":-0.12821605801582336,"46":-0.10240104794502258,"47":-0.10781092196702957,"48":-0.1713304966688156,"49":0.10076840966939926,"50":-0.20845504105091095,"51":-0.16912071406841278,"52":0.10312414914369583,"53":0.09339956194162369,"54":0.14541402459144592,"55":-0.14714068174362183,"56":-0.5335361361503601,"57":-0.2859872281551361,"58":-0.023469114676117897,"59":0.024755598977208138,"60":0.043904244899749756,"61":0.21573255956172943,"62":0.08440590649843216,"63":-0.013272722251713276,"64":0.22580423951148987,"65":0.17112679779529572,"66":0.06342349946498871,"67":-0.24571914970874786,"68":-0.1457795798778534,"69":0.08371783047914505,"70":0.15677492320537567,"71":-0.014657380990684032,"72":0.0071774981915950775,"73":-0.07303358614444733,"74":0.15677472949028015,"75":0.20097161829471588,"76":-0.09141913801431656,"77":0.1903211623430252,"78":-0.047666240483522415,"79":-0.2815059423446655,"80":-0.19493865966796875,"81":0.19052301347255707,"82":0.05262909084558487,"83":-0.10256069153547287,"84":0.2166575789451599,"85":0.09608829766511917,"86":-0.031604062765836716,"87":-0.06803098320960999}},"30":{"bias":-0.09378642588853836,"weights":{"0":-0.004746300633996725,"1":-0.12930241227149963,"2":0.20831111073493958,"3":-0.024480676278471947,"4":0.20032402873039246,"5":0.11073604226112366,"6":0.17590968310832977,"7":-0.026624882593750954,"8":0.026779623702168465,"9":0.2214694619178772,"10":0.11144612729549408,"11":-0.18770016729831696,"12":-0.0714116021990776,"13":-0.0572395958006382,"14":0.1282045692205429,"15":-0.07510598003864288,"16":-0.061770085245370865,"17":-0.1038084551692009,"18":0.2000463604927063,"19":0.1575169563293457,"20":0.09209633618593216,"21":0.18818393349647522,"22":-0.12980958819389343,"23":-0.10999241471290588,"24":-0.00922253355383873,"25":0.14339572191238403,"26":0.15299919247627258,"27":-0.13696759939193726,"28":0.07109489291906357,"29":0.23160116374492645,"30":0.25084322690963745,"31":0.0079727154225111,"32":-0.16070276498794556,"33":-0.2751680612564087,"34":-0.29126277565956116,"35":-0.3392706513404846,"36":-0.15682370960712433,"37":-0.16360071301460266,"38":0.07614503055810928,"39":0.07424447685480118,"40":0.037514302879571915,"41":-0.07845748960971832,"42":0.2359887957572937,"43":-0.06501170992851257,"44":-0.05828900262713432,"45":-0.16374367475509644,"46":-0.039376456290483475,"47":0.06905140727758408,"48":-0.02084166742861271,"49":-0.11571543663740158,"50":0.14232563972473145,"51":-0.09310804307460785,"52":-0.11048201471567154,"53":-0.11270523816347122,"54":-0.1296282708644867,"55":-0.240798681974411,"56":-0.27780723571777344,"57":-0.22427956759929657,"58":0.012757263146340847,"59":0.0322272926568985,"60":0.13888658583164215,"61":-0.05414958298206329,"62":0.24452060461044312,"63":0.03510644659399986,"64":0.07506252080202103,"65":0.10784214735031128,"66":0.21174730360507965,"67":-0.09334821254014969,"68":-0.01798740215599537,"69":-0.1466735303401947,"70":0.07347556948661804,"71":0.1735427975654602,"72":-0.007409550715237856,"73":-0.026760928332805634,"74":-0.1311303675174713,"75":-0.16543123126029968,"76":-0.16617029905319214,"77":0.1818298101425171,"78":-0.08639556914567947,"79":-0.11989892274141312,"80":-0.143188938498497,"81":0.08806052803993225,"82":0.06717594712972641,"83":-0.003594709327444434,"84":-0.06575915217399597,"85":-0.052629515528678894,"86":0.03906360641121864,"87":0.059344712644815445}},"31":{"bias":-0.01758079044520855,"weights":{"0":0.10355278849601746,"1":-0.030329352244734764,"2":-0.030134594067931175,"3":0.0005312596331350505,"4":0.1416875123977661,"5":0.2068263590335846,"6":0.13253842294216156,"7":-0.07771623879671097,"8":0.07630860060453415,"9":-0.07473679631948471,"10":0.1430085152387619,"11":0.06860855966806412,"12":-0.3815971314907074,"13":-0.3143237829208374,"14":-0.07941991090774536,"15":-0.04129036143422127,"16":-0.048846520483493805,"17":0.13015665113925934,"18":0.10812576115131378,"19":-0.10836013406515121,"20":-0.05249321833252907,"21":-0.02686135657131672,"22":-0.12243606895208359,"23":0.09869584441184998,"24":0.14046050608158112,"25":-0.037726324051618576,"26":-0.1344451606273651,"27":0.010496772825717926,"28":0.33346298336982727,"29":0.13888634741306305,"30":-0.025960301980376244,"31":-0.09778928756713867,"32":-0.041020434349775314,"33":-0.3603183329105377,"34":-0.5590323209762573,"35":-0.43709954619407654,"36":-0.31580597162246704,"37":-0.0476861447095871,"38":0.04445074498653412,"39":0.19605976343154907,"40":0.005563839338719845,"41":0.06653585284948349,"42":-0.09179653972387314,"43":-0.10986924916505814,"44":0.1807122677564621,"45":0.14263363182544708,"46":-0.10728377103805542,"47":0.16548626124858856,"48":0.07931212335824966,"49":0.015679819509387016,"50":0.0037737556267529726,"51":0.07203150540590286,"52":0.09943560510873795,"53":-0.019706999883055687,"54":-0.06615940481424332,"55":-0.1807510405778885,"56":-0.6804198622703552,"57":-0.28542467951774597,"58":-0.31718358397483826,"59":0.13647660613059998,"60":-0.06505073606967926,"61":0.1897989958524704,"62":-0.002790688071399927,"63":-0.06639129668474197,"64":-0.05965278670191765,"65":0.15126685798168182,"66":0.12788566946983337,"67":0.11279653757810593,"68":0.1402435004711151,"69":0.1664620041847229,"70":0.05575001239776611,"71":0.06472348421812057,"72":-0.08276788145303726,"73":0.13192293047904968,"74":0.04678226634860039,"75":0.1018657311797142,"76":-0.07963878661394119,"77":0.1860637366771698,"78":-0.31706568598747253,"79":-0.40284642577171326,"80":0.0036579861771315336,"81":0.2323768436908722,"82":-0.0540681891143322,"83":-0.007541671395301819,"84":-0.11077176034450531,"85":0.2398124784231186,"86":0.19168046116828918,"87":-0.05032994598150253}},"32":{"bias":0.20423275232315063,"weights":{"0":-0.09344276785850525,"1":0.1734658181667328,"2":0.19271519780158997,"3":-0.12487079203128815,"4":-0.15299981832504272,"5":-0.05092189088463783,"6":-0.07754939049482346,"7":-0.09869063645601273,"8":0.09111206978559494,"9":0.1551322638988495,"10":-0.023073432967066765,"11":-0.2875431180000305,"12":-0.26644065976142883,"13":-0.28849732875823975,"14":-0.15830671787261963,"15":0.01883433200418949,"16":0.17554228007793427,"17":0.17419956624507904,"18":0.06640619784593582,"19":0.19087548553943634,"20":0.11061736941337585,"21":0.028073661029338837,"22":0.13162855803966522,"23":0.19323593378067017,"24":0.09382027387619019,"25":0.1598229855298996,"26":0.003447792027145624,"27":0.026304805651307106,"28":-0.037686608731746674,"29":-0.1841331273317337,"30":0.18136583268642426,"31":0.10852313041687012,"32":0.012253744527697563,"33":-0.46133172512054443,"34":-0.6339655518531799,"35":-0.6880064606666565,"36":-0.1868794858455658,"37":-0.14362531900405884,"38":0.08146900683641434,"39":0.33392831683158875,"40":0.3867364525794983,"41":0.3060680329799652,"42":0.11829287558794022,"43":0.12059159576892853,"44":0.2280505895614624,"45":-0.021835122257471085,"46":0.024584123864769936,"47":-0.13437619805335999,"48":0.14064323902130127,"49":-0.13008682429790497,"50":-0.068490169942379,"51":0.029418576508760452,"52":-0.08517605811357498,"53":-0.030635859817266464,"54":0.23000025749206543,"55":-0.49196135997772217,"56":-0.8011419773101807,"57":-0.8106432557106018,"58":-0.4812445640563965,"59":-0.08347317576408386,"60":-0.0634176954627037,"61":0.4445835053920746,"62":0.32028791308403015,"63":0.09901001304388046,"64":0.22084297239780426,"65":-0.03856175020337105,"66":-0.08554676175117493,"67":0.23206785321235657,"68":0.22239583730697632,"69":0.19985070824623108,"70":0.08259084820747375,"71":-0.035519663244485855,"72":-0.20896577835083008,"73":-0.11654520779848099,"74":0.029308417811989784,"75":-0.13057337701320648,"76":0.12413355708122253,"77":0.13158449530601501,"78":-0.26436230540275574,"79":-0.3741932213306427,"80":-0.1062101200222969,"81":-0.1590944230556488,"82":0.10643672943115234,"83":0.20257286727428436,"84":-0.04557989910244942,"85":-0.006728272419422865,"86":0.18718813359737396,"87":-0.1683017760515213}},"33":{"bias":-0.13786466419696808,"weights":{"0":0.04946980997920036,"1":-0.3352557122707367,"2":-0.293703556060791,"3":-0.0628494992852211,"4":-0.15366849303245544,"5":-0.27617359161376953,"6":-0.11978819966316223,"7":0.07628016918897629,"8":0.014953249134123325,"9":-0.09020481258630753,"10":-0.16995356976985931,"11":0.12605467438697815,"12":0.21208377182483673,"13":0.09748253971338272,"14":-0.06968734413385391,"15":-0.21801652014255524,"16":-0.18790997564792633,"17":-0.13199834525585175,"18":-0.012532168067991734,"19":0.1098620668053627,"20":0.040421150624752045,"21":-0.008641842752695084,"22":-0.24484901130199432,"23":-0.16357678174972534,"24":-0.3745836317539215,"25":-0.1037808433175087,"26":-0.07181944698095322,"27":-0.017220240086317062,"28":0.19841155409812927,"29":0.36445385217666626,"30":0.19372336566448212,"31":-0.05528226122260094,"32":-0.17958730459213257,"33":0.21450017392635345,"34":0.1832636147737503,"35":0.07677850127220154,"36":0.008125606924295425,"37":-0.12405406683683395,"38":-0.19697260856628418,"39":0.3802129924297333,"40":0.6021274924278259,"41":0.5100406408309937,"42":0.05773290991783142,"43":-0.18584246933460236,"44":-0.05509744584560394,"45":-0.3113188147544861,"46":-0.18673716485500336,"47":-0.04351654648780823,"48":-0.224173903465271,"49":0.1581726223230362,"50":0.34816545248031616,"51":0.47570493817329407,"52":0.16157938539981842,"53":-0.2888595163822174,"54":-0.23292435705661774,"55":0.24428687989711761,"56":0.2313794195652008,"57":0.42237135767936707,"58":0.1786215454339981,"59":0.03360050916671753,"60":0.04264964908361435,"61":0.7043324112892151,"62":0.7770688533782959,"63":0.6016699075698853,"64":0.035946015268564224,"65":-0.07914446294307709,"66":0.006478764582425356,"67":-0.3111606240272522,"68":-0.3214426338672638,"69":-0.1521109640598297,"70":-0.21762298047542572,"71":-0.24065403640270233,"72":0.1297474205493927,"73":-0.04000827670097351,"74":-0.16843540966510773,"75":-0.14112800359725952,"76":0.059132110327482224,"77":-0.2850157618522644,"78":0.07812658697366714,"79":0.19804401695728302,"80":0.012078871950507164,"81":-0.08035675436258316,"82":0.02938009612262249,"83":0.17209558188915253,"84":0.1231103166937828,"85":0.12021775543689728,"86":-0.06106692552566528,"87":-0.10751258581876755}},"34":{"bias":0.11593569070100784,"weights":{"0":0.011785686016082764,"1":0.19458447396755219,"2":0.04075061157345772,"3":0.03968430683016777,"4":-0.08466291427612305,"5":0.019798703491687775,"6":0.15786239504814148,"7":0.16167062520980835,"8":0.1081760823726654,"9":0.03966856375336647,"10":-0.0019645169377326965,"11":-0.2051914930343628,"12":-0.055865656584501266,"13":0.054213106632232666,"14":-0.017709845677018166,"15":0.03773495927453041,"16":0.06200820580124855,"17":0.16627709567546844,"18":0.14375710487365723,"19":0.17357751727104187,"20":-0.050443463027477264,"21":0.10877523571252823,"22":-0.098043292760849,"23":0.2189779430627823,"24":-0.05947388708591461,"25":0.15218985080718994,"26":0.10422803461551666,"27":-0.06356387585401535,"28":0.09305615723133087,"29":0.057075127959251404,"30":0.09250804781913757,"31":-0.0675630196928978,"32":0.10051116347312927,"33":-0.31561267375946045,"34":-0.29889214038848877,"35":-0.2287227064371109,"36":-0.0627254769206047,"37":-0.1551327407360077,"38":-0.1560562402009964,"39":-0.13184843957424164,"40":0.20693069696426392,"41":0.2673289477825165,"42":0.03257278352975845,"43":0.06517833471298218,"44":-0.09754066169261932,"45":-0.007738200481981039,"46":0.1856928914785385,"47":-0.18659570813179016,"48":-0.07453405112028122,"49":0.10359625518321991,"50":0.11841390281915665,"51":0.36981719732284546,"52":0.3323368728160858,"53":-0.17425726354122162,"54":0.13543489575386047,"55":-0.25290271639823914,"56":-0.14130647480487823,"57":-0.42037221789360046,"58":-0.2940256893634796,"59":-0.13524675369262695,"60":-0.08543960005044937,"61":0.25483906269073486,"62":0.15918713808059692,"63":0.025524688884615898,"64":-0.0062366658821702,"65":-0.1786496639251709,"66":-0.05876053497195244,"67":0.030748628079891205,"68":0.08467429876327515,"69":-0.17733335494995117,"70":0.019371943548321724,"71":-0.17893362045288086,"72":0.17633001506328583,"73":0.24901790916919708,"74":-0.13783863186836243,"75":-0.0022934875451028347,"76":-0.045544132590293884,"77":0.09327583014965057,"78":-0.26649367809295654,"79":-0.22942742705345154,"80":-0.04414113610982895,"81":-0.19658344984054565,"82":-0.02985285222530365,"83":0.04363353177905083,"84":0.2463092803955078,"85":0.09067415446043015,"86":-0.1442478895187378,"87":0.024841008707880974}},"35":{"bias":0.023851528763771057,"weights":{"0":-0.03341182693839073,"1":-0.18466360867023468,"2":-0.010181598365306854,"3":0.1772598922252655,"4":0.047384947538375854,"5":0.09848200529813766,"6":0.1480606347322464,"7":-0.12016168236732483,"8":0.1272497922182083,"9":0.23137617111206055,"10":0.06479345262050629,"11":0.012330817058682442,"12":-0.15052281320095062,"13":-0.10893044620752335,"14":-0.1622125655412674,"15":0.22125184535980225,"16":0.22002708911895752,"17":0.3028358519077301,"18":0.3028709888458252,"19":0.1485532969236374,"20":0.3155271112918854,"21":0.10901171714067459,"22":-0.3318274915218353,"23":-0.1592666506767273,"24":-0.3955743610858917,"25":0.011349651962518692,"26":0.2835279405117035,"27":-0.12265417724847794,"28":-0.5767214894294739,"29":-0.6738967299461365,"30":-0.40045416355133057,"31":0.0903429388999939,"32":0.14463427662849426,"33":-0.21880945563316345,"34":-0.5744593739509583,"35":-0.5797994136810303,"36":0.003955053631216288,"37":0.254233717918396,"38":0.1670585423707962,"39":0.2818552255630493,"40":0.5496652722358704,"41":0.5166823267936707,"42":0.29704999923706055,"43":0.3085123896598816,"44":-0.3677111864089966,"45":-0.4948617219924927,"46":-0.49227553606033325,"47":0.2811107039451599,"48":0.11657779663801193,"49":0.07657602429389954,"50":-0.6409158706665039,"51":-0.7196888327598572,"52":-0.4707375764846802,"53":0.0162661075592041,"54":0.00147242471575737,"55":-0.3415272831916809,"56":-0.6668185591697693,"57":-0.521595299243927,"58":-0.16875235736370087,"59":0.2129904329776764,"60":0.1410500407218933,"61":0.5593863725662231,"62":0.27037742733955383,"63":0.6068177819252014,"64":0.13493892550468445,"65":0.2704662084579468,"66":-0.06352925300598145,"67":-0.20337384939193726,"68":-0.2047680914402008,"69":0.3182252049446106,"70":0.07918275147676468,"71":0.252366304397583,"72":-0.19157901406288147,"73":-0.08867264539003372,"74":-0.10056754946708679,"75":0.054016221314668655,"76":0.009781581349670887,"77":0.12861187756061554,"78":-0.009825100190937519,"79":-0.38467568159103394,"80":-0.03844928368926048,"81":0.12002190202474594,"82":0.16568222641944885,"83":0.0174772460013628,"84":0.0926438719034195,"85":0.0790448933839798,"86":0.24635285139083862,"87":0.03642318397760391}},"36":{"bias":0.10760229080915451,"weights":{"0":-0.08193408697843552,"1":-0.061554357409477234,"2":-0.014854619279503822,"3":-0.13748028874397278,"4":-0.00277535617351532,"5":-0.23605678975582123,"6":-0.06270517408847809,"7":0.10219894349575043,"8":-0.06306324154138565,"9":-0.03018995188176632,"10":-0.04969080537557602,"11":0.15479739010334015,"12":0.41321998834609985,"13":0.04524034261703491,"14":-0.03897301107645035,"15":-0.10945509374141693,"16":-0.01356071699410677,"17":0.0758732333779335,"18":-0.26587316393852234,"19":-0.16483396291732788,"20":-0.15844468772411346,"21":-0.02215201035141945,"22":-0.44114020466804504,"23":-0.38473108410835266,"24":-0.40368497371673584,"25":-0.05736701190471649,"26":0.05790106952190399,"27":0.02697569690644741,"28":0.033322226256132126,"29":0.2301519364118576,"30":0.0003126276715192944,"31":-0.2714436948299408,"32":0.06942431628704071,"33":0.40999895334243774,"34":0.6268210411071777,"35":0.6410087943077087,"36":0.3247787058353424,"37":-0.10645581781864166,"38":-0.024266447871923447,"39":0.1854153573513031,"40":0.1391618847846985,"41":-0.012779193930327892,"42":-0.1836114227771759,"43":-0.14101314544677734,"44":-0.22781004011631012,"45":-0.5221137404441833,"46":-0.15686701238155365,"47":-0.09198557585477829,"48":-0.09917400777339935,"49":0.13387122750282288,"50":0.05644937977194786,"51":0.13316819071769714,"52":0.1753222793340683,"53":-0.26811549067497253,"54":-0.2200935333967209,"55":0.33483871817588806,"56":0.8083531856536865,"57":0.6372979283332825,"58":0.4728819727897644,"59":-0.2728312313556671,"60":-0.15838871896266937,"61":0.04644102603197098,"62":0.3264918923377991,"63":0.3618758022785187,"64":-0.06389804929494858,"65":0.11023139208555222,"66":0.02043486386537552,"67":-0.10422039031982422,"68":0.012742719613015652,"69":0.10939823091030121,"70":-0.1424071490764618,"71":-0.25785017013549805,"72":0.18916746973991394,"73":-0.06196816638112068,"74":-0.177781343460083,"75":0.08722229301929474,"76":-0.01967744156718254,"77":-0.26230892539024353,"78":0.40196579694747925,"79":0.18418815732002258,"80":0.004663222003728151,"81":0.04596012085676193,"82":-0.24075041711330414,"83":-0.1694541871547699,"84":0.23173516988754272,"85":0.20100659132003784,"86":-0.07194662094116211,"87":-0.0724148079752922}},"37":{"bias":-0.06589625775814056,"weights":{"0":-0.168291836977005,"1":-0.16316616535186768,"2":0.22302082180976868,"3":-0.09934047609567642,"4":-0.11565449088811874,"5":0.06577582657337189,"6":-0.10115396976470947,"7":0.13522040843963623,"8":0.03825712576508522,"9":0.17041592299938202,"10":0.24269424378871918,"11":-0.0959194153547287,"12":0.22079218924045563,"13":0.1989581286907196,"14":0.2853674292564392,"15":-0.00353680900298059,"16":0.263566255569458,"17":0.05952687934041023,"18":-0.06598098576068878,"19":-0.15276019275188446,"20":0.1520223617553711,"21":0.19537921249866486,"22":-0.5296554565429688,"23":-0.5248296856880188,"24":-0.6448962688446045,"25":-0.17215721309185028,"26":-0.02075028419494629,"27":0.1937660276889801,"28":0.06729082763195038,"29":0.27582332491874695,"30":0.37686067819595337,"31":-0.0724540427327156,"32":-0.07388415932655334,"33":0.13117560744285583,"34":0.32414257526397705,"35":0.3473464548587799,"36":0.02300228178501129,"37":-0.011902544647455215,"38":0.11206679046154022,"39":0.03752890229225159,"40":-0.2820712924003601,"41":-0.21424628794193268,"42":-0.22723853588104248,"43":0.1653265804052353,"44":-0.716547966003418,"45":-0.9431663155555725,"46":-0.7524808049201965,"47":-0.0619475319981575,"48":0.03879472240805626,"49":-0.05549880862236023,"50":0.2772459089756012,"51":0.3532547354698181,"52":0.12199520319700241,"53":0.08908043801784515,"54":-0.1004665344953537,"55":0.03396384045481682,"56":0.09736108779907227,"57":0.09358494728803635,"58":0.10845962166786194,"59":0.24543757736682892,"60":-0.1346837431192398,"61":-0.31005704402923584,"62":-0.6120466589927673,"63":-0.46559956669807434,"64":-0.1597590148448944,"65":-0.11610464751720428,"66":0.11344112455844879,"67":-0.44029101729393005,"68":-0.30673593282699585,"69":0.11457212269306183,"70":0.02520645596086979,"71":0.20374031364917755,"72":0.07811248302459717,"73":0.324098140001297,"74":0.037373803555965424,"75":0.13701008260250092,"76":0.14014531672000885,"77":0.1788693219423294,"78":0.06417790055274963,"79":0.021447250619530678,"80":0.1493818759918213,"81":0.06871923804283142,"82":-0.07871533930301666,"83":0.14631499350070953,"84":-0.10884074866771698,"85":-0.15859264135360718,"86":0.15151111781597137,"87":-0.05070039629936218}},"38":{"bias":-0.023465471342206,"weights":{"0":0.09586201608181,"1":0.2213047593832016,"2":0.04645702615380287,"3":-0.013036862947046757,"4":0.05654392018914223,"5":0.08216143399477005,"6":-0.15233023464679718,"7":-0.22708912193775177,"8":0.012520375661551952,"9":0.20954875648021698,"10":0.15359103679656982,"11":0.19097620248794556,"12":0.13107693195343018,"13":0.1764964610338211,"14":0.20836225152015686,"15":0.06208215281367302,"16":-0.1405923217535019,"17":0.011443031020462513,"18":0.010648766532540321,"19":0.10195856541395187,"20":0.13904686272144318,"21":-0.13216693699359894,"22":0.233705535531044,"23":0.30698901414871216,"24":0.3181343674659729,"25":0.00231685652397573,"26":0.02252885513007641,"27":-0.09575532376766205,"28":-0.35564014315605164,"29":-0.737015426158905,"30":-0.5272104144096375,"31":-0.05894053354859352,"32":0.178283229470253,"33":-0.0060173869132995605,"34":0.14513805508613586,"35":0.03937450423836708,"36":-0.012021314352750778,"37":-0.087435781955719,"38":-0.07348587363958359,"39":-0.2773617208003998,"40":-0.4525544345378876,"41":-0.35182449221611023,"42":-0.1940135359764099,"43":0.16104072332382202,"44":0.4683803915977478,"45":0.3799475133419037,"46":0.33610495924949646,"47":-0.09348930418491364,"48":-0.0029086258728057146,"49":-0.10872549563646317,"50":-0.6440467238426208,"51":-0.7879354357719421,"52":-0.6822690367698669,"53":0.1899901181459427,"54":0.2449357956647873,"55":-0.05477296933531761,"56":-0.047833532094955444,"57":0.04242084175348282,"58":0.2041579782962799,"59":0.020681822672486305,"60":0.027029966935515404,"61":-0.3747832477092743,"62":-0.3528761863708496,"63":-0.33933699131011963,"64":-0.05780752748250961,"65":0.16963298618793488,"66":0.22588109970092773,"67":0.16496911644935608,"68":0.01802963577210903,"69":0.08885116130113602,"70":-0.14751650393009186,"71":0.2290859967470169,"72":-0.3933242857456207,"73":-0.13868534564971924,"74":-0.012998521327972412,"75":-0.13856150209903717,"76":0.05211076885461807,"77":-0.03841464966535568,"78":0.12383372336626053,"79":0.05761989951133728,"80":0.06507059186697006,"81":0.015828097239136696,"82":-0.013131308369338512,"83":0.10251110792160034,"84":-0.08870039135217667,"85":0.105434350669384,"86":0.1998361200094223,"87":0.1994546800851822}},"39":{"bias":-0.10387498140335083,"weights":{"0":0.16768689453601837,"1":-0.06802834570407867,"2":0.05299060419201851,"3":-0.06526016443967819,"4":0.12154826521873474,"5":-0.0953146368265152,"6":0.05181654170155525,"7":-0.049928609281778336,"8":0.032487139105796814,"9":0.18800780177116394,"10":0.2172473967075348,"11":0.05255374684929848,"12":0.045986972749233246,"13":-0.28872057795524597,"14":0.07110480219125748,"15":0.10959786176681519,"16":0.015134369023144245,"17":-0.014087552204728127,"18":-0.18278400599956512,"19":0.017951538786292076,"20":-0.1291799545288086,"21":-0.13288241624832153,"22":0.23445278406143188,"23":0.057994917035102844,"24":0.10072699189186096,"25":0.1808496117591858,"26":0.14223270118236542,"27":0.15652409195899963,"28":0.2877883315086365,"29":0.20775428414344788,"30":0.0251841489225626,"31":0.08697496354579926,"32":0.0492827482521534,"33":-0.04332878813147545,"34":-0.215614452958107,"35":-0.44804301857948303,"36":-0.23827965557575226,"37":-0.08125022053718567,"38":-0.11964470893144608,"39":-0.45947736501693726,"40":-0.4847851097583771,"41":-0.5778468251228333,"42":0.03612116351723671,"43":0.039232563227415085,"44":0.271459698677063,"45":0.12177339941263199,"46":-0.0009682615054771304,"47":0.21295253932476044,"48":0.12404346466064453,"49":0.049124594777822495,"50":0.20426541566848755,"51":0.06387951970100403,"52":0.398133248090744,"53":-0.021476279944181442,"54":0.17592139542102814,"55":-0.262259304523468,"56":-0.2592346966266632,"57":-0.17206895351409912,"58":-0.009693105705082417,"59":0.11165042221546173,"60":0.16652435064315796,"61":-0.6947923898696899,"62":-0.629997730255127,"63":-0.6541069149971008,"64":-0.04801049456000328,"65":-0.011244414374232292,"66":-0.10849139839410782,"67":0.038409437984228134,"68":0.09021363407373428,"69":-0.05530315265059471,"70":0.16200678050518036,"71":0.09243462979793549,"72":0.18111185729503632,"73":0.12400967627763748,"74":0.09639550000429153,"75":-0.01293097622692585,"76":0.19127821922302246,"77":0.14746037125587463,"78":-0.16890260577201843,"79":-0.21658407151699066,"80":0.1339881718158722,"81":0.2129882276058197,"82":0.10453980416059494,"83":-0.15298326313495636,"84":-0.2877741754055023,"85":-0.2468923181295395,"86":0.007311240304261446,"87":0.21701490879058838}},"40":{"bias":-0.16396042704582214,"weights":{"0":0.23852218687534332,"1":0.21746551990509033,"2":0.16151981055736542,"3":0.1347343772649765,"4":-0.13520990312099457,"5":0.016469845548272133,"6":-0.09079798310995102,"7":0.10053864866495132,"8":0.09693863987922668,"9":0.13012008368968964,"10":0.15362490713596344,"11":-0.03352246433496475,"12":-0.30682072043418884,"13":-0.3072451651096344,"14":-0.18718533217906952,"15":-0.14591772854328156,"16":0.19551344215869904,"17":0.09812415391206741,"18":0.041894759982824326,"19":0.03320954367518425,"20":-0.1762736439704895,"21":-0.07103291898965836,"22":0.03195659816265106,"23":0.18840035796165466,"24":0.3503710627555847,"25":-0.09210244566202164,"26":0.04684920608997345,"27":0.1165166050195694,"28":0.1744479238986969,"29":0.21705515682697296,"30":0.13874073326587677,"31":-0.05109037086367607,"32":0.03751358017325401,"33":0.01765817403793335,"34":-0.14487189054489136,"35":-0.3840031027793884,"36":0.01773775741457939,"37":-0.1816009134054184,"38":-0.07774819433689117,"39":-0.19801875948905945,"40":-0.678702712059021,"41":-0.618436336517334,"42":-0.2632862627506256,"43":0.17443619668483734,"44":0.3079981207847595,"45":0.20194754004478455,"46":0.4065079391002655,"47":0.2364116609096527,"48":-0.1795506328344345,"49":0.025181002914905548,"50":0.3796655535697937,"51":0.49044251441955566,"52":0.44965362548828125,"53":0.04721660912036896,"54":0.052125878632068634,"55":-0.018580326810479164,"56":-0.20263831317424774,"57":-0.15933552384376526,"58":-0.2777393162250519,"59":0.16479463875293732,"60":-0.08546774834394455,"61":-0.5342901349067688,"62":-0.7080844640731812,"63":-0.6443430185317993,"64":-0.2280583530664444,"65":0.10837041586637497,"66":0.05245904251933098,"67":0.32116273045539856,"68":-0.06835512071847916,"69":-0.08458558470010757,"70":-0.10207533091306686,"71":-0.09374601393938065,"72":0.2688632607460022,"73":0.26350465416908264,"74":0.2324492186307907,"75":0.07027409225702286,"76":0.1859225481748581,"77":0.19358576834201813,"78":-0.31701385974884033,"79":-0.21135057508945465,"80":-0.08839359134435654,"81":-0.08894259482622147,"82":0.20792032778263092,"83":-0.09869076311588287,"84":-0.13356028497219086,"85":-0.29186949133872986,"86":-0.129737988114357,"87":0.13408860564231873}},"41":{"bias":0.16191260516643524,"weights":{"0":0.017774788662791252,"1":-0.15011008083820343,"2":-0.17291565239429474,"3":-0.10006564855575562,"4":0.2257377952337265,"5":-0.06370697170495987,"6":-0.13384369015693665,"7":-0.05370898172259331,"8":0.2195965051651001,"9":-0.06626268476247787,"10":-0.15384455025196075,"11":-0.18726329505443573,"12":-0.005519513040781021,"13":-0.18261277675628662,"14":-0.19926005601882935,"15":-0.17023341357707977,"16":0.04107559099793434,"17":-0.008701619692146778,"18":-0.04941774532198906,"19":-0.061207957565784454,"20":-0.01789814978837967,"21":-0.08509457111358643,"22":0.19319574534893036,"23":-0.14887797832489014,"24":-0.16471782326698303,"25":0.06883446872234344,"26":-0.16364030539989471,"27":-0.12627676129341125,"28":-0.11686184257268906,"29":0.051355473697185516,"30":0.09328383207321167,"31":0.19952979683876038,"32":-0.047010503709316254,"33":-0.04612797126173973,"34":-0.27876248955726624,"35":-0.2428833395242691,"36":-0.010247659869492054,"37":-0.16758359968662262,"38":0.12789231538772583,"39":0.14208152890205383,"40":-0.1113966703414917,"41":-0.17411427199840546,"42":0.10854718089103699,"43":-0.03959190100431442,"44":-0.16976308822631836,"45":0.11996618658304214,"46":-0.031167471781373024,"47":0.013763575814664364,"48":0.1722344309091568,"49":0.22593127191066742,"50":0.05226435512304306,"51":-0.15457101166248322,"52":0.04368150606751442,"53":0.015422382391989231,"54":0.05749741196632385,"55":0.1200018897652626,"56":0.030414637178182602,"57":-0.18337544798851013,"58":-0.17916497588157654,"59":-0.016016898676753044,"60":-0.026877325028181076,"61":-0.07882042229175568,"62":-0.07717370241880417,"63":-0.02698913775384426,"64":0.011888071894645691,"65":0.0655781552195549,"66":0.16800345480442047,"67":0.1429077833890915,"68":-0.0032934469636529684,"69":0.2197474092245102,"70":0.11248212307691574,"71":-0.06662817299365997,"72":0.10686280578374863,"73":-0.1636795848608017,"74":0.039686720818281174,"75":-0.035919446498155594,"76":-0.046049151569604874,"77":0.05518070235848427,"78":-0.09926514327526093,"79":-0.04848676174879074,"80":-0.07741311937570572,"81":0.17315144836902618,"82":0.09902804344892502,"83":0.1570807844400406,"84":0.0503777377307415,"85":0.15802066028118134,"86":0.07773866504430771,"87":0.1792876273393631}},"42":{"bias":0.061569247394800186,"weights":{"0":0.19327916204929352,"1":0.20139364898204803,"2":0.11404857039451599,"3":0.10167450457811356,"4":-0.035213403403759,"5":0.017751073464751244,"6":0.027780165895819664,"7":-0.13836687803268433,"8":0.065682053565979,"9":-0.14119358360767365,"10":0.06662733852863312,"11":0.0001671197678660974,"12":0.21931715309619904,"13":-0.04171641170978546,"14":-0.056756097823381424,"15":0.013585090637207031,"16":0.026141615584492683,"17":-0.12969422340393066,"18":-0.27571678161621094,"19":-0.046020153909921646,"20":-0.18326234817504883,"21":-0.0768899992108345,"22":0.37224090099334717,"23":0.5125741362571716,"24":0.35431650280952454,"25":-0.0466010682284832,"26":-0.2854631245136261,"27":-0.07976418733596802,"28":0.19333916902542114,"29":0.3674505054950714,"30":0.3327881991863251,"31":0.0017919749952852726,"32":-0.05666661635041237,"33":-0.11057057976722717,"34":0.23002980649471283,"35":0.04059440642595291,"36":-0.15787526965141296,"37":0.034913044422864914,"38":-0.3043340742588043,"39":0.0008082154672592878,"40":-0.20507295429706573,"41":-0.33092832565307617,"42":-0.2930363118648529,"43":0.03962947800755501,"44":0.5172038674354553,"45":0.4057193994522095,"46":0.6090319156646729,"47":-0.10679999738931656,"48":0.025220924988389015,"49":0.08274596929550171,"50":0.39367446303367615,"51":0.5323547720909119,"52":0.08580856770277023,"53":-0.2524819076061249,"54":0.05366925150156021,"55":0.11402690410614014,"56":0.25803813338279724,"57":0.0015950222732499242,"58":0.14980952441692352,"59":-0.17798906564712524,"60":-0.06649009883403778,"61":-0.0914391353726387,"62":-0.3559025824069977,"63":-0.3080417811870575,"64":-0.07711955159902573,"65":0.06298889964818954,"66":-0.03011969104409218,"67":0.11459732800722122,"68":0.030765537172555923,"69":-0.1438755989074707,"70":-0.25300949811935425,"71":-0.14945869147777557,"72":0.2777296304702759,"73":0.22358322143554688,"74":0.20562602579593658,"75":-0.2872721552848816,"76":-0.0535595528781414,"77":-0.27653107047080994,"78":0.21502798795700073,"79":0.12391083687543869,"80":-0.19670970737934113,"81":0.06651921570301056,"82":-0.2650260329246521,"83":-0.02788509428501129,"84":-0.22380965948104858,"85":-0.2810845971107483,"86":-0.1557312309741974,"87":-0.24396194517612457}},"43":{"bias":-0.012290479615330696,"weights":{"0":0.032692063599824905,"1":0.1507522314786911,"2":-0.19531108438968658,"3":-0.1658296436071396,"4":-0.1546478122472763,"5":0.04763428866863251,"6":-0.0639507845044136,"7":-0.27972495555877686,"8":-0.10598167777061462,"9":0.09809937328100204,"10":0.07033517211675644,"11":-0.093207448720932,"12":-0.0817108005285263,"13":0.10914820432662964,"14":-0.11449199914932251,"15":0.14274506270885468,"16":-0.07920148223638535,"17":0.0440465584397316,"18":-0.21522952616214752,"19":0.12651945650577545,"20":-0.028626693412661552,"21":0.08372203260660172,"22":0.22630897164344788,"23":0.11765585094690323,"24":0.3291914165019989,"25":0.07558420300483704,"26":0.04905351251363754,"27":-0.024481764063239098,"28":-0.20197319984436035,"29":-0.3592129945755005,"30":-0.35204753279685974,"31":0.10645636171102524,"32":0.16774915158748627,"33":-0.0287318155169487,"34":0.27777206897735596,"35":0.15723198652267456,"36":0.10702682286500931,"37":-0.17841903865337372,"38":-0.15823093056678772,"39":0.08071903139352798,"40":0.03300276771187782,"41":-0.08157070726156235,"42":0.0486021526157856,"43":0.1546081155538559,"44":0.1401030421257019,"45":0.35234519839286804,"46":0.3546909987926483,"47":0.1390882432460785,"48":0.05694137513637543,"49":-0.04239828139543533,"50":-0.3607288599014282,"51":-0.12542034685611725,"52":-0.0986393615603447,"53":-0.2281397581100464,"54":-0.02896679751574993,"55":0.2115253359079361,"56":-0.029132405295968056,"57":0.3072787821292877,"58":0.25849005579948425,"59":-0.1500670164823532,"60":0.14006295800209045,"61":0.1754254847764969,"62":0.23164255917072296,"63":0.2540576756000519,"64":-0.20224052667617798,"65":-0.15430592000484467,