{"sizes":[120,60,5],"layers":[{"0":{},"1":{},"2":{},"3":{},"4":{},"5":{},"6":{},"7":{},"8":{},"9":{},"10":{},"11":{},"12":{},"13":{},"14":{},"15":{},"16":{},"17":{},"18":{},"19":{},"20":{},"21":{},"22":{},"23":{},"24":{},"25":{},"26":{},"27":{},"28":{},"29":{},"30":{},"31":{},"32":{},"33":{},"34":{},"35":{},"36":{},"37":{},"38":{},"39":{},"40":{},"41":{},"42":{},"43":{},"44":{},"45":{},"46":{},"47":{},"48":{},"49":{},"50":{},"51":{},"52":{},"53":{},"54":{},"55":{},"56":{},"57":{},"58":{},"59":{},"60":{},"61":{},"62":{},"63":{},"64":{},"65":{},"66":{},"67":{},"68":{},"69":{},"70":{},"71":{},"72":{},"73":{},"74":{},"75":{},"76":{},"77":{},"78":{},"79":{},"80":{},"81":{},"82":{},"83":{},"84":{},"85":{},"86":{},"87":{},"88":{},"89":{},"90":{},"91":{},"92":{},"93":{},"94":{},"95":{},"96":{},"97":{},"98":{},"99":{},"100":{},"101":{},"102":{},"103":{},"104":{},"105":{},"106":{},"107":{},"108":{},"109":{},"110":{},"111":{},"112":{},"113":{},"114":{},"115":{},"116":{},"117":{},"118":{},"119":{}},{"0":{"bias":-0.12777237594127655,"weights":{"0":-0.08274838328361511,"1":0.07912079244852066,"2":-0.12502598762512207,"3":0.004790163598954678,"4":0.1959337443113327,"5":0.1430225670337677,"6":-0.1018962413072586,"7":-0.12254995852708817,"8":0.015427798964083195,"9":0.17032983899116516,"10":-0.19474294781684875,"11":0.034456849098205566,"12":-0.003968707285821438,"13":0.05142635107040405,"14":0.10024339705705643,"15":-0.029092110693454742,"16":-0.06058691442012787,"17":0.0747477188706398,"18":0.15266501903533936,"19":0.025342436507344246,"20":0.029566388577222824,"21":0.08710963279008865,"22":-0.13649344444274902,"23":-0.10108625143766403,"24":0.14293739199638367,"25":0.003970753867179155,"26":0.07990282028913498,"27":0.11081583052873611,"28":-0.11285611242055893,"29":-0.053646475076675415,"30":0.1997077614068985,"31":0.14912520349025726,"32":0.21539850533008575,"33":0.03529897332191467,"34":-0.08502824604511261,"35":-0.0868043303489685,"36":-0.05701848492026329,"37":0.010197343304753304,"38":0.02801886759698391,"39":-0.14633607864379883,"40":-0.044024161994457245,"41":-0.10296056419610977,"42":-0.17368006706237793,"43":0.025629986077547073,"44":-0.17933599650859833,"45":0.19218900799751282,"46":-0.020265992730855942,"47":-0.10452654957771301,"48":-0.31474044919013977,"49":-0.2982621192932129,"50":-0.18241073191165924,"51":-0.2912883460521698,"52":-0.04791414737701416,"53":0.22882559895515442,"54":0.2261497974395752,"55":0.5212714076042175,"56":0.08217072486877441,"57":0.1549471616744995,"58":-0.10065408796072006,"59":0.012131144292652607,"60":-0.12227285653352737,"61":-0.04615766555070877,"62":0.12257398664951324,"63":-0.04176227003335953,"64":0.12281927466392517,"65":-0.1706298440694809,"66":0.008063171058893204,"67":-0.10567672550678253,"68":0.14493432641029358,"69":0.12070328742265701,"70":-0.17686636745929718,"71":-0.2433682531118393,"72":0.11325480788946152,"73":-0.22495315968990326,"74":-0.13011376559734344,"75":0.052247319370508194,"76":0.2041168063879013,"77":0.04528988152742386,"78":0.31453707814216614,"79":0.1988404095172882,"80":0.3049370050430298,"81":0.180277019739151,"82":-0.22649867832660675,"83":-0.04419675096869469,"84":-0.17918069660663605,"85":-0.026932360604405403,"86":-0.1964927762746811,"87":-0.19370965659618378,"88":-0.13763044774532318,"89":0.07727570831775665,"90":-0.1877497434616089,"91":0.06391642987728119,"92":0.09310393780469894,"93":0.16608229279518127,"94":-0.14620201289653778,"95":0.11605487763881683,"96":-0.03468255698680878,"97":-0.0017167426412925124,"98":-0.07569209486246109,"99":-0.024278292432427406,"100":-0.1009119302034378,"101":0.12668438255786896,"102":0.02099890075623989,"103":-0.1524980068206787,"104":-0.0010352111421525478,"105":0.024254217743873596,"106":-0.023654205724596977,"107":0.020099028944969177,"108":0.009370534680783749,"109":0.03757752850651741,"110":0.04853883013129234,"111":-0.06738722324371338,"112":-0.017141107469797134,"113":0.033597636967897415,"114":0.14659450948238373,"115":0.1173081174492836,"116":0.17464908957481384,"117":-0.18286997079849243,"118":-0.13529543578624725,"119":-0.05637596920132637}},"1":{"bias":0.05899573862552643,"weights":{"0":0.1917605996131897,"1":-0.08562453091144562,"2":-0.09355077147483826,"3":0.09317463636398315,"4":-0.08794333040714264,"5":0.027042675763368607,"6":0.042445890605449677,"7":0.0018114799167960882,"8":-0.04346168041229248,"9":-0.022039243951439857,"10":0.09077707678079605,"11":-0.11978166550397873,"12":0.056997280567884445,"13":-0.08418676257133484,"14":0.1677578091621399,"15":0.003985016606748104,"16":0.16419318318367004,"17":-0.12071989476680756,"18":-0.0045792958699166775,"19":0.12686513364315033,"20":-0.06870388984680176,"21":0.05201282352209091,"22":0.15653955936431885,"23":-0.12712280452251434,"24":0.15932190418243408,"25":0.1964804232120514,"26":0.1858225166797638,"27":-0.12679335474967957,"28":0.010628992691636086,"29":-0.04521439969539642,"30":0.036577049642801285,"31":0.27778372168540955,"32":0.1372053176164627,"33":0.1502714902162552,"34":0.1568467766046524,"35":-0.12139914929866791,"36":-0.36406055092811584,"37":-0.3132634162902832,"38":-0.23160089552402496,"39":0.082403764128685,"40":0.16965460777282715,"41":0.1567501574754715,"42":-0.0640549585223198,"43":-0.05335544794797897,"44":-0.18298760056495667,"45":0.09140635281801224,"46":-0.15616977214813232,"47":0.06341753900051117,"48":0.11914706230163574,"49":0.2355843484401703,"50":0.052357081323862076,"51":0.144892618060112,"52":0.1231776624917984,"53":0.32347628474235535,"54":0.24487672746181488,"55":0.5647823810577393,"56":0.2079172134399414,"57":0.47063931822776794,"58":-0.13606956601142883,"59":-0.5336955189704895,"60":-0.41141143441200256,"61":-0.3446790277957916,"62":-0.21088573336601257,"63":-0.2342398464679718,"64":-0.27336570620536804,"65":-0.20705074071884155,"66":-0.25091925263404846,"67":-0.08926187455654144,"68":-0.2901967465877533,"69":-0.17394043505191803,"70":0.25984978675842285,"71":0.3281504809856415,"72":0.07387411594390869,"73":-0.008099080063402653,"74":0.2284260094165802,"75":0.1310504823923111,"76":0.36147692799568176,"77":0.4077085852622986,"78":0.2086183726787567,"79":0.19349022209644318,"80":0.20620261132717133,"81":0.09948630630970001,"82":-0.20944970846176147,"83":-0.33952975273132324,"84":0.0841301754117012,"85":-0.17404915392398834,"86":-0.3765310049057007,"87":-0.13089486956596375,"88":-0.18188795447349548,"89":-0.017162971198558807,"90":-0.1543203592300415,"91":-0.13971348106861115,"92":-0.14596037566661835,"93":0.09569232165813446,"94":0.09576732665300369,"95":0.021971900016069412,"96":-0.16324225068092346,"97":-0.08452047407627106,"98":0.11059858649969101,"99":0.17034056782722473,"100":-0.050258997827768326,"101":-0.18309353291988373,"102":0.06375475227832794,"103":-0.15425126254558563,"104":0.1682240217924118,"105":0.18449072539806366,"106":0.18750381469726562,"107":-0.10452848672866821,"108":-0.07278366386890411,"109":-0.041647620499134064,"110":-0.17618048191070557,"111":-0.17472024261951447,"112":-0.040297817438840866,"113":0.08553292602300644,"114":-0.15615221858024597,"115":0.05027851089835167,"116":0.18027007579803467,"117":0.06384328752756119,"118":-0.12376768887042999,"119":0.13966570794582367}},"2":{"bias":-0.17728015780448914,"weights":{"0":0.09381089359521866,"1":0.15736055374145508,"2":0.1883254051208496,"3":-0.13589505851268768,"4":0.026628177613019943,"5":0.04610398784279823,"6":0.10881924629211426,"7":0.08193761855363846,"8":0.11034344881772995,"9":0.1617167890071869,"10":0.11282671242952347,"11":-0.11888236552476883,"12":-0.021516039967536926,"13":-0.07429133355617523,"14":-0.1506367325782776,"15":0.026204824447631836,"16":0.17263911664485931,"17":-0.047846369445323944,"18":0.005372806917876005,"19":0.06169869750738144,"20":0.07983902096748352,"21":0.14558304846286774,"22":0.08275582641363144,"23":0.0020324348006397486,"24":-0.08159726858139038,"25":-0.087464839220047,"26":-0.07199742645025253,"27":-0.07926815003156662,"28":-0.14202600717544556,"29":-0.09335381537675858,"30":0.024385739117860794,"31":0.18056508898735046,"32":0.052869025617837906,"33":-0.1666409969329834,"34":-0.007677461951971054,"35":0.11107075214385986,"36":0.0204972755163908,"37":0.08906136453151703,"38":-0.0300407987087965,"39":0.07085880637168884,"40":0.024131545796990395,"41":0.011340824887156487,"42":-0.1615496128797531,"43":0.07570295035839081,"44":0.17419756948947906,"45":-0.10797448456287384,"46":-0.19858619570732117,"47":-0.16107405722141266,"48":-0.3804160952568054,"49":-0.31863853335380554,"50":-0.29316890239715576,"51":-0.2858794927597046,"52":-0.1966375857591629,"53":0.130467489361763,"54":0.0494927354156971,"55":0.05766760930418968,"56":-0.15438547730445862,"57":0.13930977880954742,"58":0.20593367516994476,"59":0.3798747956752777,"60":0.1670137494802475,"61":0.15736573934555054,"62":0.1593678891658783,"63":-0.049854859709739685,"64":-0.06381228566169739,"65":0.24524469673633575,"66":0.22245089709758759,"67":-0.0680183470249176,"68":0.25995784997940063,"69":-0.11552836000919342,"70":0.05609510838985443,"71":-0.24723942577838898,"72":-0.11179988831281662,"73":0.043536022305488586,"74":-0.20441733300685883,"75":-0.28772997856140137,"76":0.07329822331666946,"77":0.09062954783439636,"78":0.1991875022649765,"79":-0.00907060969620943,"80":-0.07649505138397217,"81":0.11663112044334412,"82":0.11882230639457703,"83":0.2081652581691742,"84":0.06704919785261154,"85":0.2624935209751129,"86":0.24163202941417694,"87":0.24903032183647156,"88":-0.026365693658590317,"89":0.02719234861433506,"90":0.031049443408846855,"91":0.11353256553411484,"92":-0.0654543936252594,"93":-0.03119252622127533,"94":-0.17561620473861694,"95":-0.19803385436534882,"96":-0.1744384616613388,"97":0.1570395827293396,"98":-0.0028587172273546457,"99":0.036211490631103516,"100":0.013027423061430454,"101":0.1231478750705719,"102":-0.07622022926807404,"103":-0.047618765383958817,"104":-0.01007081102579832,"105":-0.15068364143371582,"106":0.1936599463224411,"107":-0.17544762790203094,"108":-0.0006376588717103004,"109":0.1237359419465065,"110":-0.11828310787677765,"111":-0.11320722848176956,"112":0.19186729192733765,"113":-0.04555556923151016,"114":0.05725995451211929,"115":0.03144039958715439,"116":0.0406729057431221,"117":-0.020319534465670586,"118":0.15789617598056793,"119":0.13913877308368683}},"3":{"bias":-0.1325623095035553,"weights":{"0":0.12880659103393555,"1":-0.16588455438613892,"2":-0.011998990550637245,"3":-0.1497388482093811,"4":0.18038995563983917,"5":-0.131435364484787,"6":-0.028953110799193382,"7":0.19767247140407562,"8":-0.09146326780319214,"9":-0.09870739281177521,"10":-0.047334954142570496,"11":-0.17394138872623444,"12":-0.19591481983661652,"13":-0.0089370496571064,"14":-0.14821504056453705,"15":-0.14962513744831085,"16":0.1325644999742508,"17":-0.03958209976553917,"18":0.17653390765190125,"19":-0.10078646242618561,"20":0.05100026726722717,"21":0.19559454917907715,"22":-0.12267469614744186,"23":0.15420818328857422,"24":-0.005135527811944485,"25":0.13549010455608368,"26":-0.1424693465232849,"27":0.0637112557888031,"28":0.11666852235794067,"29":0.19250471889972687,"30":0.22909614443778992,"31":0.13454625010490417,"32":0.26829174160957336,"33":0.12954506278038025,"34":-0.09473337233066559,"35":-0.03068823367357254,"36":-0.03573637083172798,"37":-0.19637860357761383,"38":0.056177083402872086,"39":-0.039572618901729584,"40":0.05542054399847984,"41":0.10157987475395203,"42":0.08394499868154526,"43":0.18340609967708588,"44":0.025986770167946815,"45":0.001838073250837624,"46":0.09170670062303543,"47":0.008371017873287201,"48":-0.1358804553747177,"49":0.06806116551160812,"50":-0.019752468913793564,"51":0.12078134715557098,"52":0.15715515613555908,"53":0.39143455028533936,"54":0.21479788422584534,"55":0.6121852397918701,"56":0.20363175868988037,"57":0.4049673080444336,"58":-0.10767622292041779,"59":-0.45896443724632263,"60":-0.4053977131843567,"61":-0.35509106516838074,"62":-0.34171828627586365,"63":-0.16079162061214447,"64":0.0739622488617897,"65":0.15020103752613068,"66":0.24369408190250397,"67":0.18281151354312897,"68":0.06320855021476746,"69":0.07074836641550064,"70":-0.1617872714996338,"71":0.1451033651828766,"72":-0.002257006475701928,"73":0.05503130331635475,"74":-0.11418052017688751,"75":0.1366172730922699,"76":0.33560919761657715,"77":0.3048195242881775,"78":0.2591533958911896,"79":0.27348485589027405,"80":0.18901051580905914,"81":0.0019680375698953867,"82":-0.26100850105285645,"83":-0.3476007282733917,"84":0.10602161288261414,"85":-0.3603227138519287,"86":-0.41516146063804626,"87":0.130874365568161,"88":0.2523764371871948,"89":0.014330718666315079,"90":0.19212280213832855,"91":0.09089843183755875,"92":0.1069965586066246,"93":0.12746380269527435,"94":0.17879633605480194,"95":-0.03598366677761078,"96":0.020069561898708344,"97":0.08393361419439316,"98":-0.17484308779239655,"99":0.12872463464736938,"100":0.072531558573246,"101":0.042181383818387985,"102":0.06365536153316498,"103":0.06331537663936615,"104":0.031616996973752975,"105":-0.19394876062870026,"106":0.04570001736283302,"107":0.0163353830575943,"108":0.07867475599050522,"109":0.14033596217632294,"110":-0.09927353262901306,"111":0.032832615077495575,"112":-0.181261345744133,"113":0.15903900563716888,"114":0.06458932906389236,"115":-0.17731784284114838,"116":-0.1741180270910263,"117":0.19823122024536133,"118":0.1270867884159088,"119":0.13350792229175568}},"4":{"bias":0.23031696677207947,"weights":{"0":0.016019700095057487,"1":-0.17802192270755768,"2":0.1274799257516861,"3":0.1492665857076645,"4":-0.09816578775644302,"5":0.15799935162067413,"6":0.09940572082996368,"7":0.0023781226482242346,"8":0.023209676146507263,"9":0.15782761573791504,"10":-0.11495447903871536,"11":0.12317168712615967,"12":-0.14288794994354248,"13":0.12035991996526718,"14":-0.08337965607643127,"15":0.07901927828788757,"16":-0.023885823786258698,"17":-0.0894617810845375,"18":0.04399031028151512,"19":-0.1434173434972763,"20":-0.06361840665340424,"21":-0.1842000037431717,"22":0.19064249098300934,"23":0.15892070531845093,"24":-0.28625571727752686,"25":-0.04891158267855644,"26":-0.2948901951313019,"27":-0.10568026453256607,"28":-0.15578165650367737,"29":-0.05320531502366066,"30":0.03214820474386215,"31":-0.27199268341064453,"32":-0.20531006157398224,"33":-0.09071321785449982,"34":-0.037112582474946976,"35":0.016814958304166794,"36":-0.31864988803863525,"37":0.02150670997798443,"38":0.08538021892309189,"39":-0.17571426928043365,"40":0.08718807995319366,"41":0.17367517948150635,"42":0.054190024733543396,"43":-0.20043475925922394,"44":-0.05518706887960434,"45":-0.03852709382772446,"46":-0.1996571272611618,"47":-0.2031872272491455,"48":-0.5091923475265503,"49":-0.2505491375923157,"50":-0.3207418918609619,"51":-0.36744579672813416,"52":-0.08233349025249481,"53":-0.3584606349468231,"54":-0.24824810028076172,"55":-0.3212496042251587,"56":-0.09750187397003174,"57":-0.25315529108047485,"58":-0.029289692640304565,"59":-0.21802321076393127,"60":-0.2642199397087097,"61":-0.19599179923534393,"62":-0.14287668466567993,"63":0.11013136059045792,"64":-0.1257694512605667,"65":-0.2634958326816559,"66":-0.3709341883659363,"67":-0.2894527316093445,"68":0.01351065281778574,"69":-0.10377352684736252,"70":-0.20777888596057892,"71":-0.36451417207717896,"72":-0.15127094089984894,"73":0.019493762403726578,"74":-0.32962459325790405,"75":-0.2847784459590912,"76":-0.2964309751987457,"77":-0.03151587396860123,"78":-0.0851132869720459,"79":-0.252808153629303,"80":-0.18869619071483612,"81":-0.15689606964588165,"82":-0.01893853209912777,"83":-0.34617096185684204,"84":-0.1755802035331726,"85":-0.23732887208461761,"86":-0.1350620985031128,"87":-0.3745984733104706,"88":-0.12464167922735214,"89":-0.2794843912124634,"90":-0.11670135706663132,"91":-0.0878433808684349,"92":-0.19232794642448425,"93":-0.04409998655319214,"94":-0.15356692671775818,"95":-0.18465971946716309,"96":-0.18962019681930542,"97":0.03530140966176987,"98":-0.18205960094928741,"99":-0.0526011623442173,"100":0.11561334878206253,"101":-0.09421804547309875,"102":0.17550449073314667,"103":0.01084972731769085,"104":-0.14598320424556732,"105":-0.03011937439441681,"106":0.1640690565109253,"107":-0.048170894384384155,"108":0.039840225130319595,"109":0.07383384555578232,"110":0.022882111370563507,"111":0.014062870293855667,"112":-0.038622643798589706,"113":-0.12007100880146027,"114":-0.13549745082855225,"115":-0.12406653165817261,"116":0.015225006267428398,"117":0.007895645685493946,"118":-0.09046126902103424,"119":-0.16001109778881073}},"5":{"bias":-0.1300635188817978,"weights":{"0":-0.10632231831550598,"1":0.11789924651384354,"2":-0.19509275257587433,"3":0.13381363451480865,"4":0.09049813449382782,"5":-0.043505214154720306,"6":-0.018711009994149208,"7":-0.05142553895711899,"8":-0.1164422407746315,"9":0.1437794715166092,"10":0.006532398983836174,"11":0.03481808304786682,"12":-0.17040495574474335,"13":0.046683114022016525,"14":0.19764719903469086,"15":0.0858062133193016,"16":0.05714545398950577,"17":-0.09247829765081406,"18":-0.19457748532295227,"19":-0.05806915462017059,"20":-0.19557979702949524,"21":0.19538643956184387,"22":0.15755824744701385,"23":-0.20215670764446259,"24":-0.2318553328514099,"25":-0.20136022567749023,"26":-0.005489083472639322,"27":-0.2124280035495758,"28":-0.07660491019487381,"29":-0.04061378538608551,"30":-0.05222729593515396,"31":-0.060778889805078506,"32":-0.2359270602464676,"33":0.08138219267129898,"34":0.09795469045639038,"35":-0.12815618515014648,"36":0.011219318956136703,"37":0.13524389266967773,"38":0.14271020889282227,"39":-0.015960460528731346,"40":-0.06445778906345367,"41":-0.09086161851882935,"42":-0.0721045508980751,"43":-0.004993160720914602,"44":-0.061209362000226974,"45":-0.1267898678779602,"46":-0.00926336832344532,"47":-0.18644064664840698,"48":-0.19882921874523163,"49":-0.18045692145824432,"50":-0.32092368602752686,"51":0.06063007190823555,"52":-0.24353963136672974,"53":-0.13173292577266693,"54":-0.20347848534584045,"55":-0.3036152720451355,"56":0.003267877735197544,"57":-0.33553627133369446,"58":0.016875922679901123,"59":0.07875044643878937,"60":0.07383419573307037,"61":0.03424304351210594,"62":0.03300695866346359,"63":-0.06763353198766708,"64":0.06669057160615921,"65":0.3558926284313202,"66":0.2451283186674118,"67":0.26071861386299133,"68":0.044409457594156265,"69":0.04503170773386955,"70":-0.1534319669008255,"71":0.05121307820081711,"72":-0.005583012942224741,"73":0.1020333468914032,"74":-0.08190125226974487,"75":0.10406914353370667,"76":-0.24801376461982727,"77":-0.06340666860342026,"78":-0.06540326029062271,"79":-0.0379319004714489,"80":0.005648445803672075,"81":-0.14838524162769318,"82":0.21476073563098907,"83":0.17110218107700348,"84":0.05434305965900421,"85":-0.07338666170835495,"86":0.04274813085794449,"87":0.2202209234237671,"88":0.18257716298103333,"89":0.2356092631816864,"90":-0.14023832976818085,"91":-0.010355954989790916,"92":0.10391507297754288,"93":-0.058308713138103485,"94":-0.13453887403011322,"95":-0.045433614403009415,"96":-0.16469204425811768,"97":0.02075405791401863,"98":-0.1882237195968628,"99":-0.18876652419567108,"100":0.10737218707799911,"101":0.09921064227819443,"102":0.1369066685438156,"103":-0.015045936219394207,"104":0.10519733279943466,"105":0.07969749718904495,"106":0.18558135628700256,"107":0.12358324974775314,"108":-0.12962521612644196,"109":0.06383197009563446,"110":0.21070948243141174,"111":-0.11026827245950699,"112":0.1685124784708023,"113":-0.05303816497325897,"114":0.00818833988159895,"115":0.08043372631072998,"116":-0.13173489272594452,"117":0.0010549024445936084,"118":-0.019828325137495995,"119":-0.19253039360046387}},"6":{"bias":-0.1202598363161087,"weights":{"0":0.06168797239661217,"1":0.08408235758543015,"2":0.017172599211335182,"3":0.055596258491277695,"4":-0.07038921117782593,"5":-0.004635415505617857,"6":-0.07938185334205627,"7":0.11084951460361481,"8":0.04574689269065857,"9":0.08715013414621353,"10":-0.052304208278656006,"11":-0.17875657975673676,"12":-0.11483728885650635,"13":0.14203979074954987,"14":0.05106325075030327,"15":0.017437683418393135,"16":0.08966311812400818,"17":0.09399637579917908,"18":-0.0003801103448495269,"19":0.12581272423267365,"20":-0.0029638202395290136,"21":-0.12802931666374207,"22":-0.16097737848758698,"23":0.02231009118258953,"24":-0.11122935265302658,"25":-0.2695853114128113,"26":-0.1706891506910324,"27":-0.2093849778175354,"28":-0.025177791714668274,"29":-0.07616815716028214,"30":0.22755464911460876,"31":0.03289979696273804,"32":0.15093450248241425,"33":-0.032539840787649155,"34":0.07729840278625488,"35":-0.1288139969110489,"36":0.23704864084720612,"37":-0.0062645310536026955,"38":0.24387384951114655,"39":-0.18259185552597046,"40":0.07718560099601746,"41":0.17772500216960907,"42":-0.07065343856811523,"43":0.0385579876601696,"44":-0.09237540513277054,"45":-0.1553693562746048,"46":-0.05387108400464058,"47":0.08342625200748444,"48":-0.24021348357200623,"49":-0.34347665309906006,"50":-0.24423342943191528,"51":-0.267406702041626,"52":0.17679284512996674,"53":0.05797535181045532,"54":0.3860108256340027,"55":0.10224585980176926,"56":0.05402589961886406,"57":0.16660551726818085,"58":0.22425851225852966,"59":0.08840546756982803,"60":0.4218290150165558,"61":0.062381137162446976,"62":0.15845292806625366,"63":0.11500200629234314,"64":0.12862545251846313,"65":-0.1604212075471878,"66":-0.0008100082050077617,"67":0.06847625970840454,"68":0.014394775032997131,"69":-0.15626069903373718,"70":0.09000314772129059,"71":0.03465728089213371,"72":0.037543509155511856,"73":0.08907590806484222,"74":-0.22274751961231232,"75":-0.01882758177816868,"76":0.0530741922557354,"77":0.0973973423242569,"78":0.20600248873233795,"79":0.02271312288939953,"80":0.0718555673956871,"81":0.23471689224243164,"82":0.2722947895526886,"83":0.03351582959294319,"84":-0.06893224269151688,"85":0.2366216629743576,"86":0.08357612043619156,"87":0.04248753935098648,"88":0.007705810014158487,"89":0.12182421237230301,"90":0.044587526470422745,"91":-0.04573452100157738,"92":0.08171060681343079,"93":0.09509125351905823,"94":-0.08209598809480667,"95":-0.13000056147575378,"96":0.11929606646299362,"97":-0.1333990842103958,"98":-0.11880160868167877,"99":0.2073865383863449,"100":-0.014876915141940117,"101":0.18109957873821259,"102":0.06099248304963112,"103":-0.037457212805747986,"104":0.13084760308265686,"105":0.13283507525920868,"106":-0.06870877742767334,"107":0.0943215936422348,"108":0.019682161509990692,"109":-0.16597723960876465,"110":0.009358922019600868,"111":0.1235843077301979,"112":0.1306169331073761,"113":-0.07260739803314209,"114":-0.1965533047914505,"115":0.015122516080737114,"116":0.07460898905992508,"117":-0.16433076560497284,"118":-0.16949231922626495,"119":-0.011212802492082119}},"7":{"bias":0.13854685425758362,"weights":{"0":0.0729822963476181,"1":-0.06707559525966644,"2":0.16655270755290985,"3":0.16538603603839874,"4":0.1520530730485916,"5":-0.15326236188411713,"6":-0.03776021674275398,"7":-0.14075446128845215,"8":-0.15115003287792206,"9":-0.008341480046510696,"10":0.16652143001556396,"11":0.030111508443951607,"12":0.04482099786400795,"13":-0.05785088986158371,"14":-0.15722210705280304,"15":-0.1584545224905014,"16":-0.04417744278907776,"17":0.1243675947189331,"18":0.03944632038474083,"19":-0.1682962328195572,"20":0.11819516867399216,"21":0.02730531059205532,"22":-0.13481925427913666,"23":0.02431383728981018,"24":-0.1248898059129715,"25":-0.25172510743141174,"26":-0.23112735152244568,"27":0.0073504154570400715,"28":-0.07459267973899841,"29":0.07970207184553146,"30":-0.0636768564581871,"31":0.09981221705675125,"32":-0.1549665480852127,"33":-0.005926875863224268,"34":0.09390342235565186,"35":-0.028534578159451485,"36":-0.3041558265686035,"37":-0.21054217219352722,"38":-0.04136586934328079,"39":0.12140195071697235,"40":-0.18701289594173431,"41":0.1888355016708374,"42":-0.17691820859909058,"43":-0.0643504410982132,"44":0.09619425982236862,"45":-0.07624158263206482,"46":-0.013676222413778305,"47":-0.30562928318977356,"48":-0.2667675018310547,"49":-0.3655383586883545,"50":-0.30157187581062317,"51":-0.042264021933078766,"52":0.07710634917020798,"53":-0.06768636405467987,"54":-0.13009001314640045,"55":-0.18306758999824524,"56":0.028070690110325813,"57":-0.13210777938365936,"58":0.03271278738975525,"59":-0.030653588473796844,"60":-0.11155382543802261,"61":-0.3859625458717346,"62":-0.07433272898197174,"63":0.09327590465545654,"64":0.15872375667095184,"65":0.07775493711233139,"66":0.1299138069152832,"67":0.037630412727594376,"68":0.14127789437770844,"69":-0.10955948382616043,"70":-0.17204070091247559,"71":-0.04047513008117676,"72":-0.1928938329219818,"73":-0.04563340172171593,"74":0.014281422831118107,"75":0.045507412403821945,"76":0.002339745871722698,"77":0.11569864302873611,"78":0.03160994127392769,"79":-0.16253802180290222,"80":0.07255149632692337,"81":-0.050973985344171524,"82":0.0025296639651060104,"83":-0.26148563623428345,"84":0.016594452783465385,"85":-0.27187687158584595,"86":-0.24406109750270844,"87":-0.14000795781612396,"88":-0.027349766343832016,"89":0.14000406861305237,"90":-0.16019673645496368,"91":0.13028264045715332,"92":0.11073838919401169,"93":-0.22175346314907074,"94":0.09467045962810516,"95":0.005207702983170748,"96":0.15869638323783875,"97":-0.04388641193509102,"98":0.10657120496034622,"99":-0.0629272535443306,"100":-0.02413242869079113,"101":-0.06853143125772476,"102":-0.09964995831251144,"103":-0.1386251300573349,"104":-0.1308644562959671,"105":0.15111517906188965,"106":0.07468261569738388,"107":0.0721498429775238,"108":-0.08834265917539597,"109":0.16608843207359314,"110":0.17224489152431488,"111":-0.037957098335027695,"112":0.011013608425855637,"113":0.15236397087574005,"114":0.09750284254550934,"115":0.024419013410806656,"116":-0.13091985881328583,"117":-0.19233249127864838,"118":0.08327160775661469,"119":0.0704626590013504}},"8":{"bias":0.1637413650751114,"weights":{"0":-0.024031473323702812,"1":0.005660735536366701,"2":-0.055700335651636124,"3":-0.026228420436382294,"4":-0.12606507539749146,"5":0.16021080315113068,"6":0.18786261975765228,"7":-0.11417088657617569,"8":-0.1872129589319229,"9":0.018106428906321526,"10":-0.06366337835788727,"11":-0.08101622760295868,"12":-0.11580111086368561,"13":0.1479804962873459,"14":-0.11537405848503113,"15":0.18434283137321472,"16":0.010679353959858418,"17":-0.04251507669687271,"18":0.16974039375782013,"19":0.14523395895957947,"20":0.04609827324748039,"21":-0.1698596030473709,"22":-0.09706763178110123,"23":-0.10482362657785416,"24":-0.02442109026014805,"25":0.1799042969942093,"26":0.0221452247351408,"27":0.22839970886707306,"28":-0.05875679478049278,"29":0.11512774229049683,"30":-0.15302841365337372,"31":-0.10450627654790878,"32":-0.28803306818008423,"33":-0.10754763334989548,"34":0.08187630772590637,"35":-0.24491474032402039,"36":-0.20499321818351746,"37":-0.1964564323425293,"38":0.039265263825654984,"39":0.03403161093592644,"40":-0.15043936669826508,"41":0.14679327607154846,"42":0.12321972101926804,"43":-0.0723763257265091,"44":0.14421114325523376,"45":-0.020304445177316666,"46":0.18171964585781097,"47":0.31168168783187866,"48":0.2188904732465744,"49":0.37168392539024353,"50":0.2546555995941162,"51":-0.03952576592564583,"52":-0.05078192427754402,"53":-0.2921387255191803,"54":-0.30990856885910034,"55":-0.4378865361213684,"56":-0.15109139680862427,"57":-0.4153306186199188,"58":-0.3457396924495697,"59":-0.2523705065250397,"60":-0.222090482711792,"61":-0.3282659947872162,"62":-0.30880093574523926,"63":-0.10414376854896545,"64":0.12110606580972672,"65":0.3972020149230957,"66":0.035877522081136703,"67":0.0732802078127861,"68":0.017526663839817047,"69":-0.1856812983751297,"70":0.1284087598323822,"71":0.023431137204170227,"72":0.14259159564971924,"73":0.006339816376566887,"74":-0.021835004910826683,"75":0.0875113308429718,"76":-0.26992422342300415,"77":-0.30420827865600586,"78":-0.29629719257354736,"79":-0.3126334846019745,"80":-0.26589834690093994,"81":-0.17348448932170868,"82":-0.09724638611078262,"83":-0.16453762352466583,"84":0.05420316755771637,"85":-0.31610849499702454,"86":-0.2638215720653534,"87":-0.08395491540431976,"88":0.40317338705062866,"89":0.1278383880853653,"90":0.0571708083152771,"91":0.1948051005601883,"92":0.02841748110949993,"93":-0.10669826716184616,"94":0.2214483916759491,"95":-0.016255268827080727,"96":-0.14281758666038513,"97":-0.1322346031665802,"98":-0.03219836205244064,"99":-0.1674046814441681,"100":0.04108111560344696,"101":0.07768134772777557,"102":0.027385182678699493,"103":0.1941860169172287,"104":-0.01994548924267292,"105":-0.052228208631277084,"106":-0.014149070717394352,"107":-0.18206405639648438,"108":-0.15615078806877136,"109":-0.13969145715236664,"110":0.12539757788181305,"111":-0.1509537398815155,"112":0.07532741129398346,"113":-0.16368310153484344,"114":0.09691246598958969,"115":0.18065525591373444,"116":-0.04043952748179436,"117":-0.1793876588344574,"118":-0.08270637691020966,"119":0.08345787227153778}},"9":{"bias":0.21211554110050201,"weights":{"0":0.14036457240581512,"1":-0.029414594173431396,"2":0.15601837635040283,"3":-0.058837324380874634,"4":0.07190347462892532,"5":0.18148858845233917,"6":-0.18287593126296997,"7":0.09263922274112701,"8":-0.02537132427096367,"9":-0.17792536318302155,"10":-0.007014137227088213,"11":0.15022718906402588,"12":-0.14735890924930573,"13":0.1260158270597458,"14":-0.14666974544525146,"15":0.18790237605571747,"16":-0.19974671304225922,"17":-0.020256252959370613,"18":-0.03600334748625755,"19":-0.04200031980872154,"20":0.004504454787820578,"21":-0.1950373649597168,"22":-0.1314445436000824,"23":-0.055465761572122574,"24":0.04547867551445961,"25":0.05986976623535156,"26":-0.10603921860456467,"27":-0.003732688259333372,"28":0.15431582927703857,"29":0.0019001755863428116,"30":-0.192057803273201,"31":-0.10923507809638977,"32":-0.11037546396255493,"33":-0.08790835738182068,"34":-0.13528458774089813,"35":0.07321862131357193,"36":-0.356197714805603,"37":-0.24835455417633057,"38":0.06423194706439972,"39":-0.1177355945110321,"40":-0.14245381951332092,"41":0.09323441237211227,"42":0.021504634991288185,"43":-0.05332702025771141,"44":-0.09749465435743332,"45":-0.10099180042743683,"46":-0.17336122691631317,"47":0.13608267903327942,"48":-0.15308597683906555,"49":-0.1755884736776352,"50":-0.08569405972957611,"51":0.14686135947704315,"52":-0.18881554901599884,"53":-0.011735161766409874,"54":-0.23358549177646637,"55":-0.30782580375671387,"56":-0.35654670000076294,"57":-0.01763118803501129,"58":-0.22410887479782104,"59":-0.4590706527233124,"60":-0.3576551377773285,"61":-0.5527088642120361,"62":-0.30455833673477173,"63":0.048867035657167435,"64":-0.30026641488075256,"65":-0.3280937373638153,"66":-0.4467168152332306,"67":-0.08472264558076859,"68":-0.16762536764144897,"69":-0.1543620228767395,"70":0.14088594913482666,"71":-0.12719453871250153,"72":0.021747367456555367,"73":0.05592476204037666,"74":-0.21753886342048645,"75":-0.017663290724158287,"76":-0.29446786642074585,"77":-0.25521120429039,"78":-0.14013493061065674,"79":0.05671333894133568,"80":-0.14380796253681183,"81":-0.07458630204200745,"82":-0.27485141158103943,"83":-0.24846023321151733,"84":0.1515754610300064,"85":-0.27086901664733887,"86":-0.06796925514936447,"87":-0.20330950617790222,"88":-0.4196665585041046,"89":-0.19486567378044128,"90":-0.23307810723781586,"91":-0.20873868465423584,"92":-0.3913588523864746,"93":0.14437639713287354,"94":-0.14204257726669312,"95":0.10153713077306747,"96":0.05153603106737137,"97":-0.152980774641037,"98":-0.004455613438040018,"99":-0.20754839479923248,"100":-0.23379629850387573,"101":0.02754751779139042,"102":-0.10234507918357849,"103":-0.06454351544380188,"104":-0.15514250099658966,"105":0.10615584254264832,"106":0.04526422172784805,"107":0.12271466106176376,"108":0.16273818910121918,"109":0.001703712623566389,"110":-0.21942684054374695,"111":-0.2143855094909668,"112":-0.06561489403247833,"113":0.050325796008110046,"114":-0.02104082703590393,"115":-0.12267205119132996,"116":0.08904585242271423,"117":0.08998843282461166,"118":-0.0766359269618988,"119":0.1726459115743637}},"10":{"bias":0.22363613545894623,"weights":{"0":0.06692967563867569,"1":0.015147920697927475,"2":-0.021718624979257584,"3":0.10496073961257935,"4":0.027613889425992966,"5":-0.0056452639400959015,"6":0.15136900544166565,"7":-0.0946410670876503,"8":-0.1709040254354477,"9":-0.13998353481292725,"10":-0.11544312536716461,"11":-0.009965972043573856,"12":-0.19750259816646576,"13":-0.13405756652355194,"14":0.10835754126310349,"15":0.07456707209348679,"16":-0.1906745582818985,"17":-0.01988888345658779,"18":0.03848022222518921,"19":0.1755179911851883,"20":-0.019202034920454025,"21":0.19807069003582,"22":0.10633043199777603,"23":-0.06483275443315506,"24":-0.14700759947299957,"25":-0.30849266052246094,"26":-0.34471234679222107,"27":-0.12003475427627563,"28":-0.19408370554447174,"29":0.21164309978485107,"30":0.2348150908946991,"31":0.2151087075471878,"32":0.10569924861192703,"33":-0.08540056645870209,"34":-0.07175114750862122,"35":0.060947176069021225,"36":-0.012313948944211006,"37":0.08369435369968414,"38":-0.07583785057067871,"39":0.18418096005916595,"40":0.18531565368175507,"41":-0.17308975756168365,"42":0.14363810420036316,"43":-0.19192840158939362,"44":-0.08292184770107269,"45":0.19358867406845093,"46":-0.19952872395515442,"47":-0.2171260565519333,"48":-0.371504008769989,"49":-0.5670178532600403,"50":-0.293771356344223,"51":-0.22531504929065704,"52":-0.15326648950576782,"53":0.14451433718204498,"54":0.25794440507888794,"55":0.4346553683280945,"56":0.03291977196931839,"57":0.036879364401102066,"58":0.07428309321403503,"59":-0.1157781332731247,"60":0.00868916790932417,"61":0.027578094974160194,"62":0.08890800178050995,"63":0.07727520167827606,"64":-0.09205114841461182,"65":-0.13766559958457947,"66":-0.2906135320663452,"67":-0.021301820874214172,"68":-0.14269427955150604,"69":0.1280197948217392,"70":-0.1595236361026764,"71":-0.4538789689540863,"72":-0.26674389839172363,"73":-0.2656339704990387,"74":-0.3337896764278412,"75":-0.12553979456424713,"76":0.217086061835289,"77":0.20484429597854614,"78":0.12215666472911835,"79":0.28196918964385986,"80":0.14540427923202515,"81":0.05308142676949501,"82":-0.08147875964641571,"83":0.141117125749588,"84":0.0986153781414032,"85":-0.15359339118003845,"86":-0.06960302591323853,"87":-0.18099969625473022,"88":-0.3098706603050232,"89":-0.2502817213535309,"90":0.0818309336900711,"91":-0.21633800864219666,"92":-0.19731011986732483,"93":-0.17795637249946594,"94":-0.03188740089535713,"95":-0.09687358140945435,"96":-0.10739738494157791,"97":-0.1740552932024002,"98":0.19075416028499603,"99":-0.027364667505025864,"100":0.1022973284125328,"101":-0.09361615031957626,"102":0.16423749923706055,"103":-0.07733570784330368,"104":0.16558979451656342,"105":0.05754099041223526,"106":0.038788072764873505,"107":-0.10739606618881226,"108":0.05451974645256996,"109":0.07921615242958069,"110":0.03560175001621246,"111":0.15083321928977966,"112":-0.05787160247564316,"113":-0.1708313375711441,"114":-0.19587118923664093,"115":-0.09638749808073044,"116":-0.008332858793437481,"117":0.18857714533805847,"118":-0.002401256700977683,"119":-0.10380586236715317}},"11":{"bias":0.08687543123960495,"weights":{"0":0.015485512092709541,"1":-0.12068552523851395,"2":-0.0005754576995968819,"3":-0.037671856582164764,"4":0.14847326278686523,"5":-0.16305828094482422,"6":-0.16630207002162933,"7":0.1351863443851471,"8":-0.03925963118672371,"9":0.012388959527015686,"10":0.16341033577919006,"11":-0.002651019487529993,"12":-0.08560236543416977,"13":-0.05766966566443443,"14":0.10379627346992493,"15":-0.0016859109746292233,"16":-0.11645190417766571,"17":-0.10702040046453476,"18":0.09936636686325073,"19":0.179952934384346,"20":-0.085509292781353,"21":0.03251411020755768,"22":0.005032097455114126,"23":-0.1618269383907318,"24":-0.07096491754055023,"25":-0.2270016074180603,"26":-0.2848256230354309,"27":0.0974368304014206,"28":-0.16168996691703796,"29":-0.1855960637331009,"30":0.09386829286813736,"31":-0.2156720757484436,"32":-0.04177701100707054,"33":0.02623746730387211,"34":-0.030895069241523743,"35":0.1438654512166977,"36":0.0930686965584755,"37":-0.036634624004364014,"38":-0.0015619269106537104,"39":0.03740093857049942,"40":-0.0664292722940445,"41":0.02316373586654663,"42":-0.22175166010856628,"43":-0.08288668096065521,"44":-0.12506061792373657,"45":0.0676037147641182,"46":0.15747831761837006,"47":-0.28515854477882385,"48":-0.45445701479911804,"49":-0.5134885311126709,"50":-0.33790311217308044,"51":-0.09904874861240387,"52":-0.23870129883289337,"53":-0.1724557876586914,"54":-0.3094530701637268,"55":-0.32684528827667236,"56":-0.029792848974466324,"57":-0.1236322745680809,"58":-0.1367226541042328,"59":0.04523696005344391,"60":-0.3023630678653717,"61":-0.1981608271598816,"62":-0.07722567766904831,"63":-0.18540625274181366,"64":-0.18337099254131317,"65":-0.24322989583015442,"66":0.015346973203122616,"67":-0.28215476870536804,"68":-0.2802615165710449,"69":0.19283327460289001,"70":-0.12177815288305283,"71":-0.3943994343280792,"72":-0.3213384747505188,"73":-0.08470278233289719,"74":-0.12090994417667389,"75":-0.2384510338306427,"76":-0.03825044259428978,"77":-0.14124995470046997,"78":0.0795077383518219,"79":0.12680451571941376,"80":-0.2555769085884094,"81":-0.02243572287261486,"82":-0.01898355223238468,"83":-0.00043744512367993593,"84":-0.02392101101577282,"85":0.013894499279558659,"86":-0.09516633301973343,"87":-0.14610300958156586,"88":-0.14395710825920105,"89":-0.11485122889280319,"90":-0.04350036755204201,"91":-0.021648595109581947,"92":0.05540822446346283,"93":-0.19104771316051483,"94":-0.12349335849285126,"95":-0.16000761091709137,"96":-0.046124763786792755,"97":-0.026694737374782562,"98":0.14200888574123383,"99":0.019873401150107384,"100":-0.06467673182487488,"101":0.04608580097556114,"102":-0.0707327350974083,"103":0.13735748827457428,"104":0.06862857192754745,"105":-0.09055516868829727,"106":0.08326727896928787,"107":0.05823107808828354,"108":0.15967050194740295,"109":0.13707824051380157,"110":0.07626913487911224,"111":-0.07122721523046494,"112":0.04089203104376793,"113":-0.1110876202583313,"114":0.16497953236103058,"115":-0.08710533380508423,"116":0.01270641852170229,"117":-0.11316894739866257,"118":-0.11559965461492538,"119":0.11290494352579117}},"12":{"bias":-0.21350258588790894,"weights":{"0":-0.07757679373025894,"1":-0.18745581805706024,"2":0.19143281877040863,"3":-0.1054784432053566,"4":-0.11595849692821503,"5":-0.08406966179609299,"6":0.1691613793373108,"7":-0.16840006411075592,"8":0.14975550770759583,"9":0.1910151243209839,"10":-0.038528621196746826,"11":0.027208499610424042,"12":-0.01740964874625206,"13":0.19750885665416718,"14":-0.0638064295053482,"15":-0.052198026329278946,"16":0.14894455671310425,"17":0.0647766962647438,"18":-0.19855526089668274,"19":0.0991709977388382,"20":0.17847463488578796,"21":-0.06132541596889496,"22":-0.059026770293712616,"23":0.15706036984920502,"24":0.13406303524971008,"25":0.09746165573596954,"26":-0.1951926350593567,"27":-0.14683879911899567,"28":0.020622560754418373,"29":-0.1589038074016571,"30":-0.15649668872356415,"31":-0.07151805609464645,"32":0.09080744534730911,"33":0.17839066684246063,"34":0.13335305452346802,"35":-0.02444862760603428,"36":-0.005083020776510239,"37":0.1658717542886734,"38":0.1418043076992035,"39":-0.1794852316379547,"40":0.08935711532831192,"41":-0.12070687860250473,"42":-0.012704402208328247,"43":0.1734962910413742,"44":0.1491502970457077,"45":-0.01804630272090435,"46":-0.06477738916873932,"47":0.06687656790018082,"48":-0.053827475756406784,"49":-0.13091258704662323,"50":-0.001870144042186439,"51":-0.1075957864522934,"52":-0.047541294246912,"53":-0.2885436713695526,"54":0.027319177985191345,"55":-0.24520117044448853,"56":-0.1628393679857254,"57":-0.21442781388759613,"58":0.032328955829143524,"59":0.04118558019399643,"60":0.08972010016441345,"61":-0.011681562289595604,"62":0.04012805595993996,"63":0.13225165009498596,"64":0.34380316734313965,"65":0.21049299836158752,"66":0.3831246495246887,"67":0.30195125937461853,"68":0.1981879323720932,"69":0.005875121336430311,"70":-0.019836658611893654,"71":-0.03607414662837982,"72":0.1071782037615776,"73":-0.20514482259750366,"74":-0.17278143763542175,"75":0.10967633873224258,"76":-0.18596242368221283,"77":-0.0736435130238533,"78":-0.11414764076471329,"79":-0.055045899003744125,"80":-0.21726010739803314,"81":-0.18759708106517792,"82":0.17823255062103271,"83":0.13451099395751953,"84":0.1287868320941925,"85":0.17149321734905243,"86":-0.14324085414409637,"87":0.20900532603263855,"88":0.2567264437675476,"89":0.19912713766098022,"90":-0.07420390099287033,"91":0.1329835206270218,"92":0.09062318503856659,"93":0.14439168572425842,"94":-0.06788309663534164,"95":-0.12824103236198425,"96":-0.15097525715827942,"97":-0.19460098445415497,"98":-0.15495797991752625,"99":-0.18231546878814697,"100":-0.18937261402606964,"101":-0.1637330949306488,"102":0.08368552476167679,"103":0.0034540225751698017,"104":0.017649997025728226,"105":-0.10810428857803345,"106":0.08243894577026367,"107":0.059790175408124924,"108":-0.08829014748334885,"109":0.0934934988617897,"110":-0.1694190949201584,"111":-0.12956325709819794,"112":-0.12924593687057495,"113":-0.018684357404708862,"114":0.05713341757655144,"115":-0.18261408805847168,"116":0.19506041705608368,"117":-0.11513771861791611,"118":-0.04760264605283737,"119":0.16693386435508728}},"13":{"bias":0.10291934758424759,"weights":{"0":-0.16346552968025208,"1":0.022341711446642876,"2":-0.1278560906648636,"3":0.07692237198352814,"4":-0.03457648679614067,"5":-0.07593705505132675,"6":-0.0662897452712059,"7":-0.00023367312678601593,"8":0.08265740424394608,"9":-0.020153749734163284,"10":-0.029640570282936096,"11":0.015260614454746246,"12":0.0813363566994667,"13":0.10069901496171951,"14":0.058208342641592026,"15":0.017179781571030617,"16":0.15632390975952148,"17":-0.12664921581745148,"18":-0.0911259651184082,"19":0.09718087315559387,"20":-0.054332491010427475,"21":-0.041491150856018066,"22":-0.04604169726371765,"23":0.15937186777591705,"24":-0.05834527313709259,"25":-0.21107831597328186,"26":-0.320532888174057,"27":-0.15485748648643494,"28":-0.10815191268920898,"29":-0.15162232518196106,"30":-0.19220104813575745,"31":-0.01260039210319519,"32":-0.16832101345062256,"33":-0.08709339797496796,"34":0.0035182866267859936,"35":-0.19922186434268951,"36":-0.24122536182403564,"37":-0.15836557745933533,"38":-0.19885551929473877,"39":0.1304604560136795,"40":0.07553453743457794,"41":-0.003268006257712841,"42":0.2583635747432709,"43":0.16920766234397888,"44":-0.11401169002056122,"45":-0.19333523511886597,"46":-0.09282805770635605,"47":-0.3879062831401825,"48":-0.2356967031955719,"49":-0.45314645767211914,"50":-0.4421309232711792,"51":-0.05864373967051506,"52":-0.2028297781944275,"53":-0.05105830356478691,"54":-0.31421852111816406,"55":-0.24808523058891296,"56":0.0430319719016552,"57":-0.13171431422233582,"58":-0.251893550157547,"59":-0.21683211624622345,"60":-0.570793867111206,"61":-0.5671284794807434,"62":-0.44152361154556274,"63":-0.027100063860416412,"64":0.10861959308385849,"65":0.25737592577934265,"66":0.4182438850402832,"67":0.10332190245389938,"68":0.045951034873723984,"69":0.12076233327388763,"70":-0.09236272424459457,"71":-0.287235826253891,"72":-0.21503868699073792,"73":-0.12460862100124359,"74":-0.08467311412096024,"75":-0.2160477638244629,"76":-0.26771774888038635,"77":0.02588050067424774,"78":-0.19961701333522797,"79":-0.02661978080868721,"80":-0.274224191904068,"81":-0.2728671431541443,"82":-0.2122614085674286,"83":-0.22574280202388763,"84":0.017948076128959656,"85":-0.07456815987825394,"86":-0.23226653039455414,"87":0.0876118615269661,"88":0.4051706790924072,"89":0.24438028037548065,"90":0.043717481195926666,"91":0.3584303557872772,"92":-0.01610409840941429,"93":0.011162062175571918,"94":-0.15582846105098724,"95":0.12626081705093384,"96":0.12360275536775589,"97":0.05501903221011162,"98":-0.01998688466846943,"99":0.12012436240911484,"100":-0.24354061484336853,"101":-0.0842970460653305,"102":0.03620162233710289,"103":0.12346450984477997,"104":-0.07157201319932938,"105":-0.156008780002594,"106":0.025700105354189873,"107":0.12801077961921692,"108":0.07543140649795532,"109":0.004241950809955597,"110":0.12084783613681793,"111":0.1131301075220108,"112":-0.08595555275678635,"113":-0.00275580701418221,"114":0.13560740649700165,"115":-0.13162188231945038,"116":-0.12549273669719696,"117":-0.06044911965727806,"118":0.09587176144123077,"119":-0.18538935482501984}},"14":{"bias":-0.25426533818244934,"weights":{"0":-0.10807113349437714,"1":-0.10742846131324768,"2":0.09985610097646713,"3":0.04177982360124588,"4":0.15209122002124786,"5":-0.05392853543162346,"6":-0.19158391654491425,"7":0.14301663637161255,"8":0.1459549367427826,"9":0.08159347623586655,"10":-0.12650112807750702,"11":-0.09902482479810715,"12":0.1420595496892929,"13":-0.05543779209256172,"14":0.19554893672466278,"15":0.040471792221069336,"16":-0.12144183367490768,"17":-0.08904465287923813,"18":0.04012128338217735,"19":0.17668896913528442,"20":0.10154293477535248,"21":-0.09649121761322021,"22":0.17483137547969818,"23":0.12361603230237961,"24":-0.17180633544921875,"25":0.13364969193935394,"26":0.1749430149793625,"27":0.0880802571773529,"28":0.08278452605009079,"29":0.010852131061255932,"30":-0.06408948451280594,"31":0.07160978019237518,"32":0.2506703734397888,"33":-0.08325245976448059,"34":-0.1418464481830597,"35":0.06040339916944504,"36":0.14450518786907196,"37":0.26845991611480713,"38":-0.013223093003034592,"39":0.06343911588191986,"40":0.11492065340280533,"41":-0.05082070454955101,"42":-0.08907295763492584,"43":-0.031952932476997375,"44":0.17590591311454773,"45":-0.1824619472026825,"46":0.07002399116754532,"47":0.028172113001346588,"48":0.0277110543102026,"49":0.22604237496852875,"50":0.13101068139076233,"51":0.20679770410060883,"52":0.23677274584770203,"53":0.38452503085136414,"54":0.21674296259880066,"55":0.3533104658126831,"56":0.15606464445590973,"57":0.2742054760456085,"58":-0.07894225418567657,"59":0.30248400568962097,"60":0.04653016850352287,"61":0.3014204800128937,"62":0.014814907684922218,"63":0.09124549478292465,"64":-0.16520510613918304,"65":-0.14302560687065125,"66":-0.06267121434211731,"67":0.08677159249782562,"68":-0.06467574089765549,"69":-0.03660999611020088,"70":0.14157864451408386,"71":0.2706160545349121,"72":0.16537725925445557,"73":0.19990254938602448,"74":0.11277946829795837,"75":0.13496184349060059,"76":0.01867053285241127,"77":0.09003999084234238,"78":0.17197652161121368,"79":0.15685224533081055,"80":0.202744722366333,"81":-0.03377755358815193,"82":0.14800073206424713,"83":-0.08630920946598053,"84":-0.03205962851643562,"85":0.060768768191337585,"86":0.22683846950531006,"87":0.2394910454750061,"88":-0.04186883568763733,"89":0.0031972043216228485,"90":0.017115790396928787,"91":-0.16958560049533844,"92":-0.20478911697864532,"93":0.20033948123455048,"94":0.11731546372175217,"95":-0.14034995436668396,"96":0.16425330936908722,"97":0.19055518507957458,"98":-0.17783784866333008,"99":0.06196971610188484,"100":0.007908020168542862,"101":-0.07085635513067245,"102":0.18084196746349335,"103":-0.08747312426567078,"104":-0.07791590690612793,"105":-0.1409943550825119,"106":-0.1876506209373474,"107":0.010573657229542732,"108":0.1553996205329895,"109":-0.07850896567106247,"110":-0.11789277195930481,"111":-0.028728678822517395,"112":-0.042031437158584595,"113":0.09458236396312714,"114":-0.18528714776039124,"115":0.0985206812620163,"116":0.09374940395355225,"117":0.08005022257566452,"118":0.07518982142210007,"119":0.11513996869325638}},"15":{"bias":-0.14210495352745056,"weights":{"0":0.00954031478613615,"1":0.1420087218284607,"2":0.008296402171254158,"3":0.04478125646710396,"4":0.10223565250635147,"5":-0.11469173431396484,"6":0.08381534367799759,"7":-0.18741463124752045,"8":0.096152663230896,"9":-0.17224439978599548,"10":0.09700439125299454,"11":-0.03570276498794556,"12":0.1451261043548584,"13":0.0068196384236216545,"14":-0.008560271933674812,"15":0.17191338539123535,"16":-0.049382735043764114,"17":-0.15198862552642822,"18":-0.057152729481458664,"19":-0.17972032725811005,"20":-0.030822306871414185,"21":-0.1537925899028778,"22":-0.05316656082868576,"23":-0.07443667948246002,"24":0.1476510465145111,"25":0.1112455278635025,"26":-0.15691077709197998,"27":0.09321688115596771,"28":0.009801656007766724,"29":0.18025895953178406,"30":0.2856896221637726,"31":0.2627063989639282,"32":0.3174172043800354,"33":-0.09734106808900833,"34":0.02545326016843319,"35":0.043687257915735245,"36":0.009928776882588863,"37":-0.046104796230793,"38":-0.14639027416706085,"39":0.1986425668001175,"40":0.044542089104652405,"41":-0.0586242750287056,"42":0.009822099469602108,"43":-0.03620156645774841,"44":0.0258394256234169,"45":-0.03782963380217552,"46":0.000766123877838254,"47":-0.07680557668209076,"48":0.09387492388486862,"49":0.004366820678114891,"50":-0.10825958102941513,"51":-0.04713983088731766,"52":0.2129800170660019,"53":0.15288445353507996,"54":0.37288999557495117,"55":0.2407480627298355,"56":0.1951187700033188,"57":0.20493541657924652,"58":0.21094752848148346,"59":0.11051826924085617,"60":0.26129207015037537,"61":0.2144668847322464,"62":0.0444687195122242,"63":0.15080882608890533,"64":0.4301220774650574,"65":0.32208019495010376,"66":0.34985506534576416,"67":0.3541145920753479,"68":0.37549999356269836,"69":-0.17888855934143066,"70":-0.028594467788934708,"71":-0.10429363697767258,"72":0.003250516252592206,"73":-0.018507717177271843,"74":-0.12261064350605011,"75":0.024414420127868652,"76":0.26421695947647095,"77":0.3926165997982025,"78":0.2852804362773895,"79":0.11115959286689758,"80":0.13942210376262665,"81":0.19229599833488464,"82":0.16898275911808014,"83":0.25600168108940125,"84":-0.06040673330426216,"85":0.13960616290569305,"86":-0.12071932107210159,"87":0.2737749516963959,"88":0.3032531142234802,"89":0.29508599638938904,"90":-0.12916560471057892,"91":0.24488523602485657,"92":0.3519623577594757,"93":0.10682492703199387,"94":0.07179906964302063,"95":0.014453261159360409,"96":0.0838954970240593,"97":0.04120917618274689,"98":-0.19736230373382568,"99":-0.057163406163454056,"100":-0.03866718336939812,"101":-0.08754929155111313,"102":0.10774916410446167,"103":-0.08164104074239731,"104":0.11663593351840973,"105":-0.05342922732234001,"106":0.1705782115459442,"107":-0.16758139431476593,"108":0.15348106622695923,"109":-0.1641613394021988,"110":0.15622736513614655,"111":0.12935461103916168,"112":-0.13039229810237885,"113":-0.0033868218306452036,"114":-0.14557941257953644,"115":-0.16215598583221436,"116":-0.16072839498519897,"117":0.13412663340568542,"118":0.1262638121843338,"119":0.05586593225598335}},"16":{"bias":0.042722705751657486,"weights":{"0":-0.03787104785442352,"1":-0.12647859752178192,"2":0.1994907259941101,"3":0.03748041391372681,"4":-0.16132032871246338,"5":-0.17550522089004517,"6":-0.13589419424533844,"7":0.1295165866613388,"8":0.14037877321243286,"9":0.03525606915354729,"10":0.1600700318813324,"11":-0.1307324767112732,"12":0.031745199114084244,"13":0.1050943061709404,"14":-0.035911545157432556,"15":0.03360171616077423,"16":-0.16388951241970062,"17":-0.12708260118961334,"18":0.19995899498462677,"19":-0.17319904267787933,"20":0.1411324143409729,"21":-0.05617501214146614,"22":0.19820474088191986,"23":0.041145287454128265,"24":-0.09727811813354492,"25":-0.007478892337530851,"26":0.06737380474805832,"27":0.11159069836139679,"28":0.01268746703863144,"29":0.014634051360189915,"30":0.07290244847536087,"31":-0.3091699779033661,"32":-0.051213204860687256,"33":-0.14347663521766663,"34":0.10946960002183914,"35":0.1169847920536995,"36":0.0555494986474514,"37":-0.07404983788728714,"38":-0.1761932224035263,"39":0.19898447394371033,"40":-0.16650377213954926,"41":0.09710808098316193,"42":0.06666279584169388,"43":0.18025748431682587,"44":0.15175861120224,"45":-0.05284925922751427,"46":0.1833658665418625,"47":-0.0654354989528656,"48":0.12657950818538666,"49":-0.1837223917245865,"50":-0.15069828927516937,"51":-0.025714537128806114,"52":-0.203273206949234,"53":-0.2493222951889038,"54":-0.4887714684009552,"55":-0.4568864405155182,"56":-0.06388753652572632,"57":-0.175041064620018,"58":0.031045138835906982,"59":0.09516970813274384,"60":-0.04452536255121231,"61":-0.05536695569753647,"62":0.1253039836883545,"63":0.12500420212745667,"64":0.17356662452220917,"65":0.38471177220344543,"66":0.05035286396741867,"67":0.3521641194820404,"68":0.20475229620933533,"69":0.14460505545139313,"70":-0.03319134935736656,"71":-0.17439548671245575,"72":0.15674392879009247,"73":0.007741137407720089,"74":0.059075139462947845,"75":0.013148711994290352,"76":-0.1242644190788269,"77":-0.08479896932840347,"78":-0.271239697933197,"79":-0.23152896761894226,"80":-0.1750665158033371,"81":-0.2932092845439911,"82":-0.0411769263446331,"83":0.13771486282348633,"84":-0.12274676561355591,"85":-0.10444197803735733,"86":0.14983724057674408,"87":0.31532835960388184,"88":0.21289485692977905,"89":0.18136663734912872,"90":-0.078043133020401,"91":0.25176653265953064,"92":0.1918831467628479,"93":0.08595621585845947,"94":0.029576733708381653,"95":0.11513496190309525,"96":-0.1360759288072586,"97":0.10052191466093063,"98":0.1632062941789627,"99":0.11285050213336945,"100":0.09642662853002548,"101":0.029763393104076385,"102":0.016199031844735146,"103":0.17247919738292694,"104":0.1273844987154007,"105":-0.044205643236637115,"106":-0.19529950618743896,"107":-0.003927129320800304,"108":0.0442376546561718,"109":0.13296984136104584,"110":-0.004889808129519224,"111":-0.11174945533275604,"112":-0.04443937912583351,"113":-0.06364031881093979,"114":0.17563804984092712,"115":-0.14005519449710846,"116":-0.13834694027900696,"117":-0.044992025941610336,"118":0.05746528133749962,"119":0.04074157029390335}},"17":{"bias":0.049868591129779816,"weights":{"0":0.031852833926677704,"1":0.0692162737250328,"2":-0.13381333649158478,"3":0.14407162368297577,"4":0.15516939759254456,"5":-0.18485836684703827,"6":0.08771078288555145,"7":0.1603006273508072,"8":0.06433708965778351,"9":0.15108051896095276,"10":0.0019304853631183505,"11":-0.02149328403174877,"12":0.13198472559452057,"13":-0.005177622195333242,"14":0.09262332320213318,"15":0.18531955778598785,"16":0.134934201836586,"17":0.12338361889123917,"18":-0.05623215064406395,"19":0.1556352823972702,"20":0.007590247318148613,"21":-0.05749443545937538,"22":0.10822784900665283,"23":-0.11753540486097336,"24":-0.08667109161615372,"25":0.1618630588054657,"26":0.0018729674629867077,"27":0.08760473132133484,"28":0.14221036434173584,"29":0.07816503196954727,"30":0.044043056666851044,"31":0.17162397503852844,"32":-0.10844825208187103,"33":0.0928206667304039,"34":0.08855324983596802,"35":0.10202834010124207,"36":-0.4057422876358032,"37":-0.003744450630620122,"38":-0.08869176357984543,"39":-0.16845175623893738,"40":-0.025122500956058502,"41":-0.08579140156507492,"42":-0.2140497863292694,"43":-0.17962224781513214,"44":-0.04656995087862015,"45":0.12688559293746948,"46":0.20021644234657288,"47":0.3253764510154724,"48":0.42387935519218445,"49":0.34684428572654724,"50":0.1627103090286255,"51":0.22723086178302765,"52":-0.07591871917247772,"53":0.03081490471959114,"54":-0.1404973417520523,"55":-0.19441626965999603,"56":-0.07043139636516571,"57":-0.13539765775203705,"58":-0.129023939371109,"59":-0.5304400324821472,"60":-0.2851012647151947,"61":-0.5385149121284485,"62":-0.42213302850723267,"63":0.09467250108718872,"64":-0.029083561152219772,"65":-0.41384944319725037,"66":-0.13720041513442993,"67":-0.2793456017971039,"68":0.012204207479953766,"69":-0.020107589662075043,"70":0.303425669670105,"71":0.20378175377845764,"72":0.2721768021583557,"73":0.05741661787033081,"74":0.33002379536628723,"75":0.050579532980918884,"76":0.061444345861673355,"77":0.11297372728586197,"78":-0.16642826795578003,"79":0.11001375317573547,"80":-0.22454577684402466,"81":-0.26300060749053955,"82":-0.08619777113199234,"83":-0.15028995275497437,"84":-0.07241375744342804,"85":-0.22834211587905884,"86":-0.36227279901504517,"87":-0.40358343720436096,"88":-0.22145843505859375,"89":-0.09800348430871964,"90":0.047334834933280945,"91":-0.3028012216091156,"92":-0.08245380222797394,"93":-0.07765816152095795,"94":0.14424648880958557,"95":0.12966281175613403,"96":-0.007521557155996561,"97":-0.004236494190990925,"98":0.1933947056531906,"99":0.10519794374704361,"100":0.12711621820926666,"101":0.07934249192476273,"102":0.018811263144016266,"103":-0.10614011436700821,"104":-0.18371082842350006,"105":0.06136680021882057,"106":-0.04147912189364433,"107":0.10962744057178497,"108":-0.15623904764652252,"109":-0.21935665607452393,"110":0.028865966945886612,"111":-0.17097973823547363,"112":-0.06301550567150116,"113":0.042788952589035034,"114":0.0956067368388176,"115":0.0808643326163292,"116":0.14615322649478912,"117":0.14716050028800964,"118":-0.048065025359392166,"119":0.10831054300069809}},"18":{"bias":0.09634383767843246,"weights":{"0":-0.10149826109409332,"1":-0.17708180844783783,"2":0.07378526031970978,"3":0.025766655802726746,"4":-0.04142734780907631,"5":0.08058454096317291,"6":-0.02487090229988098,"7":0.13957342505455017,"8":-0.12620781362056732,"9":-0.025561612099409103,"10":-0.073983334004879,"11":0.052229490131139755,"12":-0.061370279639959335,"13":0.03404449671506882,"14":-0.18852312862873077,"15":-0.19365684688091278,"16":0.15662536025047302,"17":-0.1606193631887436,"18":0.1888277381658554,"19":-0.032226260751485825,"20":0.19127361476421356,"21":0.06709832698106766,"22":0.17081806063652039,"23":-0.009402233175933361,"24":-0.14548355340957642,"25":-0.24387606978416443,"26":-0.11085563898086548,"27":-0.16648682951927185,"28":0.017917973920702934,"29":-0.0492766797542572,"30":-0.07558948546648026,"31":0.040889665484428406,"32":-0.16001014411449432,"33":-0.1258266270160675,"34":0.1524573564529419,"35":0.03996911644935608,"36":-0.1571071892976761,"37":-0.14821118116378784,"38":-0.04923679307103157,"39":0.03516842797398567,"40":0.1585281938314438,"41":0.025697054341435432,"42":0.07412142306566238,"43":0.11787973344326019,"44":0.14360663294792175,"45":-0.1523827463388443,"46":0.04269048571586609,"47":-0.27791455388069153,"48":-0.2983614504337311,"49":-0.08452268689870834,"50":-0.27741149067878723,"51":-0.15435947477817535,"52":0.11242746561765671,"53":-0.238424152135849,"54":-0.12918119132518768,"55":-0.1216764822602272,"56":-0.015162911266088486,"57":-0.19040249288082123,"58":-0.28005409240722656,"59":-0.1542365401983261,"60":-0.14597736299037933,"61":-0.26387715339660645,"62":-0.05365592613816261,"63":-0.2165903002023697,"64":-0.18682080507278442,"65":-0.2879418134689331,"66":-0.0819726213812828,"67":-0.052578117698431015,"68":-0.30081501603126526,"69":0.14999401569366455,"70":-0.14784343540668488,"71":-0.055863816291093826,"72":-0.04519429802894592,"73":-0.13272851705551147,"74":-0.19988124072551727,"75":-0.06362664699554443,"76":-0.11932357400655746,"77":-0.2777327299118042,"78":-0.13055990636348724,"79":-0.04376758262515068,"80":0.04465775936841965,"81":-0.1317683756351471,"82":-0.0563228465616703,"83":-0.050413623452186584,"84":-0.16044604778289795,"85":-0.10420830547809601,"86":-0.25616729259490967,"87":-0.18163470923900604,"88":-0.1177029237151146,"89":0.029193462803959846,"90":0.04415794089436531,"91":0.06528590619564056,"92":-0.16112837195396423,"93":0.0505191870033741,"94":-0.0557427853345871,"95":-0.1291670948266983,"96":-0.11772596836090088,"97":0.19122180342674255,"98":-0.13842345774173737,"99":0.14765219390392303,"100":0.10820016264915466,"101":0.09796137362718582,"102":0.053785599768161774,"103":-0.034993674606084824,"104":-0.04991621524095535,"105":0.0002900349791161716,"106":-0.03216525539755821,"107":0.15856751799583435,"108":0.11251861602067947,"109":-0.06596852093935013,"110":0.07009387761354446,"111":-0.16859610378742218,"112":-0.13826614618301392,"113":0.10884183645248413,"114":-0.12136223912239075,"115":-0.09821630269289017,"116":0.01044025644659996,"117":-0.05749350041151047,"118":-0.06175567954778671,"119":-0.10478558391332626}},"19":{"bias":-0.14517411589622498,"weights":{"0":0.04548235982656479,"1":0.018640801310539246,"2":-0.11795054376125336,"3":0.020426612347364426,"4":0.061299338936805725,"5":0.0628325343132019,"6":0.09030064195394516,"7":0.12016671895980835,"8":0.13603542745113373,"9":-0.093172587454319,"10":0.13603265583515167,"11":0.09722577035427094,"12":0.15909138321876526,"13":-0.08138808608055115,"14":0.07307969778776169,"15":0.07554761320352554,"16":-0.09437774866819382,"17":0.12099357694387436,"18":-0.056835420429706573,"19":-0.13309037685394287,"20":-0.059105224907398224,"21":-0.09458615630865097,"22":-0.07292664051055908,"23":0.0221235528588295,"24":-0.014574950560927391,"25":0.23422163724899292,"26":0.04019617289304733,"27":0.2196124792098999,"28":-0.04454508796334267,"29":-0.1102595329284668,"30":-0.10212036222219467,"31":-0.29194000363349915,"32":-0.2026580423116684,"33":0.05969494953751564,"34":0.07471746951341629,"35":-0.041254688054323196,"36":0.049821559339761734,"37":-0.08636318147182465,"38":0.03509671986103058,"39":0.01281679980456829,"40":0.020841050893068314,"41":-0.10737612843513489,"42":-0.1494874209165573,"43":0.06280592083930969,"44":0.12790656089782715,"45":0.10687974095344543,"46":-0.18100804090499878,"47":0.06353376805782318,"48":0.2567761540412903,"49":0.1865013688802719,"50":0.35665586590766907,"51":0.07953543961048126,"52":0.10740142315626144,"53":-0.21220657229423523,"54":-0.3643479645252228,"55":-0.18467366695404053,"56":-0.08223424851894379,"57":-0.17635402083396912,"58":-0.06444747000932693,"59":0.20380698144435883,"60":0.19800184667110443,"61":0.21047192811965942,"62":-0.005560495425015688,"63":-0.04709077998995781,"64":-0.07292234152555466,"65":-0.3160041868686676,"66":-0.27436235547065735,"67":-0.12301567941904068,"68":-0.2165088951587677,"69":0.1580883115530014,"70":0.0977831780910492,"71":0.3269830346107483,"72":0.08470085263252258,"73":-0.08335798978805542,"74":0.11968960613012314,"75":0.2311268448829651,"76":-0.01949196495115757,"77":-0.16973339021205902,"78":-0.2890031635761261,"79":-0.2677551209926605,"80":-0.23873166739940643,"81":-0.25984281301498413,"82":0.15286798775196075,"83":0.19789719581604004,"84":0.03776389732956886,"85":-0.033299364149570465,"86":0.11919345706701279,"87":-0.20391914248466492,"88":-0.020689582452178,"89":-0.2866896092891693,"90":-0.17923560738563538,"91":-0.1349022090435028,"92":0.04095195606350899,"93":-0.0649631917476654,"94":0.13369135558605194,"95":0.08406668901443481,"96":0.17581968009471893,"97":0.0066436645574867725,"98":0.08767480403184891,"99":0.02965770848095417,"100":-0.2034856528043747,"101":-0.10813015699386597,"102":-0.00005081443669041619,"103":-0.11571884155273438,"104":0.1471288651227951,"105":0.006940310820937157,"106":-0.0627758800983429,"107":0.1495896726846695,"108":-0.020944744348526,"109":-0.022286150604486465,"110":0.0660741850733757,"111":0.007366083562374115,"112":0.10904458910226822,"113":-0.1875830739736557,"114":-0.07771224528551102,"115":-0.13229408860206604,"116":0.15187203884124756,"117":0.17096079885959625,"118":-0.04120609164237976,"119":0.1316964328289032}},"20":{"bias":-0.04070927947759628,"weights":{"0":0.0029326353687793016,"1":0.025858500972390175,"2":-0.09600149840116501,"3":0.047297049313783646,"4":0.04059216007590294,"5":-0.16585645079612732,"6":-0.07639189064502716,"7":-0.12040233612060547,"8":0.15922223031520844,"9":-0.044998396188020706,"10":-0.03046722710132599,"11":-0.1356705278158188,"12":0.16668526828289032,"13":0.10024504363536835,"14":-0.1479235142469406,"15":-0.07942575961351395,"16":0.0020273872651159763,"17":0.046512361615896225,"18":0.11575652658939362,"19":0.030458571389317513,"20":-0.1559702754020691,"21":-0.1942560374736786,"22":-0.12420379370450974,"23":-0.0810423493385315,"24":0.2296212911605835,"25":0.17988339066505432,"26":0.09251894056797028,"27":-0.18074491620063782,"28":-0.05469846725463867,"29":0.20708517730236053,"30":0.1822744905948639,"31":0.1444857269525528,"32":-0.10753070563077927,"33":-0.058677151799201965,"34":0.19800208508968353,"35":0.05883703753352165,"36":0.12059509009122849,"37":-0.14312522113323212,"38":-0.0966963842511177,"39":0.18051236867904663,"40":0.07561035454273224,"41":0.13616886734962463,"42":-0.13061535358428955,"43":-0.09674408286809921,"44":0.005758676212280989,"45":-0.022771278396248817,"46":-0.12625107169151306,"47":0.18732209503650665,"48":0.23808006942272186,"49":0.14373719692230225,"50":0.19624461233615875,"51":0.12486176192760468,"52":0.01704169064760208,"53":-0.0008951263152994215,"54":0.2800899147987366,"55":0.10422506183385849,"56":0.2698773145675659,"57":-0.014979610219597816,"58":-0.01669054478406906,"59":0.07382813096046448,"60":0.03255835920572281,"61":0.1518801897764206,"62":-0.12648217380046844,"63":0.0014208187349140644,"64":-0.16183842718601227,"65":-0.16863413155078888,"66":-0.38675457239151,"67":-0.03481181710958481,"68":-0.0929124653339386,"69":-0.18632501363754272,"70":-0.03692268207669258,"71":0.22033384442329407,"72":0.12654849886894226,"73":0.06065996363759041,"74":0.161840558052063,"75":-0.08126138895750046,"76":0.12685571610927582,"77":0.24340693652629852,"78":0.19410361349582672,"79":0.23014511168003082,"80":0.30618786811828613,"81":-0.11426740884780884,"82":0.22197651863098145,"83":-0.14143219590187073,"84":-0.01621640846133232,"85":-0.168077751994133,"86":0.060435742139816284,"87":-0.31711551547050476,"88":-0.08527146279811859,"89":-0.2524726390838623,"90":-0.03528236597776413,"91":-0.08000927418470383,"92":0.010055899620056152,"93":0.0011486689327284694,"94":0.07534882426261902,"95":0.09145199507474899,"96":0.09444809705018997,"97":0.1380288004875183,"98":-0.06379371881484985,"99":-0.06691297888755798,"100":0.013292890973389149,"101":-0.15133829414844513,"102":0.11215627938508987,"103":-0.06561125069856644,"104":-0.022851627320051193,"105":-0.09442328661680222,"106":0.1987282633781433,"107":0.1376536339521408,"108":-0.06102888658642769,"109":-0.11525832861661911,"110":-0.10530518740415573,"111":-0.19757716357707977,"112":-0.19943799078464508,"113":-0.19338355958461761,"114":0.09039761126041412,"115":-0.10570824146270752,"116":-0.040750209242105484,"117":0.17318198084831238,"118":0.03364463150501251,"119":-0.015771564096212387}},"21":{"bias":0.2138199657201767,"weights":{"0":0.04184916988015175,"1":-0.15825913846492767,"2":0.19401061534881592,"3":0.042485203593969345,"4":-0.01971556432545185,"5":-0.13503025472164154,"6":0.0661432221531868,"7":-0.0691964253783226,"8":0.10548464208841324,"9":-0.08338741213083267,"10":-0.09949509054422379,"11":0.11400633305311203,"12":0.052108973264694214,"13":-0.11402992159128189,"14":-0.04209700599312782,"15":0.0034371211659163237,"16":-0.09552688896656036,"17":0.1475542187690735,"18":-0.023051539435982704,"19":-0.15093478560447693,"20":-0.07432033121585846,"21":-0.09486093372106552,"22":-0.0418231226503849,"23":-0.015618395991623402,"24":0.01981319673359394,"25":-0.10880117863416672,"26":-0.11920253932476044,"27":0.07986079901456833,"28":-0.12485186010599136,"29":-0.164203941822052,"30":-0.1801885962486267,"31":0.01720304600894451,"32":-0.20795901119709015,"33":0.07036261260509491,"34":0.12909366190433502,"35":-0.08151759952306747,"36":-0.34183046221733093,"37":-0.32847344875335693,"38":-0.19213300943374634,"39":0.09132950007915497,"40":0.1122259721159935,"41":0.05986275523900986,"42":-0.04641091078519821,"43":0.15131917595863342,"44":0.18833541870117188,"45":-0.04172760993242264,"46":-0.16150496900081635,"47":0.01014441717416048,"48":-0.3944292962551117,"49":-0.27326181530952454,"50":-0.26241350173950195,"51":-0.17937348783016205,"52":-0.2916218340396881,"53":-0.3054138422012329,"54":-0.3507063686847687,"55":-0.07111895084381104,"56":-0.2747975289821625,"57":-0.3448551297187805,"58":-0.18120025098323822,"59":-0.5132954120635986,"60":-0.2960355579853058,"61":-0.3220430612564087,"62":-0.18862566351890564,"63":-0.1562240570783615,"64":-0.05823463574051857,"65":-0.08074312657117844,"66":0.004461668897420168,"67":0.11709704995155334,"68":0.03586495667695999,"69":0.04691523686051369,"70":-0.04161879047751427,"71":-0.037226270884275436,"72":-0.07413967698812485,"73":-0.17113550007343292,"74":-0.021595831960439682,"75":0.03548496216535568,"76":0.05024280771613121,"77":-0.31681543588638306,"78":-0.10499804466962814,"79":0.007110147271305323,"80":-0.09172241389751434,"81":-0.12354520708322525,"82":-0.05385000258684158,"83":-0.354352205991745,"84":-0.18313778936862946,"85":-0.32922592759132385,"86":-0.386899471282959,"87":-0.06107553467154503,"88":-0.06321457773447037,"89":-0.0005711307167075574,"90":-0.011632335372269154,"91":-0.23920533061027527,"92":-0.2358856201171875,"93":0.11128995567560196,"94":-0.006468834821134806,"95":0.10968983918428421,"96":-0.060714952647686005,"97":-0.14367172122001648,"98":0.13659748435020447,"99":-0.021939542144536972,"100":-0.2208438217639923,"101":0.07088769227266312,"102":-0.17660406231880188,"103":0.08027602732181549,"104":-0.11663695424795151,"105":-0.11714569479227066,"106":0.15697415173053741,"107":-0.0026690508238971233,"108":-0.08082111924886703,"109":0.02481161430478096,"110":0.07977219671010971,"111":-0.027433983981609344,"112":-0.1029604971408844,"113":-0.14933094382286072,"114":-0.09587319195270538,"115":0.16210909187793732,"116":-0.11420047283172607,"117":-0.07903385162353516,"118":0.012388917617499828,"119":-0.03839489072561264}},"22":{"bias":-0.027949810028076172,"weights":{"0":-0.022426487877964973,"1":0.18773694336414337,"2":0.0007824471103958786,"3":0.08285707980394363,"4":0.10289011150598526,"5":-0.02366737648844719,"6":-0.1599859893321991,"7":0.10380309820175171,"8":-0.15697833895683289,"9":0.08511192351579666,"10":0.03162422031164169,"11":0.07118190824985504,"12":-0.1334712654352188,"13":-0.12173411250114441,"14":0.0199577696621418,"15":-0.13004042208194733,"16":-0.17202065885066986,"17":-0.0678696408867836,"18":-0.029488220810890198,"19":0.16678138077259064,"20":0.1458229422569275,"21":0.13255268335342407,"22":0.14780907332897186,"23":0.19895252585411072,"24":0.15739433467388153,"25":0.2015703320503235,"26":0.2622363269329071,"27":0.05191252753138542,"28":-0.09727423638105392,"29":-0.10077498853206635,"30":-0.09826969355344772,"31":0.30631023645401,"32":0.13401399552822113,"33":-0.03572201728820801,"34":0.06775038689374924,"35":0.14422303438186646,"36":0.12053990364074707,"37":0.002115544630214572,"38":-0.046738650649785995,"39":-0.1384769082069397,"40":0.021092073991894722,"41":-0.04362228140234947,"42":0.2106260508298874,"43":-0.12696929275989532,"44":0.0854339450597763,"45":-0.17380079627037048,"46":0.12540574371814728,"47":0.19459399580955505,"48":0.2417384535074234,"49":0.34254902601242065,"50":0.30896449089050293,"51":0.21058739721775055,"52":-0.01687334105372429,"53":0.3518860340118408,"54":0.10428763926029205,"55":0.37934088706970215,"56":0.20267000794410706,"57":0.3271685540676117,"58":0.1267959177494049,"59":-0.063133105635643,"60":0.09213501214981079,"61":-0.1399744600057602,"62":-0.027218980714678764,"63":0.16921059787273407,"64":0.031642355024814606,"65":0.22225558757781982,"66":0.2339879423379898,"67":0.31058573722839355,"68":0.18418598175048828,"69":-0.19580529630184174,"70":-0.040580157190561295,"71":0.038503654301166534,"72":0.1611267477273941,"73":0.10346333682537079,"74":0.05961648374795914,"75":0.1600540429353714,"76":0.294775128364563,"77":-0.05753553658723831,"78":0.1165977194905281,"79":0.05914721637964249,"80":0.1419704705476761,"81":0.16348126530647278,"82":-0.036357320845127106,"83":-0.058332908898591995,"84":0.17100049555301666,"85":-0.04635409265756607,"86":-0.1828267127275467,"87":0.03365939483046532,"88":0.13073112070560455,"89":0.21283802390098572,"90":0.1819165050983429,"91":0.12695883214473724,"92":0.004547060001641512,"93":0.10946188122034073,"94":-0.05726252496242523,"95":-0.057635001838207245,"96":0.05883041396737099,"97":-0.036861076951026917,"98":-0.03228010609745979,"99":-0.0440160296857357,"100":0.03094574250280857,"101":-0.023937810212373734,"102":-0.0256611630320549,"103":-0.09132806211709976,"104":0.15002498030662537,"105":0.12968918681144714,"106":-0.11146052926778793,"107":-0.1924004852771759,"108":0.13253797590732574,"109":0.047220125794410706,"110":-0.17766405642032623,"111":-0.18350091576576233,"112":-0.024347377941012383,"113":0.18715651333332062,"114":0.03108811564743519,"115":0.13050882518291473,"116":-0.06533553451299667,"117":0.09914086759090424,"118":0.0996682420372963,"119":-0.014017889276146889}},"23":{"bias":0.09681215137243271,"weights":{"0":-0.056910257786512375,"1":0.03382280841469765,"2":0.03290938585996628,"3":-0.016727520152926445,"4":-0.13483792543411255,"5":0.07909379154443741,"6":-0.14627200365066528,"7":0.127457395195961,"8":-0.13345110416412354,"9":-0.19865645468235016,"10":-0.1675746589899063,"11":-0.010986496694386005,"12":0.1455022543668747,"13":0.14291298389434814,"14":0.12834185361862183,"15":0.13655145466327667,"16":-0.06634281575679779,"17":0.10403472185134888,"18":-0.14685438573360443,"19":0.019597558304667473,"20":0.13022200763225555,"21":-0.11316859722137451,"22":0.05935636907815933,"23":-0.12083778530359268,"24":0.10078451782464981,"25":0.2909116744995117,"26":0.011735174804925919,"27":-0.08245518058538437,"28":-0.06801880151033401,"29":0.059593722224235535,"30":-0.062090709805488586,"31":-0.2645363211631775,"32":-0.03138585761189461,"33":0.11912552267313004,"34":0.0355025976896286,"35":0.007616135291755199,"36":-0.2259712964296341,"37":0.09401916712522507,"38":0.0008394925389438868,"39":0.15492191910743713,"40":-0.19410088658332825,"41":0.04635778069496155,"42":0.16913233697414398,"43":0.0390305370092392,"44":-0.11605338007211685,"45":-0.05443669855594635,"46":0.08184591680765152,"47":0.3662504255771637,"48":0.2715687155723572,"49":0.340069442987442,"50":0.3690226376056671,"51":0.020923366770148277,"52":-0.19557452201843262,"53":-0.4268633723258972,"54":-0.4550226032733917,"55":-0.2944646179676056,"56":-0.35650312900543213,"57":-0.31398865580558777,"58":0.02786962315440178,"59":-0.20560011267662048,"60":-0.41339439153671265,"61":-0.15357914566993713,"62":-0.25118163228034973,"63":0.082159623503685,"64":0.22805453836917877,"65":0.29846346378326416,"66":0.15157516300678253,"67":0.05097697675228119,"68":0.07682646065950394,"69":0.054596684873104095,"70":0.24554921686649323,"71":0.35934776067733765,"72":0.05911755934357643,"73":-0.05149950087070465,"74":0.31404274702072144,"75":0.32860037684440613,"76":-0.03480087220668793,"77":-0.1497708261013031,"78":-0.282610148191452,"79":0.005416438449174166,"80":-0.25709038972854614,"81":-0.22294014692306519,"82":-0.12864314019680023,"83":-0.24199165403842926,"84":0.08131703734397888,"85":0.03687860816717148,"86":-0.19997572898864746,"87":-0.1015671119093895,"88":0.16195128858089447,"89":0.1316189169883728,"90":0.025427289307117462,"91":0.10761009156703949,"92":-0.09925152361392975,"93":-0.1513107717037201,"94":0.19682735204696655,"95":0.11985312402248383,"96":-0.16788305342197418,"97":-0.08434634655714035,"98":-0.02543085813522339,"99":-0.20601026713848114,"100":-0.18904979526996613,"101":0.14799387753009796,"102":0.07770194113254547,"103":0.15977469086647034,"104":0.06924702972173691,"105":0.04066518694162369,"106":-0.10118868947029114,"107":0.12168022990226746,"108":0.06275211274623871,"109":-0.12611526250839233,"110":0.15068717300891876,"111":0.16434770822525024,"112":0.13016286492347717,"113":-0.07213437557220459,"114":-0.1845894604921341,"115":0.04125194996595383,"116":-0.07773365080356598,"117":0.09506755322217941,"118":0.06893470138311386,"119":-0.10612038522958755}},"24":{"bias":-0.03112824261188507,"weights":{"0":-0.14043982326984406,"1":-0.03598468378186226,"2":0.0331781767308712,"3":-0.08207399398088455,"4":-0.0209970586001873,"5":-0.18665951490402222,"6":-0.1965138167142868,"7":-0.1545277237892151,"8":0.13097570836544037,"9":0.034971706569194794,"10":-0.0708794817328453,"11":-0.0733957290649414,"12":-0.14938223361968994,"13":0.19016152620315552,"14":-0.02477572299540043,"15":-0.14888718724250793,"16":0.0520695224404335,"17":-0.13185779750347137,"18":-0.1732093095779419,"19":0.12206626683473587,"20":-0.017093567177653313,"21":-0.06517282873392105,"22":0.0865570455789566,"23":-0.1946391761302948,"24":-0.2065645307302475,"25":-0.2405567765235901,"26":-0.258221834897995,"27":0.13494673371315002,"28":0.18146385252475739,"29":0.03927032649517059,"30":0.09706629067659378,"31":0.2107321172952652,"32":0.20858125388622284,"33":0.18313060700893402,"34":-0.13627026975154877,"35":0.10432937741279602,"36":0.11664720624685287,"37":0.26270726323127747,"38":0.13245365023612976,"39":0.19983616471290588,"40":0.1319582611322403,"41":-0.1856764405965805,"42":-0.015431218780577183,"43":-0.029020966961979866,"44":0.014356606639921665,"45":-0.166399285197258,"46":-0.11305470019578934,"47":0.011053651571273804,"48":-0.1670638769865036,"49":-0.2185884714126587,"50":-0.1463455706834793,"51":-0.00817929208278656,"52":0.06064797565340996,"53":0.05712142959237099,"54":-0.048547860234975815,"55":0.14427149295806885,"56":0.23565399646759033,"57":0.19706864655017853,"58":0.0035276690032333136,"59":0.17616932094097137,"60":0.262467622756958,"61":0.124495729804039,"62":0.024077188223600388,"63":-0.0384594202041626,"64":0.21420012414455414,"65":0.2531086206436157,"66":0.1638675332069397,"67":0.27103304862976074,"68":0.18950921297073364,"69":0.19232025742530823,"70":-0.20830509066581726,"71":0.03156713768839836,"72":-0.20196077227592468,"73":-0.20690320432186127,"74":-0.060266125947237015,"75":0.07772184908390045,"76":-0.044748857617378235,"77":0.10029223561286926,"78":0.018315497785806656,"79":0.18055225908756256,"80":0.22364866733551025,"81":-0.04719822108745575,"82":-0.0960761159658432,"83":0.23153777420520782,"84":0.17769217491149902,"85":-0.09172374755144119,"86":-0.010228048078715801,"87":0.04005757346749306,"88":0.2668372094631195,"89":0.0967521145939827,"90":0.09773964434862137,"91":0.26297858357429504,"92":0.2831104099750519,"93":-0.032159436494112015,"94":0.14404432475566864,"95":-0.01573162153363228,"96":0.09765204042196274,"97":0.12430412322282791,"98":-0.1499955952167511,"99":-0.033970560878515244,"100":0.09150084853172302,"101":-0.12199821323156357,"102":0.14089933037757874,"103":-0.1173013299703598,"104":0.19226904213428497,"105":-0.003997269552201033,"106":0.010191630572080612,"107":-0.00994622427970171,"108":-0.13994866609573364,"109":-0.10946137458086014,"110":-0.07552898675203323,"111":0.04887029528617859,"112":-0.1950937956571579,"113":0.10167964547872543,"114":-0.022131504490971565,"115":0.09043574333190918,"116":-0.050800424069166183,"117":-0.019797518849372864,"118":-0.14081335067749023,"119":-0.06432615965604782}},"25":{"bias":-0.1097879558801651,"weights":{"0":0.07816579192876816,"1":-0.1960887908935547,"2":0.05772737041115761,"3":-0.1694161295890808,"4":0.08480685949325562,"5":-0.08809690177440643,"6":-0.06670437753200531,"7":0.10146334767341614,"8":0.08404213190078735,"9":-0.04046338051557541,"10":-0.12860748171806335,"11":-0.16102685034275055,"12":0.1514573097229004,"13":0.1565254032611847,"14":-0.01466277614235878,"15":-0.022804314270615578,"16":-0.10046163946390152,"17":-0.13167552649974823,"18":0.0732492059469223,"19":0.07081461697816849,"20":-0.06930447369813919,"21":-0.1533641517162323,"22":-0.06338842213153839,"23":-0.16608381271362305,"24":0.27421972155570984,"25":0.28735867142677307,"26":0.013936945237219334,"27":0.17531847953796387,"28":-0.13561470806598663,"29":-0.057752348482608795,"30":0.14890919625759125,"31":-0.08911899477243423,"32":0.17627699673175812,"33":-0.13298431038856506,"34":-0.01078780833631754,"35":0.12700976431369781,"36":-0.03594997897744179,"37":-0.05055641755461693,"38":0.1855565905570984,"39":-0.17719446122646332,"40":-0.03574396297335625,"41":0.10966968536376953,"42":-0.18884532153606415,"43":-0.1681441366672516,"44":0.07918812334537506,"45":0.07362891733646393,"46":0.19095994532108307,"47":0.1739519238471985,"48":0.20989304780960083,"49":0.37695661187171936,"50":0.08985487371683121,"51":0.3076830208301544,"52":0.08321802318096161,"53":0.2067294865846634,"54":-0.05025139078497887,"55":0.005705039482563734,"56":-0.02924710139632225,"57":-0.03372754901647568,"58":0.29559701681137085,"59":0.015900611877441406,"60":0.14974398910999298,"61":0.27768513560295105,"62":0.25239861011505127,"63":0.19954821467399597,"64":-0.02248515374958515,"65":-0.12579208612442017,"66":0.002629620488733053,"67":-0.18213891983032227,"68":0.038770560175180435,"69":-0.04335277900099754,"70":0.23698630928993225,"71":0.13771666586399078,"72":0.20823660492897034,"73":0.05736882984638214,"74":-0.026737185195088387,"75":0.24790385365486145,"76":0.20997758209705353,"77":0.21678613126277924,"78":-0.15269310772418976,"79":0.20922145247459412,"80":-0.12211791425943375,"81":0.23573772609233856,"82":0.06572218984365463,"83":-0.07513980567455292,"84":-0.03305273875594139,"85":0.023062612861394882,"86":-0.024984188377857208,"87":0.008998369798064232,"88":0.044003572314977646,"89":0.09309040009975433,"90":-0.037593115121126175,"91":-0.15473511815071106,"92":-0.18410727381706238,"93":0.06762425601482391,"94":-0.12078732997179031,"95":0.14587487280368805,"96":-0.08171188831329346,"97":-0.011272381991147995,"98":-0.06426095962524414,"99":0.028636055067181587,"100":-0.15938079357147217,"101":-0.07150459289550781,"102":-0.1857004314661026,"103":-0.10448285937309265,"104":0.05604422464966774,"105":0.08891984820365906,"106":-0.09715936332941055,"107":-0.11427464336156845,"108":-0.08294854313135147,"109":-0.010939495638012886,"110":-0.12777215242385864,"111":-0.00867929682135582,"112":-0.1387367695569992,"113":0.0026593629736453295,"114":-0.018813947215676308,"115":0.17671212553977966,"116":-0.08809424191713333,"117":-0.0872626006603241,"118":-0.03309144079685211,"119":-0.03710688278079033}},"26":{"bias":-0.18107286095619202,"weights":{"0":0.08131840825080872,"1":-0.045050233602523804,"2":0.05631698668003082,"3":0.025127442553639412,"4":-0.1743520349264145,"5":0.09313206374645233,"6":-0.1440245807170868,"7":-0.12063568830490112,"8":-0.0002673525013960898,"9":0.11863052845001221,"10":0.061488229781389236,"11":0.0018327542347833514,"12":-0.1654174029827118,"13":0.14249098300933838,"14":0.0743548795580864,"15":0.026600755751132965,"16":-0.047979045659303665,"17":0.10915390402078629,"18":0.018474353477358818,"19":-0.019177427515387535,"20":0.12509074807167053,"21":0.03186727687716484,"22":0.14032649993896484,"23":0.06259101629257202,"24":-0.1876121312379837,"25":-0.0575864352285862,"26":0.10382329672574997,"27":0.03450936824083328,"28":0.1433316320180893,"29":0.0771663710474968,"30":-0.09464789927005768,"31":-0.22912509739398956,"32":-0.1611558347940445,"33":-0.1795787811279297,"34":-0.0729559138417244,"35":0.051731571555137634,"36":-0.16586099565029144,"37":-0.17436440289020538,"38":0.04998301714658737,"39":-0.036436084657907486,"40":0.11108025163412094,"41":-0.12782008945941925,"42":0.2634808421134949,"43":0.023868100717663765,"44":0.12044191360473633,"45":-0.18291182816028595,"46":-0.16503611207008362,"47":-0.04286373406648636,"48":-0.2194240838289261,"49":-0.1452541947364807,"50":-0.07215328514575958,"51":-0.12968795001506805,"52":0.03013589233160019,"53":0.038496535271406174,"54":-0.24263174831867218,"55":0.14559216797351837,"56":-0.1927589774131775,"57":-0.07717380672693253,"58":-0.01677188090980053,"59":-0.3583274781703949,"60":-0.16939297318458557,"61":-0.30413973331451416,"62":-0.2761611342430115,"63":-0.007791128475219011,"64":0.06667602062225342,"65":0.48295098543167114,"66":0.3982679545879364,"67":0.3656325042247772,"68":0.2438114881515503,"69":-0.07214528322219849,"70":-0.008885138668119907,"71":-0.08147828280925751,"72":-0.06930428743362427,"73":0.12773410975933075,"74":-0.2289980947971344,"75":0.06124218925833702,"76":0.033610887825489044,"77":0.09184665232896805,"78":0.013957302086055279,"79":0.059466682374477386,"80":-0.16848519444465637,"81":-0.07862042635679245,"82":-0.012944508343935013,"83":-0.2764747440814972,"84":-0.01793631725013256,"85":-0.24948248267173767,"86":-0.36603647470474243,"87":0.016268189996480942,"88":0.21023869514465332,"89":0.21016162633895874,"90":-0.18599478900432587,"91":0.11837077140808105,"92":0.24720630049705505,"93":-0.04126717895269394,"94":0.08875378966331482,"95":0.11494840681552887,"96":0.08202937245368958,"97":0.020055515691637993,"98":0.14697770774364471,"99":0.06435422599315643,"100":-0.12878946959972382,"101":0.19751642644405365,"102":0.05044599249958992,"103":-0.13394571840763092,"104":0.05010061711072922,"105":0.18766248226165771,"106":-0.06448964774608612,"107":-0.19874900579452515,"108":-0.11581647396087646,"109":0.0614837147295475,"110":-0.2006748616695404,"111":0.11432080715894699,"112":0.000473401858471334,"113":-0.1528281420469284,"114":-0.17001189291477203,"115":0.1752869188785553,"116":0.07622026652097702,"117":0.1749454140663147,"118":-0.002124107675626874,"119":-0.08004339784383774}},"27":{"bias":-0.3640141785144806,"weights":{"0":0.045441705733537674,"1":0.16176754236221313,"2":0.0690947026014328,"3":0.0162011981010437,"4":-0.09291980415582657,"5":-0.020278606563806534,"6":-0.04044672101736069,"7":-0.16911913454532623,"8":-0.1570691466331482,"9":-0.10420602560043335,"10":-0.1736326664686203,"11":0.17173951864242554,"12":-0.10765068233013153,"13":0.12599989771842957,"14":0.18566778302192688,"15":-0.08797230571508408,"16":-0.031744036823511124,"17":0.19986416399478912,"18":0.13702549040317535,"19":-0.1526518166065216,"20":0.12281367927789688,"21":0.040746062994003296,"22":0.11163568496704102,"23":0.1424732804298401,"24":0.21907223761081696,"25":0.11446777731180191,"26":0.2743784487247467,"27":0.22716543078422546,"28":-0.18870390951633453,"29":-0.08396989852190018,"30":-0.16230925917625427,"31":-0.1902468353509903,"32":0.08202691376209259,"33":-0.19856929779052734,"34":-0.1850057989358902,"35":0.21775364875793457,"36":0.10096919536590576,"37":0.35879766941070557,"38":0.03495271876454353,"39":-0.18182823061943054,"40":-0.10297716408967972,"41":0.019682064652442932,"42":-0.18930479884147644,"43":-0.14226481318473816,"44":-0.039121318608522415,"45":0.05434601008892059,"46":0.0868685245513916,"47":0.40255433320999146,"48":0.5993004441261292,"49":0.5552631616592407,"50":0.47222933173179626,"51":0.3247232735157013,"52":0.08659867942333221,"53":-0.298280268907547,"54":-0.24685201048851013,"55":-0.31085294485092163,"56":-0.26193538308143616,"57":-0.10928304493427277,"58":0.36906054615974426,"59":0.40089142322540283,"60":0.2976607084274292,"61":0.5845322012901306,"62":0.359172523021698,"63":0.007910605520009995,"64":-0.17063738405704498,"65":-0.040896542370319366,"66":-0.21876834332942963,"67":-0.10024145990610123,"68":-0.2298174798488617,"69":0.0626014694571495,"70":0.3920591473579407,"71":0.13400280475616455,"72":0.11241410672664642,"73":0.1866479516029358,"74":0.28902357816696167,"75":0.302114337682724,"76":0.02293267473578453,"77":-0.3440660238265991,"78":-0.21951577067375183,"79":-0.21531102061271667,"80":-0.18239085376262665,"81":-0.17781667411327362,"82":0.34596067667007446,"83":0.21174202859401703,"84":0.23190449178218842,"85":0.2700236141681671,"86":0.4200240969657898,"87":-0.12211070209741592,"88":-0.1783725619316101,"89":-0.029603393748402596,"90":0.09855770319700241,"91":-0.03630445525050163,"92":0.10276547074317932,"93":0.03205380216240883,"94":0.05317186191678047,"95":-0.077662393450737,"96":-0.12300069630146027,"97":0.03071444295346737,"98":-0.039160776883363724,"99":0.044975996017456055,"100":0.13205108046531677,"101":-0.13771958649158478,"102":0.15382343530654907,"103":-0.07991951704025269,"104":0.1141618937253952,"105":-0.17401207983493805,"106":0.10792925208806992,"107":-0.04909224808216095,"108":-0.15596076846122742,"109":-0.016140542924404144,"110":0.00820703525096178,"111":-0.18088310956954956,"112":0.1108170822262764,"113":0.12357210367918015,"114":-0.11479359120130539,"115":0.013825844042003155,"116":-0.1362958699464798,"117":-0.17398421466350555,"118":-0.1540236920118332,"119":0.13132978975772858}},"28":{"bias":-0.38491344451904297,"weights":{"0":-0.14723342657089233,"1":0.15995913743972778,"2":-0.17292283475399017,"3":-0.18305286765098572,"4":0.07815968245267868,"5":-0.007253014016896486,"6":-0.028644006699323654,"7":0.04600413143634796,"8":0.18261176347732544,"9":-0.06311669200658798,"10":0.18603746592998505,"11":-0.14934766292572021,"12":0.04227035492658615,"13":-0.06454470753669739,"14":-0.005804216023534536,"15":0.12294623255729675,"16":-0.03259796276688576,"17":-0.04374097287654877,"18":0.1410917192697525,"19":-0.14842817187309265,"20":0.12274019420146942,"21":0.16914285719394684,"22":-0.19966043531894684,"23":-0.16548554599285126,"24":-0.05354107916355133,"25":0.01704983040690422,"26":0.07753156870603561,"27":-0.012954380363225937,"28":-0.031170638278126717,"29":0.0029927832074463367,"30":0.18152986466884613,"31":0.2471943199634552,"32":-0.10094951838254929,"33":0.2016485035419464,"34":0.13374724984169006,"35":0.14752277731895447,"36":0.4459672272205353,"37":0.26301971077919006,"38":0.22883255779743195,"39":0.0871218889951706,"40":-0.00004945485488860868,"41":-0.0053753540851175785,"42":0.2585906982421875,"43":-0.019326459616422653,"44":0.08197417855262756,"45":0.028714705258607864,"46":0.04304756596684456,"47":0.31844761967658997,"48":0.25816985964775085,"49":0.07889528572559357,"50":0.0016661997651681304,"51":0.2206607311964035,"52":0.22434109449386597,"53":0.12763459980487823,"54":0.146239772439003,"55":0.420553594827652,"56":0.24366353452205658,"57":0.315424382686615,"58":0.11852146685123444,"59":0.47010278701782227,"60":0.5555242300033569,"61":0.5976223349571228,"62":0.38650476932525635,"63":0.11205032467842102,"64":0.2793319523334503,"65":0.23179636895656586,"66":0.3643735945224762,"67":0.42012137174606323,"68":0.2611169219017029,"69":-0.09477370977401733,"70":-0.018745100125670433,"71":0.23973672091960907,"72":0.2720273435115814,"73":0.2143026739358902,"74":0.0914996936917305,"75":0.06818249821662903,"76":0.21146515011787415,"77":0.008013654500246048,"78":0.13110388815402985,"79":0.26839885115623474,"80":0.1594819575548172,"81":0.1561327874660492,"82":0.33706149458885193,"83":0.11776478588581085,"84":-0.08695510774850845,"85":0.009961703792214394,"86":0.33125340938568115,"87":0.5232711434364319,"88":0.3340921401977539,"89":0.29170066118240356,"90":0.10578546673059464,"91":0.1862720400094986,"92":0.31273019313812256,"93":0.20599861443042755,"94":-0.12218330055475235,"95":0.00904584676027298,"96":0.034768637269735336,"97":-0.035162173211574554,"98":-0.0688677579164505,"99":0.01335238665342331,"100":0.07963383197784424,"101":0.08490249514579773,"102":-0.05574078857898712,"103":-0.0033895529340952635,"104":0.09213025122880936,"105":0.06835778057575226,"106":-0.15017174184322357,"107":-0.02052493207156658,"108":0.08986608684062958,"109":0.22536878287792206,"110":-0.03306840732693672,"111":-0.11214742064476013,"112":0.14629817008972168,"113":0.14560961723327637,"114":-0.10691402852535248,"115":-0.11375810205936432,"116":-0.1567612737417221,"117":0.041023217141628265,"118":-0.1415773630142212,"119":-0.06253685057163239}},"29":{"bias":0.1372375190258026,"weights":{"0":-0.1265624314546585,"1":0.008830055594444275,"2":-0.0060546500608325005,"3":-0.11437193304300308,"4":0.1994716376066208,"5":-0.11452934145927429,"6":0.04943101108074188,"7":0.08796750009059906,"8":0.1706640124320984,"9":-0.039503518491983414,"10":0.11034918576478958,"11":-0.025881722569465637,"12":-0.10118667781352997,"13":-0.19104517996311188,"14":0.04878588393330574,"15":-0.12461307644844055,"16":-0.1763441413640976,"17":-0.0791972354054451,"18":-0.028238972648978233,"19":-0.12558236718177795,"20":-0.07177998870611191,"21":-0.11283097416162491,"22":0.1323745995759964,"23":-0.12316850572824478,"24":0.0031706062145531178,"25":-0.2259720414876938,"26":-0.17314165830612183,"27":-0.008108332753181458,"28":-0.1880730241537094,"29":-0.11369967460632324,"30":-0.27371612191200256,"31":-0.0856146588921547,"32":-0.15393926203250885,"33":0.0014423358952626586,"34":0.021972650662064552,"35":-0.0847337394952774,"36":-0.05155317485332489,"37":0.13384555280208588,"38":-0.10270646214485168,"39":-0.046329956501722336,"40":0.14464132487773895,"41":-0.04940381273627281,"42":-0.2336556613445282,"43":0.05211305618286133,"44":-0.18410108983516693,"45":0.013712035492062569,"46":0.13308978080749512,"47":-0.06692484021186829,"48":-0.46744590997695923,"49":-0.4583964943885803,"50":-0.33345744013786316,"51":-0.2614932954311371,"52":-0.10299718379974365,"53":-0.3646659851074219,"54":-0.3106240928173065,"55":-0.45770731568336487,"56":-0.06893107295036316,"57":-0.13976933062076569,"58":0.15829500555992126,"59":-0.14734874665737152,"60":0.16067387163639069,"61":0.17762938141822815,"62":-0.14204688370227814,"63":0.01936911791563034,"64":-0.12166067212820053,"65":-0.26571229100227356,"66":-0.41980043053627014,"67":-0.05909895524382591,"68":-0.2332804799079895,"69":-0.1360369175672531,"70":-0.3027644455432892,"71":-0.3533915579319,"72":0.017865387722849846,"73":-0.12049224972724915,"74":-0.23071175813674927,"75":0.025228336453437805,"76":-0.25947141647338867,"77":-0.3279571831226349,"78":-0.05553445219993591,"79":0.074831023812294,"80":-0.22444620728492737,"81":-0.3035239279270172,"82":-0.11034475266933441,"83":-0.08067167550325394,"84":0.0692247599363327,"85":0.2421821653842926,"86":-0.09010801464319229,"87":-0.3152030408382416,"88":-0.12715135514736176,"89":-0.02893792651593685,"90":-0.1995954066514969,"91":-0.18950895965099335,"92":-0.25438442826271057,"93":0.1320793777704239,"94":0.0763939693570137,"95":0.056177787482738495,"96":-0.024470970034599304,"97":-0.09100119769573212,"98":0.17648670077323914,"99":0.054666515439748764,"100":-0.05766286700963974,"101":0.10026459395885468,"102":0.0422101654112339,"103":-0.18481148779392242,"104":-0.025075534358620644,"105":-0.10638392716646194,"106":-0.06659910827875137,"107":0.15933160483837128,"108":0.17848505079746246,"109":0.055352989584207535,"110":-0.14381761848926544,"111":0.14369215071201324,"112":-0.18091867864131927,"113":-0.08480548858642578,"114":0.19390429556369781,"115":-0.13052251935005188,"116":-0.19409514963626862,"117":-0.046866871416568756,"118":-0.16960209608078003,"119":-0.14183272421360016}},"30":{"bias":0.0009058011928573251,"weights":{"0":-0.04070895537734032,"1":-0.11236343532800674,"2":0.06481809914112091,"3":-0.13033805787563324,"4":-0.1292256861925125,"5":-0.0655159056186676,"6":-0.1897943615913391,"7":0.05106630548834801,"8":-0.09978215396404266,"9":-0.045150864869356155,"10":-0.15165972709655762,"11":-0.13998772203922272,"12":0.1319359987974167,"13":0.18665458261966705,"14":0.013538102619349957,"15":0.05288324132561684,"16":0.08558269590139389,"17":-0.14664502441883087,"18":0.12738177180290222,"19":0.033820394426584244,"20":0.17564095556735992,"21":0.053775012493133545,"22":-0.12660925090312958,"23":0.11083273589611053,"24":-0.17917460203170776,"25":-0.07017413526773453,"26":-0.17937009036540985,"27":-0.027371101081371307,"28":0.10357897728681564,"29":-0.037499308586120605,"30":-0.053475845605134964,"31":-0.14445392787456512,"32":0.09051636606454849,"33":-0.04184123873710632,"34":0.06395630538463593,"35":-0.10695827752351761,"36":0.2503679692745209,"37":0.1313624531030655,"38":0.21808911859989166,"39":-0.16836492717266083,"40":-0.09641562402248383,"41":0.12434330582618713,"42":-0.0803440734744072,"43":0.09165243059396744,"44":-0.007910819724202156,"45":0.0005327292601577938,"46":-0.18044070899486542,"47":-0.41308584809303284,"48":-0.46445339918136597,"49":-0.5462509989738464,"50":-0.3833548426628113,"51":-0.2372262179851532,"52":-0.07891714572906494,"53":-0.1585654467344284,"54":-0.21505579352378845,"55":-0.4995185434818268,"56":-0.24354076385498047,"57":-0.27249452471733093,"58":0.1615268886089325,"59":0.2670370936393738,"60":0.33190375566482544,"61":0.19499193131923676,"62":0.1218021959066391,"63":0.15143105387687683,"64":0.011410868726670742,"65":-0.03779558837413788,"66":-0.2214607149362564,"67":-0.005112542770802975,"68":0.06516307592391968,"69":-0.18962565064430237,"70":-0.0414305254817009,"71":-0.28016480803489685,"72":-0.30254611372947693,"73":-0.08128225058317184,"74":-0.20406346023082733,"75":-0.12209245562553406,"76":-0.18085092306137085,"77":-0.32911065220832825,"78":0.0499512180685997,"79":0.035373296588659286,"80":-0.060153380036354065,"81":0.03406617417931557,"82":0.22674499452114105,"83":0.0630907490849495,"84":-0.10120377689599991,"85":0.10436734557151794,"86":0.04358181357383728,"87":0.05728458613157272,"88":-0.26058346033096313,"89":-0.14981386065483093,"90":0.12872888147830963,"91":-0.1357380747795105,"92":-0.04662947729229927,"93":0.15477733314037323,"94":-0.2461899071931839,"95":0.1346697062253952,"96":-0.13399682939052582,"97":-0.15271416306495667,"98":-0.04783204197883606,"99":-0.12519149482250214,"100":-0.1997089833021164,"101":0.1389617919921875,"102":0.03146599978208542,"103":-0.16993795335292816,"104":0.17980697751045227,"105":-0.0056260875426232815,"106":0.18079884350299835,"107":0.12267863750457764,"108":0.1613263636827469,"109":0.10787205398082733,"110":0.21527113020420074,"111":-0.14797963201999664,"112":-0.0058601973578333855,"113":0.02458578161895275,"114":0.17704178392887115,"115":-0.12611111998558044,"116":-0.1464821994304657,"117":0.11752532422542572,"118":0.09111682325601578,"119":0.11155863851308823}},"31":{"bias":-0.007937731221318245,"weights":{"0":0.07916544377803802,"1":0.11856809258460999,"2":-0.012607020325958729,"3":-0.030083073303103447,"4":-0.15422531962394714,"5":-0.1627294421195984,"6":0.19267654418945312,"7":0.04326866567134857,"8":-0.14970916509628296,"9":-0.04565323144197464,"10":-0.17634764313697815,"11":0.197730153799057,"12":-0.007732800208032131,"13":0.13008855283260345,"14":0.042134203016757965,"15":0.033409617841243744,"16":0.18846182525157928,"17":-0.07002238929271698,"18":-0.1715228110551834,"19":-0.04837363213300705,"20":0.1769562065601349,"21":0.15816453099250793,"22":-0.10018960386514664,"23":0.007658557966351509,"24":-0.061344340443611145,"25":-0.1566345989704132,"26":-0.30196401476860046,"27":-0.14141660928726196,"28":-0.14936916530132294,"29":0.09158824384212494,"30":0.19810399413108826,"31":-0.05355772376060486,"32":0.056281425058841705,"33":0.2004384696483612,"34":-0.06633878499269485,"35":-0.06840671598911285,"36":-0.05864923447370529,"37":-0.09898015111684799,"38":-0.18607072532176971,"39":0.052404630929231644,"40":-0.07667085528373718,"41":0.16457141935825348,"42":-0.13564369082450867,"43":-0.06062600016593933,"44":-0.20231211185455322,"45":0.09146302938461304,"46":0.003795522265136242,"47":-0.1554650068283081,"48":-0.31919047236442566,"49":-0.3034569025039673,"50":-0.016669198870658875,"51":-0.18213795125484467,"52":0.15200850367546082,"53":0.3660302460193634,"54":0.30958884954452515,"55":0.17045484483242035,"56":0.20643414556980133,"57":0.18585443496704102,"58":-0.241225466132164,"59":-0.032292723655700684,"60":-0.34797340631484985,"61":-0.10127311944961548,"62":-0.04180312529206276,"63":0.03180884197354317,"64":-0.3224019706249237,"65":-0.27629244327545166,"66":-0.26040831208229065,"67":-0.1922098696231842,"68":-0.1795087307691574,"69":-0.1426887810230255,"70":-0.02891090326011181,"71":-0.019467106088995934,"72":-0.22824886441230774,"73":-0.20705029368400574,"74":-0.30056485533714294,"75":-0.10802654922008514,"76":0.176554337143898,"77":0.07581079006195068,"78":0.0652785673737526,"79":0.043129805475473404,"80":0.28325262665748596,"81":0.22950997948646545,"82":-0.09935513138771057,"83":-0.1776336133480072,"84":-0.06669391691684723,"85":-0.10831849277019501,"86":0.049636684358119965,"87":-0.3792475759983063,"88":-0.3367956578731537,"89":-0.24633541703224182,"90":0.14141526818275452,"91":-0.25105804204940796,"92":-0.3585298955440521,"93":0.1468193382024765,"94":-0.027693072333931923,"95":-0.04111490026116371,"96":0.07083731144666672,"97":-0.13591594994068146,"98":-0.01505417749285698,